3001 50
212 -0.000731398 -0.0132716 0.0783595 -0.0701583 0.138999 0.263819 -0.106953 0.104693 -0.0408207 -0.0566213 -0.117738 0.0301367 0.0474705 -0.11668 -0.0805923 -0.0919194 -0.000835528 0.0126035 0.00400608 -0.0218435 -0.027401 0.0105734 -0.0293895 -0.0688307 -0.17944 0.00134528 -0.0791249 -0.0365559 -0.0412214 -0.0380706 0.0483108 0.293609 0.0548874 -0.103866 0.0626718 0.0705247 -0.0816467 -0.0740576 -0.12138 0.101464 0.0650755 -0.0612777 0.0574353 0.00969777 0.0429102 -0.00645138 0.0434307 -0.0137732 -0.0669484 0.0802376
222 0.0470071 0.0269582 0.109514 -0.0932063 0.212419 0.42343 -0.138593 0.149295 -0.0448237 -0.0627493 -0.170853 0.0442665 0.0648901 -0.151849 -0.109638 -0.136136 -0.00404023 0.0362028 -0.000404378 -0.0142368 -0.0397835 -0.00450182 -0.0486963 -0.104923 -0.245361 0.00734258 -0.095733 -0.0408118 -0.0715231 -0.0438619 0.0837028 0.40418 0.0776653 -0.114151 0.0817016 0.0926256 -0.0856328 -0.0830716 -0.165405 0.123003 0.0842955 -0.0638998 0.0533204 0.0169619 0.0526022 0.00278739 0.0397414 -0.00681536 -0.0623007 0.0674432
2959 -0.0502301 -0.0369423 0.0787714 -0.0835556 0.07474 0.14071 -0.0821541 0.0907371 -0.103411 -0.115763 -0.130529 0.0512579 0.054956 -0.175347 -0.106564 -0.103305 -0.0318889 -0.114027 0.0453936 -0.111704 -0.140569 0.0303736 -0.080119 -0.142006 -0.157673 -0.00257118 -0.0540289 -0.0411544 -0.0471257 -0.02816 0.01201 0.105663 0.0939623 -0.168264 0.0683074 0.108194 -0.202218 -0.168003 -0.105135 0.0724767 0.193954 -0.14575 -0.118484 -0.0779915 -0.105525 -0.0316756 0.143084 -0.0991742 -0.153228 0.222
1218 0.00545914 0.0116188 0.00268085 -0.000584395 0.00815586 0.0219833 -0.0093487 0.0020645 0.0121054 0.00434254 -0.00620925 0.00684946 0.00505819 -0.00836771 -0.00562167 -0.00672645 -0.00308422 0.0158278 0.00453462 0.00570455 -0.00481793 0.00403704 0.00502639 -0.0142773 -0.0176587 0.000652819 -0.00862914 -0.00088803 -0.00866032 0.00445218 0.00144621 0.0428248 0.00149686 -0.00401977 0.00713342 0.0114952 -0.00808882 -0.00805979 -0.0104996 -0.000306481 -0.00799027 0.00805615 0.018117 0.00447807 0.00666787 0.00879052 -0.00791624 -0.000540904 0.00997948 -0.00781434
2820 -0.0446303 -0.0321494 0.167535 -0.153508 0.238758 0.493527 -0.209319 0.217368 -0.135298 -0.178294 -0.275212 0.0828037 0.104719 -0.30916 -0.195637 -0.227309 -0.0276027 -0.0974225 0.044689 -0.137998 -0.171089 0.0360254 -0.104291 -0.205227 -0.34656 -0.00674047 -0.148896 -0.0768974 -0.104613 -0.081191 0.0992376 0.488663 0.17434 -0.275123 0.150901 0.197357 -0.289952 -0.239149 -0.254715 0.189041 0.269833 -0.203055 -0.0381028 -0.0605796 -0.0284504 -0.0359269 0.16432 -0.099334 -0.194003 0.256305
0 0.394651 0.359684 0.391839 -0.401407 0.818058 1.62887 -0.426004 0.47743 0.034815 -0.0107165 -0.604324 0.178857 0.13516 -0.368839 -0.326663 -0.394819 0.0320261 0.102159 -0.0248798 -0.0188683 -0.185133 0.0282006 -0.175611 -0.354455 -0.755306 -0.0231079 -0.27027 -0.165773 -0.253327 -0.138462 0.221099 1.54756 0.230854 -0.250004 0.202407 0.250702 -0.367623 -0.334793 -0.348883 0.266312 0.498611 -0.392603 -0.601641 -0.256215 -0.528496 -0.0563871 0.693198 -0.464623 -0.633462 0.875626
555 -0.0702849 -0.0635297 0.0485726 -0.0307099 -0.000496056 -0.00511564 -0.0377871 0.0375667 -0.0821282 -0.104528 -0.0665873 0.0238056 0.0498342 -0.137131 -0.0597278 -0.0671292 -0.0286721 -0.130239 0.0351934 -0.111731 -0.123893 0.0135416 -0.0619428 -0.0973552 -0.0730473 -0.00189667 -0.0257049 -0.0169764 -0.0174488 -0.0157388 -0.00013263 -0.00875054 0.0812349 -0.116787 0.0554966 0.0816714 -0.178215 -0.13566 -0.0418773 0.0435449 0.162903 -0.132067 -0.131142 -0.0713542 -0.0992699 -0.0302508 0.125103 -0.0793605 -0.132057 0.174144
3000 -0.0424255 -0.0452491 0.0333428 -0.0431325 0.013445 0.0281596 -0.0579399 0.0466539 -0.0808089 -0.0933057 -0.0732436 0.0190891 0.0466847 -0.134845 -0.0773792 -0.0762783 -0.0297731 -0.109804 0.0455754 -0.105364 -0.120889 0.0272102 -0.0553881 -0.0882689 -0.06464 -0.00269184 -0.0149911 -0.0182112 -0.0151226 -0.0212651 -0.00452676 -0.00961052 0.0673205 -0.10855 0.0389941 0.0903396 -0.169729 -0.125179 -0.0468032 0.033588 0.142337 -0.122759 -0.104047 -0.0632958 -0.102912 -0.0130462 0.115452 -0.0797618 -0.127753 0.168659
2873 0.00218706 0.00302484 0.135059 -0.104134 0.222346 0.419693 -0.149281 0.138865 -0.0625837 -0.0748378 -0.189318 0.0468685 0.0627802 -0.185234 -0.140064 -0.171975 -0.0075718 -0.0165241 0.0150625 -0.0653686 -0.0824041 0.0233344 -0.0696837 -0.132939 -0.273567 -0.00295936 -0.125771 -0.0489125 -0.0854734 -0.0647454 0.0770802 0.437182 0.1118 -0.170158 0.100041 0.128615 -0.137735 -0.128232 -0.191851 0.125368 0.134441 -0.110038 0.0466608 -0.00663561 0.0299511 -0.016628 0.0823985 -0.0374553 -0.116836 0.13439
2948 -0.0657765 -0.0596863 0.0366818 -0.0351955 -0.0129941 -0.0174488 -0.023451 0.0433529 -0.0834307 -0.0846515 -0.0412134 0.0273958 0.0336665 -0.1148 -0.0482715 -0.0602652 -0.0255114 -0.122334 0.0484318 -0.0969477 -0.124068 0.0178471 -0.0411449 -0.0834809 -0.0609974 -0.00958383 -0.0203777 -0.00385353 -0.0152053 -0.00954725 -0.0145286 -0.0361943 0.0771122 -0.121961 0.0401758 0.071521 -0.169632 -0.139947 -0.0350886 0.0271312 0.158379 -0.125127 -0.12807 -0.0756139 -0.105137 -0.014896 0.118091 -0.0876621 -0.120501 0.183841
1036 -0.0595506 -0.0648804 0.0378312 -0.0280102 0.00686886 -0.00393101 -0.0525951 0.0536881 -0.0959367 -0.100468 -0.0755249 0.0368314 0.0523331 -0.132783 -0.062129 -0.0686048 -0.034038 -0.129908 0.0427534 -0.0984638 -0.133609 0.0230419 -0.0541952 -0.0920414 -0.0763443 -0.00972553 -0.0321984 -0.0268786 -0.0149384 -0.0129401 0.00251455 -0.0125479 0.0858246 -0.1221 0.0419911 0.0831921 -0.18612 -0.1325 -0.0582442 0.0346347 0.16355 -0.120278 -0.127683 -0.0718923 -0.0996419 -0.0303326 0.135305 -0.0854314 -0.139565 0.189397
937 -0.0471226 -0.0428647 0.0738808 -0.0556751 0.0591293 0.135667 -0.0778127 0.0810178 -0.074861 -0.0858955 -0.110865 0.0420253 0.0529759 -0.155661 -0.0714142 -0.101689 -0.026391 -0.0837422 0.0310096 -0.0967201 -0.10812 0.0223942 -0.0503113 -0.103939 -0.116505 -0.00874052 -0.0434478 -0.0294565 -0.0365673 -0.0271734 0.0065138 0.0865274 0.0852614 -0.12406 0.063942 0.0892652 -0.156867 -0.135357 -0.0777986 0.0622314 0.15836 -0.130653 -0.079096 -0.065606 -0.0825984 -0.0269104 0.112836 -0.0859618 -0.129552 0.174114
1670 -0.0525948 -0.0422046 0.0968606 -0.0915535 0.137934 0.276881 -0.133025 0.136514 -0.092909 -0.113659 -0.165156 0.0632725 0.0710433 -0.216236 -0.128489 -0.148006 -0.0168318 -0.064318 0.0361066 -0.102646 -0.115126 0.016658 -0.0900516 -0.16503 -0.247808 -0.0173941 -0.108669 -0.0450342 -0.0776602 -0.0566483 0.0522931 0.303253 0.113655 -0.183679 0.0934625 0.139416 -0.203515 -0.172962 -0.17771 0.132147 0.188994 -0.147428 -0.0293521 -0.048305 -0.0282373 -0.027104 0.149753 -0.0921032 -0.174028 0.215578
1996 -0.0517195 -0.0462776 0.0651953 -0.0442564 0.0441796 0.108579 -0.0766255 0.0780898 -0.0841851 -0.107943 -0.0850691 0.0377942 0.0413734 -0.147524 -0.0867487 -0.0954117 -0.0235736 -0.082323 0.0195137 -0.0691794 -0.0938412 0.00803691 -0.058472 -0.102363 -0.114788 -0.0148051 -0.033946 -0.0209197 -0.0238099 -0.0178766 0.0193206 0.106997 0.0878106 -0.137701 0.070937 0.0996673 -0.17814 -0.128858 -0.102557 0.0745274 0.172542 -0.118334 -0.0673176 -0.0505073 -0.0601303 -0.0218674 0.123003 -0.0810832 -0.128558 0.177128
2826 -0.0735571 -0.0699121 0.0676209 -0.056183 0.0467978 0.100468 -0.0733508 0.0764973 -0.0833979 -0.111529 -0.0900563 0.0426075 0.043614 -0.157599 -0.0848829 -0.100135 -0.0313871 -0.108701 0.0405226 -0.091005 -0.111127 0.0164596 -0.0603433 -0.121431 -0.131604 -0.00816888 -0.0471575 -0.027194 -0.04485 -0.0331689 0.0192647 0.137667 0.0939544 -0.153113 0.0758495 0.0987871 -0.183317 -0.13827 -0.11484 0.0950505 0.178142 -0.129624 -0.0518825 -0.0483351 -0.054274 -0.0312926 0.120455 -0.071582 -0.132035 0.191242
2103 -0.033884 -0.0340869 0.070261 -0.0588575 0.0763036 0.142323 -0.0875481 0.0802194 -0.090423 -0.102272 -0.129182 0.0394953 0.0508819 -0.189792 -0.103024 -0.10735 -0.0294301 -0.107197 0.0429423 -0.106352 -0.130131 0.0252306 -0.0565281 -0.106491 -0.138453 -0.0152586 -0.0477964 -0.0357845 -0.0497553 -0.0262384 0.0172977 0.10341 0.084484 -0.145646 0.0682094 0.096942 -0.188005 -0.162245 -0.0810348 0.062408 0.168139 -0.136489 -0.0974036 -0.052241 -0.0804383 -0.0138833 0.126818 -0.0786697 -0.131036 0.173484
2334 -0.06487 -0.0577479 0.0347149 -0.0201963 -0.00627958 0.00100186 -0.0405198 0.0400203 -0.0752269 -0.104056 -0.0533477 0.0170007 0.0409046 -0.123574 -0.063636 -0.068408 -0.0262618 -0.111592 0.0274084 -0.0901572 -0.113209 0.0147221 -0.0448312 -0.0885269 -0.0545333 0.00112308 -0.0269974 -0.0182325 -0.0159905 -0.00979857 -0.00470067 -0.00185319 0.0714218 -0.120236 0.0559305 0.0806942 -0.167394 -0.133067 -0.0619139 0.0501477 0.140286 -0.113585 -0.0852332 -0.0545077 -0.0764943 -0.0180566 0.121462 -0.0699882 -0.1176 0.14643
900 -0.0645046 -0.0520221 0.0616948 -0.0429372 0.0277325 0.0712282 -0.0587458 0.064172 -0.0891869 -0.113592 -0.0907904 0.0424646 0.0488722 -0.153996 -0.088179 -0.0945475 -0.0280341 -0.123732 0.0401981 -0.109831 -0.1526 0.028193 -0.0632867 -0.111054 -0.110789 -0.00670497 -0.0414217 -0.0143543 -0.0347828 -0.0246297 0.0144544 0.0398976 0.098789 -0.149202 0.0574974 0.10676 -0.198837 -0.161243 -0.0758073 0.0544169 0.168303 -0.143124 -0.120429 -0.0803385 -0.104258 -0.0315146 0.142261 -0.0907708 -0.153967 0.202567
955 0.0160134 0.0168363 0.0641326 -0.0572872 0.130956 0.249454 -0.0651929 0.0739174 -0.0102005 -0.00560398 -0.0941899 0.0204518 0.0244242 -0.0643924 -0.045049 -0.0629974 -0.000201703 0.0499141 -0.00510179 0.0164453 0.0182137 -0.00309721 -0.0198168 -0.0454507 -0.129455 0.00145676 -0.0578705 -0.0199872 -0.0389454 -0.0214773 0.0518886 0.2827 0.0379903 -0.0514981 0.027365 0.0319758 -0.0137048 -0.0247547 -0.0961407 0.0692234 0.0282889 -0.0200105 0.0800888 0.0302586 0.0582982 0.00504384 -0.00830495 0.0271356 -0.0105813 0.00478042
2830 -0.0461369 -0.0444595 0.19745 -0.16248 0.283589 0.564706 -0.246649 0.24144 -0.155153 -0.174687 -0.326618 0.0896001 0.119482 -0.360085 -0.222207 -0.272106 -0.0423672 -0.0945632 0.0436896 -0.136703 -0.174489 0.0387302 -0.127243 -0.241307 -0.4117 -0.006591 -0.168487 -0.0954139 -0.118074 -0.0806094 0.0962166 0.557282 0.187091 -0.28615 0.159429 0.211451 -0.292212 -0.250346 -0.293906 0.218176 0.270957 -0.207385 -0.0215572 -0.0446705 -0.0155338 -0.0291025 0.173613 -0.090868 -0.217244 0.290049
417 -0.0619977 -0.0611753 0.0322087 -0.029655 0.00788239 0.0210626 -0.0459608 0.0525582 -0.0985729 -0.0962759 -0.0747345 0.0386547 0.0410397 -0.142519 -0.0776717 -0.0777647 -0.021902 -0.126306 0.0464948 -0.100765 -0.135126 0.024974 -0.0632308 -0.109806 -0.0743816 -0.00959402 -0.0202581 -0.0241548 -0.0280728 -0.00823217 -0.00797262 0.000183269 0.0750376 -0.132589 0.0518362 0.0798426 -0.178392 -0.136648 -0.0485828 0.0407651 0.165899 -0.135618 -0.12934 -0.0776477 -0.103868 -0.0314436 0.135236 -0.0971654 -0.145103 0.182816
546 -0.0606288 -0.059499 0.0507029 -0.0395445 0.0268946 0.041066 -0.0619931 0.0589636 -0.0881092 -0.117572 -0.0908713 0.0317293 0.0493434 -0.166358 -0.0820472 -0.0896508 -0.0174783 -0.126404 0.0520613 -0.108036 -0.150888 0.0175214 -0.0670374 -0.114903 -0.103779 -0.0108141 -0.0424462 -0.0159348 -0.0338557 -0.0267592 0.00847163 0.0285346 0.0952657 -0.152156 0.059746 0.0912298 -0.210333 -0.166854 -0.0719056 0.063063 0.182092 -0.140641 -0.12725 -0.0700949 -0.111044 -0.0301978 0.133591 -0.098136 -0.155703 0.1921
2070 -0.058282 -0.0583128 0.0403172 -0.0424322 -0.00153376 0.010177 -0.0492195 0.0508504 -0.0882852 -0.0940718 -0.0563846 0.0293847 0.0386452 -0.127596 -0.0693618 -0.0748587 -0.0231056 -0.125318 0.0494979 -0.0976694 -0.130336 0.0131622 -0.0463133 -0.0890818 -0.0845178 -0.00828229 -0.0204158 -0.0163159 -0.0218635 -0.0223937 -0.00522496 -0.00281653 0.0726587 -0.134231 0.0415383 0.0930442 -0.185162 -0.141006 -0.046103 0.0377449 0.181504 -0.138722 -0.132629 -0.0694631 -0.113242 -0.0277576 0.134164 -0.0950643 -0.138089 0.201449
256 0.00518824 -0.000453197 0.0764722 -0.0602939 0.131213 0.265332 -0.0934924 0.0862017 -0.0288218 -0.0362264 -0.12302 0.0245459 0.0371308 -0.121773 -0.0711398 -0.101996 -0.0128892 0.00140169 0.0100727 -0.0190531 -0.0324678 0.0141316 -0.0333243 -0.0772868 -0.16796 0.00398943 -0.0673977 -0.0261972 -0.0405502 -0.0370332 0.0507433 0.265907 0.0540019 -0.0799425 0.0421512 0.0586361 -0.0512677 -0.0608233 -0.118106 0.0759351 0.0648965 -0.0438933 0.0375964 0.014146 0.0330339 -0.00545053 0.0283198 -0.0112436 -0.0443111 0.0590193
2613 -0.0112151 -0.00384348 0.097113 -0.0785733 0.134818 0.266705 -0.104797 0.105638 -0.0796662 -0.0947738 -0.160668 0.0523175 0.0673779 -0.194904 -0.116444 -0.146218 -0.0273328 -0.0729737 0.0222659 -0.078262 -0.118974 0.0124888 -0.0642056 -0.134382 -0.200497 -0.00400846 -0.0763397 -0.0362899 -0.0687142 -0.0485449 0.0339643 0.244272 0.104926 -0.162632 0.0868006 0.109982 -0.175758 -0.150578 -0.135576 0.0915279 0.181106 -0.139253 -0.0664824 -0.0495729 -0.0554325 -0.015223 0.11905 -0.0728375 -0.127049 0.169981
265 0.00851254 0.010151 0.108664 -0.0939239 0.176104 0.365286 -0.139256 0.130153 -0.0510722 -0.0773828 -0.174863 0.0458078 0.0532787 -0.17518 -0.11279 -0.140488 -0.00517254 -0.00578707 0.00181066 -0.0426581 -0.0439404 0.0113436 -0.059562 -0.100563 -0.246935 -0.00193287 -0.110362 -0.055374 -0.0619688 -0.0616642 0.0633832 0.388361 0.0938099 -0.124686 0.0876867 0.0919771 -0.118571 -0.0991658 -0.163297 0.12897 0.115593 -0.0754503 0.0424443 0.00671339 0.0370332 -0.010849 0.0391863 -0.0163456 -0.0697984 0.101707
392 0.0303315 0.0298898 0.0782237 -0.0660635 0.176163 0.349777 -0.106687 0.102623 -0.0041359 -0.00960032 -0.128017 0.037021 0.0337691 -0.100452 -0.0831661 -0.0903281 0.00968707 0.0592199 -0.00275319 0.0198465 0.0121784 -0.0110798 -0.0217549 -0.0662849 -0.201341 0.00937961 -0.0846116 -0.0369491 -0.0537852 -0.0549317 0.0768402 0.394535 0.0566856 -0.0712842 0.0615362 0.06088 -0.0310528 -0.0382584 -0.154969 0.0998083 0.0238497 -0.015992 0.115113 0.0502754 0.0895633 0.00602715 -0.0102286 0.0324973 -0.00130116 0.00655182
626 0.0157943 0.0053378 0.240318 -0.196491 0.370267 0.759016 -0.273392 0.266346 -0.111184 -0.159734 -0.363389 0.116129 0.116624 -0.354353 -0.2564 -0.319379 -0.0195829 -0.0320017 0.0170783 -0.107993 -0.141261 0.015627 -0.129592 -0.239502 -0.499838 -0.00229044 -0.217607 -0.0963571 -0.154987 -0.116791 0.143168 0.739161 0.163078 -0.259521 0.159312 0.205523 -0.234752 -0.21245 -0.303683 0.212088 0.199087 -0.160488 0.0739147 -0.00287011 0.0469527 -0.0186921 0.104784 -0.0359497 -0.157128 0.206376
407 0.0027497 0.00635448 0.0682847 -0.0547945 0.109824 0.22465 -0.0762914 0.0757638 -0.0297272 -0.0463283 -0.110679 0.032721 0.0405247 -0.100151 -0.0621084 -0.09054 0.00169205 -0.00471365 0.0106898 -0.0217869 -0.0275131 0.00378961 -0.0384983 -0.066951 -0.16509 0.00564154 -0.0754774 -0.02332 -0.0519245 -0.0305436 0.0382573 0.248425 0.0490087 -0.0867263 0.0596569 0.0650848 -0.0721653 -0.0696332 -0.111921 0.0723983 0.0646268 -0.0454375 0.0348389 -0.00219216 0.0134045 -0.0131145 0.0309836 -0.0147487 -0.0557537 0.0586751
2150 0.0210302 0.0314554 0.161535 -0.12746 0.271912 0.558215 -0.202137 0.204276 -0.0884069 -0.103752 -0.26548 0.073232 0.0955987 -0.248049 -0.174376 -0.212401 -0.00562907 -0.0072022 0.00287162 -0.0621595 -0.076669 0.0163778 -0.0896476 -0.146449 -0.318473 0.00634655 -0.1275 -0.0653272 -0.0974296 -0.0653256 0.0802871 0.503008 0.107572 -0.181779 0.108292 0.147967 -0.158164 -0.141956 -0.201975 0.145489 0.152543 -0.11008 0.0424381 0.00626921 0.0312772 -0.0181817 0.0744689 -0.0275437 -0.0952096 0.133979
2152 -0.0188666 -0.0252778 0.0967366 -0.0710828 0.109138 0.223013 -0.103866 0.122052 -0.0848925 -0.0962206 -0.149327 0.0431585 0.0573993 -0.19019 -0.109877 -0.132323 -0.0236203 -0.0873628 0.0250225 -0.092664 -0.119064 0.0206497 -0.0777653 -0.124607 -0.165966 0.000953463 -0.0726038 -0.0360292 -0.0510364 -0.0425454 0.0319097 0.198146 0.0938932 -0.150473 0.0885377 0.124269 -0.196526 -0.152503 -0.112652 0.098223 0.178933 -0.142469 -0.0853351 -0.0612163 -0.0700395 -0.0131238 0.114734 -0.0697412 -0.135728 0.177012
1718 -0.000978076 -0.00904204 0.0721252 -0.0564312 0.106328 0.207611 -0.0794661 0.0790574 -0.0438662 -0.0498002 -0.112554 0.0263673 0.0376205 -0.119302 -0.0763362 -0.0818314 -0.00481432 -0.0171619 0.0168619 -0.0312224 -0.048297 0.0137309 -0.0365343 -0.0800539 -0.151706 -0.00657318 -0.0607704 -0.0347856 -0.0426004 -0.0342281 0.0422555 0.208908 0.0713017 -0.107632 0.0502929 0.0719186 -0.101777 -0.0916524 -0.0991137 0.0802417 0.090791 -0.0739348 0.00776816 -0.013285 0.00777308 -0.00437034 0.0480775 -0.0352693 -0.0737303 0.0839559
2688 -0.0759848 -0.0641634 0.0503449 -0.05531 0.0343922 0.0551727 -0.064078 0.0734755 -0.105289 -0.120795 -0.0995512 0.0309329 0.0622337 -0.173325 -0.0819433 -0.0948227 -0.0240749 -0.124632 0.0501135 -0.115986 -0.151079 0.0295207 -0.0756133 -0.117976 -0.110691 -0.0146783 -0.0291433 -0.0177164 -0.0307164 -0.0253644 0.0060921 0.0447385 0.105957 -0.170894 0.0640194 0.104726 -0.214699 -0.180987 -0.0855041 0.0611736 0.200066 -0.140439 -0.130089 -0.0715631 -0.0999859 -0.0319857 0.161963 -0.110691 -0.149926 0.203472
2859 -0.0399111 -0.0441033 0.0353555 -0.0401529 0.0152331 0.0417396 -0.0468747 0.0510268 -0.0732671 -0.0716951 -0.062074 0.0199077 0.0422077 -0.104376 -0.0676307 -0.060336 -0.0215858 -0.0856282 0.039558 -0.0871589 -0.106993 0.00684261 -0.0356035 -0.0784518 -0.0663317 -0.0131897 -0.0190715 -0.0220924 -0.0195531 -0.0184077 0.00296042 0.0213104 0.0717284 -0.110521 0.0500291 0.081876 -0.153421 -0.114087 -0.0591194 0.0456389 0.136062 -0.104677 -0.0939902 -0.0593592 -0.0731277 -0.0274212 0.115621 -0.0704387 -0.116709 0.15494
2331 -0.0664028 -0.0581881 0.0538935 -0.0404519 0.00495738 0.0259624 -0.0506742 0.0628524 -0.0823787 -0.106989 -0.0868835 0.0239719 0.0462326 -0.139342 -0.075344 -0.0935182 -0.0256867 -0.116868 0.0317452 -0.101635 -0.124103 0.031964 -0.0643559 -0.108922 -0.108171 -0.014897 -0.0368713 -0.0232711 -0.0324027 -0.0130164 0.00345853 0.0354089 0.0784078 -0.132107 0.052215 0.0927716 -0.195495 -0.144102 -0.0687201 0.0610924 0.186953 -0.14582 -0.121388 -0.0632486 -0.0948483 -0.0208323 0.142531 -0.0995803 -0.152046 0.185177
794 0.0338841 0.0277139 0.105728 -0.0994607 0.203492 0.408542 -0.124452 0.142167 -0.0363293 -0.0406414 -0.174435 0.0559904 0.0550586 -0.155974 -0.111841 -0.1315 0.00064919 0.0342625 -0.0069386 -0.00581266 -0.033844 0.00912569 -0.0601561 -0.103475 -0.246868 -0.00238202 -0.0993438 -0.0559531 -0.0685062 -0.0503799 0.0871075 0.42469 0.0716843 -0.108264 0.0824479 0.0945609 -0.0761358 -0.083261 -0.163402 0.118366 0.0863403 -0.0618827 0.0723974 0.016486 0.0631374 0.00276544 0.0189865 -0.00637373 -0.0618465 0.0730617
1834 -0.0665523 -0.0640334 0.0462653 -0.0529971 0.0159575 0.0157353 -0.0462667 0.0422122 -0.0859981 -0.111139 -0.0661209 0.0301876 0.0409021 -0.146956 -0.0683693 -0.0795782 -0.0227257 -0.119191 0.0492045 -0.109147 -0.137601 0.0189609 -0.0692779 -0.0976321 -0.0856739 -0.0172875 -0.0209437 -0.0149454 -0.0264499 -0.0232589 0.00281958 0.000584365 0.0754571 -0.128431 0.0603753 0.0784799 -0.194413 -0.147746 -0.0612379 0.0481489 0.182147 -0.137118 -0.132296 -0.0822364 -0.109896 -0.0182475 0.13664 -0.0826583 -0.148431 0.181365
694 0.0310973 0.0173139 0.0814611 -0.0733181 0.156992 0.302859 -0.0943094 0.0868709 -0.0120506 -0.033007 -0.124813 0.0365149 0.0314054 -0.0967809 -0.0779583 -0.0862995 -0.00203639 0.0406053 -0.00937671 -0.011684 -0.0223113 -0.00327198 -0.0270362 -0.0645285 -0.186383 -0.00472881 -0.0881726 -0.0430323 -0.0472771 -0.0344784 0.0597229 0.322784 0.0560035 -0.0797567 0.0521599 0.0438481 -0.0354945 -0.0476023 -0.11225 0.0742595 0.0530558 -0.039414 0.0513932 0.0187413 0.0451742 -0.0117806 0.0125383 -0.00517897 -0.0337654 0.0388123
2599 -0.0606921 -0.0528577 0.0434639 -0.0303029 -0.00455918 -0.00592633 -0.0498729 0.0489632 -0.0810606 -0.0847157 -0.0502713 0.0212767 0.0405465 -0.130043 -0.0631199 -0.0676437 -0.0179566 -0.114749 0.0382188 -0.0937765 -0.130027 0.0300045 -0.0509117 -0.0920841 -0.0609493 -0.0135693 -0.0235385 -0.0127288 -0.0192908 -0.00569271 0.00225543 -0.0300141 0.070095 -0.12376 0.0484657 0.0754981 -0.190251 -0.136801 -0.0519207 0.0457603 0.163982 -0.127598 -0.13283 -0.0662097 -0.1107 -0.0279854 0.138802 -0.100287 -0.128553 0.172351
898 -0.00984026 -0.0182227 0.0940869 -0.0876135 0.155903 0.335214 -0.128557 0.120001 -0.0537314 -0.0827199 -0.157092 0.0472678 0.0668247 -0.155477 -0.0986672 -0.127599 -0.00765473 -0.00419242 0.00194325 -0.0350722 -0.0465061 0.00584821 -0.044526 -0.105096 -0.209892 0.00182215 -0.0896233 -0.0387127 -0.072554 -0.047815 0.0697526 0.387319 0.092434 -0.136972 0.0783427 0.113378 -0.120227 -0.111217 -0.175634 0.125987 0.122436 -0.0913249 0.0505627 -0.00515621 0.0444873 -0.00759305 0.045377 -0.026478 -0.0744862 0.0958398
1157 -0.0426946 -0.0394273 0.0582201 -0.0668414 0.0710275 0.135398 -0.0882422 0.0726333 -0.0971348 -0.106954 -0.119447 0.0302073 0.0540947 -0.157985 -0.0881926 -0.0992315 -0.0211237 -0.0796632 0.0219436 -0.0859458 -0.107622 0.0131384 -0.0577056 -0.110311 -0.132726 -0.00896889 -0.0560339 -0.0182195 -0.0358241 -0.0359393 0.0247796 0.133407 0.0892554 -0.136106 0.0741381 0.095696 -0.175913 -0.139952 -0.0999301 0.0807088 0.167796 -0.125751 -0.0567208 -0.0560144 -0.0538601 -0.0165745 0.119525 -0.072719 -0.133765 0.173845
61 -0.017408 -0.0166619 0.0508219 -0.034861 0.0840323 0.170179 -0.0618959 0.0569563 -0.0337765 -0.0303693 -0.0745003 0.0290668 0.0245597 -0.0909963 -0.0516443 -0.0755266 0.00493815 -0.00547807 0.00874748 -0.0148752 -0.0198926 0.0119112 -0.0242782 -0.0634523 -0.105013 -0.000559965 -0.0561565 -0.0154596 -0.0357186 -0.0198695 0.0434563 0.225067 0.0343146 -0.0797658 0.0368346 0.0611547 -0.0573198 -0.0481488 -0.0925526 0.0707082 0.0579088 -0.0400561 0.0328657 -0.00143345 0.0421805 -0.0131449 0.0297207 0.00296404 -0.0308644 0.047562
2671 -0.010378 -0.013822 0.0964362 -0.0716248 0.140605 0.274648 -0.122216 0.125246 -0.068766 -0.079057 -0.153046 0.0385224 0.0537878 -0.157332 -0.108022 -0.129508 -0.0182736 -0.0315066 0.0153243 -0.0503143 -0.0771856 0.0147681 -0.0672215 -0.107396 -0.217981 -0.00821121 -0.0906097 -0.0382644 -0.0639869 -0.0376447 0.0623821 0.320415 0.100501 -0.147499 0.0849908 0.115217 -0.159449 -0.138848 -0.163045 0.128918 0.150508 -0.10131 0.000907767 -0.0246125 0.00131202 -0.0103809 0.0819303 -0.056179 -0.110459 0.144469
2081 -0.0610381 -0.0626904 0.0311059 -0.032323 0.00307209 -0.01016 -0.0311463 0.0450969 -0.0701406 -0.0919528 -0.0614411 0.0291601 0.0311112 -0.124826 -0.0640255 -0.0698696 -0.0153126 -0.114175 0.040003 -0.0879081 -0.122686 0.027499 -0.0380749 -0.0926639 -0.0518452 -0.0171855 -0.0210681 -0.00836565 -0.022502 -0.00735791 -0.0126758 -0.0229447 0.0668042 -0.109207 0.0518757 0.0729124 -0.163809 -0.115584 -0.0343252 0.0325759 0.146391 -0.106744 -0.117496 -0.0605998 -0.0892617 -0.0189987 0.121984 -0.0815022 -0.123695 0.168937
1911 -0.0679924 -0.0618525 0.0373863 -0.0252524 -0.00532483 -0.0242726 -0.0328682 0.0413657 -0.0761507 -0.09362 -0.0471007 0.0211805 0.0283803 -0.107705 -0.0498941 -0.0599746 -0.025069 -0.119034 0.0472659 -0.0922624 -0.108757 0.0266076 -0.0458746 -0.0756982 -0.0391444 -0.00151389 -0.00455738 -0.0157053 -0.00651416 -0.0188932 -0.0115282 -0.0444541 0.064039 -0.100122 0.0451645 0.0677627 -0.17642 -0.125652 -0.0491637 0.0326728 0.159454 -0.123803 -0.1236 -0.0695634 -0.0933024 -0.017576 0.124811 -0.0807844 -0.116982 0.161418
182 0.0156362 0.0145343 0.0634956 -0.0473184 0.12712 0.267582 -0.0855973 0.0727592 -0.00420539 -0.00280155 -0.0905944 0.0211657 0.0227943 -0.0699997 -0.049999 -0.0733052 -0.000838492 0.060031 -0.0159157 0.00851577 0.0189606 -0.00729801 -0.0244068 -0.0426098 -0.140365 0.0105548 -0.0637898 -0.0275852 -0.0454003 -0.0341981 0.0514906 0.30247 0.0352379 -0.0502239 0.034822 0.035313 -0.010127 -0.0251802 -0.104785 0.0787514 0.014198 -0.00661307 0.0851119 0.0244587 0.0742377 0.00571106 -0.0112081 0.0127069 -0.0144877 0.00733798
396 0.00726968 0.00192478 0.120003 -0.0943298 0.226513 0.432804 -0.172858 0.173028 -0.0816181 -0.0847034 -0.212757 0.0540091 0.0723598 -0.191469 -0.125733 -0.157684 -0.0123761 0.0053681 0.00153781 -0.0462471 -0.0383242 0.00782585 -0.0539572 -0.117539 -0.271164 0.00517664 -0.111344 -0.0603901 -0.0714579 -0.0657954 0.0871367 0.468009 0.107559 -0.168932 0.097655 0.12053 -0.144835 -0.128549 -0.210212 0.14829 0.139817 -0.0952924 0.078819 0.0120992 0.0624131 -0.0162967 0.0614809 -0.00720117 -0.0744182 0.109206
1255 -0.00365835 0.00730561 0.0692045 -0.0516855 0.120785 0.236752 -0.089408 0.0819108 -0.0190981 -0.0273087 -0.10522 0.0284841 0.024585 -0.0901478 -0.0661074 -0.0810094 -0.014415 0.014401 -0.000710112 -0.0247613 -0.0325501 0.0118721 -0.0348149 -0.0701478 -0.147869 0.00696011 -0.0744737 -0.0386401 -0.0518969 -0.0439991 0.0433232 0.27042 0.0468815 -0.077781 0.0479374 0.06923 -0.0545294 -0.0596321 -0.114032 0.0662699 0.0666125 -0.0504153 0.0274002 0.00474554 0.0300447 -0.0146006 0.0195407 -0.00642736 -0.0403179 0.0645672
68 0.0180196 0.0168449 0.0680166 -0.0460024 0.128236 0.254285 -0.0912668 0.0852219 -0.0171031 -0.030343 -0.114634 0.0317162 0.0408054 -0.0892626 -0.065004 -0.0887641 -0.00564435 0.0316575 0.00187181 0.00505758 -0.00510831 -0.00339642 -0.0357362 -0.0590772 -0.15823 0.00447989 -0.0778909 -0.0217258 -0.0418802 -0.0372771 0.0644349 0.308387 0.0413893 -0.0643314 0.0450896 0.0511986 -0.0351776 -0.0363936 -0.11906 0.0743022 0.0504887 -0.0263687 0.0729404 0.016785 0.0484439 -0.00829622 0.0154472 0.00746113 -0.0273222 0.0327332
92 0.0274765 0.0317002 0.113428 -0.0895642 0.188497 0.371145 -0.115335 0.127611 -0.0318567 -0.047255 -0.16991 0.0531634 0.0546204 -0.137853 -0.109567 -0.134517 -0.010592 0.0188466 0.0124402 -0.0248519 -0.0430094 -5.24414e-05 -0.039695 -0.101234 -0.242464 0.00245376 -0.109662 -0.0596554 -0.0707056 -0.0517633 0.0641372 0.388448 0.065839 -0.100091 0.062155 0.0831579 -0.0677451 -0.0675265 -0.144379 0.0953972 0.0839803 -0.0481471 0.0538514 0.0128096 0.0371865 -0.00253597 0.0193666 -0.000370998 -0.0530095 0.0641377
1022 0.0361612 0.0403396 0.0724458 -0.062826 0.144718 0.307779 -0.0843238 0.0904918 0.00405508 -0.0104032 -0.122601 0.0255972 0.0202956 -0.0824438 -0.0746991 -0.0795303 0.00741201 0.0605492 -0.0169998 0.0079847 0.0126347 0.000153204 -0.0329098 -0.0483322 -0.158317 0.0113583 -0.0763216 -0.0352489 -0.0392947 -0.0281071 0.0642792 0.29496 0.0356868 -0.0416078 0.0399308 0.044792 -0.00523206 -0.0230328 -0.106977 0.0600059 0.00842102 -0.0030499 0.0857318 0.0318894 0.0662269 0.00459237 -0.0198165 0.0163014 -0.00674379 0.0137603
1897 0.0100131 0.0202666 0.0809378 -0.0597031 0.148859 0.304267 -0.0994427 0.0852912 -0.0140498 -0.0308654 -0.10693 0.0206502 0.0413651 -0.0961871 -0.066791 -0.0966247 0.00161648 0.0424804 -0.0159677 0.00187925 -0.0013496 -0.00746632 -0.0304784 -0.0658251 -0.166964 -0.00315751 -0.0840661 -0.0398866 -0.040911 -0.0368062 0.0603505 0.32855 0.0408833 -0.0715122 0.0535092 0.0516072 -0.0329989 -0.0407662 -0.126911 0.0756555 0.0428796 -0.0243441 0.0828754 0.0161988 0.0711993 -0.00990965 -0.00539442 0.00940896 -0.0287894 0.0157949
2459 0.0199974 0.0300797 0.12564 -0.101524 0.226641 0.458688 -0.144271 0.149886 -0.0470837 -0.0628216 -0.208577 0.0648632 0.0690222 -0.19383 -0.13329 -0.174762 -0.019404 -0.00267309 -0.0015682 -0.04187 -0.0637858 0.0197205 -0.0682328 -0.111146 -0.252108 0.00261577 -0.10485 -0.0499531 -0.0898523 -0.0665926 0.0681385 0.41119 0.0854996 -0.13348 0.0857874 0.0962081 -0.119314 -0.104363 -0.158465 0.103762 0.0836567 -0.0566737 0.0602801 0.0179578 0.0378753 -0.0162665 0.0433406 -0.00238291 -0.0566107 0.0865708
2758 -0.0222589 -0.0231756 0.150829 -0.124833 0.20722 0.425562 -0.163127 0.16631 -0.0880879 -0.110237 -0.214897 0.0583767 0.0917802 -0.232861 -0.152865 -0.189404 -0.0149922 -0.0803944 0.0316548 -0.11102 -0.128276 0.0177459 -0.0816361 -0.160353 -0.27983 -0.0135037 -0.113479 -0.0672168 -0.0775061 -0.0645076 0.0797783 0.376394 0.131841 -0.201415 0.110135 0.133245 -0.194103 -0.171523 -0.182593 0.140115 0.174269 -0.131151 -0.00549338 -0.0370542 -0.0151244 -0.0121747 0.120382 -0.0763658 -0.154949 0.212396
1171 0.0436377 0.0513861 0.206557 -0.192723 0.349561 0.713323 -0.237297 0.251924 -0.0925134 -0.124063 -0.31922 0.0895093 0.0987204 -0.294138 -0.203071 -0.250252 -0.0231873 0.0119358 0.0106087 -0.0847522 -0.1047 0.0199018 -0.103496 -0.17924 -0.430292 0.000912183 -0.186222 -0.093111 -0.126863 -0.0991868 0.124632 0.666068 0.149336 -0.240231 0.132288 0.175433 -0.18264 -0.16963 -0.245183 0.182424 0.159971 -0.114874 0.070848 0.0137982 0.063987 -0.0204662 0.0660388 -0.012724 -0.101478 0.132338
1895 -0.061269 -0.0498739 0.0916127 -0.0682893 0.0906781 0.173567 -0.0846706 0.0855344 -0.0731158 -0.0890554 -0.109898 0.0406715 0.0522022 -0.145821 -0.0911361 -0.108047 -0.0280423 -0.0637258 0.0297016 -0.0795011 -0.097324 0.00842933 -0.067848 -0.123937 -0.16001 0.00502265 -0.060592 -0.026677 -0.0390097 -0.0295519 0.0443641 0.222817 0.083267 -0.140038 0.0822219 0.0931849 -0.16512 -0.138515 -0.121593 0.10085 0.15263 -0.114929 -0.0348015 -0.0324722 -0.028533 -0.0134568 0.104747 -0.0618598 -0.125978 0.162827
40 0.00557002 0.00451093 0.0554775 -0.0474314 0.0945133 0.175961 -0.0762425 0.069965 -0.0363215 -0.0481086 -0.10134 0.0257827 0.0357783 -0.104247 -0.0709663 -0.074485 -0.0100073 -0.0177424 0.0138106 -0.0286564 -0.0439471 0.016407 -0.0265006 -0.0711714 -0.128751 -0.0119387 -0.056253 -0.0316038 -0.0442252 -0.0260106 0.0255232 0.184757 0.0487213 -0.0832422 0.0401481 0.0653559 -0.0833873 -0.0632297 -0.0860251 0.0561102 0.0856572 -0.0639869 -0.00243461 -0.0117171 0.0026387 -0.0138808 0.0557706 -0.0260568 -0.054783 0.0825981
1144 -0.0507102 -0.0568477 0.0903817 -0.079319 0.0833926 0.161403 -0.0887823 0.0932763 -0.100236 -0.118786 -0.142256 0.0488912 0.0666074 -0.193898 -0.110461 -0.11677 -0.0190563 -0.0965144 0.0364812 -0.103215 -0.118457 0.0181592 -0.0661307 -0.12225 -0.150029 -0.00515782 -0.062658 -0.0390363 -0.0556605 -0.0267238 0.0226065 0.14927 0.0974359 -0.155733 0.0721295 0.103803 -0.183315 -0.160084 -0.0990613 0.0905073 0.177501 -0.143116 -0.0732442 -0.0573805 -0.069381 -0.0223094 0.127115 -0.0878759 -0.143282 0.200654
179 0.00130921 0.00664689 0.0788702 -0.0613447 0.112807 0.232027 -0.0877246 0.0890462 -0.0506969 -0.0668474 -0.119667 0.0444284 0.0476716 -0.129566 -0.0851404 -0.0989332 -0.0154712 -0.0320289 0.00481967 -0.0458775 -0.0642579 0.00687022 -0.0390862 -0.086055 -0.166182 -0.00352974 -0.059365 -0.0305195 -0.0598997 -0.0452955 0.0381926 0.21598 0.0687804 -0.105834 0.0576705 0.0801995 -0.118438 -0.098844 -0.108561 0.0710575 0.101997 -0.0664594 -0.00685557 -0.0101092 -0.0152397 -0.00725484 0.0664275 -0.0458435 -0.08916 0.101983
1621 -0.0506148 -0.0530476 0.0330877 -0.0331481 0.00912568 0.0147534 -0.0515306 0.0419824 -0.0771178 -0.0810037 -0.0521008 0.0323375 0.0418199 -0.115032 -0.0591235 -0.0528193 -0.0176778 -0.112832 0.0262753 -0.0846411 -0.107362 0.0107817 -0.060091 -0.0895172 -0.0661329 -0.012763 -0.0180375 -0.0211139 -0.0253184 -0.0156979 0.000670474 0.00854774 0.0795674 -0.106339 0.0368511 0.0882752 -0.166675 -0.131607 -0.0508381 0.0406247 0.147181 -0.116642 -0.095359 -0.0666395 -0.0853751 -0.0247257 0.118527 -0.0766533 -0.122345 0.17766
2491 -0.0161342 -0.0201085 0.0817342 -0.0656612 0.112411 0.216726 -0.10103 0.110246 -0.0876667 -0.103757 -0.14098 0.039531 0.0526817 -0.163162 -0.112225 -0.119464 -0.00917452 -0.069183 0.0184716 -0.0732822 -0.0997494 0.0189208 -0.0729044 -0.115868 -0.155576 -0.0133238 -0.0691426 -0.0402268 -0.0523558 -0.0352736 0.0358584 0.204034 0.098423 -0.148087 0.0731194 0.0975395 -0.154809 -0.124325 -0.122377 0.0872281 0.160586 -0.113515 -0.0518602 -0.034129 -0.0376234 -0.017266 0.106018 -0.0523742 -0.103071 0.141643
827 0.0487458 0.0308811 0.0861263 -0.0668415 0.166924 0.341035 -0.112647 0.0947912 -0.0124978 -0.0206085 -0.135695 0.0312899 0.0444088 -0.10219 -0.0885076 -0.101383 -0.00756535 0.0484556 -0.00755318 0.0148247 0.015946 0.00375116 -0.0193908 -0.0479449 -0.180154 -0.00334511 -0.0717709 -0.0374205 -0.0468675 -0.0495094 0.0538842 0.345316 0.04527 -0.0595445 0.0440486 0.0449412 -0.0219209 -0.0378717 -0.117564 0.0702997 0.00477479 0.00102749 0.10185 0.0409159 0.0731828 -0.00216945 -0.0215406 0.0373 0.000578311 -0.0211303
851 0.0130762 0.0116736 0.143515 -0.117252 0.235818 0.464913 -0.16303 0.169882 -0.0569703 -0.0794643 -0.209418 0.0576226 0.0717698 -0.19905 -0.144554 -0.159065 -0.0124673 0.00113737 0.004112 -0.0500026 -0.0732727 0.0108458 -0.0797299 -0.132965 -0.310003 -0.0120705 -0.140746 -0.0609172 -0.0868735 -0.0698701 0.0999336 0.489297 0.108571 -0.178355 0.0999468 0.126629 -0.141677 -0.126814 -0.218381 0.147935 0.16007 -0.119945 0.0464886 -0.0122244 0.0362559 -0.00606294 0.0865202 -0.0337616 -0.115861 0.149792
905 -0.0319697 -0.0258767 0.054462 -0.0541264 0.0722808 0.152571 -0.0658777 0.0637441 -0.0627548 -0.0707242 -0.089082 0.023238 0.0446031 -0.133778 -0.076835 -0.0801098 -0.0123915 -0.0595159 0.0206368 -0.076295 -0.089085 0.0155739 -0.0462689 -0.0945516 -0.143041 -0.000866699 -0.0619138 -0.0243048 -0.0351666 -0.0359845 0.0235627 0.17643 0.0885686 -0.136349 0.0639499 0.0857515 -0.150974 -0.131059 -0.113709 0.0928226 0.151207 -0.109332 -0.0385032 -0.0439095 -0.0347686 -0.00795537 0.0961824 -0.0490754 -0.1128 0.140012
857 -0.0315669 -0.024887 0.0762882 -0.063549 0.0886776 0.178459 -0.0867525 0.0994319 -0.0856891 -0.0929164 -0.117686 0.0322327 0.0641029 -0.171613 -0.0948251 -0.10561 -0.0188704 -0.0992752 0.0401675 -0.0884555 -0.120037 0.0301752 -0.0713227 -0.134396 -0.170817 -0.0173063 -0.070918 -0.0447778 -0.0448468 -0.0265264 0.031387 0.163991 0.107999 -0.160344 0.0800557 0.109889 -0.186961 -0.156344 -0.0991145 0.0780087 0.184134 -0.146446 -0.0927224 -0.0601651 -0.0708314 -0.0141934 0.119993 -0.0791695 -0.1313 0.175905
1283 -0.0681227 -0.0534925 0.0283608 -0.0216753 -0.0191019 -0.0151324 -0.0356889 0.038965 -0.0734072 -0.0969847 -0.0602312 0.0269234 0.0291474 -0.117737 -0.0643103 -0.0667069 -0.0135385 -0.123889 0.0355847 -0.0929635 -0.124993 0.0257688 -0.0476314 -0.0781059 -0.0543442 0.000292706 -0.0253414 -0.015189 -0.0115497 -0.0209279 -0.0108009 -0.0413614 0.0789955 -0.109268 0.0463259 0.0779336 -0.169366 -0.13356 -0.0314435 0.0411181 0.143522 -0.117205 -0.127503 -0.0757617 -0.102951 -0.0188439 0.132307 -0.0836157 -0.125474 0.17177
2781 -0.0504644 -0.0441001 0.0526547 -0.0373164 0.0258757 0.0736845 -0.0523657 0.0616663 -0.0867447 -0.0867542 -0.0896423 0.0267586 0.0340636 -0.128119 -0.0788934 -0.095487 -0.0208477 -0.089349 0.0272764 -0.093927 -0.122227 0.0126542 -0.0507364 -0.098733 -0.109924 -0.00108358 -0.0343162 -0.0121671 -0.0246334 -0.0309311 0.00464479 0.0549453 0.0879567 -0.139679 0.0482949 0.0853027 -0.166044 -0.144289 -0.0744492 0.0560257 0.171612 -0.126677 -0.0941695 -0.0530621 -0.0861214 -0.024372 0.127546 -0.0700389 -0.130711 0.168758
2002 -0.0419951 -0.048866 0.0583368 -0.0578046 0.0579142 0.136974 -0.0840487 0.0785406 -0.0989352 -0.111417 -0.11479 0.0490312 0.0629118 -0.165794 -0.0932287 -0.110716 -0.0225811 -0.0874209 0.0410071 -0.0992269 -0.1073 0.0186237 -0.0495123 -0.109245 -0.122834 -0.0152738 -0.0490028 -0.0298338 -0.0311344 -0.0294051 0.0272572 0.105645 0.0955291 -0.137684 0.0728376 0.109062 -0.187843 -0.153812 -0.10513 0.077523 0.140534 -0.113564 -0.0672362 -0.0480853 -0.0626332 -0.0254335 0.110092 -0.0612243 -0.108833 0.15773
1344 -0.0623304 -0.0486545 0.069077 -0.0658472 0.0477835 0.111063 -0.0916124 0.0805769 -0.111231 -0.119399 -0.124334 0.0423227 0.0585165 -0.192913 -0.107221 -0.113924 -0.0167293 -0.124939 0.0348603 -0.116096 -0.141201 0.0305521 -0.0736544 -0.14051 -0.140183 -0.00329108 -0.0622349 -0.0367514 -0.0545578 -0.0314118 0.0275152 0.107598 0.114639 -0.169753 0.0746618 0.11152 -0.230682 -0.18051 -0.107935 0.0791028 0.203952 -0.148775 -0.114007 -0.0722751 -0.101049 -0.0289566 0.151573 -0.104107 -0.166887 0.209027
1716 -0.0763849 -0.0548595 0.0349118 -0.0462889 0.0124847 0.0116427 -0.0562849 0.0596421 -0.085243 -0.11491 -0.0727617 0.0307868 0.0404514 -0.140832 -0.0625965 -0.0722991 -0.0278508 -0.13075 0.0496523 -0.103675 -0.123936 0.0174078 -0.0582164 -0.0923657 -0.0739335 -0.0171553 -0.0187639 -0.0235411 -0.0253055 -0.017647 0.00686066 0.00133268 0.0855855 -0.128537 0.0498638 0.0934275 -0.169902 -0.131981 -0.0647593 0.0467051 0.161501 -0.121818 -0.100298 -0.0602283 -0.101221 -0.0206702 0.127749 -0.0807561 -0.133003 0.18646
1024 0.0364396 0.034138 0.0848208 -0.0620799 0.142052 0.287236 -0.0898122 0.0822066 -0.0197032 -0.0189023 -0.108013 0.0269423 0.0456932 -0.0950761 -0.0675208 -0.0792236 -0.00787828 0.0245607 0.00661998 -0.0180023 -0.0285785 -0.0046186 -0.0381934 -0.0550299 -0.165647 -0.0051189 -0.0690248 -0.033112 -0.0486635 -0.0440492 0.0485074 0.263186 0.0393854 -0.0718877 0.0384346 0.0574989 -0.0510136 -0.0350852 -0.082997 0.0659792 0.044169 -0.030289 0.0454507 0.0201233 0.0326993 -0.00367371 0.0220127 -0.00611013 -0.0261181 0.0370681
1902 -0.0817996 -0.0593931 0.0571639 -0.0415526 0.0232108 0.0315888 -0.0611366 0.062056 -0.100802 -0.112966 -0.0853823 0.0257073 0.0500518 -0.166672 -0.0732219 -0.0894825 -0.0183301 -0.123029 0.0375605 -0.106879 -0.131094 0.0249879 -0.0508879 -0.108627 -0.0925503 -0.00249924 -0.0254484 -0.0282 -0.0200424 -0.0277928 -0.00416928 0.0261641 0.0879443 -0.129153 0.0573052 0.097094 -0.188907 -0.141444 -0.0744323 0.0661376 0.170715 -0.137439 -0.103306 -0.0623349 -0.0972664 -0.0249537 0.126419 -0.0805401 -0.146128 0.176635
1039 -0.0531004 -0.048536 0.0333668 -0.0163959 -0.0245844 -0.0355671 -0.0299929 0.0326468 -0.0754329 -0.0905987 -0.0446665 0.0281919 0.0366504 -0.113499 -0.0440052 -0.0486264 -0.0281197 -0.112456 0.0416319 -0.0918152 -0.123229 0.00982476 -0.0374149 -0.0795989 -0.0470281 -0.0169321 -0.00828293 -0.016745 -0.00607172 -0.00412863 -0.0060592 -0.0584443 0.0616004 -0.104862 0.0412135 0.0667961 -0.15942 -0.11699 -0.0382249 0.0248379 0.150368 -0.114601 -0.122919 -0.0631847 -0.0965832 -0.0173687 0.111265 -0.0725792 -0.107742 0.162845
1556 -0.00424935 -0.000161216 0.0646501 -0.0679237 0.109222 0.209981 -0.084157 0.0823012 -0.0409515 -0.0595843 -0.102385 0.02361 0.0328687 -0.121951 -0.0713843 -0.0894425 -0.0122736 -0.0123483 0.0158375 -0.0401155 -0.0395904 0.0116775 -0.0357647 -0.075233 -0.14861 -0.0109967 -0.0501396 -0.0273002 -0.0282718 -0.0231661 0.0320287 0.229985 0.0629563 -0.092242 0.0565093 0.0734634 -0.0781349 -0.0673323 -0.0993911 0.081185 0.0878123 -0.0758153 0.00787327 -0.00613079 0.0105086 -0.0080388 0.0433595 -0.0326991 -0.0738247 0.0747011
2768 -0.0565756 -0.0533675 0.137775 -0.119519 0.178067 0.364351 -0.164255 0.165909 -0.13499 -0.152382 -0.23469 0.0648318 0.104247 -0.274441 -0.16381 -0.194923 -0.0237577 -0.116476 0.0415579 -0.137668 -0.161916 0.0292602 -0.110683 -0.192126 -0.293077 -0.00708479 -0.113008 -0.0614343 -0.0856114 -0.0564939 0.0628905 0.355965 0.163679 -0.249334 0.124074 0.183357 -0.275052 -0.232488 -0.206873 0.153747 0.275505 -0.191863 -0.0704335 -0.0548458 -0.0672811 -0.0204368 0.174298 -0.103552 -0.199866 0.261707
77 0.0210322 0.0111102 0.079405 -0.0545833 0.144085 0.278321 -0.0877944 0.0965233 -0.0165934 -0.0267908 -0.118143 0.0256837 0.0421245 -0.102803 -0.0728792 -0.095319 -0.00124424 0.0261145 -0.00933469 -0.0107056 -0.00303958 8.9097e-05 -0.0295811 -0.0630272 -0.158605 -0.00718646 -0.080175 -0.0405063 -0.0531193 -0.0398166 0.0570001 0.293889 0.0397437 -0.0698503 0.0549052 0.0455373 -0.0547128 -0.0576461 -0.111317 0.0828912 0.0541481 -0.0348567 0.0607891 0.0284333 0.0498213 -0.00658853 0.0109082 0.00163819 -0.0200999 0.0250295
1966 0.0398636 0.0420805 0.209994 -0.188962 0.354608 0.718056 -0.264205 0.262505 -0.124317 -0.153726 -0.366216 0.0977387 0.106219 -0.329217 -0.232165 -0.290667 -0.0185867 0.00837308 0.0155637 -0.0784337 -0.104765 0.0141715 -0.0932382 -0.193145 -0.450208 -0.012751 -0.176687 -0.0921539 -0.131378 -0.0965605 0.123443 0.70964 0.182084 -0.257329 0.159422 0.189268 -0.210195 -0.204679 -0.277211 0.211262 0.198049 -0.15055 0.0745755 0.00761546 0.0654422 -0.0263523 0.0714102 -0.0117126 -0.101484 0.143285
2358 0.0128685 0.0259822 0.10904 -0.0818112 0.187576 0.39496 -0.138832 0.135827 -0.0518034 -0.0719233 -0.189904 0.0594719 0.0660152 -0.177128 -0.126414 -0.151835 -0.00527932 0.00715589 0.00293375 -0.043382 -0.0394539 0.0142824 -0.0605643 -0.109281 -0.265518 -0.00579334 -0.117625 -0.048506 -0.0800085 -0.0593929 0.0763503 0.420041 0.0956512 -0.144217 0.0933918 0.119351 -0.116772 -0.110756 -0.187601 0.130496 0.131969 -0.0917326 0.0440213 0.00901515 0.0405488 0.000496319 0.0402365 -0.0148801 -0.0594748 0.09276
1040 -0.0650401 -0.0564245 0.0316394 -0.0342646 0.00566113 0.0130265 -0.0411438 0.0547648 -0.0951681 -0.10266 -0.0721842 0.0181435 0.0502597 -0.144784 -0.0590528 -0.0816066 -0.018173 -0.112985 0.0343263 -0.0922737 -0.108394 0.0238763 -0.0565767 -0.0827826 -0.0680891 -0.00717434 -0.0189189 -0.0214135 -0.0152423 -0.0270048 0.00977019 0.0127897 0.0857551 -0.118637 0.0529968 0.0894491 -0.177288 -0.139011 -0.0720732 0.0513304 0.149872 -0.119033 -0.102119 -0.0536266 -0.0762584 -0.0298188 0.126151 -0.0830674 -0.131828 0.169909
2590 -0.0440193 -0.0396063 0.0675642 -0.0596156 0.0638949 0.107525 -0.0680427 0.0818388 -0.0651655 -0.0896566 -0.0823766 0.025164 0.0528775 -0.134025 -0.0796712 -0.0929083 -0.0255654 -0.0828644 0.0303685 -0.09824 -0.111092 0.0284182 -0.0599152 -0.106028 -0.133776 -0.00797764 -0.0403085 -0.0355 -0.0441926 -0.0280706 0.0276001 0.112264 0.0901622 -0.137262 0.0541398 0.0928358 -0.169197 -0.145195 -0.0847744 0.0624476 0.164179 -0.130315 -0.0827731 -0.0523519 -0.0775202 -0.0181068 0.109956 -0.0785533 -0.129209 0.159704
2284 -0.0546659 -0.0561827 0.0462777 -0.0263466 0.0155328 0.0238158 -0.0558515 0.0442902 -0.0767771 -0.0928723 -0.0685665 0.0253347 0.0470579 -0.127164 -0.0576851 -0.0752451 -0.0233151 -0.108234 0.0431555 -0.0804621 -0.10141 0.014226 -0.0533792 -0.0966431 -0.072014 -0.0125216 -0.0191045 -0.0224163 -0.0211358 -0.00838798 0.0131756 0.0384167 0.0830255 -0.120596 0.0501218 0.0717231 -0.157296 -0.135549 -0.0790345 0.0571159 0.149668 -0.116805 -0.0855359 -0.0598735 -0.0733535 -0.0193589 0.114504 -0.0793284 -0.122355 0.154857
2381 0.0025458 -0.00686012 0.0965602 -0.0797518 0.155635 0.298594 -0.120319 0.104928 -0.0502722 -0.0787907 -0.153076 0.0402 0.0474875 -0.142948 -0.0892098 -0.113325 -0.00181915 -0.0107447 0.00974789 -0.0426949 -0.0440389 0.017652 -0.0558088 -0.100075 -0.191553 0.00157122 -0.0875011 -0.040664 -0.057929 -0.0517947 0.0515155 0.305345 0.075581 -0.13192 0.0676623 0.0919734 -0.119995 -0.105515 -0.143385 0.113881 0.097117 -0.0698349 0.0248099 -0.00163364 0.00886435 -0.0203739 0.0692662 -0.0423454 -0.089753 0.106399
2444 -0.0627815 -0.0562067 0.23098 -0.212216 0.322686 0.664117 -0.306609 0.305605 -0.204346 -0.245948 -0.389895 0.115411 0.147946 -0.445907 -0.264147 -0.319858 -0.0336699 -0.119852 0.0591334 -0.168285 -0.221636 0.0464731 -0.159797 -0.290636 -0.459169 -0.00858775 -0.188037 -0.0976503 -0.146596 -0.100902 0.128243 0.657286 0.238133 -0.364355 0.18608 0.260595 -0.398251 -0.34629 -0.352631 0.272739 0.405688 -0.293664 -0.0805763 -0.0782469 -0.0551187 -0.0385458 0.238003 -0.138845 -0.297253 0.38228
1579 -0.00817455 -0.00622523 0.0423456 -0.0510244 0.0702895 0.156837 -0.0626831 0.0531419 -0.0409188 -0.0513193 -0.0685461 0.0265538 0.0311634 -0.0871994 -0.0462726 -0.069876 -0.00269092 -0.0280954 0.0147432 -0.0300803 -0.0562187 0.0112506 -0.0243049 -0.0637642 -0.119832 0.00302749 -0.0371551 -0.0197186 -0.0435333 -0.0155815 0.01926 0.157113 0.0410388 -0.085578 0.0494802 0.0508716 -0.08799 -0.0674301 -0.0729249 0.0636586 0.0745609 -0.0487258 -0.0114371 -0.0228986 -0.00664033 -0.0175591 0.0441627 -0.0218082 -0.0607159 0.0738077
2229 -0.0675431 -0.0656365 0.070315 -0.0585619 0.0764396 0.129204 -0.0863717 0.0975582 -0.103987 -0.119638 -0.110542 0.040005 0.0642022 -0.165632 -0.0902988 -0.120357 -0.0319973 -0.103358 0.0451315 -0.106366 -0.124142 0.0286165 -0.0655326 -0.128105 -0.154735 -0.00734532 -0.0651507 -0.0418751 -0.045046 -0.0364926 0.0340778 0.155596 0.093983 -0.163326 0.078862 0.120865 -0.196185 -0.167829 -0.112734 0.0985537 0.194206 -0.137713 -0.0700997 -0.0542736 -0.0751109 -0.0232013 0.153021 -0.0799341 -0.159915 0.205251
771 0.0394765 0.0301646 0.0728392 -0.0578042 0.161448 0.315667 -0.0969897 0.0854815 0.00227024 -0.0166344 -0.114686 0.0317217 0.0197022 -0.0721326 -0.068636 -0.0778885 0.00959075 0.0673893 -0.0125231 0.0190582 0.0271129 -0.00190246 -0.0189709 -0.0403902 -0.146774 0.0123078 -0.063136 -0.031082 -0.0478308 -0.0442015 0.0630013 0.322772 0.040584 -0.053323 0.0438066 0.0497472 -0.015755 -0.0151277 -0.11337 0.0674225 0.0148642 0.00731874 0.103577 0.0460046 0.0856068 -0.000827357 -0.0234669 0.0187317 -0.00160377 -0.00339742
978 0.0400452 0.0399375 0.185397 -0.159718 0.322015 0.64055 -0.22022 0.223079 -0.0610568 -0.0962664 -0.288203 0.082133 0.0972368 -0.261534 -0.170143 -0.22082 -0.00349108 0.0330177 -0.00425489 -0.0475407 -0.0563844 0.00605055 -0.069899 -0.160939 -0.376581 -0.00209439 -0.170549 -0.0690193 -0.120071 -0.0839571 0.109151 0.631614 0.119631 -0.176064 0.128247 0.142938 -0.154111 -0.146667 -0.240033 0.170697 0.125827 -0.103812 0.0827282 0.014224 0.0793119 -0.0152936 0.0384391 -0.0149958 -0.0928759 0.100751
2026 -0.0504643 -0.0391018 0.206818 -0.173318 0.273526 0.541601 -0.228336 0.21706 -0.156005 -0.171294 -0.296017 0.0957402 0.121749 -0.356871 -0.236188 -0.278445 -0.0399347 -0.125999 0.0519002 -0.167494 -0.202383 0.0301672 -0.128515 -0.253484 -0.40032 -0.0206423 -0.167169 -0.0872003 -0.129913 -0.0914949 0.0943168 0.503868 0.195953 -0.306152 0.158289 0.217492 -0.325328 -0.271284 -0.25713 0.187507 0.271225 -0.214135 -0.0669163 -0.0562898 -0.0509061 -0.039547 0.19377 -0.116562 -0.246483 0.32344
298 0.025509 0.0258134 0.0563038 -0.0462933 0.131444 0.253514 -0.0716964 0.0754851 -7.92701e-05 -0.0168394 -0.0861416 0.0189034 0.0288062 -0.0609017 -0.0459628 -0.0721706 0.00514615 0.040221 0.00175146 -0.00123681 -0.00887824 -0.00904773 -0.0181418 -0.0345798 -0.140159 0.0101046 -0.060207 -0.0316325 -0.0497572 -0.0257499 0.0527148 0.249237 0.0352598 -0.0449777 0.0336412 0.0424948 -0.0285656 -0.0310964 -0.0952045 0.0690905 0.012525 -0.0145697 0.0538729 0.0147151 0.0463548 0.00737331 -0.000427088 0.00701571 -0.0118514 0.00949282
1889 -0.0402808 -0.0433409 0.125014 -0.102763 0.163414 0.329572 -0.157156 0.159688 -0.104258 -0.136735 -0.20736 0.0604714 0.0808395 -0.259078 -0.149345 -0.186125 -0.0292982 -0.115558 0.0486135 -0.132648 -0.157567 0.0290891 -0.0957744 -0.180797 -0.261662 -0.0042969 -0.102773 -0.0619441 -0.0872463 -0.0670729 0.0607272 0.329427 0.150283 -0.224479 0.122497 0.159467 -0.26738 -0.219245 -0.18624 0.136592 0.239809 -0.186374 -0.0657823 -0.0558684 -0.0588629 -0.0356462 0.16009 -0.0954499 -0.170444 0.233014
1730 0.107149 0.101447 0.291653 -0.243646 0.499592 0.992721 -0.342784 0.340126 -0.119658 -0.171281 -0.457749 0.127633 0.135368 -0.400997 -0.291584 -0.355469 -0.0134417 0.0768143 -0.016802 -0.0496681 -0.0854028 0.00377462 -0.110434 -0.208016 -0.578345 0.00820381 -0.257234 -0.110241 -0.180336 -0.115182 0.173543 0.929315 0.190053 -0.274448 0.173764 0.210019 -0.210288 -0.183914 -0.341169 0.241581 0.193347 -0.140597 0.130414 0.0208723 0.124345 -0.0156151 0.0418963 0.0219302 -0.0807455 0.104071
2586 0.0270341 0.0209493 0.100219 -0.102408 0.19351 0.365681 -0.13491 0.136741 -0.0586287 -0.0719096 -0.193929 0.0463233 0.0550492 -0.186272 -0.112276 -0.149677 -0.0117644 0.00971683 0.0131992 -0.0387441 -0.0460113 -0.000660116 -0.0568127 -0.0880327 -0.232705 -0.00735659 -0.0827374 -0.0345041 -0.06757 -0.0516198 0.0629503 0.386045 0.0716371 -0.11766 0.0794241 0.0863694 -0.112581 -0.093637 -0.158679 0.115346 0.109155 -0.0821673 0.0373009 0.00871538 0.0340765 -0.0175704 0.0471961 -0.0195134 -0.0727231 0.0856026
617 0.0507773 0.0508908 0.0563472 -0.0584786 0.148764 0.278497 -0.0732633 0.080616 0.0197001 -0.0012428 -0.102188 0.014415 0.0153427 -0.0523416 -0.0503523 -0.0615617 0.00256564 0.0778307 -0.0133319 0.0345219 0.0446236 -0.00421502 -0.0113606 -0.0284352 -0.131098 0.00901581 -0.0543874 -0.0291367 -0.0396002 -0.0287419 0.0541226 0.294918 0.0233441 -0.0199203 0.0336601 0.0213716 0.0240802 -0.00202133 -0.098518 0.0518307 -0.0214098 0.00641364 0.0982971 0.0348176 0.0925475 0.00603592 -0.0290266 0.040113 0.0229666 -0.0208803
2185 0.0444927 0.0502211 0.172702 -0.152006 0.32205 0.641429 -0.218321 0.215045 -0.0565535 -0.0699046 -0.274774 0.0687249 0.0859411 -0.249549 -0.169671 -0.200934 -0.0106915 0.0502766 0.00377607 -0.0329734 -0.0574908 0.00514655 -0.0779895 -0.156433 -0.371635 -0.000620074 -0.167938 -0.0816938 -0.116346 -0.0840373 0.115898 0.645147 0.114628 -0.189887 0.121186 0.156518 -0.142494 -0.14235 -0.245102 0.188428 0.115376 -0.0877855 0.114913 0.0261986 0.101496 -0.0147611 0.041263 0.00740366 -0.0648428 0.102453
2509 -0.0293656 -0.0306174 0.109735 -0.098756 0.18633 0.372219 -0.155143 0.160379 -0.0727192 -0.0983354 -0.20578 0.0563135 0.0842616 -0.234243 -0.15375 -0.170133 -0.0174393 -0.0543825 0.0212218 -0.0891577 -0.0937533 0.015858 -0.0808691 -0.158919 -0.268038 -0.0101198 -0.124109 -0.0567461 -0.0824925 -0.0536156 0.0750661 0.406717 0.1083 -0.169799 0.0985922 0.125373 -0.17715 -0.159666 -0.18971 0.138699 0.160613 -0.113962 0.0312368 -0.017422 0.0243562 -0.00804548 0.0761324 -0.0383553 -0.122247 0.15418
1882 0.0529913 0.0540606 0.0320805 -0.0269005 0.0735587 0.169663 -0.0255801 0.0198379 0.0314514 0.0398514 -0.0455489 0.00178571 0.0084662 0.00355143 -0.0028011 -0.0171419 0.00888657 0.0622321 -0.0162604 0.0263443 0.0194085 -0.0146105 0.0116352 -0.000671592 -0.0730423 0.00500226 -0.0281646 -0.0121957 -0.0330414 -0.0192099 0.0211718 0.175424 -0.00449235 0.024748 -0.000180204 -0.0127472 0.0437531 0.030739 -0.0205709 0.00579775 -0.0469442 0.0356493 0.0486223 0.0383599 0.0458491 0.00561597 -0.0512657 0.0441357 0.0419673 -0.0640246
188 -0.0283153 -0.0300683 0.0515278 -0.0430036 0.0758069 0.169197 -0.083347 0.0773162 -0.0527453 -0.0734619 -0.105482 0.0283281 0.0436311 -0.117159 -0.0711785 -0.0920166 -0.015152 -0.0275202 0.0139101 -0.0435346 -0.0621517 0.0184389 -0.0365364 -0.0739538 -0.130123 9.79685e-05 -0.0494737 -0.0215215 -0.0428301 -0.0307207 0.0306452 0.184861 0.0597962 -0.106227 0.0590284 0.0767487 -0.117882 -0.0989923 -0.104427 0.0845122 0.0972288 -0.0726167 0.00367985 -0.0131369 -0.000160099 -0.0132138 0.0579539 -0.038387 -0.0717332 0.0972598
338 -0.0709148 -0.0550718 0.0530952 -0.0459125 0.0302401 0.0797176 -0.0672968 0.07203 -0.0785546 -0.0947974 -0.0802869 0.0293136 0.051294 -0.14888 -0.0794197 -0.0970406 -0.0219986 -0.103212 0.0317818 -0.0842657 -0.115929 0.0258857 -0.0502579 -0.0984394 -0.105848 0.0020085 -0.0333357 -0.015093 -0.0213554 -0.0179084 0.0176467 0.0977614 0.0888669 -0.131068 0.0680492 0.098986 -0.169687 -0.144883 -0.0888605 0.0722631 0.172928 -0.119813 -0.0705764 -0.0452518 -0.0628372 -0.0224156 0.120206 -0.0700003 -0.127313 0.177323
2013 -0.0691269 -0.0501902 0.0338731 -0.0296831 -0.00737873 -0.0175678 -0.0358705 0.031448 -0.0865284 -0.0882794 -0.0514607 0.0320807 0.0328852 -0.125331 -0.053514 -0.0555142 -0.0232803 -0.12139 0.0361187 -0.1035 -0.124527 0.0105271 -0.0484042 -0.0755144 -0.0470157 -0.00732335 -0.0102712 -0.0174489 -0.0258749 -0.0123393 -0.0176123 -0.0483353 0.0628728 -0.121406 0.037675 0.0802589 -0.177555 -0.139333 -0.0466501 0.0437312 0.159566 -0.116792 -0.119402 -0.0637756 -0.107443 -0.0162161 0.119397 -0.0784747 -0.130723 0.175375
1618 -0.00490484 -0.00805342 0.0400137 -0.0479058 0.0645679 0.142273 -0.0592393 0.0653923 -0.0463645 -0.0425669 -0.0854197 0.0280313 0.039115 -0.0855964 -0.0468812 -0.0604149 0.00141551 -0.0299201 0.0176587 -0.0369469 -0.0437713 0.00548175 -0.0228938 -0.0661937 -0.0895016 -0.000504686 -0.0405485 -0.0185679 -0.020596 -0.0261961 0.0199884 0.125276 0.0502271 -0.0747276 0.0481757 0.0585461 -0.0879139 -0.0700228 -0.0679509 0.0482926 0.0781081 -0.0502905 -0.00617053 -0.0195486 -0.0131922 -0.0147917 0.0429333 -0.032887 -0.0482423 0.0739886
2988 -0.0476228 -0.037636 0.114903 -0.102157 0.147421 0.307674 -0.148318 0.140854 -0.0972313 -0.122707 -0.190716 0.0659917 0.0760936 -0.240573 -0.144555 -0.169451 -0.022899 -0.0940447 0.0361284 -0.105806 -0.145377 0.0249814 -0.0849036 -0.166359 -0.25121 -0.0107804 -0.0950746 -0.0503441 -0.0758099 -0.047203 0.0581029 0.310506 0.127485 -0.185986 0.09776 0.133111 -0.226199 -0.179379 -0.169074 0.130169 0.194829 -0.156716 -0.02962 -0.0397465 -0.0390452 -0.0281009 0.121825 -0.0679893 -0.140901 0.188773
777 0.051721 0.0500758 0.0942104 -0.0848254 0.172454 0.34169 -0.0941655 0.0879797 0.000850592 -0.0131206 -0.138111 0.039588 0.0278401 -0.0805513 -0.0681368 -0.104217 0.000557269 0.0571185 -0.0155378 0.0195216 0.00261505 -0.000505771 -0.0278598 -0.0523876 -0.181499 0.00932619 -0.0782528 -0.0330231 -0.0569525 -0.028583 0.0646897 0.338181 0.027411 -0.052601 0.040921 0.041058 -0.00322125 -0.0148506 -0.0914442 0.0767437 0.00807445 0.00886589 0.097658 0.0412149 0.0680168 0.00530748 -0.0351488 0.0392178 0.0191832 -0.0225812
2640 0.0126325 0.00136803 0.124635 -0.11348 0.240983 0.469851 -0.170967 0.156533 -0.0548979 -0.0639157 -0.196736 0.0460105 0.0768714 -0.194097 -0.134795 -0.158383 -0.0200076 0.012162 0.00576734 -0.0250534 -0.0541842 0.00667925 -0.051884 -0.116502 -0.272994 0.00472771 -0.112447 -0.054381 -0.0852484 -0.0523219 0.093671 0.477835 0.0940412 -0.134634 0.084198 0.106506 -0.117303 -0.117266 -0.188793 0.131823 0.0969455 -0.0739002 0.0817005 0.0192894 0.0546198 -0.0171093 0.0446486 -0.0114851 -0.0687761 0.108928
2709 -0.0177321 -0.0272307 0.137686 -0.125725 0.20894 0.405104 -0.153463 0.168768 -0.0917469 -0.107583 -0.204517 0.0552771 0.0726643 -0.228452 -0.156384 -0.18742 -0.0277376 -0.0447952 0.0330983 -0.0763347 -0.110653 0.0105472 -0.0766839 -0.144041 -0.26629 -0.00571041 -0.113896 -0.0549092 -0.0818091 -0.0611978 0.0798634 0.400981 0.130376 -0.179867 0.111204 0.134228 -0.190118 -0.169524 -0.180714 0.135152 0.165581 -0.13146 -0.00495347 -0.0168397 -0.00840315 -0.0120713 0.100215 -0.0553018 -0.127251 0.155482
1199 -0.0473778 -0.0496802 0.0396783 -0.0304775 -0.0167782 -0.0213575 -0.0360975 0.0455761 -0.0718622 -0.088878 -0.0449296 0.0161872 0.0427664 -0.118254 -0.0587002 -0.0610488 -0.0246078 -0.106472 0.0460947 -0.0911172 -0.110845 0.0219571 -0.0447616 -0.0816806 -0.0554006 -0.00522279 -0.0219695 -0.00424027 -0.0240078 -0.00731523 -0.00771223 -0.0313153 0.0694928 -0.105645 0.0343471 0.0658268 -0.165875 -0.117243 -0.0406525 0.0325335 0.15609 -0.126607 -0.123974 -0.0703616 -0.105876 -0.0256553 0.114976 -0.087669 -0.121623 0.169003
1575 -0.00703198 -0.00266398 0.0581348 -0.0433983 0.0720682 0.168803 -0.0601889 0.0711405 -0.056373 -0.0610184 -0.100293 0.0196133 0.0408028 -0.106675 -0.0743969 -0.0785795 -0.0167985 -0.0123688 0.0175959 -0.0288511 -0.047061 0.0149556 -0.0212417 -0.0586845 -0.126241 -0.00993083 -0.0515577 -0.0248851 -0.037751 -0.0361598 0.0272908 0.176616 0.0577506 -0.0745225 0.0506209 0.0694192 -0.0709053 -0.0726902 -0.0863707 0.062453 0.0647736 -0.0520771 0.0228628 -0.00328186 0.0116151 -0.0158736 0.0316851 -0.00315893 -0.034449 0.0486479
2442 -0.0656603 -0.0555879 0.0613321 -0.046498 0.0143112 0.0388035 -0.0630081 0.0552039 -0.103255 -0.11767 -0.0986859 0.0442117 0.0499997 -0.171235 -0.0785537 -0.0921289 -0.02315 -0.142865 0.0445793 -0.131249 -0.138644 0.0170413 -0.0556426 -0.125854 -0.0890235 -0.015487 -0.0389384 -0.0235954 -0.0353968 -0.0194356 -0.00481343 0.000676207 0.0881151 -0.163079 0.0535135 0.102793 -0.213411 -0.161916 -0.068678 0.0518752 0.188258 -0.142112 -0.131064 -0.0809194 -0.124566 -0.0296151 0.153717 -0.0976817 -0.166064 0.218535
662 -0.0577306 -0.0499353 0.024069 -0.0227192 -0.0121643 -0.0202246 -0.0264618 0.0263467 -0.07034 -0.0858969 -0.0512841 0.0205377 0.0330325 -0.122568 -0.0572395 -0.067835 -0.0185925 -0.120205 0.0387715 -0.0888988 -0.111386 0.0104405 -0.0560592 -0.0769251 -0.0535176 0.000387839 -0.0193071 -0.00726106 -0.0129188 -0.00760277 -0.00887703 -0.0420507 0.0758405 -0.115752 0.0357713 0.0774212 -0.167925 -0.129707 -0.0477172 0.0300991 0.148046 -0.109958 -0.113052 -0.0641998 -0.104438 -0.0288014 0.120673 -0.0923562 -0.135263 0.165365
2918 -0.083403 -0.0675669 0.0518867 -0.0356699 0.00980741 0.0241636 -0.0492331 0.054797 -0.083592 -0.0937498 -0.0708658 0.0180834 0.0471054 -0.128562 -0.0720629 -0.0697835 -0.0345476 -0.121774 0.0429673 -0.100775 -0.125601 0.015773 -0.0626849 -0.0945355 -0.0883815 -0.00532975 -0.028862 -0.0225839 -0.0261255 -0.0244487 0.000763222 0.0178943 0.0735519 -0.130263 0.0552969 0.094831 -0.181267 -0.143641 -0.0584021 0.0589771 0.172176 -0.129163 -0.100182 -0.0693928 -0.0790197 -0.0218375 0.130247 -0.0950241 -0.13768 0.180901
344 -0.00660769 -0.0145192 0.0432188 -0.0513746 0.0800719 0.160368 -0.0681478 0.0666092 -0.0336616 -0.0450208 -0.0912031 0.0200398 0.0254576 -0.0898285 -0.054643 -0.0657437 -0.00142775 -0.0324996 0.0055533 -0.0337687 -0.053479 0.0105703 -0.045431 -0.0792997 -0.128451 -0.000260742 -0.0515866 -0.0359477 -0.0415798 -0.0216444 0.0407038 0.176054 0.0649147 -0.0896379 0.0539377 0.0643222 -0.0975702 -0.0789633 -0.0808769 0.0650932 0.0965536 -0.0583043 -0.0129298 -0.0222196 -0.0112619 -0.0180067 0.0537704 -0.0298514 -0.0692783 0.07887
2041 -0.0623469 -0.0595264 0.0519089 -0.0591873 0.0354866 0.0562327 -0.0624696 0.0600751 -0.101847 -0.10608 -0.0821035 0.0334619 0.0394777 -0.150494 -0.0857003 -0.100695 -0.014852 -0.12752 0.0419653 -0.113685 -0.132735 0.0244421 -0.0598061 -0.0962569 -0.0786859 -0.0129575 -0.0320452 -0.0269559 -0.0329051 -0.0264349 -0.00177881 0.0258852 0.0879126 -0.145245 0.0493362 0.0851899 -0.185669 -0.150686 -0.0620035 0.0579584 0.167596 -0.131889 -0.122163 -0.0727712 -0.110303 -0.0193839 0.14727 -0.0965224 -0.146503 0.196619
476 0.022962 0.0213452 0.058188 -0.0501161 0.124382 0.232306 -0.0597525 0.0609289 0.0122622 0.00729775 -0.0829112 0.0280137 0.0253725 -0.0487358 -0.0396997 -0.0646016 0.000142598 0.0601764 -0.0132023 0.0217082 0.0326085 0.00114937 -0.0153163 -0.0274697 -0.134016 -0.0015185 -0.0625821 -0.0290277 -0.033504 -0.0204556 0.0555007 0.248257 0.0224315 -0.0343935 0.0327013 0.0305422 0.0159523 -0.00387446 -0.0740914 0.0514735 0.00842982 0.00361699 0.0817067 0.0386508 0.0723878 0.0116034 -0.018839 0.0279791 0.00974264 -0.00390145
886 0.0300736 0.0279732 0.0819607 -0.0838641 0.174967 0.363942 -0.0936476 0.101164 0.0100119 -0.00616291 -0.129931 0.0201286 0.0309022 -0.0822914 -0.0725116 -0.0968293 0.0115105 0.0753154 -0.00939338 0.0178264 0.0254022 -0.00164564 -0.0273478 -0.0450009 -0.191946 0.00167506 -0.0919616 -0.0467563 -0.0673607 -0.0483114 0.0669993 0.36464 0.0385525 -0.0509243 0.0563976 0.05727 -0.00906683 -0.0268606 -0.131588 0.0782386 0.0154559 -0.00266658 0.118112 0.043864 0.0813306 0.00819575 -0.0151596 0.0238906 -0.00116907 0.0148858
1595 0.0647724 0.0608458 0.311628 -0.27383 0.529387 1.05376 -0.342619 0.356964 -0.113819 -0.154935 -0.489194 0.129847 0.158256 -0.45945 -0.30367 -0.384019 -0.0217139 0.0261097 0.00836289 -0.113245 -0.133869 0.0258724 -0.129615 -0.25094 -0.615111 -0.0156037 -0.257834 -0.119462 -0.192038 -0.139591 0.172416 0.903467 0.172468 -0.264727 0.174806 0.225069 -0.209866 -0.204328 -0.32737 0.236786 0.180112 -0.137861 0.12976 0.0288001 0.120529 -0.0224672 0.0304849 0.00338052 -0.110855 0.139739
2425 -0.0340452 -0.0341441 0.0930934 -0.0946488 0.135476 0.266331 -0.127993 0.128075 -0.0927611 -0.104668 -0.147439 0.0578698 0.068537 -0.200464 -0.115501 -0.134372 -0.0186165 -0.0682332 0.0343136 -0.0718975 -0.110959 0.0255182 -0.0754137 -0.137237 -0.197207 -0.00910946 -0.0827323 -0.0456708 -0.070624 -0.0427882 0.046478 0.304843 0.111149 -0.158327 0.0807179 0.129857 -0.185855 -0.15957 -0.163093 0.115093 0.188381 -0.138411 -0.0397399 -0.0421405 -0.0227386 -0.0265917 0.118884 -0.0774201 -0.145812 0.178274
1808 -0.061404 -0.0539826 0.0322121 -0.0183143 -0.00953756 -0.0321744 -0.0305438 0.0317035 -0.067101 -0.0829177 -0.0371934 0.0273903 0.02177 -0.108646 -0.0513332 -0.0446847 -0.0248038 -0.109507 0.039459 -0.0944145 -0.111918 0.0187296 -0.0388548 -0.0743823 -0.045358 -0.00202857 -0.0147668 -0.0114319 -0.0167545 -0.0157098 -0.0157064 -0.0468262 0.0693399 -0.0908845 0.0290492 0.0733382 -0.152674 -0.121053 -0.0243172 0.0343979 0.142368 -0.104411 -0.111436 -0.0709128 -0.0985009 -0.0164388 0.104073 -0.071597 -0.116559 0.141374
914 -0.0728753 -0.0588195 0.0454625 -0.0274776 0.00475984 -0.00337579 -0.045498 0.0511016 -0.0887234 -0.111325 -0.0591671 0.0300688 0.0356569 -0.145678 -0.0591988 -0.0780915 -0.0291676 -0.123238 0.0473231 -0.11102 -0.122438 0.0239094 -0.0578778 -0.0900784 -0.0660786 -0.00178393 -0.0234687 -0.0120463 -0.0265269 -0.00815633 0.000779494 -0.00389015 0.0722484 -0.133804 0.0449826 0.0961724 -0.186672 -0.138226 -0.0621019 0.0494581 0.163704 -0.119934 -0.107144 -0.0641158 -0.0880343 -0.0266914 0.121511 -0.0846363 -0.142868 0.183338
1308 0.0445353 0.0466571 0.228595 -0.200635 0.380339 0.773542 -0.264044 0.25275 -0.0772843 -0.101176 -0.335024 0.099935 0.105689 -0.314303 -0.219275 -0.269469 -0.016639 0.0241515 -0.00127844 -0.0551026 -0.0950115 0.00429054 -0.102459 -0.203554 -0.472667 -0.00724583 -0.1888 -0.0977833 -0.15358 -0.112186 0.134663 0.736108 0.14149 -0.219458 0.132197 0.161174 -0.186613 -0.168753 -0.275141 0.180625 0.122944 -0.100238 0.110596 0.022435 0.0804615 -0.0195562 0.0695894 -0.0270823 -0.112566 0.152239
1382 0.0572929 0.0441073 0.24244 -0.216719 0.408621 0.842664 -0.317908 0.295755 -0.141912 -0.169269 -0.419999 0.109637 0.122613 -0.371817 -0.245097 -0.308338 -0.0300594 0.019928 -0.00349977 -0.0749706 -0.0794146 0.00340059 -0.0893804 -0.188492 -0.506098 0.00129039 -0.221659 -0.102577 -0.16478 -0.112899 0.161561 0.847345 0.187145 -0.263722 0.180421 0.205727 -0.208585 -0.181841 -0.329481 0.233796 0.214889 -0.142019 0.115092 0.00699352 0.100232 -0.0183938 0.0519326 0.00301662 -0.110055 0.138325
1763 -0.0404441 -0.0333227 0.0674359 -0.0465663 0.0548492 0.118016 -0.0650098 0.0813354 -0.0632594 -0.0780347 -0.0972875 0.0361669 0.045724 -0.142157 -0.079201 -0.0850839 -0.00883736 -0.0595892 0.0347176 -0.0770624 -0.0849274 0.00681595 -0.0542999 -0.103262 -0.131351 -0.00819086 -0.0505123 -0.026376 -0.032492 -0.027024 0.0217962 0.151202 0.0837859 -0.12887 0.0569614 0.0809066 -0.146193 -0.12903 -0.096678 0.0796478 0.150821 -0.113381 -0.0591097 -0.052634 -0.0491188 -0.0182162 0.104668 -0.0731043 -0.117584 0.156518
669 -0.0121545 -0.00796892 0.0449954 -0.0497805 0.098104 0.170672 -0.0719406 0.0721851 -0.0370474 -0.0507769 -0.0959492 0.0361574 0.0452502 -0.113752 -0.0581581 -0.0808545 -0.0165936 -0.0210623 0.00140853 -0.0256731 -0.0472632 0.0018537 -0.0364238 -0.0600118 -0.119698 -0.00587712 -0.0542407 -0.023484 -0.0411502 -0.0289967 0.0401689 0.184065 0.0543526 -0.0849033 0.0448307 0.0623792 -0.0753007 -0.0640628 -0.0848758 0.0598281 0.0721153 -0.0407358 0.0201962 -0.00761609 0.0175865 -0.0100213 0.048326 -0.0177019 -0.0523111 0.0721633
2408 -0.0584397 -0.0462321 0.075631 -0.0733143 0.0713196 0.12412 -0.0861843 0.0847651 -0.107023 -0.127625 -0.116071 0.0501288 0.0664918 -0.194914 -0.102675 -0.126096 -0.0338525 -0.125881 0.0458742 -0.114086 -0.1369 0.0257361 -0.0763378 -0.131874 -0.120251 -0.00359424 -0.0424402 -0.0393107 -0.0483382 -0.0262852 0.0176878 0.0838949 0.0911571 -0.164368 0.0779961 0.10853 -0.213297 -0.167023 -0.0830888 0.0801903 0.169572 -0.1414 -0.0939356 -0.0570287 -0.0915303 -0.02112 0.150874 -0.0942469 -0.156458 0.201346
912 -0.0624231 -0.0515835 0.036315 -0.0456365 0.000807381 0.0306708 -0.0417172 0.0635714 -0.0891312 -0.107164 -0.0816638 0.0313506 0.0550604 -0.138541 -0.0643203 -0.0759301 -0.0281832 -0.129682 0.0347381 -0.115064 -0.138823 0.0313295 -0.045015 -0.0890418 -0.0752556 -0.000667409 -0.0237845 -0.0163151 -0.0158221 -0.022814 0.0015869 1.5672e-05 0.0734416 -0.122548 0.0563649 0.0837465 -0.186674 -0.147852 -0.0634742 0.0520533 0.159654 -0.125056 -0.116427 -0.0605486 -0.103671 -0.0211536 0.128495 -0.0859698 -0.126983 0.19223
2463 -0.0664312 -0.0422587 0.0589578 -0.0403209 0.0265843 0.0533478 -0.0594615 0.0711704 -0.0929388 -0.11217 -0.0864885 0.0323926 0.0489858 -0.164407 -0.074804 -0.0844754 -0.0178493 -0.124782 0.0483749 -0.113442 -0.138214 0.0189265 -0.0553264 -0.106111 -0.0724072 -0.00965284 -0.0292288 -0.0226307 -0.0261673 -0.019088 -0.00178055 -0.000670094 0.0769475 -0.134162 0.0607834 0.0854106 -0.193268 -0.148809 -0.0664565 0.0439659 0.158709 -0.127353 -0.134099 -0.0781895 -0.113408 -0.0215426 0.125323 -0.0868693 -0.127768 0.18313
2642 -0.000292698 -0.00109205 0.10285 -0.0766982 0.15478 0.305356 -0.115365 0.122118 -0.0512248 -0.0713755 -0.159199 0.0451749 0.0631253 -0.147663 -0.106659 -0.119992 -0.0064301 -0.005015 0.0179351 -0.0378308 -0.066837 0.00339086 -0.0639056 -0.100271 -0.190622 -0.0068753 -0.0894953 -0.0449449 -0.058883 -0.0437812 0.0605954 0.303803 0.0805066 -0.130358 0.0749699 0.0838973 -0.116154 -0.097786 -0.131894 0.102335 0.120003 -0.0834147 0.00569549 -0.0175233 -0.000971894 -0.0059504 0.0692707 -0.0255031 -0.0948026 0.11559
2692 -0.0338406 -0.0142832 0.116131 -0.086463 0.15044 0.317871 -0.147583 0.151299 -0.106579 -0.121085 -0.174091 0.061235 0.0683777 -0.215834 -0.124207 -0.161444 -0.0154929 -0.0555312 0.0345242 -0.0931074 -0.108579 0.0239815 -0.0881584 -0.144072 -0.216488 -0.00118024 -0.0852163 -0.04796 -0.0634534 -0.0402802 0.0591108 0.287508 0.11475 -0.190043 0.102527 0.136112 -0.20309 -0.165054 -0.171875 0.124343 0.179276 -0.144834 -0.0432677 -0.0503754 -0.0323711 -0.0138237 0.126485 -0.0737378 -0.147769 0.17769
409 0.00635652 0.00454543 0.0707855 -0.0502179 0.114699 0.233129 -0.0731334 0.0704494 -0.0159819 -0.0369371 -0.0927883 0.0360589 0.0353323 -0.0938019 -0.0645966 -0.0780835 -0.00774738 0.0217976 -0.00600664 -0.00310024 -0.00891726 0.00474751 -0.0333553 -0.0601395 -0.141588 -0.00775345 -0.0685085 -0.031958 -0.0443208 -0.0360367 0.0556973 0.262925 0.0485343 -0.078808 0.048866 0.0532638 -0.0622085 -0.0463748 -0.0969567 0.0669883 0.0456928 -0.0451086 0.0469435 0.0135127 0.047843 -0.012011 0.0236093 0.00338592 -0.0406291 0.0434043
726 0.0221811 0.0115857 0.100627 -0.0901946 0.154181 0.304224 -0.119187 0.107083 -0.0466192 -0.0557607 -0.157042 0.0374301 0.052679 -0.144349 -0.106005 -0.127612 -0.0133002 0.00103606 0.0101064 -0.0347671 -0.0396209 0.0127462 -0.0461418 -0.0840537 -0.177783 0.0032513 -0.0800677 -0.0383982 -0.0646093 -0.0404293 0.0475747 0.305718 0.0616721 -0.111601 0.0673986 0.0827849 -0.106155 -0.0854717 -0.123655 0.0905912 0.0890673 -0.0735555 0.0283861 0.00292259 0.0253732 -0.0185083 0.0249895 -0.0116384 -0.0401579 0.0516234
1386 0.0222003 0.0149807 0.0641061 -0.0540516 0.13418 0.262758 -0.0717918 0.0812737 -0.00505962 -0.0167057 -0.114075 0.0350035 0.0230105 -0.0723739 -0.0706707 -0.0893137 -0.00796569 0.0378842 -0.000171271 -0.00928856 -0.0141053 -0.0059888 -0.0373613 -0.0531943 -0.167911 -0.00896067 -0.0769809 -0.0409334 -0.058812 -0.0299559 0.0493521 0.275633 0.0354659 -0.0508992 0.0388441 0.0450788 -0.0303081 -0.0208426 -0.106818 0.0706656 0.0331521 -0.0250797 0.0645314 0.0115341 0.0594172 -0.0017545 -0.00297677 0.00544223 -0.0233117 0.0310798
551 0.0305444 0.0194475 0.102357 -0.0936891 0.160431 0.336885 -0.1094 0.112866 -0.0383592 -0.0536478 -0.158451 0.036338 0.0604091 -0.146108 -0.100577 -0.131012 -0.00416468 -0.00197453 0.0150792 -0.0454926 -0.0536023 0.00082478 -0.0469696 -0.0798618 -0.194201 -0.00949491 -0.0859211 -0.0387649 -0.0595966 -0.0511634 0.0498512 0.314886 0.0523782 -0.0794148 0.0626769 0.0616741 -0.0549713 -0.0665114 -0.114223 0.086724 0.0749696 -0.0510097 0.0274716 0.0147983 0.0267576 -0.00408666 0.0169727 -0.00162294 -0.0408255 0.0449068
1336 0.0533447 0.0467306 0.113037 -0.0919573 0.210719 0.419899 -0.109858 0.108877 -0.00711708 -0.00562936 -0.151834 0.0379799 0.0425368 -0.115002 -0.087811 -0.114566 0.012726 0.0624134 -0.023781 0.0173108 0.00383956 0.00802028 -0.0267705 -0.0557749 -0.23408 -0.00181864 -0.097158 -0.0529192 -0.0783728 -0.0609669 0.0766159 0.425878 0.0480497 -0.06827 0.0486357 0.0629825 -0.00762529 -0.0265587 -0.142441 0.0999549 0.0267721 -0.00967527 0.112829 0.0431343 0.0946912 0.00682297 -0.0254304 0.0389412 0.00469085 0.0148269
1445 0.024422 0.0217449 0.0805904 -0.0642724 0.128904 0.266455 -0.090257 0.0907493 -0.0220702 -0.0274656 -0.108651 0.0401792 0.0360611 -0.10668 -0.0793569 -0.0928341 -0.0131195 0.00613532 0.0061387 -0.0217845 -0.039936 0.0135136 -0.0371017 -0.0604927 -0.15262 -0.0103204 -0.0729985 -0.0290797 -0.0601566 -0.0457742 0.0455205 0.261906 0.0546696 -0.076973 0.0515327 0.0730545 -0.0763576 -0.0670596 -0.0893761 0.0671558 0.0649796 -0.0475929 0.0238223 0.0156487 0.0310502 0.000649592 0.0260793 0.00248698 -0.0390043 0.0612011
2338 -0.0390724 -0.0483729 0.118234 -0.106091 0.129358 0.288285 -0.133666 0.141021 -0.101085 -0.117651 -0.182616 0.0483302 0.0722072 -0.215899 -0.128746 -0.14569 -0.0235621 -0.0798244 0.0378628 -0.105229 -0.124753 0.0261401 -0.0823197 -0.151473 -0.231715 -0.00606823 -0.0974519 -0.0544886 -0.0658626 -0.0459473 0.0546531 0.289743 0.104566 -0.179196 0.0944656 0.124737 -0.197827 -0.161158 -0.164927 0.117066 0.203743 -0.146574 -0.0508159 -0.058205 -0.0526505 -0.0261515 0.142309 -0.0803081 -0.157722 0.20341
2926 -0.0415111 -0.0315377 0.0739648 -0.0626872 0.103332 0.233119 -0.102527 0.104166 -0.0472197 -0.0661499 -0.129907 0.0328795 0.0555539 -0.144427 -0.0880036 -0.102922 -0.0128768 -0.0266508 0.0180147 -0.0472667 -0.0528233 0.00422902 -0.045648 -0.0850497 -0.16716 -0.00224457 -0.0655443 -0.0440083 -0.0513577 -0.0468563 0.0402931 0.226258 0.0823962 -0.116696 0.0640451 0.0923844 -0.119163 -0.0917246 -0.124111 0.0927617 0.109577 -0.0845535 0.0193927 -0.0122831 0.0182554 -0.0148689 0.0641251 -0.0268853 -0.0761081 0.104271
1544 0.0265903 0.0347212 0.0718417 -0.0728337 0.14108 0.280684 -0.0778908 0.0782868 -0.020967 -0.0286574 -0.100429 0.0214722 0.0312502 -0.0689275 -0.0651966 -0.0877463 0.00349935 0.0460314 -0.0130401 0.000187029 -0.0157651 0.000264342 -0.0254976 -0.0615372 -0.160038 -0.00670588 -0.0800137 -0.03186 -0.040433 -0.0404253 0.0475371 0.277788 0.046271 -0.052243 0.0385901 0.0547514 -0.0259954 -0.0252575 -0.0883644 0.0663138 0.0255325 -0.0171579 0.0597061 0.0144695 0.0413495 -0.00270909 -0.00491156 0.0149511 -0.018973 0.0134058
2443 0.0229433 0.0213211 0.121831 -0.109816 0.220043 0.457086 -0.149199 0.162115 -0.0572952 -0.0767899 -0.201119 0.0575286 0.0591968 -0.202805 -0.145443 -0.162602 -0.0125039 0.0137517 0.00305103 -0.0522134 -0.0636976 0.0101666 -0.0668602 -0.130787 -0.284954 0.000280277 -0.126532 -0.0541614 -0.0795371 -0.0730511 0.0866984 0.470189 0.0969193 -0.150087 0.0887615 0.1201 -0.123027 -0.122986 -0.192152 0.153046 0.121334 -0.0952883 0.0641918 0.0131868 0.0480579 -0.00159241 0.0466504 -0.0151256 -0.082653 0.0985354
1193 0.0133153 0.0201565 0.0501495 -0.0550107 0.128961 0.235239 -0.0616379 0.0760271 -0.00390123 -0.0037306 -0.0728172 0.0261975 0.0222299 -0.0524514 -0.0422385 -0.0661047 0.0006129 0.0495521 -0.019958 0.0148382 0.0215458 -0.00133397 -0.0167824 -0.0303529 -0.145681 -0.0069312 -0.057701 -0.0284453 -0.0435254 -0.0221748 0.0414271 0.272409 0.0187162 -0.0425784 0.033361 0.027075 0.00739292 -0.00819609 -0.0849484 0.0564361 -0.00132332 -0.00201225 0.08799 0.0315069 0.0826349 1.5242e-05 -0.0121647 0.0235989 0.00369768 0.00497835
1664 0.0494658 0.0466413 0.233813 -0.208925 0.402689 0.802383 -0.260263 0.27196 -0.0864337 -0.114209 -0.365256 0.100122 0.108499 -0.313572 -0.225592 -0.283736 -0.0161206 0.0291315 0.0200733 -0.0894601 -0.115682 0.0271001 -0.107335 -0.216348 -0.470109 -0.0044368 -0.20708 -0.100494 -0.147276 -0.112533 0.148637 0.765782 0.145713 -0.225876 0.151533 0.168068 -0.165732 -0.171044 -0.289401 0.193 0.14402 -0.108196 0.117564 0.0293234 0.096536 -0.00448671 0.0581693 -0.0160955 -0.117719 0.142894
2941 -0.00551533 -0.00241531 0.0946518 -0.0729011 0.149842 0.276949 -0.105935 0.117564 -0.0507703 -0.0664435 -0.160948 0.0530945 0.0534453 -0.158417 -0.11088 -0.135762 -0.0130246 -0.0142985 0.00864887 -0.0549824 -0.0703809 0.011876 -0.0497872 -0.119573 -0.210787 -0.0069372 -0.089803 -0.0436002 -0.0583778 -0.0539527 0.0529934 0.310158 0.0920919 -0.158328 0.0922986 0.106711 -0.149444 -0.136476 -0.147728 0.116849 0.111501 -0.0899364 0.00427371 -0.0166804 0.00849037 -0.00329081 0.0745354 -0.0365031 -0.0949157 0.126326
2082 0.0239639 0.0271103 0.144942 -0.124179 0.228461 0.470826 -0.152651 0.15889 -0.0404215 -0.0731025 -0.194503 0.0627929 0.0700774 -0.176746 -0.128207 -0.161026 -0.00571724 -0.00145031 0.0117974 -0.0593554 -0.0710135 0.00182135 -0.0664878 -0.119751 -0.270494 0.00269601 -0.12088 -0.0585625 -0.0855801 -0.0705488 0.0829159 0.422466 0.0919189 -0.137322 0.0922493 0.0936093 -0.110357 -0.105122 -0.156228 0.111885 0.0960934 -0.0775159 0.0564776 0.0111531 0.0480104 -0.00182985 0.0507428 -0.0116297 -0.0647207 0.0933598
2426 -0.0151329 -0.0126469 0.0997727 -0.0973607 0.15206 0.323969 -0.135714 0.135055 -0.0740376 -0.0963141 -0.174257 0.0500959 0.0788252 -0.218651 -0.132793 -0.142623 -0.0271916 -0.0507644 0.0321039 -0.0712901 -0.0991741 0.0148438 -0.0691172 -0.135138 -0.22316 -0.00176265 -0.0846484 -0.0557937 -0.0684373 -0.0481693 0.0542525 0.304287 0.097643 -0.167673 0.090332 0.125402 -0.162239 -0.146672 -0.166606 0.110512 0.175912 -0.122454 -0.00370585 -0.0261873 -0.0169747 -0.0116634 0.0971988 -0.057615 -0.108539 0.146851
722 0.039347 0.0360546 0.0986729 -0.0812761 0.181557 0.371381 -0.105724 0.104336 -0.0209749 -0.0311858 -0.133508 0.0405695 0.0340576 -0.10756 -0.0828255 -0.115222 -0.00229081 0.0500794 -0.00242653 0.00547696 0.0049376 0.000364062 -0.0197761 -0.0517925 -0.195622 -0.0047535 -0.0848564 -0.0339912 -0.0576065 -0.0440747 0.0623622 0.369045 0.0431007 -0.0684054 0.059003 0.0564159 -0.0299566 -0.0284789 -0.125413 0.080712 0.0320831 -0.0176952 0.0896193 0.0269128 0.0784389 0.00670768 -0.0118984 0.0184604 -0.00932902 0.0103927
999 0.0410882 0.0312993 0.0820256 -0.0642903 0.146584 0.311511 -0.0983777 0.0876636 -0.0259077 -0.025272 -0.133614 0.0292893 0.0275133 -0.0914927 -0.0805869 -0.098102 0.00600459 0.0226572 -0.00996932 -0.0111458 -0.0128603 -0.00498697 -0.0233921 -0.0720551 -0.16474 -0.00733889 -0.0813094 -0.0423095 -0.0543589 -0.0433377 0.0608794 0.307512 0.0512208 -0.0756312 0.0423482 0.0619582 -0.053256 -0.0457918 -0.114321 0.0681478 0.0561956 -0.0455011 0.0458951 0.0191652 0.0394448 -0.0106458 -0.00216441 0.0166742 -0.0254921 0.0202821
2029 0.020272 0.0214853 0.11672 -0.0859187 0.201729 0.402784 -0.142371 0.139146 -0.0531627 -0.0645213 -0.186233 0.0544995 0.0660243 -0.177989 -0.132873 -0.148948 0.00257661 0.0110298 -0.00168276 -0.0323929 -0.0470143 -0.00379134 -0.055719 -0.10024 -0.235567 0.0061336 -0.101597 -0.0552389 -0.0777308 -0.051226 0.0661565 0.415493 0.0830241 -0.116165 0.0843477 0.0917563 -0.0963949 -0.0919008 -0.158503 0.115603 0.0783457 -0.0628833 0.0556351 0.0208891 0.0579109 -0.0096529 0.0348069 -0.0108766 -0.0453637 0.065752
2821 -0.0484843 -0.0412292 0.100847 -0.0830906 0.111586 0.214946 -0.113802 0.114355 -0.102643 -0.130212 -0.161503 0.0517159 0.0667113 -0.208575 -0.114308 -0.132239 -0.0196838 -0.0973302 0.0375666 -0.10661 -0.130077 0.0235839 -0.0808675 -0.139968 -0.179639 -0.00742905 -0.0730976 -0.0313114 -0.0509202 -0.0388284 0.0358207 0.203816 0.113775 -0.184907 0.0847004 0.133723 -0.216142 -0.166204 -0.15311 0.10626 0.196492 -0.159422 -0.063222 -0.0579379 -0.0603183 -0.0287171 0.134354 -0.0845484 -0.15867 0.203972
211 -0.0727988 -0.061674 0.0438825 -0.0330931 -0.00331707 0.00824922 -0.0528271 0.050883 -0.0887502 -0.109558 -0.0741004 0.0239785 0.0328351 -0.13211 -0.0742745 -0.0793938 -0.0260696 -0.128903 0.0375956 -0.109578 -0.123822 0.0247827 -0.0529876 -0.104318 -0.0608236 -0.0114822 -0.0240985 -0.0212269 -0.0163928 -0.00854206 -0.00600408 -0.0280111 0.0696402 -0.13183 0.0568571 0.0745796 -0.174124 -0.130985 -0.0459598 0.036361 0.171393 -0.129004 -0.125185 -0.0635276 -0.108793 -0.033024 0.144885 -0.0989912 -0.144036 0.183437
1053 -0.0340368 -0.0309801 0.0667605 -0.0382355 0.0992524 0.195294 -0.0794234 0.0824233 -0.0465377 -0.0493629 -0.0980302 0.0356605 0.0291383 -0.11187 -0.0654893 -0.0767053 -0.0189629 -0.00423082 0.0155171 -0.0342949 -0.0401264 -0.00363884 -0.0422367 -0.0606145 -0.129798 -0.00961919 -0.053135 -0.0181779 -0.0421248 -0.041129 0.045675 0.246335 0.0496883 -0.096615 0.0601417 0.0732236 -0.071483 -0.0670102 -0.110199 0.0818469 0.0705133 -0.0535641 0.0324085 0.00807413 0.0301478 0.00193389 0.0299667 -0.00517501 -0.0538968 0.0747818
1870 -0.0227057 -0.0232388 0.0687536 -0.0668012 0.087952 0.1742 -0.0812324 0.0797944 -0.0643264 -0.0738416 -0.10793 0.0276251 0.049295 -0.139608 -0.0887814 -0.0904206 -0.00613551 -0.0462736 0.0150469 -0.058037 -0.0627311 0.00177467 -0.0389746 -0.0828327 -0.11688 0.00341123 -0.0452207 -0.0272738 -0.04633 -0.0329916 0.0302456 0.175395 0.0645372 -0.0958762 0.060553 0.072262 -0.115144 -0.0893756 -0.0877885 0.0616414 0.100494 -0.0830518 -0.0248233 -0.0163872 -0.0155709 -0.0179833 0.0538881 -0.0285246 -0.0662662 0.105162
2983 -0.061771 -0.0518489 0.0906189 -0.0760164 0.0864543 0.194425 -0.102029 0.108865 -0.0978338 -0.119611 -0.149467 0.0423133 0.0663252 -0.184128 -0.10941 -0.130154 -0.0233704 -0.0770481 0.0248659 -0.0841418 -0.101425 0.022274 -0.0720041 -0.120861 -0.157457 0.00307992 -0.0589943 -0.0287464 -0.0544811 -0.0473679 0.0393492 0.20654 0.105255 -0.142557 0.0697466 0.104299 -0.163168 -0.139368 -0.142224 0.0943129 0.158275 -0.120138 -0.0435318 -0.0415111 -0.0427519 -0.013775 0.111165 -0.0706293 -0.121969 0.170475
35 0.0174231 0.0212692 0.0771563 -0.0598653 0.14792 0.292723 -0.0982685 0.0891206 -0.0109902 -0.0338446 -0.10681 0.037866 0.0398567 -0.0910524 -0.0698029 -0.102528 -0.00541836 0.03828 -0.0114688 -0.012273 -0.0187777 0.00368168 -0.0322683 -0.0608431 -0.175409 0.00202752 -0.0760856 -0.0312404 -0.0510517 -0.0477695 0.0595245 0.315085 0.0439329 -0.0856489 0.0514762 0.0525585 -0.0397896 -0.0353515 -0.127975 0.082322 0.0519144 -0.0244377 0.0793723 0.0220766 0.0532772 -0.00372723 0.0172402 0.00608966 -0.0252471 0.0379524
273 0.0364403 0.0367276 0.0994143 -0.0766145 0.17642 0.36149 -0.120456 0.10777 -0.0133142 -0.0286499 -0.146706 0.0439635 0.0320432 -0.114413 -0.0910979 -0.103824 0.00785273 0.0534389 -0.0107054 0.00101103 0.00511311 0.00246556 -0.0359974 -0.079453 -0.210052 -0.000118079 -0.0932916 -0.0385365 -0.0581792 -0.040302 0.079819 0.403983 0.0451858 -0.0791002 0.0510654 0.0673113 -0.0312753 -0.0460446 -0.144613 0.0960305 0.0536238 -0.036089 0.0889261 0.0286559 0.0800243 -0.00913204 -0.0103666 0.0126327 -0.015639 0.0264305
340 -0.0106274 -0.00332034 0.0612892 -0.0636954 0.110829 0.241608 -0.0828876 0.0928564 -0.0361696 -0.0542069 -0.11595 0.0260893 0.0310718 -0.113172 -0.0832361 -0.0972484 -0.00942134 0.00281543 0.00819903 -0.0228726 -0.029758 0.00492747 -0.0445084 -0.0862892 -0.158411 -0.000889976 -0.0663491 -0.0364677 -0.0562644 -0.0410079 0.0517733 0.263419 0.0567006 -0.0961098 0.0562282 0.0694144 -0.0852468 -0.0781839 -0.119441 0.0946117 0.09073 -0.0724929 0.0316071 -0.0107245 0.0197856 -0.0164678 0.0629236 -0.0280373 -0.0621255 0.0876973
2372 -0.0631412 -0.066728 0.0472943 -0.041547 0.00217615 -0.00178843 -0.0463511 0.058788 -0.0937597 -0.103597 -0.0604773 0.031069 0.0455587 -0.140176 -0.0662742 -0.0706898 -0.0352167 -0.131079 0.0486965 -0.10173 -0.142086 0.0307071 -0.0536038 -0.10673 -0.0626135 -0.00265354 -0.0238023 -0.0150377 -0.0238776 -0.0143446 0.000733699 -0.0173267 0.0735886 -0.127103 0.0448971 0.0916952 -0.17959 -0.140351 -0.060628 0.0502326 0.166943 -0.140832 -0.121919 -0.0757011 -0.0997145 -0.0222971 0.129824 -0.0934855 -0.151692 0.198871
2196 -0.0353909 -0.0385193 0.0821449 -0.0709181 0.113188 0.238833 -0.100432 0.101328 -0.0697554 -0.0892304 -0.1339 0.0450995 0.0551561 -0.148851 -0.103759 -0.111022 -0.0130423 -0.043073 0.017226 -0.0541665 -0.0652782 0.00529663 -0.0517562 -0.119996 -0.1898 -0.0135197 -0.0879469 -0.0306016 -0.0541511 -0.0431149 0.0421084 0.251575 0.0872713 -0.117787 0.0689928 0.0961687 -0.123581 -0.106149 -0.121654 0.0977857 0.110313 -0.0898241 0.00591553 -0.0114549 0.00567969 -0.00701489 0.0879834 -0.0415153 -0.106052 0.139093
1767 0.00113107 0.00783679 0.111596 -0.0902165 0.188511 0.380846 -0.145181 0.144938 -0.0467339 -0.0594359 -0.170164 0.0496374 0.0509161 -0.174763 -0.115716 -0.144905 -0.00357561 0.00196388 0.00689468 -0.0391995 -0.045715 -0.00217514 -0.0477485 -0.101175 -0.238741 -0.0063842 -0.106312 -0.0402751 -0.0702446 -0.0571797 0.0811187 0.410102 0.0844466 -0.122099 0.0842174 0.0967611 -0.0813731 -0.0885595 -0.154197 0.125269 0.0877142 -0.0571392 0.0770969 0.0108268 0.0513016 -0.00499105 0.0404052 -0.0130524 -0.0782915 0.0893398
2884 -0.0185337 -0.0150455 0.15693 -0.13273 0.255332 0.521641 -0.212636 0.207782 -0.127651 -0.15327 -0.28877 0.0869565 0.103753 -0.312901 -0.203925 -0.2424 -0.019159 -0.0459372 0.0331488 -0.0968249 -0.122433 0.0246013 -0.101303 -0.195384 -0.362091 0.0044696 -0.151103 -0.0681094 -0.114169 -0.0927846 0.102856 0.570911 0.167601 -0.254495 0.139249 0.186161 -0.24083 -0.214973 -0.263328 0.195484 0.196582 -0.161668 0.0296724 -0.0130308 0.0245708 -0.0237912 0.107523 -0.0448506 -0.150919 0.190957
1766 -0.0404169 -0.0383081 0.0721875 -0.0481159 0.0767108 0.170837 -0.072538 0.0731465 -0.0606882 -0.0649392 -0.102423 0.0261293 0.0441963 -0.13737 -0.0745401 -0.0938426 -0.0109995 -0.0453549 0.025342 -0.0509042 -0.0633538 0.0213801 -0.0464331 -0.087511 -0.139434 -0.00504614 -0.0696652 -0.0389849 -0.0443656 -0.0313207 0.0457434 0.207276 0.0748027 -0.128738 0.0686831 0.0976671 -0.132407 -0.114781 -0.116376 0.0920431 0.137749 -0.098866 -0.0187824 -0.032583 -0.010921 -0.0226365 0.0811429 -0.0450043 -0.0932148 0.125108
1995 -0.0502352 -0.0519673 0.0500577 -0.0333076 0.0111345 0.0171105 -0.0333158 0.0481016 -0.069458 -0.0860617 -0.0595132 0.0179415 0.0414247 -0.118682 -0.0671467 -0.0731272 -0.0270667 -0.0960728 0.0365044 -0.0819538 -0.107598 0.011659 -0.0417924 -0.0914573 -0.0654749 -0.00948068 -0.0204693 -0.0155121 -0.0255088 -0.00736622 -0.000770801 0.0113107 0.062503 -0.119922 0.049176 0.0656698 -0.153707 -0.117265 -0.0541376 0.0489347 0.150875 -0.123329 -0.0936934 -0.0569483 -0.0919232 -0.0228442 0.131832 -0.0826879 -0.130332 0.182002
434 0.0274834 0.0273261 0.0794562 -0.0674908 0.175403 0.363246 -0.129187 0.127133 -0.0131844 -0.0346192 -0.14399 0.039564 0.0516428 -0.122195 -0.0798958 -0.101757 -0.0124438 0.0249183 0.004827 -0.0198205 -0.0141116 0.00852208 -0.0391456 -0.0732002 -0.202923 0.00756331 -0.0933891 -0.0477864 -0.066426 -0.0364789 0.0623319 0.354163 0.063693 -0.0785145 0.0577161 0.0717043 -0.0565762 -0.0479143 -0.132758 0.0928345 0.0379936 -0.0252212 0.0807948 0.0277276 0.0577448 -0.00386452 -0.00747639 0.00488571 -0.0229682 0.0309985
631 0.00440425 -0.01175 0.0793982 -0.0697806 0.113714 0.238801 -0.0951032 0.0934469 -0.0617215 -0.0781498 -0.129355 0.0482472 0.0587389 -0.13849 -0.0987381 -0.108627 -0.0152647 -0.0342866 0.01219 -0.0669256 -0.0811862 0.00788221 -0.0510587 -0.078655 -0.161653 -0.00563731 -0.0705819 -0.0361636 -0.0532376 -0.0292388 0.044124 0.240054 0.0886682 -0.115857 0.0705595 0.0966845 -0.122685 -0.100867 -0.107323 0.0774875 0.116457 -0.0872122 -0.0102052 -0.0257899 -0.0195803 -0.0139864 0.0517547 -0.0334559 -0.0812293 0.110397
2455 0.0127973 0.00675256 0.143814 -0.134038 0.228534 0.454008 -0.176529 0.185183 -0.10707 -0.119812 -0.257219 0.0662715 0.0911058 -0.258603 -0.170427 -0.211401 -0.0139951 -0.0458747 0.0245896 -0.0761845 -0.097177 0.0220005 -0.0700981 -0.140257 -0.313722 0.00296894 -0.143027 -0.0741813 -0.10831 -0.0677937 0.0884215 0.492533 0.115692 -0.189807 0.108533 0.146586 -0.187283 -0.154434 -0.210653 0.160545 0.204176 -0.144232 0.0192741 -0.0277623 0.00139567 -0.0159864 0.0947026 -0.0380282 -0.121878 0.155288
2025 -0.0687677 -0.0656635 0.0527604 -0.0341213 0.0204359 0.0214443 -0.0619586 0.0602456 -0.0912454 -0.102273 -0.0696554 0.0207425 0.0466381 -0.15314 -0.073671 -0.0875481 -0.0350057 -0.116788 0.0370697 -0.109917 -0.126165 0.0295285 -0.0524551 -0.0975987 -0.0824273 -0.0089097 -0.0229328 -0.0148902 -0.036993 -0.0166902 0.0091002 0.0291659 0.0877007 -0.13761 0.0565226 0.0940064 -0.203408 -0.151368 -0.0836893 0.0562495 0.178944 -0.13139 -0.116372 -0.0720535 -0.0967199 -0.0247996 0.139827 -0.0944482 -0.142998 0.180232
325 0.0257504 0.0253959 0.129843 -0.104235 0.240107 0.483944 -0.152822 0.154794 -0.041307 -0.0604571 -0.21285 0.055256 0.0617382 -0.180876 -0.141719 -0.164916 -0.00957562 0.0348011 -0.011317 -0.0224499 -0.0299022 0.00943865 -0.0615038 -0.104636 -0.292798 0.0102868 -0.133272 -0.0649135 -0.090153 -0.0623384 0.0913868 0.482445 0.0750098 -0.122014 0.094139 0.101709 -0.0884078 -0.0937759 -0.188286 0.122502 0.0729288 -0.0624019 0.10461 0.0322785 0.083779 0.0013648 0.00779121 0.000276875 -0.0528044 0.0690951
970 0.0321562 0.0423889 0.105904 -0.0892075 0.227352 0.440767 -0.148732 0.145398 -0.0417588 -0.0658415 -0.198041 0.0596862 0.0478938 -0.160601 -0.10862 -0.139907 0.00360638 0.0342202 -0.0130605 -0.0127412 -0.0164692 0.00297014 -0.0369615 -0.0862424 -0.243876 -0.00706818 -0.0979896 -0.0433 -0.0741082 -0.0590248 0.0902374 0.449 0.0719266 -0.128085 0.0785219 0.0904255 -0.0748098 -0.088564 -0.166464 0.118429 0.0843375 -0.0577095 0.0844319 0.025982 0.061274 -0.00852229 0.00862725 0.00441255 -0.0218339 0.0405234
1371 0.0318014 0.0314557 0.0794662 -0.0705843 0.150681 0.315483 -0.0931266 0.0883606 -0.0225499 -0.0210188 -0.118283 0.0271047 0.0394243 -0.0911113 -0.0722347 -0.102261 0.00378991 0.0472274 -0.00928799 -0.000792715 -0.00530055 0.00127595 -0.0273237 -0.0658817 -0.17292 0.00248267 -0.0717668 -0.041246 -0.0615755 -0.0483742 0.0683997 0.314731 0.0485425 -0.0545985 0.051181 0.0488094 -0.0217627 -0.0321353 -0.114714 0.071126 0.0368908 -0.0279954 0.0680692 0.0268873 0.0673909 -0.00559392 -0.0118346 0.0177157 -0.000900079 0.0162298
312 -0.0114936 -0.0160131 0.0452854 -0.0503829 0.0598872 0.142304 -0.0552675 0.0561928 -0.0398714 -0.0576087 -0.0774236 0.0199284 0.0262582 -0.0855618 -0.0656921 -0.0694944 -0.00123272 -0.0436739 0.0135148 -0.0524819 -0.06625 0.0136123 -0.0277019 -0.070628 -0.108382 -0.00108696 -0.0441106 -0.0228325 -0.0428998 -0.0223649 0.0180138 0.136347 0.0465858 -0.0938795 0.0454726 0.0670255 -0.0927944 -0.0749558 -0.0702968 0.0489652 0.0888496 -0.0740163 -0.0203675 -0.0253131 -0.0151012 -0.012586 0.0645596 -0.0337188 -0.0639872 0.0985971
1622 -0.0765786 -0.074627 0.0979633 -0.0893645 0.0933969 0.202741 -0.114194 0.105426 -0.100643 -0.119882 -0.139261 0.0453695 0.0724027 -0.212159 -0.109431 -0.140694 -0.0226392 -0.119014 0.0440882 -0.108932 -0.148478 0.02605 -0.0834655 -0.148884 -0.177193 -0.00566065 -0.0673407 -0.0424569 -0.0511176 -0.0316698 0.0362595 0.199447 0.116726 -0.172542 0.077379 0.120496 -0.225779 -0.182314 -0.130107 0.110259 0.204336 -0.159788 -0.0736684 -0.0585497 -0.0625196 -0.0208357 0.161035 -0.0964329 -0.173947 0.227695
104 -0.0553873 -0.0380985 0.0360933 -0.0270947 0.00337254 0.0149252 -0.0390327 0.0405399 -0.0841253 -0.090518 -0.0710734 0.0284174 0.034768 -0.135614 -0.0630886 -0.0801198 -0.0291708 -0.10929 0.0404412 -0.0833149 -0.110597 0.0202344 -0.0542969 -0.087334 -0.0600017 -0.0118383 -0.0082412 -0.0187574 -0.0231389 -0.01448 0.000783097 -0.00509782 0.0706832 -0.12169 0.0397787 0.0863983 -0.168542 -0.118736 -0.0562516 0.0490712 0.153569 -0.113168 -0.117416 -0.0607272 -0.0889262 -0.0309041 0.122119 -0.0906884 -0.124245 0.168849
1905 -0.0715581 -0.0528068 0.0440857 -0.0279439 -0.0162951 -0.00664272 -0.0296023 0.0321741 -0.0976451 -0.0941737 -0.055049 0.0209093 0.0406841 -0.123997 -0.0634221 -0.0753767 -0.032438 -0.129215 0.0339474 -0.1021 -0.134009 0.0283189 -0.0581388 -0.0872599 -0.0624491 -0.00634119 -0.0207233 -0.0119234 -0.0211583 -0.0183307 -0.00889889 -0.0342095 0.0659106 -0.113304 0.0374261 0.0774856 -0.16851 -0.128782 -0.0478254 0.040465 0.17884 -0.128373 -0.121911 -0.0690933 -0.111802 -0.0201753 0.136056 -0.0884803 -0.140774 0.184255
229 -0.0663425 -0.0682371 0.0464922 -0.0455062 -0.00702357 0.00402903 -0.0486719 0.0505091 -0.10192 -0.114065 -0.064669 0.0325585 0.0422518 -0.15271 -0.0774842 -0.0777009 -0.0252507 -0.135469 0.0426902 -0.119159 -0.147183 0.0221644 -0.0491349 -0.104391 -0.0871589 -0.00889302 -0.0191097 -0.0296722 -0.0271328 -0.0229731 -0.00949605 -0.00490051 0.0902237 -0.140403 0.0519481 0.0943572 -0.188533 -0.154188 -0.0594082 0.0421741 0.172364 -0.134843 -0.137837 -0.0862593 -0.119681 -0.0296948 0.141463 -0.102632 -0.137488 0.194772
6 7.77271e-05 0.00602065 0.0747329 -0.0478491 0.12077 0.247474 -0.0987378 0.082619 -0.0312691 -0.0514892 -0.104325 0.0345655 0.0421624 -0.106715 -0.060943 -0.0783093 -0.0142107 0.00269889 0.0060565 -0.0112507 -0.0291108 -0.00386999 -0.0404215 -0.0807694 -0.1534 -0.00801309 -0.0721945 -0.0371305 -0.0536956 -0.0284335 0.0522685 0.282303 0.0533923 -0.0812545 0.0614959 0.0618095 -0.0680349 -0.0628297 -0.115347 0.0897345 0.0660959 -0.0456259 0.0508506 0.00614233 0.0356327 0.00322819 0.0291607 -0.00609025 -0.0504614 0.0695807
1482 -0.0568691 -0.0613409 0.045739 -0.037445 0.00750359 0.00526938 -0.05187 0.0508462 -0.0859263 -0.111151 -0.0814239 0.0376175 0.0434594 -0.135491 -0.0808672 -0.0862943 -0.0227089 -0.134896 0.0498336 -0.114822 -0.133212 0.0312681 -0.0589997 -0.100514 -0.071983 -0.0020187 -0.0269208 -0.0178489 -0.0279902 -0.0119047 0.00553092 0.00253507 0.0914764 -0.134498 0.056756 0.0865774 -0.185241 -0.153478 -0.0632711 0.0384396 0.165551 -0.131051 -0.126955 -0.0637589 -0.109455 -0.025156 0.138026 -0.0931665 -0.140207 0.182869
523 0.00753365 -0.00623698 0.0740254 -0.0730884 0.139549 0.259991 -0.10878 0.0970583 -0.0368466 -0.0637595 -0.12998 0.0424021 0.0559834 -0.140116 -0.0840698 -0.102179 -0.0182305 -0.0143222 -0.00115691 -0.033197 -0.0424278 0.00835155 -0.0412894 -0.0741421 -0.174648 -0.000147382 -0.0780555 -0.0355534 -0.0572489 -0.0469301 0.0443599 0.27078 0.0567807 -0.104854 0.0649726 0.0813452 -0.0744615 -0.0707077 -0.125102 0.0810008 0.071247 -0.0428003 0.0356752 -0.0030632 0.0169316 -0.0120443 0.0408419 -0.0144874 -0.0620822 0.070943
1313 0.0170248 0.0133907 0.140252 -0.116143 0.205642 0.410548 -0.142832 0.15581 -0.0630258 -0.0642781 -0.199166 0.0463832 0.0635201 -0.195744 -0.131269 -0.164265 -0.00752429 -0.0149472 0.0116811 -0.0723173 -0.0878066 0.0220225 -0.0581169 -0.138298 -0.258813 -0.0122022 -0.123036 -0.0666519 -0.0880246 -0.071176 0.0702738 0.371256 0.0895874 -0.140504 0.0914233 0.105118 -0.146563 -0.131418 -0.158611 0.113675 0.106476 -0.0724229 0.0287113 -0.00177344 0.0261457 -0.00769166 0.0530929 -0.0275838 -0.0785736 0.0989793
1953 -0.0483255 -0.0532801 0.0974793 -0.0863564 0.108236 0.199292 -0.119067 0.107251 -0.113198 -0.120125 -0.156781 0.0574371 0.075359 -0.20865 -0.117381 -0.147328 -0.0267772 -0.124977 0.0466749 -0.125686 -0.148812 0.0235481 -0.0759709 -0.1394 -0.198546 -0.016774 -0.0809595 -0.0446901 -0.0622557 -0.0495116 0.0264646 0.203467 0.127491 -0.187331 0.09183 0.125971 -0.224625 -0.193355 -0.128901 0.0972834 0.210104 -0.157712 -0.084064 -0.0569574 -0.0797027 -0.0262887 0.149715 -0.0963242 -0.170406 0.215406
1029 -0.0672315 -0.0683208 0.026005 -0.0264644 -0.0113844 -0.00597673 -0.0309478 0.0430832 -0.0858189 -0.0822531 -0.0599211 0.0128153 0.0268517 -0.105725 -0.051792 -0.0683307 -0.0166787 -0.102849 0.0399476 -0.0828628 -0.0839322 0.0105118 -0.0490914 -0.0656868 -0.0479873 -0.00677118 -0.0280233 -0.00543126 -0.0139764 -0.0189032 0.0103583 0.0128909 0.0633984 -0.106913 0.0475277 0.0700021 -0.132786 -0.11043 -0.0614637 0.0509436 0.130581 -0.106051 -0.0656172 -0.0438823 -0.059523 -0.0237288 0.0921289 -0.0698815 -0.101987 0.141367
137 -0.0623747 -0.0462713 0.0382557 -0.0358801 0.00686703 0.014916 -0.046841 0.0443357 -0.074287 -0.0989584 -0.0613407 0.0332939 0.0340256 -0.123399 -0.0534082 -0.0692689 -0.0290957 -0.109942 0.0404826 -0.0954034 -0.114395 0.0268608 -0.0570669 -0.0767909 -0.0632916 -0.0158363 -0.0142208 -0.00639352 -0.0154174 -0.00913726 0.00660571 0.0120205 0.0704818 -0.111985 0.0466168 0.0747701 -0.16792 -0.121043 -0.0495419 0.0417947 0.154176 -0.11334 -0.105637 -0.0532846 -0.0824545 -0.0225304 0.124998 -0.0896136 -0.138712 0.165086
1190 -0.0518637 -0.0610232 0.0472794 -0.028283 -0.001641 0.0159394 -0.0459299 0.058052 -0.0908895 -0.104788 -0.0611581 0.0292931 0.0391707 -0.140205 -0.0752677 -0.0675174 -0.0203872 -0.132893 0.0432768 -0.0956958 -0.122214 0.0134381 -0.0493768 -0.0942575 -0.0543427 -0.00848321 -0.0147385 -0.0181832 -0.0190094 -0.0222036 -0.000771074 -0.0285614 0.0779199 -0.122193 0.0551878 0.087666 -0.170444 -0.130192 -0.035009 0.0398302 0.166607 -0.129278 -0.120701 -0.0746777 -0.107081 -0.0172409 0.124936 -0.08325 -0.126932 0.165854
1804 -0.0602921 -0.0614209 0.0415019 -0.0332629 0.0275532 0.0699174 -0.0674296 0.0691327 -0.0809883 -0.102221 -0.0898256 0.0403028 0.0545191 -0.153338 -0.0794062 -0.0905385 -0.0142989 -0.108526 0.0427171 -0.0864424 -0.102154 0.00885112 -0.0469066 -0.0907491 -0.0918693 -0.0136604 -0.038047 -0.0129723 -0.0364341 -0.0275996 0.00390698 0.0648555 0.0833071 -0.116538 0.062874 0.0890326 -0.163704 -0.13481 -0.07061 0.0648024 0.136186 -0.110086 -0.0819014 -0.0419715 -0.0640801 -0.0276768 0.107051 -0.07153 -0.111414 0.148655
93 -0.0559819 -0.0613183 0.0277 -0.0268002 -0.00705921 -0.00205989 -0.0512878 0.0440312 -0.0917245 -0.0931213 -0.0607541 0.0352512 0.0397169 -0.136542 -0.0621902 -0.0650446 -0.0179858 -0.129811 0.0405137 -0.10607 -0.117784 0.0205417 -0.0456168 -0.0997515 -0.0501987 -0.00429428 -0.0161938 -0.0187125 -0.0136142 -0.00721119 0.000639325 -0.0224628 0.0738053 -0.125345 0.038525 0.0915082 -0.174779 -0.145196 -0.0455614 0.0442074 0.1635 -0.125347 -0.117295 -0.0733955 -0.0965302 -0.0260977 0.120876 -0.0882193 -0.138206 0.176089
1196 -0.0619452 -0.0550708 0.0340022 -0.0262707 -0.00685252 -0.000745346 -0.0344982 0.0425201 -0.0769221 -0.0882698 -0.0684271 0.0261479 0.0455155 -0.124707 -0.0614996 -0.0691017 -0.0189861 -0.118337 0.0377155 -0.0840621 -0.108037 0.0120656 -0.049732 -0.0809688 -0.0619245 -0.0101816 -0.0201808 -0.0188887 -0.024954 -0.0161966 -0.00863465 -0.0135286 0.0718648 -0.118722 0.0505165 0.0824306 -0.171022 -0.137066 -0.047354 0.0398794 0.169295 -0.124831 -0.123496 -0.0689527 -0.102157 -0.0189386 0.115427 -0.0842851 -0.124016 0.17706
1936 -0.0430329 -0.0446294 0.0504149 -0.0536845 0.0471795 0.0716525 -0.0610095 0.0631627 -0.0770352 -0.0873799 -0.0832912 0.0318094 0.0388374 -0.140075 -0.0760699 -0.0860993 -0.0200396 -0.102786 0.042806 -0.0960064 -0.127028 0.0230565 -0.0532417 -0.091032 -0.102742 -0.00359681 -0.0399588 -0.0154384 -0.0305994 -0.0232523 0.0158919 0.0602645 0.0802679 -0.137787 0.0497243 0.0810109 -0.177005 -0.140054 -0.0574158 0.0519574 0.160276 -0.109176 -0.103939 -0.0585907 -0.0890511 -0.0238242 0.123838 -0.0731615 -0.116327 0.1658
824 0.0258251 0.031401 0.0838316 -0.0641012 0.143535 0.29315 -0.096687 0.102031 -0.0127608 -0.0384404 -0.111005 0.0291651 0.0461868 -0.103733 -0.0692781 -0.0938198 0.00557727 0.0411561 -0.0142101 0.00940127 -0.00753409 0.00458819 -0.0313046 -0.0542167 -0.148598 0.00881565 -0.0627312 -0.0260861 -0.0539122 -0.03012 0.0546508 0.29336 0.0481806 -0.0654891 0.0443725 0.0428403 -0.040931 -0.05042 -0.0963542 0.069026 0.0294098 -0.0267251 0.0783929 0.0294039 0.0645847 0.00887712 0.00663764 0.0157086 -0.00757635 0.0239049
1023 0.05833 0.0469185 0.157472 -0.142117 0.295434 0.599305 -0.21032 0.198189 -0.0715963 -0.104012 -0.298863 0.0838184 0.0943059 -0.246561 -0.192844 -0.236688 -0.0164909 0.0422413 0.0100197 -0.03182 -0.0478694 0.0041472 -0.0575036 -0.126365 -0.377905 0.0034711 -0.163201 -0.0844632 -0.12644 -0.089439 0.10672 0.595198 0.106979 -0.180629 0.112066 0.130823 -0.107972 -0.10319 -0.226553 0.149758 0.0941303 -0.0735771 0.100552 0.0373878 0.104662 0.00555655 -0.0101432 0.0328419 -0.0449233 0.0687293
1112 0.0675127 0.0537661 0.106132 -0.0771116 0.222661 0.444974 -0.129101 0.125661 -0.0204934 -0.0399864 -0.178949 0.0539387 0.0479855 -0.126116 -0.109439 -0.135464 0.0122919 0.086447 -0.0179918 0.0141972 0.0263708 -0.00857167 -0.0175881 -0.0467371 -0.238054 -0.00333691 -0.103094 -0.0419867 -0.0705324 -0.050475 0.0744955 0.465552 0.0460845 -0.078471 0.070434 0.0579322 -0.000362019 -0.0297165 -0.156047 0.100009 0.0249449 -0.0170176 0.12483 0.0410358 0.104331 0.00802045 -0.0353705 0.0445531 0.012166 -0.0102701
2917 -0.0706362 -0.0689748 0.0620881 -0.0543074 0.022912 0.0455884 -0.0600722 0.0638783 -0.112398 -0.125987 -0.0985178 0.0310863 0.0441907 -0.171026 -0.0921605 -0.0910223 -0.026435 -0.132686 0.0393427 -0.116076 -0.145208 0.0263778 -0.0656341 -0.100943 -0.0917388 -0.00109387 -0.040378 -0.029593 -0.0384936 -0.0255396 0.000149536 0.0386623 0.0866958 -0.141422 0.054245 0.103835 -0.199977 -0.165401 -0.080213 0.0735985 0.188549 -0.135111 -0.112676 -0.0728657 -0.107915 -0.0183617 0.146379 -0.100524 -0.149924 0.195682
1531 -0.00593497 -0.00964185 0.0456567 -0.0487817 0.0775279 0.16326 -0.056458 0.0558732 -0.0209102 -0.0314601 -0.0850103 0.031337 0.0358344 -0.0762799 -0.0501979 -0.0585827 -0.00802861 -0.0026131 0.00235315 -0.0132818 -0.0243664 0.0130647 -0.0374036 -0.0484042 -0.115051 5.66856e-05 -0.0567017 -0.0154409 -0.0449392 -0.0194863 0.0318106 0.211141 0.041956 -0.0616701 0.0412214 0.0474757 -0.046171 -0.0611143 -0.0901192 0.069444 0.0555949 -0.0480369 0.0287007 -0.000669447 0.0189051 -0.00125773 0.0236096 -0.00373021 -0.0426341 0.0457477
2998 -0.0463946 -0.0493236 0.171656 -0.139484 0.230481 0.451736 -0.188651 0.208137 -0.126451 -0.160125 -0.261742 0.0749352 0.101621 -0.306525 -0.204116 -0.238035 -0.025595 -0.104158 0.0539101 -0.154392 -0.186967 0.0250513 -0.128545 -0.220836 -0.361679 -0.0131822 -0.141231 -0.0873604 -0.117408 -0.0708279 0.0892519 0.444145 0.182456 -0.270131 0.14658 0.193282 -0.300485 -0.247257 -0.234607 0.176665 0.281866 -0.212304 -0.0599321 -0.0577932 -0.0631937 -0.0374145 0.196449 -0.115103 -0.228881 0.298461
2854 -0.0491028 -0.0444552 0.142442 -0.129716 0.219918 0.435285 -0.189503 0.184925 -0.123078 -0.159758 -0.24184 0.0747985 0.0925145 -0.277074 -0.180859 -0.20961 -0.0197768 -0.075608 0.0430121 -0.111794 -0.141495 0.0322755 -0.0983869 -0.203684 -0.313571 -0.00158554 -0.119184 -0.064913 -0.0929314 -0.0691986 0.0791653 0.444868 0.153513 -0.239886 0.122622 0.173217 -0.277325 -0.22681 -0.232214 0.18027 0.253355 -0.198547 -0.0350741 -0.0529633 -0.038891 -0.0289442 0.168635 -0.097818 -0.193678 0.259599
565 0.0314019 0.0227413 0.0560986 -0.0533402 0.134019 0.273435 -0.0854615 0.0753206 -0.0147726 -0.0190055 -0.0963376 0.0367576 0.0384797 -0.0715772 -0.0724757 -0.0886778 -0.00559657 0.0355441 -0.0178303 0.0119633 0.0080292 -0.00374203 -0.0172436 -0.0382272 -0.143414 0.00261539 -0.055825 -0.0286033 -0.0311464 -0.0340945 0.0613338 0.272819 0.029291 -0.0597257 0.0360596 0.0476345 -0.0192302 -0.0230349 -0.106125 0.0650755 0.039211 -0.0262069 0.0571978 0.0183525 0.05518 0.000849149 -0.00395518 0.00706577 -0.00508256 0.00795602
678 0.0264435 0.00846111 0.0863195 -0.0775334 0.166461 0.321012 -0.123677 0.116809 -0.0417432 -0.0513961 -0.156501 0.0371998 0.0513471 -0.141428 -0.09712 -0.127342 -0.00242021 0.00867146 0.0014032 -0.0315453 -0.0329262 0.00524993 -0.0541165 -0.0989222 -0.215016 -0.00662682 -0.0764168 -0.0345745 -0.0693812 -0.0522867 0.0626501 0.325521 0.0659329 -0.109924 0.0676366 0.0856912 -0.0759316 -0.07188 -0.129821 0.106095 0.0836936 -0.0719984 0.0411227 0.00857548 0.0255243 0.000482361 0.040177 -0.0218963 -0.0505863 0.0809291
1679 -0.0410898 -0.0400549 0.0798243 -0.078979 0.0787376 0.177297 -0.0925744 0.101205 -0.0962433 -0.0949609 -0.126092 0.0485547 0.0506125 -0.1707 -0.103377 -0.109919 -0.0303161 -0.100711 0.0230411 -0.0884705 -0.109483 0.0148491 -0.0671453 -0.110715 -0.154854 -0.013049 -0.0658768 -0.0261951 -0.0468784 -0.0422582 0.0380938 0.162214 0.0896867 -0.148553 0.0709199 0.096206 -0.168558 -0.142167 -0.121421 0.0810146 0.169595 -0.13355 -0.076686 -0.0578918 -0.0599314 -0.0163453 0.115707 -0.0697322 -0.123817 0.181534
433 0.0335895 0.0274676 0.0881583 -0.0740173 0.152108 0.306438 -0.101339 0.0990436 -0.0235966 -0.0249715 -0.136583 0.0338071 0.0378021 -0.118987 -0.0710478 -0.107382 0.00144934 0.0488024 -0.00412022 0.00113693 -0.00294495 -0.00649518 -0.0406826 -0.0592046 -0.171594 0.00905888 -0.085716 -0.0285448 -0.0479242 -0.0388742 0.0623629 0.330653 0.0463033 -0.0742185 0.0463537 0.0616483 -0.0494986 -0.0509696 -0.124865 0.079626 0.0438051 -0.0381651 0.0834944 0.017801 0.070273 -0.00187437 -0.000750744 0.0144194 -0.0274017 0.0242314
