4001 50
3352 -0.0207471 -0.0214563 0.00174736 -0.00837657 -0.0133582 0.0104007 -0.0217451 0.016577 0.0361551 -0.0081416 0.0430883 -0.0303638 -0.00549539 0.0671029 -0.0313336 -0.0799232 -0.0112204 0.0672586 -0.0517124 0.00905783 -0.00866697 0.030075 0.035889 0.0112488 -0.0426544 0.046634 -0.0166612 0.0300848 -0.0080924 -0.00471056 0.017125 -0.0085608 -0.0606137 -0.00219957 -0.101664 -0.0595342 0.00662995 -0.0511621 -0.0474519 0.0523151 0.0389066 -0.00862866 -0.200882 -0.281284 0.203721 -0.0724369 0.173086 0.113871 0.075749 0.0559445
3888 -0.067568 -0.0722008 -0.0740473 -0.00373025 0.024736 0.00402057 0.0427292 -0.0564462 -0.0443963 0.0105369 -0.0323163 0.0155763 -0.00254799 0.00147124 0.00143506 0.0205798 0.00420637 -0.0204402 0.0281785 -0.0136355 0.00485425 -0.0143376 -0.0034617 -0.0090473 0.0214265 -0.0484722 -0.0119476 0.0597199 -0.0287107 -0.0519466 0.0622063 -0.0368762 -0.0511896 0.0180691 -0.0695198 -0.0561397 -0.00566089 -0.0285688 -0.069601 0.0707978 0.0170205 -0.00390326 -0.0597215 -0.062405 0.0608475 -0.0143136 0.0583373 0.0424289 0.0305932 0.0335354
0 -0.40253 -0.432169 -0.308446 0.00139562 0.0825785 0.00651962 0.278803 -0.37671 -0.405227 0.0779391 -0.351896 0.286489 0.00745357 0.0245826 0.0363413 0.194592 -0.0461785 -0.187935 0.290463 -0.0826939 0.115244 -0.194669 -0.213969 -0.0937761 0.252806 -0.599912 -0.164859 0.742392 -0.389559 -0.599762 0.77338 -0.574752 -0.87729 0.272321 -1.0731 -0.879592 0.0324505 -0.622841 -0.91091 0.932924 0.36609 -0.0490569 -1.03749 -1.39548 0.971166 -0.360325 0.891696 0.592325 0.462612 0.405595
2799 -0.0161228 -0.0319276 -0.00657134 -0.00270388 -0.00375054 -0.00400698 -0.00213336 0.00761122 0.0185748 -0.00786962 0.024648 -0.022407 -0.00177074 0.0323529 -0.0108186 -0.0490663 0.00251808 0.0385429 -0.0290288 0.01014 -0.00463352 0.0194338 0.029033 0.00443382 -0.0182094 0.0360748 -0.00807776 0.019576 0.00297695 -0.00154417 0.0126327 -0.00567354 -0.0384319 -0.00369679 -0.0607426 -0.0509713 0.00496887 -0.0345206 -0.0340514 0.0359743 0.0343883 -0.00105284 -0.115022 -0.156276 0.117844 -0.0542678 0.0993654 0.0845769 0.0485285 0.0418052
3659 -0.0698101 -0.0730814 -0.0699847 0.000570853 0.0297027 -0.00599 0.0565062 -0.0943324 -0.0839865 0.0220986 -0.0777257 0.0535979 8.24072e-05 -0.0627944 0.0298695 0.0877926 0.00149328 -0.0754992 0.0828017 -0.0101731 0.0218718 -0.0569267 -0.0641208 -0.030494 0.0474022 -0.113897 -0.0124098 0.0791131 -0.0531689 -0.0806373 0.0987744 -0.0724806 -0.0834441 0.0220964 -0.0971837 -0.091873 0.00348466 -0.0653463 -0.0990801 0.114481 0.0180594 -0.00543369 -0.037067 -0.0616704 0.0581332 -0.0178709 0.0572901 0.0305365 0.0279481 0.0328108
1518 -0.0459511 -0.0572243 -0.0775395 0.0103751 0.0274843 -0.0151901 0.0729887 -0.0932553 -0.098346 0.0311298 -0.0929377 0.0641235 0.00449233 -0.0698022 0.0338076 0.109884 0.0015907 -0.0990165 0.0976258 -0.0107259 0.0260593 -0.0619322 -0.0778383 -0.0304146 0.0701078 -0.132337 -0.00340236 0.0512908 -0.040073 -0.0738771 0.0765087 -0.0682361 -0.0430559 0.0290578 -0.0356926 -0.0447448 0.00648764 -0.0381361 -0.0634258 0.0552671 0.00268647 -0.00127179 0.0331488 0.0568304 -0.0310197 0.0175759 -0.0298021 -0.0310086 -0.0133238 0.00741757
2334 -0.065568 -0.0779821 -0.0960709 0.00452897 0.0438265 -0.0182499 0.0729611 -0.107987 -0.0981718 0.0336802 -0.0856553 0.0779187 0.014026 -0.0794833 0.0344479 0.112123 -0.0091742 -0.103252 0.112096 -0.023287 0.0430415 -0.0689517 -0.0610896 -0.02373 0.0724159 -0.130923 -0.0159292 0.0676571 -0.0620761 -0.0872778 0.0959516 -0.0785736 -0.0521561 0.034289 -0.0558211 -0.0592641 -0.00220109 -0.0384059 -0.0707054 0.0696606 0.00994584 0.00889522 0.0280855 0.0328725 -0.0336041 0.00349937 -0.0148903 -0.0076232 0.0114725 0.0102102
2896 -0.0829261 -0.0879606 -0.0895845 -0.00302824 0.0239317 -0.00157416 0.0682747 -0.0831842 -0.0470312 0.00180416 -0.0379058 0.0224715 -0.00660015 0.0117436 -0.0157817 0.0134856 -0.00841164 -0.0331582 0.0411464 -0.00282239 0.00934901 -0.0074686 -0.0248739 -0.0210977 0.0267879 -0.0593505 -0.0171113 0.0949823 -0.053134 -0.0846544 0.0937777 -0.0721173 -0.100744 0.0364288 -0.144463 -0.120181 0.00406225 -0.0793319 -0.0967773 0.104715 0.0508352 -0.0199117 -0.224303 -0.29986 0.231977 -0.0917718 0.188535 0.131545 0.10961 0.0748442
2950 -0.0409982 -0.0597866 -0.0667592 -0.00379052 0.0416261 -0.00577574 0.0768134 -0.0976539 -0.109612 0.0210486 -0.0997493 0.0761107 0.00851948 -0.0826238 0.0411477 0.111008 -0.00856646 -0.107444 0.115406 -0.029758 0.0382604 -0.0781035 -0.0801176 -0.0423497 0.0682755 -0.141192 -0.0104811 0.0777682 -0.0617006 -0.075706 0.106688 -0.0732694 -0.0491277 0.0361375 -0.0590641 -0.0511524 0.00964484 -0.0501266 -0.0731552 0.0886213 -4.76778e-05 0.00845826 0.007392 0.0125138 -0.020379 0.013237 0.00790214 -0.00857097 0.00298288 0.00820233
1319 -0.0550875 -0.0635927 -0.0841623 0.000132201 0.0468717 -0.00739206 0.0784575 -0.120061 -0.116422 0.0261659 -0.107312 0.0831216 0.00217475 -0.076839 0.0411535 0.111076 0.00161247 -0.100823 0.113606 -0.0128675 0.0466274 -0.079052 -0.0903456 -0.0392065 0.0573257 -0.143756 -0.00715509 0.0753622 -0.0582882 -0.0788858 0.0869138 -0.0667718 -0.0484596 0.0289951 -0.0400437 -0.0347836 -0.00384923 -0.0369618 -0.0534071 0.060378 0.00740232 -0.00393636 0.0452536 0.0593334 -0.029966 0.016607 -0.0190248 -0.0102882 -0.00625998 -0.00557046
2542 -0.103725 -0.106085 -0.0791557 -0.000665287 0.00148937 0.010146 0.0553641 -0.0734586 -0.027912 0.00591111 0.00641313 0.00968087 0.000865128 0.0509354 -0.0392176 -0.0627453 -0.00238499 0.024398 0.00533944 -0.0219962 0.000523988 0.00601692 0.00603086 -0.0118142 -0.014323 -0.0163869 -0.0284925 0.117909 -0.045154 -0.081829 0.120904 -0.0815077 -0.142785 0.0278087 -0.211597 -0.155681 0.00922249 -0.113422 -0.136348 0.144059 0.0808754 -0.0273719 -0.320897 -0.41898 0.321756 -0.12158 0.267858 0.185764 0.111922 0.100324
2769 -0.110389 -0.14494 -0.116883 0.000275136 0.024181 -0.0065493 0.0851251 -0.0962826 -0.0659462 0.0151322 -0.0267369 0.0226598 -0.00771457 0.0171753 -0.022372 -0.014499 -0.0167808 -0.0195966 0.0581176 -0.0222633 0.0254546 -0.0248481 -0.0400877 -0.0225424 0.00913293 -0.0448728 -0.0386137 0.133777 -0.0734836 -0.106996 0.124095 -0.0873476 -0.152267 0.0356554 -0.215441 -0.163667 0.0130929 -0.114347 -0.154482 0.15731 0.0778794 -0.0244547 -0.278507 -0.388522 0.295864 -0.104969 0.24535 0.172368 0.11079 0.0849102
3432 -0.0385925 -0.045735 -0.0529413 0.00231471 0.0393887 -0.0144283 0.0604907 -0.0787522 -0.0792141 0.0181537 -0.0737296 0.0556212 0.00146257 -0.0671097 0.0383249 0.0912444 0.00526717 -0.0863518 0.0919501 -0.0162676 0.0362973 -0.0504776 -0.0712761 -0.0164648 0.0627141 -0.109019 -0.0162471 0.0530841 -0.0307933 -0.046481 0.0740584 -0.0440425 -0.0294738 0.0266645 -0.0220235 -0.0264774 0.0065673 -0.0159185 -0.0471327 0.0492454 -0.00861282 -1.00012e-05 0.0361793 0.0611172 -0.0289656 0.0179502 -0.0226059 -0.0180482 -0.00863466 -0.00632643
1015 -0.0635312 -0.066174 -0.084241 0.00530282 0.0371963 -0.00841634 0.0844868 -0.118053 -0.0981435 0.0221301 -0.0943578 0.0660978 0.0125684 -0.0689397 0.0332309 0.0936472 0.0026036 -0.0972138 0.0988026 -0.0140538 0.0453152 -0.0626251 -0.0616764 -0.0379899 0.0655236 -0.122509 -0.0136969 0.0816715 -0.0605296 -0.08175 0.0855734 -0.0639368 -0.0610009 0.0181038 -0.0510882 -0.0618346 0.00228781 -0.0299076 -0.0664268 0.0791126 0.0119095 -0.00625213 0.0236053 0.0274583 -0.00447484 -0.00328369 0.00357919 0.000101601 0.013027 0.0138826
1260 -0.032973 -0.0433631 -0.0471132 0.00619862 0.0129661 -0.0125869 0.0451688 -0.0584968 -0.0490268 0.0165034 -0.0360093 0.0306518 0.00394965 -0.0363283 0.00863552 0.0398728 0.00495024 -0.0463714 0.0494876 -0.0155956 0.0137014 -0.022285 -0.0286103 -0.00979156 0.0285617 -0.0726824 -0.00534728 0.0527623 -0.0292359 -0.0515795 0.0682238 -0.0522014 -0.0454076 0.00988725 -0.0434871 -0.0374669 -0.00385733 -0.0286557 -0.0479686 0.0599533 0.013434 0.00581873 -0.0397685 -0.0468094 0.0319273 -0.0131304 0.0337696 0.0295504 0.0340811 0.0150192
509 -0.0209565 -0.0328777 0.00244044 -0.0109527 -0.0109258 0.00294684 -0.00423927 0.00686228 0.0241343 -0.00169471 0.0285308 -0.0137307 -0.0047378 0.0352352 -0.00890545 -0.043076 -0.0117234 0.0270997 -0.0160093 0.00241054 -0.00607194 0.00396568 0.0128934 0.0080717 -0.0172475 0.0262531 0.000352385 0.0165817 -0.00568794 -0.00499622 0.0269251 -0.00580924 -0.0553607 0.00609842 -0.0713416 -0.0515404 -0.000150575 -0.0399808 -0.0452722 0.0519377 0.0306716 -0.00846562 -0.128474 -0.172354 0.123506 -0.0435138 0.109017 0.0883238 0.0562184 0.0357986
3931 -0.269793 -0.311976 -0.273701 -0.00073681 0.0892455 -0.0017422 0.212361 -0.297532 -0.22297 0.0485277 -0.171458 0.14165 0.00781286 -0.0139499 0.000672341 0.0874363 -0.0330702 -0.137286 0.188132 -0.0447467 0.071527 -0.108022 -0.12133 -0.0476336 0.105562 -0.260497 -0.067897 0.344154 -0.173564 -0.263206 0.356461 -0.252477 -0.371336 0.0980641 -0.481815 -0.384326 0.0130164 -0.271268 -0.38399 0.413249 0.164096 -0.0218214 -0.53193 -0.729351 0.551501 -0.211221 0.493016 0.334499 0.252421 0.208604
1671 -0.0486045 -0.0550527 -0.0727426 0.00819925 0.047664 -0.01225 0.0783643 -0.0912535 -0.0933747 0.0184826 -0.0905147 0.0682459 0.00425221 -0.067454 0.0308071 0.0855162 0.00570071 -0.0836022 0.0851323 -0.0253001 0.036179 -0.0548345 -0.0682819 -0.0196078 0.0453709 -0.12004 -0.0214807 0.062551 -0.0517477 -0.0574194 0.0727018 -0.059366 -0.0456776 0.0196079 -0.0356573 -0.0346631 -0.00158512 -0.0349114 -0.0567617 0.0567329 0.011033 0.0048422 0.0215445 0.0320225 -0.0277216 1.79748e-05 -0.00970202 -0.00636512 0.00727021 -0.00305135
1210 -0.0186679 -0.0152521 0.010924 0.00245724 -0.017243 0.0181582 -0.016766 0.0444298 0.0663342 -0.0213211 0.0594855 -0.0414293 -0.0105528 0.0948638 -0.0446645 -0.108784 -0.0143865 0.0746457 -0.0799812 -0.00311249 -0.0266769 0.0519567 0.0608033 0.0138686 -0.0668176 0.105872 0.00375626 0.0183262 0.0167487 0.0195203 0.000931002 0.0191387 -0.0533886 -0.00102114 -0.0892028 -0.0541849 0.000463297 -0.0424754 -0.0330526 0.0525223 0.0383418 -0.0161919 -0.241309 -0.32474 0.248133 -0.0938174 0.18289 0.12851 0.0872427 0.055733
1538 -0.0732838 -0.0868115 -0.0649541 -0.00301688 0.000644666 -0.00126179 0.021614 -0.0244963 0.0107482 -0.0170746 0.0283526 -0.0329718 -0.00190492 0.0815166 -0.042267 -0.0860373 -0.00486736 0.0626234 -0.0258797 -0.00203157 -0.000858593 0.0239675 0.0220558 0.0149573 -0.0277056 0.0450935 -0.0252216 0.0736957 -0.0274118 -0.0377828 0.0600323 -0.0528237 -0.0972422 0.0106782 -0.164348 -0.113258 -0.00190626 -0.0895256 -0.107551 0.100233 0.063144 -0.0205232 -0.29293 -0.405592 0.299862 -0.125594 0.254754 0.173366 0.116174 0.0938171
3201 -0.104799 -0.127226 -0.103365 0.00598971 0.0259496 0.00348262 0.0741419 -0.097052 -0.082496 0.00971869 -0.0471218 0.0303557 -0.00521998 0.0046504 0.000241518 0.0253056 -0.00325865 -0.0260041 0.0398737 -0.00558046 0.0210468 -0.0295023 -0.0290191 -0.0168831 0.0213456 -0.0456885 -0.0259819 0.0776432 -0.0528197 -0.0706185 0.0774792 -0.0623549 -0.0884466 0.0175369 -0.106412 -0.0711053 0.00130054 -0.0537378 -0.079548 0.0875798 0.031958 -0.00139144 -0.099794 -0.15014 0.104898 -0.0426699 0.0994552 0.0641938 0.0540554 0.0601721
3296 -0.0709431 -0.0756573 -0.071998 -0.00530916 0.014123 -0.00969919 0.0518235 -0.0746022 -0.0581841 0.0170375 -0.0551588 0.0475808 0.00993735 -0.0173971 0.00783775 0.0345511 -0.00496739 -0.0478804 0.0583227 -0.0174221 0.0218063 -0.0245585 -0.0405844 -0.0238157 0.022769 -0.0683551 -0.0159308 0.0882108 -0.0500923 -0.078106 0.082174 -0.0683657 -0.0906101 0.0249949 -0.110653 -0.081986 -9.30407e-05 -0.0566559 -0.0864004 0.0991209 0.0327853 0.00211583 -0.112216 -0.140605 0.103408 -0.0321561 0.104324 0.0639893 0.0587704 0.0410949
3530 -0.106091 -0.12831 -0.109979 0.00976805 0.037654 -0.00766247 0.0882972 -0.119041 -0.0868891 0.0228812 -0.0677214 0.0615802 0.00975595 -0.0163174 0.00742289 0.0275415 -0.0144201 -0.0648674 0.0638822 -0.0261037 0.0402995 -0.0399512 -0.0511805 -0.0263116 0.036424 -0.0868333 -0.0142466 0.0926099 -0.0490985 -0.0872479 0.120522 -0.0919607 -0.116952 0.0247634 -0.153293 -0.11421 -0.00131291 -0.0798175 -0.119858 0.12975 0.0589728 -0.0141623 -0.173029 -0.226442 0.17814 -0.0576877 0.156137 0.111505 0.0740591 0.0713042
980 -0.0462281 -0.0666061 -0.092427 -0.00146343 0.0363717 -0.0121019 0.0756364 -0.105497 -0.101827 0.0165949 -0.0763255 0.0719342 -0.0014622 -0.0662786 0.0318605 0.0974472 -0.00851048 -0.0948404 0.0897634 -0.00664479 0.0360544 -0.0473822 -0.0527482 -0.016553 0.0557836 -0.105357 -0.00904283 0.0622129 -0.0589914 -0.0636506 0.0904688 -0.0564791 -0.0394184 0.0149808 -0.0515054 -0.0454146 -0.000859811 -0.030608 -0.0610055 0.0501023 0.00564184 -0.00205109 0.0228787 0.0326972 -0.0196328 0.0156662 -0.000700043 -0.0121953 0.00530721 0.0127269
728 -0.0433629 -0.0346855 -0.00232795 -0.00907184 -0.00527794 0.0173976 -0.00125559 0.00645495 0.0203664 -0.00213673 0.0302327 -0.0238943 0.00454598 0.0649517 -0.0213816 -0.067145 -0.0022163 0.0519133 -0.0237009 -0.00200263 0.00193297 0.0158952 0.0233725 0.000537834 -0.0276379 0.0355247 -0.00274202 0.0526531 -0.0102791 -0.0233523 0.0485131 -0.0157722 -0.0857494 0.0195224 -0.117569 -0.0944158 0.00789594 -0.0577753 -0.0692101 0.0812421 0.0622106 -0.0188356 -0.21956 -0.293946 0.216804 -0.0866666 0.184003 0.127943 0.0705409 0.0562341
3593 -0.0757972 -0.0967393 -0.0737123 -0.00526051 0.0203805 0.00428885 0.0631574 -0.0756173 -0.0824193 0.009659 -0.0610713 0.0421487 -0.00719155 -0.0153005 0.00402616 0.0394392 -0.00201047 -0.0608849 0.0715265 -0.00925899 0.0245668 -0.0315792 -0.0365273 -0.0138642 0.045244 -0.0935289 -0.0239467 0.0923835 -0.0505272 -0.0821442 0.100206 -0.0786227 -0.0892203 0.030149 -0.11263 -0.0833649 0.00219238 -0.055868 -0.0982003 0.0966004 0.0307641 -0.00700359 -0.0884475 -0.108965 0.0728099 -0.0339095 0.080685 0.0526735 0.0435562 0.0460852
3024 -0.0639401 -0.0848075 -0.0737666 -0.00490011 0.0224881 -0.00446386 0.0659365 -0.0810661 -0.0575987 0.0200469 -0.0451347 0.0418307 -0.00313559 -0.0176601 -0.00542308 0.03303 0.00246424 -0.0411172 0.0402271 -0.0048474 0.0273592 -0.0331314 -0.0294184 -0.016263 0.0267452 -0.0765057 -0.0150332 0.103997 -0.0479005 -0.0844743 0.105149 -0.0732769 -0.105103 0.0296158 -0.135675 -0.120519 0.0113355 -0.086695 -0.123025 0.114541 0.0488472 -0.00672437 -0.161389 -0.217105 0.148031 -0.0499701 0.138832 0.107214 0.0839452 0.0657798
994 -0.0473119 -0.0632145 -0.0855384 -0.00351614 0.034365 -0.0133219 0.0761995 -0.0909308 -0.089338 0.0202656 -0.0809327 0.0650567 0.00884896 -0.0622284 0.0300181 0.0833941 -0.0043273 -0.0803671 0.0897899 -0.0236238 0.0415168 -0.0581164 -0.0520873 -0.0154725 0.0489361 -0.105272 -0.0212744 0.0726636 -0.0570102 -0.0721969 0.0881945 -0.0654547 -0.0495717 0.0299425 -0.0667228 -0.051692 0.00268911 -0.0497581 -0.0755019 0.0719927 0.00903921 0.0031112 -0.0181677 -0.029782 0.0340371 -0.0142164 0.0366733 0.0241344 0.0224935 0.0254853
731 -0.0256965 -0.0361341 -0.00544258 -0.00655629 -0.00394838 0.0092495 -0.00334126 -0.0136961 0.00627855 -0.0118425 0.016663 -0.0200057 -0.00814721 0.033169 -0.0254874 -0.0406707 -0.00286461 0.0295962 -0.0268617 0.00151721 -0.00942307 0.0215477 0.0112297 -0.00208753 -0.0082048 0.00454174 -0.0107702 0.0434351 -0.0159444 -0.0293763 0.0416405 -0.0362638 -0.0742045 0.0125784 -0.0882785 -0.0739077 0.00258831 -0.0543612 -0.0583116 0.0677129 0.0415538 -0.00155026 -0.157036 -0.2246 0.161074 -0.0730097 0.145246 0.0919498 0.0589363 0.0606813
3798 -0.314099 -0.365963 -0.314704 0.00680168 0.0894436 -0.0114756 0.214662 -0.309664 -0.224071 0.0414196 -0.167994 0.153034 -0.00352525 -0.017371 0.00896683 0.0808145 -0.0181773 -0.139711 0.199585 -0.0509561 0.0835192 -0.123781 -0.122014 -0.0543537 0.111693 -0.271633 -0.0727589 0.341103 -0.20397 -0.29181 0.357818 -0.269949 -0.381884 0.103528 -0.511473 -0.403336 0.00680118 -0.275308 -0.417942 0.433364 0.174199 -0.0350692 -0.580205 -0.780893 0.608872 -0.231198 0.511497 0.356109 0.260306 0.212594
3443 -0.0534527 -0.0603076 -0.089067 0.0114362 0.0425692 -0.00261589 0.076391 -0.102233 -0.10276 0.0272656 -0.100883 0.0792789 0.000121496 -0.0666688 0.0261526 0.0978169 -0.00959299 -0.103812 0.109285 -0.0229285 0.0416776 -0.0623299 -0.0690967 -0.019263 0.0718247 -0.133836 -0.00570097 0.0766509 -0.0526253 -0.0769656 0.0774532 -0.058401 -0.0569229 0.0156513 -0.0427147 -0.0414503 0.011201 -0.0287952 -0.0665026 0.0747903 0.00451384 0.00516373 0.0342616 0.0493768 -0.0412792 0.00867548 -0.01538 -0.0109348 0.00667162 0.0129859
1049 -0.00801916 -0.0173243 0.0181434 -0.00185541 -0.0203642 0.011343 -0.0141833 0.0283142 0.0380839 -0.00653385 0.0357748 -0.0243953 -0.0053296 0.0776771 -0.04399 -0.0855264 -0.00281239 0.056934 -0.0395741 0.00762263 -0.0178294 0.0184652 0.0268164 0.00556782 -0.0330161 0.0643766 0.0014968 0.0124383 -0.00570473 -0.00270045 0.00868008 -0.00373287 -0.0488879 0.00625655 -0.0795051 -0.0533201 -0.00224481 -0.0319548 -0.041941 0.0406898 0.0416926 -0.0125282 -0.19172 -0.263268 0.200174 -0.0751868 0.150365 0.113738 0.0677846 0.0617651
3625 -0.0237477 -0.0305533 -0.025596 -0.00537859 -0.0071067 0.000696119 0.0172011 -0.0107373 0.0066939 0.000442625 0.000223298 -0.0107557 -0.00967467 0.018579 -0.0179279 -0.0204749 0.00224533 0.00576781 -0.0103344 -0.0132525 0.00613426 0.00273063 0.0033255 0.00321928 -0.0081418 0.00232747 -0.0179889 0.028941 -0.0117181 -0.0222396 0.0361427 -0.0222599 -0.043394 0.0106531 -0.0822256 -0.0596874 8.23147e-05 -0.0461731 -0.059417 0.0455957 0.0231532 -0.00924845 -0.12208 -0.148438 0.108067 -0.0532981 0.0912343 0.0617964 0.0433423 0.0302593
3836 -0.0585537 -0.0698894 -0.0777112 -0.00642717 0.0334267 -0.0140632 0.0610564 -0.0763722 -0.0868794 0.024007 -0.0692729 0.0535821 0.00227453 -0.0277669 0.0235949 0.048527 -0.00695559 -0.0678234 0.0692401 -0.0204211 0.020002 -0.052407 -0.0573865 -0.0238362 0.0341343 -0.103372 -0.0251425 0.101525 -0.0668925 -0.0784097 0.105065 -0.0837392 -0.102705 0.0364469 -0.119898 -0.08972 -0.0019113 -0.0693857 -0.117151 0.114461 0.0454812 0.00318694 -0.118095 -0.146273 0.120218 -0.0351735 0.0959692 0.0737915 0.06798 0.0443662
1526 -0.0395722 -0.0420312 -0.041848 -0.00799106 0.00853881 -0.000777083 0.0345951 -0.0352524 -0.0238607 0.00153308 -0.0210141 0.0104682 -0.00640068 0.00866361 0.0108317 0.0108961 -0.00869116 -0.0107891 0.0145031 -0.0148712 0.00398343 -0.0175809 -0.0151855 -0.0041347 0.000323769 -0.0305481 -0.0152498 0.0389298 -0.0156584 -0.0223954 0.0340131 -0.0364871 -0.0396754 0.00622531 -0.0446499 -0.0394823 0.00120046 -0.0318918 -0.0436998 0.0491586 0.0184561 0.000801347 -0.069093 -0.0788781 0.0575838 -0.0274585 0.062831 0.042666 0.0172547 0.0162723
2728 -0.197694 -0.233255 -0.193037 -0.00438497 0.0545584 -0.00750154 0.157451 -0.208229 -0.157292 0.0337604 -0.117219 0.094722 -0.000759752 -0.00274683 -0.00659194 0.0589265 -0.023158 -0.0965189 0.129031 -0.0422139 0.0572702 -0.0858335 -0.0779432 -0.0303572 0.0683587 -0.164553 -0.0522899 0.231467 -0.117033 -0.190641 0.24051 -0.16767 -0.246547 0.0711184 -0.329952 -0.263614 0.0106778 -0.179061 -0.263143 0.290378 0.12096 -0.0225534 -0.397902 -0.527257 0.403613 -0.16048 0.364964 0.24773 0.177049 0.140362
803 -0.0358328 -0.0325326 -0.00465383 -0.00506746 -0.00376256 0.0029922 0.000204635 -0.0150438 0.00814592 -0.0114552 0.0138256 0.00625734 -0.00188909 0.0336941 -0.00915034 -0.0225043 0.000219662 0.0174229 -0.0111344 -0.0107477 0.00479796 0.000744383 0.014871 0.00419514 -0.00214525 0.00382938 -0.0150158 0.0438623 -0.0114156 -0.0342611 0.0280726 -0.0256639 -0.0509445 0.0170639 -0.0769238 -0.0475757 0.0114472 -0.0445096 -0.0569979 0.0570265 0.025327 -0.0151343 -0.11861 -0.154329 0.114437 -0.0507252 0.113023 0.0792057 0.0513118 0.0288652
3657 -0.181656 -0.21721 -0.18909 0.00621507 0.0595546 -0.00250958 0.118552 -0.168596 -0.105798 0.0112162 -0.0704183 0.0752136 0.0105624 0.021444 -0.0129936 0.0193851 -0.0213556 -0.0544843 0.0954615 -0.0353681 0.0411082 -0.063185 -0.0528877 -0.0202876 0.0299255 -0.0939049 -0.0545679 0.208409 -0.113314 -0.174112 0.225799 -0.160602 -0.233079 0.0557804 -0.286859 -0.228367 0.0171546 -0.143995 -0.218371 0.226008 0.103322 -0.0146741 -0.40986 -0.546141 0.424404 -0.153945 0.343971 0.25076 0.167214 0.141914
937 -0.0250929 -0.0249792 -0.000947779 -0.00895356 -0.00538162 0.000460038 -0.0108609 0.0107084 0.0314015 -0.0217353 0.0342721 -0.0366279 -0.00253294 0.0614656 -0.0254575 -0.0803295 0.00440744 0.0444217 -0.0455553 -0.00199664 -0.0133459 0.0356835 0.0397275 0.00506058 -0.0254872 0.0581713 -0.00573485 -0.00185573 0.0171991 0.00564137 -0.00243181 0.000949358 -0.0439401 -0.0096265 -0.0628691 -0.0427919 0.0059962 -0.0272895 -0.00958636 0.0217288 0.0368304 -0.0174939 -0.150933 -0.193015 0.160426 -0.0557058 0.119398 0.0948464 0.0438178 0.0320109
2129 -0.0931243 -0.100117 -0.0558382 -0.011442 -0.00408246 0.00173746 0.039266 -0.0417997 -0.0180413 0.00107729 0.00461806 -0.00514096 -0.00423445 0.0637935 -0.0267338 -0.0564707 -0.00807861 0.0320725 -0.0184496 3.6063e-05 -0.00492461 0.00210288 0.0232109 -0.00669713 -0.026646 0.0175723 -0.0260584 0.0821034 -0.0307928 -0.0463931 0.0828507 -0.0414822 -0.125069 0.0280467 -0.187708 -0.136394 -0.0035042 -0.0926247 -0.122425 0.142213 0.0730924 -0.0138842 -0.32116 -0.428952 0.327502 -0.120718 0.278188 0.194346 0.136148 0.111944
3694 -0.0879772 -0.0992904 -0.0667871 -0.00164313 0.00741236 0.00320048 0.0345426 -0.0596564 -0.0446659 0.00545597 -0.0460693 0.0275137 0.00891534 0.0176969 -0.000633607 0.0126993 -0.00527881 -0.0167838 0.042334 -0.00842448 0.00828368 -0.0265585 -0.0246526 -0.011115 0.000989521 -0.0255664 -0.014611 0.0644203 -0.0305938 -0.0396911 0.0734317 -0.0411664 -0.0937307 0.0169914 -0.109834 -0.0970126 -0.00265179 -0.0621629 -0.111656 0.10893 0.0432168 -0.0167689 -0.141958 -0.184384 0.158229 -0.0503245 0.134771 0.0943657 0.0493499 0.0455643
1686 -0.113923 -0.1244 -0.102958 0.00549101 0.0272065 0.0051101 0.0680284 -0.0912377 -0.0758138 0.0137183 -0.0580294 0.0476149 0.010569 -0.0173216 0.00108218 0.0215006 -0.0112978 -0.0517719 0.0564707 -0.016725 0.0271095 -0.0408087 -0.0281535 -0.0150889 0.0300329 -0.0805603 -0.0194854 0.12491 -0.0641201 -0.104045 0.125505 -0.092948 -0.127564 0.0301287 -0.165466 -0.133588 -0.00421714 -0.0837493 -0.137696 0.143349 0.0514133 -0.0170541 -0.164753 -0.238283 0.179214 -0.0754015 0.174971 0.12096 0.0930106 0.0642856
2511 -0.0677911 -0.0964494 -0.0801283 -0.00513352 0.0385857 0.00197118 0.0597559 -0.08985 -0.0700845 0.0159266 -0.0631025 0.0533126 0.00975265 -0.0270195 0.0116148 0.0503352 0.000772873 -0.0641341 0.0821141 -0.0217973 0.0336709 -0.0569575 -0.0396026 -0.0115739 0.0324654 -0.0804936 -0.0153259 0.0959841 -0.0513271 -0.0885858 0.102331 -0.0744366 -0.0908558 0.0212247 -0.0909461 -0.0751346 0.00122955 -0.0582437 -0.100813 0.101567 0.0318846 -0.00398169 -0.0816391 -0.114025 0.0962626 -0.0264576 0.0912336 0.0643309 0.0493492 0.0512438
3250 -0.0222664 -0.0175406 -0.0214188 0.00711392 0.00920872 0.000287815 0.0133038 -0.0108023 -0.00626149 0.00489474 -0.00836519 0.014168 -0.000934049 0.010423 -0.00395048 -0.0070976 -0.00662044 -0.00471828 0.00667646 -0.0123232 0.0149167 -0.0136444 -0.00509381 0.000864241 0.0104125 -0.0118359 0.00275524 0.0356556 -0.0170231 -0.0197789 0.0356049 -0.0325668 -0.0342239 0.00327414 -0.059306 -0.0434808 0.00944239 -0.0310054 -0.0507747 0.0558024 0.0141726 0.00313543 -0.0643696 -0.10047 0.0756582 -0.0244302 0.0580856 0.0535614 0.0233521 0.020971
3977 -0.218184 -0.265167 -0.217417 -0.00570284 0.0777977 -0.0157471 0.166415 -0.2253 -0.164432 0.040432 -0.148544 0.134747 0.00629799 -0.0151374 0.00939519 0.104644 -0.0286785 -0.13339 0.175023 -0.0548601 0.0706617 -0.10084 -0.118694 -0.0513846 0.0911037 -0.240357 -0.0569037 0.293352 -0.155869 -0.24729 0.308743 -0.237385 -0.329698 0.100667 -0.453178 -0.349528 0.00435538 -0.240568 -0.364616 0.403976 0.146715 -0.0378306 -0.502272 -0.671815 0.526238 -0.208087 0.46069 0.321403 0.224426 0.190278
2314 -0.0285057 -0.0394329 -0.0363576 -0.00339261 0.0158884 -0.00768332 0.0145966 -0.0170248 -0.0136892 0.00333625 0.00148235 -0.00658706 -0.0106255 0.0297921 -0.00872477 -0.0099525 -0.01065 0.0106947 0.00764971 0.00444607 0.00307455 -0.00423042 0.00054829 0.00671468 -0.0119301 -0.00543969 -0.00707007 0.0267908 -0.0169595 -0.0202596 0.0340452 -0.0230654 -0.0561758 0.0126745 -0.0810895 -0.059919 0.000831578 -0.035981 -0.0481756 0.0472257 0.0287065 0.000327924 -0.129192 -0.172525 0.116522 -0.0551497 0.101409 0.0712205 0.0399744 0.0405443
2720 -0.0791365 -0.105963 -0.106782 0.0069588 0.0396329 -0.00786677 0.0864361 -0.106288 -0.0894583 0.0278361 -0.0821852 0.0514294 -0.00197189 -0.0377553 0.0226452 0.0635581 -0.0100092 -0.0714768 0.0829601 -0.0180417 0.0195548 -0.0419051 -0.0485796 -0.025157 0.0548721 -0.102479 -0.0224571 0.0943356 -0.0602546 -0.0888899 0.117604 -0.080902 -0.084827 0.0378933 -0.13001 -0.0992237 0.00853054 -0.0812681 -0.115711 0.112774 0.0373461 -0.00163176 -0.109147 -0.149466 0.115959 -0.0402569 0.115541 0.0797532 0.0726051 0.0497058
1486 -0.0612992 -0.0673789 -0.0679171 -0.00484561 0.0266136 -0.0124949 0.0513202 -0.0891344 -0.0830548 0.0167153 -0.0570414 0.0537612 0.00334441 -0.0435301 0.0119816 0.0584714 -0.000530511 -0.0802805 0.0806195 -0.0179159 0.0163705 -0.0385008 -0.0546426 -0.0236016 0.0407255 -0.0912261 -0.0167038 0.0754183 -0.0399245 -0.0519471 0.0749763 -0.0504517 -0.0768419 0.0218208 -0.0806833 -0.0698617 -0.00353866 -0.0488732 -0.0747608 0.0734855 0.0219198 -0.0113311 -0.0560241 -0.0687039 0.0454223 -0.0247203 0.051716 0.037621 0.0349253 0.0175866
616 -0.0459539 -0.0503899 -0.0188824 0.00429994 2.5098e-05 0.00390771 -0.00204881 0.0019414 0.0287968 -0.00353296 0.0366493 -0.0267101 -0.00243453 0.0661197 -0.0240944 -0.0711782 0.00136251 0.0473524 -0.0364368 0.00317884 0.00595061 0.0202052 0.0157599 0.000770883 -0.0231734 0.0349334 -0.0142049 0.0467304 -0.0105605 -0.0268876 0.036663 -0.0284825 -0.0689531 0.0113539 -0.115011 -0.0800305 0.00672373 -0.0531637 -0.0787875 0.0785081 0.0477376 -0.0048247 -0.24452 -0.322907 0.250915 -0.0948133 0.196314 0.148301 0.075243 0.0584736
3445 -0.129604 -0.160466 -0.153045 -0.00645512 0.0375694 -0.006843 0.0975347 -0.142128 -0.0870771 0.0169412 -0.0620895 0.0479549 0.000223481 0.00304061 0.00438595 0.0370225 -0.00790864 -0.0575252 0.0776986 -0.0209878 0.0375533 -0.0405667 -0.0502402 -0.0164879 0.0254966 -0.0929913 -0.0459391 0.169059 -0.0833794 -0.133087 0.171836 -0.12829 -0.157677 0.0414165 -0.215452 -0.183362 0.0125277 -0.129018 -0.171955 0.18487 0.0743542 -0.0232006 -0.253776 -0.34632 0.269984 -0.108229 0.217066 0.150759 0.114759 0.0977522
3222 -0.0326634 -0.0230816 -0.00760173 0.00552003 -0.0085171 0.0117057 0.00640002 5.10362e-05 0.00732882 0.0023056 0.00332969 -0.00765952 -0.00164617 0.0407655 -0.0253179 -0.04529 -0.00380871 0.0350855 -0.00218275 -0.0151275 -0.00252503 -0.00930331 -0.00448778 0.00601231 -0.00171632 0.00301811 -0.0162839 0.0600633 -0.0296862 -0.0375977 0.0597424 -0.0438813 -0.0837755 0.0103907 -0.125337 -0.102984 -0.00484858 -0.0738949 -0.0788455 0.0934423 0.038676 -0.0211723 -0.201714 -0.27015 0.212801 -0.0787771 0.172781 0.114963 0.0730951 0.0751436
3714 -0.0833631 -0.0909327 -0.0600228 -0.00582354 0.0171538 -0.0102756 0.0512347 -0.0731118 -0.0384982 0.00545917 -0.0530403 0.0405386 0.00215746 0.00714958 -0.00207842 0.0131182 -0.00867714 -0.0355496 0.0488352 -0.00661494 0.0203068 -0.0223433 -0.022368 -0.00979436 0.0286474 -0.0552563 -0.0136883 0.102513 -0.0492167 -0.0705764 0.0950852 -0.0651796 -0.121431 0.0263657 -0.16376 -0.133198 0.00975067 -0.0867009 -0.134709 0.144129 0.0528549 -0.00379415 -0.196887 -0.243018 0.204195 -0.0775304 0.178111 0.115303 0.0690914 0.0683238
3123 -0.053008 -0.0572515 -0.0617172 -0.00255165 0.0410473 -0.0102234 0.0559263 -0.0842496 -0.0776488 0.0127388 -0.0786041 0.0578097 0.00166544 -0.0531384 0.0145663 0.0729268 0.00382905 -0.0787606 0.073759 -0.0238671 0.0395586 -0.0449361 -0.0622197 -0.0266135 0.0462215 -0.0962941 -0.0187651 0.055041 -0.037402 -0.0697329 0.0713351 -0.0492977 -0.0531064 0.0256422 -0.0488578 -0.0575532 0.00570664 -0.03971 -0.072349 0.07274 0.010037 -0.00372565 -0.0214316 -0.038787 0.0314142 -0.0165888 0.0295812 0.0267648 0.0188192 0.0216501
2237 -0.0085785 -0.0166201 0.0112465 -0.0105015 -0.0103431 0.0105923 -0.0343729 0.040518 0.0538864 -0.0256101 0.0458125 -0.0422225 -0.0128676 0.0788874 -0.0422459 -0.0843694 -0.00354486 0.0560863 -0.0555674 0.00216565 -0.0146864 0.0231736 0.0433273 0.00188893 -0.0316032 0.0504608 -0.0162179 0.0322014 -0.00463963 -0.00668144 0.0132036 -0.020086 -0.0735688 0.00386064 -0.108357 -0.0742866 0.00913527 -0.0514483 -0.0558336 0.0645299 0.0469563 -0.0211952 -0.209473 -0.291525 0.217795 -0.0869316 0.187067 0.132044 0.0664239 0.0560347
3328 -0.0467762 -0.045071 -0.0150645 -0.00689779 -0.00215964 -0.00311759 0.000287252 -0.00178237 0.00597315 5.43829e-05 0.0285766 -0.00639098 -0.00187614 0.0495642 -0.0369334 -0.0487116 -0.00381768 0.0357786 -0.020384 -0.00566299 -0.00758421 0.0149662 0.0139902 0.0114789 -0.0228828 0.00906855 -0.0193399 0.0646475 -0.0309315 -0.0375977 0.0687588 -0.0359645 -0.112509 0.0201912 -0.140904 -0.118479 0.00155523 -0.0758494 -0.0933615 0.0953977 0.055078 -0.0203577 -0.235343 -0.316331 0.230935 -0.0891399 0.211221 0.143116 0.0964304 0.0686903
3387 -0.0592753 -0.0741471 -0.0626795 0.00210124 0.0227549 -0.00768235 0.0384865 -0.0521113 -0.0521808 0.0141808 -0.0318567 0.0362638 0.00339386 0.0076671 -0.0049717 -0.0075635 -0.016063 -0.0381516 0.0354978 -0.0203618 0.0256255 -0.0368895 -0.0400449 -0.00630995 0.0235246 -0.0536097 -0.0261499 0.103691 -0.0447511 -0.0790515 0.105802 -0.0691541 -0.134109 0.0261678 -0.168299 -0.118793 0.00506789 -0.0907789 -0.113761 0.126838 0.0475986 -0.0206756 -0.21204 -0.294796 0.212199 -0.0805666 0.181278 0.126694 0.0783416 0.0614912
1682 -0.0612086 -0.0676193 -0.0459916 0.00176872 0.0110623 0.00404678 0.00913261 -0.028826 0.00262776 -0.00587613 0.012493 -0.0114618 0.00169431 0.0298553 -0.0221371 -0.0219017 -0.0151599 0.0283095 0.000710598 -0.00705314 -0.00884993 0.00761694 0.0146116 -0.000821644 0.00194276 -0.00869792 -0.00903901 0.0851487 -0.0396205 -0.0566585 0.0683472 -0.0493457 -0.0834275 0.0251349 -0.132549 -0.100983 0.00853156 -0.0656024 -0.0966361 0.109649 0.0372048 -0.0101896 -0.151669 -0.227172 0.162636 -0.0720355 0.142952 0.116033 0.0723288 0.0603245
2022 -0.0725148 -0.0909748 -0.0796087 -0.00865139 0.0122439 0.00186581 0.0505612 -0.0762418 -0.0500657 0.00793796 -0.0344046 0.0427825 -0.00661716 -0.00347085 -0.00356435 0.0162878 -0.0155573 -0.0225192 0.0582917 -0.0165289 0.0318222 -0.0309439 -0.0290436 -0.0219142 0.0257159 -0.0712768 -0.0341696 0.129646 -0.0659075 -0.110827 0.138611 -0.107193 -0.140642 0.0348209 -0.196467 -0.152785 0.0114264 -0.105669 -0.150434 0.167847 0.0619865 -0.0160996 -0.227968 -0.29099 0.2335 -0.0847046 0.210625 0.149935 0.11341 0.0921679
1327 -0.0643348 -0.0671135 -0.0992636 0.00120848 0.0306937 -0.00168212 0.0762414 -0.0947797 -0.110066 0.0273673 -0.0968227 0.0814262 0.00499703 -0.0785697 0.043028 0.106496 -0.00144627 -0.104869 0.108748 -0.0103109 0.0275551 -0.0589744 -0.0638448 -0.0365625 0.0691613 -0.130774 -0.0188424 0.077043 -0.0514806 -0.0717753 0.0946567 -0.0676105 -0.0513651 0.0344128 -0.0381044 -0.0366367 -0.00405324 -0.0249637 -0.0646941 0.0693354 0.000410543 0.0111167 0.0338132 0.0344849 -0.0233918 0.0117195 -0.0147295 0.00106732 -0.000870549 0.012175
1919 -0.0618807 -0.0809264 -0.0716944 0.0112226 0.0322555 -0.0143398 0.061515 -0.0934174 -0.0798099 0.0284468 -0.0678881 0.0581159 -0.000837363 -0.0387515 0.0252171 0.0529435 -0.000653725 -0.0750351 0.0880912 -0.017834 0.0381152 -0.0581124 -0.0610485 -0.0213803 0.0510033 -0.103845 -0.0209217 0.0730122 -0.0531123 -0.0681349 0.0862015 -0.0617545 -0.0679972 0.0233024 -0.0847151 -0.0693687 0.00404982 -0.0504851 -0.0753878 0.070847 0.0187052 -0.0120413 -0.0685763 -0.103073 0.0672067 -0.0291818 0.0726263 0.0360377 0.0447576 0.0402348
2573 -0.0657833 -0.0623204 -0.0417458 -0.0106917 0.0184729 0.00259946 0.0364652 -0.0540083 -0.0385708 0.00130567 -0.0238294 0.0284106 -0.00621636 0.0148242 0.0035238 -0.00091136 0.00248082 -0.0163054 0.0273968 -0.0145718 0.00736957 -0.01208 -0.0180224 -0.00483507 0.0102986 -0.0582255 -0.0130601 0.0795722 -0.0335221 -0.058048 0.0737701 -0.0589446 -0.0931556 0.0185091 -0.121143 -0.0963303 0.00339189 -0.0659055 -0.0901 0.0942865 0.0495862 -0.00989767 -0.155753 -0.203362 0.155248 -0.0489006 0.123154 0.0974937 0.0760708 0.0631857
627 -0.0176979 -0.0282293 0.0188063 -0.00651047 -0.0295061 0.00949799 -0.0233145 0.0371936 0.0542286 -0.017509 0.0533464 -0.0378766 -0.00298907 0.0859608 -0.0462067 -0.0849922 -0.00884471 0.059796 -0.0680923 0.00253663 -0.0144345 0.0348309 0.0410436 0.0224936 -0.0442945 0.0701393 -0.00889769 0.0242803 0.00611806 0.011209 0.00339865 0.00667846 -0.0572635 -0.00538333 -0.0858885 -0.0502779 -0.0068627 -0.0420664 -0.0313424 0.0394951 0.0486154 -0.0169239 -0.206422 -0.266474 0.19626 -0.0813411 0.16761 0.131912 0.0664909 0.0475335
2606 -0.0542139 -0.061336 -0.0869784 0.00171912 0.0293808 -0.00120183 0.0793396 -0.0979753 -0.105363 0.0261835 -0.0876751 0.0681528 0.00399063 -0.0720259 0.0399519 0.106848 -0.00105067 -0.102801 0.102784 -0.0106951 0.0400738 -0.0707234 -0.0685426 -0.0204438 0.0631278 -0.124973 -0.012454 0.0532686 -0.0511969 -0.0676728 0.0746884 -0.0504185 -0.041055 0.0238786 -0.0294468 -0.0276781 -0.00254722 -0.0340416 -0.0577822 0.0489428 0.00717247 0.00476077 0.0449069 0.0522406 -0.0388419 0.0173207 -0.0174181 -0.0250544 0.00183906 0.00221537
436 -0.00192533 0.0118499 0.0556635 -0.0135966 -0.0449394 0.0197442 -0.0581601 0.0768823 0.0864604 -0.0358719 0.09167 -0.060325 0.00359732 0.0998987 -0.0480546 -0.124633 -0.0115314 0.0962376 -0.0902318 0.00655256 -0.0267899 0.0639762 0.0759571 0.0211734 -0.054116 0.107165 -0.0110821 0.013183 0.0131061 0.0152598 -0.00634175 0.00183978 -0.0436917 0.000372704 -0.0926475 -0.0660286 0.0049813 -0.0329176 -0.0401887 0.0445758 0.0507033 -0.00479138 -0.193434 -0.270197 0.196435 -0.0675561 0.171718 0.113681 0.0701433 0.0548455
3614 -0.217384 -0.251641 -0.182463 0.00308497 0.0261121 -0.00173139 0.0997253 -0.149326 -0.0406967 -0.00775871 -0.0313603 0.0150261 0.00426786 0.0972105 -0.0468208 -0.0904106 -0.0177639 0.0145075 0.0159077 -0.0289679 0.0257445 -0.0239808 -0.00778701 -0.0172384 -0.0143898 -0.0280878 -0.0537662 0.202147 -0.0813212 -0.140317 0.189412 -0.128841 -0.234482 0.038342 -0.354925 -0.270561 0.013567 -0.193285 -0.247429 0.264857 0.143594 -0.0314253 -0.586787 -0.770335 0.591176 -0.231435 0.494795 0.338601 0.233543 0.186907
3687 -0.0629076 -0.0654386 -0.0383406 -0.00430015 -0.00476237 0.0031942 0.0137121 -0.030911 -0.0138994 0.00369615 -0.0101578 0.00715466 0.00719742 0.0437679 -0.0188769 -0.0376981 -0.00285146 0.0205778 -0.0158083 -0.0047938 0.000680377 0.00454385 0.0180962 0.00857801 -0.00430898 -0.0103593 -0.0198184 0.0894959 -0.0447569 -0.0562439 0.0930895 -0.0602108 -0.113192 0.0293906 -0.17054 -0.127928 -0.00362772 -0.0855219 -0.114743 0.138954 0.0527206 -0.0130549 -0.213675 -0.286005 0.223251 -0.0880726 0.193033 0.131277 0.0917375 0.0796498
628 -0.0190342 -0.0229993 -0.020323 -0.00538754 -0.00166894 0.00299019 0.000135611 -0.0133333 0.0150499 -0.00326355 -0.00155272 -0.0112556 0.00324453 0.0159056 -0.0104533 -0.0195806 0.00283736 0.0205329 -0.0179757 0.00148949 -0.00572435 -0.00302201 0.00496202 0.00029699 -0.0114842 -0.00641052 -0.0185741 0.0347094 -0.0203165 -0.032123 0.0453507 -0.0333344 -0.0490181 0.0160209 -0.0748316 -0.0519847 0.00338461 -0.0382664 -0.0435904 0.0585202 0.0354989 -0.00637339 -0.123573 -0.169789 0.11893 -0.0404073 0.103946 0.076155 0.0541135 0.0473092
3460 -0.0717037 -0.0748042 -0.08246 0.00568583 0.0324945 0.00228325 0.0657991 -0.0973361 -0.0953851 0.0106623 -0.0837129 0.0671043 0.00148844 -0.0439811 0.0116256 0.0600081 0.000883665 -0.0844895 0.0885718 -0.0252509 0.0387044 -0.0710438 -0.0573105 -0.0288036 0.0401303 -0.115158 -0.0204389 0.0956678 -0.0654762 -0.0853481 0.113825 -0.0852636 -0.101284 0.0276549 -0.117123 -0.095306 0.00386061 -0.0712957 -0.117618 0.115381 0.0469875 -0.0144893 -0.131239 -0.165462 0.124062 -0.0557929 0.102012 0.0690155 0.0600246 0.0533718
1930 -0.0919849 -0.106673 -0.11916 0.00533512 0.0377943 -0.000783005 0.081166 -0.11238 -0.0831821 0.0171327 -0.0669297 0.0632724 0.00209022 -0.0102885 -0.000260094 0.0434625 -0.0071289 -0.0735668 0.0782525 -0.0300576 0.0308667 -0.0599528 -0.0560068 -0.029374 0.0364445 -0.0988405 -0.033188 0.126 -0.0799598 -0.098445 0.136933 -0.10892 -0.137498 0.0301767 -0.188282 -0.14189 0.00463925 -0.0991333 -0.14559 0.159267 0.0584003 -0.014145 -0.203347 -0.275528 0.208145 -0.076849 0.179176 0.118032 0.0917464 0.0765632
1169 -0.0252966 -0.0285109 -0.00430869 -0.00883593 -0.0160606 0.0130751 -0.00793143 0.0229945 0.0266985 -0.00720694 0.0376442 -0.0187152 0.00527204 0.0521807 -0.0278191 -0.059419 -0.00299322 0.0468799 -0.0264804 0.00348567 -0.0143338 0.0196915 0.0141608 0.0142687 -0.0181721 0.0248847 -0.0156041 0.0314405 -0.000573715 -0.0166739 0.0268443 -0.0161737 -0.0519088 0.00467082 -0.0916635 -0.0694764 -0.00530534 -0.0526562 -0.0604832 0.0668257 0.0322101 -0.0118542 -0.161796 -0.225489 0.157245 -0.0570231 0.127638 0.0991097 0.0583767 0.046349
2140 -0.0682802 -0.0892469 -0.0834506 0.00325224 0.0268335 -0.00893986 0.0753595 -0.0996415 -0.095083 0.0161705 -0.0746751 0.0602816 0.0127256 -0.0263954 0.00984922 0.0663868 -0.00727615 -0.0738447 0.09316 -0.0253244 0.0282774 -0.0507834 -0.0615707 -0.0268458 0.0353372 -0.110591 -0.0145513 0.103609 -0.057676 -0.072725 0.0905099 -0.0718669 -0.101691 0.0357865 -0.10659 -0.0869115 0.0114062 -0.0689972 -0.0952909 0.115713 0.0334195 -0.00563206 -0.115005 -0.148364 0.109466 -0.0332391 0.0997589 0.076281 0.0444668 0.0420892
1097 -0.0525739 -0.0531969 -0.0103167 -0.00682019 -0.0184458 0.00108719 -0.00878241 -0.000298514 0.0279756 -0.00611496 0.0451355 -0.0340056 -0.000469888 0.0716436 -0.0363097 -0.0851694 -0.0112618 0.0700424 -0.0542167 -0.00612774 -0.020524 0.0288185 0.0345992 0.0213466 -0.0451746 0.0647878 -0.00379461 0.0561264 -0.00430301 -0.0332479 0.0361823 -0.0235554 -0.0704184 0.0057198 -0.121409 -0.0840055 0.0123238 -0.0547607 -0.0731665 0.0692032 0.0496322 -0.00359036 -0.223314 -0.283983 0.219181 -0.0844646 0.183188 0.129474 0.0792848 0.0747265
2660 -0.0848265 -0.0876298 -0.0477323 -0.00405349 -0.0157121 0.0170019 -0.00388752 -0.00574399 0.0523689 -0.0302973 0.078747 -0.0506128 -0.00640662 0.142387 -0.0653806 -0.151292 -0.0184187 0.103123 -0.0703674 0.00499726 -0.0129435 0.0513536 0.0503451 0.0201234 -0.0678512 0.0967931 -0.0280004 0.0731878 -0.0230728 -0.0332267 0.0360027 -0.0310186 -0.115516 0.0124752 -0.18244 -0.137022 -0.000330754 -0.0798101 -0.100749 0.112509 0.0939985 -0.0142097 -0.394772 -0.511983 0.395686 -0.157397 0.324607 0.232046 0.144265 0.103033
3878 -0.171325 -0.194227 -0.151379 -0.0103622 -0.00359584 0.0185424 0.0706405 -0.102007 0.0137961 -0.00894967 0.0386303 -0.0158679 -0.0101131 0.141171 -0.0661524 -0.112656 -0.0134483 0.0354628 0.0079335 -0.0279195 0.00464262 0.0138835 0.0216443 -0.00540473 -0.00897724 -0.0146639 -0.0374872 0.177156 -0.0697032 -0.115888 0.160284 -0.113684 -0.215609 0.0380485 -0.326965 -0.229334 0.0066829 -0.1662 -0.221543 0.236658 0.118856 -0.0215953 -0.522339 -0.702593 0.531978 -0.209952 0.438151 0.306263 0.204909 0.150666
313 -0.0458436 -0.0531687 -0.072095 0.00564949 0.0278679 -0.00522584 0.0652125 -0.0943171 -0.107519 0.0191081 -0.087777 0.0707246 0.00320878 -0.0681124 0.0417747 0.104941 -0.00687398 -0.0881125 0.0991484 -0.0211396 0.0433802 -0.0654157 -0.0706697 -0.0183754 0.0629351 -0.119463 -0.0164089 0.0727875 -0.0479808 -0.0878771 0.0803759 -0.0793481 -0.0572531 0.0178869 -0.0465514 -0.0495556 0.00928892 -0.0392972 -0.0652944 0.0592179 -0.00117123 -0.00654186 0.0368514 0.0645655 -0.049815 0.0270051 -0.0232634 -0.0122475 -0.00122774 0.0107227
3448 -0.140943 -0.160107 -0.123455 -0.00076553 0.0353574 0.00169868 0.0898058 -0.111169 -0.0805726 0.0128883 -0.0600469 0.0534195 0.00081088 0.0193056 -0.0050943 0.0136342 -0.0123723 -0.0407778 0.0736192 -0.0342828 0.032486 -0.0384837 -0.041395 -0.0261198 0.029414 -0.089271 -0.0363964 0.17142 -0.0906585 -0.123249 0.16036 -0.113861 -0.179388 0.0376216 -0.223308 -0.175233 0.0106913 -0.128618 -0.182908 0.196997 0.0759953 -0.0162583 -0.285052 -0.388229 0.297028 -0.108012 0.273373 0.179726 0.140077 0.110477
2325 -0.0736746 -0.0717666 -0.0862199 -0.00515951 0.0178163 -0.00592195 0.0412041 -0.074247 -0.0697377 0.00732702 -0.0703966 0.0468125 -0.00596132 -0.038492 0.00750605 0.0574602 -0.0100854 -0.0558922 0.0629313 -0.0155105 0.0157432 -0.0474732 -0.0395026 -0.0182094 0.0378937 -0.0706789 -0.0137184 0.0724135 -0.0496302 -0.0588827 0.0708115 -0.0549453 -0.0537032 0.00761548 -0.0572592 -0.0435352 0.00575979 -0.0432448 -0.0601964 0.0627238 0.0234845 0.00433708 -0.0348808 -0.0593294 0.0471535 -0.0161017 0.0599562 0.028284 0.0322082 0.0296066
824 -0.0441382 -0.0437799 -0.0131841 0.00628439 -0.0146097 0.0142066 -0.00846136 -0.00366169 0.0246255 -0.0210221 0.0307759 -0.0334895 -0.00606209 0.0650618 -0.026505 -0.0648583 -0.00819646 0.0520561 -0.0399909 0.00767948 -0.00906524 0.0307718 0.0470208 0.00934829 -0.0400332 0.0467766 -0.0028468 0.0297127 -0.00818975 -0.00935979 0.0114731 -0.00827236 -0.0524898 0.00428677 -0.0828168 -0.0600663 0.00697997 -0.0303464 -0.0380372 0.0563735 0.025788 -0.0068779 -0.1573 -0.218739 0.154224 -0.0567105 0.14221 0.0937452 0.0543547 0.0511688
1023 -0.114637 -0.114325 -0.0716374 0.0018503 0.00184557 0.00528527 0.0282359 -0.0445427 0.027074 -0.00823703 0.0289931 -0.0203015 -0.0137982 0.104329 -0.0547796 -0.100188 -0.00827947 0.0674326 -0.0290305 -0.00928322 -0.0106588 0.0215805 0.0337852 0.0162288 -0.0187934 0.0248708 -0.0280307 0.126234 -0.054432 -0.0682592 0.112695 -0.0919674 -0.165497 0.033617 -0.277911 -0.210029 0.00374813 -0.145055 -0.17785 0.194004 0.111135 -0.0255779 -0.432476 -0.572305 0.428 -0.172795 0.36481 0.252855 0.171028 0.141971
2310 -0.0925005 -0.0930017 -0.0493539 -0.00488395 -0.0174114 0.00997951 0.0129631 -0.0142022 0.0483574 -0.0170078 0.0499265 -0.0406252 -0.0126482 0.111679 -0.0611656 -0.108806 -0.00649121 0.072353 -0.0411989 0.00190262 -0.0098848 0.0220109 0.0464895 0.00481423 -0.030751 0.0565166 -0.0224741 0.100616 -0.0434675 -0.0625243 0.0869113 -0.0592547 -0.14386 0.0134093 -0.223634 -0.161791 -0.00415546 -0.0983456 -0.137121 0.140165 0.0790571 -0.0217021 -0.385732 -0.511411 0.40161 -0.155011 0.32294 0.237674 0.1495 0.115314
2652 -0.0859712 -0.0905715 -0.07018 0.00315832 0.0126169 0.0120503 0.034715 -0.0544258 -0.00186388 -0.00396597 0.0124424 -0.0106227 -0.0122473 0.0642661 -0.0248428 -0.0462552 -0.00175777 0.0236567 0.00334482 -0.0012593 0.0117292 -0.0035186 0.0155098 0.00902704 -0.0162012 0.00840922 -0.016803 0.0816383 -0.0384486 -0.0467378 0.0534088 -0.0433735 -0.107334 0.0272522 -0.143131 -0.110264 0.00653569 -0.0814357 -0.0854513 0.105848 0.0598308 -0.0196162 -0.234706 -0.310789 0.250221 -0.0980062 0.212446 0.140609 0.0899224 0.0727161
2957 -0.0870372 -0.109389 -0.0778611 -0.00475634 0.0263502 0.00770976 0.0612843 -0.0995289 -0.0428577 -0.000439194 -0.0217988 0.0234022 -0.00180799 0.0170432 -0.0172811 0.00919762 -0.0145991 -0.0186581 0.0350089 -0.0133397 0.0188373 -0.021354 -0.0361872 -0.0181475 0.00967316 -0.0460927 -0.0223445 0.112856 -0.0491236 -0.0700284 0.104133 -0.0790391 -0.129239 0.0227563 -0.180148 -0.123205 0.010939 -0.0979615 -0.135746 0.149238 0.0641922 -0.00978337 -0.217387 -0.283002 0.226744 -0.0890031 0.203057 0.145993 0.0871639 0.066249
364 -0.00941359 -0.0122408 0.00169589 -0.0139689 -0.0204375 0.00940212 -0.0118621 0.03137 0.0564533 -0.0243457 0.0418563 -0.0416061 -0.0123737 0.0739807 -0.0357221 -0.0905604 0.00207273 0.075847 -0.0410035 0.00100375 -0.00996786 0.0270162 0.0430455 0.0188675 -0.0395914 0.0703163 -0.0127942 0.0407178 -0.00712174 -0.0127259 0.0370568 -0.0125847 -0.0631238 0.0064629 -0.127183 -0.0755246 0.00328161 -0.0532959 -0.0702072 0.0663608 0.0485793 -0.00633312 -0.201567 -0.281569 0.213308 -0.0926602 0.172456 0.131306 0.0827232 0.0570914
674 -0.0240515 -0.0372993 0.0154641 -0.00118103 -0.0126598 0.0150095 -0.0172934 0.0108882 0.0347073 -0.0092626 0.0183837 -0.0190831 0.00689373 0.0512297 -0.0335338 -0.0552902 -0.00572157 0.0357575 -0.0395121 0.00453837 -0.0108518 0.0190328 0.0168036 0.0062342 -0.0157264 0.0168989 -0.0142823 0.0505546 -0.0247091 -0.0348302 0.0477861 -0.0358759 -0.0651169 0.00499893 -0.116231 -0.0757269 0.0033449 -0.0662273 -0.0799151 0.0784403 0.0499544 -0.021199 -0.186671 -0.255513 0.194076 -0.0809736 0.157086 0.110301 0.0643643 0.0535563
3104 -0.106315 -0.113727 -0.0909726 -0.00407752 0.00274562 -0.00191493 0.0399133 -0.07065 0.00660956 -0.0209365 0.0236073 -0.00685037 0.00710787 0.0977616 -0.0364513 -0.0741785 -0.0129693 0.0394064 -0.0184625 -0.0226744 0.00751103 0.00638435 0.00894797 -0.00506084 -0.0301382 0.00717351 -0.0266757 0.118271 -0.0566709 -0.077327 0.119614 -0.0759793 -0.166319 0.0236239 -0.258309 -0.189996 0.0089747 -0.14483 -0.161114 0.188394 0.0987913 -0.0319554 -0.436733 -0.569347 0.441855 -0.169979 0.351062 0.245779 0.152949 0.131381
3524 -0.0409724 -0.0531608 -0.078434 0.00994094 0.0433621 -0.00640146 0.0708069 -0.08982 -0.102367 0.0217236 -0.0842786 0.0738104 -0.00333537 -0.0760158 0.0432203 0.101971 -0.000255592 -0.0903337 0.102385 -0.0186995 0.0306499 -0.0696139 -0.0738672 -0.0191072 0.0621253 -0.115885 -0.0153145 0.0557258 -0.0469801 -0.0659073 0.0683405 -0.0480583 -0.0352022 0.0177637 -0.0329616 -0.0394012 -0.00228571 -0.0305241 -0.0470064 0.0631701 0.0109804 -0.00212696 0.0315406 0.0471622 -0.0238822 0.0200754 -0.0111333 -0.0201997 -0.00100047 0.00252412
1755 -0.0794911 -0.0938123 -0.0909351 0.00632089 0.0181825 0.0107203 0.0341823 -0.063081 0.00361074 -0.00557864 0.0224317 -1.4652e-05 -0.0070897 0.0606242 -0.0215491 -0.0612771 -0.00178175 0.0336562 -0.00102726 -0.0189302 0.0112919 0.0139002 0.0133298 -0.00472091 -0.0105038 0.0134278 -0.0228726 0.11832 -0.0468959 -0.0653242 0.109744 -0.0701392 -0.125506 0.0318365 -0.216316 -0.174823 0.00287941 -0.111896 -0.142457 0.148315 0.0684586 -0.0215492 -0.305366 -0.407648 0.305817 -0.118951 0.246594 0.186914 0.106759 0.0870271
3559 -0.0453182 -0.0677123 -0.0718098 -0.00832762 0.0299574 -0.0126356 0.0407064 -0.0716904 -0.0506387 0.00971089 -0.0447772 0.0418509 0.00727158 -0.0109715 0.0155449 0.0390511 -0.00810064 -0.0276153 0.0442691 -0.00365945 0.0275107 -0.0210238 -0.0412624 -0.00447569 0.0207568 -0.0624898 -0.0175026 0.0685497 -0.0472622 -0.0497294 0.0783614 -0.0593848 -0.0686382 0.0284421 -0.0799351 -0.0755929 0.00716774 -0.0449167 -0.0760419 0.0857047 0.0346595 0.00413493 -0.0808882 -0.105531 0.084872 -0.0427882 0.0804926 0.0563645 0.0495415 0.0319832
3327 -0.0365054 -0.0660291 -0.0764826 0.00762821 0.0231438 -0.00936712 0.0593862 -0.0828661 -0.0695401 0.0219319 -0.0612642 0.0521121 -0.00386492 -0.0495889 0.0293922 0.0564316 0.00152407 -0.0620483 0.0659542 -0.00747576 0.0295107 -0.0371042 -0.0449389 -0.0197733 0.0387159 -0.0989056 -0.00876195 0.0575749 -0.0375186 -0.067286 0.0614145 -0.0419562 -0.0428656 0.02513 -0.0481911 -0.0340517 0.0062583 -0.0297712 -0.0510154 0.0564795 0.0185511 -0.00124955 -0.0134751 -0.0149695 0.017271 0.00122338 0.023305 0.0117939 0.00956596 0.00980516
584 -0.0138121 -0.0272673 -0.0103521 -0.00136674 -0.00926803 0.0103709 0.00590931 -0.00709711 0.0181157 -0.0146547 0.0171163 -0.0176926 -0.00299784 0.0395844 -0.0223481 -0.0308828 -0.0116529 0.0384142 -0.0204361 0.00138049 -0.00250328 0.026473 0.013332 0.000525064 -0.00327505 0.00327553 -0.0136023 0.0383658 -0.0142508 -0.034091 0.0451282 -0.0356924 -0.0415972 0.0102464 -0.0902138 -0.0691822 0.0104048 -0.0412302 -0.045865 0.0560593 0.0224171 -0.00277844 -0.114337 -0.167937 0.129042 -0.0428265 0.0994183 0.0673453 0.0510084 0.0348087
1549 -0.0326612 -0.025844 -0.0143428 0.00229577 0.000674878 0.00108891 -0.00161557 -0.00172182 0.012038 -0.0091873 -0.000475751 -0.00188683 -0.00236338 0.0179526 -0.0112313 -0.0231112 -0.0061197 0.00389048 0.0108091 -0.010102 0.0131809 4.71936e-06 -0.0080367 -0.00902978 -0.0118732 -0.00461591 -0.0136801 0.0470514 -0.0189654 -0.0193158 0.0409208 -0.0364892 -0.0657785 0.00646515 -0.0994986 -0.0691852 0.00703553 -0.0512131 -0.0742296 0.078837 0.0443661 -0.0132285 -0.165149 -0.222108 0.164395 -0.0754883 0.129856 0.105833 0.0659619 0.0491557
3883 -0.0424599 -0.0563976 -0.0633021 0.00500227 0.0250817 -0.0163199 0.0645917 -0.100222 -0.0966185 0.0188778 -0.100013 0.0784288 0.00165426 -0.0574604 0.0259745 0.0926291 -0.00733419 -0.0967108 0.101711 -0.0175241 0.0393312 -0.0646451 -0.07373 -0.0252686 0.0740278 -0.12933 -0.0169937 0.0925413 -0.0653227 -0.0960814 0.0972738 -0.075758 -0.0765536 0.026866 -0.0876552 -0.0831821 -0.00317895 -0.0487834 -0.101246 0.11079 0.027736 0.00174703 -0.0484424 -0.0457918 0.0350222 -0.0214072 0.0396643 0.0334759 0.033537 0.0207156
2939 -0.0452626 -0.0620552 -0.0666491 0.0117117 0.0247477 -0.0162591 0.070732 -0.0811428 -0.0727869 0.0235412 -0.0622978 0.0525578 0.00986669 -0.0425804 0.0172195 0.0750124 -0.00322746 -0.0555545 0.05989 -0.0104378 0.0155491 -0.0315481 -0.0353491 -0.0224255 0.0415745 -0.0988931 -0.00972717 0.0480457 -0.0356704 -0.0542813 0.0558341 -0.0576377 -0.0475249 0.0133848 -0.0385754 -0.0342473 0.000641931 -0.032884 -0.0558397 0.0512411 0.0172556 -0.00916553 -0.0106684 -0.0126299 0.0140323 0.00470103 0.0282289 0.00392945 0.00926385 0.00955813
3993 -0.0876906 -0.114649 -0.0899387 0.00486568 0.0306404 0.00391778 0.0652534 -0.100263 -0.0748575 0.0121867 -0.0617982 0.0450147 -0.00452629 -0.0124805 0.0105953 0.0437763 -0.00432158 -0.058478 0.0717979 -0.015554 0.0213545 -0.0435536 -0.0536769 -0.0159297 0.0257339 -0.0822703 -0.022586 0.083986 -0.0526636 -0.0724344 0.0792587 -0.0588964 -0.094241 0.0334558 -0.114482 -0.10469 0.00284702 -0.0664826 -0.111161 0.116669 0.0541731 -0.000705667 -0.134283 -0.170887 0.136253 -0.0521064 0.118121 0.0792736 0.0610828 0.0465687
3546 -0.0454995 -0.0479606 -0.0652606 0.0122034 0.0230288 -0.00954856 0.0559682 -0.083292 -0.0982991 0.021115 -0.0869969 0.0746986 0.011318 -0.070648 0.0316602 0.101061 0.00228337 -0.0945453 0.103472 -0.00841533 0.0286703 -0.052385 -0.062059 -0.0355226 0.0464806 -0.0995437 -0.00134585 0.0502038 -0.0330995 -0.0621712 0.0542192 -0.0553882 -0.0298869 0.0141286 -0.0409425 -0.0375815 0.00465937 -0.0346998 -0.0495282 0.0523018 0.0103362 0.00650357 0.0370327 0.0359392 -0.0305695 0.0172728 -0.0231141 -0.0167512 -0.00305069 -0.0012403
3835 -0.0860071 -0.0927803 -0.0860029 0.00776211 0.0194981 0.00352957 0.0597828 -0.0857115 -0.0795044 0.00579877 -0.0587751 0.0441493 0.00843952 -0.0210873 0.0112358 0.024395 -0.000806311 -0.0492386 0.0406897 -0.0109894 0.0284175 -0.0404825 -0.0427108 -0.0180448 0.0358381 -0.082719 -0.0224561 0.0690402 -0.0406203 -0.061479 0.0765492 -0.0567526 -0.0637194 0.021112 -0.0879621 -0.0645781 0.000106123 -0.0475722 -0.0723242 0.0702694 0.022424 -0.000296212 -0.0991807 -0.139612 0.110962 -0.0342553 0.0909646 0.0536155 0.0523852 0.0447179
3945 -0.0507736 -0.068219 -0.0799522 -0.00625856 0.0305839 -0.00845622 0.0523448 -0.0735733 -0.0819324 0.0147797 -0.0717054 0.0580702 -0.00603405 -0.0467015 0.0200687 0.0727307 -0.0036737 -0.0646041 0.0968339 -0.0245324 0.0346169 -0.0585898 -0.0555594 -0.0276252 0.0465595 -0.102691 -0.0204131 0.0870827 -0.0547663 -0.0887478 0.106588 -0.0685707 -0.0751231 0.037831 -0.0871936 -0.0658037 0.0116098 -0.0498338 -0.0830931 0.0957097 0.0267198 0.00770765 -0.0449686 -0.0506974 0.0573238 -0.00869488 0.056393 0.0231928 0.0364643 0.0276372
465 -0.0582287 -0.0658217 -0.0772321 0.00152022 0.0318785 -0.00699614 0.0798446 -0.106724 -0.0938222 0.0235367 -0.0849047 0.0804804 0.0112274 -0.0704719 0.0357003 0.0962428 0.00648168 -0.103053 0.0944447 -0.0231656 0.0410957 -0.0663419 -0.072204 -0.0323256 0.0548151 -0.118575 -0.0184693 0.063045 -0.0567616 -0.0755233 0.0806573 -0.0653534 -0.0480814 0.0155851 -0.0402746 -0.0468938 0.00524037 -0.0338346 -0.0724631 0.0770959 0.00555477 0.00499465 0.0340327 0.0416151 -0.028032 0.00460125 -0.00816086 -0.0127593 0.0106102 0.0109718
3332 -0.0758784 -0.0994965 -0.0933659 0.000250339 0.0328055 -0.00190877 0.0757837 -0.100725 -0.0836045 0.0226289 -0.0834374 0.0554782 0.0050465 -0.0476814 0.0209036 0.0604226 -0.00281262 -0.0670152 0.080912 -0.0281779 0.0300295 -0.057285 -0.0542044 -0.0301854 0.0401754 -0.0974494 -0.0214532 0.0817999 -0.0580078 -0.0778957 0.0750035 -0.0590178 -0.0697812 0.030252 -0.076584 -0.0687475 0.00141826 -0.0531218 -0.0838798 0.0821765 0.0261488 -0.0117291 -0.0545192 -0.0698041 0.0675145 -0.0261675 0.0472753 0.034476 0.0411159 0.0251365
1872 -0.0295911 -0.0349999 -0.00313538 -0.00491441 -0.0237613 0.0023017 -0.014382 0.0296078 0.0656624 -0.0243658 0.102943 -0.0759809 -0.00116069 0.109554 -0.0414498 -0.13238 -0.0072007 0.10283 -0.0963015 0.0150902 -0.0362499 0.0612461 0.0711014 0.0318695 -0.0733592 0.118651 -0.00185455 0.0104239 0.0195607 0.0284875 -0.0282042 0.0328578 -0.00818453 -0.00843361 -0.0509769 -0.0230564 8.5794e-05 -0.0243067 0.00010889 0.00464984 0.0206272 -0.0114187 -0.175056 -0.244058 0.171812 -0.0769042 0.125436 0.100691 0.0602114 0.037868
3389 -0.240463 -0.285669 -0.172482 -0.0110641 -0.0081116 0.0303479 0.0746879 -0.124845 0.0206702 -0.0274879 0.083901 -0.0499263 -0.0205479 0.196798 -0.0883347 -0.221766 -0.0354633 0.126981 -0.0718341 -0.00495144 -0.0103016 0.0584192 0.0791545 0.00837562 -0.0672221 0.11476 -0.0481169 0.168358 -0.0555535 -0.0942215 0.142725 -0.089081 -0.226115 0.0285678 -0.338202 -0.252161 0.00374142 -0.164637 -0.192433 0.218586 0.122356 -0.0479322 -0.637982 -0.88852 0.672147 -0.269188 0.555249 0.383712 0.258972 0.198193
3419 -0.187659 -0.184483 -0.116618 -0.000957867 -0.00876851 0.00470773 0.0329516 -0.071973 0.0563153 -0.0230012 0.0836743 -0.0678853 -0.0220479 0.161632 -0.0899936 -0.206059 -0.0150577 0.109603 -0.084671 0.00335308 -0.0245555 0.0429205 0.0871331 0.0312992 -0.0615041 0.0837481 -0.0246916 0.122886 -0.0117032 -0.0348416 0.0886604 -0.0370901 -0.143345 0.0235376 -0.204765 -0.143506 0.0164844 -0.112915 -0.116364 0.124928 0.0921535 -0.033043 -0.47768 -0.646293 0.469248 -0.182853 0.359701 0.283997 0.17085 0.137562
1790 -0.00308458 -0.00798093 0.0335084 -0.0040292 -0.0273608 0.0149648 -0.0271226 0.0428394 0.0733475 -0.0144007 0.0706057 -0.0486688 -0.0106156 0.0820061 -0.0343166 -0.114522 -0.000363652 0.0949696 -0.091744 0.00502747 -0.0262567 0.0597619 0.0493439 0.0219916 -0.0525078 0.0747197 -0.00164676 0.0132557 0.0203919 0.0202704 0.003212 0.00904305 -0.0419928 -0.00373102 -0.0870934 -0.0614933 0.0014249 -0.0350734 -0.0392652 0.042648 0.0353877 -0.00353148 -0.201285 -0.274055 0.202912 -0.0819366 0.162445 0.115563 0.0766199 0.0521538
2077 -0.126211 -0.141442 -0.0965196 0.00306846 0.00984651 0.0115512 0.0360923 -0.054831 -0.00878719 -0.0119746 0.0251048 -0.00192564 -0.00210441 0.0937639 -0.051074 -0.0899292 -0.0121694 0.0522649 -0.0260978 -0.00990337 -0.0080769 0.00652768 0.0294214 0.0134494 -0.0267258 0.0249207 -0.0234561 0.125177 -0.0494875 -0.0832793 0.108786 -0.0727187 -0.148846 0.0246855 -0.231561 -0.158398 -0.00188433 -0.119543 -0.154481 0.154368 0.0876416 -0.0190368 -0.365177 -0.49075 0.37882 -0.147725 0.307638 0.230681 0.12964 0.11797
3300 -0.141031 -0.171453 -0.129456 0.00168007 0.0383182 0.00977311 0.0665083 -0.109405 -0.0487212 0.000382903 -0.0348027 0.0320354 -0.000767897 0.0383138 -0.0293123 -0.0263693 -0.00531629 0.00424114 0.0377208 -0.0256741 0.012459 -0.0101171 -0.0182699 -0.00404135 0.0106344 -0.0371272 -0.0368183 0.140688 -0.0617851 -0.109038 0.139251 -0.101112 -0.169756 0.0421029 -0.229704 -0.173972 0.0144217 -0.113262 -0.165998 0.178932 0.0841992 -0.0161993 -0.321655 -0.430948 0.327558 -0.12771 0.271729 0.20989 0.123979 0.113391
993 -0.0041037 0.0133588 0.0405362 -0.00906755 -0.0278219 0.0175319 -0.0309737 0.0603329 0.0730712 -0.0254321 0.0791277 -0.0458151 -0.000564628 0.0913041 -0.0373855 -0.0998187 -0.00483604 0.0851194 -0.0891764 0.0013335 -0.0339933 0.0543273 0.0517492 0.0246711 -0.0572019 0.087694 -0.00528168 0.0137853 0.00952959 0.0138711 -0.00537641 0.00953452 -0.0301756 0.00198154 -0.0746174 -0.0364855 0.0110889 -0.0372264 -0.00857705 0.0240997 0.0443859 -0.0131515 -0.17858 -0.226171 0.171777 -0.0681978 0.137924 0.103017 0.0540291 0.0464524
2000 -0.216007 -0.25584 -0.182895 -0.0153633 0.031818 0.00842126 0.100724 -0.129522 -0.0464185 -0.0165127 -0.00874763 0.0132145 -0.00766398 0.135442 -0.0654274 -0.0988835 -0.0193889 0.0454285 0.0120039 -0.0268454 0.0232081 -0.0113253 0.000535747 -0.0136658 -0.018987 -0.0279798 -0.0635743 0.227833 -0.109095 -0.171363 0.211833 -0.16035 -0.278607 0.0585343 -0.411699 -0.302531 0.0156377 -0.219183 -0.284216 0.292704 0.152847 -0.0451152 -0.636803 -0.869035 0.666621 -0.252478 0.545313 0.385429 0.248628 0.198418
2588 -0.0248628 -0.0396973 -0.0444939 -0.00449904 0.0168355 -0.00164845 0.0495526 -0.0577753 -0.0310138 0.0155818 -0.0365972 0.0306062 -0.00116983 -0.00739472 -0.0057958 0.0108873 -0.00082177 -0.0272415 0.0527727 -0.013591 0.0242542 -0.0428756 -0.0509582 -0.0236187 0.0101953 -0.0478105 -0.0171298 0.0683252 -0.0398688 -0.0570141 0.0817313 -0.0565257 -0.0728426 0.0124241 -0.11276 -0.0778322 3.25764e-05 -0.0542212 -0.07779 0.0769199 0.0466161 -0.0163334 -0.166101 -0.224901 0.164268 -0.0696992 0.130206 0.0880648 0.0612581 0.0525372
1585 -0.0429868 -0.0634278 -0.0648334 -0.00440976 0.0396155 -0.00164982 0.0593592 -0.0773328 -0.0897442 0.0129387 -0.0821435 0.0597991 0.0133696 -0.0690865 0.0299956 0.0867157 0.00214597 -0.0883524 0.0956415 -0.0208802 0.0362424 -0.054394 -0.0569618 -0.0202905 0.0520863 -0.105997 -0.0175314 0.0554134 -0.0383199 -0.0722509 0.0751154 -0.0654061 -0.0479599 0.0167638 -0.0504211 -0.0410673 0.00746995 -0.0317127 -0.0596346 0.0671656 0.0159502 0.00812346 0.00909108 0.0208011 -0.00379157 0.0103606 -0.00105307 -0.00894343 0.00482717 0.0159228
3143 -0.0572866 -0.0669041 -0.0612577 0.00463102 0.0126246 0.000850898 0.0456693 -0.0676908 -0.048588 0.0176882 -0.0376039 0.0277995 0.00659826 -0.022819 0.000642745 0.0378454 0.00242595 -0.036298 0.0500671 -0.0215081 0.0102473 -0.0284382 -0.0397438 -0.0206893 0.0430044 -0.0734342 -0.02128 0.0818128 -0.0559129 -0.0789749 0.0832767 -0.0586306 -0.0841009 0.0240021 -0.0780741 -0.0780795 -0.00301221 -0.0587868 -0.0726184 0.0894217 0.0369954 -0.0123626 -0.0555873 -0.0908949 0.0554529 -0.0163542 0.0687115 0.0415673 0.0312613 0.0336051
1000 -0.0210588 -0.00552148 0.036698 0.00319551 -0.028683 0.0189432 -0.0409147 0.0446792 0.0611455 -0.0271013 0.0729193 -0.0543432 0.00485716 0.101136 -0.0498717 -0.110798 0.000401569 0.0924288 -0.0781691 0.00122262 -0.0184712 0.0442615 0.0542607 0.0288108 -0.0498149 0.0940584 0.000133484 0.0143563 0.0136557 0.00249966 -0.001606 0.0030206 -0.0558116 0.00446255 -0.0786571 -0.0537436 0.00290875 -0.0420395 -0.0315692 0.0349608 0.0427579 -0.00770336 -0.217015 -0.296367 0.22741 -0.0846255 0.176568 0.138454 0.0816332 0.0536085
2806 -0.0718408 -0.0871059 -0.0502318 -0.00121185 0.00779892 0.00808324 0.0359226 -0.0285528 0.0123473 -0.00934401 0.0310316 -0.00731941 -0.00438888 0.0550465 -0.0338175 -0.0582444 -0.00762852 0.0468275 -0.0320171 -0.000788303 -0.00460956 0.00824488 0.0205414 0.0139621 -0.0173172 0.0277687 -0.0260321 0.0815328 -0.0349 -0.0565581 0.0677821 -0.0551059 -0.101081 0.0222992 -0.168736 -0.123663 0.0123756 -0.0801305 -0.119617 0.110661 0.0519465 -0.0079859 -0.239708 -0.337281 0.246233 -0.0998128 0.219037 0.152 0.0880887 0.0842916
3166 -0.0671542 -0.0788319 -0.0589933 -0.00606787 0.0115301 -0.0129044 0.044959 -0.0713986 -0.0585681 0.00338092 -0.0191066 0.0304299 0.00528931 -0.0130411 0.00470543 0.0169601 -0.000654921 -0.0322822 0.0322301 -0.0201356 0.0138121 -0.0303341 -0.0231422 -0.0170024 0.0340853 -0.0622821 -0.0129384 0.087178 -0.0436225 -0.0697006 0.0893116 -0.0772656 -0.0905073 0.0304672 -0.141783 -0.123279 0.00973897 -0.0752681 -0.116605 0.139586 0.0345778 -0.017183 -0.136228 -0.187331 0.150553 -0.0442469 0.133443 0.0897056 0.0737515 0.0658887
1841 -0.0550107 -0.0704295 -0.0746144 0.00691 0.0291506 -0.0164588 0.0648755 -0.0896922 -0.0823484 0.0229899 -0.0860875 0.068466 0.00865698 -0.0519821 0.0200774 0.0771715 0.00142313 -0.0731365 0.0770007 -0.0140437 0.0227543 -0.0583661 -0.0538974 -0.0180678 0.0511363 -0.101959 -0.0189123 0.0594972 -0.0400869 -0.0664557 0.0601773 -0.0585564 -0.0417135 0.0152056 -0.0321319 -0.0347917 0.00372169 -0.0205052 -0.0488157 0.045326 -0.00150698 0.010716 0.0353668 0.042578 -0.0167012 0.0183808 -0.019627 -0.0143624 0.00787678 0.010175
134 -0.0207937 -0.014229 0.00625108 0.000410793 -0.011779 0.0106981 -0.0229282 0.0424825 0.0673838 -0.0305355 0.0607131 -0.0555278 -0.00959388 0.0772605 -0.0500488 -0.109866 -0.00924343 0.069722 -0.0726395 0.0158889 -0.01305 0.0436938 0.0416266 0.0285422 -0.0417864 0.0756312 0.000345883 0.0234281 0.000854508 0.00760849 0.0229941 0.00184133 -0.0601144 0.0069853 -0.0931645 -0.0703962 0.00945305 -0.0447728 -0.0413682 0.0409535 0.0434195 -0.00870255 -0.213493 -0.293614 0.229227 -0.0926784 0.183486 0.139412 0.0854325 0.0669035
147 -0.0327889 -0.0501605 -0.0304284 -0.00940019 -0.0100373 0.0124688 0.00595332 -0.000574787 0.0196208 -0.0125692 0.0429999 -0.0341535 0.00221818 0.0622355 -0.0376485 -0.0600253 -0.00717899 0.0435397 -0.0233672 0.00427191 -9.00575e-05 0.0136029 0.0177957 0.00465509 -0.0306538 0.0440235 -0.00988544 0.0422984 -0.00520599 -0.020449 0.0399052 -0.0226088 -0.0665611 0.0129968 -0.114698 -0.093187 0.0105988 -0.05325 -0.0544304 0.0678718 0.0528064 -0.0113478 -0.210813 -0.267098 0.211494 -0.0777262 0.165431 0.123439 0.0767418 0.0562974
645 -0.0533917 -0.0393506 -0.014112 -0.0128433 -0.0219296 0.00974848 -0.0109237 0.0188998 0.0513761 -0.0225981 0.0627145 -0.0360304 -0.00575513 0.0965886 -0.0400791 -0.112224 -0.00620732 0.090881 -0.0756357 0.00319976 -0.0258962 0.0479735 0.0547633 0.0223988 -0.0451178 0.0732985 -0.0192071 0.0550787 -0.0226963 -0.0234346 0.0426809 -0.0322514 -0.105955 0.0109268 -0.169103 -0.117504 -6.96361e-05 -0.0698163 -0.0994104 0.0930465 0.081974 -0.028801 -0.321678 -0.417831 0.313957 -0.114888 0.269702 0.187402 0.117864 0.0954813
2036 -0.0543458 -0.0662892 -0.086285 0.00677347 0.0361585 -0.00806118 0.0773606 -0.0891768 -0.0855359 0.0311101 -0.0733073 0.0704497 0.0038594 -0.0644186 0.0357894 0.0885115 -0.00197974 -0.0835002 0.090485 -0.0178877 0.0379197 -0.0557671 -0.0634178 -0.0324121 0.0620443 -0.105629 -0.00472734 0.0612866 -0.0373754 -0.0698808 0.0775467 -0.051219 -0.0314826 0.0169311 -0.0364573 -0.0453875 0.00647675 -0.0235849 -0.0557109 0.0662583 -0.00603118 0.000507172 0.0436275 0.0401322 -0.032469 0.00760705 -0.0210691 -0.0198557 -0.00443865 0.00484193
196 -0.0336494 -0.0186144 -0.0131093 -0.0056736 -2.19223e-05 0.0102279 -0.00727384 0.0111413 0.0115314 -0.018254 0.0316175 -0.017064 0.00589701 0.0477777 -0.0196771 -0.0439324 0.00319836 0.0312049 -0.0194381 0.00455595 -0.0108906 0.0171322 0.0294663 0.0131698 -0.0209512 0.0222476 -0.00964871 0.0333806 -0.00714766 -0.00834299 0.0177709 -0.0152934 -0.055412 0.0123909 -0.0887288 -0.0552361 0.00966156 -0.0303158 -0.0422144 0.0541597 0.0443184 -0.0122721 -0.145062 -0.187629 0.153637 -0.056435 0.123945 0.0948367 0.0614533 0.0381903
1590 -0.0531872 -0.0763805 -0.0865451 0.00465514 0.042614 -0.0142193 0.0659102 -0.107916 -0.105253 0.0270516 -0.10364 0.071223 -0.00420061 -0.0690601 0.0330067 0.100636 -0.0106776 -0.10295 0.0983365 -0.0160934 0.0374254 -0.0728195 -0.0673866 -0.024039 0.0660632 -0.132959 -0.0184735 0.0583495 -0.0500573 -0.0677425 0.0906619 -0.0734297 -0.050325 0.029903 -0.0466239 -0.0387757 -0.00630341 -0.0301155 -0.0684449 0.0663535 0.0136387 0.00433882 0.0261175 0.0551001 -0.0188176 0.0101094 -0.0149366 -0.0101194 -0.00706464 0.0100753
2311 -0.0428162 -0.0641281 -0.0783537 0.0103068 0.0337048 -0.00178317 0.0810242 -0.0934737 -0.0951428 0.0228656 -0.0879079 0.0620645 0.0110266 -0.0797833 0.0288571 0.103555 -0.000664182 -0.0948376 0.0964549 -0.0185588 0.0255343 -0.0649604 -0.0757807 -0.017916 0.0566598 -0.125588 -0.0179359 0.0731816 -0.0488389 -0.074524 0.0715767 -0.0707177 -0.0469789 0.0234843 -0.0384567 -0.0367105 7.73238e-05 -0.0236283 -0.062444 0.0569798 0.00424438 -0.00640331 0.0563761 0.0562005 -0.049676 0.0190147 -0.0205883 -0.0158345 -0.00259709 0.0113158
2472 -0.0704783 -0.0828899 -0.0479694 -0.00324777 0.019843 -0.00513563 0.0475717 -0.0589585 -0.0179294 0.0102182 -0.0159631 0.000348578 -0.000341695 0.00549355 -0.00343011 -0.0167002 -0.0031448 -0.00590986 -0.00034428 0.00562848 -0.00105101 -0.00528113 -0.00492736 -0.0097487 0.00780833 -0.0197695 -0.0233536 0.0610017 -0.0338959 -0.0527113 0.0784432 -0.0541563 -0.0585702 0.0100951 -0.0807329 -0.0733078 -0.00549467 -0.0457589 -0.0644952 0.0662967 0.0281622 -0.0128932 -0.116314 -0.163646 0.121774 -0.043833 0.11508 0.0790226 0.0557366 0.0422265
573 -0.0268892 -0.025942 0.000342444 -0.00423504 -0.00572412 0.0165603 -0.0112078 0.0213403 0.0327555 -0.00305756 0.0255032 -0.0298893 0.00475464 0.0546731 -0.0172813 -0.0644572 -0.000897756 0.0487268 -0.0432913 0.00446264 -0.00556918 0.0342716 0.0222463 0.010803 -0.0222677 0.0377061 -0.00260945 0.0372403 -0.00904237 -0.017428 0.0275842 -0.01666 -0.0577165 -0.00111766 -0.0983926 -0.056969 -0.0047362 -0.0448038 -0.0610128 0.0540978 0.0331894 -0.0107103 -0.159855 -0.210377 0.167697 -0.067901 0.12904 0.102007 0.062401 0.054054
1058 -0.0600586 -0.0736495 -0.077562 0.00386735 0.0222856 0.00113547 0.0604395 -0.0780877 -0.0871775 0.026108 -0.0541596 0.052709 -0.00282436 -0.0403692 0.0311495 0.071549 -0.0117503 -0.0557238 0.0646373 -0.00805414 0.02853 -0.0482238 -0.0372684 -0.0136569 0.0390815 -0.101698 -0.0107335 0.0653066 -0.0439814 -0.0713509 0.0797807 -0.0658203 -0.0474558 0.0288743 -0.0519128 -0.0567621 -0.000282043 -0.0419175 -0.0540894 0.0562671 0.00824636 0.00589124 0.00698006 0.00511419 0.0155104 0.00671498 0.0225454 0.0128239 0.0195939 0.0178612
1617 -0.0529262 -0.0704154 -0.0378692 -0.00929565 0.00733147 0.00640135 0.0128098 -0.0238675 0.022208 -0.0160201 0.0169538 -0.0240491 -0.0120849 0.0610948 -0.025621 -0.0574572 -0.009641 0.0384368 -0.015101 -0.00559556 -0.0115634 0.020113 0.0207197 0.013956 -0.0223442 0.0205194 -0.0237672 0.079541 -0.0445867 -0.0591284 0.0753141 -0.0576701 -0.114828 0.024287 -0.16828 -0.113883 -0.0014881 -0.0862922 -0.0987437 0.102734 0.0571415 -0.0251918 -0.276034 -0.36408 0.290709 -0.105816 0.246155 0.16441 0.105175 0.0798518
2232 -0.0713008 -0.0800141 -0.0602224 -0.00182683 0.0202348 -0.000608647 0.0416455 -0.0759777 -0.0454085 0.00451737 -0.0305005 0.0305547 -0.00756916 -0.00565914 -0.00300644 0.019402 0.00349191 -0.0204415 0.0261533 -0.010384 0.00825641 -0.0290735 -0.0186723 -0.00322478 0.0237847 -0.0674893 -0.0255474 0.116379 -0.0517623 -0.0912131 0.120999 -0.0930078 -0.0997781 0.0354511 -0.142213 -0.103529 -0.00166797 -0.079903 -0.110509 0.129137 0.0466857 0.000472633 -0.133446 -0.161934 0.123465 -0.0459846 0.139261 0.0883336 0.0759958 0.0508413
1038 -0.033574 -0.0493222 -0.0425102 -0.00626319 0.0126902 -0.00463015 0.0306776 -0.0341595 -0.0326908 -0.00206702 -0.0306485 0.0144082 0.00413512 0.00235244 0.00508739 0.0120512 0.00273863 -0.017972 0.0150227 -0.01492 0.000479268 -0.00562178 -0.00568736 0.0029464 0.0145754 -0.0285651 -0.0138169 0.0490736 -0.0216827 -0.0406577 0.058051 -0.0325635 -0.0448281 0.00678048 -0.0666317 -0.061962 0.00338524 -0.0324261 -0.0492344 0.055117 0.0249849 -0.00322956 -0.085696 -0.103864 0.086319 -0.0330209 0.0675903 0.0448398 0.0292577 0.0310531
2071 -0.093931 -0.107769 -0.0850972 -0.00741857 0.0333297 -0.00716875 0.0676375 -0.0938659 -0.086804 0.0187169 -0.0741803 0.0585363 0.00216205 -0.0279546 0.0148159 0.0513523 -0.0108938 -0.0569809 0.0763268 -0.0236271 0.034531 -0.0539987 -0.0470762 -0.0171929 0.0441378 -0.100227 -0.0203807 0.112681 -0.0558171 -0.101082 0.115273 -0.0802823 -0.117522 0.0367355 -0.132352 -0.104752 0.000515986 -0.0753022 -0.132129 0.129736 0.0550654 -0.0121521 -0.154776 -0.19603 0.14629 -0.0668216 0.143661 0.0873609 0.0740165 0.0671509
1752 -0.0474681 -0.056991 -0.0645137 0.00731245 0.0210212 0.00353222 0.0468677 -0.0858819 -0.0731229 0.0210584 -0.03838 0.037654 -0.0068236 -0.0300401 0.018662 0.0354163 -6.34953e-05 -0.0570221 0.0644819 -0.0107118 0.0168539 -0.0393626 -0.0514508 -0.0179223 0.0200863 -0.0567379 -0.022454 0.0558434 -0.0298865 -0.0637064 0.0512244 -0.0364112 -0.0473074 0.0226976 -0.0399624 -0.0342768 -0.000211274 -0.0359416 -0.0493049 0.0543726 0.0252739 -0.00310852 -0.0540343 -0.0756322 0.0554622 -0.0264104 0.043637 0.0242773 0.0204081 0.0219532
33 -0.0176954 -0.0273117 -0.00868585 -0.0108368 -0.0104073 0.0104954 -0.00215328 0.00618866 -0.00123456 -0.000926382 0.0075377 0.00471638 -0.00343317 0.0231773 -0.01356 -0.0277933 -0.00199291 0.0177869 -0.0102516 -0.00452968 -0.00250994 0.010287 0.00598056 -0.00446461 -0.00778966 0.0107675 -0.0125112 0.0375976 -0.0154887 -0.0217497 0.0438774 -0.0182147 -0.0617671 0.0142845 -0.0884287 -0.0681504 0.00311145 -0.0494105 -0.0509884 0.0518793 0.0241214 -0.00535331 -0.117591 -0.162966 0.118172 -0.0575032 0.0999692 0.073509 0.0463287 0.0396528
747 -0.0607942 -0.0560818 -0.018993 -0.0060193 -0.00471885 0.0129548 -0.00663199 0.00336213 0.0423736 -0.0258249 0.0541057 -0.038613 -0.0125416 0.0889595 -0.0450361 -0.113019 -0.00321419 0.082441 -0.0713659 0.00231703 -0.0149315 0.0462327 0.0585708 0.0260804 -0.0413261 0.0914578 -0.00830592 0.0409041 0.00517693 -0.00412081 0.0270646 -0.00747702 -0.072632 -0.00376152 -0.133763 -0.0910621 -0.00480109 -0.0550004 -0.0564571 0.0624177 0.0610501 -0.0212001 -0.255717 -0.357594 0.254366 -0.0938179 0.208025 0.158723 0.0887782 0.0791642
1907 -0.0537285 -0.0669284 -0.100887 0.0013625 0.0459566 -0.0072243 0.0700387 -0.105443 -0.10928 0.0305952 -0.0964082 0.0721571 0.00747558 -0.0730747 0.0390057 0.108334 -0.00309918 -0.096499 0.094389 -0.0183047 0.0343753 -0.0560997 -0.0590689 -0.0260911 0.0589618 -0.126548 -0.0133858 0.0757137 -0.0545964 -0.0757451 0.0801955 -0.0613098 -0.0522058 0.0334819 -0.047871 -0.0543412 0.00453224 -0.0391584 -0.0791306 0.0761225 0.011322 0.000900587 0.0280221 0.0499805 -0.0292289 0.0222577 -0.0157149 -0.0125969 0.0132867 0.0160075
1759 -0.0484394 -0.0675168 -0.0775541 0.00495649 0.0408054 -0.00326513 0.0655193 -0.0881545 -0.0744314 0.0295837 -0.0713373 0.0606628 0.00868451 -0.061557 0.0348136 0.0839243 0.00417949 -0.0779507 0.0877039 -0.00883837 0.0248236 -0.054285 -0.0646388 -0.0249847 0.0553406 -0.100662 -0.0159436 0.0703678 -0.0432039 -0.0655033 0.0854787 -0.0552906 -0.0374101 0.0258482 -0.0444893 -0.0484327 0.0114641 -0.0260959 -0.0517311 0.057412 -0.0016029 0.00798411 0.0187854 0.0135154 -0.00507333 0.011763 0.00841293 0.00547859 0.0120269 0.00796201
121 -0.00689419 -0.00739978 0.0166564 0.0046512 -0.00463165 0.000569862 -0.0219921 0.0240437 0.0336747 -0.0123739 0.0261344 -0.011818 -0.00105703 0.052654 -0.0332346 -0.0583821 0.0036491 0.0505607 -0.0195037 0.00184609 -0.00419157 0.000678781 0.00459049 -0.00313457 -0.0150628 0.0363218 -0.0170787 0.0367686 -0.00214248 -0.0209924 0.043467 -0.019773 -0.074794 0.0170343 -0.10923 -0.0841816 0.00915603 -0.0509554 -0.0674023 0.0716516 0.0395503 -0.0120871 -0.203935 -0.272051 0.212691 -0.0884021 0.171395 0.125471 0.0703355 0.056564
2561 -0.11932 -0.154802 -0.12057 0.00822931 0.0231406 0.0011408 0.0880919 -0.120392 -0.0995298 0.0172059 -0.0783572 0.0731189 0.00393327 0.0164529 -0.0112614 0.0151445 -0.00971049 -0.0479351 0.0785357 -0.0224838 0.0300825 -0.0511368 -0.0402046 -0.0313032 0.0222423 -0.0927977 -0.0226678 0.143106 -0.0653656 -0.120418 0.133966 -0.111572 -0.163327 0.0502968 -0.217625 -0.160439 0.00631927 -0.125163 -0.16662 0.192298 0.0894193 -0.0162221 -0.300146 -0.410729 0.307048 -0.114617 0.255998 0.1763 0.13125 0.103516
3512 -0.0953406 -0.107071 -0.0711935 -0.00510239 0.0112361 -0.00572338 0.0470094 -0.0772661 -0.0616441 0.00260649 -0.0332763 0.0392905 0.00533364 0.019818 -0.0126152 -0.00279583 -0.00280283 -0.0186319 0.0448043 -0.0136747 0.0176587 -0.0225391 -0.0315384 -0.00806797 0.0168056 -0.0561011 -0.027015 0.108845 -0.0669506 -0.0900951 0.117731 -0.0950627 -0.124808 0.0390559 -0.153617 -0.136075 0.0108324 -0.0927994 -0.125182 0.149227 0.0631194 -0.00877375 -0.21362 -0.276208 0.218431 -0.0867876 0.190337 0.144452 0.0863862 0.068651
1068 -0.017326 -0.0150014 0.0123671 -0.007191 -0.022223 0.00864447 -0.0319996 0.0273259 0.060966 -0.0216877 0.0757524 -0.0476518 -0.0143763 0.0773951 -0.0350028 -0.102845 0.00273428 0.0751222 -0.0736926 -0.00253009 -0.0301262 0.0413313 0.0442889 0.0106107 -0.0559807 0.0791464 -0.00210496 0.0101451 0.00219155 0.0200363 -0.0085035 -0.0031075 -0.0446634 0.00364672 -0.095796 -0.063956 -0.00391354 -0.0391896 -0.0310625 0.0385496 0.0399018 -0.00672061 -0.188008 -0.25954 0.185472 -0.0782417 0.146584 0.106041 0.0631958 0.0464271
2598 -0.150441 -0.156718 -0.121324 -0.00445106 0.0100303 0.00687959 0.0583888 -0.0966492 -0.0302593 -0.0105948 0.00412871 -0.00528283 -0.0102306 0.0852938 -0.0475759 -0.0762037 -0.0247944 0.0276812 0.00904065 -0.0206258 0.0104365 0.00141276 -0.00517543 -0.00259598 -0.0164371 -0.00626853 -0.0430205 0.134108 -0.0543388 -0.0965025 0.134699 -0.0944788 -0.164456 0.0279724 -0.243618 -0.176492 0.0152139 -0.132058 -0.155994 0.169024 0.0986277 -0.0280757 -0.411979 -0.539875 0.411309 -0.167087 0.344851 0.248368 0.158385 0.126374
3755 -0.0400029 -0.0540651 -0.0539831 -0.00166091 0.0107639 0.00155532 0.0381012 -0.0510671 -0.0395616 0.00248686 -0.026788 0.0321806 0.00239697 -0.0135243 0.0083335 0.022148 -0.00338591 -0.0235058 0.0513312 -0.0169597 0.0122917 -0.0310093 -0.0293394 -0.0111116 0.0254825 -0.0369281 -0.016274 0.0479558 -0.0254289 -0.0506266 0.0635635 -0.0449333 -0.0755132 0.0288906 -0.0936322 -0.0609376 -0.0068161 -0.0496922 -0.0763901 0.0688637 0.0366176 0.00387184 -0.0873413 -0.131739 0.109004 -0.0363068 0.0768975 0.066473 0.032467 0.0333657
405 -0.00142424 0.00735473 0.0155612 -0.00891826 -0.0200818 0.00401099 -0.0268943 0.0223796 0.041143 -0.00516003 0.0298152 -0.0272363 0.00234272 0.0672136 -0.0217888 -0.0737102 -0.00268249 0.0551384 -0.0355851 0.002504 -0.013025 0.015951 0.0241706 -0.000452695 -0.0361825 0.0477734 -0.00911667 0.0293428 0.00262362 -0.00859722 0.0193554 -0.0071476 -0.03313 -0.00180809 -0.0776233 -0.0542191 -0.00071392 -0.04527 -0.0390296 0.0456743 0.0309836 -0.013485 -0.167386 -0.227392 0.171258 -0.066468 0.128214 0.0949724 0.0543559 0.0391578
3203 -0.0949754 -0.117581 -0.0990064 0.00262384 0.0219347 -0.00112455 0.0705702 -0.108131 -0.0635473 0.0144547 -0.0529981 0.0367236 -0.00677868 -5.84094e-07 0.00711782 0.0294122 -0.00900229 -0.0418714 0.0487886 -0.0231925 0.0183181 -0.0440672 -0.0382731 -0.00972525 0.0336059 -0.0835316 -0.0380235 0.129314 -0.072744 -0.0956562 0.135206 -0.10381 -0.12622 0.0434405 -0.150553 -0.1231 -0.000374644 -0.0872159 -0.134427 0.147391 0.0508185 -0.00217145 -0.181031 -0.240472 0.189748 -0.0710384 0.176485 0.127191 0.0790181 0.0662759
2500 -0.0421193 -0.0758668 -0.0854223 0.00934916 0.0289044 -0.0124688 0.067624 -0.0950747 -0.104739 0.0213805 -0.0872465 0.0595645 0.0140264 -0.0763698 0.0282268 0.093811 0.00709148 -0.0957909 0.0955168 -0.0223517 0.0365605 -0.053173 -0.0564087 -0.0309205 0.0552131 -0.120767 -0.015428 0.0558585 -0.0377454 -0.066326 0.0738843 -0.0636197 -0.0459094 0.0228584 -0.0443992 -0.0350928 0.00146602 -0.0353763 -0.048995 0.0525452 0.00840519 -0.00315488 0.04276 0.0514779 -0.0269931 0.0188276 -0.0233657 -0.0261811 0.00772424 7.77868e-06
679 0.00978965 0.0200297 0.0623814 -0.00970056 -0.0287384 0.0178561 -0.0465782 0.0682961 0.0886373 -0.0200743 0.0776442 -0.0684407 0.00295408 0.0898541 -0.0398105 -0.127525 -0.0141848 0.094053 -0.0675863 0.0117729 -0.0241691 0.0352657 0.0431405 0.0161458 -0.0580813 0.109278 0.00645569 0.000961139 0.0140724 0.0242941 0.00062889 0.00229328 -0.0377289 0.000124305 -0.0802219 -0.0539807 0.00891461 -0.0404544 -0.0290906 0.037956 0.0481824 -0.0214795 -0.222783 -0.284511 0.208291 -0.0775914 0.1634 0.114541 0.0720432 0.054987
2049 -0.242192 -0.28383 -0.184712 -0.0156675 0.0328061 0.00660302 0.102365 -0.150594 -0.0374864 -0.00762437 -0.00721725 0.0271396 -0.0063248 0.117094 -0.0592067 -0.109647 -0.0268927 0.0306631 0.0189225 -0.0265679 0.024904 -0.00978827 -0.0111562 -0.00250697 -0.00579461 -0.0310556 -0.0569281 0.219093 -0.10141 -0.157427 0.214109 -0.154735 -0.252036 0.0448213 -0.358752 -0.270094 0.000624912 -0.189631 -0.233994 0.247319 0.139301 -0.0423218 -0.593768 -0.799521 0.600786 -0.239126 0.507803 0.355346 0.236155 0.188916
2978 -0.011914 -0.0238671 -0.0088462 -0.00283505 -0.00820147 0.0103563 -0.00199518 -0.00515408 0.0149668 -0.00497084 0.0107197 -0.0176948 0.00480617 0.0369146 -0.0099895 -0.0491873 -0.0100394 0.0337153 -0.00326196 -0.00470289 0.0047338 -0.00409338 0.00890198 -0.00211873 -0.0185896 0.0216516 -0.0015359 0.03744 -0.0138962 -0.0347377 0.036707 -0.0281314 -0.0506951 0.0136544 -0.102977 -0.0847643 -0.00258959 -0.0422413 -0.0648148 0.0656446 0.0429954 -0.0198002 -0.186273 -0.250105 0.195454 -0.0642842 0.159596 0.108224 0.0704697 0.0476671
3667 -0.0467986 -0.0668589 -0.0570155 0.00903552 0.0146136 -0.00331316 0.0543301 -0.065584 -0.0655365 0.00903106 -0.0440503 0.0492079 0.000782581 -0.0229645 0.00752935 0.0453604 -0.00724879 -0.0522943 0.0509499 -0.0123874 0.0298692 -0.0373786 -0.0468289 -0.0241223 0.0238963 -0.0676499 -0.0234696 0.0734572 -0.0286191 -0.0593417 0.0711623 -0.0545789 -0.0535471 0.0171425 -0.0764798 -0.0553191 0.00765493 -0.0388738 -0.0701651 0.0732343 0.0184462 -0.00790903 -0.0418266 -0.0379279 0.0370426 -0.00694339 0.0431019 0.0203463 0.019908 0.0207642
2064 -0.0415386 -0.063025 -0.074448 0.00590013 0.0406675 -0.000669051 0.0564803 -0.0892516 -0.0934241 0.0248363 -0.0850294 0.0570614 0.00551897 -0.0686224 0.0396583 0.0919684 -0.00986519 -0.0979134 0.100654 -0.0136663 0.0254993 -0.0534355 -0.055493 -0.0334566 0.0569822 -0.109511 -0.0154922 0.0679846 -0.0370489 -0.0657042 0.0621041 -0.0604236 -0.0463435 0.0134454 -0.0371319 -0.036495 0.00367519 -0.0364256 -0.0637111 0.047242 0.00347363 0.0080987 0.0427373 0.0469563 -0.042692 0.0088842 -0.0188299 -0.0137042 0.00246952 0.00293217
1051 -0.0192908 -0.0290099 -0.00126019 0.00049806 -0.00696763 -0.000567418 0.014994 -0.00398795 -0.00829808 -0.00489382 -0.0098993 -0.00310728 0.00265804 0.0213269 -0.0182595 -0.0111912 0.00330233 0.00704219 -0.00152339 0.000736016 0.000183188 -0.0105053 0.00091062 -0.00894165 0.00846676 -0.00140901 -0.00955142 0.0328318 -0.0268471 -0.0351871 0.048173 -0.0250168 -0.0531721 0.0102786 -0.0862623 -0.0555043 0.0113881 -0.0558351 -0.0683207 0.0579856 0.0335312 -0.0104143 -0.120034 -0.155146 0.118827 -0.0467811 0.0866789 0.0717306 0.0464895 0.0297217
1349 -0.0963758 -0.114264 -0.0883137 -0.00452195 0.0261005 0.00391328 0.0844884 -0.105498 -0.0891313 0.00891679 -0.0744217 0.0703044 0.00784256 -0.0262235 0.0177203 0.0613919 -0.013024 -0.0724035 0.0918936 -0.0309234 0.0303825 -0.0498303 -0.0655851 -0.0181659 0.0450258 -0.104484 -0.0377857 0.1292 -0.074075 -0.118131 0.137488 -0.102689 -0.13379 0.0357922 -0.189276 -0.143112 0.00722727 -0.106304 -0.15906 0.17254 0.0531112 -0.0168486 -0.169218 -0.223516 0.176655 -0.0598012 0.162003 0.11529 0.0848644 0.0766134
3702 -0.133262 -0.162831 -0.12321 0.00151079 0.0269361 0.00800436 0.0824072 -0.105906 -0.0530081 0.0109311 -0.0467572 0.0287255 0.00889205 0.0351846 -0.0178606 -0.0248498 -0.00757942 -0.00576543 0.03642 -0.00760021 0.0104094 -0.0208634 -0.0148894 0.00167072 -0.000190215 -0.0232004 -0.0182907 0.0980608 -0.0405831 -0.0636619 0.081772 -0.06906 -0.125167 0.0187047 -0.151193 -0.10739 -0.00370328 -0.0913809 -0.110752 0.11158 0.0539298 -0.0166508 -0.234932 -0.329949 0.24418 -0.0889472 0.202591 0.13538 0.0904535 0.0791644
821 0.014115 0.0343524 0.0630064 -0.00467693 -0.0411131 0.0170571 -0.0626624 0.0736475 0.09582 -0.0287998 0.0715879 -0.0544686 0.00450918 0.0896247 -0.0341217 -0.117863 -0.00364038 0.106124 -0.0907785 0.0092795 -0.0314808 0.0412127 0.0441084 0.0244832 -0.06884 0.12025 -0.00438559 -0.014463 0.0134236 0.0197153 -0.0267355 0.0118037 -0.0218622 -0.0143072 -0.0684721 -0.0369441 0.00673622 -0.019528 -0.00452238 0.0256396 0.0375874 -0.0119122 -0.178157 -0.248292 0.1897 -0.0782629 0.152113 0.105965 0.0535901 0.0391327
984 -0.0469849 -0.050432 0.0155745 0.00236967 -0.0216022 0.0143917 -0.0314611 0.0387055 0.0737675 -0.0300894 0.0729692 -0.0437753 -0.0157784 0.0995869 -0.0556293 -0.139839 -0.0157025 0.094612 -0.0802968 0.00930865 -0.014348 0.0568093 0.0619435 0.0191567 -0.0641851 0.116411 -0.00853732 0.0237074 -0.00271163 0.0126771 0.00597139 -0.00420476 -0.0643373 0.00472373 -0.10865 -0.0659796 0.00190224 -0.0513469 -0.0326291 0.0548332 0.0567816 -0.0108757 -0.271556 -0.359006 0.268715 -0.104048 0.217637 0.149411 0.0966932 0.0796541
1595 -0.278521 -0.31832 -0.214666 -0.00565922 0.0308436 0.0197132 0.112164 -0.163986 -0.0367207 -0.0124704 -0.0068241 0.0249912 -0.0124833 0.141643 -0.0699425 -0.129073 -0.0402403 0.0419788 0.00961268 -0.0334024 0.0247773 -0.0103055 0.00979422 0.000991099 -0.0145228 -0.018669 -0.0710383 0.271244 -0.117051 -0.193741 0.259993 -0.17647 -0.332256 0.0636336 -0.469408 -0.350356 0.0108086 -0.231993 -0.306259 0.331666 0.186893 -0.0534491 -0.731903 -1.00886 0.750216 -0.302418 0.631564 0.451442 0.2863 0.246715
2746 -0.0235312 -0.0400724 -0.0367158 -0.00459028 0.027135 0.00394522 0.0324876 -0.0514768 -0.0500612 0.015244 -0.0415683 0.0374429 -0.00705115 -0.0266406 0.022995 0.0541403 0.000581606 -0.04818 0.0523357 -0.0169296 0.0189607 -0.0403881 -0.0302532 -0.0210915 0.0353765 -0.0546066 -0.00863616 0.0341887 -0.0338314 -0.035711 0.0381512 -0.032613 -0.0287724 0.00605572 -0.0273996 -0.0256157 -0.000199605 -0.0137582 -0.0295887 0.0377682 0.00236942 -0.00906163 -0.0188433 -0.0247633 0.0154407 -0.0172988 0.0165825 0.0185886 0.00942958 0.0133809
1455 -0.00927029 0.00804666 0.0334799 0.000663162 -0.0300911 0.000767501 -0.0494148 0.0503663 0.0595793 -0.0128472 0.0546047 -0.0563474 -0.00437025 0.0662382 -0.0398466 -0.0908213 0.00499007 0.0759666 -0.0737088 0.0172929 -0.029845 0.0387368 0.0540628 0.0158904 -0.0477342 0.076514 0.00558792 0.0118995 0.0121879 4.5739e-05 0.00563123 0.00661995 -0.0418123 0.00368286 -0.0788533 -0.0480021 0.000799714 -0.0356808 -0.0436016 0.0326797 0.0455993 -0.0156726 -0.181943 -0.245336 0.182323 -0.0772891 0.14435 0.10058 0.0628474 0.0438271
2717 -0.186555 -0.204132 -0.152676 -0.00611407 0.0318432 0.0133366 0.0853858 -0.125314 -0.0319707 0.0023838 -0.0146561 0.0222856 0.0035972 0.0973453 -0.0470721 -0.0828496 -0.023074 0.0326619 -0.00373634 -0.0286933 0.00290317 -0.0126224 0.017372 -0.00316813 -0.0102452 -0.0291571 -0.053006 0.183454 -0.0883212 -0.124516 0.191047 -0.129378 -0.237869 0.0535896 -0.354378 -0.255958 0.0167941 -0.177312 -0.238891 0.26278 0.131737 -0.0246343 -0.514923 -0.682212 0.523818 -0.204391 0.431945 0.318851 0.200744 0.164278
3046 -0.0463103 -0.0488271 -0.034754 0.000702872 0.0185995 0.0023068 0.0256327 -0.0478 -0.0282732 0.0042041 -0.0460837 0.0343531 0.00496944 -0.0119989 -0.00108632 0.0247287 -0.0107345 -0.0167498 0.0527052 -0.0113175 0.0141816 -0.0315893 -0.0276925 -0.0092458 0.0192808 -0.0519936 -0.0262278 0.102943 -0.0414712 -0.0860761 0.0895904 -0.0695832 -0.0986637 0.0312303 -0.126771 -0.099261 0.013006 -0.0638833 -0.0958542 0.101418 0.0514525 -0.0088757 -0.15824 -0.21004 0.163496 -0.0498392 0.133966 0.0865302 0.0602748 0.0528588
1135 -0.0316648 -0.0529395 -0.0677145 0.00127197 0.0309674 -0.0132396 0.0639139 -0.0925993 -0.0861085 0.01629 -0.0811664 0.0673033 0.00432238 -0.0789004 0.0401705 0.107479 0.00680434 -0.0801455 0.0896633 -0.0252773 0.0293678 -0.0698616 -0.0723202 -0.0305576 0.0669006 -0.114895 -0.0111485 0.0536883 -0.0511293 -0.0588807 0.0762213 -0.0530319 -0.0365347 0.0289267 -0.0370978 -0.0383539 0.00432671 -0.0313616 -0.0584175 0.049078 -0.00122028 0.00420372 0.0421907 0.0507012 -0.0449732 0.0154693 -0.0290083 -0.0245334 -0.00861502 0.00403015
1218 -0.0623658 -0.0591625 -0.0891862 0.0117488 0.0278083 -0.00217587 0.0673265 -0.0891975 -0.0860339 0.0211557 -0.0856314 0.059159 0.00475458 -0.059241 0.0288317 0.0853469 -0.0115022 -0.0853453 0.0894691 -0.0136584 0.0321141 -0.0593245 -0.0608367 -0.0199976 0.0495545 -0.109533 -0.00929423 0.0513752 -0.0364753 -0.055211 0.0692102 -0.0656425 -0.0392551 0.0269544 -0.0530448 -0.0373469 -0.000534157 -0.0231669 -0.0634927 0.0567597 0.0049069 0.00660101 0.0153935 0.0174596 -0.000870089 -0.00182978 0.00485147 0.00796925 0.00871556 0.0106228
1678 -0.0471493 -0.0568235 -0.0457896 -0.00351926 -0.00840973 0.0102924 0.0295732 -0.0446806 -0.000185568 -0.011995 0.0252353 -0.00155585 -0.00604485 0.0580325 -0.0198697 -0.040404 -0.000986966 0.00884088 0.0025239 -0.00530157 0.00874602 0.00265952 0.00878101 -0.000505775 -0.00262861 0.00832597 -0.0188736 0.0764138 -0.02071 -0.0406154 0.048167 -0.0363713 -0.085384 0.00677998 -0.112194 -0.0793056 -0.0068192 -0.0440607 -0.0558478 0.0729359 0.046292 -0.0131265 -0.21476 -0.285327 0.221979 -0.0923668 0.172862 0.123173 0.0916781 0.0655323
2953 -0.0621122 -0.0637216 -0.0848059 0.00137814 0.0331884 -0.00416204 0.0695474 -0.0832781 -0.0537903 0.0151906 -0.0384994 0.0360209 0.00740244 0.0118301 -0.00468897 -0.00539463 -0.00538929 -0.0171629 0.0582591 -0.0223565 0.028598 -0.0355391 -0.0330109 -0.00864137 0.00509311 -0.0430954 -0.0153193 0.0912257 -0.0413103 -0.0687929 0.0848467 -0.0666004 -0.0917526 0.019818 -0.141496 -0.103382 0.000659052 -0.0803705 -0.105314 0.104224 0.0442549 -0.00613114 -0.19364 -0.26363 0.204512 -0.0801636 0.167831 0.107958 0.0799694 0.0593115
1471 -0.0451797 -0.0731349 -0.0904281 0.00837795 0.0299614 -0.00486731 0.0650359 -0.0982734 -0.0917005 0.0162531 -0.0845205 0.0703726 -0.00149878 -0.0563091 0.0264263 0.091742 -0.00373457 -0.0842985 0.104285 -0.0199767 0.0374392 -0.0661111 -0.068663 -0.0181231 0.0564469 -0.114683 -0.00697606 0.0765292 -0.044809 -0.0775518 0.084819 -0.0666001 -0.0456022 0.0278828 -0.0525248 -0.0437128 0.00849161 -0.033256 -0.0559964 0.0694443 0.0149642 0.00416485 0.0192377 0.0219045 -0.005499 0.0056716 -0.000386694 -0.0146116 0.00854531 0.0191474
3708 -0.0724674 -0.0933214 -0.0829735 -0.00469142 0.0314402 -0.00739006 0.0732329 -0.0927395 -0.0787482 0.0227487 -0.0761059 0.0591442 0.00798765 -0.0237621 0.0161356 0.0571483 0.00425179 -0.0529148 0.0716187 -0.00980351 0.0248639 -0.0413987 -0.0384659 -0.012585 0.0405499 -0.07947 -0.00828799 0.0480751 -0.0389872 -0.0484508 0.072317 -0.0574825 -0.0672212 0.0247252 -0.0590716 -0.0489586 0.00508905 -0.0300059 -0.0532214 0.0604917 0.0147915 0.00307894 -0.0409288 -0.064762 0.0512202 -0.0235685 0.053938 0.0228767 0.02866 0.0172085
1052 -0.029369 -0.0265722 0.0195751 -0.0116488 -0.0115376 0.00520535 -0.0229652 0.0272171 0.0508377 -0.0195591 0.0458039 -0.0371214 0.00620283 0.0686422 -0.0269372 -0.0715177 0.00340476 0.0643625 -0.0666877 -0.0017686 -0.00813428 0.0438021 0.0342975 0.0248176 -0.0232934 0.0603449 -0.0069085 0.0266376 -0.0115223 -0.0166388 0.0282367 -0.00727779 -0.0553882 0.00263178 -0.0733494 -0.050715 0.00692187 -0.0332878 -0.0440056 0.0387363 0.0323468 -0.0117532 -0.167148 -0.209422 0.151533 -0.0625034 0.138404 0.105181 0.0630518 0.0411914
3613 -0.107154 -0.119168 -0.0950066 -0.00902588 0.0328875 0.00720128 0.066963 -0.0911363 -0.0570482 0.0176248 -0.046695 0.0410814 0.0031751 0.0098333 0.00104287 0.01001 0.000828803 -0.0234127 0.0444555 -0.0110263 0.0236376 -0.0219212 -0.0362308 -0.01735 0.0167969 -0.0630565 -0.0226363 0.0902751 -0.0530953 -0.0813929 0.0896415 -0.0698008 -0.109881 0.0218559 -0.121658 -0.0981619 0.00623511 -0.0799857 -0.102054 0.119541 0.0460157 -0.014659 -0.206488 -0.265977 0.20811 -0.0806912 0.174114 0.121659 0.0911074 0.0690623
3986 -0.050654 -0.0610157 -0.0594652 0.00701885 0.0284102 -0.00535462 0.0544827 -0.0637347 -0.0611452 0.0189221 -0.0366636 0.034898 -0.00343522 -0.0246535 -0.00223603 0.0320127 0.00495397 -0.0327515 0.0534625 -0.0152446 0.0252071 -0.042698 -0.0439809 -0.00976534 0.0258811 -0.0716739 -0.0192346 0.0888808 -0.0481904 -0.087365 0.0952386 -0.0659517 -0.0781015 0.0264691 -0.105477 -0.0826774 0.0022966 -0.0526204 -0.0991021 0.0956065 0.0314228 -0.0115092 -0.104274 -0.138444 0.100315 -0.043099 0.107374 0.079037 0.0579792 0.0516147
1828 -0.0526148 -0.0637988 -0.084724 0.000129946 0.034462 -0.00712552 0.0764076 -0.115755 -0.10409 0.0240211 -0.0937425 0.0861014 0.0115656 -0.0711338 0.0363266 0.107852 0.00205572 -0.111068 0.122 -0.0180354 0.0314924 -0.0636983 -0.0722707 -0.0404365 0.0552991 -0.135478 -0.00565955 0.0691514 -0.0431054 -0.0706836 0.0903743 -0.0736059 -0.0490877 0.0177538 -0.0473515 -0.051132 -0.000896371 -0.0284803 -0.0623315 0.0675666 0.0104525 0.00461184 0.0319928 0.0447093 -0.0406188 0.00608773 -0.0115312 -0.0139858 -0.00502166 0.00107152
3564 -0.0257021 -0.0213089 -0.014578 0.00754649 0.0100455 -0.00173332 0.0106842 -0.0303837 -0.0167834 -0.00145804 -0.00695064 0.0093923 0.00711076 0.00889302 -0.0044865 -0.00945207 0.00200656 -0.00288297 0.0246426 -0.00625838 0.0180848 -0.00214387 -0.00533238 -0.00486756 0.00283909 -0.0162071 -0.0138268 0.0340863 -0.0235011 -0.0420418 0.0513204 -0.027061 -0.046066 0.00826866 -0.0595501 -0.0458578 -0.0078578 -0.0319521 -0.038746 0.0431239 0.0221689 -0.00104281 -0.109523 -0.150447 0.111687 -0.0415449 0.0959613 0.0582188 0.0468126 0.0291521
3819 -0.120233 -0.145638 -0.104274 -0.00747584 0.0329116 -0.00755115 0.0780911 -0.114801 -0.117179 0.0141049 -0.102402 0.0956335 0.004505 -0.0322463 0.00855197 0.0765925 -0.0157494 -0.08996 0.154273 -0.0468181 0.0682634 -0.0995286 -0.100169 -0.036421 0.0760373 -0.173083 -0.036011 0.190425 -0.105747 -0.178216 0.230943 -0.170669 -0.20125 0.0508954 -0.278286 -0.210437 0.0175649 -0.14803 -0.226364 0.22612 0.0859247 -0.0235252 -0.297915 -0.398723 0.308267 -0.118762 0.277694 0.191654 0.124824 0.113678
825 -0.0363201 -0.0392029 -0.0253535 -0.00401153 0.00449362 0.00762022 0.0120638 -0.0314311 -0.0182883 -0.00668289 -0.0157078 0.00205236 0.00341518 0.0117317 0.00232421 0.00230835 -0.00535759 -0.00282627 0.00668466 0.00199918 0.00704554 -0.0078259 -0.00573503 -0.00602424 0.00261769 -0.0132384 -0.00414808 0.033892 -0.0232498 -0.0213683 0.0360388 -0.0204557 -0.0346381 0.00372364 -0.0524024 -0.0349609 0.00633168 -0.0338468 -0.0316609 0.0474767 0.0235825 -0.00390793 -0.0774864 -0.108817 0.0776623 -0.0211496 0.0701666 0.0377522 0.0265387 0.0189768
3745 -0.100535 -0.120805 -0.117993 -0.00186442 0.0501055 -0.00663256 0.0863909 -0.126667 -0.100529 0.0285827 -0.0789392 0.0656127 0.0119641 -0.0309463 0.00711175 0.0631327 -0.0117707 -0.0839325 0.108984 -0.0294844 0.0365747 -0.0733596 -0.0688195 -0.0355356 0.0439951 -0.135522 -0.0409246 0.138838 -0.0782074 -0.130388 0.164372 -0.109779 -0.155016 0.0372722 -0.194437 -0.158301 0.00205725 -0.108091 -0.159495 0.156922 0.068436 -0.0200128 -0.216865 -0.291661 0.207828 -0.0874044 0.196782 0.137224 0.0960493 0.0846016
1642 -0.0542043 -0.0666552 -0.0707993 -0.00241674 0.0249647 -0.0171358 0.0704249 -0.0936586 -0.0870847 0.025731 -0.0687525 0.056737 0.00221368 -0.0557439 0.0209204 0.0771115 -0.00131761 -0.0675727 0.0815415 -0.0188314 0.0258717 -0.0553079 -0.0510899 -0.0223911 0.0465526 -0.0914406 -0.0222573 0.0687566 -0.0389285 -0.0669733 0.0820233 -0.0675385 -0.0529545 0.0174756 -0.061995 -0.0450937 0.00071442 -0.029707 -0.0623191 0.054553 0.00412704 -0.00841059 -0.0133255 -0.0215614 0.0210145 0.00266566 0.0288409 0.0228433 0.0160828 0.00815941
3391 -0.116142 -0.12317 -0.102241 -0.0115113 0.00584868 0.0115269 0.0564943 -0.0691904 -0.0141473 -0.0101179 0.0253148 -0.025894 0.000869783 0.0916902 -0.0444386 -0.0930781 -0.0077399 0.0423125 -0.0191782 -0.0168683 -0.00448826 0.0117715 0.0138837 -0.00440146 -0.0479223 0.0610358 -0.0140767 0.0918483 -0.0339466 -0.0397387 0.0694258 -0.0308338 -0.107808 0.00424967 -0.170801 -0.122528 0.0134955 -0.0729043 -0.0819366 0.106949 0.0604866 -0.0246939 -0.28942 -0.384233 0.287755 -0.114996 0.248194 0.165651 0.118824 0.0961642
3795 -0.0926709 -0.108567 -0.10038 0.00544953 0.0278304 -0.00010111 0.0855993 -0.103791 -0.063964 0.0204753 -0.0501007 0.0353913 -0.00962716 0.0111411 -0.00658827 0.0112017 -0.00424882 -0.03239 0.0514927 -0.0280616 0.0268417 -0.0363778 -0.0438149 -0.011232 0.0282326 -0.051007 -0.030279 0.129889 -0.0762607 -0.105783 0.123924 -0.0920517 -0.125488 0.0342064 -0.197279 -0.159755 -0.00119954 -0.0934516 -0.137554 0.150826 0.0668041 -0.0217981 -0.251214 -0.329394 0.260804 -0.0885403 0.215479 0.152507 0.0949546 0.0837728
729 -0.0374234 -0.0512294 -0.0591966 0.0118423 0.0365831 -0.0122893 0.0634064 -0.0821001 -0.0846152 0.0170243 -0.0735533 0.051472 -0.00129906 -0.0508641 0.0127273 0.062274 0.00294844 -0.0727732 0.0736774 -0.0177697 0.0156209 -0.0478674 -0.040764 -0.0101586 0.0400435 -0.10114 -0.0103406 0.0748256 -0.0419827 -0.0760119 0.0715365 -0.0678812 -0.0549289 0.012966 -0.0509835 -0.0396407 0.00883946 -0.0408189 -0.0501187 0.0615422 0.00801294 0.00829229 -0.00383256 -0.00184977 0.00681331 -0.00965123 0.0142899 0.00919552 0.0207594 0.0123013
2642 -0.0539078 -0.0601337 -0.0222285 -0.00874427 -0.012394 -0.00341372 0.00278186 -0.0110279 0.0104631 -0.000637643 0.0154139 -0.0134152 0.00763798 0.033195 -0.029752 -0.0494538 -0.01488 0.0365478 -0.0319965 0.00911744 -0.00621416 0.0211987 0.0103576 0.0031341 -0.0212374 0.0143166 -0.0179958 0.0524662 -0.0186405 -0.0310458 0.0474363 -0.0324377 -0.057954 0.0179637 -0.104774 -0.0866246 0.000744626 -0.0585663 -0.062662 0.0697074 0.0367918 -0.0185258 -0.168295 -0.206201 0.16637 -0.0667806 0.140034 0.102486 0.0672378 0.0519606
3147 -0.0740517 -0.0782235 -0.0782712 0.00589319 0.0345575 -1.64267e-05 0.0562315 -0.074464 -0.074278 0.0110924 -0.0482119 0.0425101 -0.00408214 -0.0147959 0.0143505 0.0410817 -0.00662323 -0.0378184 0.0638124 -0.0110129 0.0230497 -0.0374661 -0.0423713 -0.0198803 0.0462383 -0.0942374 -0.0205979 0.0902002 -0.0467652 -0.0755024 0.0920383 -0.0663951 -0.0790679 0.0334049 -0.107312 -0.0861574 -0.000292736 -0.0554167 -0.0888564 0.0861394 0.0365157 -0.00809395 -0.118202 -0.166203 0.120603 -0.0392832 0.112378 0.0788239 0.051536 0.0580291
2233 -0.231928 -0.250097 -0.206193 -0.0121539 0.029533 0.00418677 0.120236 -0.168731 -0.0521701 0.00843677 -0.00336036 0.00010169 -0.00483536 0.121495 -0.0564688 -0.0995624 -0.016831 0.024362 0.0085754 -0.0303131 0.0151499 -0.00860077 -0.00192664 -6.69438e-05 -0.0127011 -0.0197583 -0.0428358 0.200864 -0.101748 -0.138883 0.187744 -0.130189 -0.220617 0.0386845 -0.349999 -0.246702 0.00340567 -0.167254 -0.215783 0.233134 0.139282 -0.0404671 -0.530733 -0.718447 0.549829 -0.222095 0.447338 0.332232 0.222298 0.170037
2898 -0.0504425 -0.046676 -0.0368906 -0.00425787 0.00347492 -0.00853064 0.0240939 -0.03131 -0.0220282 -0.00399362 -0.028631 0.0221758 0.00966245 0.00174041 -0.0106925 0.0114832 -0.00759886 -0.0165996 0.0190501 -0.0185892 0.00610665 -0.0213503 -0.0206322 -0.0164199 0.00591768 -0.031382 -0.00613685 0.046364 -0.0339309 -0.0411745 0.0601853 -0.0390092 -0.0761627 0.0228572 -0.0951899 -0.0844563 0.00110283 -0.0578807 -0.0824283 0.0849048 0.0412772 -0.0107141 -0.131496 -0.165712 0.141223 -0.0413199 0.116739 0.0765548 0.0485052 0.0332684
1444 0.00194427 -0.00706017 0.0269603 -0.00948455 -0.0204149 0.00191818 -0.0257354 0.0407692 0.0608562 -0.0223936 0.0670559 -0.0511342 0.00364183 0.0678534 -0.0375274 -0.102523 -0.0145873 0.0848471 -0.0691933 0.00838692 -0.0147538 0.0467875 0.0381928 0.0178104 -0.0396571 0.0854446 -0.00465142 0.00365848 0.0184925 0.00675981 -0.00513023 0.0175786 -0.0363222 0.00535597 -0.0643255 -0.0464733 0.00989586 -0.0249505 -0.0273075 0.0220747 0.0355224 -0.00575306 -0.19126 -0.24076 0.181469 -0.076074 0.139742 0.106626 0.0534139 0.0385262
2123 -0.108441 -0.11091 -0.0612288 0.000974053 -0.00272404 0.0170695 0.0202082 -0.0377086 0.0178426 -0.00490433 0.0139108 -0.0100635 0.0036761 0.0992122 -0.034938 -0.0946356 -0.0194653 0.0389185 -0.01783 -0.0146526 0.00481359 -0.000249974 5.12666e-05 0.000314337 -0.0257747 0.031096 -0.0292867 0.114179 -0.0399808 -0.0641108 0.106497 -0.0746473 -0.161153 0.0266718 -0.245587 -0.175336 0.00548209 -0.120522 -0.143204 0.173032 0.0961762 -0.0201026 -0.396993 -0.526963 0.407889 -0.155048 0.335296 0.242579 0.145621 0.116655
3298 -0.0847092 -0.0904305 -0.100624 0.00391787 0.0181597 0.00854219 0.053115 -0.079661 -0.0512617 0.00907008 -0.023351 0.0101324 0.00153236 0.0290737 -0.00366591 -0.0200078 0.000828603 -0.0121914 0.0228516 -0.0213501 0.0172984 -0.0225833 -0.0243817 -0.00566604 -0.00317065 -0.0196147 -0.0278839 0.104486 -0.0430732 -0.0788472 0.0921651 -0.0724632 -0.108918 0.0299844 -0.163522 -0.129 -0.00260427 -0.0820693 -0.117143 0.107979 0.0608651 -0.0099101 -0.218463 -0.28589 0.232483 -0.0873526 0.178559 0.140063 0.091576 0.0792465
3660 -0.0447414 -0.0729375 -0.0853419 0.000909118 0.0450592 -0.000778595 0.0620825 -0.0919974 -0.100449 0.0184172 -0.086522 0.0653451 0.00487575 -0.0690903 0.0354417 0.0943082 0.00316562 -0.0968155 0.0908305 -0.0203593 0.0329648 -0.0629125 -0.0578685 -0.0206476 0.0605277 -0.112152 -0.00512003 0.0689456 -0.0411618 -0.0674901 0.079201 -0.0553318 -0.0371468 0.0270037 -0.0443282 -0.035395 0.00548944 -0.0310804 -0.0553391 0.062421 -0.00354781 0.000449923 0.0281926 0.0369259 -0.0286027 0.00486719 -0.0181811 -0.0216568 -0.000358029 0.00568704
2374 -0.0627767 -0.0681966 -0.0662187 0.00552543 0.025632 -0.00595523 0.0491237 -0.0746491 -0.0664247 0.0111761 -0.0578302 0.0434342 -0.00319103 -0.0243718 0.0173088 0.038002 0.00480067 -0.0361533 0.062898 -0.0173093 0.0231853 -0.0433485 -0.038433 -0.0176709 0.0406445 -0.0832624 -0.0254364 0.0807278 -0.0481288 -0.0645271 0.0761233 -0.0547936 -0.0569673 0.0255895 -0.0690863 -0.0716002 -0.00541785 -0.0447734 -0.076889 0.0745642 0.0197731 0.00218606 -0.0711126 -0.0991402 0.0773451 -0.0369371 0.0785658 0.0542521 0.0329858 0.0388103
2301 -0.057146 -0.0683419 -0.076012 -0.00397152 0.0344933 -0.00200563 0.069367 -0.0906454 -0.0957187 0.0344544 -0.0982323 0.0732857 -0.00381444 -0.0668175 0.0285267 0.10116 -0.011269 -0.0854671 0.104721 -0.0173183 0.0342828 -0.0629057 -0.0710078 -0.0220895 0.0576921 -0.11438 -0.00877777 0.0551135 -0.0422862 -0.0645843 0.082745 -0.0651469 -0.0468888 0.0219968 -0.0324075 -0.0415426 0.00153599 -0.0335728 -0.0638064 0.0713596 -0.00557674 0.000550233 0.0253763 0.0547234 -0.0336528 0.019335 -0.0221382 -0.0193066 -0.00736414 0.00499407
368 -0.00927904 -0.00810184 0.0180638 -0.00540422 -0.0191983 0.0139087 -0.0383982 0.0387653 0.0755338 -0.0122952 0.0685443 -0.0462507 0.00414925 0.0942641 -0.0495033 -0.107061 -0.0127933 0.0781828 -0.0697628 0.010095 -0.0321693 0.0543111 0.0567073 0.0282482 -0.0558642 0.0810864 -0.0109894 0.000581756 0.0159819 0.0256581 -0.0176448 0.0220169 -0.0264713 0.00586588 -0.0775673 -0.0507012 0.0109293 -0.0448081 -0.0208457 0.0242632 0.03662 -0.00821084 -0.207444 -0.283043 0.197491 -0.0783585 0.16768 0.117645 0.0762338 0.0433386
826 -0.15298 -0.180737 -0.117032 -0.00769568 0.0157601 -0.000651542 0.0611193 -0.0954007 -0.022614 0.00295626 0.00518116 0.0130851 -0.0133627 0.0902359 -0.0386835 -0.091443 -0.0224464 0.0318692 0.0087993 -0.0244147 0.0148897 -0.00624055 -0.0135579 0.00278739 -0.0142215 -0.0201432 -0.0471187 0.164243 -0.0746222 -0.0990342 0.157262 -0.096467 -0.208725 0.050232 -0.300674 -0.236111 0.0180131 -0.154812 -0.205515 0.22991 0.127969 -0.0201769 -0.494467 -0.667874 0.499952 -0.194462 0.411465 0.305622 0.18743 0.150678
1936 -0.0500312 -0.0575685 -0.0368803 -0.00515272 0.0135127 -0.00608941 0.0321379 -0.0322856 -0.0285992 -0.00715551 -0.027256 0.02459 0.00558961 0.0234654 -0.00907528 -0.000195203 0.00437411 0.00092893 0.018809 -0.0158758 0.00217465 -0.0185193 -0.0205461 -0.00964512 -0.00102262 -0.0347994 -0.00836696 0.0485388 -0.0321502 -0.0428873 0.0557079 -0.0303504 -0.0598117 0.00668155 -0.089689 -0.0558943 0.00646825 -0.0484351 -0.0579401 0.0639859 0.038418 -0.0115436 -0.127298 -0.159609 0.127726 -0.0558861 0.0921626 0.0656984 0.048167 0.0449929
1773 -0.0592752 -0.0627258 -0.0639606 -0.00298804 0.0101305 -0.00821331 0.0500538 -0.0723758 -0.0600767 0.0126235 -0.0436521 0.0412714 -0.000638076 -0.0115837 -0.000195244 0.040957 0.00197801 -0.0389235 0.045968 -0.0193648 0.00713249 -0.0166792 -0.0338685 -0.0123442 0.0203999 -0.0705053 -0.0115437 0.0589948 -0.0455681 -0.0548788 0.0666418 -0.0611093 -0.0532897 0.0128663 -0.080043 -0.0601715 0.00184536 -0.0414681 -0.0722369 0.0753683 0.0154555 0.00464715 -0.0559014 -0.075315 0.0484903 -0.0181365 0.0597887 0.0465557 0.0338929 0.0357792
