7397 50
6589 -0.0199381 -0.0176561 -0.0361277 0.00378993 0.0423659 0.00304556 -0.0368286 0.128882 -0.0315705 -0.0350343 -0.0754363 0.0645601 -0.0441427 -0.00424114 0.000490423 -0.0462252 -0.00952102 0.034893 -0.0391475 -0.00855019 -0.0253062 0.00964037 0.0714753 -0.021363 0.000999002 0.021718 -0.167054 -0.0135795 -0.0520438 0.0565105 -0.0693811 -0.0274363 0.159979 -0.120032 0.18305 0.0532215 -0.0864227 0.0810292 -0.11095 0.0874344 0.268073 0.116656 0.0369157 0.460653 0.27016 -0.054421 0.154971 0.473833 0.0672981 0.0735731
985 -0.0130992 0.00147945 -0.01848 -0.00102316 0.0358386 0.012295 -0.0346362 0.132262 -0.0449202 -0.0501539 -0.0746912 0.0608711 -0.0276058 -0.00976038 -0.00465354 -0.0593427 -0.0196187 0.0251752 -0.0358496 -0.00833866 -0.031689 0.0105024 0.0757366 -0.0384133 0.000408275 0.0108553 -0.16777 -0.00758927 -0.0641748 0.0424333 -0.0689142 -0.037681 0.174951 -0.135413 0.187146 0.0564399 -0.0768949 0.0838738 -0.122842 0.0856113 0.255105 0.0996033 0.0418569 0.474775 0.281785 -0.0600385 0.151624 0.469453 0.0747817 0.0856118
13120 -0.0211585 0.0320888 -0.0140769 -0.00307926 0.0198974 -0.000519229 0.000727075 0.0471993 -0.0124979 -0.00942128 -0.0098033 0.0361727 -0.0506314 -0.0109778 0.0138573 -0.0494126 -0.0104419 0.00244823 -0.000515093 0.000365958 0.0123251 0.0382493 0.0301058 -0.000309105 0.000210644 0.0179974 -0.0689358 -0.00153661 0.000148504 0.0112286 -0.00465792 -0.00882755 0.0673266 -0.0519701 0.0905706 0.028347 -0.0122873 0.00860395 -0.0408266 0.0390719 0.127753 0.0552643 0.0203444 0.253537 0.148658 -0.0318867 0.0907818 0.244985 0.0351916 0.0374617
5927 -0.0114931 -0.0157962 -0.0326714 0.0068539 0.0588983 0.0130814 -0.0675561 0.204778 -0.0655301 -0.0638287 -0.109326 0.0957154 -0.0517857 -0.00682902 0.00944764 -0.0776934 -0.0294544 0.0554078 -0.0643164 -0.00494782 -0.0299506 0.00939553 0.127619 -0.0312013 0.00753339 0.0161145 -0.244115 -0.00615841 -0.103982 0.076256 -0.105411 -0.0686903 0.263448 -0.198367 0.275713 0.0720821 -0.114784 0.13658 -0.163597 0.119812 0.397886 0.150538 0.0590576 0.671262 0.400462 -0.0856 0.229593 0.693162 0.094082 0.102911
809 -0.0133484 -0.0398477 -0.0621063 -0.0158571 0.0698415 -0.0003569 -0.0947166 0.273162 -0.0762655 -0.101525 -0.162745 0.145051 -0.0535246 -0.00678382 0.00588532 -0.0945095 -0.0561927 0.0671156 -0.0978614 -0.0261776 -0.0858135 -0.0314529 0.185261 -0.0732227 -0.0162942 0.0302828 -0.370511 -0.0272672 -0.14524 0.107798 -0.174252 -0.0983351 0.382179 -0.285066 0.399895 0.105278 -0.197395 0.229096 -0.262681 0.192508 0.587317 0.232262 0.0829056 0.947478 0.586808 -0.11594 0.327641 0.982052 0.152725 0.153942
9580 -0.0245979 0.00915932 -0.0131379 -1.8267e-05 0.0331033 -0.00205796 -0.0149342 0.0874393 -0.0374482 -0.0329197 -0.0442581 0.0513558 -0.0323491 -0.01572 0.0155824 -0.053842 -0.00721367 0.024682 -0.0256981 -0.0129213 -0.00917938 0.0215148 0.0513472 -0.0213353 0.000803963 0.0148657 -0.123579 -0.00143152 -0.0302164 0.0268261 -0.0477783 -0.0239802 0.133721 -0.0959341 0.15031 0.0486072 -0.0459961 0.0555371 -0.0741476 0.0518498 0.199728 0.0775668 0.0381707 0.373721 0.216332 -0.0460286 0.119558 0.364565 0.0495761 0.0688917
4549 -0.0145169 -0.00672789 -0.0386141 -0.00980858 0.0465165 -0.00145267 -0.0580458 0.171201 -0.0540632 -0.0612807 -0.0871805 0.0960221 -0.0505973 -0.0137911 0.00946982 -0.0706589 -0.016746 0.0404433 -0.0488119 -0.0229205 -0.0234918 0.000167977 0.116356 -0.0467619 -0.00507664 0.014824 -0.211737 -0.0111599 -0.0749051 0.0674399 -0.0967383 -0.0585393 0.225415 -0.178241 0.241811 0.0744012 -0.0918365 0.103782 -0.146639 0.113909 0.331916 0.139416 0.0469414 0.584859 0.358962 -0.0686093 0.20474 0.590559 0.0851594 0.101676
11410 -0.00144738 -0.0488062 -0.0162863 -0.00342463 0.0187069 -0.0116292 -0.0211653 0.0716589 -0.0168108 -0.0287767 -0.0575204 0.0386093 0.0162725 0.0190809 -0.0186362 0.00181789 -0.0277243 0.0179883 -0.0305913 -0.00139732 -0.030696 -0.0291774 0.0333107 -0.0169655 -0.00955948 0.00741236 -0.0776731 -0.00981032 -0.0701142 0.0179064 -0.0678415 -0.0421909 0.110506 -0.0808486 0.0776593 0.027643 -0.0551429 0.058095 -0.0620177 0.0443665 0.123438 0.0514065 0.0226863 0.172432 0.116673 -0.0282846 0.0629365 0.194275 0.0197559 0.0357737
11968 -0.0217479 -0.00598738 -0.0410036 -0.0141332 0.0310683 0.00375106 -0.0570334 0.158367 -0.0439017 -0.0554737 -0.0883759 0.0864339 -0.0393325 -0.00974525 -0.00789902 -0.0536899 -0.0194336 0.0308424 -0.0507706 -0.0235027 -0.0445131 -0.00167767 0.113488 -0.0339716 -0.00135245 0.0175804 -0.208673 -0.0117438 -0.0840734 0.0629136 -0.0934044 -0.0561991 0.235682 -0.176212 0.228427 0.0590161 -0.0941719 0.0997619 -0.151337 0.103888 0.328211 0.13667 0.0352377 0.551132 0.336038 -0.0609548 0.193973 0.557667 0.0827469 0.0930083
8952 -0.0196458 0.0102495 -0.0281928 0.00578208 0.0215329 0.00580746 -0.0203133 0.0963707 -0.0186772 -0.0267146 -0.0491986 0.0488656 -0.0406454 -0.00230849 0.00324919 -0.0417935 -0.0144093 0.0211712 -0.030158 -0.0158962 -0.0255798 0.0139365 0.0640381 -0.0280873 -0.00524063 0.00805892 -0.126743 -0.00161504 -0.0440938 0.0293112 -0.0461965 -0.0181607 0.122727 -0.100068 0.145981 0.0322172 -0.06171 0.0530956 -0.0913691 0.068431 0.202971 0.0737042 0.0277458 0.357566 0.214061 -0.0388019 0.112839 0.348242 0.042701 0.0623799
7006 -0.0130202 0.031583 -0.00542043 -0.00194914 0.0104812 0.00896465 0.000606477 0.055888 -0.0268056 -0.0200484 -0.028941 0.0336331 -0.0479311 -0.0181102 0.0114092 -0.0580989 -0.00800519 0.00701243 -0.000372942 -0.00671531 0.013934 0.0499069 0.0529474 -0.00170044 0.00230436 0.00468805 -0.08994 -0.00399848 -0.00323823 0.0190102 -0.0168143 0.00290123 0.0724965 -0.0585082 0.129586 0.0377171 -0.0180947 0.035403 -0.058086 0.0526936 0.14516 0.0631619 0.0201256 0.311156 0.177466 -0.0378154 0.10312 0.300134 0.039641 0.052296
13962 -0.0245885 0.0057353 -0.0247723 0.00732669 0.0251507 0.000520827 -0.0384425 0.089106 -0.0244023 -0.0412075 -0.0422312 0.0461413 -0.0301329 -0.0137287 0.00743032 -0.0385006 -0.00361084 0.0135261 -0.021453 -0.00825746 -0.00394715 0.0214332 0.0520057 -0.0224694 0.00392186 0.00836615 -0.120666 0.00134379 -0.032203 0.0388557 -0.0495628 -0.0225275 0.121745 -0.0960869 0.153386 0.0426543 -0.0508094 0.0581104 -0.0768466 0.0509925 0.192331 0.0847914 0.026246 0.340068 0.215371 -0.0424595 0.111497 0.35234 0.0499929 0.0493949
13731 -0.0192093 0.0293343 -0.00695655 0.00835475 0.0211997 0.00185699 -0.017362 0.0612322 -0.0252155 -0.018483 -0.0193538 0.0386995 -0.0416317 -0.00469326 0.00480164 -0.0528554 -0.0047988 0.0164685 -0.0106586 0.00219778 -0.00520864 0.0340991 0.0546969 -0.00246618 0.00280688 0.0214936 -0.100913 0.00278094 -0.00384348 0.022115 -0.0268883 -0.00769977 0.0825065 -0.0662602 0.117047 0.0297531 -0.0323182 0.0320656 -0.0556665 0.0463427 0.161106 0.0532517 0.0211902 0.303556 0.160292 -0.0364538 0.104757 0.293809 0.0418153 0.0511217
8570 -0.0108994 0.0230838 -0.0296817 0.000914972 0.03514 -0.00331356 -0.0369056 0.112842 -0.0410322 -0.0272563 -0.0523473 0.06565 -0.0491975 -0.0111839 0.0160784 -0.0598649 -0.0154226 0.0312766 -0.0266324 -0.00484249 -0.0040811 0.0231975 0.0668072 -0.0203878 -0.00167556 0.00539924 -0.157985 -0.00374757 -0.0334395 0.0315041 -0.0429261 -0.0237052 0.152541 -0.11973 0.173286 0.038928 -0.050801 0.0565374 -0.0886834 0.075909 0.222364 0.0841466 0.0288896 0.410226 0.24935 -0.0593741 0.142619 0.421852 0.0613293 0.0615018
1823 -0.019206 0.00469626 -0.0240408 -0.0113002 0.0386495 0.00208166 -0.0440545 0.131035 -0.0373617 -0.0434501 -0.0589817 0.081959 -0.0432243 -0.00511997 0.0135617 -0.0765202 -0.0137613 0.033641 -0.0334926 -0.00132389 -0.0268608 0.0161586 0.0932795 -0.0309331 -0.00838895 0.0261371 -0.188764 -0.0147948 -0.0443402 0.0463026 -0.0576679 -0.029674 0.176981 -0.142346 0.198867 0.0467511 -0.0858859 0.0775119 -0.114568 0.0862804 0.281941 0.110455 0.0469305 0.490291 0.294952 -0.0557748 0.157961 0.484256 0.064654 0.0825415
5653 -0.0257991 0.0533401 -0.00452327 0.00757931 -0.00282063 0.00500178 -0.0014744 0.0141219 -0.0172902 0.00116173 0.00545963 0.0221933 -0.0456552 -0.0262784 0.0218358 -0.0517276 0.00604562 -0.00223719 0.0207458 0.0036167 0.0166458 0.0374784 0.01649 0.00617907 -0.000883856 0.0165507 -0.0361816 -0.0102753 0.0321961 -1.3509e-05 0.0143402 0.0128625 0.0238537 -0.00882342 0.0611875 0.0201994 -0.00283337 -0.00972746 -0.0170064 0.022149 0.0510707 0.0296111 0.0067639 0.14641 0.0710475 -0.0201004 0.0349214 0.136514 0.0163683 0.0146529
4516 -0.0107982 0.0204448 -0.00847539 -0.00303912 0.0316145 0.00194232 -0.0123267 0.0953017 -0.0377213 -0.0224082 -0.039987 0.0473543 -0.0501375 -0.0199765 0.0188329 -0.060709 -0.0162913 0.0204118 -0.0206755 -0.00483216 -0.00211956 0.0243306 0.0500256 -0.0124634 -0.0028923 0.018064 -0.115898 -0.00283982 -0.0173629 0.0243895 -0.0314124 -0.0111933 0.109408 -0.0828857 0.150698 0.0339622 -0.0436292 0.049922 -0.0714455 0.0571104 0.187827 0.0828335 0.0335498 0.362882 0.210664 -0.0544636 0.10952 0.352594 0.0627592 0.0657554
11557 0.0436519 -0.131902 -0.0216717 -0.0230888 0.00242363 -0.0244571 -0.0453728 0.0865128 -0.00841006 -0.0221602 -0.0898505 0.0066977 0.099569 0.0313657 -0.0329594 0.0779124 -0.0305175 0.0281203 -0.0704848 -0.0144796 -0.0770007 -0.119176 0.0322919 -0.0340741 -0.0195084 -0.0160624 -0.0739163 -0.00573524 -0.126903 0.0308651 -0.0959866 -0.0794091 0.118878 -0.0856622 0.0365514 0.00716958 -0.0827676 0.10054 -0.0717515 0.0521114 0.0892127 0.0333656 0.014397 0.0564564 0.0688915 -0.00353929 0.0354297 0.113829 0.0255234 0.0165028
0 0.00709738 -0.444291 -0.364027 -0.090872 0.336131 -0.0447754 -0.656091 1.63219 -0.39314 -0.559685 -1.06051 0.679772 0.155922 0.144609 -0.145874 -0.129179 -0.368109 0.408759 -0.74455 -0.240335 -0.655244 -0.561249 0.866134 -0.501838 -0.155165 0.0487609 -1.87559 -0.0984597 -1.05039 0.49649 -1.08176 -0.69628 1.90333 -1.3895 1.93092 0.533489 -0.903447 0.986529 -1.22572 0.853883 2.48542 1.01461 0.344104 3.93415 2.59349 -0.488111 1.44436 4.31668 0.654067 0.70527
10682 -0.0271122 0.0548926 -0.00061016 0.0104741 0.00627205 0.00631968 0.00657857 0.0279344 -0.0168139 -0.0183407 0.0089572 0.021947 -0.059688 -0.0184311 0.00949878 -0.0524172 0.00697906 0.00994665 0.0016906 -0.000712282 0.024392 0.055761 0.0240778 0.00560259 0.00123663 0.00115885 -0.0666241 -0.0073585 0.0285183 0.0131085 0.00973968 0.00942342 0.0345519 -0.0249367 0.0794988 0.0222892 -0.00603315 -0.00480397 -0.025053 0.0195767 0.0960337 0.0383413 0.0193754 0.214896 0.0999159 -0.0198842 0.0607977 0.188179 0.0343646 0.0293277
3245 -0.0149194 0.0193816 -0.0299116 -0.00875255 0.0405618 0.0148075 -0.0376028 0.137676 -0.0365695 -0.0530861 -0.0772425 0.0827887 -0.054181 0.00278671 0.00935641 -0.0659374 -0.0104746 0.0269619 -0.0311693 -0.0118479 -0.0196963 0.0145865 0.0930498 -0.0398529 -0.00869952 0.0127627 -0.199686 0.00105022 -0.0577628 0.0455211 -0.0658121 -0.0373095 0.184747 -0.136834 0.205174 0.0551231 -0.093728 0.0776528 -0.115831 0.0992824 0.295124 0.113582 0.0353622 0.5096 0.305098 -0.0587664 0.165232 0.528423 0.0779814 0.0807931
9220 -0.0188208 -0.00602055 -0.0463499 0.00561368 0.0357884 0.0107042 -0.0395813 0.181594 -0.0620369 -0.0593009 -0.097666 0.0868058 -0.0435781 -0.00765769 0.0114888 -0.0737162 -0.0355184 0.0303051 -0.0516886 -0.00845922 -0.037547 -0.01122 0.108592 -0.0546755 -0.00242914 0.0244385 -0.253263 -0.0115507 -0.0887822 0.0709198 -0.0936152 -0.0519565 0.25131 -0.192817 0.264556 0.0713174 -0.117633 0.118395 -0.166973 0.118144 0.380314 0.152471 0.0510111 0.62527 0.38311 -0.0805863 0.213819 0.646109 0.088045 0.107731
9062 -0.018196 0.00919198 -0.0126832 0.00899523 0.0215209 0.0112205 -0.0184716 0.0884558 -0.0303677 -0.0192177 -0.043152 0.0483836 -0.0322718 0.00215501 0.0102694 -0.0473894 -0.0158236 0.0228494 -0.0169895 -0.00517038 0.00236637 0.0299453 0.0557788 -0.0197481 0.00101779 0.0180493 -0.113936 0.00320442 -0.0304683 0.0383811 -0.0375142 -0.0295132 0.114238 -0.077862 0.128874 0.0410448 -0.0366383 0.0501386 -0.0770376 0.0593735 0.161195 0.0703653 0.0234865 0.319813 0.187195 -0.0384008 0.098431 0.326814 0.0568293 0.0586251
1360 -0.0149973 0.00468644 -0.0163966 -0.00313322 0.0225751 -0.00394643 -0.0312786 0.10339 -0.0326998 -0.039261 -0.0469266 0.0447869 -0.0410124 -0.000819368 -0.00277708 -0.0385558 -0.0053586 0.0248099 -0.0316501 -0.00439182 -0.00186616 0.0233466 0.0707342 -0.0175952 0.00395201 0.0143186 -0.141381 -0.0107758 -0.047232 0.0335712 -0.0431661 -0.0246105 0.141889 -0.0946796 0.16114 0.0470497 -0.063067 0.0542048 -0.0816984 0.0733661 0.200375 0.083416 0.0245904 0.394317 0.230724 -0.0542631 0.129912 0.379555 0.0601497 0.0717143
3544 -0.00304316 -0.0202032 -0.0228767 -0.00746121 0.0199748 -0.00965144 -0.0316299 0.0909675 -0.0314789 -0.030342 -0.0617373 0.0554394 -0.00367592 0.00567114 -0.0107804 -0.0340604 -0.0188738 0.0297221 -0.0221479 -0.0174716 -0.0366095 -0.0116043 0.061982 -0.0252463 -0.00822324 0.0147896 -0.126067 -0.0130612 -0.0514167 0.0344234 -0.0571429 -0.0357599 0.123854 -0.0896507 0.133816 0.0313008 -0.0550227 0.0680003 -0.0855625 0.0712127 0.187954 0.0857984 0.0205788 0.321361 0.190211 -0.0405869 0.099583 0.319986 0.0420724 0.0555825
3011 -0.0129729 -0.00191672 -0.015652 -0.00264596 0.0100726 0.00785864 -0.0276181 0.0854508 -0.022797 -0.0249213 -0.0513382 0.0338584 -0.0288603 -0.00803243 -0.00426827 -0.0348358 -0.018033 0.0224656 -0.0145477 -0.00647809 -0.0025945 0.0151499 0.044406 -0.0188499 -0.00146619 0.00635788 -0.109954 -0.00647092 -0.045569 0.0317457 -0.0395979 -0.029431 0.112422 -0.0705495 0.125247 0.0363022 -0.041865 0.0501435 -0.0781168 0.0504968 0.153291 0.0661633 0.0239016 0.278368 0.161482 -0.0331531 0.0922936 0.275421 0.0404117 0.0535959
10436 -0.0108056 -0.0293774 -0.0479489 -0.0173048 0.0533171 0.0103062 -0.074684 0.222074 -0.0771745 -0.0773996 -0.126453 0.125326 -0.0477295 -0.000835103 0.000668161 -0.0768548 -0.0344986 0.0551865 -0.0663448 -0.0231113 -0.06636 -0.0110311 0.151955 -0.0652847 6.2675e-05 0.0241172 -0.292395 -0.0195502 -0.128695 0.0870525 -0.136262 -0.0815791 0.315365 -0.234221 0.327895 0.08206 -0.145891 0.16094 -0.204734 0.143386 0.468795 0.181953 0.0612259 0.763519 0.463433 -0.107826 0.273686 0.80047 0.114769 0.120127
5364 0.0471842 -0.113995 -0.0143013 -0.0264627 0.0128272 -0.0301092 -0.0531679 0.0830944 -0.00831596 -0.0284075 -0.0876375 0.00899935 0.105703 0.0528421 -0.0518361 0.077325 -0.0458028 0.0411685 -0.0658195 -0.0318354 -0.085463 -0.101127 0.0204467 -0.0473851 -0.0204323 -0.0041292 -0.0445345 -0.00454857 -0.126887 0.0229497 -0.105851 -0.0650565 0.0939856 -0.0698463 0.0183502 0.0089447 -0.0733928 0.0974781 -0.0557216 0.0377844 0.0720622 0.0258538 0.00212389 0.0199336 0.0537569 -0.00203487 0.021416 0.0743302 0.00760338 0.00189419
3248 -0.0214456 0.00749905 -0.033818 0.00189083 0.0412766 0.00984892 -0.0469485 0.138291 -0.0382549 -0.0549257 -0.0719131 0.0742801 -0.0468422 -0.000179003 0.00919019 -0.0712469 -0.0215506 0.0343749 -0.035264 -0.0083064 -0.0165478 0.00459631 0.105438 -0.02616 0.0090763 0.0194762 -0.209464 -0.0138091 -0.0633273 0.0541757 -0.0747015 -0.0360589 0.210401 -0.146816 0.235197 0.0695162 -0.0901827 0.0880868 -0.137154 0.107982 0.302257 0.133098 0.0535724 0.564794 0.333439 -0.0680134 0.190928 0.569681 0.0914899 0.0881152
6262 0.0159589 -0.0701285 -0.0238353 -0.00593278 0.00651724 -0.0224508 -0.0527587 0.0884484 -0.0216087 -0.0414483 -0.0692975 0.0273049 0.0556949 0.0284201 -0.0230758 0.0323834 -0.0345019 0.0271987 -0.0561878 -0.022522 -0.0595607 -0.0751528 0.0448591 -0.030899 -0.0108936 -0.00563602 -0.0970119 -0.00111363 -0.101047 0.0262923 -0.0912734 -0.0692901 0.115927 -0.0828332 0.0759344 0.0321158 -0.0745924 0.094164 -0.0724404 0.0553974 0.122882 0.0549679 0.0232939 0.176044 0.122801 -0.0147942 0.0596859 0.211132 0.0413932 0.0341031
5026 -0.0060713 0.0199542 -0.021327 -0.0049778 0.0231696 0.0134341 -0.0296016 0.074579 -0.0316447 -0.0322199 -0.043772 0.0535472 -0.0359751 -0.0175889 0.000432144 -0.0468007 -0.015065 0.0209227 -0.0196586 0.00475328 -0.000758225 0.0110763 0.0648775 -0.0137616 -0.00588698 0.0106645 -0.12866 0.00190694 -0.0340824 0.0343188 -0.041426 -0.0301786 0.117196 -0.0842252 0.142178 0.0383893 -0.0432951 0.0574118 -0.0736392 0.067644 0.193063 0.0726936 0.0201303 0.347708 0.195709 -0.0514202 0.114947 0.350156 0.0511035 0.0579151
12140 -0.0153586 0.0123037 -0.0219487 -0.00594337 0.0137767 -0.00197115 -0.0167659 0.077574 -0.0295436 -0.0331531 -0.0254926 0.034748 -0.0462487 -0.0125565 0.0153612 -0.0530265 -0.0028285 0.0172703 -0.0182612 -0.0094581 -0.00122428 0.0237022 0.0541396 -0.00837222 -0.00246732 0.00148358 -0.108164 -0.0105451 -0.0307081 0.0258775 -0.0344049 -0.0237127 0.102466 -0.0865107 0.135598 0.0316536 -0.0442331 0.0578011 -0.0740125 0.0562846 0.182936 0.0783505 0.03012 0.343058 0.182692 -0.0472786 0.102597 0.319851 0.0399909 0.0483698
10441 0.0225564 -0.10291 -0.0228753 -0.00951453 0.0111896 -0.021392 -0.0495063 0.101144 -0.00736821 -0.0327314 -0.0909391 0.0247517 0.0754375 0.0349838 -0.030566 0.0601643 -0.0465385 0.0379736 -0.0555594 -0.0268097 -0.0673965 -0.0869859 0.0356667 -0.031973 -0.0160132 -0.00208311 -0.0586826 -0.00882323 -0.0896153 0.0211961 -0.0807629 -0.0656064 0.100738 -0.0572429 0.0480717 0.024369 -0.060591 0.0635708 -0.0526391 0.0436943 0.0716152 0.0262703 -0.000642542 0.0673504 0.0787164 -0.0110453 0.0523216 0.120896 0.0176876 0.0260217
7895 -0.0255164 0.0149486 -0.0289404 0.00829454 0.0385351 -0.00108079 -0.0275978 0.125163 -0.0400596 -0.0349459 -0.0571034 0.0626285 -0.038643 -0.00973328 0.00543663 -0.0503275 -0.0162931 0.0166084 -0.0369514 -0.00522881 -0.00647781 0.0103782 0.0826191 -0.0172117 -0.004376 0.010562 -0.155516 -0.00160828 -0.0485128 0.0449785 -0.0617406 -0.0415438 0.14526 -0.117256 0.191916 0.044032 -0.0571067 0.0731482 -0.0998431 0.0674034 0.234391 0.0890779 0.0262444 0.427602 0.24844 -0.0639266 0.153857 0.447653 0.0718039 0.0823088
117 -0.0296993 -0.0619572 -0.0764317 -0.0112317 0.0940777 0.0151988 -0.113331 0.362399 -0.108029 -0.115821 -0.209967 0.176832 -0.0699047 0.00691093 -0.0102568 -0.117843 -0.0624947 0.0820134 -0.1134 -0.0364594 -0.0849591 -0.023228 0.232068 -0.0881284 0.00443525 0.0329758 -0.44933 -0.0146156 -0.180984 0.125072 -0.206207 -0.112844 0.478567 -0.367928 0.48642 0.120592 -0.247375 0.252359 -0.315131 0.22566 0.687765 0.273912 0.0926279 1.14909 0.705938 -0.143448 0.409741 1.19559 0.185771 0.206022
4044 -0.0147884 -0.0132917 -0.0374759 -0.0111834 0.049765 0.00865392 -0.0563162 0.177649 -0.0468791 -0.0549012 -0.0907316 0.0900355 -0.0341558 -0.0026922 -0.00587765 -0.053203 -0.0356469 0.043375 -0.0573827 -0.0174548 -0.0270705 -0.00499053 0.109284 -0.0392451 -0.0085879 0.0228924 -0.233902 -0.016066 -0.0915237 0.0556717 -0.105228 -0.0647426 0.219331 -0.16326 0.257361 0.0602929 -0.108071 0.11134 -0.15796 0.119274 0.351201 0.143427 0.0567783 0.584287 0.35364 -0.0807329 0.206738 0.607143 0.0836321 0.0957038
114 -0.0109276 0.0434653 -0.00796272 0.00948863 0.00710871 0.000592591 0.00169428 0.0214398 -0.0227648 -0.00164638 0.00883923 0.0166739 -0.0545757 -0.019585 0.0138764 -0.0440911 0.00919229 0.00205387 0.000208582 0.00279387 0.0109805 0.0353818 0.021461 -0.00156204 0.00587249 0.00721121 -0.074319 0.00356645 0.00688233 0.0121198 -0.00564752 0.00170989 0.0384089 -0.0466065 0.0805084 0.0115069 -0.0113586 0.0110661 -0.0420051 0.0248903 0.101154 0.0448016 0.0110678 0.217644 0.100549 -0.0197079 0.0594687 0.187497 0.0195588 0.0343635
2397 -0.0186597 -0.0234618 -0.0445876 -0.0124039 0.0520495 0.00538956 -0.073897 0.206281 -0.0592916 -0.0776702 -0.113319 0.0995313 -0.0427414 0.00230644 -0.00596488 -0.0647323 -0.0357672 0.0561088 -0.0742988 -0.0241865 -0.0496481 -0.00363716 0.120717 -0.0505471 4.95604e-05 0.0231329 -0.271019 -0.0170443 -0.102163 0.0689029 -0.128578 -0.0650552 0.288428 -0.222095 0.300523 0.0743714 -0.136883 0.15035 -0.188243 0.139309 0.426685 0.16647 0.0553649 0.727896 0.452731 -0.0840803 0.242245 0.755659 0.119562 0.116799
1247 0.0359424 -0.128312 -0.0354568 -0.0178667 0.0181642 -0.0260833 -0.0639826 0.0898331 -0.00516922 -0.0320965 -0.0793742 0.0088263 0.100822 0.0323667 -0.0372036 0.0755776 -0.0346774 0.0282523 -0.0711708 -0.028821 -0.0754007 -0.115555 0.0275589 -0.0427195 -0.0119912 -0.00479157 -0.0689298 -0.00994519 -0.113846 0.0169718 -0.0980935 -0.0670509 0.106134 -0.0690059 0.0461069 0.025304 -0.0946937 0.111816 -0.0686947 0.0378878 0.101679 0.0291629 -0.00103478 0.0572909 0.0687089 -0.0119326 0.0322841 0.10081 0.0236411 0.0139994
7037 -0.0111584 -0.0253855 -0.0369673 -0.00696285 0.0313253 0.00275788 -0.0579923 0.147469 -0.0472902 -0.0586083 -0.0889328 0.0666322 -0.0325427 0.00940414 0.00477475 -0.0463485 -0.0201332 0.0468134 -0.0451383 -0.0148932 -0.0371722 -0.0310574 0.0908292 -0.0453894 -0.0118098 0.0135755 -0.180583 -0.00308772 -0.0821598 0.0510017 -0.0902806 -0.0470295 0.207275 -0.158349 0.210895 0.0593777 -0.0794368 0.0985658 -0.130758 0.0835936 0.265464 0.118437 0.0289555 0.45786 0.282969 -0.0607388 0.157714 0.480861 0.0827827 0.0866762
4045 -0.0138459 0.0397445 -0.00791865 0.00593061 0.0230964 0.0155164 -0.0280319 0.0916488 -0.0383245 -0.0354864 -0.0339143 0.0537089 -0.0521337 -0.0192586 0.0202795 -0.061459 -0.00946578 0.0154227 -0.0203084 0.00186633 0.00241373 0.0297022 0.0498071 -0.0146062 0.00771516 0.0153781 -0.112968 -0.000435948 -0.00600592 0.0357011 -0.0150579 -0.0120711 0.0914142 -0.0782683 0.140719 0.0306274 -0.0269762 0.0233114 -0.0697257 0.0454162 0.164348 0.0647271 0.0300484 0.342768 0.196708 -0.0352516 0.118466 0.345544 0.0408185 0.0602111
4652 -0.0197531 0.0234155 -0.0025137 0.0058058 0.0249329 0.00269758 0.00337365 0.0404117 -0.012145 -0.0226993 -0.0260164 0.0284696 -0.053584 -0.006681 0.00381975 -0.0437431 -0.00212637 0.0147407 -0.00188089 0.00857863 -0.00132978 0.0320732 0.0279973 -0.0125697 0.00479013 0.0163143 -0.0736928 -0.0123581 -0.00955864 0.0127622 -0.0108668 -0.00940914 0.0612861 -0.0444308 0.100955 0.0256656 -0.0174786 0.0147694 -0.0324356 0.0351307 0.116039 0.0541007 0.0224642 0.230114 0.124113 -0.0346393 0.0813597 0.2234 0.0396571 0.0374049
4838 -0.0147195 -0.0213385 -0.0623358 -0.000178694 0.0587205 0.00631092 -0.0658964 0.246123 -0.0717619 -0.0795176 -0.128592 0.124057 -0.0537897 -0.00601435 -0.00952222 -0.0680618 -0.0453605 0.0521438 -0.075183 -0.0298406 -0.056839 -0.00933852 0.153578 -0.0517818 -0.0145559 0.0148794 -0.315401 -0.0109684 -0.123096 0.0822811 -0.151469 -0.0741579 0.328922 -0.252098 0.33607 0.0892621 -0.164845 0.165013 -0.213993 0.152984 0.483775 0.192265 0.0659209 0.799976 0.507693 -0.096982 0.286391 0.847172 0.124615 0.13627
8013 -0.0334559 0.0693229 0.00217246 0.00625895 0.0165457 0.0128622 0.0136127 0.0222361 -0.0105117 -0.00162415 0.0175399 0.0240678 -0.0738338 -0.0313704 0.0205211 -0.0653176 0.0195128 -0.00875687 0.0126779 0.00993041 0.0298554 0.068304 0.0283161 0.0102871 0.00795949 0.0109126 -0.0607816 -0.00408691 0.0352819 0.0132839 0.0167854 0.0104033 0.0418631 -0.0229755 0.0927173 0.0132386 -0.00650898 -0.0147301 -0.0298932 0.0293656 0.104875 0.0472209 0.0241253 0.252912 0.112537 -0.0269409 0.0591937 0.210329 0.0350518 0.0276113
1544 -0.00943576 0.0222278 -0.00076369 -0.00276475 0.00818083 0.0104418 -0.00500324 0.0258219 -0.016495 -0.00928854 -0.00683788 0.0141276 -0.0328103 -0.0173973 0.0179689 -0.0357463 0.0103453 0.00852505 0.00523448 -0.00314949 0.0102444 0.0229177 0.0173516 0.00253066 -0.00442185 0.0164106 -0.0533669 -0.0110966 -0.00350168 0.00552867 -0.0136578 -0.00283063 0.0503179 -0.0368051 0.0728701 0.00836384 -0.0195924 0.0214703 -0.0346088 0.0293135 0.0784258 0.0423522 0.00498629 0.172381 0.0995908 -0.0289026 0.0514822 0.16873 0.02359 0.0253994
10780 -0.0322533 0.0267908 -0.0347182 -0.00414249 0.0376188 0.00465633 -0.0324152 0.144887 -0.0481497 -0.0502185 -0.0848999 0.0948634 -0.0651864 -0.00235376 -0.000944346 -0.0689671 -0.0265194 0.0322758 -0.0393661 -0.00706559 -0.0315877 -0.00175464 0.117229 -0.0436479 0.00737345 0.0282093 -0.216623 -0.00139011 -0.0803875 0.0604393 -0.0884608 -0.0439105 0.219485 -0.175917 0.248642 0.0654488 -0.0955579 0.118149 -0.148791 0.116688 0.350461 0.149944 0.0448915 0.582417 0.343656 -0.0674916 0.190068 0.584413 0.0979146 0.0887954
5191 -0.0275693 -0.00114518 -0.0431648 0.00345395 0.0479147 0.0101118 -0.0696111 0.217957 -0.0689085 -0.0699373 -0.124118 0.106939 -0.0588183 -0.00926338 0.00270644 -0.071638 -0.0445333 0.0583049 -0.0571907 -0.0290196 -0.0390123 -0.0119053 0.125907 -0.0415867 -0.00882368 0.028165 -0.268635 -0.017567 -0.107648 0.0720457 -0.116486 -0.0691663 0.293992 -0.213367 0.311766 0.0795814 -0.125342 0.112177 -0.177261 0.137425 0.414379 0.16531 0.062167 0.720028 0.420628 -0.0954939 0.247531 0.722643 0.103272 0.123412
6072 -0.0265611 0.0298352 -0.0110798 -0.00380914 0.0210641 0.00150896 -0.0100397 0.0708368 -0.0185461 -0.0186537 -0.0331903 0.0404163 -0.0563605 -0.0069348 0.0061119 -0.0657835 0.0027105 0.0184624 -0.00942977 -0.0024157 0.0157212 0.0334742 0.0551412 -0.0100997 -0.00172893 0.0138913 -0.100577 -0.0111979 -0.0061423 0.0228417 -0.0219882 0.00286876 0.0904996 -0.0708758 0.120925 0.0275076 -0.0218144 0.0350125 -0.0620029 0.0527882 0.16525 0.0644235 0.0287063 0.330332 0.180234 -0.0395959 0.111071 0.323788 0.0581476 0.0508811
6098 -0.00775596 0.000297525 -0.0338459 -0.00642047 0.0486024 0.000354902 -0.0453427 0.157288 -0.0599482 -0.0608768 -0.0936721 0.0938037 -0.0561822 0.000915461 0.0146716 -0.0713274 -0.0299649 0.0373731 -0.0537481 -0.0172765 -0.0260826 0.00864131 0.104822 -0.0321773 0.00486807 0.0167098 -0.210326 -0.0101052 -0.0698876 0.0620856 -0.0967065 -0.0530295 0.228306 -0.177894 0.231056 0.0513005 -0.0972273 0.112719 -0.136721 0.112183 0.328046 0.138631 0.0458565 0.551504 0.336713 -0.0638677 0.188177 0.571983 0.0784094 0.0880276
8219 -0.0062326 0.0188132 -0.00946997 0.00509112 0.0167888 0.00377673 -0.0325327 0.0849875 -0.0333951 -0.0284567 -0.0367289 0.0410462 -0.0305838 0.00213847 -0.00221436 -0.0453178 -0.019134 0.0157669 -0.0269034 -0.0106125 -0.00430761 0.0118308 0.0591962 -0.0101004 -0.00420527 0.0141865 -0.132296 -0.0074809 -0.0467055 0.0331701 -0.04525 -0.031325 0.138134 -0.105588 0.146932 0.0398073 -0.066533 0.068135 -0.0942431 0.0682878 0.198315 0.0864509 0.0353548 0.392012 0.223136 -0.0508505 0.122098 0.384153 0.0579073 0.0618287
1707 -0.0253256 0.0165203 -0.0153881 0.000582523 0.0274033 0.0130846 -0.0266234 0.0864139 -0.035078 -0.0199796 -0.0401966 0.0510169 -0.0426183 -0.0230823 0.0216447 -0.0587873 -0.00386555 0.0264788 -0.0111058 0.00487677 0.00139985 0.029213 0.052559 -0.0194666 0.0046259 0.0232504 -0.119489 -0.0109514 -0.0151131 0.0331132 -0.0408159 -0.00645114 0.118973 -0.0977099 0.152617 0.0385291 -0.0390577 0.0458582 -0.078086 0.0526281 0.181499 0.0672598 0.0264729 0.342526 0.18943 -0.0375594 0.110283 0.343062 0.0427131 0.0475629
12075 -0.0184391 0.0397533 -0.00479565 -0.00162848 0.0182784 0.00456018 -0.00754578 0.0616466 -0.0117241 -0.0161233 -0.01902 0.0341371 -0.0399291 -0.0149194 0.0176629 -0.0535609 -0.0116154 0.00658087 -0.00977537 0.00811514 -0.00417812 0.0250246 0.0324933 -0.0130704 -0.00193402 0.00444869 -0.0941537 0.00436711 -0.0217052 0.022865 -0.0312013 -0.00998855 0.0902193 -0.0563257 0.111633 0.0351436 -0.0354759 0.0223545 -0.0478568 0.0481141 0.137665 0.067838 0.0275803 0.276213 0.159424 -0.0340816 0.0835315 0.262083 0.0391383 0.0429433
2232 -0.0107214 -0.0112956 -0.0531594 -0.000698541 0.0434893 -0.00245727 -0.0711004 0.223748 -0.0611875 -0.0668292 -0.109948 0.103934 -0.045262 -0.00384017 0.000171355 -0.0838831 -0.0287307 0.0541557 -0.0569692 -0.0181257 -0.0435856 -0.00383904 0.135238 -0.0471714 0.000286012 0.015115 -0.280877 -0.00988373 -0.123848 0.0810732 -0.108164 -0.0635424 0.279331 -0.224034 0.305152 0.0883482 -0.129617 0.135572 -0.202774 0.132189 0.427929 0.170665 0.0672129 0.743735 0.448026 -0.101943 0.24822 0.760934 0.117369 0.130746
11311 -0.0297731 -0.0471928 -0.0894451 -0.00078394 0.0814056 0.0105913 -0.102649 0.343663 -0.103001 -0.1255 -0.212187 0.193118 -0.0593845 -0.00723059 -0.00362225 -0.107182 -0.0561088 0.0817419 -0.116163 -0.0217384 -0.0820426 -0.025259 0.204612 -0.0734791 -0.00837342 0.0388569 -0.456937 -0.0108766 -0.196017 0.123891 -0.185091 -0.105654 0.455553 -0.346543 0.484169 0.116004 -0.23263 0.235625 -0.310938 0.225676 0.671138 0.279579 0.103423 1.13096 0.685455 -0.133234 0.37812 1.15775 0.182764 0.186519
12114 -0.0115782 -0.0149171 -0.0434132 -0.00037265 0.0473946 0.00127546 -0.0554621 0.198742 -0.0515569 -0.0728065 -0.103334 0.0958439 -0.0312283 0.00072376 -0.00251208 -0.074612 -0.0319189 0.0376427 -0.0585213 -0.0172947 -0.0465641 -0.00729776 0.132532 -0.0386395 0.00350549 0.0255435 -0.262654 -0.00756102 -0.096755 0.0816908 -0.119684 -0.0714106 0.27167 -0.204332 0.280866 0.0670904 -0.131582 0.139143 -0.181267 0.122992 0.407512 0.162774 0.0467309 0.684459 0.422032 -0.0837996 0.229565 0.712762 0.0990353 0.123135
4470 -0.00841436 0.015767 -0.0177878 0.00823317 0.0323627 0.0124329 -0.0270438 0.0894541 -0.0314463 -0.028887 -0.0499197 0.0466316 -0.0379867 -0.00140227 0.00400445 -0.0486695 -0.00592002 0.0274841 -0.0159103 -0.000825398 -0.000305888 0.023685 0.0511134 -0.0168698 0.0102538 0.00345729 -0.131604 -0.0119098 -0.0395156 0.0278567 -0.0433068 -0.0302843 0.12684 -0.0892157 0.137026 0.03068 -0.055933 0.0549262 -0.0858297 0.0591648 0.193317 0.0821891 0.0346641 0.363994 0.216572 -0.0524739 0.111388 0.36167 0.0601605 0.0504001
539 -0.0161986 -0.00962864 -0.0280303 0.00482838 0.0347405 -0.0054886 -0.0633702 0.180271 -0.0552991 -0.0647327 -0.101414 0.0952278 -0.0406527 -0.0138792 -0.00330424 -0.0618987 -0.0383111 0.0327272 -0.0570879 -0.0129734 -0.0263085 0.010153 0.10236 -0.0345462 -0.00447434 0.015871 -0.230573 -0.0179664 -0.0887252 0.0698486 -0.09541 -0.0489956 0.230514 -0.185952 0.264669 0.0757701 -0.0980143 0.11924 -0.158014 0.117896 0.344907 0.140899 0.0426161 0.608811 0.375903 -0.0671491 0.206924 0.639905 0.0912103 0.111343
3299 -0.0130649 0.0470293 -0.0204874 -0.00315099 0.0279827 -0.000231135 -0.0167786 0.0617036 -0.0246086 -0.0260921 -0.0152169 0.0488378 -0.0414313 -0.0144442 0.0201072 -0.0461286 0.00112339 0.00354055 -0.00417037 0.00715325 0.0107219 0.0264664 0.0394027 -0.0100015 0.0124235 0.018037 -0.115523 -0.00849534 -0.00256781 0.0279331 -0.0188743 -0.0167014 0.0890228 -0.0625774 0.122796 0.032811 -0.0263126 0.013768 -0.0483985 0.0356619 0.158335 0.0576833 0.0327068 0.295401 0.171285 -0.0451493 0.0993752 0.29678 0.0368655 0.0548597
6502 -0.0177974 0.0222025 -0.0122004 0.00237921 0.0296894 0.000504603 -0.016409 0.0752157 -0.0183139 -0.0344355 -0.044646 0.0343316 -0.0409131 -0.00104663 0.0153372 -0.0426304 -0.0163021 0.00910207 -0.0278375 0.00420796 -0.0142222 0.00684262 0.0502827 -0.00938487 0.0101735 0.0100293 -0.107218 -0.00749681 -0.0201302 0.0216912 -0.045741 -0.0211789 0.0994785 -0.0753427 0.131689 0.0418701 -0.0396192 0.0330561 -0.0653907 0.0594896 0.157878 0.0721235 0.0150352 0.301448 0.184231 -0.0439643 0.107763 0.301859 0.0469666 0.0509716
2944 -0.0314664 -0.0350494 -0.073437 -0.00905737 0.0830493 -0.00741562 -0.105515 0.318026 -0.092184 -0.117216 -0.175058 0.158805 -0.0513936 -0.00273155 0.00374546 -0.100207 -0.046 0.0678437 -0.104588 -0.033191 -0.0895733 -0.0187327 0.195205 -0.0678467 -0.019415 0.0385794 -0.41155 -0.0187012 -0.16728 0.115336 -0.193263 -0.115125 0.428987 -0.332017 0.430971 0.109939 -0.210907 0.204232 -0.272716 0.193238 0.60896 0.241163 0.0809791 1.02307 0.622902 -0.127498 0.342284 1.04446 0.161794 0.169693
7610 -0.0243815 -0.00224044 -0.031259 0.0027909 0.0287672 0.00556601 -0.0498969 0.159756 -0.0513441 -0.0596302 -0.0920817 0.0683891 -0.0260857 0.00608934 -0.00479158 -0.0457542 -0.0329977 0.0301323 -0.0562239 -0.0194177 -0.0419389 -0.00533921 0.0970168 -0.0446432 0.00464623 0.0198582 -0.190171 -0.0101648 -0.0707138 0.0573655 -0.0835954 -0.0580035 0.198528 -0.151285 0.207269 0.0566287 -0.0822543 0.0840863 -0.124564 0.0938041 0.284887 0.110042 0.0462457 0.49965 0.300843 -0.0687071 0.172089 0.531449 0.0746848 0.0943237
2894 0.0294051 -0.100108 -0.0295464 -0.0207561 0.0158987 -0.0132744 -0.0483066 0.108841 -0.0151971 -0.0417959 -0.0747448 0.0244076 0.0709877 0.0335121 -0.0399601 0.0467063 -0.0405337 0.0388596 -0.0502946 -0.0251625 -0.0719943 -0.0771936 0.0499299 -0.0381127 -0.0204962 -0.00722557 -0.0932915 -0.0108248 -0.110905 0.0392545 -0.101064 -0.0673953 0.14292 -0.0847682 0.097627 0.0373896 -0.0867645 0.106066 -0.0948897 0.0574614 0.141243 0.0493411 0.0121278 0.18884 0.141906 -0.0287218 0.0762191 0.210086 0.0406157 0.0378585
3798 -0.0133389 0.00171714 -0.0262695 -0.0109883 0.025234 -0.000288489 -0.0263149 0.105654 -0.0374726 -0.0293591 -0.0558217 0.0676407 -0.0336773 -0.00343408 0.00109624 -0.0360292 -0.0106667 0.0182201 -0.0430893 -0.0126259 -0.021335 0.000636688 0.0790005 -0.035717 -0.0118096 0.00982067 -0.149811 0.000477816 -0.0634949 0.036994 -0.0658633 -0.03701 0.170065 -0.126508 0.171318 0.0543159 -0.0663163 0.0809295 -0.0929769 0.0744494 0.231579 0.0983321 0.0407384 0.387905 0.24477 -0.0556396 0.134223 0.391826 0.0683377 0.0704182
6592 -0.0117845 0.0163271 -0.0276769 -0.00938893 0.0382737 -0.00153845 -0.0211188 0.110591 -0.0452438 -0.0301567 -0.0598949 0.0582811 -0.0582315 -0.0106096 0.00471809 -0.0540363 -0.0172361 0.0319284 -0.0210436 -0.000182703 -0.0224367 0.00303054 0.0696901 -0.0225839 0.00989686 0.0229557 -0.145574 -0.00358729 -0.0526616 0.0521674 -0.0515719 -0.0291902 0.158416 -0.115646 0.17013 0.0433465 -0.0592679 0.0537821 -0.0919798 0.07323 0.2261 0.101595 0.0333018 0.399762 0.233722 -0.0596025 0.127045 0.405654 0.062696 0.0741328
6306 -0.014222 0.0191128 -0.00864197 -0.00223346 0.0356571 0.0143762 -0.0289239 0.0866238 -0.0275551 -0.0378167 -0.0408689 0.0643328 -0.0499765 -0.02375 0.0213949 -0.0689153 -0.00220252 0.0138389 -0.0250045 4.79437e-05 0.00194431 0.0348463 0.0667569 -0.00422627 0.0105447 0.00819829 -0.131512 0.00330356 -0.0149384 0.0355582 -0.0373851 -0.0158454 0.134021 -0.101649 0.157845 0.0453641 -0.0504699 0.0589123 -0.0997165 0.0743118 0.215829 0.0956165 0.0319559 0.401063 0.243235 -0.0465479 0.141098 0.413 0.0577817 0.0598038
6786 -0.0188136 0.0221492 -0.0138397 0.00225726 0.0336954 0.00637439 -0.024832 0.123368 -0.0362902 -0.0322348 -0.0648846 0.0758303 -0.0538511 -0.0145884 0.0158818 -0.0603526 -0.0102895 0.0337993 -0.0215653 -0.0151837 -0.00612393 0.0200899 0.0838125 -0.0183157 0.00831268 0.00949574 -0.155873 -0.0114807 -0.02992 0.0407802 -0.0426606 -0.019587 0.156247 -0.12813 0.198738 0.0547159 -0.0624341 0.0691605 -0.101775 0.0843745 0.234931 0.108836 0.0458519 0.451239 0.279016 -0.0522181 0.165109 0.466263 0.0778758 0.0790627
6045 -0.0203374 0.0242252 -0.0331185 -0.000237396 0.0254063 0.0121913 -0.0325337 0.12899 -0.0397889 -0.0382897 -0.05982 0.0721177 -0.048018 -0.000467885 0.0113639 -0.0657146 -0.0103034 0.0210865 -0.0200111 0.000170896 -0.00453056 0.0259399 0.0786477 -0.0128081 0.00663331 0.019491 -0.16969 -0.0109853 -0.0484036 0.0578461 -0.0630053 -0.039281 0.172502 -0.133999 0.199218 0.050759 -0.0741514 0.072426 -0.100289 0.0759255 0.262176 0.107073 0.0301075 0.490487 0.281217 -0.0631472 0.170874 0.484742 0.0716658 0.0840944
2403 -0.0153643 0.0134668 -0.0266298 -0.00301397 0.0344267 0.00526101 -0.0470003 0.137522 -0.0394152 -0.043133 -0.0779664 0.0763616 -0.0443114 -0.0182275 0.00996439 -0.0559065 -0.0197833 0.0312731 -0.0328303 -0.0129981 -0.0336206 0.0110094 0.0988787 -0.0302842 0.00783206 0.0108443 -0.201281 -0.00772344 -0.0581302 0.0602692 -0.0884808 -0.0398504 0.21239 -0.147485 0.22295 0.0650355 -0.081371 0.0830115 -0.119849 0.0885244 0.287962 0.125154 0.0464139 0.535666 0.3019 -0.0739152 0.175193 0.51602 0.083248 0.0959355
1896 -0.0187239 0.0284858 -0.015624 -0.00728708 0.0185517 0.0103204 0.000591865 0.0324362 -0.0229105 -0.0061365 -0.0159803 0.0204708 -0.0279635 -0.00390195 0.010358 -0.0378199 0.00340264 0.0141801 -0.00929495 0.0105252 0.0089708 0.0220884 0.0348249 -0.00617116 0.0122431 0.0148254 -0.0639605 -0.00996332 -0.000625029 0.00752235 -0.0135676 0.00542974 0.0504302 -0.043825 0.0823514 0.0238929 -0.0271841 0.0274542 -0.0409038 0.0196032 0.100329 0.0361503 0.023553 0.196283 0.116226 -0.0164196 0.0605049 0.182573 0.0246631 0.0342777
8733 -0.0182978 0.00419162 -0.0335432 0.00752122 0.0348179 0.00428069 -0.0466068 0.148587 -0.0450373 -0.041885 -0.0639474 0.076705 -0.0382228 0.00179971 0.0133199 -0.0638759 -0.0168815 0.0185907 -0.0269478 -0.000925873 -0.0260356 0.0142618 0.0812598 -0.0198 -0.00869657 0.0191257 -0.179683 -0.00408872 -0.0617635 0.0479583 -0.0734521 -0.0373477 0.190861 -0.138033 0.211484 0.062989 -0.0896209 0.0806824 -0.128267 0.0962063 0.281669 0.118796 0.0354148 0.519265 0.301535 -0.0592813 0.175486 0.517474 0.0715754 0.0881291
11465 -0.0322455 -0.0466689 -0.0660926 -0.0115421 0.0801084 -0.00356468 -0.11031 0.350962 -0.0964328 -0.124424 -0.18112 0.178786 -0.0512096 0.00658481 -0.00194284 -0.103278 -0.0688469 0.087891 -0.115444 -0.029233 -0.074466 -0.00376611 0.215775 -0.0675483 -0.00963365 0.0447191 -0.420878 -0.0153796 -0.170469 0.115056 -0.17927 -0.115004 0.432911 -0.340487 0.480878 0.130789 -0.216125 0.227238 -0.291495 0.221108 0.654147 0.268765 0.0930805 1.09431 0.674853 -0.138369 0.369316 1.11879 0.175364 0.176712
6432 -0.0298492 0.03647 -0.0148579 0.00932785 0.0307083 0.00462338 -0.00450986 0.075954 -0.0301271 -0.0238827 -0.0205381 0.0555914 -0.0557528 -0.0231243 0.0176226 -0.0622088 0.00334804 0.0117641 -0.00254517 0.00243237 -0.000742698 0.0343045 0.044024 -0.0121596 0.0129715 0.00408983 -0.103059 -0.00280145 -0.00377237 0.0253067 -0.0154045 -0.00688355 0.0953231 -0.084674 0.125875 0.0431278 -0.0354738 0.0276883 -0.0568491 0.0411489 0.162092 0.0749777 0.0202953 0.337174 0.196112 -0.0335958 0.102205 0.328572 0.0509484 0.0510678
1994 -0.0315968 0.0132097 -0.0392265 0.00446231 0.0370206 -0.00302379 -0.0482832 0.170666 -0.0513198 -0.0594564 -0.0969624 0.0890343 -0.0562577 0.000550225 0.00667324 -0.0699631 -0.017392 0.0447665 -0.0455295 -0.0154055 -0.0208191 0.00348889 0.117914 -0.0315413 0.00746509 0.029665 -0.239762 -0.0104603 -0.0704511 0.0599456 -0.098179 -0.060203 0.215509 -0.179407 0.248638 0.0578098 -0.0953179 0.10236 -0.152346 0.109918 0.331866 0.131289 0.045088 0.614501 0.375373 -0.074135 0.209757 0.618778 0.0938302 0.111677
9755 -0.0203564 -0.0430814 -0.0673298 -0.0133025 0.0821196 0.0125709 -0.0968046 0.29844 -0.088131 -0.0999103 -0.168026 0.153525 -0.0587545 0.00730117 -0.00806778 -0.0831283 -0.0583315 0.0643332 -0.0917755 -0.0351805 -0.0620615 0.00321963 0.186561 -0.0694569 -0.0020927 0.0407327 -0.377085 -0.0130271 -0.154723 0.109191 -0.161387 -0.0954419 0.382118 -0.303008 0.411312 0.100795 -0.19076 0.223727 -0.263661 0.196601 0.583263 0.228876 0.0888613 0.950854 0.601474 -0.12627 0.329388 0.994607 0.147805 0.171864
327 -0.0162294 0.0370007 -0.0233438 -0.00904937 0.0312867 0.000970132 -0.0264432 0.0971282 -0.0417843 -0.0278452 -0.0522669 0.0654147 -0.0506474 -0.0133674 0.010887 -0.0628213 -0.0165512 0.0177732 -0.0192998 0.00414091 -0.00376609 0.0214156 0.0626212 -0.014088 -0.000901028 0.00744684 -0.136232 -0.00325583 -0.0251031 0.0424132 -0.0391322 -0.030177 0.133917 -0.0948298 0.167679 0.0463176 -0.0475795 0.053941 -0.0932399 0.0593372 0.209181 0.0835211 0.0313719 0.401452 0.244027 -0.0520748 0.127804 0.406859 0.0592916 0.0663879
9452 -0.0232836 0.021893 -0.0326992 0.0086275 0.0428269 -0.0013013 -0.0472113 0.127641 -0.0448186 -0.0387989 -0.0619984 0.0772648 -0.0519427 -0.007954 0.0184126 -0.0665136 -0.0263331 0.0269689 -0.0402765 -0.0116981 -0.0182316 0.0206263 0.0839162 -0.034818 -0.00480301 0.0264991 -0.186664 -0.0135095 -0.0591556 0.050243 -0.0744719 -0.0495309 0.18985 -0.142364 0.210142 0.0559452 -0.0784377 0.0836253 -0.113606 0.0803996 0.288499 0.110682 0.0379766 0.495119 0.283636 -0.0580486 0.166298 0.510264 0.0725797 0.0813849
11748 -0.0217152 0.0103964 -0.0171576 0.00679195 0.0160683 -0.00246635 -0.0314537 0.0852062 -0.0235447 -0.0198755 -0.0342292 0.0398579 -0.0406422 -0.010814 0.0173978 -0.0487025 0.000983178 0.00686238 -0.0121966 -0.00769223 -0.00508687 0.0148777 0.0587367 -0.0134063 -0.00835076 0.0164404 -0.123587 -0.00310327 -0.0318632 0.0338243 -0.0461137 -0.0212993 0.110242 -0.0846674 0.14266 0.0292885 -0.0542397 0.0391727 -0.0802453 0.0491135 0.184256 0.0706998 0.0245992 0.340209 0.191661 -0.0376097 0.106793 0.3307 0.0493261 0.0615124
11088 -0.0206468 0.0262525 -0.0126653 0.00961129 0.0318037 0.00590179 -0.0174962 0.108112 -0.0316494 -0.0290818 -0.0504608 0.0575952 -0.0509813 -0.00583694 0.00879818 -0.050832 -0.00344006 0.0200588 -0.014996 0.00378559 -0.0101097 0.024666 0.0680223 -0.0169986 0.00463859 0.00887631 -0.143297 0.00147079 -0.0200758 0.0410822 -0.0492053 -0.010318 0.121166 -0.10151 0.166669 0.0415114 -0.0423632 0.0464574 -0.092664 0.0703542 0.214385 0.0967922 0.0347052 0.395364 0.229681 -0.0603335 0.131848 0.395811 0.0621343 0.0656119
7253 -0.00630582 -0.0214484 -0.0357643 0.00230283 0.0392876 0.00443408 -0.0723518 0.20206 -0.0608984 -0.0764025 -0.116184 0.111059 -0.0274515 -0.000371981 0.00681243 -0.0593282 -0.0427998 0.0532678 -0.0650761 -0.0105909 -0.0444919 -0.0156199 0.132305 -0.0505272 -0.0172922 0.0283257 -0.277214 -0.0115395 -0.107595 0.0687623 -0.120098 -0.0708136 0.282681 -0.202745 0.288603 0.0875669 -0.122148 0.136058 -0.174321 0.140074 0.400985 0.160161 0.0562118 0.697634 0.42261 -0.0835651 0.230961 0.719433 0.114847 0.12292
1499 -0.0173905 0.0275184 -0.0219497 0.00118067 0.0375493 0.0119977 -0.0303467 0.133839 -0.0472452 -0.0405428 -0.0635192 0.0711635 -0.0508022 -0.0127296 0.0109524 -0.0498474 -0.0263549 0.038066 -0.0253487 -0.0157077 -0.00989201 0.00708491 0.0856597 -0.0224262 -0.00707879 0.0203183 -0.177374 -0.0123575 -0.042143 0.0513299 -0.0721784 -0.0418916 0.182448 -0.141218 0.204708 0.0450313 -0.0798861 0.0702715 -0.121722 0.0897771 0.271538 0.120521 0.0416626 0.486183 0.300271 -0.0597213 0.161264 0.508765 0.0780267 0.0826111
7859 -0.009462 0.0175882 -0.022918 0.0063078 0.0220743 0.0122315 -0.0168197 0.0821883 -0.0225354 -0.0390387 -0.0392693 0.0462415 -0.032969 0.00057103 0.00900595 -0.0456675 -0.0171759 0.00733428 -0.00962589 -0.0105837 0.000264971 0.0200522 0.0561017 -0.025786 0.00632917 0.0195798 -0.125101 0.00403228 -0.0273349 0.0411536 -0.0486027 -0.0137514 0.109245 -0.081979 0.136631 0.0414968 -0.0441386 0.0361252 -0.0639367 0.0549517 0.182883 0.0630154 0.0338793 0.330542 0.188441 -0.0438896 0.112246 0.343311 0.0547144 0.055277
6958 0.0070191 -0.024709 -0.0210038 0.0047829 0.0215296 -0.00384597 -0.0321343 0.0865021 -0.016641 -0.0409906 -0.0458393 0.0360704 -0.0174143 -0.00592701 -0.00640444 -0.0163004 -0.017254 0.0230097 -0.02487 -0.0100947 -0.0389842 -0.0174837 0.0567073 -0.0296417 -0.0045534 -0.000886519 -0.14113 -0.0133522 -0.0585811 0.0350432 -0.071825 -0.0360353 0.139822 -0.106487 0.136415 0.0440436 -0.0836181 0.0913974 -0.107639 0.0698666 0.223007 0.0866467 0.0218059 0.354036 0.210522 -0.0442051 0.120744 0.344265 0.0478631 0.0628094
11862 -0.0238626 -0.00212115 -0.019393 -0.00662869 0.0267553 0.0108487 -0.0391534 0.13234 -0.0399652 -0.0398493 -0.0596774 0.0638276 -0.0525968 -0.00105939 0.00776358 -0.0674765 -0.0210095 0.031069 -0.0325826 -0.0158203 -0.0168983 0.0130024 0.0840926 -0.0307781 0.00561408 0.00772892 -0.169846 0.000948717 -0.0674818 0.0469863 -0.0779601 -0.0470439 0.17228 -0.145561 0.205168 0.0466107 -0.082368 0.079064 -0.119502 0.0946774 0.283282 0.115606 0.0306376 0.479345 0.277258 -0.0504759 0.160317 0.481262 0.0797423 0.0726297
5529 -0.0201315 0.0303348 -0.0264336 -0.00830346 0.0421217 0.0144441 -0.0251624 0.117287 -0.0350091 -0.0435196 -0.0614881 0.0615119 -0.0549165 -0.0142256 0.00994829 -0.0632488 -0.0214942 0.0313475 -0.021289 -0.013533 -0.0142315 0.0256909 0.0811375 -0.0154227 -0.00877289 0.00599708 -0.153779 -0.0167796 -0.0436231 0.0543523 -0.0576512 -0.0242037 0.164388 -0.125261 0.184836 0.0544914 -0.0698233 0.0607926 -0.106165 0.0713746 0.243101 0.101308 0.033877 0.457976 0.267559 -0.0616294 0.138321 0.445032 0.0615828 0.0812195
2393 -0.0257272 0.0291545 -0.00302754 0.00381467 0.0238787 -0.000817684 -0.016861 0.0483894 -0.0266402 -0.0170751 -0.0205099 0.0383868 -0.0412735 -0.0107661 0.0120602 -0.0512954 0.000284389 0.00785066 -0.00939097 -0.00291822 0.014613 0.031155 0.0354684 -0.0013869 0.00190681 0.0212285 -0.0744479 -0.00663881 -0.00137796 0.0290327 -0.0156 -0.00998835 0.0651015 -0.0554054 0.109852 0.0213239 -0.0216288 0.0349949 -0.0484796 0.0347064 0.133492 0.0477183 0.0175741 0.244521 0.151206 -0.0393516 0.0849206 0.256994 0.0384904 0.0357924
4972 -0.0267865 0.0142314 -0.0181128 -0.00576855 0.0313376 0.005223 -0.0474456 0.146247 -0.036044 -0.0417675 -0.0791547 0.0803135 -0.0430963 -0.00519787 -0.00144235 -0.0602225 -0.0198079 0.0338435 -0.0342243 0.000956742 -0.014402 0.0160178 0.079143 -0.0318604 0.0010046 0.023981 -0.171225 -0.00678435 -0.0418997 0.0424611 -0.0577461 -0.0347013 0.173768 -0.122163 0.206452 0.0464067 -0.0595499 0.0731323 -0.102726 0.0893774 0.274133 0.120107 0.033903 0.492523 0.293339 -0.0546974 0.162144 0.516116 0.0827577 0.0889028
1235 -0.0244733 0.0167379 -0.0333189 0.00676157 0.030126 0.00364174 -0.0472894 0.123921 -0.0446923 -0.0491442 -0.0583466 0.0670472 -0.04609 -0.0107282 0.00375699 -0.0615118 -0.0151543 0.0199766 -0.0290105 -0.00680484 -0.00948485 0.0117818 0.0782192 -0.0202395 0.00155858 0.0253918 -0.183232 -0.0159406 -0.0503079 0.0444208 -0.0596653 -0.0261162 0.178342 -0.13995 0.203664 0.0479258 -0.0862032 0.0800249 -0.116456 0.0798851 0.283547 0.121567 0.0311994 0.505416 0.293972 -0.0594941 0.172044 0.518704 0.0803693 0.0748811
6736 0.0372515 -0.106635 -0.0271697 -0.0092735 0.00774701 -0.01746 -0.0486635 0.0966003 -0.00900661 -0.0314428 -0.0877447 0.0163101 0.0839155 0.034649 -0.0273262 0.0501097 -0.0338629 0.0350128 -0.0565801 -0.0195786 -0.0795171 -0.0880199 0.0423262 -0.0373232 -0.0188769 -0.0107129 -0.0860474 -4.43538e-07 -0.108647 0.0260828 -0.0976786 -0.0796106 0.142368 -0.0960191 0.0639072 0.0256353 -0.0827267 0.0975249 -0.0761613 0.0445829 0.122838 0.0589022 0.0206874 0.135838 0.120123 -0.0159192 0.0672016 0.17002 0.0263036 0.0207889
3523 -0.0216124 0.0261697 -0.00385942 -0.00598777 0.0229233 0.0106294 -0.00613259 0.0408655 -0.0112037 -0.00746706 -0.0206422 0.0314428 -0.0318029 -0.00600931 0.0129684 -0.0419839 -0.00145008 0.00574712 -0.0123357 0.00558839 0.00110963 0.0150536 0.0344523 -0.00829229 -0.00756528 0.00896915 -0.0768815 0.00432692 -0.01499 0.0103039 -0.0223094 -0.00480072 0.0590788 -0.057702 0.0910189 0.0286871 -0.0164292 0.0301216 -0.0412872 0.0247915 0.100838 0.0398577 0.0213745 0.205953 0.111082 -0.0179354 0.0589646 0.197908 0.0242377 0.034337
1026 -0.0206842 0.0459462 -0.0082567 0.00758573 0.0176457 0.000266566 -0.0225712 0.0890254 -0.0413297 -0.0401296 -0.0404814 0.0453001 -0.0569637 -0.0233861 0.00737828 -0.0691685 -0.0116312 0.0119863 -0.0215163 -0.00827829 0.00605159 0.0448371 0.065791 -0.019697 -0.000866314 0.00727652 -0.110996 0.00135195 -0.0105377 0.0235758 -0.0300716 -0.00824887 0.110564 -0.081228 0.148827 0.0398186 -0.0242689 0.0198632 -0.065005 0.0492668 0.174671 0.0715938 0.0263492 0.351359 0.212432 -0.0537723 0.111954 0.353087 0.0595243 0.0551565
11291 -0.0117589 0.00954048 -0.0401894 0.00408099 0.0469654 0.00559062 -0.0573435 0.162889 -0.0568648 -0.0586629 -0.093792 0.0970368 -0.0459586 -0.0148997 0.0154349 -0.0677939 -0.0298351 0.0407396 -0.042064 -0.0201311 -0.0194902 0.0100424 0.104294 -0.0348569 -0.00685068 0.0304112 -0.217859 -0.00606733 -0.07219 0.0592857 -0.0885876 -0.0485099 0.219121 -0.171348 0.24436 0.0537816 -0.103235 0.0940506 -0.13657 0.112704 0.324105 0.136202 0.0479514 0.587775 0.344496 -0.0718839 0.20113 0.614032 0.083416 0.104886
11461 -0.0375341 0.0648114 0.00104366 0.0105886 0.0145335 0.00803216 0.0045654 0.0239691 -0.00999001 -0.0139379 -0.00219439 0.0348856 -0.0662991 -0.0266243 0.0315071 -0.0697847 0.0146243 0.00531779 0.021262 0.0118581 0.038421 0.0478673 0.0284212 0.0112419 0.010536 0.00667584 -0.0444288 -0.00534341 0.0259821 0.00735297 0.00771821 0.021929 0.0225452 -0.0345707 0.0687951 0.00973379 0.00469855 -0.0116114 -0.0264807 0.010646 0.087019 0.030811 0.0150881 0.190735 0.0896083 -0.0155417 0.0545536 0.180129 0.0176336 0.0216218
417 -0.0102081 -0.0227208 -0.0381291 -0.000557792 0.0411288 -0.00499354 -0.0387622 0.128856 -0.0363992 -0.0421075 -0.0753151 0.0753989 -0.0248813 0.00590651 0.00444962 -0.0438951 -0.0151167 0.0254159 -0.0358039 -0.021779 -0.0260703 -0.00112549 0.0902055 -0.0252884 0.00460222 0.0100676 -0.182186 -0.00266972 -0.072512 0.0613196 -0.070559 -0.0349249 0.196614 -0.141405 0.21479 0.0490952 -0.104157 0.11206 -0.124083 0.089025 0.297063 0.123667 0.0322564 0.495223 0.314904 -0.0576417 0.161517 0.521488 0.0685212 0.0898137
889 -0.0126438 0.00366377 -0.0220545 -0.00851161 0.0250605 0.00545315 -0.0253903 0.0574905 -0.0210354 -0.0229789 -0.0316086 0.0309057 -0.0345102 0.00308445 0.00828412 -0.04108 -0.0136841 0.0110752 -0.0223654 -0.0070291 -0.0165017 -0.00978229 0.0441366 -0.0112039 -0.000193099 0.00126953 -0.0906677 -0.00851635 -0.0217939 0.0299046 -0.0299087 -0.0261525 0.0866447 -0.0661923 0.0920724 0.0202949 -0.0358121 0.0545218 -0.0628584 0.0385405 0.138082 0.0595914 0.026696 0.230111 0.13698 -0.0333296 0.0776581 0.242901 0.0433321 0.0374654
8692 -0.0234471 0.0323314 -0.000933351 0.00486915 0.0244624 -0.00274569 -0.0100888 0.055322 -0.0119073 -0.0218013 -0.0268491 0.0395926 -0.0424765 -0.0196494 0.00859471 -0.0468247 0.00310947 0.00935555 0.00182776 0.00953068 0.00358612 0.039099 0.0372727 0.00341959 0.0103064 0.00522235 -0.0831171 -0.0130542 -0.00460079 0.0235423 -0.0183472 0.00357145 0.063652 -0.0580071 0.105587 0.021775 -0.0244408 0.0103838 -0.0361755 0.0323445 0.116254 0.0450671 0.0183867 0.247877 0.132329 -0.0224982 0.0850571 0.23549 0.0283986 0.0468068
2822 -0.0225852 -6.31427e-05 -0.0430592 -0.00145467 0.0449943 0.00736426 -0.0505749 0.173726 -0.0439286 -0.0497811 -0.0967436 0.0917312 -0.0466747 -0.0101573 -0.00757647 -0.0719438 -0.0206928 0.0307452 -0.0627573 -0.0081324 -0.0530521 -0.0144489 0.112662 -0.0360837 -0.00146934 0.0116603 -0.230632 -0.0174934 -0.100446 0.0716673 -0.106371 -0.0646421 0.236511 -0.175079 0.254273 0.0576743 -0.107089 0.11044 -0.147214 0.103255 0.332784 0.145491 0.0452816 0.60067 0.35414 -0.0826381 0.196264 0.607369 0.0897074 0.100612
5508 -0.0170957 0.0174821 -0.00773754 0.000345323 0.0177143 -0.00109865 -0.0137938 0.0781578 -0.023029 -0.0206826 -0.0294907 0.0532523 -0.0510965 -0.0171061 0.00429522 -0.0543736 -0.00829542 0.00671705 -0.0143474 -0.00969013 -0.0184232 0.0155516 0.0519907 -0.0181445 0.0122237 0.0202466 -0.119318 -0.00331437 -0.0171424 0.0261455 -0.0307386 -0.0110953 0.106492 -0.0797442 0.12655 0.0370915 -0.0393385 0.0407266 -0.0778225 0.0474195 0.179472 0.0688796 0.0265922 0.318973 0.180672 -0.0455077 0.104684 0.305877 0.046447 0.0484461
9738 -0.0131476 0.0302405 -3.7321e-05 -0.00519688 0.0112064 0.00430554 -0.00170104 0.0323881 -0.0120385 -0.00684678 -0.00928095 0.0247447 -0.0418375 -0.00966151 0.0199388 -0.0383647 0.0034143 0.011887 0.0106559 -0.0025331 0.0217999 0.0442031 0.0285083 0.00659498 0.0131085 0.00021523 -0.0726251 -0.000129059 0.0153362 0.0192653 -0.00413938 -0.00248248 0.0404616 -0.0450243 0.07834 0.0177241 -0.0161696 0.0182517 -0.0266226 0.0196606 0.104771 0.035587 0.0235563 0.217902 0.110547 -0.0179087 0.0630782 0.195061 0.0322114 0.0294562
136 -0.0198205 -0.0153436 -0.0370209 -0.0122611 0.0405168 0.000288975 -0.0386379 0.159826 -0.0438549 -0.0482491 -0.0919066 0.087466 -0.0416883 -0.00437028 0.00702552 -0.0506219 -0.0275049 0.0342919 -0.0449296 -0.0166746 -0.0325865 -0.00804604 0.104382 -0.0353031 0.000265022 0.0227188 -0.207183 -0.00767632 -0.0681765 0.0480568 -0.0850656 -0.0517619 0.204514 -0.15183 0.23113 0.0603403 -0.103332 0.110769 -0.14352 0.0962222 0.307391 0.118426 0.0498434 0.542625 0.320158 -0.0745906 0.183624 0.559532 0.0909165 0.0818104
4351 -0.014116 0.0125854 -0.026576 -0.00814196 0.0300977 0.00794932 -0.0202361 0.110297 -0.0360755 -0.0346723 -0.0515909 0.0556629 -0.0463699 -0.0198953 0.0113386 -0.0508062 -0.0172676 0.0291417 -0.0329248 0.000638333 -0.00315135 0.0113177 0.0754974 -0.0151383 0.00730078 0.0102359 -0.157704 -0.00309719 -0.0241988 0.0306502 -0.0413014 -0.0206715 0.134538 -0.113411 0.177967 0.0539552 -0.068756 0.0665099 -0.105206 0.0699249 0.227283 0.0997536 0.0434973 0.421528 0.246904 -0.0577477 0.150312 0.433163 0.0676504 0.0742347
11486 -0.0189419 0.0141174 -0.0151724 -0.0083452 0.0198587 -0.0044939 -0.0264231 0.10978 -0.0320191 -0.0445198 -0.0609149 0.0544269 -0.0351562 0.00198096 -0.00461704 -0.0590992 -0.010009 0.0224818 -0.0378502 -0.0107146 -0.0124221 0.0179437 0.0792567 -0.0230439 0.00419974 0.0208908 -0.160576 0.00181393 -0.0426553 0.0353544 -0.0497582 -0.0274301 0.160181 -0.114581 0.18371 0.0388088 -0.0674738 0.0659124 -0.104505 0.0702878 0.23696 0.105126 0.0308543 0.435507 0.260225 -0.0492368 0.15311 0.429682 0.0614149 0.0629633
1982 -0.0172102 -0.0227495 -0.0417413 -0.00360485 0.0441111 -0.00391718 -0.0725077 0.20936 -0.0646699 -0.0740335 -0.126861 0.102267 -0.0257015 -0.00333969 -0.00892749 -0.0483557 -0.0306685 0.0477911 -0.0560566 -0.0166613 -0.0559653 -0.015939 0.126727 -0.0457175 -0.0161168 0.0242047 -0.250639 -0.0113389 -0.110142 0.0780494 -0.118509 -0.0699697 0.255081 -0.195478 0.27566 0.0817835 -0.118873 0.120147 -0.158209 0.116935 0.382015 0.157598 0.0440173 0.643371 0.406199 -0.0791427 0.215722 0.671384 0.0977435 0.105748
13633 -0.0174862 0.00987493 -0.0367545 0.000391574 0.0500278 0.00595182 -0.0507347 0.179892 -0.0538916 -0.0539135 -0.108027 0.0946904 -0.0469466 0.00220359 -0.00634985 -0.0785022 -0.0197193 0.0419545 -0.0469474 -0.013467 -0.0253407 -0.00365968 0.105635 -0.0309444 0.00781873 0.02793 -0.230039 -0.00374666 -0.0823253 0.0577941 -0.0854163 -0.0625334 0.242923 -0.18397 0.270198 0.0645876 -0.10342 0.113102 -0.142917 0.117562 0.36293 0.147419 0.0485185 0.623029 0.369732 -0.0727312 0.209572 0.632566 0.104889 0.114858
11995 -0.00724469 0.0330972 -0.00830041 -0.000549603 0.0111998 0.00470772 0.00159389 0.015068 -0.00391103 -0.0133446 -0.00373817 0.0231147 -0.034948 -0.0114307 0.00597338 -0.028857 0.0134734 0.00837917 -0.00293612 0.00949959 0.0213369 0.0323926 0.0200162 -0.00442519 0.00564039 0.000362106 -0.0462308 -0.000821619 0.0148565 0.0130987 -0.00243769 -0.00186573 0.030206 -0.0277825 0.0499829 0.0147983 -0.0114867 -0.00358697 -0.0122881 0.0138572 0.0559305 0.023315 0.0160516 0.140145 0.0760861 -0.0150123 0.0368707 0.120894 0.01943 0.00903349
8730 -0.0301178 -0.0223262 -0.0684085 -0.00884486 0.0583443 0.0111253 -0.0983654 0.282978 -0.075098 -0.0933194 -0.154757 0.131772 -0.0431634 0.00235141 -0.00446601 -0.0944549 -0.036657 0.0681262 -0.0833233 -0.01695 -0.0537496 -0.0082968 0.166335 -0.0552754 0.00261317 0.0330643 -0.335268 -0.0190143 -0.153711 0.0969445 -0.159864 -0.102445 0.363455 -0.274075 0.372162 0.107707 -0.174863 0.165923 -0.222268 0.171474 0.512166 0.218214 0.0681024 0.879781 0.543432 -0.10543 0.312071 0.923446 0.136723 0.147422
12435 -0.0303738 0.0107363 -0.0378344 -0.00671306 0.0313315 0.00807282 -0.0342238 0.148015 -0.0530246 -0.0443936 -0.0834182 0.0862085 -0.0603695 -0.0144165 0.00466892 -0.0742646 -0.0252629 0.0329475 -0.0329916 -0.0111022 -0.00777624 0.0162213 0.0943115 -0.0261908 -0.00148584 0.0114306 -0.201424 -0.0182349 -0.0465605 0.062559 -0.0739493 -0.0275588 0.186701 -0.15571 0.232495 0.058762 -0.0901873 0.0913854 -0.137576 0.0919291 0.301371 0.134757 0.0417851 0.560872 0.329036 -0.0653983 0.193764 0.56252 0.0937128 0.0907177
779 -0.0207287 0.0246323 -0.022102 0.00594737 0.0200858 0.014386 -0.0292475 0.0909195 -0.0387618 -0.0365588 -0.0548999 0.0640283 -0.0472828 -0.00454317 0.0127729 -0.0653378 0.000296415 0.0191267 -0.0155482 -0.00928244 -0.0150821 0.0223137 0.0691391 -0.0154963 -0.00124689 0.0195145 -0.137505 -0.00335602 -0.0359088 0.0363802 -0.0519191 -0.0142121 0.142191 -0.107671 0.169385 0.0431066 -0.0552912 0.0505962 -0.0899282 0.0704482 0.221919 0.0902603 0.0268057 0.406357 0.232456 -0.0404016 0.127505 0.392275 0.0518076 0.0638085
11530 -0.0225107 0.00190127 -0.0173709 0.00365287 0.0260404 0.00908234 -0.0279718 0.114518 -0.0350332 -0.0337529 -0.0551124 0.0525047 -0.0480324 -0.0173996 0.0116622 -0.0614174 -0.00567347 0.025386 -0.0196759 -0.00302141 -0.00770144 0.021487 0.0704744 -0.011179 -0.00725838 0.015376 -0.142257 -0.00580664 -0.0349649 0.0490199 -0.0538218 -0.0306626 0.143159 -0.111829 0.169803 0.0511798 -0.06715 0.0590076 -0.0934409 0.071702 0.221928 0.0863343 0.0418605 0.400572 0.245887 -0.0491329 0.144799 0.413942 0.0646256 0.0741585
10407 -0.00566281 0.00912368 -0.0350221 -0.00676311 0.0333724 0.0100085 -0.0369793 0.142708 -0.0384627 -0.0409579 -0.0787023 0.0605513 -0.0344371 -0.0096514 0.00228699 -0.0494015 -0.0114895 0.0262944 -0.0487227 -0.0067836 -0.0269005 0.000573736 0.093686 -0.0394511 0.00624186 0.021933 -0.180822 -0.00373264 -0.0696145 0.0410941 -0.0763416 -0.0427562 0.183552 -0.13276 0.200008 0.0646489 -0.0914453 0.0974064 -0.123707 0.0874986 0.271749 0.107321 0.0322429 0.494076 0.288459 -0.0706831 0.162336 0.510431 0.0842945 0.0851723
11459 -0.0207332 0.0124644 -0.0103682 0.00220196 0.0121847 0.0093577 -0.0111377 0.0756741 -0.0211053 -0.0359379 -0.0412757 0.0345865 -0.0325322 0.00260995 0.0133286 -0.0391529 -0.0130407 0.0102935 -0.024731 -0.00346984 -0.00518986 0.0188 0.0446097 -0.0147855 -0.00558034 0.00444642 -0.0983187 -0.00551326 -0.0185219 0.0213897 -0.0287316 -0.0118083 0.10444 -0.0846538 0.126013 0.0207989 -0.0418215 0.0386357 -0.0672954 0.0391706 0.164614 0.0628355 0.0136506 0.279868 0.175558 -0.043135 0.103554 0.300554 0.0477166 0.0505607
3868 -0.0107627 -0.00886447 -0.0320438 -0.0145855 0.0542439 -0.00251561 -0.0522369 0.171836 -0.0555648 -0.0568351 -0.0955925 0.0947637 -0.025554 -0.000665944 0.00493127 -0.0553831 -0.0407694 0.0381578 -0.0509605 -0.0209307 -0.048048 -0.017083 0.105192 -0.0477242 0.000546236 0.0117777 -0.23811 -0.00119912 -0.0862912 0.0764072 -0.0965515 -0.0600599 0.253546 -0.183 0.271539 0.0639938 -0.135024 0.128712 -0.180221 0.116884 0.381812 0.146297 0.0428155 0.628278 0.389659 -0.0835499 0.227625 0.653055 0.106988 0.106181
1435 -0.0182346 0.00188205 -0.0295844 -0.00452164 0.0425321 0.0101323 -0.0371217 0.157452 -0.0519252 -0.045231 -0.0897972 0.0804548 -0.0460558 -0.0103152 -0.00477567 -0.0558446 -0.0179238 0.0229642 -0.0510875 -0.00594384 -0.0269535 0.00631728 0.104147 -0.0227538 0.00591715 0.0195881 -0.210232 -0.0128826 -0.0679288 0.0560409 -0.0973321 -0.0450642 0.203285 -0.155562 0.235985 0.0572929 -0.0945014 0.087954 -0.142251 0.107633 0.323516 0.138583 0.0459499 0.570203 0.334781 -0.0679685 0.178578 0.56776 0.0827636 0.098164
6753 -0.0162992 -0.0122507 -0.038528 -0.00642141 0.0352103 0.0117131 -0.0490938 0.162219 -0.0537106 -0.064039 -0.0804101 0.0900976 -0.0435385 -0.00771715 -0.00194704 -0.0668659 -0.0257386 0.0462507 -0.0495286 -0.0243692 -0.0410512 -0.00694914 0.105853 -0.0506328 0.00532034 0.00825118 -0.231055 -0.0111506 -0.0843082 0.0557169 -0.0940923 -0.0620085 0.232833 -0.173787 0.250766 0.055943 -0.102594 0.110017 -0.154669 0.101521 0.344512 0.144831 0.0424898 0.564145 0.331927 -0.0738142 0.18464 0.558385 0.0832398 0.0826085
10036 -0.0277188 0.0310332 -0.0202119 -0.00047716 0.0246326 0.0107612 -0.0281104 0.0862309 -0.0260172 -0.0366714 -0.042099 0.0446818 -0.0435571 -0.0195844 0.00883552 -0.0528461 -0.0153592 0.00828367 -0.0174481 0.00575661 0.00103285 0.0239438 0.0661797 -0.00579758 0.00726278 0.0201086 -0.128407 0.00290582 -0.0288073 0.0333894 -0.0321653 -0.0254491 0.119811 -0.0838241 0.153214 0.0295259 -0.0480472 0.0352824 -0.0868025 0.066601 0.192864 0.0831744 0.0292196 0.365359 0.210717 -0.0472786 0.127956 0.356106 0.0481908 0.0584167
11955 -0.0171423 0.0592708 -0.00389719 0.000940277 0.0222782 0.0136964 -0.00426139 0.059141 -0.0141237 -0.0130748 -0.0277151 0.0372455 -0.04921 -0.0253727 0.0124646 -0.0489937 -0.000236941 0.00641261 -0.00819186 0.00987814 0.0050428 0.0342099 0.0434021 -0.0010862 -0.00261588 0.00782154 -0.0949264 -0.00504236 0.00862874 0.0220583 -0.0135667 -0.0121958 0.0797857 -0.060618 0.12316 0.0217756 -0.0271285 0.0218157 -0.0589464 0.0381479 0.14355 0.0541422 0.0225938 0.287446 0.159017 -0.0331004 0.102959 0.277319 0.034512 0.0431657
11607 -0.0189714 0.00898387 -0.0387525 0.000585297 0.0431157 0.0115412 -0.041213 0.146457 -0.0456935 -0.057859 -0.0842851 0.0734952 -0.0402169 -0.00726263 0.0104216 -0.0564488 -0.0162045 0.0319034 -0.0580089 -0.00415567 -0.0430205 0.000821082 0.106867 -0.0323733 0.00678799 0.0180735 -0.210166 -0.00165424 -0.0648952 0.0672391 -0.090384 -0.039188 0.217573 -0.16263 0.226741 0.0608603 -0.097407 0.107303 -0.142687 0.112068 0.309156 0.13848 0.0401555 0.554326 0.329643 -0.0804788 0.188103 0.585042 0.0857691 0.0936785
13702 -0.0116318 0.018443 -0.00642723 -0.00685792 0.00165861 0.00656626 0.000772956 0.0365354 -0.00629112 -0.02097 -0.00290225 0.0283013 -0.0382573 -0.00897038 0.00547863 -0.0367902 0.00185766 -0.00146578 -0.0112258 -0.0059122 0.00806293 0.0223524 0.0289434 -0.00132148 0.0087123 0.00541454 -0.0777243 -0.00883165 0.00376076 0.0148222 -0.0226096 0.00477269 0.0528422 -0.0435476 0.0823908 0.0180847 -0.0230806 0.0185667 -0.0385354 0.0410667 0.108982 0.0373809 0.0255772 0.235528 0.115158 -0.0335538 0.0762315 0.203358 0.0241885 0.0360488
11581 -0.00481454 -0.0148129 -0.0262192 0.0016182 0.0319052 -0.00150714 -0.0488107 0.111552 -0.0330821 -0.0427666 -0.0632191 0.0608449 -0.00954527 0.000151861 -0.00637407 -0.0153917 -0.0191706 0.0261438 -0.0279087 -0.0116189 -0.0331322 -0.00802052 0.0615039 -0.0289997 -0.00234576 0.0170563 -0.137178 -0.00826717 -0.0677565 0.036914 -0.0673439 -0.0376649 0.143791 -0.103725 0.131074 0.042702 -0.0710689 0.0765373 -0.0977167 0.0603359 0.190081 0.0784238 0.0242068 0.328546 0.201792 -0.0380471 0.122459 0.351192 0.0501639 0.0484812
7451 -0.0106731 0.000455086 -0.0346586 -0.00496588 0.0283533 -0.00491523 -0.0328282 0.147483 -0.048087 -0.0469278 -0.0798171 0.0666918 -0.0527949 -0.0114524 0.013923 -0.0687906 -0.0109425 0.0395516 -0.0384631 -0.0180285 -0.0178112 0.00533956 0.0839436 -0.0370113 0.000386489 0.0221547 -0.202157 -0.00430865 -0.0632746 0.0485004 -0.0706586 -0.0363911 0.187323 -0.145863 0.217927 0.0505797 -0.0947186 0.0915322 -0.1306 0.093714 0.291814 0.121607 0.0360984 0.518823 0.306978 -0.0746541 0.164795 0.52158 0.0801163 0.0853391
464 -0.011986 0.0307574 -0.0131385 0.0106649 0.00951914 0.00543981 -0.0157628 0.0424639 -0.0253466 -0.027115 -0.0104366 0.0259125 -0.0466863 -0.00674534 0.00892349 -0.0496349 0.00193737 0.000651116 -0.0104328 -0.00690586 0.0237069 0.0536175 0.0332647 -0.0107158 0.00648978 0.00861034 -0.089462 0.000436373 0.0136969 0.0113474 -0.00778553 -0.00275354 0.0547914 -0.0470561 0.102449 0.0208234 -0.022324 0.0183658 -0.0434619 0.0388627 0.127375 0.0515452 0.014212 0.25678 0.13445 -0.0392178 0.0901245 0.241918 0.0461969 0.0314774
2662 -0.031334 0.0549258 -0.00735605 -0.00235786 0.00842953 0.00383626 0.0160537 0.022237 -0.00586192 -0.0160921 0.011985 0.0179482 -0.0722647 -0.0294132 0.0325748 -0.0661978 0.0115763 0.000447185 0.0186408 0.0101234 0.0230225 0.0499 0.0163675 -2.46001e-05 0.0104019 0.0059099 -0.0589349 -0.00494112 0.0312106 0.0167837 0.0122241 0.0069007 0.0264306 -0.0217557 0.074078 0.0139077 0.00561392 -0.00470041 -0.0100032 0.0132781 0.0799997 0.0296678 0.00563735 0.199079 0.0909264 -0.0148245 0.0572367 0.176295 0.0324924 0.0283224
7143 -0.0134412 -0.00519321 -0.0527729 -0.0162078 0.0450995 0.0111287 -0.0549734 0.189488 -0.0634694 -0.0582159 -0.125126 0.100539 -0.0360066 0.00858189 0.012589 -0.0848386 -0.0370464 0.0504373 -0.0629222 -0.0243984 -0.0363233 0.00474774 0.125841 -0.0518454 -0.00827669 0.0106397 -0.253971 -0.00755028 -0.0837946 0.0800018 -0.102003 -0.0565995 0.258076 -0.196739 0.268271 0.0725166 -0.107214 0.113175 -0.15865 0.124752 0.372054 0.164188 0.06392 0.666746 0.410132 -0.093305 0.219768 0.69387 0.0933276 0.109888
2190 -0.0336956 0.0167493 -0.0390001 -0.0128388 0.0317003 0.00107183 -0.0534175 0.168837 -0.0495875 -0.0641045 -0.0817596 0.0788172 -0.0553535 -0.0174207 0.0161727 -0.077903 -0.0119735 0.025219 -0.0338658 -0.00344366 -0.0244305 0.0195525 0.107066 -0.0392275 -0.00535336 0.0145139 -0.22514 -0.0115424 -0.0668277 0.0554558 -0.0941878 -0.0568515 0.234909 -0.161917 0.263099 0.0580944 -0.0861966 0.0985751 -0.156173 0.109578 0.337984 0.143288 0.0402514 0.631907 0.366977 -0.0760345 0.213192 0.646925 0.0972823 0.114054
7494 -0.00600981 0.0171466 -0.00322565 -0.00930072 0.0139761 0.00785525 -0.0193921 0.0604804 -0.0303462 -0.0221089 -0.0267251 0.0428507 -0.0269311 -0.010973 0.0134879 -0.0442976 -0.0150613 0.0215859 -0.0186767 -0.00587349 0.00197896 0.00955784 0.0427536 -0.00951316 -0.00198996 0.0183129 -0.0855182 -0.0112953 -0.0185725 0.0199269 -0.0352034 -0.00731141 0.0926492 -0.0737172 0.105017 0.0274547 -0.0348723 0.0441449 -0.0528838 0.0520825 0.136253 0.0641734 0.027431 0.257098 0.158442 -0.0293182 0.093951 0.248697 0.0429129 0.0415766
4890 -0.0107653 0.0128394 -0.0248843 -0.0081463 0.036794 -0.00328751 -0.0325095 0.11209 -0.0349785 -0.0336234 -0.0539762 0.0507324 -0.0406747 -0.0132793 0.0111727 -0.0584973 -0.00697826 0.0164048 -0.0393777 -0.00886115 -0.0148181 0.0211547 0.0609461 -0.0278385 -0.00251645 0.00809229 -0.139458 0.00197113 -0.0396043 0.0348665 -0.0477733 -0.0236884 0.13583 -0.112513 0.172559 0.0383975 -0.0490649 0.0685066 -0.0885527 0.0741184 0.210183 0.0801304 0.0393516 0.396048 0.239149 -0.0527929 0.13446 0.40151 0.0583269 0.058008
8038 -0.021213 -0.0421964 -0.0516583 -0.0150122 0.0651003 -0.00463936 -0.0952273 0.285231 -0.0819173 -0.0912678 -0.160896 0.139025 -0.0520034 -0.00614786 -0.00263349 -0.0733751 -0.0522423 0.0648607 -0.0946439 -0.017574 -0.0697635 -0.0175769 0.154932 -0.0646532 -0.0155328 0.0210857 -0.340948 -0.00670856 -0.143958 0.100456 -0.163019 -0.0846738 0.354029 -0.277231 0.380546 0.106326 -0.160678 0.170882 -0.242763 0.176278 0.518033 0.223457 0.067109 0.892287 0.539713 -0.113014 0.30862 0.919864 0.145155 0.141241
715 -0.0288887 -0.0622052 -0.0804319 -0.0182167 0.0766568 -0.0104718 -0.110787 0.358959 -0.0924338 -0.130323 -0.201075 0.177855 -0.0376668 -0.00160365 -0.0105561 -0.0996815 -0.0564714 0.0838386 -0.116156 -0.0378316 -0.101828 -0.035875 0.20771 -0.0850694 -0.00432111 0.0310524 -0.440739 -0.0268211 -0.196512 0.135511 -0.221827 -0.134645 0.475618 -0.35503 0.472925 0.125862 -0.238478 0.249883 -0.305519 0.227865 0.677639 0.278978 0.0996156 1.12447 0.678175 -0.132622 0.376682 1.14109 0.175731 0.179436
9461 0.011389 -0.0628887 -0.0225404 -0.0160724 0.0109714 -0.0147074 -0.0428207 0.0887379 -0.0224215 -0.018736 -0.0686786 0.0326432 0.0462161 0.025983 -0.0164557 0.0330223 -0.024621 0.0352736 -0.04672 -0.0250092 -0.0581924 -0.0679612 0.0333446 -0.0247485 -0.00589884 0.00540149 -0.0885743 0.00332413 -0.0824328 0.0349929 -0.0687918 -0.0610043 0.111873 -0.0808096 0.0847118 0.03012 -0.0721429 0.0885882 -0.066907 0.0459933 0.124681 0.0576301 0.0219854 0.142356 0.104676 -0.0090668 0.0577046 0.178497 0.0223431 0.0290982
8818 0.0363754 -0.10149 -0.0325355 -0.00678424 0.0191538 -0.0249363 -0.062134 0.0926737 -0.019965 -0.0284658 -0.0921908 0.017138 0.0737653 0.0386607 -0.0295025 0.0601103 -0.0380082 0.0327266 -0.068609 -0.0201266 -0.0757161 -0.0866487 0.033435 -0.0297469 -0.00774525 0.0034551 -0.0849787 -0.0118218 -0.100122 0.0224816 -0.0905899 -0.057003 0.119802 -0.0838883 0.0711123 0.0152416 -0.085323 0.0942584 -0.0779915 0.0566866 0.121541 0.0399221 0.0212926 0.127903 0.123496 -0.0108325 0.0689397 0.174662 0.0377837 0.0263428
58 -0.0312479 0.0494234 -0.00634554 -0.00281646 0.00940364 -0.00130799 -0.00849144 0.050391 -0.0311417 -0.0155655 -0.0211796 0.0282498 -0.0601551 -0.0236117 0.0157268 -0.0611131 0.00201573 0.0158971 -0.0104866 0.000298227 0.0135869 0.0361503 0.0319642 0.0021312 0.008551 0.0121986 -0.0778354 -0.00757027 -0.0037176 0.0184172 -0.013088 -0.00510726 0.0669189 -0.0668981 0.109263 0.0305049 -0.0187374 0.0136001 -0.0565507 0.0437075 0.124693 0.0637235 0.0168088 0.262751 0.138939 -0.0334049 0.0961132 0.268957 0.0355901 0.0370615
2260 -0.0207419 -0.0624661 -0.0586925 -0.013965 0.0826749 0.00261564 -0.0961837 0.300064 -0.0879143 -0.113292 -0.186198 0.154204 -0.0427659 0.00504187 -0.014329 -0.0928255 -0.0492012 0.0662413 -0.101786 -0.0372283 -0.087382 -0.0326925 0.187664 -0.0821443 -0.008464 0.0302414 -0.379685 -0.0138741 -0.168444 0.115521 -0.172337 -0.103237 0.397717 -0.306331 0.424414 0.103233 -0.197929 0.218905 -0.275463 0.188714 0.594524 0.243087 0.0769285 0.984541 0.60818 -0.116777 0.349459 1.0233 0.159074 0.162009
11433 -0.0265158 0.0205584 -0.0118717 0.0045962 0.0197862 0.0074126 -0.0157065 0.0833607 -0.0179896 -0.0209243 -0.0398661 0.0444332 -0.0524951 -0.0084814 0.00685264 -0.0435902 -0.0148945 0.015146 -0.00520249 0.00398878 0.00324421 0.0387582 0.0401656 -0.0153636 0.0086233 0.0153611 -0.120468 -0.0048687 -0.0138309 0.0289759 -0.0294272 -0.00385775 0.0975311 -0.0793149 0.128836 0.0332542 -0.0375223 0.0380667 -0.0609126 0.0446503 0.164745 0.0610955 0.0264375 0.333534 0.189506 -0.0324775 0.119412 0.333198 0.050477 0.0604373
3030 0.0332618 -0.139133 -0.0422333 -0.0280184 0.0227587 -0.0201268 -0.0709866 0.12985 -0.00939428 -0.0440278 -0.126738 0.0383504 0.106568 0.0475974 -0.0439374 0.0885058 -0.0562067 0.0551444 -0.0867507 -0.0260075 -0.111954 -0.144737 0.0545612 -0.0562956 -0.0358582 -0.0132881 -0.111435 -0.00924293 -0.16889 0.036422 -0.137225 -0.110008 0.193842 -0.124316 0.094875 0.0302073 -0.120867 0.144027 -0.103547 0.0735113 0.17064 0.074096 0.00613412 0.150092 0.132302 -0.0137433 0.0659943 0.215357 0.042709 0.0429823
13924 -0.0240377 0.0311949 -0.0136325 0.00799403 0.0201484 0.00957441 -0.0317333 0.106481 -0.0303533 -0.0433743 -0.0674665 0.0674022 -0.051336 -0.00678234 0.00999192 -0.0642354 -0.0179884 0.0326491 -0.0252542 -0.00932896 -0.00168345 0.0227267 0.080832 -0.0155649 0.0032164 0.0119577 -0.166264 -0.00581968 -0.0398189 0.0334097 -0.0621464 -0.0282065 0.156296 -0.123021 0.19092 0.0409234 -0.0550344 0.0554699 -0.108047 0.0820854 0.245696 0.0914002 0.0391419 0.451913 0.259628 -0.0665478 0.148801 0.46509 0.0654348 0.0758675
5740 -0.0172387 -0.0187325 -0.0706575 -0.00742179 0.0704594 -0.00277949 -0.0914217 0.284912 -0.0887351 -0.0896682 -0.161315 0.137873 -0.0461737 -0.00512556 0.00116488 -0.0933344 -0.0564558 0.0664993 -0.103324 -0.0197014 -0.0731452 -0.00239544 0.167837 -0.0681237 -0.0144242 0.0402661 -0.36783 -0.0172383 -0.151948 0.110114 -0.169165 -0.094728 0.374218 -0.285892 0.386848 0.105295 -0.1732 0.194364 -0.238087 0.187208 0.536161 0.229806 0.0854457 0.929715 0.566256 -0.105687 0.317608 0.958502 0.13612 0.145192
1537 -0.0205723 0.0128678 -0.0341075 -0.0054381 0.041393 0.00908734 -0.0381864 0.134701 -0.0488768 -0.0449525 -0.0605624 0.0696008 -0.0514977 -0.00283451 0.00116927 -0.0584471 -0.0125546 0.0227285 -0.042243 -0.000871867 -0.0102477 0.0186123 0.0786687 -0.0270817 0.00436599 0.0146443 -0.181606 -0.0139444 -0.0422155 0.0506402 -0.058749 -0.0358804 0.180695 -0.139094 0.198129 0.0550313 -0.086579 0.093359 -0.121389 0.0994668 0.287852 0.10622 0.047342 0.497927 0.290998 -0.0695004 0.166504 0.518358 0.074012 0.0910659
1967 -0.0212565 0.0200356 -0.0360922 0.00466574 0.0398564 0.00685837 -0.0439897 0.162899 -0.0392446 -0.0479415 -0.0885538 0.089041 -0.0645784 -0.00499902 0.0130832 -0.0648988 -0.0212103 0.0357264 -0.0349942 -0.0173747 -0.0291316 0.00243081 0.107412 -0.0259378 -0.00118818 0.018961 -0.215885 -0.00635487 -0.078492 0.0661433 -0.0843208 -0.0470168 0.221698 -0.171266 0.244447 0.0561178 -0.0911799 0.0786495 -0.142339 0.0896945 0.311313 0.12416 0.0521571 0.561619 0.33484 -0.0679517 0.193546 0.560832 0.0964868 0.102106
13965 -0.0162273 0.0173794 -0.0131778 0.00290861 0.0227837 0.0114714 -0.00781794 0.0827977 -0.0211178 -0.0309134 -0.0333455 0.0483991 -0.0426412 -0.00170567 0.0164786 -0.044932 -0.00272019 0.0233706 -0.0183311 -0.00760326 -0.00204737 0.016405 0.0484673 -0.0100198 0.00699003 0.018245 -0.123664 0.00184084 -0.0271869 0.0376448 -0.040517 -0.0229906 0.11975 -0.0816983 0.147009 0.0318247 -0.0496691 0.0599274 -0.0851101 0.0721139 0.196535 0.0858666 0.0311829 0.373704 0.205689 -0.0514402 0.110948 0.355973 0.0513385 0.0529655
1023 -0.0265794 0.0447785 -0.00954383 -0.00104733 0.0176319 0.000896618 0.00318585 0.0533965 -0.0148495 -0.00735072 -0.0133183 0.0346598 -0.0470482 -0.0210381 0.0165453 -0.0499872 -0.00425313 0.00704333 -0.00303065 0.00957587 0.020485 0.0267858 0.0443551 -0.00562395 -0.00190071 0.00935055 -0.0813867 -0.0124876 -0.00648568 0.0211102 -0.00989378 -0.00884311 0.0704884 -0.0600407 0.102947 0.0302144 -0.00746842 0.0151394 -0.0457669 0.0231158 0.117637 0.0513544 0.0249185 0.242969 0.127406 -0.0360041 0.0877236 0.229038 0.0423893 0.0406926
4920 -0.0083271 -0.0183248 -0.0538495 -0.0074985 0.0567532 0.0042986 -0.0683878 0.207394 -0.0530224 -0.0712065 -0.112579 0.0988176 -0.0299247 0.00988769 -0.00967014 -0.0650122 -0.0380582 0.0573446 -0.0767995 -0.0158944 -0.0545431 -0.00244205 0.13081 -0.0541616 -0.0098196 0.0266479 -0.254691 -0.00266614 -0.0960216 0.0727958 -0.122606 -0.066079 0.275551 -0.201215 0.287195 0.077098 -0.123064 0.13957 -0.185058 0.140621 0.389838 0.155655 0.0563366 0.691451 0.427666 -0.0798385 0.235522 0.71728 0.103449 0.112382
1481 0.0244488 -0.108593 -0.0187936 -0.00755479 0.0100959 -0.0156684 -0.062938 0.0964885 -0.00620082 -0.0374037 -0.0821219 0.0268947 0.0900898 0.0307826 -0.049887 0.0587797 -0.0372046 0.0317256 -0.0690566 -0.018397 -0.0682363 -0.0915087 0.0478926 -0.0482471 -0.0267867 -0.0029541 -0.0787938 0.00255082 -0.104327 0.0277234 -0.10502 -0.0631471 0.123495 -0.0863652 0.0677891 0.0145238 -0.0891181 0.0917972 -0.0756148 0.0407563 0.10725 0.0526992 0.0170435 0.0927718 0.102177 -0.0118395 0.0609529 0.165769 0.0318759 0.0169458
11603 -0.0190799 0.0151928 -0.0258671 -0.00333246 0.0237194 -0.0020167 -0.038774 0.111308 -0.0463911 -0.0463279 -0.0637581 0.0561553 -0.0487019 -0.015915 0.00808642 -0.0552141 -0.0100279 0.0205357 -0.0242085 -0.0115187 -0.0100027 0.0077159 0.0660197 -0.0287209 -0.00549231 0.021893 -0.152303 0.00121807 -0.047824 0.0513295 -0.054942 -0.0291694 0.147771 -0.11608 0.170782 0.0381629 -0.0580147 0.0779252 -0.108422 0.07509 0.245635 0.103768 0.0426868 0.426588 0.246366 -0.048873 0.138091 0.433972 0.0633048 0.0776786
562 -0.016229 0.0343369 -0.0284609 0.00794222 0.0395727 0.00280827 -0.0278659 0.10648 -0.047511 -0.0398571 -0.0432453 0.0664032 -0.0508774 -0.0141995 0.00815236 -0.059582 -0.0137261 0.0290647 -0.0241838 -0.013119 -0.0121118 0.0363278 0.0764062 -0.0209213 0.0071739 0.0127827 -0.155687 -0.00268054 -0.0269111 0.0409131 -0.0412052 -0.0301514 0.157005 -0.117496 0.196592 0.0417464 -0.0568441 0.0674007 -0.097114 0.0844472 0.254659 0.0940013 0.036329 0.463714 0.263986 -0.0554296 0.153048 0.467681 0.0677973 0.0808554
2833 -0.0186137 0.0449614 -0.0243191 -0.00273288 0.0376463 0.00213585 -0.0190418 0.109026 -0.0416923 -0.0381139 -0.0501831 0.0696868 -0.0664473 -0.00991956 0.0229692 -0.0701433 -0.0134451 0.0170831 -0.0196748 -0.0110317 -0.00394927 0.0238141 0.0731404 -0.0193291 0.00664243 0.00703022 -0.154476 -0.00742479 -0.0359457 0.0393416 -0.052315 -0.029056 0.138717 -0.111355 0.190263 0.0414752 -0.0543795 0.055627 -0.0961398 0.0700564 0.249329 0.104104 0.0308021 0.455166 0.264304 -0.049941 0.145896 0.444743 0.0729248 0.0789154
2892 0.0269923 -0.0733446 -0.0223773 -0.00669805 0.022822 -0.0033083 -0.0432425 0.080832 -0.0191729 -0.0227039 -0.0715713 0.0295163 0.0589759 0.0259414 -0.0333608 0.0443412 -0.0316177 0.0210882 -0.0588576 -0.0202042 -0.0666308 -0.062033 0.0461398 -0.0387876 -0.0192902 -0.0051501 -0.0975557 -0.0100945 -0.098471 0.0249693 -0.0784518 -0.0586582 0.118499 -0.0790234 0.0851685 0.0260782 -0.0728187 0.0932965 -0.0816965 0.0505652 0.134967 0.0423312 0.0083359 0.175699 0.116556 -0.0138454 0.0604154 0.179846 0.0387705 0.0302509
3261 -0.0142371 0.0259019 -0.0126405 0.00472811 0.0147526 0.0126947 0.000322137 0.0566602 -0.0179456 -0.0260227 -0.0225985 0.0253401 -0.0522132 -0.0224688 0.0225365 -0.0512424 -0.00980398 0.0143858 0.00506084 -0.00147597 0.00898055 0.0267531 0.0281401 -0.00890262 0.00119617 0.0141167 -0.0708299 -0.00723859 -0.00528891 0.0284778 -0.00373236 -0.00814688 0.0753103 -0.0567765 0.103222 0.0142717 -0.00943969 0.0172602 -0.0517219 0.0277263 0.106526 0.05467 0.0159558 0.235955 0.134914 -0.0218315 0.0675126 0.213054 0.0251651 0.0315018
9221 -0.0177263 -0.00259083 -0.0392007 -0.0103873 0.040967 0.00361857 -0.0411215 0.145976 -0.0447889 -0.0445168 -0.0788428 0.0724575 -0.0365232 -0.00856338 -0.00586578 -0.0468262 -0.0213823 0.0330801 -0.0452415 -0.0199673 -0.0190406 -0.00479409 0.0874713 -0.03949 -0.0128995 0.0120767 -0.192252 0.000857577 -0.0704394 0.0615375 -0.0906004 -0.0439203 0.204959 -0.151257 0.204817 0.0665637 -0.0845865 0.0888643 -0.116914 0.0981371 0.282564 0.115506 0.0511449 0.498358 0.302041 -0.0693783 0.168303 0.523725 0.0886733 0.0927511
7756 -0.0111537 -0.00266916 -0.0274595 0.0028884 0.0388045 -0.000792688 -0.0461735 0.130227 -0.0454055 -0.0345455 -0.0636341 0.0706038 -0.0212481 -0.0046151 0.00931873 -0.0442046 -0.012946 0.0335762 -0.0490746 -0.00752213 -0.0353868 -0.00523313 0.0860282 -0.0321797 0.00470866 0.0162699 -0.178444 -0.0179204 -0.0723382 0.0546464 -0.0728302 -0.0489572 0.180974 -0.142912 0.181167 0.0414898 -0.0848054 0.0805702 -0.117468 0.0754891 0.261241 0.111431 0.0434582 0.445482 0.256772 -0.0496785 0.149767 0.443686 0.0723028 0.0811397
9732 -0.0129704 0.0300274 -0.0152481 -0.00315789 0.0175527 0.00670647 -0.0174821 0.0529105 -0.0240153 -0.0135131 -0.0177876 0.0280136 -0.0486776 -0.00535024 0.0180477 -0.037955 0.00313519 0.00658003 -0.00649174 -0.0106719 0.00750213 0.0274275 0.0458437 -0.00820191 0.0102858 0.0115959 -0.0889054 -0.0018016 -0.0140915 0.0211442 -0.0200699 0.00145198 0.0650077 -0.0613704 0.105698 0.0263092 -0.021029 0.0194246 -0.0417362 0.0381432 0.133713 0.0539818 0.0163699 0.264331 0.139982 -0.0416646 0.0894713 0.243691 0.0465521 0.0428697
2998 -0.00890634 0.00276116 -0.0304862 -0.0108269 0.0450748 0.010596 -0.0515005 0.148143 -0.0544334 -0.0569189 -0.0889228 0.073341 -0.0407349 -0.0129329 -0.00377491 -0.0577986 -0.020214 0.0254501 -0.047802 -0.0118437 -0.01648 0.00922942 0.0784452 -0.033851 -0.00848316 0.0225307 -0.189439 -0.00614508 -0.0713312 0.0565505 -0.0848368 -0.0507707 0.188528 -0.148275 0.211969 0.0492719 -0.0871581 0.0961199 -0.124455 0.0950488 0.287362 0.115587 0.0523229 0.539066 0.317493 -0.0644705 0.178956 0.550747 0.0901621 0.0960843
6322 -0.0093364 0.0335779 -0.0126394 0.000580555 0.017868 0.0107755 -0.0162696 0.0566887 -0.0305143 -0.0193434 -0.0226037 0.0412353 -0.0370362 -0.00708934 0.0180083 -0.046115 -0.00988883 0.00994978 -0.00701854 0.00613955 0.00710956 0.041229 0.0342312 0.00119169 0.00728765 0.0172014 -0.0743665 0.0032587 0.0108375 0.00996709 -0.0173201 -0.00350113 0.0621995 -0.0425596 0.0892733 0.0301453 -0.0176774 0.026254 -0.0527754 0.0283697 0.122564 0.0513525 0.0173383 0.254516 0.126345 -0.0225489 0.0786099 0.244587 0.034095 0.0387432
7027 0.0218031 -0.0648469 -0.0190266 0.000777378 0.00144727 -0.0119215 -0.0248253 0.0691136 -0.00181601 -0.030763 -0.0613271 0.0224158 0.0458442 0.00854003 -0.0161985 0.0238622 -0.0310231 0.0255009 -0.0417239 -0.0105248 -0.0334203 -0.0527012 0.0196051 -0.0285481 -0.0166158 0.00638478 -0.0610999 -0.00862593 -0.0759079 0.0175932 -0.0520127 -0.0375339 0.0807668 -0.0633739 0.0648328 0.0246675 -0.0610549 0.0626488 -0.051312 0.0310041 0.0963317 0.0420044 0.00416735 0.119885 0.0912047 -0.0176946 0.0452568 0.141849 0.0155835 0.0193209
12097 0.0269613 -0.116078 -0.0283408 -0.0120013 0.0171413 -0.0132662 -0.0643046 0.128079 -0.0134684 -0.0374158 -0.0977717 0.022887 0.0973788 0.0486235 -0.041656 0.0575709 -0.0350152 0.031012 -0.0695683 -0.0203558 -0.0780935 -0.104181 0.0476688 -0.0485404 -0.0114442 0.00161489 -0.0931374 0.00376338 -0.122388 0.0367913 -0.109257 -0.0742488 0.13531 -0.103821 0.0837262 0.0251811 -0.0996587 0.115807 -0.09445 0.0523154 0.145065 0.0600655 0.0103193 0.154592 0.130329 -0.00961019 0.0640885 0.214826 0.0293892 0.0356284
3152 -0.0181136 0.0405403 -0.00598062 0.00519199 0.0223374 0.0121499 -0.000776631 0.0477557 -0.0242515 -0.0195734 -0.0133036 0.0316108 -0.0471223 -0.0183372 0.0144681 -0.0472719 -0.00108925 0.00214259 -0.00560846 -0.0089448 0.013541 0.0354659 0.0289535 -0.0029872 0.00526295 0.01203 -0.0749784 -0.0106376 -0.000948265 0.0241283 -0.0164825 -0.00845483 0.0749257 -0.0588024 0.096618 0.0188102 -0.025748 0.0105642 -0.0382354 0.0420569 0.113588 0.0444269 0.0197048 0.251897 0.136985 -0.0358161 0.0747948 0.233793 0.0338466 0.0367333
6932 -0.0249384 0.0126433 -0.0271509 -0.00435995 0.0251161 -5.52954e-05 -0.0354298 0.128813 -0.0476479 -0.0417296 -0.0677204 0.0741971 -0.0422164 -0.0185212 0.0141945 -0.0575194 -0.0224295 0.0273563 -0.0305838 -0.00953256 -0.0134554 0.0087571 0.071748 -0.0225694 -0.00160442 0.0219255 -0.175142 0.00229485 -0.0442057 0.0554851 -0.0689821 -0.0289426 0.153925 -0.116454 0.198684 0.0402375 -0.0644367 0.0752644 -0.111227 0.0739583 0.242162 0.108125 0.0275645 0.453563 0.26443 -0.0559856 0.156324 0.456593 0.0596906 0.0714774
9428 -0.0272148 0.0284931 -0.0178859 -0.00642149 0.0187263 0.00968861 -0.0119577 0.0719086 -0.0165249 -0.0182088 -0.0272259 0.0480904 -0.036671 -0.00533094 0.0174251 -0.0379832 -0.00892008 0.0204099 -0.0130975 0.000440186 0.00977921 0.0283623 0.0465961 -0.0179052 -0.00601532 0.00845486 -0.102191 -0.0119656 -0.0156 0.0328066 -0.0208725 -0.0177912 0.0893132 -0.0698013 0.109768 0.0288653 -0.0395261 0.0223764 -0.0506478 0.052957 0.135103 0.0668366 0.0122404 0.29089 0.162752 -0.0285606 0.0994233 0.269784 0.0481398 0.0488285
3986 -0.0205237 0.0417741 -0.00212361 0.000787395 0.0183284 0.0103357 -0.000340928 0.0479977 -0.0293023 -0.0216849 -0.0218756 0.0268458 -0.0499867 -0.00861343 0.0112773 -0.0561858 -0.00689879 0.00600283 -0.0104262 0.00170739 0.0216856 0.0385428 0.0239111 -0.0118932 0.0103401 0.00278333 -0.0646442 -0.00837955 -0.00051671 0.0171783 -0.00226242 -0.00624323 0.0645446 -0.038214 0.0884812 0.0302044 -0.00377639 0.00463242 -0.0334474 0.0249932 0.102469 0.0507723 0.0141741 0.219269 0.114931 -0.024543 0.0808336 0.225069 0.0424462 0.0415904
7882 -0.0334387 0.0196193 -0.0339959 -0.00975515 0.0348112 0.00243295 -0.0437081 0.141548 -0.0578194 -0.0557514 -0.0795998 0.0716713 -0.0562645 -0.0172881 0.00163662 -0.0750704 -0.022236 0.0386639 -0.0463002 0.000407378 -0.0243398 0.0187977 0.105755 -0.0406086 0.00128837 0.0174595 -0.21007 -0.0137693 -0.0569137 0.062869 -0.0675855 -0.0316962 0.19592 -0.154639 0.223562 0.0636562 -0.0901875 0.0870629 -0.135845 0.0957991 0.30505 0.125304 0.0425486 0.547967 0.31888 -0.0642919 0.195291 0.558615 0.0807048 0.0948757
12911 -0.0232196 0.0245396 -0.0116182 0.00445923 0.0143655 -0.00244749 0.00174268 0.030995 -0.0145976 -0.000864542 -0.00770442 0.0188692 -0.0322697 -0.0108399 0.0166118 -0.0286816 0.00817314 0.00497775 -0.00668157 0.0102093 0.00115972 0.0141865 0.0250122 -0.0118003 0.00517211 0.0097631 -0.0547675 -0.0100165 -0.00678604 0.0163347 -0.01813 -0.00838623 0.0457612 -0.0281313 0.081319 0.02402 -0.0120824 0.0133496 -0.0269429 0.0165054 0.0944383 0.0300501 0.0221155 0.187252 0.0906644 -0.0133758 0.0457829 0.169563 0.0342376 0.0278022
3895 -0.0156747 -0.0176493 -0.052941 -0.0151601 0.0671606 0.00293139 -0.0842003 0.275205 -0.072004 -0.0932106 -0.153457 0.127943 -0.0525854 -0.00143223 0.00292222 -0.0780405 -0.0538815 0.0563918 -0.0956916 -0.0213291 -0.0721731 -0.0252161 0.175143 -0.0578092 -0.0110575 0.0354388 -0.358392 -0.0101087 -0.137306 0.10604 -0.153464 -0.0897798 0.346736 -0.269195 0.386612 0.108907 -0.17459 0.166063 -0.219811 0.156086 0.513477 0.218016 0.0736371 0.867062 0.526087 -0.103112 0.300786 0.909882 0.127044 0.140262
13271 -0.0124262 0.0329706 -0.00269247 0.00892497 0.0239417 0.00519319 -0.00695343 0.0473283 -0.0267849 -0.0130525 -0.0284287 0.0419191 -0.0438964 -0.0111859 0.0200877 -0.054928 0.00160687 0.00883793 -0.00428538 -0.00575172 0.0101803 0.0400044 0.0345489 -0.0114347 0.0141426 0.00637618 -0.071967 -0.01294 0.00678898 0.0148573 -0.00758826 -0.00132207 0.0691889 -0.0473681 0.0956726 0.0279178 -0.022419 0.00567172 -0.0412438 0.0259561 0.112605 0.0544762 0.0156255 0.248561 0.135376 -0.0348515 0.0825963 0.240642 0.0364014 0.0437563
2928 -0.0112003 -0.0328289 -0.0637669 -0.0166041 0.0526016 -0.00573733 -0.0906474 0.254437 -0.0681136 -0.0832517 -0.136201 0.125596 -0.0448117 3.18919e-05 -0.00287236 -0.080015 -0.0390381 0.0511066 -0.0865485 -0.0160826 -0.060679 -0.0170901 0.157654 -0.0454513 -0.0142553 0.0183107 -0.305389 -0.0129001 -0.12979 0.0813427 -0.135642 -0.0840629 0.321298 -0.24308 0.353258 0.0890947 -0.15291 0.154662 -0.208653 0.160635 0.473202 0.197348 0.072744 0.811875 0.509396 -0.101177 0.288543 0.840646 0.129594 0.148185
13267 -0.0227333 0.0392268 -0.0209158 0.000913979 0.0272085 0.00125787 -0.0230748 0.0706689 -0.0329558 -0.0222497 -0.0213253 0.0381107 -0.0588366 -0.00917501 0.016446 -0.0523408 -0.00684639 0.0172447 -0.00533482 -0.000677445 -0.000899126 0.0272121 0.0507269 -0.0149454 0.0114961 0.0114855 -0.109286 0.00462814 -0.0014914 0.0205664 -0.0142782 -0.00714262 0.0780207 -0.078628 0.122577 0.0370403 -0.0291633 0.0180063 -0.0524919 0.0438291 0.165706 0.0696676 0.0342731 0.309772 0.183426 -0.0488162 0.0975623 0.311709 0.0554054 0.0437701
10929 -0.0250844 -0.0274323 -0.0426335 -0.000227168 0.0473662 0.00596506 -0.0562235 0.18415 -0.0680566 -0.0639845 -0.11342 0.0992353 -0.044651 -0.00434495 0.00927798 -0.0640769 -0.0307558 0.0488626 -0.0485133 -0.0107486 -0.0481411 -0.00112777 0.127919 -0.0445601 -0.0133284 0.015293 -0.257527 -0.0144428 -0.0938058 0.0677798 -0.103622 -0.0582442 0.25245 -0.197335 0.269233 0.067585 -0.129028 0.129141 -0.173869 0.127912 0.374267 0.160777 0.0439711 0.653285 0.410693 -0.0735192 0.235579 0.684376 0.10753 0.104391
10256 -0.0327821 0.0201074 -0.0264764 -0.00549193 0.0367065 0.00532781 -0.0145682 0.107327 -0.0452721 -0.0329435 -0.0442295 0.0651557 -0.0614298 -0.00426305 0.00901421 -0.061587 -0.0049543 0.0228631 -0.0231437 -0.00256027 -0.00394188 0.0231584 0.0833435 -0.0141102 0.00823028 0.0127366 -0.161171 0.00289652 -0.03497 0.050452 -0.0487825 -0.0226105 0.149815 -0.114545 0.183931 0.0370595 -0.0625102 0.0667851 -0.102991 0.0702988 0.236493 0.103722 0.032989 0.432973 0.253951 -0.0605174 0.149222 0.430879 0.073458 0.0807986
4383 -0.00288201 -0.00507714 -0.0187051 0.00965408 0.0166937 0.00796374 -0.0173202 0.0594935 -0.0174232 -0.0169137 -0.0136953 0.0286971 -0.0288338 -0.00695063 0.00280373 -0.0363873 -0.00877283 0.0166975 -0.0110473 -0.00496881 0.00561597 0.0211325 0.0279522 -0.00902217 0.00690135 0.00396758 -0.0795342 -0.00750497 -0.0266272 0.0221168 -0.0245796 -0.0169314 0.0811678 -0.0663834 0.0942583 0.0230733 -0.0372918 0.0492821 -0.0489484 0.0413477 0.126919 0.0575348 0.0210135 0.223831 0.127518 -0.026203 0.0693671 0.22598 0.0344373 0.0407463
12239 -0.00706283 -0.0257487 -0.0407741 -0.00372993 0.0482372 0.0139925 -0.0591616 0.202975 -0.0582629 -0.0673318 -0.0936505 0.108338 -0.0585276 0.00360274 -0.00519305 -0.0789895 -0.0261963 0.0337021 -0.0636595 -0.024757 -0.0361778 0.00562105 0.119909 -0.0375213 -0.00503161 0.0296046 -0.242754 -0.00656056 -0.0943487 0.0728659 -0.0951574 -0.0582609 0.25657 -0.195854 0.277638 0.0688677 -0.117586 0.136387 -0.179004 0.131822 0.401742 0.157575 0.0641198 0.679449 0.425718 -0.0794766 0.227795 0.707485 0.114875 0.121001
11528 -0.0290132 0.0190194 -0.0256727 -0.00301534 0.0312416 0.00962127 -0.0368841 0.112025 -0.0426655 -0.0437994 -0.0608229 0.0580061 -0.0442727 -0.00694231 0.017809 -0.067477 -0.0200484 0.0194389 -0.0372446 -0.00487899 -0.0152404 0.014094 0.0675773 -0.0324628 0.00356439 0.0142072 -0.170166 -0.016451 -0.0387753 0.0339723 -0.0507664 -0.0291495 0.143822 -0.109599 0.185912 0.0532476 -0.0624727 0.0555871 -0.0931856 0.0816727 0.235756 0.097789 0.0441585 0.464092 0.2699 -0.0541232 0.15849 0.464892 0.0694104 0.0735987
10831 -0.0190409 0.0125686 -0.0189978 0.00375831 0.0220245 0.00648298 -0.0220889 0.0647081 -0.0321619 -0.0213498 -0.0386475 0.0341507 -0.035086 -0.00588173 0.0170888 -0.0449995 -0.0157498 0.0104526 -0.0188039 0.00376191 0.00313893 0.0291487 0.0502915 -0.0174517 0.0126073 0.00192804 -0.104664 -0.0104004 -0.0106352 0.0355221 -0.0364494 -0.00603947 0.103068 -0.0711316 0.127694 0.0285325 -0.0321854 0.0416738 -0.0576674 0.043616 0.169336 0.0654898 0.0219478 0.322551 0.173379 -0.0324938 0.113613 0.308031 0.0410508 0.0589778
6009 -0.025288 0.00860969 -0.0421657 -0.00434269 0.0444084 -0.000460208 -0.0589081 0.177419 -0.0581663 -0.0619718 -0.0943357 0.0917162 -0.048723 -0.00307416 0.0155991 -0.0678815 -0.0284612 0.0281217 -0.0563904 -0.00467856 -0.0367702 0.0171582 0.107877 -0.0358031 -0.00632627 0.0251048 -0.236076 -0.0116987 -0.0682075 0.069958 -0.0955217 -0.0465971 0.234077 -0.169152 0.263839 0.0608049 -0.105479 0.103789 -0.160334 0.111829 0.34241 0.137809 0.0611047 0.628232 0.364886 -0.086119 0.220292 0.637364 0.0871239 0.101074
8693 -0.0123239 0.0118185 -0.0225077 0.00176072 0.0122382 0.0055777 -0.0148137 0.0905226 -0.0231816 -0.025393 -0.0433693 0.0509843 -0.0447513 -0.00349073 0.00483793 -0.0536524 -0.0076561 0.00732872 -0.0251778 -0.00816788 0.0032701 0.0250388 0.0612173 -0.00467697 0.0102666 0.00672193 -0.108939 1.91637e-05 -0.012683 0.0362972 -0.0292839 -0.0187367 0.105 -0.0830897 0.141514 0.0423116 -0.0344481 0.03791 -0.0710684 0.0543948 0.165834 0.0690801 0.0360627 0.331497 0.180047 -0.0425715 0.11056 0.327753 0.051968 0.0627208
12298 -0.0124027 0.0507099 0.00247548 -0.000874429 0.00996669 0.00643984 -0.00413913 0.047698 -0.0239697 -0.0217678 -0.00465145 0.0368703 -0.0418029 -0.0201796 0.020484 -0.0529514 0.000635743 0.000187876 -0.00257787 0.00657856 0.0111153 0.045443 0.0349038 5.82075e-05 0.0105746 0.00645382 -0.0677867 -0.0122225 0.00384948 0.0214058 0.00244063 0.0052486 0.0460079 -0.0381474 0.0883581 0.02853 -0.00553403 0.00472272 -0.041957 0.0244616 0.102193 0.049616 0.0232123 0.218654 0.129168 -0.0240205 0.0797728 0.212797 0.0301944 0.04204
10652 -0.0153801 0.033953 -0.00144661 -0.00403196 0.00523273 0.0140619 -0.00497056 0.0521401 -0.0246598 -0.0115363 -0.0117364 0.0397101 -0.0491045 -0.00843366 0.0175032 -0.0472756 -0.00783738 0.00824899 -0.00868418 0.00276088 0.0041037 0.0185141 0.0358759 -0.00424462 0.000495014 0.0054623 -0.0834367 -0.00737869 -0.00285344 0.0301985 -0.0195794 0.00440591 0.0626836 -0.0622476 0.105814 0.0238344 -0.0315894 0.0278103 -0.0539742 0.0324926 0.119651 0.0428117 0.0128098 0.234724 0.141849 -0.0372567 0.0756542 0.235734 0.0386109 0.0321662
4318 -0.0153906 -0.0250349 -0.0473125 -0.0120338 0.0517419 0.00977882 -0.0862518 0.249675 -0.0730509 -0.0921743 -0.149551 0.114086 -0.0439298 -0.00484801 -0.0125638 -0.0608524 -0.042069 0.0512617 -0.0865565 -0.0164212 -0.0702574 -0.0175234 0.155905 -0.0573537 -0.0112177 0.0217976 -0.312232 -0.018275 -0.137333 0.088651 -0.157556 -0.0824977 0.338335 -0.249699 0.333362 0.097429 -0.140678 0.169118 -0.203629 0.147709 0.475542 0.201 0.0761603 0.813272 0.494281 -0.093752 0.277583 0.848109 0.137302 0.146137
8057 0.0402043 -0.121148 -0.0243262 -0.026254 0.0102808 -0.022069 -0.0529885 0.0792622 0.000599478 -0.023517 -0.0790229 0.010264 0.102773 0.0344922 -0.0504339 0.074789 -0.0317795 0.0400284 -0.0569563 -0.0289625 -0.0852489 -0.110155 0.0404196 -0.0318004 -0.0294414 -0.0108807 -0.0589769 -0.0100563 -0.116924 0.0164626 -0.105604 -0.079228 0.118049 -0.0718081 0.029753 0.00898373 -0.077394 0.092066 -0.0563352 0.0447545 0.0787402 0.0223872 0.00110825 0.0460072 0.065269 0.00537832 0.0296985 0.0808575 0.0207967 0.00617634
13455 -0.0266736 0.0329989 -0.0181646 0.0107071 0.0283114 0.0144372 -0.0262355 0.0984554 -0.0379798 -0.0293882 -0.0529003 0.0577724 -0.0435758 -0.0202937 0.0193632 -0.057323 -0.0204061 0.0285614 -0.0186574 -0.00835291 -0.0149087 0.0257543 0.0753897 -0.0277308 0.01048 0.0205101 -0.137686 0.00229701 -0.0316709 0.027708 -0.043298 -0.0312139 0.119875 -0.100533 0.15806 0.0337054 -0.0482278 0.0556527 -0.0893161 0.0511807 0.197554 0.081245 0.0387126 0.381515 0.214677 -0.0573727 0.134542 0.374869 0.0664062 0.0620241
4103 -0.0318363 0.0130097 -0.0322176 -0.00863298 0.0442509 0.0154351 -0.0478702 0.152686 -0.0543494 -0.047349 -0.0824404 0.0715922 -0.0600511 -0.0119971 0.000717354 -0.0687569 -0.0242798 0.0380523 -0.0456818 -0.0159565 -0.033499 0.0167236 0.0982714 -0.0399773 0.0038254 0.0149027 -0.201716 -0.00550879 -0.0635584 0.0631641 -0.0737475 -0.032837 0.202176 -0.155201 0.240928 0.0649878 -0.0947326 0.088277 -0.135983 0.102082 0.314757 0.129826 0.0487028 0.565031 0.342435 -0.0666167 0.182721 0.58578 0.077166 0.0908568
12954 -0.0165734 0.0207976 -0.0240285 -0.0085254 0.0193255 0.0130032 -0.0142118 0.0936247 -0.0311629 -0.0406105 -0.0334244 0.0459692 -0.0481341 -0.00827669 0.00168488 -0.0633069 -0.000490749 0.018143 -0.0127983 0.00336429 -0.00444263 0.0146022 0.0584996 -0.018003 0.00422907 0.00405537 -0.130157 -0.0100185 -0.032396 0.0299755 -0.0525917 -0.0172734 0.136325 -0.0998274 0.140987 0.0325133 -0.0564622 0.0641737 -0.0751907 0.070876 0.201794 0.0885174 0.0319606 0.365225 0.214405 -0.0555585 0.124918 0.354449 0.0615439 0.0584452
13584 -0.0131566 0.0238383 -0.00946292 -0.00490165 0.00996305 -0.00154724 -0.0137079 0.0542348 -0.030392 -0.0170262 -0.0266135 0.045703 -0.0373476 -0.0141335 0.00544608 -0.0522897 -0.00342821 0.0159266 -0.00240931 -6.93103e-05 -0.00310137 0.0185738 0.0331694 -0.017525 -0.00281635 0.017435 -0.0800644 -0.01272 -0.0174893 0.0285482 -0.0141063 -0.0152341 0.0881473 -0.0585783 0.114604 0.0270223 -0.0365642 0.0190952 -0.0480473 0.0451435 0.147774 0.0574825 0.0253962 0.266826 0.15185 -0.0373142 0.0915076 0.261573 0.0342574 0.0517495
10030 -0.0110024 0.00528206 -0.039853 0.00298466 0.0327183 0.0069909 -0.040246 0.153602 -0.0405795 -0.0624128 -0.0790361 0.0819053 -0.0498301 -0.00468729 0.00849794 -0.0700931 -0.0243709 0.0415863 -0.0353218 -0.00190001 -0.0230409 0.00110536 0.0933837 -0.0414199 -0.009705 0.025101 -0.214301 -0.00294206 -0.0725598 0.0558707 -0.0895166 -0.0467315 0.215339 -0.16325 0.23888 0.0521146 -0.100382 0.105475 -0.136437 0.100597 0.31415 0.131316 0.0491556 0.541093 0.336704 -0.0700503 0.176662 0.552545 0.0790342 0.0900793
8261 0.00838247 -0.0529494 -0.0171351 -0.0155209 0.01591 -0.000234273 -0.0215031 0.0634027 -0.0194692 -0.0141773 -0.0484323 0.0117755 0.0408308 0.0098336 -0.0228656 0.0177744 -0.0207267 0.0175146 -0.0388057 -0.00238724 -0.0398425 -0.0469851 0.02358 -0.0192029 -0.00673269 0.00369775 -0.0578173 0.00324986 -0.0672484 0.0154522 -0.0628832 -0.0375911 0.0863625 -0.0504901 0.0571081 0.0248999 -0.0592623 0.0637075 -0.0619097 0.0363245 0.0950277 0.0316352 0.0180763 0.12963 0.0855598 -0.0156539 0.0567016 0.156289 0.0264497 0.0324815
7791 -0.0158263 0.0116855 -0.0141875 -0.00384534 0.0223664 -0.00653822 -0.0153637 0.0834649 -0.0282967 -0.0179559 -0.0320804 0.0321963 -0.028035 -0.0106057 -0.00228335 -0.0339607 -0.0012289 0.016769 -0.0225554 -0.0024731 -0.0211336 -0.000985778 0.0548649 -0.0172365 0.00827263 0.00779214 -0.102481 -0.00111929 -0.0265398 0.0331867 -0.0353472 -0.0147699 0.103567 -0.076804 0.110679 0.0256068 -0.0515655 0.0365554 -0.0596875 0.0484424 0.159357 0.0597508 0.0139729 0.275475 0.169914 -0.0402068 0.0885441 0.27213 0.0374891 0.037232
6988 -0.0145301 -0.0494952 -0.0707524 -0.0051545 0.0650608 0.0103902 -0.0871343 0.306899 -0.0808682 -0.107293 -0.167453 0.160105 -0.0687089 0.00868455 -0.0124535 -0.109753 -0.0466947 0.0599177 -0.0898743 -0.0305674 -0.0805825 -0.00995608 0.195039 -0.0689309 -0.0117652 0.0398231 -0.373848 -0.023033 -0.158655 0.119454 -0.179692 -0.103484 0.398655 -0.291034 0.423036 0.106884 -0.196573 0.198512 -0.269994 0.184154 0.579173 0.230752 0.0805572 0.994259 0.597041 -0.133685 0.342374 1.01166 0.152243 0.175324
11994 -0.0205889 0.028837 -0.00847542 0.0119108 0.0352385 0.0106234 -0.0144747 0.108958 -0.0407946 -0.0330026 -0.0527893 0.0709707 -0.0499634 -0.00949031 0.0236289 -0.0645361 -0.00713802 0.0129642 -0.0178588 -0.0139518 0.00107934 0.0328776 0.0651406 -0.0198866 0.0123053 0.0109434 -0.144983 0.00326731 -0.028138 0.0315473 -0.0476704 -0.0184185 0.140629 -0.114284 0.177191 0.054689 -0.0534316 0.0510954 -0.0959646 0.0607438 0.21603 0.100197 0.032046 0.42493 0.245541 -0.0518239 0.142479 0.425294 0.0722063 0.0621654
704 -0.00821954 0.0208764 -0.00722184 0.00789136 0.0225762 0.00655457 -0.0139595 0.0671489 -0.0142691 -0.0317534 -0.0328743 0.044568 -0.0233522 -0.0096431 0.00911979 -0.0344906 -0.016896 0.0129035 -0.0264523 0.000569649 -0.00695381 0.000658578 0.0556917 -0.0209096 -0.0068244 0.00996855 -0.110949 -0.0102665 -0.024122 0.0298664 -0.0400261 -0.0216296 0.0993151 -0.0805988 0.12475 0.0385112 -0.0361057 0.0494575 -0.0614847 0.0469837 0.15675 0.075813 0.0227407 0.294092 0.160465 -0.0442864 0.0954694 0.286615 0.0435556 0.0474275
1735 -0.0173668 0.0185658 -0.00908106 0.00922455 0.0221703 -0.00162621 -0.0257171 0.0660731 -0.0292102 -0.0151915 -0.0274514 0.0464944 -0.0252827 -0.00699389 0.0113317 -0.0405774 -0.0154696 0.0185155 -0.0115942 -0.0023801 0.000143959 0.0192469 0.0438638 -0.0129935 0.00677652 0.0190161 -0.104759 -0.0053011 -0.0351187 0.0229462 -0.0282242 -0.0262795 0.103289 -0.0656956 0.129874 0.0335146 -0.0430936 0.0440399 -0.0624378 0.0462934 0.155945 0.069727 0.024638 0.309538 0.181703 -0.0459809 0.0981394 0.295687 0.0508491 0.0451855
8891 -0.0237635 0.0247702 -0.0169437 -0.00529935 0.0100392 0.00101466 -0.024177 0.0639516 -0.0319537 -0.0316657 -0.0294687 0.0408795 -0.0371037 -0.00639697 0.00757494 -0.0499028 -0.011488 0.00317969 -0.00290577 0.00149143 0.00953499 0.0261877 0.051819 -0.0125159 0.0119338 0.0163104 -0.0899319 0.00283631 -0.0108071 0.0170377 -0.0155458 -0.00685091 0.0772447 -0.0675432 0.12316 0.0288633 -0.0275117 0.0174774 -0.0527683 0.0465636 0.142028 0.0513817 0.0298935 0.269964 0.158449 -0.0382999 0.0893194 0.275329 0.0428051 0.0354793
340 -0.00908703 -0.00322249 -0.0475334 -0.00124243 0.0474661 0.00667518 -0.0658328 0.194864 -0.052884 -0.0623255 -0.114729 0.0912575 -0.0420022 -0.00724994 0.00171813 -0.0624377 -0.0366111 0.0525849 -0.0571383 -0.0114103 -0.0407494 0.00317952 0.122604 -0.041806 -0.00177133 0.0234548 -0.236247 -0.00865885 -0.103128 0.0778036 -0.112179 -0.0623387 0.243159 -0.183857 0.270846 0.0769213 -0.101863 0.120575 -0.168958 0.116294 0.362773 0.156762 0.0554113 0.624453 0.390061 -0.087074 0.226636 0.649384 0.0955674 0.115291
1441 -0.030484 0.0431363 -0.0035378 -0.00355072 0.0285907 -0.000791158 -0.0102229 0.0762669 -0.0276608 -0.0318478 -0.0280235 0.0438677 -0.0538911 -0.0111948 0.0189454 -0.0505136 -0.00306269 0.0044342 -0.0157445 -0.00120519 0.00164486 0.0187169 0.0467548 -0.0133499 -0.001596 0.0103341 -0.112442 7.01175e-06 -0.0226462 0.0353184 -0.0300177 -0.00319849 0.102415 -0.0835402 0.14119 0.0412271 -0.0287673 0.0320963 -0.0643786 0.0507371 0.171308 0.0708154 0.0268216 0.301846 0.186023 -0.0445367 0.101597 0.299997 0.036053 0.0502263
3822 0.0260599 -0.0888858 -0.0306717 -0.0170996 0.00640612 -0.0186857 -0.040029 0.0788709 -0.0195923 -0.0322941 -0.0693536 0.0267506 0.078291 0.0272675 -0.0424974 0.0514499 -0.0266049 0.031474 -0.0444601 -0.0225437 -0.064486 -0.0700496 0.0329554 -0.0419594 -0.00603389 -0.00496937 -0.0797293 -0.00062602 -0.0996647 0.0340011 -0.0965499 -0.067293 0.116465 -0.07527 0.0665226 0.01985 -0.0745364 0.0882058 -0.0842683 0.0496378 0.111071 0.0536298 0.013638 0.127786 0.112811 -0.0236227 0.0557257 0.159327 0.0287487 0.0241754
4029 -0.0117084 0.00422465 -0.0396053 0.00594461 0.0464506 0.0126751 -0.0387688 0.14892 -0.0536049 -0.051369 -0.08466 0.0730798 -0.0452728 -0.00363812 -0.00457599 -0.0645766 -0.0235305 0.0308824 -0.0425206 -0.00924235 -0.0213141 -0.00327067 0.102685 -0.0274757 -0.00610942 0.0149803 -0.198518 0.00052749 -0.0746902 0.0617406 -0.0869873 -0.0550243 0.206244 -0.154411 0.225712 0.0616066 -0.102667 0.101767 -0.142944 0.100087 0.301393 0.12344 0.0424232 0.555369 0.320798 -0.0606966 0.191178 0.562007 0.0852834 0.0931966
12717 -0.0279805 0.0111005 -0.0209141 0.00387868 0.041507 0.00484696 -0.043864 0.137704 -0.0387404 -0.0396929 -0.0699836 0.0731584 -0.0529011 0.000336229 0.0143901 -0.0658813 -0.0145906 0.0261978 -0.0290902 -0.0140082 -0.0132291 0.0158258 0.0879656 -0.0185142 0.00716934 0.0282875 -0.185324 -0.0151014 -0.0634723 0.0622333 -0.0708364 -0.0475794 0.187974 -0.137932 0.221748 0.050095 -0.0883475 0.0792387 -0.114758 0.101888 0.292822 0.1201 0.0360591 0.52153 0.306855 -0.0668773 0.178732 0.521405 0.0797812 0.0855981
