624 50
17114 -0.0350567 0.0179344 0.0177178 0.0247723 0.0106341 -0.0243694 -0.0748812 0.024262 0.0402777 -0.0241156 0.0323785 0.0139633 0.000425938 0.000905041 0.0195859 -0.0152263 -0.0989594 -0.00437194 0.0382981 -0.0548334 -0.0939917 0.0428694 -0.0964619 0.0734975 0.0444456 -0.0798743 0.043795 -0.00599339 0.0248339 0.0841229 0.0195187 -0.0390347 -0.0862732 -0.0861597 -0.0136006 0.00988131 0.0816925 0.0541023 -0.0685866 0.0200599 -0.00383622 -0.135755 -0.0234147 -0.00450952 0.10116 0.0593984 -0.0700366 0.00679664 -0.0651605 0.0585956
0 -0.967967 0.570687 0.210609 0.163123 -0.00727134 0.99968 -0.795505 0.258114 -1.27398 -0.255167 1.10861 -0.308424 0.129879 0.438912 0.658426 0.757348 -1.10593 0.152494 0.701019 -0.871735 -1.13989 0.140732 -1.21189 0.734973 0.321329 -1.00004 0.634146 -0.244658 -0.0855023 1.26924 -0.0597236 -1.21448 -1.24003 -1.27373 -0.431737 0.0393194 1.42917 0.947105 -1.17563 -0.0452743 0.258055 -1.2946 -0.456755 0.0577913 1.25982 0.787594 -1.29871 0.144104 -0.400425 0.567702
22533 -0.131915 0.0912296 -0.0255906 -0.0558159 -0.0734685 0.355301 0.0538126 0.0112654 -0.493325 0.0420161 0.158376 -0.165148 -0.00696956 0.12418 0.0699918 0.281815 0.0969104 0.0350278 0.0488796 0.0408495 0.0508777 -0.0976788 -0.0322651 -0.0608554 -0.0335614 -0.0123729 0.0549613 -0.0363023 -0.127043 0.0236939 -0.057585 -0.240314 -0.103822 -0.116535 -0.0864256 -0.0174197 0.163143 0.118218 -0.0805297 -0.0896334 0.0960298 0.0419947 -0.077801 0.0640754 0.0564442 0.0304308 -0.229593 0.0091874 0.108807 -0.0790995
10649 -0.147983 0.100404 -0.0273259 -0.0647353 -0.0722179 0.369538 0.0431362 0.00994228 -0.50653 0.0343632 0.17277 -0.175951 -0.00407517 0.131391 0.0770505 0.296918 0.0698001 0.0207999 0.0529164 0.0456741 0.0422462 -0.0953924 -0.0467187 -0.0523261 -0.0258315 -0.0228267 0.0614443 -0.0316519 -0.140459 0.0408554 -0.0698322 -0.255832 -0.0949344 -0.121887 -0.0885168 -0.0267231 0.158113 0.126119 -0.0847869 -0.0907618 0.112557 0.0399306 -0.0828635 0.0511031 0.061181 0.0290139 -0.220905 0.00663139 0.116297 -0.0816943
13964 -0.193886 0.14374 -0.030383 -0.061943 -0.090312 0.466744 0.0251743 0.0273366 -0.613989 0.0265641 0.21864 -0.21657 -0.011808 0.154584 0.0892666 0.372737 0.0500141 0.046671 0.0865876 0.0170312 -0.000445521 -0.108532 -0.10627 -0.0236016 -0.00374954 -0.0769935 0.0984101 -0.0454495 -0.175108 0.102147 -0.0755153 -0.351763 -0.176942 -0.208683 -0.131335 -0.0352349 0.26591 0.183462 -0.150354 -0.108127 0.142286 -0.0305842 -0.123725 0.0749787 0.147694 0.079588 -0.343824 0.00249345 0.105616 -0.0725644
2592 -0.0826789 0.0342283 0.0273945 0.0307315 0.00760485 0.047338 -0.0861185 0.0294958 -0.0514119 -0.0270125 0.0646662 -0.00789402 0.00698118 0.0132945 0.0469106 0.0364149 -0.102534 0.00813341 0.046014 -0.0810488 -0.0991336 0.0327094 -0.130215 0.0778472 0.036473 -0.0958934 0.0608736 -0.0122233 0.0156235 0.113214 0.00224399 -0.102503 -0.137468 -0.151897 -0.0476189 0.00793774 0.160494 0.112598 -0.114016 0.00407801 0.0172554 -0.169246 -0.0458323 -0.00480006 0.137143 0.0843953 -0.124653 0.0119024 -0.0563208 0.0712403
8780 -0.0510309 0.03127 -0.000647348 0.00412787 -0.00763684 0.105153 -0.0214534 0.00463089 -0.130698 -1.92562e-06 0.0579399 -0.032724 0.00123406 0.033408 0.0321326 0.0779195 -0.0246039 0.00966511 0.0223948 -0.0269913 -0.0318145 -0.0157673 -0.0435888 0.0126167 0.00252424 -0.0412764 0.026411 -0.0129784 -0.0355193 0.0477177 -0.0127862 -0.094821 -0.0612137 -0.0795417 -0.0387049 0.00604697 0.0832281 0.0591376 -0.0614545 -0.0245809 0.0343349 -0.0509846 -0.0248661 0.0105408 0.0654805 0.043029 -0.0961988 0.0154239 0.0157539 -0.00454807
3405 -0.087861 0.0437798 0.0107534 0.0160029 -0.00710002 0.102811 -0.0854317 0.0320132 -0.118266 -0.0323388 0.0892995 -0.0297152 0.00526619 0.0291449 0.0655273 0.0659933 -0.0869778 0.00935836 0.0588164 -0.0729143 -0.0973315 0.00279843 -0.132634 0.0843759 0.0314592 -0.126017 0.0801124 -0.0198277 -0.021483 0.135499 -0.00384049 -0.149804 -0.185361 -0.187943 -0.0561326 0.015701 0.187772 0.12186 -0.13799 -0.0140261 0.0428643 -0.164252 -0.060778 0.0155249 0.168208 0.112473 -0.158509 0.0121668 -0.0433273 0.0540389
17504 -0.0357721 0.0268566 0.0174048 0.00658525 -0.00557389 0.0701797 -0.0307776 0.0112527 -0.0881262 -0.00333519 0.0530055 -0.0277447 0.0142924 0.0164238 0.0256593 0.0509596 -0.0393406 0.0159629 0.0381251 -0.0281899 -0.0573531 -0.00746213 -0.0741732 0.04172 0.0245312 -0.057236 0.0501279 -0.0183141 -0.00775057 0.0733029 -0.0107633 -0.0956969 -0.0842199 -0.0898576 -0.033016 0.000205905 0.102601 0.0597241 -0.0716042 -0.0151872 0.0257816 -0.0924377 -0.0401366 0.0150677 0.101858 0.0584479 -0.105527 0.0181064 -0.0260963 0.0312709
2093 -0.0617417 0.0259979 0.00818726 -0.0138587 -0.0182159 0.106244 -0.00749061 0.00597103 -0.14604 0.00987577 0.0675226 -0.0357928 0.0113213 0.0290229 0.0303766 0.0839369 -0.0028796 0.0105125 0.0314832 -0.0120311 -0.0286968 -0.0119275 -0.0329924 0.00815767 0.0114768 -0.0218021 0.0338725 -0.014681 -0.0232015 0.0384253 -0.0219482 -0.0989884 -0.0627069 -0.0692878 -0.0393805 0.00460918 0.0833742 0.0478141 -0.0643541 -0.0180487 0.0368951 -0.0390611 -0.0289339 0.00960738 0.0476556 0.0245577 -0.0838483 0.00724805 0.00807372 -0.00833283
2398 -0.168488 0.0945899 0.03812 0.0253822 -0.0063273 0.206361 -0.121308 0.0347344 -0.259133 -0.0373695 0.18039 -0.0689399 0.016057 0.0822962 0.0957972 0.13674 -0.153975 0.0243833 0.111664 -0.130894 -0.174991 0.0148803 -0.229067 0.126738 0.0573656 -0.210005 0.131346 -0.0537484 -0.0361268 0.250268 -0.0135572 -0.260059 -0.290782 -0.300957 -0.105499 -0.000341942 0.330523 0.221149 -0.235106 -0.015863 0.0698644 -0.266766 -0.107616 0.0241654 0.284711 0.170163 -0.304464 0.0403634 -0.0514234 0.0975334
8059 -0.0794199 0.0497837 -0.022389 -0.0326928 -0.0417793 0.192068 0.0305913 0.00595602 -0.284399 0.0251377 0.104641 -0.0962043 0.00114536 0.0705829 0.0344446 0.160418 0.0624707 0.00783985 0.0348244 0.0282393 0.0314826 -0.0539668 0.000523467 -0.0518745 -0.0165775 0.0138691 0.0167761 -0.0162257 -0.0802334 0.0152082 -0.0261497 -0.12303 -0.0157864 -0.0294243 -0.0411038 -0.0110146 0.0513683 0.058903 -0.0370704 -0.0558564 0.0495484 0.0496485 -0.0281622 0.0210248 0.021086 0.0118865 -0.115918 -0.00166391 0.0608305 -0.0490749
2424 -0.124271 0.0852408 -0.00466107 -0.0159924 -0.0227796 0.226442 -0.0280354 0.0192628 -0.276285 0.00859937 0.116639 -0.0808705 0.00572463 0.0714106 0.066018 0.172433 -0.0113009 0.0130104 0.0501398 -0.0202999 -0.0513223 -0.0244531 -0.0908677 0.0190213 0.0090879 -0.0851792 0.0698263 -0.0380256 -0.0660909 0.0921821 -0.0250298 -0.186046 -0.135312 -0.160228 -0.0672503 -0.0110064 0.171878 0.134512 -0.11371 -0.0310239 0.0753831 -0.0957351 -0.0774031 0.0279907 0.12164 0.0886967 -0.210577 0.00999527 0.0117924 0.00757203
8257 -0.109561 0.0706557 -0.01654 -0.0321823 -0.0418639 0.261411 0.0298452 0.0170641 -0.370417 0.0279858 0.12309 -0.128827 0.0074607 0.0932308 0.0567494 0.203616 0.0513602 0.0201073 0.0576524 0.0239337 0.0124947 -0.0612863 -0.0142301 -0.0404698 -0.0200599 -0.00205884 0.0356634 -0.0332713 -0.0979562 0.0362847 -0.050447 -0.197231 -0.0834283 -0.10092 -0.0681099 -0.0213892 0.135886 0.0885227 -0.0711723 -0.0603973 0.0865607 0.0271875 -0.0642808 0.0472376 0.0620841 0.0340774 -0.174587 0.00469603 0.082428 -0.0498962
5895 -0.157313 0.110739 -0.0262588 -0.0590567 -0.0649813 0.381457 0.0479941 0.0134387 -0.546853 0.043501 0.188194 -0.175639 -0.0040939 0.121701 0.0699386 0.309971 0.0937956 0.0335911 0.073747 0.0512717 0.0486941 -0.108588 -0.0408759 -0.0587184 -0.0289536 -0.00649309 0.0692796 -0.0313999 -0.153228 0.0477329 -0.0776788 -0.274822 -0.130678 -0.167829 -0.110588 -0.0243788 0.197144 0.152226 -0.113054 -0.100319 0.131103 0.027732 -0.0972864 0.0545196 0.102919 0.0480211 -0.266571 0.0163531 0.107715 -0.0990779
5361 -0.0608836 0.0353462 -0.0157114 -0.0190531 -0.0328691 0.144616 0.004737 -9.53407e-05 -0.202974 0.000811186 0.0704699 -0.0618214 -0.00651616 0.0536896 0.0345089 0.11237 0.00816858 0.0184851 0.0239963 0.000608844 -0.00762384 -0.0268094 -0.032139 -0.0086467 -0.0103695 -0.0278935 0.0328842 -0.00963252 -0.0569797 0.0225601 -0.0251303 -0.11471 -0.0618795 -0.069222 -0.036067 -0.00528529 0.0797544 0.0594381 -0.0575448 -0.0313537 0.0435935 -0.0105943 -0.0338613 0.027857 0.042797 0.0330392 -0.0999424 -0.00459543 0.0428008 -0.0268592
2956 -0.152648 0.102369 -0.0124838 -0.0600295 -0.0743005 0.37211 0.0464932 0.0104661 -0.536537 0.034253 0.195383 -0.18052 -0.00524795 0.138689 0.0679177 0.309202 0.0797526 0.0315343 0.059749 0.0194862 0.0121633 -0.103302 -0.0626607 -0.0416228 -0.0291602 -0.0285696 0.0671126 -0.0278095 -0.14194 0.0540844 -0.0646809 -0.274051 -0.144327 -0.171676 -0.117524 -0.0139475 0.199225 0.141867 -0.123571 -0.0884548 0.120726 0.0118017 -0.0846239 0.0578644 0.0922522 0.0669201 -0.271209 0.00603367 0.102955 -0.0789311
6668 -0.202847 0.131437 -0.0151609 -0.049733 -0.0725023 0.448821 0.0230359 0.0350468 -0.604218 0.0333702 0.238613 -0.194766 0.00176997 0.147783 0.106874 0.346031 0.0665477 0.0470744 0.0953167 0.0157622 -0.00850201 -0.107376 -0.0802962 -0.0447415 -0.00470666 -0.0549525 0.0789988 -0.0449352 -0.146776 0.0828884 -0.0695406 -0.325659 -0.178556 -0.221157 -0.138616 -0.0118518 0.261894 0.194194 -0.173123 -0.0927815 0.132624 -0.016993 -0.121548 0.0707859 0.137294 0.10265 -0.316045 0.0176103 0.106288 -0.0777298
8460 -0.0575864 0.0292339 -0.000425025 -0.000549533 -0.0027869 0.100752 -0.0170674 0.00819142 -0.132523 -0.0132512 0.0670866 -0.033606 0.00788824 0.0331669 0.0375402 0.0712743 -0.0169596 0.0161559 0.0381099 -0.0271181 -0.0282169 -0.0110178 -0.0618704 0.0130674 0.00976091 -0.047796 0.0395798 -0.00646774 -0.032848 0.0672453 -0.0217063 -0.089858 -0.0774692 -0.0749029 -0.0290562 0.00712878 0.0859998 0.0636524 -0.0586308 -0.0204244 0.0231191 -0.06193 -0.0357719 0.0054729 0.0809712 0.0361745 -0.10821 0.0130016 -0.00395705 0.0152688
2537 -0.0730478 0.0360757 0.0185546 0.030134 0.0155601 0.0518066 -0.0841613 0.0343191 -0.0643675 -0.0342712 0.0834027 -0.0166505 0.00557838 0.023904 0.0623542 0.0292237 -0.0973776 0.013305 0.0498309 -0.0820782 -0.112246 0.0285681 -0.128902 0.0908042 0.0370922 -0.116755 0.0503379 -0.0122627 -0.00249213 0.126998 -0.0048831 -0.094558 -0.143245 -0.146244 -0.0367526 0.0108319 0.154134 0.0981846 -0.104731 0.00439803 0.0265337 -0.151302 -0.0505348 0.00575127 0.134484 0.0826203 -0.119357 0.0178403 -0.0483755 0.0605608
6465 -0.0549216 0.0296911 0.0111306 0.0133037 0.0113641 0.0279017 -0.0743246 0.0213409 -0.0390445 -0.0214043 0.062705 -0.0112801 0.0027397 0.0139072 0.0469048 0.0214999 -0.0827187 0.0118745 0.0437568 -0.0617574 -0.0981502 0.029351 -0.109054 0.0824525 0.0323991 -0.0993591 0.0518781 -0.0253769 0.00720966 0.0971989 0.00767603 -0.0904316 -0.115227 -0.127489 -0.0263894 0.015555 0.127329 0.094279 -0.0997641 0.00257237 0.00435119 -0.121745 -0.026524 0.00576874 0.1243 0.0755386 -0.104911 0.014831 -0.0399289 0.0584739
2263 -0.141391 0.0939122 0.00321478 -0.0221269 -0.047275 0.286235 -0.00207811 0.0219986 -0.388135 0.00344496 0.151418 -0.114323 0.00601309 0.0985078 0.0668438 0.216699 0.000608583 0.0201287 0.0598414 -2.73658e-05 -0.0198506 -0.0638909 -0.101131 0.0149885 -0.000664984 -0.0765051 0.0660598 -0.0276476 -0.0930325 0.0789528 -0.0408716 -0.216374 -0.140015 -0.16726 -0.0915617 -0.0103782 0.18815 0.131051 -0.113546 -0.0626704 0.0818757 -0.0481902 -0.0803077 0.0339324 0.114915 0.0745416 -0.229344 0.0152558 0.0573867 -0.0254934
3367 -0.149247 0.0931312 0.0142152 -0.00116558 -0.0284523 0.226157 -0.073768 0.03156 -0.284202 -0.0103249 0.170482 -0.0777301 0.00288474 0.084995 0.0848856 0.165359 -0.0989014 0.019784 0.0889681 -0.0895994 -0.127559 -0.0078535 -0.164362 0.0946828 0.0434333 -0.149425 0.109843 -0.0464138 -0.0446805 0.170156 -0.0298632 -0.219885 -0.225696 -0.230359 -0.0949841 -0.000742392 0.275105 0.185747 -0.195231 -0.0191364 0.0646509 -0.183307 -0.0842791 0.0236442 0.208819 0.133104 -0.24576 0.0272692 -0.0225562 0.0542416
20200 -0.0577084 0.0477765 0.00492181 -0.00328571 -6.83984e-05 0.0746221 -0.0461692 0.0176919 -0.110266 -0.00621469 0.0674754 -0.0272939 -0.00262578 0.0253 0.033307 0.0613097 -0.0441986 0.00508514 0.0319805 -0.031926 -0.049842 0.00374662 -0.0700806 0.0392068 0.0226879 -0.0592703 0.0353568 -0.0158974 -0.0235864 0.076015 -0.0104264 -0.0875589 -0.100854 -0.105131 -0.0337757 0.00857924 0.132384 0.0943141 -0.0799491 -0.0137744 0.0217389 -0.103651 -0.0494642 0.0117595 0.100669 0.067017 -0.104181 0.00334044 -0.0196646 0.0195045
3460 -0.226773 0.15364 -0.0347101 -0.0744101 -0.0876405 0.535696 0.0215601 0.023382 -0.743208 0.0458899 0.263636 -0.259287 0.00971768 0.195149 0.110867 0.414858 0.0892961 0.0414621 0.107126 0.0286484 0.000369088 -0.125898 -0.105147 -0.0434348 -0.0297675 -0.0766347 0.102859 -0.0529976 -0.202368 0.104744 -0.0973735 -0.406541 -0.222546 -0.252566 -0.154879 -0.02391 0.296567 0.223808 -0.184885 -0.117515 0.164588 -0.0300395 -0.143303 0.0873952 0.195528 0.118829 -0.425253 0.0322766 0.131002 -0.0875787
15749 -0.140278 0.0948467 -0.0422536 -0.074819 -0.0799612 0.382864 0.0529063 0.0179956 -0.538525 0.037153 0.169097 -0.194628 -0.00725309 0.128578 0.0648659 0.302567 0.116302 0.020476 0.0418788 0.0616033 0.0686971 -0.11079 -0.0146174 -0.0778175 -0.026792 0.000479822 0.0584137 -0.0373922 -0.159281 0.00790694 -0.0730022 -0.251819 -0.0696173 -0.096019 -0.107893 -0.0182308 0.14334 0.103883 -0.0890613 -0.0940298 0.126528 0.0624713 -0.0930589 0.0614753 0.0820214 0.0362236 -0.255934 0.015248 0.123812 -0.108291
140 -0.113818 0.0710099 0.0289554 0.0199726 -0.00320791 0.164447 -0.0724955 0.0360495 -0.204336 -0.02872 0.135155 -0.0474947 0.00504041 0.0529851 0.0698948 0.114428 -0.0883572 0.00922731 0.0803553 -0.0668224 -0.0930844 -0.00533822 -0.133959 0.0642573 0.0322476 -0.123834 0.0826314 -0.0317538 -0.0219402 0.138556 -0.0180183 -0.184066 -0.180845 -0.199443 -0.0804989 0.00707966 0.205228 0.141876 -0.137164 -0.0267257 0.0507082 -0.132536 -0.068183 0.0133557 0.177238 0.0975509 -0.182114 0.0233105 -0.0179506 0.0392775
2307 -0.0713441 0.0335068 0.0245609 0.0109065 0.00778741 0.0625542 -0.0704709 0.026609 -0.0723655 -0.0179164 0.0745241 -0.0152198 0.00706747 0.0349677 0.0381406 0.052348 -0.068464 0.00495107 0.0489879 -0.0632298 -0.0836535 0.00379588 -0.104574 0.0565343 0.0269992 -0.090403 0.0429327 -0.0293456 -0.0118956 0.113332 -0.0101787 -0.0946433 -0.122954 -0.139884 -0.0355246 -0.00269302 0.142294 0.104397 -0.0993391 -0.00323659 0.0169065 -0.132954 -0.037604 0.00503367 0.125964 0.0835676 -0.126786 0.00779204 -0.0444409 0.046828
3379 -0.0450506 0.0273525 0.00782624 0.0208943 -0.00312444 0.0427859 -0.0566586 0.00971544 -0.0479237 -0.0127796 0.0491145 -0.013423 0.0107309 0.018878 0.0427669 0.0296648 -0.0707908 0.0134232 0.0421101 -0.0444391 -0.0780099 0.0114911 -0.0930071 0.0626147 0.0207413 -0.0815488 0.0512766 -0.0247201 -0.00772225 0.0924264 -0.00895164 -0.0882423 -0.105251 -0.10265 -0.0296004 0.00963891 0.0998041 0.0755079 -0.0835505 0.000782637 0.00732204 -0.095609 -0.0264681 0.01314 0.0951831 0.0603246 -0.0935923 0.0180171 -0.024209 0.0355539
18093 -0.117749 0.0798076 -0.01434 -0.0479305 -0.0525439 0.281346 0.0326893 0.00174067 -0.402072 0.0173837 0.145164 -0.126746 0.00444797 0.0926863 0.0549569 0.23309 0.0698399 0.0167255 0.0505609 0.0288257 0.0437853 -0.0805868 -0.0263631 -0.0455586 -0.0144652 0.0131756 0.0462468 -0.0195544 -0.107548 0.0173718 -0.0385319 -0.184577 -0.0513513 -0.0730031 -0.0644248 -0.0253811 0.10902 0.071094 -0.06792 -0.0673684 0.0855117 0.0317409 -0.0682466 0.0497652 0.0443874 0.0265331 -0.182232 0.013176 0.0824272 -0.0605442
4668 -0.349375 0.233216 -0.0105161 -0.0742547 -0.102038 0.664401 -0.0332397 0.0404309 -0.905582 0.0239823 0.365533 -0.275798 -0.00101134 0.227043 0.152517 0.48789 0.0149787 0.0557281 0.13933 -0.021623 -0.0468498 -0.117515 -0.247357 0.0199054 0.0225164 -0.185438 0.162742 -0.0910328 -0.193852 0.188678 -0.085315 -0.555805 -0.429695 -0.481797 -0.245238 -0.0245753 0.525493 0.365133 -0.305964 -0.122933 0.213527 -0.168549 -0.213639 0.108119 0.356696 0.211285 -0.556139 0.0352757 0.115531 -0.0626905
4713 -0.0917221 0.0466856 0.0127327 -0.000411592 -0.0158669 0.151087 -0.036911 0.0151628 -0.184257 -0.00700045 0.0836954 -0.0562032 0.00274925 0.0574779 0.047101 0.106334 -0.0346742 0.0182695 0.0481524 -0.0437314 -0.0498106 -0.0243187 -0.106085 0.0444288 0.0266958 -0.0764485 0.0641907 -0.0322163 -0.0395801 0.100923 -0.0300554 -0.162033 -0.127816 -0.138004 -0.0640691 0.00554608 0.150183 0.10912 -0.108445 -0.0304405 0.0492092 -0.0829236 -0.0632104 0.023882 0.110013 0.0626986 -0.186136 0.0124966 -0.00406089 0.0201154
132 -0.0751906 0.0479375 -0.0074894 -0.0420428 -0.0398602 0.206394 0.0320089 -0.00235305 -0.292233 0.0108567 0.10196 -0.0879832 0.00515788 0.0714156 0.0424897 0.170607 0.0581123 0.0202732 0.0347007 0.0272697 0.0178553 -0.0509276 -0.00619295 -0.0433998 -0.0255993 -0.00860944 0.0220591 -0.0089802 -0.0712742 0.0192964 -0.0374171 -0.150176 -0.0464504 -0.0477621 -0.0445374 -0.00780194 0.0693905 0.0535104 -0.0493901 -0.0474304 0.0498689 0.0281855 -0.053455 0.0317633 0.032019 0.0129452 -0.130802 0.0126535 0.0662821 -0.0471563
1128 -0.0988613 0.0652254 -0.0137222 -0.0222505 -0.0427227 0.226554 0.00106187 0.00736355 -0.324678 0.0195396 0.139465 -0.0955707 0.0105203 0.0806238 0.0538468 0.173931 0.0126193 0.0256472 0.0513372 -0.00426083 -0.0083579 -0.0528811 -0.0549432 -0.00779334 -0.00989986 -0.0403622 0.056575 -0.0279004 -0.0810545 0.0560244 -0.02858 -0.179701 -0.0919971 -0.117987 -0.0634336 -0.0188201 0.136488 0.102648 -0.0988722 -0.0392411 0.059071 -0.026729 -0.0553597 0.041093 0.0969991 0.0489788 -0.188795 0.0169264 0.0387298 -0.0205475
9177 -0.0718388 0.0389152 0.0106593 0.0165018 -0.0124905 0.0964697 -0.0500669 0.0274557 -0.116827 -0.0167403 0.0917594 -0.041077 0.00454918 0.0346941 0.0425952 0.0773862 -0.0732413 0.00201586 0.0497541 -0.0595144 -0.0775904 -0.00324315 -0.10769 0.065309 0.0348982 -0.0902802 0.0657504 -0.0173272 -0.020625 0.108493 -0.00182139 -0.127948 -0.130585 -0.140835 -0.0432205 0.00439528 0.143294 0.0887393 -0.103804 -0.0168897 0.027039 -0.120288 -0.0527033 0.0042113 0.137744 0.0828507 -0.131126 0.0203966 -0.0281538 0.0335986
6564 -0.0463027 0.0279943 0.0028547 -0.00931595 -0.0133642 0.085044 -0.00933967 0.0188801 -0.121741 0.00107751 0.0537097 -0.0435016 0.00956069 0.0379691 0.0219617 0.0653719 -0.0170362 0.00194711 0.0312475 -0.0226897 -0.0137872 -0.0228268 -0.0347726 0.00562097 0.014167 -0.0418567 0.019273 -0.0161325 -0.0349359 0.0360697 -0.0031017 -0.0807298 -0.054493 -0.0664973 -0.0416874 -0.00441409 0.0826266 0.0461356 -0.05495 -0.0118737 0.0374843 -0.0402768 -0.0372359 0.00828293 0.0585456 0.0316821 -0.0865523 0.00869055 0.00698963 -0.00244041
8798 -0.0745515 0.0405278 0.0165159 0.0250697 0.00602963 0.0751736 -0.0638529 0.0199669 -0.0769763 -0.0206318 0.0698772 -0.0225351 0.00046216 0.0265697 0.0432242 0.0475837 -0.0728744 0.00265357 0.0374893 -0.0581302 -0.0803492 0.0157878 -0.110802 0.0723768 0.0421967 -0.0993872 0.0486128 -0.027957 0.00410931 0.106871 -0.0107109 -0.110076 -0.127041 -0.139168 -0.0515809 0.0151323 0.161516 0.0962499 -0.113474 -0.0101295 0.0260586 -0.150004 -0.0479366 0.00699979 0.139909 0.0877363 -0.128667 0.0141268 -0.0321234 0.0582311
3299 -0.0604091 0.0382085 0.00506659 0.00812613 -0.0120501 0.102536 -0.0315927 0.0147964 -0.145292 -0.0132437 0.077348 -0.0394757 -0.00226311 0.0481335 0.0461079 0.0813446 -0.0450551 0.0182841 0.050217 -0.0312744 -0.053069 0.0010791 -0.0824343 0.0466749 0.0230949 -0.0758396 0.0456551 -0.0305495 -0.031216 0.0759356 -0.00867705 -0.103717 -0.113832 -0.119387 -0.0471287 0.00775125 0.127399 0.0799969 -0.094068 -0.0103987 0.0423436 -0.0808631 -0.0426661 0.0223223 0.0978935 0.0586826 -0.123678 0.0200595 -0.0169963 0.0240064
4649 -0.114149 0.0623512 0.0239079 -0.000361203 -0.01054 0.1644 -0.067957 0.0207311 -0.201757 -0.01333 0.128133 -0.0492899 0.0140963 0.0670154 0.0735754 0.123196 -0.0823892 0.010208 0.062157 -0.0500478 -0.0926056 -0.0114044 -0.145679 0.0774772 0.032909 -0.105701 0.0622698 -0.0335369 -0.0360103 0.114774 -0.00905824 -0.166698 -0.172078 -0.17619 -0.0634613 0.00641303 0.200474 0.141169 -0.14104 -0.0146338 0.0481348 -0.133295 -0.0683184 0.019733 0.164836 0.0928628 -0.185471 0.017642 -0.0247587 0.0319581
6603 -0.0340354 0.018116 0.00169988 -0.000875259 -0.00934885 0.0812901 -0.0188458 0.0112557 -0.102895 -0.00349766 0.0444805 -0.0377592 -0.00693431 0.0246242 0.0324131 0.064953 -0.00353199 0.00855406 0.0173902 -0.00587553 -0.0122451 -0.0128689 -0.028669 0.0121257 0.00230842 -0.0265393 0.0114443 -0.00584767 -0.0304974 0.030606 -0.00342216 -0.0683901 -0.0478903 -0.0444317 -0.0193149 -0.00970698 0.0645066 0.0438782 -0.0417681 -0.00499982 0.0131386 -0.0185342 -0.0293189 0.00158401 0.0461598 0.0257522 -0.0724594 0.00619266 0.0099991 -0.00997544
2895 -0.11129 0.0694808 0.02845 0.017322 0.0071781 0.128087 -0.0810148 0.0337551 -0.143882 -0.0270714 0.0995191 -0.0402978 0.00531858 0.0461401 0.0730022 0.0759586 -0.0957845 0.00512149 0.0667304 -0.0731735 -0.110595 0.0147026 -0.151309 0.0834022 0.0311055 -0.110433 0.0788077 -0.0299154 -0.0252122 0.126699 -0.00140723 -0.146921 -0.189934 -0.189769 -0.0739291 0.00393842 0.220595 0.140723 -0.154189 -0.00371159 0.0381882 -0.177187 -0.0703701 0.00639886 0.173922 0.11776 -0.184385 0.0255935 -0.0284258 0.0515223
3698 -0.0710491 0.0475861 -0.0143516 -0.0356033 -0.0376306 0.204829 0.0439344 -0.00346997 -0.281895 0.0211675 0.0780215 -0.103855 -0.000721783 0.0773403 0.0338814 0.167256 0.0652431 0.0118991 0.0212504 0.0418228 0.0491047 -0.0717671 -0.00112927 -0.0522 -0.0229873 0.00603132 0.0282698 -0.0154306 -0.0846702 -0.00235465 -0.0401938 -0.122912 -0.0328417 -0.0551861 -0.053274 -0.0106438 0.0728394 0.0630756 -0.0334911 -0.0518212 0.0548068 0.0472493 -0.0453116 0.0338926 0.00802981 0.00899929 -0.125851 -0.00177283 0.0765299 -0.0541711
5726 -0.153116 0.0991817 0.00959048 -0.0148191 -0.036206 0.30667 -0.0299046 0.0197832 -0.402177 -0.0042172 0.175299 -0.131724 0.00316964 0.0954727 0.0833531 0.23376 -0.00837749 0.0176122 0.0724503 -0.0166103 -0.0377341 -0.0452095 -0.122079 0.0173398 0.0187763 -0.0948587 0.0906149 -0.0420975 -0.0916097 0.120633 -0.0376072 -0.25345 -0.182428 -0.207821 -0.0946032 0.00173334 0.247657 0.166175 -0.160206 -0.0493938 0.0842145 -0.0793212 -0.0903631 0.0479307 0.166153 0.0978551 -0.260106 0.0170427 0.0330254 -0.0117758
3305 -0.113398 0.086038 0.012397 0.00239789 -0.0311106 0.204311 -0.043597 0.0200767 -0.271142 0.00343049 0.125285 -0.0761628 0.0183858 0.0649374 0.0651153 0.153014 -0.0352117 0.010014 0.0716567 -0.0457329 -0.0646998 -0.0266915 -0.126439 0.0407072 0.0286106 -0.0909641 0.078577 -0.0384171 -0.0611997 0.137409 -0.0264846 -0.201364 -0.161464 -0.183904 -0.0759384 0.00603789 0.188333 0.138204 -0.129428 -0.0238397 0.0574931 -0.113079 -0.0728734 0.0183272 0.133413 0.097466 -0.211515 0.0145202 0.0196923 0.0113456
21903 -0.121695 0.062764 0.022871 -0.000311433 -0.0056681 0.160658 -0.0706757 0.0247274 -0.217181 -0.0161716 0.142873 -0.0585345 0.0113298 0.0681165 0.0792482 0.13312 -0.093399 0.0288058 0.0755719 -0.0734465 -0.103618 0.00643571 -0.144203 0.0823656 0.0275479 -0.129776 0.0848973 -0.0282704 -0.0278634 0.153904 -0.0291474 -0.20649 -0.209356 -0.205823 -0.0762381 0.00555139 0.225059 0.164572 -0.153092 -0.0239727 0.0620441 -0.168073 -0.087097 0.0169189 0.192088 0.124429 -0.211616 0.0274503 -0.0266091 0.0464046
18649 -0.0556309 0.0382137 0.0150612 0.00771755 -0.00485741 0.0935915 -0.0391352 0.0126416 -0.121773 -0.000342696 0.0765109 -0.030503 0.00198718 0.0264766 0.0282349 0.0679546 -0.0363711 0.0127602 0.0330693 -0.027115 -0.0419183 0.00341624 -0.0757406 0.0407586 0.0175879 -0.0560031 0.0417956 -0.00785402 -0.0325236 0.0649053 -0.0113837 -0.0987603 -0.0841034 -0.0995141 -0.0369433 0.00547415 0.101967 0.0657662 -0.0691745 -0.0143198 0.0314074 -0.0694401 -0.0334451 0.0044725 0.0838498 0.0433655 -0.101785 0.0131294 -0.00238083 0.0195122
20001 -0.062307 0.0351945 0.029476 0.0186781 0.0161392 0.0539668 -0.0824226 0.0191107 -0.0697332 -0.0273264 0.0749572 -0.0191356 0.00282239 0.0322464 0.0400396 0.0381653 -0.0841281 0.00757158 0.0537239 -0.0692934 -0.0989548 0.0279608 -0.115669 0.0839353 0.0430954 -0.0927372 0.0638813 -0.0288917 -0.00519635 0.117881 0.0016472 -0.105246 -0.137206 -0.141298 -0.049601 0.0153675 0.15392 0.102252 -0.0984626 -0.00590405 0.0255231 -0.15527 -0.0350915 0.00277268 0.133012 0.0924286 -0.120233 0.0173416 -0.0392795 0.0541831
6199 -0.107985 0.0688028 0.0119904 0.0149465 -0.0158742 0.144873 -0.0721293 0.0224158 -0.172891 -0.0312297 0.121181 -0.0480993 0.0137921 0.0533522 0.0623977 0.0933522 -0.101848 0.0161704 0.0663492 -0.0663725 -0.117384 0.00487383 -0.13261 0.081579 0.0305995 -0.116926 0.0761172 -0.0274589 -0.0239598 0.133867 -0.00933199 -0.169142 -0.18531 -0.184798 -0.0701779 0.00431706 0.200109 0.136462 -0.15431 -0.0167068 0.0446172 -0.164248 -0.0624439 0.0213798 0.175931 0.111775 -0.196703 0.0211925 -0.0210064 0.0592747
7122 -0.0469126 0.0231341 0.00108946 -0.00661135 -0.0113831 0.0873083 -0.0264349 0.0204248 -0.102108 -0.0104417 0.0548946 -0.0388282 0.0111155 0.0219028 0.0284393 0.0490345 -0.02853 0.00916711 0.0305888 -0.0220485 -0.0421348 -0.00526255 -0.065228 0.0278642 0.00276633 -0.0477411 0.0337479 -0.0167593 -0.0262859 0.0610816 -0.0157327 -0.0835038 -0.0800228 -0.0738481 -0.0418118 -0.000175882 0.0806757 0.0591408 -0.0632929 -0.0194556 0.0234938 -0.0490941 -0.0332848 0.0192762 0.0772949 0.0411716 -0.0893976 0.0102245 0.00295016 0.0179665
504 -0.0682712 0.035904 0.0136284 0.0150396 -0.0031049 0.0670445 -0.0674665 0.0286712 -0.0702131 -0.0214445 0.0836664 -0.0138406 0.0046507 0.0230252 0.0532793 0.0419831 -0.090974 0.0167375 0.0374539 -0.0619544 -0.087135 0.0247311 -0.106254 0.0719499 0.0211028 -0.0839195 0.0486814 -0.0255624 -0.0125298 0.100917 -0.0031419 -0.0938863 -0.118243 -0.127735 -0.0348786 0.00123841 0.123642 0.0805381 -0.0983431 0.00424365 0.0151758 -0.122021 -0.0477194 -0.000723918 0.107306 0.0683503 -0.115417 0.00783759 -0.0406531 0.0553817
8183 -0.132616 0.0849896 -0.0265531 -0.0457461 -0.0622464 0.320734 0.0324431 0.0210763 -0.443523 0.0339395 0.158033 -0.145045 -0.00166058 0.106424 0.0707143 0.250016 0.0649519 0.0327255 0.0528563 0.0392401 0.0384932 -0.0796333 -0.0292666 -0.0660462 -0.0325053 0.00487205 0.0396033 -0.0196139 -0.125063 0.0235154 -0.0518969 -0.215671 -0.0833032 -0.101715 -0.073794 -0.0185221 0.130774 0.104896 -0.0741441 -0.0833291 0.0992634 0.052055 -0.0723567 0.0375329 0.0477834 0.0235093 -0.193928 0.0123081 0.0978886 -0.0827555
166 -0.119245 0.0921115 -0.0165795 -0.058145 -0.0592478 0.336146 0.0354374 0.0180415 -0.472654 0.0201685 0.163049 -0.151587 0.000306252 0.113149 0.0649748 0.264067 0.0669069 0.0354057 0.0539297 0.0394414 0.0273446 -0.088279 -0.0343722 -0.0494397 -0.0287141 -0.00252494 0.0449006 -0.0326372 -0.123469 0.0341282 -0.0464646 -0.233102 -0.0815043 -0.0982495 -0.0926229 -0.00859313 0.12239 0.101355 -0.0972408 -0.0731023 0.0877055 0.0442221 -0.0747396 0.040632 0.0434277 0.0322053 -0.198289 -0.00466232 0.0891343 -0.0677895
343 -0.0590458 0.0302869 -0.00819527 -0.00218342 -0.0069556 0.10829 -0.0111651 0.00855343 -0.154372 -0.00926943 0.0733446 -0.0470498 0.00189314 0.043766 0.0374965 0.0819519 -0.0117715 0.016679 0.0412872 -0.0227863 -0.0215245 -0.0248254 -0.0397223 0.00413771 -0.00735931 -0.0277408 0.0248699 -0.00510303 -0.0410463 0.0303125 -0.0245109 -0.0806306 -0.0561997 -0.0655799 -0.0393656 -0.00965462 0.082606 0.0527717 -0.0583645 -0.0252614 0.0395939 -0.027678 -0.028571 0.014406 0.0657245 0.0348587 -0.0828948 0.0149775 0.0214297 -0.00353884
1036 -0.0296057 -0.000130486 0.0127356 0.0349903 0.0234792 -0.0345909 -0.0639211 0.00433 0.0589322 -0.0238885 0.0195628 0.0334394 0.0170186 -0.0151884 0.032 -0.0392923 -0.0833519 0.00354647 0.020407 -0.0661541 -0.0797581 0.0399772 -0.0877354 0.0797206 0.0280875 -0.0700206 0.0349381 -0.00655376 0.0377343 0.0744752 0.018672 -0.0302735 -0.0943899 -0.0903394 -0.00660356 0.0150991 0.0889103 0.0478751 -0.0718238 0.010193 -0.00400652 -0.113361 -0.0180765 -0.0106938 0.0834827 0.0612115 -0.0498202 0.007199 -0.0544545 0.0710088
3056 -0.135428 0.101447 -0.0259314 -0.0464499 -0.0735085 0.329622 0.0398468 0.01339 -0.474471 0.0280568 0.163524 -0.150722 -0.00520333 0.123664 0.0727455 0.25972 0.0746702 0.0154424 0.0554356 0.0413207 0.0238797 -0.093844 -0.0291771 -0.0544006 -0.0312179 -0.016567 0.0603216 -0.0336305 -0.122474 0.0396991 -0.0633362 -0.223768 -0.0980702 -0.131615 -0.0964896 -0.017014 0.146183 0.105871 -0.103963 -0.0783927 0.108589 0.0332948 -0.0839496 0.0572455 0.0756206 0.0557014 -0.234585 0.00789373 0.101836 -0.0790622
10920 -0.139351 0.11069 -0.0348328 -0.0516639 -0.0635187 0.357251 0.034255 0.016681 -0.502212 0.0206247 0.159579 -0.159547 -0.00487012 0.111099 0.0682666 0.270875 0.0793494 0.0154649 0.0613388 0.0404559 0.0428771 -0.100609 -0.0229769 -0.0610484 -0.0290042 -0.0163543 0.0655072 -0.0389193 -0.125448 0.0458871 -0.0694586 -0.240516 -0.115579 -0.129932 -0.106645 -0.00966641 0.167424 0.132806 -0.112244 -0.0747977 0.10615 0.0343538 -0.0809143 0.0487583 0.0784738 0.0565175 -0.246202 0.0177078 0.110897 -0.084072
7893 -0.0610515 0.0302575 0.00975905 0.0154557 0.00824271 0.0460463 -0.0528787 0.0106737 -0.0609786 -0.0165764 0.0680801 -0.00554869 0.0120916 0.0175285 0.0456823 0.038967 -0.0758935 0.0178937 0.0354057 -0.0635305 -0.0829072 0.0154677 -0.0963207 0.0728273 0.0296334 -0.0926213 0.0420202 -0.0177641 0.0075835 0.0892384 0.00365872 -0.0805491 -0.108732 -0.117549 -0.0388201 0.00171568 0.12513 0.086827 -0.0856532 0.00805382 0.014642 -0.129836 -0.033319 0.00733297 0.119494 0.0821997 -0.103051 0.016544 -0.0287591 0.0455307
6056 -0.130559 0.0825647 -0.0281637 -0.0613406 -0.0759387 0.345015 0.0665595 0.00575782 -0.483565 0.0300504 0.16292 -0.175092 0.0014045 0.12377 0.0660394 0.287367 0.0920827 0.0194277 0.0614676 0.0459073 0.0503567 -0.100533 -0.0198968 -0.0782677 -0.0229633 0.00826802 0.0548619 -0.0319131 -0.129746 0.0148551 -0.0561045 -0.23414 -0.0780751 -0.101393 -0.0915193 -0.018922 0.13917 0.118287 -0.0903777 -0.0793547 0.110393 0.069726 -0.0751324 0.0655667 0.0372383 0.0105439 -0.218401 0.00214718 0.108709 -0.0874468
8177 -0.141325 0.103212 -0.0193878 -0.0557528 -0.0633748 0.343315 0.0346565 0.0219107 -0.472382 0.0269174 0.162154 -0.155186 -0.00371183 0.112465 0.0653163 0.260539 0.0726393 0.0370899 0.0529135 0.027974 0.0269295 -0.0920088 -0.0313987 -0.0622907 -0.0231113 -0.0296793 0.0558086 -0.0407347 -0.135124 0.033916 -0.0667764 -0.240584 -0.108972 -0.148204 -0.103839 -0.0252027 0.164119 0.124531 -0.0962324 -0.0875741 0.108578 0.029588 -0.0741471 0.051507 0.0862209 0.046516 -0.232018 0.0120074 0.0955321 -0.0671649
1472 -0.15131 0.100557 -0.0186466 -0.0696159 -0.0670073 0.360492 0.0401148 0.021369 -0.512214 0.0317887 0.177227 -0.177648 -0.00403243 0.119028 0.0744063 0.301103 0.0969947 0.0279002 0.0591677 0.0454136 0.0534004 -0.108531 -0.0354611 -0.0689508 -0.0278463 -0.0260204 0.0754564 -0.0304062 -0.135329 0.0432207 -0.0708898 -0.274064 -0.125353 -0.150722 -0.0986051 -0.0212597 0.171212 0.126861 -0.111018 -0.0817364 0.105138 0.0278806 -0.0943344 0.0498608 0.10155 0.0563525 -0.26916 0.00451172 0.121991 -0.0962109
6109 -0.13892 0.084258 -0.0172062 -0.0504493 -0.0768263 0.351404 0.0446941 0.0146276 -0.475641 0.0291479 0.150727 -0.16095 0.00115903 0.112804 0.0655568 0.281522 0.0957071 0.0259729 0.0460298 0.0462307 0.038793 -0.0890487 -0.030209 -0.0594773 -0.018056 -0.0123842 0.0613387 -0.0242886 -0.140188 0.0438852 -0.0702655 -0.247476 -0.101603 -0.135318 -0.0944053 -0.0226288 0.148396 0.1147 -0.109365 -0.0727555 0.0972749 0.0423748 -0.0852372 0.0494799 0.0812584 0.0395472 -0.249985 0.0199495 0.10634 -0.0809684
6825 -0.0536788 0.0224272 0.0212814 0.0302839 0.0127127 0.0180837 -0.0769337 0.023516 -0.00632835 -0.0326147 0.0574697 0.00565309 0.0202952 0.00146156 0.0433882 0.00935951 -0.100337 -0.00112863 0.0469728 -0.0786712 -0.0939487 0.0327228 -0.107151 0.079126 0.0362774 -0.0995255 0.0349939 -0.0240719 0.0252215 0.0994037 0.00332712 -0.0545938 -0.120452 -0.110701 -0.0343696 0.00167848 0.124114 0.091647 -0.08327 0.00291088 0.00272218 -0.149874 -0.0319457 -0.0122041 0.132991 0.0869179 -0.0910918 0.0156904 -0.0547217 0.0580341
2048 -0.053646 0.0369486 -0.00236023 -0.00368475 -0.019698 0.10202 -0.00931749 0.00108436 -0.130696 -0.00898145 0.071685 -0.0480849 0.00454913 0.0442123 0.0282355 0.0764903 -0.0148168 0.00240203 0.0377818 -0.0140032 -0.0288252 -0.0182208 -0.0375857 0.00294765 0.0026555 -0.0385825 0.0403298 -0.00761965 -0.0327597 0.0444786 -0.0131257 -0.0797733 -0.0732145 -0.081505 -0.0362761 -0.00327279 0.0786571 0.0560595 -0.0493796 -0.0145143 0.0340285 -0.0467597 -0.0267823 0.0185997 0.0698698 0.0440279 -0.0922579 0.0117971 0.00576028 0.00421872
3572 -0.0410838 0.0158178 0.0227909 0.0270759 0.00765744 0.0170389 -0.0647346 0.0117689 -0.0233511 -0.0275709 0.0472776 -0.00432052 0.0111438 0.0157634 0.0243643 0.00546474 -0.066662 -0.000178842 0.0249849 -0.0547548 -0.0624546 0.0191358 -0.0872141 0.0679018 0.0396938 -0.0736401 0.0383229 -0.0104795 0.0134503 0.0876455 0.00932028 -0.0591096 -0.0984861 -0.112795 -0.0205132 0.0158436 0.103011 0.0791522 -0.0813376 0.00641575 0.0118301 -0.125497 -0.0424789 -0.00471242 0.113944 0.0771935 -0.0859607 0.0205126 -0.0486337 0.047019
8242 -0.0856735 0.043142 0.0156583 0.0124041 -0.00274532 0.0893078 -0.0808766 0.0323115 -0.0890904 -0.0253058 0.0897419 -0.0180976 0.00405082 0.0344775 0.0425518 0.0610219 -0.0963696 0.00746946 0.0590549 -0.0608639 -0.0866515 0.0185369 -0.115885 0.0756078 0.0259627 -0.101776 0.0601342 -0.0203244 -0.00264218 0.129793 -0.0149114 -0.130741 -0.148478 -0.153374 -0.0519378 0.00352188 0.159663 0.107375 -0.121596 -0.00208496 0.02358 -0.14902 -0.0550052 0.0163521 0.151133 0.0944908 -0.150121 0.0187075 -0.0299645 0.0609806
3680 -0.0926374 0.0653185 -0.0201754 -0.0369698 -0.0508328 0.219054 0.0327633 0.00121522 -0.308871 0.0247189 0.113681 -0.101595 -0.00674553 0.0797459 0.0454352 0.16731 0.0596902 0.00798807 0.0433327 0.0261589 0.0208739 -0.0578376 -0.0223006 -0.0408957 -0.0283028 0.0108403 0.0239943 -0.00935715 -0.0724148 0.0225778 -0.0335789 -0.153135 -0.0557341 -0.0639345 -0.0608472 -0.0188003 0.0926321 0.0775907 -0.062254 -0.0451927 0.0542743 0.0333336 -0.056065 0.0249642 0.0320651 0.0144173 -0.124709 0.013582 0.0728939 -0.0647999
3735 -0.112548 0.0720396 -0.00892261 -0.00831871 -0.0290345 0.206655 -0.0168696 0.00897272 -0.278057 0.00822681 0.126641 -0.0864611 -0.000959584 0.0649993 0.0582822 0.161813 0.00152383 0.0104985 0.0597594 -0.0228587 -0.0272198 -0.0412588 -0.074437 0.00239082 0.000242556 -0.0542769 0.058924 -0.0259286 -0.0672782 0.0793304 -0.0256913 -0.177563 -0.11181 -0.137986 -0.0688138 -9.55207e-05 0.166332 0.113916 -0.111373 -0.0451695 0.0631335 -0.0568988 -0.0556492 0.0308187 0.107381 0.0648107 -0.177644 0.00728108 0.0275784 -0.0163006
7171 -0.0557382 0.0225769 -0.0057137 0.000957781 -0.00463024 0.0807176 -0.0192248 0.0192545 -0.123848 -0.000818652 0.0629188 -0.0339928 0.00591071 0.0218021 0.036589 0.0628629 -0.0141407 0.0161209 0.0359271 -0.0142531 -0.0398464 -0.00354045 -0.0520342 0.0297358 0.00710256 -0.0494064 0.0372509 -0.0170472 -0.0198274 0.0528934 -0.00972629 -0.0879658 -0.070466 -0.0758315 -0.025759 -0.00412267 0.0805669 0.0582275 -0.0569439 -0.0227103 0.0254052 -0.0465717 -0.0363144 0.0190001 0.0595493 0.040089 -0.07798 0.0116472 0.000478086 0.00564336
45 -0.0652791 0.0228501 0.0158217 0.0149174 0.0145197 0.0350817 -0.0711481 0.0122387 -0.0216553 -0.0158883 0.0591312 0.00704156 0.012238 0.0198164 0.0455955 0.0208804 -0.0954494 0.00389724 0.0526366 -0.0688494 -0.0924817 0.033212 -0.10569 0.0796007 0.0313157 -0.104187 0.0475158 -0.0189863 0.0136995 0.101219 0.00275979 -0.071406 -0.120369 -0.128169 -0.0321735 0.0107948 0.136732 0.083118 -0.0949514 -0.000957502 0.0145913 -0.140383 -0.0402081 -0.00877524 0.111725 0.068688 -0.0971837 0.00690109 -0.0391419 0.0642036
16432 -0.120384 0.0792794 -0.00638735 -0.0277153 -0.0451431 0.234154 -0.0124632 0.0126708 -0.329118 0.00410237 0.146417 -0.107165 0.000563833 0.08682 0.0661031 0.177384 0.0186244 0.0180359 0.0572085 -0.0141039 -0.0141007 -0.0544794 -0.0772797 -0.00146471 0.00376549 -0.0539973 0.0684791 -0.0272504 -0.0871271 0.0652268 -0.0338583 -0.186999 -0.129496 -0.149577 -0.0820891 -0.0102413 0.172438 0.117965 -0.10944 -0.049467 0.0624893 -0.0352276 -0.0734026 0.0431193 0.102759 0.0629986 -0.202683 0.0118178 0.0364967 -0.0208171
13784 -0.0482648 0.0291635 0.006602 0.00682697 0.00533982 0.0588029 -0.0497503 0.0231808 -0.0803302 -0.00638276 0.0719926 -0.0127324 0.0163286 0.017406 0.0446829 0.0374716 -0.0450078 0.00866896 0.027085 -0.0360177 -0.0482493 0.0133926 -0.0769766 0.0408967 0.0242775 -0.0583178 0.0349969 -0.0148065 -0.00016197 0.067978 0.0032476 -0.0751751 -0.091206 -0.0794885 -0.0397882 0.011468 0.093037 0.0703843 -0.0687727 -0.00814929 0.00919657 -0.0906081 -0.0338334 0.011075 0.0865976 0.0600213 -0.0822899 0.00233213 -0.0237449 0.0220958
3398 -0.126489 0.0951007 -0.0257063 -0.0612863 -0.0535421 0.309195 0.0415069 0.0101839 -0.428084 0.0365985 0.148173 -0.148328 -0.00568129 0.0968324 0.0480148 0.246344 0.0734752 0.0234456 0.0432135 0.0392773 0.0468187 -0.0826622 -0.0219865 -0.0634251 -0.0170061 0.00410714 0.0405539 -0.0224275 -0.120108 0.0123019 -0.0472357 -0.221139 -0.0799476 -0.104242 -0.0676416 -0.0168772 0.108854 0.094122 -0.0828074 -0.0743132 0.0872554 0.0466203 -0.0592045 0.0470501 0.0364742 0.0190434 -0.182186 0.00247323 0.097591 -0.0808718
2702 -0.141241 0.115824 -0.0204643 -0.0683121 -0.0689954 0.385307 0.0549833 0.0131845 -0.541683 0.0448645 0.1928 -0.189806 0.0038724 0.134377 0.0585259 0.309552 0.111125 0.0332291 0.052712 0.0349912 0.062166 -0.0996464 -0.0381716 -0.0836212 -0.0289688 0.0127124 0.0454915 -0.0386601 -0.153268 0.0254781 -0.0595612 -0.25185 -0.0889592 -0.120645 -0.0981742 -0.0149317 0.153127 0.117043 -0.0903719 -0.0923877 0.106406 0.0470372 -0.0848342 0.0607908 0.0565537 0.0335707 -0.264463 -0.00161414 0.115266 -0.0976061
14022 -0.0607589 0.0571927 -0.0201628 -0.0263555 -0.0337448 0.190073 0.0319386 0.0119416 -0.251571 0.0290081 0.0788213 -0.0796102 -0.00719451 0.0715815 0.0243946 0.141667 0.0508816 0.00473776 0.0228455 0.0378874 0.0305015 -0.046145 0.00482873 -0.0580629 -0.0213819 0.0210394 0.0279245 -0.00596165 -0.081456 -0.0070891 -0.0268364 -0.130676 -0.0383852 -0.0450495 -0.0510091 -0.0177535 0.0618929 0.0492781 -0.0366963 -0.0527225 0.0558475 0.0444967 -0.0458882 0.0273662 0.00955248 0.013588 -0.118148 0.00195764 0.0733362 -0.05152
12658 -0.0702087 0.0475752 -0.0176276 -0.0278934 -0.0231874 0.153208 0.00815832 0.00397766 -0.213202 0.0125982 0.0779786 -0.0615005 0.0094965 0.0614888 0.0433224 0.125413 0.0230688 0.0061282 0.0246024 0.00359688 0.00610954 -0.0314012 -0.0258417 -0.0153464 -0.0108977 -0.00441455 0.0242793 -0.016879 -0.0613696 0.0201952 -0.0275861 -0.103157 -0.0526381 -0.0576343 -0.0483394 -0.0114442 0.0726481 0.0537501 -0.0562969 -0.0360104 0.0374444 0.0109892 -0.0350577 0.0221458 0.0458864 0.0284758 -0.105647 0.00466337 0.041999 -0.0354007
1953 -0.0998356 0.0583825 0.0235594 0.0302867 0.0098702 0.0868178 -0.0945582 0.0201858 -0.104902 -0.0349123 0.0876905 -0.0226831 0.00623834 0.0309334 0.066187 0.0591093 -0.0998641 0.00827408 0.0619789 -0.0647157 -0.0965724 0.0260954 -0.134985 0.100407 0.0321262 -0.113983 0.0740808 -0.0213381 0.000375568 0.12962 -0.012954 -0.13083 -0.176492 -0.177282 -0.0536991 0.0148833 0.180202 0.120328 -0.131248 -0.00508457 0.0305385 -0.17789 -0.0547217 0.016062 0.175145 0.111353 -0.153256 0.0183738 -0.0394446 0.0617084
6519 -0.0402455 0.0337917 -0.00287297 -0.00623213 -0.00402991 0.0661253 -0.0249439 0.0116645 -0.0908428 -0.00961687 0.0430153 -0.0173691 -0.00228333 0.0289297 0.027751 0.0409472 -0.00705233 0.00657583 0.0177398 -0.0152144 -0.0243946 -0.00935903 -0.0397672 0.00734967 0.00670451 -0.0226347 0.0190443 -0.00411879 -0.0103623 0.0387023 -0.00882308 -0.0664458 -0.0445328 -0.0521529 -0.0333087 0.00113936 0.0634652 0.0536752 -0.0365171 -0.0125509 0.0135595 -0.0414534 -0.0295731 0.0168082 0.0488777 0.0212635 -0.0682104 0.0136972 -0.00279841 0.0130026
19080 -0.0993961 0.0544172 0.0200786 0.0132422 0.00409523 0.117606 -0.0954165 0.0285299 -0.142712 -0.0222946 0.109608 -0.0332583 0.00566497 0.0359499 0.0786311 0.0797408 -0.111631 0.00744484 0.0769492 -0.0912391 -0.127043 0.0146561 -0.157995 0.093967 0.0353034 -0.124474 0.0805176 -0.0258758 -0.00515381 0.161527 0.00152767 -0.163847 -0.188201 -0.189314 -0.0611429 0.00500288 0.219021 0.14344 -0.153365 -0.00974051 0.0328742 -0.184746 -0.073422 0.0194415 0.176385 0.117121 -0.177197 0.0116594 -0.0505733 0.0572393
7887 -0.0749558 0.0499145 -0.0151479 -0.0388634 -0.0354663 0.206994 0.0293574 -0.00062926 -0.28952 0.0202628 0.0946111 -0.103747 0.000544519 0.0626182 0.036353 0.174022 0.0477861 0.0174658 0.0325069 0.018256 0.0226139 -0.0524368 -0.00634357 -0.0426309 -0.0331577 0.0214167 0.0227577 -0.0220406 -0.0686569 -0.00867875 -0.0283564 -0.13089 -0.0194927 -0.0303012 -0.0506264 -0.0181974 0.0543617 0.0440036 -0.0500711 -0.0424554 0.0519634 0.0619334 -0.0277788 0.03654 0.00847251 -0.00016056 -0.117228 0.00298479 0.0813288 -0.0569016
388 -0.170002 0.109121 -0.00437857 -0.0251857 -0.048326 0.341381 -0.0242968 0.0177132 -0.454134 0.00304327 0.170063 -0.150512 0.0113372 0.107479 0.0809622 0.248119 -0.00213366 0.0246773 0.0773176 -0.00722452 -0.0423051 -0.0602023 -0.118478 0.00964489 0.0131666 -0.0823297 0.089081 -0.0363686 -0.114868 0.113339 -0.0443628 -0.283263 -0.186421 -0.214679 -0.102985 -0.0161801 0.243077 0.174835 -0.147308 -0.0676096 0.109852 -0.0799079 -0.10858 0.0434216 0.161608 0.102419 -0.293487 0.0210372 0.051229 -0.031265
609 -0.0235466 0.0242683 0.0094692 0.0168964 0.00936818 0.008556 -0.0542311 0.00602494 -0.0048905 -0.0128785 0.0221843 -0.00138812 0.0106373 -0.0011749 0.012721 0.000528321 -0.0540055 0.0117615 0.0146135 -0.0352427 -0.0678514 0.0200492 -0.07711 0.0586636 0.0142572 -0.069514 0.0381473 -0.0165789 0.00151362 0.0736999 0.00952015 -0.0395597 -0.0767783 -0.0869098 -0.0129813 0.00990313 0.0826878 0.0627155 -0.0579659 0.0068351 0.010227 -0.091685 -0.0278201 0.00797482 0.0955602 0.0605581 -0.0591896 0.00716119 -0.0392441 0.0504032
6411 -0.106466 0.0746066 -0.0286533 -0.0507755 -0.0502207 0.287157 0.0451924 0.017 -0.416324 0.0411436 0.128128 -0.134921 -0.0112806 0.103523 0.0500067 0.234004 0.107417 0.0285428 0.0359879 0.0548569 0.0659407 -0.0896307 -0.0115014 -0.0737809 -0.0373113 0.014094 0.039843 -0.0248395 -0.122979 0.00398118 -0.0628903 -0.204036 -0.0609102 -0.0896505 -0.0872775 -0.018163 0.112913 0.0861142 -0.0642446 -0.0743067 0.0977585 0.0488028 -0.0601965 0.0458844 0.0530221 0.0353531 -0.206013 -0.000536773 0.0951457 -0.093343
3657 -0.13055 0.100745 -0.0230738 -0.0565016 -0.0778916 0.370356 0.0502564 0.019519 -0.52337 0.0360992 0.177465 -0.165735 0.0023337 0.129989 0.0708513 0.299655 0.107474 0.0324434 0.0529072 0.0580354 0.0540206 -0.103543 -0.0323906 -0.0806724 -0.0269131 -0.000590366 0.0609916 -0.0267635 -0.131589 0.031537 -0.0719206 -0.248769 -0.0850818 -0.114156 -0.105717 -0.0185611 0.136002 0.123947 -0.0979291 -0.0745125 0.106124 0.0578431 -0.0796885 0.0597762 0.0767284 0.0524414 -0.252793 0.0178053 0.112809 -0.0864022
4463 -0.149771 0.0851912 0.0141557 0.0143558 -0.0209996 0.207836 -0.0826307 0.0428591 -0.273668 -0.0228368 0.169287 -0.0709208 0.0198248 0.0838547 0.100023 0.166115 -0.113667 0.0219725 0.0881934 -0.0809559 -0.129287 -0.0080736 -0.193262 0.109742 0.0507646 -0.169781 0.105919 -0.0383844 -0.057184 0.187652 -0.0272121 -0.242773 -0.258511 -0.261904 -0.106535 0.000341485 0.286979 0.201119 -0.207376 -0.0233168 0.0607154 -0.196244 -0.0977379 0.0234684 0.225183 0.144609 -0.271162 0.0148958 -0.030871 0.0617454
7826 -0.0680306 0.0409799 0.0280076 0.0230289 -0.00440772 0.0720389 -0.0653917 0.0213647 -0.0716655 -0.0192687 0.0677268 -0.0180993 0.0122815 0.0276996 0.037463 0.0339436 -0.0934703 0.0141834 0.0583064 -0.0625135 -0.0887084 0.0196979 -0.109542 0.0677339 0.0323379 -0.101965 0.0620102 -0.0169113 -0.0109777 0.110121 -0.00107072 -0.10308 -0.136958 -0.145258 -0.0445674 -0.00373054 0.147545 0.106797 -0.110898 -0.00699677 0.0185157 -0.138834 -0.0536866 0.0119041 0.122445 0.0926754 -0.132723 0.017054 -0.0336693 0.0487793
6119 -0.056447 0.0385011 -0.00173525 -0.016776 -0.0147151 0.104022 0.00136977 0.005811 -0.135176 0.0106087 0.0657742 -0.0471882 -0.00162948 0.0288118 0.0241371 0.0834765 -0.0129628 0.00547118 0.0251829 -0.00879264 -0.0214712 -0.0160679 -0.032414 -0.00610774 -0.00330733 -0.0223403 0.0208293 -0.00948106 -0.037643 0.0355947 -0.00645701 -0.0860874 -0.0446111 -0.0496698 -0.0393114 0.000184285 0.0673298 0.0371005 -0.0577407 -0.0111511 0.0241393 -0.0193431 -0.0317065 0.0120528 0.0313761 0.0245497 -0.0742856 0.0103792 0.0222381 -0.00396584
6967 -0.0412892 0.0234055 0.0199739 0.0296443 0.0255514 -0.0150414 -0.0896077 0.00966331 0.0375737 -0.0270383 0.0353505 0.0282315 0.00977302 -0.00319797 0.029422 -0.00926551 -0.110976 0.0124995 0.029613 -0.0682378 -0.0952352 0.042377 -0.0917416 0.0832281 0.0429299 -0.0896228 0.0371898 -0.0224924 0.0218201 0.0907091 0.00525886 -0.0410407 -0.105523 -0.114259 -0.0155075 0.0174312 0.118372 0.070554 -0.0804758 0.0271953 -0.00144869 -0.14227 -0.0225861 -0.0041323 0.117548 0.0614574 -0.0594442 0.0141667 -0.0544496 0.0660195
4919 -0.0986846 0.0668259 -0.00631451 -0.003007 -0.0189882 0.177802 -0.0315593 0.0101351 -0.248844 0.000557539 0.12595 -0.081524 0.0014044 0.0683345 0.0531984 0.134563 -0.043975 0.0281393 0.0664271 -0.0314293 -0.0448855 -0.0202779 -0.0794655 0.0137104 0.0125062 -0.0678784 0.0500293 -0.0259277 -0.0600466 0.104783 -0.0177869 -0.187513 -0.129163 -0.152571 -0.057874 -0.00283212 0.14799 0.105468 -0.108514 -0.0323299 0.0558573 -0.0752926 -0.0585326 0.0280447 0.108644 0.081573 -0.178022 0.0126189 0.016661 0.00280563
12833 -0.146954 0.109595 -0.025084 -0.035881 -0.0467064 0.322146 -0.00491319 0.019771 -0.457379 0.014749 0.174169 -0.14477 0.00370577 0.117183 0.0744098 0.245748 0.0428227 0.0314569 0.0607804 0.00734426 0.00147081 -0.0689721 -0.0651251 -0.0268576 -0.0115721 -0.042569 0.0607846 -0.0370905 -0.105597 0.0738195 -0.0472378 -0.248247 -0.141981 -0.160788 -0.0951429 -0.0146678 0.174428 0.122685 -0.109545 -0.0602059 0.097591 -0.00995111 -0.0772271 0.0518186 0.111345 0.0654795 -0.2389 0.0025203 0.0682813 -0.044527
3594 -0.0905957 0.0594482 -0.0067979 -0.0335213 -0.041272 0.203199 0.0166961 0.0102572 -0.271452 0.0229223 0.0970574 -0.0848205 -0.00720895 0.0731914 0.0392956 0.147943 0.0480233 0.0234748 0.0313575 0.00972214 0.013717 -0.0584175 -0.0106178 -0.031059 -0.00758251 -0.00541311 0.0375171 -0.0150212 -0.0704097 0.0174618 -0.0349922 -0.14071 -0.0615498 -0.0742432 -0.0486209 -0.00457288 0.092945 0.0722499 -0.057143 -0.0452213 0.0660554 0.0256618 -0.0440928 0.0325349 0.0392198 0.0205626 -0.123152 -0.00317734 0.0708745 -0.0614493
5613 -0.154999 0.100577 -0.0192289 -0.0491757 -0.0722585 0.369199 0.0182054 0.0192061 -0.51393 0.0241157 0.184812 -0.166887 -0.00182579 0.123305 0.0834676 0.285747 0.0655396 0.0262706 0.0757134 0.0207319 0.0251599 -0.088043 -0.0684169 -0.0294988 -0.0184737 -0.0439776 0.0746323 -0.0331141 -0.137351 0.0705548 -0.0605978 -0.279055 -0.1349 -0.176614 -0.113368 -0.0260697 0.198669 0.158945 -0.128045 -0.0698646 0.115887 0.00283444 -0.084655 0.0633293 0.105926 0.0720398 -0.254661 0.0173554 0.106269 -0.0618001
755 -0.0198635 0.0170183 0.034061 0.0374589 0.0225121 -0.0392646 -0.076868 0.0240096 0.070614 -0.0225393 0.0185641 0.0296073 0.0048254 -0.00720114 0.0133753 -0.041881 -0.104443 -0.00333916 0.0187435 -0.0645561 -0.0928084 0.0408215 -0.0824464 0.0791668 0.0379998 -0.0829314 0.0400539 -0.0101978 0.031002 0.0922242 0.011664 -0.027666 -0.0769605 -0.0757952 -0.00759814 0.00656375 0.0909741 0.0561326 -0.0583661 0.0221028 -0.0136004 -0.125316 -0.0190103 -0.00320559 0.100413 0.0596449 -0.0363182 0.0175062 -0.0567113 0.0728407
6851 -0.136622 0.1004 -0.0198228 -0.043039 -0.064622 0.322839 0.035598 0.00455616 -0.45314 0.0181813 0.156702 -0.155115 0.0094101 0.116672 0.0627504 0.258499 0.0787503 0.0206191 0.0505288 0.0204551 0.0293017 -0.0920681 -0.0341861 -0.0633276 -0.0180341 -0.0178176 0.058721 -0.0321021 -0.123547 0.0416813 -0.0604256 -0.222898 -0.0936004 -0.116978 -0.0957189 -0.0183775 0.146728 0.100866 -0.0859432 -0.0643104 0.09375 0.0486564 -0.0830859 0.0439188 0.0605467 0.0494113 -0.222934 0.00202738 0.106878 -0.0871044
1295 -0.120224 0.0836332 -0.0185713 -0.0622201 -0.0546973 0.321625 0.0422384 0.00818024 -0.464962 0.0291095 0.140056 -0.160956 -0.00740159 0.119305 0.0593118 0.269155 0.0952741 0.0284245 0.0495636 0.0311277 0.0479101 -0.0890013 -0.0364914 -0.068121 -0.0345967 0.00469817 0.0497174 -0.0375154 -0.128824 0.00902016 -0.0470947 -0.219621 -0.0713425 -0.0877695 -0.0922288 -0.0095233 0.118601 0.094553 -0.0810109 -0.0738951 0.0937378 0.0676218 -0.0776376 0.0531922 0.0477809 0.0389319 -0.206598 -0.00460313 0.1039 -0.0931857
8967 -0.0672099 0.041417 0.00961003 -0.00689088 -0.0104501 0.112608 -0.00797236 0.0107537 -0.158975 -0.00957697 0.0635698 -0.0477801 0.00345552 0.0430285 0.030296 0.0926099 -0.014841 0.0125192 0.0409862 -0.0109109 -0.0269452 -0.0143855 -0.0341523 0.00737973 0.0118693 -0.0317273 0.0240249 -0.0056594 -0.0276014 0.0330023 -0.022247 -0.084971 -0.0627798 -0.0692889 -0.0335047 0.00511802 0.0742054 0.0593669 -0.053531 -0.0285 0.0259237 -0.0311699 -0.033372 0.0192991 0.0609011 0.0368375 -0.0960696 0.00325067 0.0136373 -0.00369692
1557 -0.0641335 0.0289095 0.0267848 0.0112922 0.0102353 0.060324 -0.0690506 0.0231053 -0.0777897 -0.0301016 0.0676634 -0.00395735 0.00412136 0.023601 0.0375593 0.0413228 -0.0816421 0.0112221 0.053685 -0.0693216 -0.0899549 0.0218629 -0.112243 0.0653447 0.0366795 -0.0946531 0.0517909 -0.0200566 0.00199267 0.108957 -0.00903819 -0.100985 -0.13071 -0.127249 -0.0376038 0.00676898 0.146664 0.0957795 -0.112525 0.00974172 0.0305802 -0.132136 -0.0429081 0.00731208 0.132107 0.0774012 -0.120212 0.0181951 -0.0285299 0.0551171
23111 -0.063176 0.0460275 -0.0219026 -0.0431713 -0.0330226 0.186038 0.0425691 -0.00469526 -0.266158 0.0306992 0.0796925 -0.0896798 -0.00152909 0.0610804 0.0345493 0.16425 0.0566061 0.0123665 0.0323373 0.0328249 0.0237114 -0.0513401 -0.015497 -0.0364418 -0.0275631 0.0161711 0.0363883 -0.0211726 -0.0670767 0.00245985 -0.0334387 -0.134338 -0.0323358 -0.0539474 -0.0451128 -0.018934 0.0651091 0.0473878 -0.0443752 -0.0508892 0.0622142 0.041643 -0.0455155 0.0278339 0.0282369 0.0251092 -0.117853 0.00969642 0.0676607 -0.0607393
3300 -0.18016 0.129503 -0.0224466 -0.0617507 -0.085928 0.439106 0.03064 0.0275904 -0.592979 0.0238192 0.205813 -0.191089 -0.00457281 0.147323 0.097283 0.326527 0.0714888 0.0300842 0.083087 0.0280037 0.015025 -0.0953193 -0.0825172 -0.0537837 -0.0229067 -0.0319781 0.0895065 -0.0396326 -0.15425 0.0799201 -0.0615781 -0.323177 -0.151627 -0.199874 -0.126736 -0.0207645 0.225406 0.175417 -0.135744 -0.0950633 0.132235 0.00680919 -0.110949 0.0666365 0.121873 0.0802064 -0.315567 0.00767935 0.107036 -0.0875004
5439 -0.0361827 0.0150071 0.0231433 0.0312065 0.00524661 0.00459264 -0.0623592 0.00711045 0.0166353 -0.0173518 0.041471 0.0068536 0.00352832 -0.0013804 0.0357969 -0.00315527 -0.0758159 -0.00501758 0.0295738 -0.0502837 -0.0854355 0.0368532 -0.105267 0.0754861 0.0288078 -0.0896057 0.0392026 -0.0185054 0.0136478 0.100068 0.000368607 -0.0600263 -0.106363 -0.121413 -0.026178 0.00670387 0.125652 0.0716799 -0.0910313 0.0149074 0.0151286 -0.136697 -0.0424021 0.00131751 0.128755 0.0877166 -0.0859643 0.0180352 -0.0548984 0.0709708
8252 -0.0607665 0.0321845 0.00958856 0.0225312 0.00276703 0.0721231 -0.0567415 0.0257866 -0.0652443 -0.021761 0.062077 -0.015751 0.0113007 0.0154067 0.0467336 0.0447711 -0.0591437 0.00968285 0.0423026 -0.0606923 -0.0784825 0.00116607 -0.09 0.0513681 0.0147608 -0.0768205 0.0387643 -0.0182169 -0.0133269 0.0862728 -0.0104999 -0.0719068 -0.10904 -0.105799 -0.0457326 -0.00054329 0.131197 0.0850155 -0.0784708 -0.00406856 0.0262629 -0.0977204 -0.040421 0.015029 0.1075 0.0690992 -0.092634 0.0108097 -0.0237398 0.0399272
10680 -0.0374006 0.00890887 0.0091324 0.0205975 0.00169142 0.00893091 -0.0480712 0.0224204 0.00109491 -0.0166436 0.025299 0.00203109 0.0128348 -7.37604e-05 0.016782 0.00452152 -0.0673638 0.00145662 0.0347119 -0.0402525 -0.0639104 0.0200055 -0.0586977 0.0584158 0.018737 -0.0570154 0.0277909 -0.00841246 0.0122272 0.0630246 0.00742586 -0.0398406 -0.0785655 -0.081598 -0.0117176 0.0154191 0.0986048 0.0671559 -0.0646635 0.0124478 0.00520202 -0.114545 -0.027324 -0.00248486 0.0814203 0.0634569 -0.0522962 0.017385 -0.0347008 0.0545646
15461 -0.123618 0.0778283 -0.00705842 -0.0119055 -0.041133 0.225612 -0.0282376 0.0124357 -0.292971 0.00956668 0.120314 -0.0923798 0.00922461 0.0838921 0.0530808 0.157517 0.000815029 0.0140321 0.0519595 -0.0080624 -0.0262471 -0.0435109 -0.0776125 0.00541826 -0.00175969 -0.0609449 0.0587421 -0.0219366 -0.0683923 0.0790638 -0.0326024 -0.197263 -0.125303 -0.144389 -0.0665448 -0.0083176 0.181959 0.129381 -0.126944 -0.0441038 0.0675876 -0.0697726 -0.05901 0.0244669 0.113194 0.0645918 -0.194031 0.0210514 0.0213815 -0.00275888
15713 -0.140573 0.0775639 0.0158396 0.0115741 -0.00936116 0.193612 -0.0792071 0.0240576 -0.252637 -0.016728 0.146553 -0.0791402 0.0126561 0.0698191 0.0760509 0.141325 -0.0843613 0.0187983 0.0907498 -0.0715188 -0.099807 -0.00397667 -0.155975 0.0703196 0.0256612 -0.127184 0.0842109 -0.0407913 -0.0403257 0.153217 -0.0325952 -0.200122 -0.208808 -0.214527 -0.0931138 -0.00295721 0.242906 0.168337 -0.163062 -0.0213723 0.0632392 -0.175906 -0.0876303 0.0135123 0.19124 0.125813 -0.236693 0.0205969 -0.0106824 0.0482574
4740 -0.0502384 0.0329967 0.00402633 -0.00743571 -0.0162608 0.0815542 -0.00134217 0.00867282 -0.124031 -0.000949849 0.0652722 -0.0410178 -0.00161901 0.0326386 0.0352691 0.070606 -0.016231 0.0182122 0.0221447 -0.0158526 -0.0200742 -0.00505802 -0.0325025 0.0113829 0.00429043 -0.0239496 0.0305315 -0.0187894 -0.0245366 0.0373097 -0.020492 -0.0737984 -0.0594242 -0.06212 -0.0206537 0.000324459 0.0596049 0.0549827 -0.0440938 -0.018426 0.0191657 -0.0284597 -0.0349316 0.0158178 0.0535648 0.0187198 -0.0847955 0.0114055 0.0205122 0.00184464
19418 -0.0340002 0.0247394 0.0128475 0.0205258 0.0159701 0.00646114 -0.0658383 0.0126639 0.0136235 -0.0282636 0.0319011 0.00274023 0.00583411 0.0115657 0.030651 -0.0113799 -0.0785412 0.0122922 0.0360699 -0.0591666 -0.080661 0.0223119 -0.0995468 0.0793811 0.0360171 -0.0784629 0.0332828 -0.00917582 0.0219366 0.102603 0.0140207 -0.0517118 -0.107674 -0.113178 -0.0321029 -0.00159743 0.120485 0.0747889 -0.0849183 0.007606 -0.00555061 -0.134141 -0.036444 -0.00716725 0.0992471 0.0616532 -0.0631665 0.0146901 -0.0470387 0.0693607
988 -0.112704 0.0943708 -0.0245165 -0.0602123 -0.0637806 0.299379 0.0457184 0.000315482 -0.441549 0.0226163 0.163425 -0.137549 -0.0102097 0.112515 0.0664076 0.245671 0.0568738 0.0184388 0.0494079 0.0395525 0.0213699 -0.0911732 -0.0323569 -0.0468302 -0.0188063 -0.0075107 0.0423489 -0.0354962 -0.119994 0.0442683 -0.0619351 -0.22772 -0.0884307 -0.116034 -0.0736549 -0.0169697 0.122546 0.108509 -0.0889128 -0.0746999 0.0916679 0.0298001 -0.0843424 0.0496079 0.0718098 0.0543952 -0.225196 0.00258901 0.100283 -0.0747155
2481 -0.123772 0.0858755 -0.0306095 -0.0511185 -0.0696289 0.31697 0.0506055 0.0123232 -0.462357 0.0429183 0.157409 -0.156623 0.00078288 0.121848 0.0608187 0.25375 0.105039 0.0209268 0.048283 0.0554924 0.059989 -0.0937248 -0.0298699 -0.0722994 -0.0259677 -0.0106248 0.0577074 -0.0176314 -0.119078 0.0330389 -0.0598695 -0.218196 -0.0769503 -0.104399 -0.0897256 -0.0127228 0.153346 0.102068 -0.0832402 -0.0705801 0.0963973 0.0505714 -0.071452 0.0446914 0.0684264 0.0435904 -0.220525 -0.000119093 0.0973783 -0.0811453
15061 -0.0706404 0.0438583 -0.00595684 -0.032011 -0.0331662 0.157311 0.00978736 0.00292154 -0.214079 0.00427919 0.0832387 -0.0801885 0.00480374 0.0526467 0.0314304 0.125345 0.0379979 0.0129719 0.0379247 0.0151969 0.0209531 -0.0432702 -0.00152757 -0.0307889 -0.0133937 -0.00723724 0.0281566 -0.0188514 -0.0603599 0.0148151 -0.0332844 -0.119193 -0.0508892 -0.0522563 -0.0508155 -0.00586208 0.0731824 0.0598563 -0.046625 -0.0295144 0.0373577 0.0299669 -0.0398264 0.025466 0.033301 0.019881 -0.0981891 -0.00344926 0.048551 -0.0401899
4686 -0.145437 0.112626 -0.0138124 -0.0414441 -0.0445815 0.329621 -0.00177621 0.0156775 -0.441632 0.0153044 0.168051 -0.142805 -0.00193651 0.120128 0.0810244 0.248741 0.016955 0.0379858 0.070017 0.00175575 -0.0188475 -0.0636496 -0.0798858 -0.0262186 -0.0140011 -0.0597143 0.0723657 -0.038171 -0.109505 0.08186 -0.0475027 -0.250706 -0.137404 -0.168852 -0.0974518 -0.0221194 0.195369 0.141232 -0.141218 -0.0759554 0.0960504 -0.0270675 -0.0829819 0.0542107 0.11008 0.0699625 -0.238392 0.0156285 0.0800324 -0.0549833
14492 -0.0992734 0.0689459 -0.0310557 -0.0475353 -0.0502332 0.259728 0.0527201 0.0154507 -0.36702 0.0304174 0.117526 -0.130496 -0.010473 0.0828675 0.0318216 0.207348 0.0885146 0.0218541 0.0422562 0.0446257 0.0659729 -0.0778768 0.0106556 -0.0706923 -0.0337539 0.0125228 0.0243898 -0.0234929 -0.111165 -0.00599884 -0.0458949 -0.16269 -0.0394608 -0.0613689 -0.0553455 -0.00856487 0.0692382 0.0646375 -0.0337747 -0.0607185 0.0765647 0.0599188 -0.056537 0.0494008 0.0140974 0.0222087 -0.154298 0.0112597 0.101207 -0.076534
244 -0.093664 0.0485026 0.0209742 0.0176994 -0.000597615 0.0961828 -0.0779259 0.0263562 -0.118907 -0.014442 0.100968 -0.027697 0.0139992 0.0397262 0.0575694 0.0568324 -0.0843787 0.0170608 0.0604262 -0.0760586 -0.106183 0.0119939 -0.144982 0.0800667 0.0464988 -0.117083 0.0707952 -0.0251241 -0.00929393 0.145038 -0.0173735 -0.148284 -0.174297 -0.177031 -0.0586978 0.0016802 0.187939 0.132928 -0.141482 0.00353344 0.0417206 -0.165626 -0.0586476 0.0126307 0.158211 0.0924721 -0.176211 0.0255265 -0.0333555 0.0498428
2827 -0.163106 0.112389 -0.0263564 -0.052191 -0.0618754 0.374689 0.0293776 0.027671 -0.50461 0.0273455 0.196905 -0.172645 0.000870066 0.135049 0.0710381 0.287772 0.0567199 0.0261423 0.0771686 0.030498 0.0299479 -0.0861766 -0.0591712 -0.053312 -0.02163 -0.0355536 0.0596252 -0.0362075 -0.131077 0.0427068 -0.0590509 -0.273606 -0.129166 -0.155295 -0.104035 -0.0231233 0.179257 0.13808 -0.112645 -0.0758007 0.114455 0.0197845 -0.0962499 0.0539406 0.0855438 0.0506662 -0.245988 0.00894064 0.109207 -0.0749787
3944 -0.212166 0.148545 -0.0172291 -0.0682477 -0.0820667 0.463533 0.0206512 0.0340641 -0.619675 0.0277426 0.244289 -0.205914 0.00672918 0.15212 0.0936814 0.364519 0.0583467 0.0327416 0.09907 0.0187278 0.019669 -0.0986096 -0.0846879 -0.0436555 -0.0229706 -0.0474241 0.0907807 -0.0355115 -0.151603 0.0747772 -0.0813868 -0.337266 -0.178559 -0.225664 -0.125816 -0.0282245 0.252984 0.174291 -0.143486 -0.0842974 0.125823 -0.00616374 -0.121835 0.0703387 0.124905 0.0796195 -0.318463 0.0111898 0.121345 -0.0782626
960 -0.121066 0.0839496 -0.0247508 -0.048181 -0.0667968 0.309984 0.0319072 0.0107394 -0.436051 0.018007 0.157781 -0.137129 -0.00439886 0.110231 0.0608203 0.261929 0.0533267 0.0229939 0.0663269 0.0191608 0.0212311 -0.0806803 -0.0274744 -0.0523171 -0.0183494 -0.0247098 0.0476182 -0.0276535 -0.105864 0.0469724 -0.0594604 -0.236817 -0.0915296 -0.129834 -0.0811792 -0.0164714 0.155786 0.114818 -0.112418 -0.0781091 0.100416 0.00923867 -0.0792051 0.0399305 0.0749152 0.0546413 -0.217066 0.0012345 0.0873235 -0.0678857
1405 -0.120643 0.058836 0.0250426 0.0145596 -0.0180615 0.163846 -0.0768137 0.0313781 -0.21194 -0.0108088 0.123951 -0.045623 0.0098609 0.0494682 0.0656905 0.102685 -0.068433 0.021738 0.0608096 -0.0595577 -0.0895023 -0.0118778 -0.14944 0.0746786 0.0293971 -0.120353 0.0816898 -0.0364152 -0.0269026 0.14428 -0.0254124 -0.184566 -0.19432 -0.212128 -0.085414 0.0112133 0.230804 0.159469 -0.146663 -0.0150845 0.0500579 -0.151166 -0.0742416 0.0242195 0.173946 0.124869 -0.216273 0.0261484 -0.0129034 0.039716
11243 -0.0415148 0.0224741 -0.00189878 -0.00535189 -0.00661805 0.0738989 -0.0237322 0.0119406 -0.101597 -0.000269848 0.065693 -0.0312677 -0.00120685 0.0307448 0.0274417 0.0561151 -0.0211648 0.0093009 0.0277565 -0.0248915 -0.0357235 -0.0120088 -0.0388428 0.0123732 0.00275298 -0.0377493 0.0397479 -0.0191823 -0.0211997 0.044077 -0.00217787 -0.0748945 -0.0680868 -0.0790825 -0.0331299 0.00651383 0.0863797 0.0504228 -0.0689372 -0.0203517 0.0176474 -0.0441358 -0.0323849 0.0120924 0.0553686 0.0354005 -0.0847082 0.00870816 -0.00104663 0.0148513
5397 -0.06668 0.0373713 0.0238167 0.0287703 -0.000519449 0.0527288 -0.0832088 0.0242327 -0.0471747 -0.0163741 0.0575478 0.00324464 0.0198476 0.0190126 0.051103 0.019274 -0.0860471 0.0023631 0.0537867 -0.0704378 -0.0906013 0.02118 -0.122584 0.0765645 0.0430564 -0.113266 0.0496001 -0.0287602 0.0102802 0.117851 0.00284069 -0.102106 -0.131286 -0.140197 -0.049975 0.0118715 0.146838 0.107095 -0.117294 0.00906493 0.0115231 -0.152727 -0.0402145 -0.00678452 0.149789 0.0957365 -0.12251 0.0208276 -0.040904 0.067446
6116 -0.139119 0.100396 -0.0277665 -0.0522488 -0.0597914 0.338854 0.0346923 0.0211665 -0.468616 0.0384145 0.17352 -0.153311 -0.00151469 0.119454 0.0706213 0.271448 0.0688309 0.026811 0.0701773 0.033579 0.0285415 -0.0903661 -0.0336913 -0.0538873 -0.0300818 -0.0192358 0.0521959 -0.0300582 -0.131181 0.030609 -0.0622532 -0.226919 -0.090782 -0.12511 -0.0929939 -0.0111032 0.148702 0.103182 -0.0838663 -0.082984 0.105765 0.0430085 -0.0674943 0.0616955 0.0764163 0.0480649 -0.208128 0.00825521 0.0925719 -0.0927601
817 -0.124918 0.0771368 0.0151881 0.0169897 -0.0184561 0.157315 -0.0859565 0.0256552 -0.218094 -0.0224702 0.144329 -0.0588845 0.0190849 0.0688681 0.0855267 0.129784 -0.107615 0.0254241 0.0729226 -0.0828879 -0.116302 0.00327726 -0.15927 0.076036 0.0460884 -0.126711 0.0919635 -0.0442086 -0.0335148 0.159752 -0.0226232 -0.197023 -0.176839 -0.197634 -0.0833144 0.00808776 0.226201 0.147535 -0.153728 -0.0271484 0.0519225 -0.14954 -0.0826108 0.0166603 0.181189 0.118932 -0.201485 0.0262048 -0.0313352 0.0409001
6978 -0.0652991 0.0448692 -0.00308352 -0.0153975 -0.0257244 0.147835 0.0132877 -0.00111038 -0.216783 0.00874626 0.0802 -0.069368 0.00936701 0.0562686 0.0364623 0.118995 0.0403839 0.00391137 0.0235054 0.0184065 0.00896765 -0.0468744 -0.013824 -0.027321 -0.0213433 0.000195872 0.0312724 -0.00364343 -0.0600476 0.0183008 -0.0233584 -0.113327 -0.0325563 -0.0371971 -0.031912 -0.00035682 0.0460762 0.0361755 -0.0353805 -0.0254693 0.053319 0.0251417 -0.0311317 0.0329665 0.0259357 0.0223258 -0.0909432 0.0125306 0.0460693 -0.0302028
508 -0.132627 0.0943511 -0.0110471 -0.0342754 -0.0560174 0.278345 0.0146056 0.0186073 -0.404134 0.0260556 0.157301 -0.123843 0.000972053 0.106294 0.0575946 0.21559 0.0294288 0.032979 0.0594697 0.00163859 0.00169553 -0.072586 -0.0584609 -0.029303 -0.00581579 -0.0363557 0.0648659 -0.022835 -0.0944392 0.0713418 -0.0444212 -0.222191 -0.117733 -0.139793 -0.0853266 -0.00567742 0.175357 0.119361 -0.107932 -0.0700425 0.0924564 -0.0242207 -0.0873695 0.0509534 0.105363 0.0640605 -0.218312 0.00359699 0.0693159 -0.0529889
15591 -0.158355 0.094113 0.0131808 0.0101906 -0.0268922 0.231588 -0.0985079 0.0438767 -0.310883 -0.0224146 0.175886 -0.0887679 0.0122663 0.0841541 0.0985068 0.16835 -0.104597 0.0155069 0.0979171 -0.0779318 -0.133142 -0.0139735 -0.182198 0.0957929 0.0378088 -0.153924 0.112485 -0.0340606 -0.0535525 0.189926 -0.0242342 -0.242177 -0.2255 -0.25536 -0.0940206 0.0124313 0.282734 0.177825 -0.195074 -0.0209201 0.0630841 -0.198683 -0.0991044 0.0230074 0.230446 0.146206 -0.279129 0.0197641 -0.0177502 0.0564086
3557 -0.0610045 0.0303657 0.0240712 0.0296482 -0.00368905 0.0590093 -0.0787481 0.0306582 -0.0769276 -0.0257403 0.0777961 -0.00304133 0.00970167 0.0258306 0.0474193 0.0287537 -0.0847595 0.0108021 0.04233 -0.0684423 -0.0902168 0.0236881 -0.133523 0.0748252 0.0446269 -0.102411 0.0574922 -0.0189683 0.00277362 0.119975 -0.00960611 -0.107915 -0.15543 -0.154497 -0.0456698 0.00597121 0.165044 0.105691 -0.129698 0.00907849 0.0305517 -0.164414 -0.0504337 0.0062187 0.149388 0.0868928 -0.144369 0.0201556 -0.0419625 0.0727651
6565 -0.0440405 0.0274129 0.0146226 0.0245112 0.00959205 0.0240506 -0.0816622 0.017878 -0.00624337 -0.0246783 0.0429596 0.0016686 0.012611 0.0140306 0.0298713 0.00152968 -0.0908758 -0.00163074 0.03271 -0.0687166 -0.098452 0.0202449 -0.0980329 0.0817439 0.0379524 -0.0895259 0.0403403 -0.00994052 0.0178918 0.101307 0.00671032 -0.0653322 -0.117319 -0.116173 -0.0349259 0.0128022 0.129072 0.0813432 -0.0848731 0.0120643 0.00389655 -0.146389 -0.0346197 -0.00610161 0.12773 0.0846814 -0.0817657 0.0208757 -0.052487 0.0701951
4046 -0.137926 0.100935 -0.0334428 -0.049338 -0.0740283 0.335404 0.0425959 0.0191879 -0.449095 0.0378602 0.151822 -0.16345 -0.010247 0.110844 0.067253 0.275601 0.0645668 0.0332047 0.0691853 0.0417007 0.0267259 -0.0840292 -0.046413 -0.041636 -0.0294468 -0.0148246 0.0624883 -0.0253558 -0.113719 0.01935 -0.0506556 -0.241256 -0.0997788 -0.129704 -0.0956604 -0.0244443 0.15645 0.124624 -0.0956388 -0.076214 0.102473 0.0248443 -0.0653483 0.0407313 0.078801 0.0331134 -0.226339 0.0155283 0.0935107 -0.0835445
13059 -0.0482067 0.0405195 0.00994023 -0.00475144 -0.012365 0.0844423 -0.0186188 0.00261365 -0.117651 -0.00826141 0.0589604 -0.0293784 0.0112111 0.0283525 0.0193422 0.0560139 -0.0120967 0.00503347 0.0287872 -0.0164984 -0.0354806 -0.00158065 -0.0587304 0.0217649 0.00875789 -0.0462549 0.025295 -0.0198585 -0.0269846 0.050489 -0.00581076 -0.0831572 -0.061892 -0.0732193 -0.0279652 -0.00267737 0.0888686 0.0563531 -0.0582629 -0.0176072 0.0240505 -0.0485131 -0.0237024 0.00804374 0.060052 0.0393277 -0.0899635 -0.000555779 -0.000582529 0.0054359
5034 -0.0741084 0.0396242 0.00845515 0.00441758 -0.0061835 0.064896 -0.0575563 0.016225 -0.0894955 -0.0101916 0.0632845 -0.0161118 0.00525142 0.0340425 0.0486378 0.0463206 -0.0616395 0.00146452 0.0410977 -0.0520154 -0.0658845 0.0186611 -0.0785476 0.0631079 0.0258231 -0.0783666 0.0480894 -0.0156539 -0.0102457 0.0915239 -0.0057355 -0.103333 -0.10739 -0.111473 -0.042345 -0.00221155 0.122374 0.094502 -0.0816791 -0.00143019 0.0305239 -0.115403 -0.0432375 0.00896469 0.119091 0.0766749 -0.107426 0.00506363 -0.0165502 0.0431875
11055 -0.0831234 0.0508971 0.0300934 0.0282933 0.00455728 0.0706909 -0.0700906 0.0178569 -0.085484 -0.0183959 0.0828007 -0.0189095 0.00368705 0.0303373 0.0580179 0.0467049 -0.0809751 0.00369352 0.039091 -0.0731555 -0.0916191 0.0205598 -0.120301 0.0833447 0.0429233 -0.105893 0.0622821 -0.0310891 -0.0122753 0.109956 -0.000469968 -0.100114 -0.126683 -0.130153 -0.0530265 -0.00346866 0.146435 0.0995376 -0.10437 0.00678209 0.0273253 -0.123714 -0.0391914 0.000486047 0.128092 0.0836677 -0.10212 0.0134718 -0.0400393 0.0543515
3071 -0.0762241 0.0403603 0.0287983 0.0288872 0.0140112 0.0538061 -0.0830379 0.019632 -0.0756157 -0.0313468 0.0892332 -0.00998006 0.0102612 0.0298421 0.0520589 0.0406609 -0.101414 0.0169884 0.0591564 -0.0688998 -0.103178 0.0259925 -0.132438 0.0875092 0.0299601 -0.110575 0.0506791 -0.0177192 0.00989708 0.132987 0.0066672 -0.0997788 -0.140907 -0.13621 -0.0491313 0.0127985 0.163241 0.110865 -0.120813 -0.000196915 0.0286836 -0.150344 -0.0438524 0.0125319 0.153576 0.0876007 -0.126139 0.0193943 -0.057677 0.0591839
20220 -0.163575 0.0919043 0.0180293 0.011151 -0.00607532 0.214038 -0.0991831 0.0317747 -0.267445 -0.0199 0.174477 -0.0662145 0.00779897 0.0846225 0.0919034 0.139692 -0.122205 0.021555 0.109963 -0.100318 -0.157951 -0.00598308 -0.200075 0.109049 0.057606 -0.178911 0.113263 -0.036598 -0.0497526 0.194892 -0.0123442 -0.233066 -0.245788 -0.262836 -0.109303 0.0128871 0.283925 0.190298 -0.194096 -0.0181977 0.0628789 -0.221866 -0.0866697 0.026519 0.240636 0.147249 -0.271095 0.0344174 -0.0307849 0.06046
17712 -0.107833 0.0755702 0.00707435 0.0158482 -0.0107334 0.15628 -0.0593897 0.0326217 -0.203267 -0.0152366 0.131529 -0.060719 0.00650657 0.0613443 0.0709072 0.122841 -0.0942163 0.0170658 0.0839518 -0.0635386 -0.101196 0.00219995 -0.129286 0.0601436 0.0410842 -0.131277 0.0750316 -0.0280267 -0.0277087 0.159569 -0.0227564 -0.183864 -0.168704 -0.185548 -0.0763812 0.00811101 0.209045 0.130432 -0.154934 -0.0216893 0.052405 -0.147241 -0.0720627 0.0226955 0.169195 0.109808 -0.193819 0.0243339 -0.0167901 0.0551672
22411 -0.0231535 0.00969653 0.019319 0.0347625 0.0197866 -0.0501025 -0.0634366 0.0197044 0.0934285 -0.0182162 -0.00273805 0.0494525 0.00456704 -0.0177277 0.0201871 -0.0475553 -0.0968644 -0.00439827 0.0194333 -0.0631336 -0.0953387 0.0505772 -0.0843562 0.0926635 0.0403961 -0.0859651 0.0319358 -0.0171446 0.0379702 0.0815595 0.0188401 -0.00634086 -0.0891979 -0.0958825 -0.0101039 0.0088861 0.082065 0.0585924 -0.0580375 0.0219222 -0.0142412 -0.139605 -0.0172584 -0.0202616 0.10023 0.0582415 -0.0280526 0.0147932 -0.0568094 0.0627577
19306 -0.0693963 0.040548 0.00968032 0.0206655 0.0126311 0.0645971 -0.0678651 0.0273905 -0.0883138 -0.0285714 0.0829312 -0.0203392 0.0122395 0.0350544 0.042366 0.040353 -0.0740321 0.014545 0.0437623 -0.0475474 -0.0795504 0.0211903 -0.0872635 0.0685993 0.0172793 -0.085836 0.0503481 -0.0158153 -0.0105396 0.095774 -0.00979652 -0.0878272 -0.111858 -0.109227 -0.0459437 -2.63299e-05 0.124712 0.0912128 -0.0949461 -0.00573033 0.0291857 -0.113524 -0.0333505 0.0113827 0.127587 0.0671884 -0.105976 0.0163695 -0.0214678 0.0524814
7614 -0.15351 0.118515 -0.0340675 -0.061447 -0.0792396 0.383435 0.0488173 0.00847046 -0.54182 0.0310146 0.182922 -0.181128 -0.00773852 0.125584 0.0590418 0.292146 0.0950259 0.0260441 0.0613032 0.038644 0.0364824 -0.109105 -0.0507738 -0.053292 -0.0261932 -0.0254944 0.0744348 -0.0285779 -0.152535 0.0523469 -0.0690693 -0.292844 -0.13676 -0.161107 -0.12004 -0.0204806 0.186932 0.154881 -0.115768 -0.0966453 0.118821 0.0200033 -0.0937788 0.0707919 0.0998299 0.0535766 -0.28249 0.0102945 0.113142 -0.0898716
15216 -0.106171 0.0649322 -0.0182478 -0.0296041 -0.0386945 0.253582 0.0102132 0.0181856 -0.33554 0.0146268 0.103374 -0.100481 0.00605398 0.0807124 0.0545594 0.192568 0.0601326 0.020929 0.0435341 0.0288646 0.0171196 -0.0547844 -0.0346294 -0.0347897 -0.0175681 -0.0207299 0.0544152 -0.024103 -0.0932719 0.0431452 -0.0347711 -0.175348 -0.095821 -0.132748 -0.0790026 -0.00899611 0.138891 0.112012 -0.0861292 -0.0616195 0.082215 -0.000352052 -0.0581881 0.0411456 0.0741447 0.059292 -0.175588 0.00541543 0.0651565 -0.0538947
872 -0.0600041 0.0318039 0.00993614 0.00634727 0.00172204 0.0973201 -0.0504003 0.00972261 -0.109093 -0.015886 0.0694447 -0.0207721 0.0104807 0.0405485 0.038084 0.0678481 -0.0591117 0.012099 0.0401467 -0.0378462 -0.0744666 0.00153522 -0.097745 0.0497383 0.0135165 -0.0625912 0.052239 -0.0243836 -0.0120084 0.0751308 -0.011763 -0.0838889 -0.0937906 -0.0950459 -0.0323509 0.00649351 0.113725 0.0777965 -0.0904212 -0.0169363 0.0318087 -0.0684793 -0.0280917 0.00959456 0.0890632 0.0648999 -0.108536 0.0139589 -0.00894561 0.0235391
17071 -0.0972019 0.0717408 -0.00303953 -0.0288741 -0.0305686 0.200361 -0.00434417 0.017619 -0.27159 0.00267401 0.118603 -0.0821982 0.00791773 0.0645551 0.0465442 0.151558 -0.00431611 0.00919247 0.0448298 -0.016089 -0.0164958 -0.0473627 -0.0663104 0.0103035 -0.00431782 -0.0408373 0.0527879 -0.0306985 -0.0689549 0.0583264 -0.0227192 -0.150343 -0.093671 -0.116745 -0.0660901 0.000430142 0.124598 0.0873245 -0.0904604 -0.0330006 0.0649533 -0.0266766 -0.0637298 0.0377507 0.0830939 0.043076 -0.170021 0.00625038 0.0375377 -0.0192262
6309 -0.0983001 0.0757906 -0.0315799 -0.0500058 -0.0585789 0.265056 0.0456733 0.00959884 -0.375838 0.0154903 0.145591 -0.127844 -0.00382844 0.0995921 0.0475339 0.225499 0.0636281 0.0131491 0.0451022 0.0266877 0.0338526 -0.0822359 -0.0155828 -0.0644679 -0.0140862 0.00918083 0.0487752 -0.0198918 -0.103187 0.0242374 -0.0534316 -0.180698 -0.055642 -0.0815687 -0.0563364 -0.0243717 0.0944811 0.0623829 -0.0545515 -0.063095 0.0701976 0.0313627 -0.0525252 0.0351139 0.0369763 0.028535 -0.165451 0.00920719 0.0803578 -0.0726636
1993 -0.119352 0.0830117 -0.0331507 -0.0558337 -0.062933 0.318645 0.0341227 0.0139198 -0.441435 0.0305451 0.15169 -0.146777 0.0013816 0.117054 0.0534652 0.247526 0.0621977 0.0213519 0.053084 0.0289728 0.0287314 -0.0801921 -0.0335453 -0.0657055 -0.0179826 -0.0096441 0.0555528 -0.034558 -0.115376 0.0353111 -0.0649155 -0.214514 -0.08631 -0.108002 -0.0696733 -0.0163603 0.120127 0.0853934 -0.0856375 -0.0712008 0.0879961 0.0364688 -0.0785393 0.042227 0.0563203 0.0425469 -0.192765 0.00354352 0.0833089 -0.0679577
7761 -0.239883 0.161729 -0.0290763 -0.0656088 -0.0969541 0.524377 0.0093155 0.0433146 -0.723626 0.0313323 0.28804 -0.234819 0.0101449 0.193977 0.115937 0.396492 0.0518409 0.0510617 0.125736 0.012111 -0.0296481 -0.122525 -0.140546 -0.00674864 -0.0122009 -0.0997691 0.113443 -0.0657 -0.174432 0.137446 -0.0954526 -0.440188 -0.258537 -0.296411 -0.16784 -0.0266926 0.332406 0.255381 -0.222031 -0.114146 0.165199 -0.0753352 -0.157598 0.0746426 0.223918 0.127517 -0.425154 0.0265227 0.114378 -0.0777274
1054 -0.0453379 0.0152291 0.0161548 0.0209507 0.0170174 0.00661425 -0.0696515 0.0214538 0.0228775 -0.0315277 0.0368257 0.0121988 0.00147128 0.00314037 0.0343929 -0.00766865 -0.109174 0.0118588 0.0344453 -0.0786423 -0.0959953 0.0415877 -0.105855 0.0858005 0.0435139 -0.0969435 0.0463922 -0.0221826 0.0322988 0.103811 0.0166098 -0.0487744 -0.13233 -0.131722 -0.0254754 0.00842059 0.119238 0.0755394 -0.0894662 0.0154953 -0.00507931 -0.142043 -0.0313792 -0.00518487 0.119041 0.0682988 -0.0742251 0.00690319 -0.0516674 0.0614874
4751 -0.0690541 0.0373877 -0.0208603 -0.0432985 -0.0398443 0.19841 0.0470787 -0.00225962 -0.299357 0.023266 0.0948299 -0.108603 -0.00180743 0.0673244 0.0294822 0.179846 0.0794571 0.0231179 0.0293317 0.0492579 0.0588265 -0.0713083 0.0150201 -0.061407 -0.0297774 0.0259006 0.0174359 -0.0113156 -0.0930763 -0.0205391 -0.0337641 -0.130759 -0.0170234 -0.0209742 -0.0455843 -0.0142879 0.0426499 0.0280965 -0.0268082 -0.056864 0.0595446 0.0685961 -0.0310974 0.0296987 -0.000470063 0.00143149 -0.113536 0.00561929 0.0879 -0.0659413
354 -0.160597 0.114981 -0.0219332 -0.0642616 -0.0709935 0.383538 0.0238849 0.0241467 -0.559537 0.0375356 0.206635 -0.183924 -0.00298844 0.133382 0.0825529 0.316139 0.0834123 0.0321509 0.0587252 0.0335892 0.0353018 -0.10562 -0.0739557 -0.0333503 -0.00898785 -0.0372151 0.0632774 -0.0330728 -0.138821 0.0644927 -0.0707726 -0.286968 -0.13307 -0.164515 -0.11772 -0.0138347 0.18905 0.136621 -0.122414 -0.0935813 0.127572 0.00510418 -0.106901 0.0662022 0.106677 0.0649498 -0.28944 0.00207735 0.108407 -0.0702387
1255 -0.146325 0.0955282 -0.0092947 -0.0559476 -0.069958 0.368633 0.020401 0.0156678 -0.525083 0.0192549 0.194964 -0.17823 0.0107012 0.12022 0.0730661 0.2996 0.0645925 0.0386445 0.0694047 0.0165488 0.0019779 -0.0935889 -0.0631818 -0.0277016 -0.0159966 -0.0558583 0.0738158 -0.0296804 -0.133319 0.0547284 -0.0530729 -0.256847 -0.143478 -0.155932 -0.115267 -0.0125073 0.175373 0.134214 -0.126328 -0.0742416 0.116461 -0.000191066 -0.0855154 0.0449845 0.118481 0.0602621 -0.271599 0.0171503 0.0999884 -0.0654848
8863 -0.0425068 0.0231366 0.0141378 0.0191913 0.00745117 0.0234589 -0.0709541 0.0198213 -0.000812886 -0.0120842 0.0504018 0.00938738 0.0150144 -0.000394328 0.039306 0.00168575 -0.0873217 0.000176354 0.0273719 -0.0547806 -0.0804159 0.0196975 -0.0887429 0.0661275 0.0332276 -0.0867087 0.0339678 -0.0246258 0.0120334 0.0939057 -0.00237661 -0.056922 -0.114223 -0.117125 -0.0193951 -0.00117626 0.11789 0.0740293 -0.0927872 0.00559858 0.00315436 -0.127665 -0.0338504 0.00338061 0.102715 0.0646805 -0.088698 0.0148362 -0.0412507 0.0552832
6534 -0.087289 0.0539069 0.0238042 0.0151002 -0.0149738 0.123858 -0.063419 0.0266534 -0.159166 -0.0141205 0.0850341 -0.0356235 0.0124122 0.0377684 0.0557074 0.0842607 -0.0566131 0.00981798 0.0636429 -0.0626388 -0.0693362 -0.00716047 -0.103261 0.0537902 0.0269734 -0.0775945 0.0506094 -0.0232749 -0.0222287 0.0982033 -0.0204807 -0.146191 -0.136159 -0.134266 -0.0495907 -0.00195631 0.149312 0.110384 -0.109973 -0.0179896 0.0366088 -0.097192 -0.0508432 0.0170484 0.113393 0.0773839 -0.137644 0.0184039 -0.0189464 0.0346497
15178 -0.064603 0.0342022 -0.0014633 -0.0178779 -0.0088258 0.117404 -0.00159631 0.0122399 -0.143376 0.00972929 0.0557592 -0.0429554 -0.0053069 0.0340716 0.0310724 0.0797393 0.0027648 0.0121903 0.0201398 -0.000551781 -0.0119911 -0.0236593 -0.0413229 0.00400079 0.00485151 -0.0333943 0.0334114 -0.0243126 -0.0396116 0.0486451 -0.0169993 -0.0882209 -0.0589976 -0.0800039 -0.0399233 -0.00212875 0.0877237 0.0627706 -0.0520793 -0.0261161 0.0371217 -0.026856 -0.0364842 0.00615903 0.067723 0.045957 -0.0964131 -0.00219953 0.0217069 0.00104955
5394 -0.0571791 0.0349819 0.0323418 0.0280551 0.0134335 0.0379855 -0.0823087 0.0297456 -0.0218269 -0.0185934 0.0510292 -0.00504861 0.0187087 0.00551867 0.0397158 0.0103275 -0.0913246 0.0156585 0.041648 -0.0773163 -0.0980352 0.0325204 -0.105429 0.0775448 0.0435723 -0.0964892 0.0486673 -0.0167624 0.00370376 0.111151 0.0029927 -0.0838821 -0.126269 -0.12938 -0.042729 0.000178991 0.148163 0.0856381 -0.0987599 0.00388391 0.00429012 -0.140207 -0.0438467 -0.0104267 0.130378 0.0899446 -0.100495 0.009477 -0.0443277 0.0718109
6126 -0.060421 0.0300945 -0.000987063 -0.00892045 -0.0201842 0.0992934 -0.00418981 0.00934598 -0.12935 0.0067277 0.0712751 -0.0492519 -0.00116637 0.0327985 0.0210841 0.0857474 -0.0122992 0.0150478 0.0304265 -0.0113983 -0.0265371 -0.0138172 -0.032062 0.00706529 0.000338382 -0.0296481 0.0188722 -0.00485291 -0.0200113 0.0402225 -0.013861 -0.0860454 -0.0518313 -0.0659738 -0.0389106 0.00375873 0.0781845 0.048396 -0.0549394 -0.0106644 0.0385725 -0.025084 -0.0210561 0.00924696 0.0525523 0.0375842 -0.0825846 0.00922111 0.005633 -0.00873234
2999 -0.0699507 0.0508227 0.026649 0.0216746 -0.00591702 0.0740212 -0.0774573 0.0275585 -0.0859415 -0.0256801 0.0910088 -0.0152119 0.0137922 0.024759 0.0648099 0.0499326 -0.100205 0.0109808 0.0675005 -0.0795127 -0.116751 0.0156406 -0.148119 0.10178 0.0350604 -0.132557 0.0712046 -0.0190226 -0.00319667 0.145378 -0.00134045 -0.124652 -0.152658 -0.153312 -0.0576959 0.0146483 0.173569 0.11443 -0.128049 -0.00820785 0.0341557 -0.155682 -0.0577396 0.00830427 0.162768 0.102898 -0.155189 0.00935962 -0.0528982 0.0590686
17644 -0.127236 0.0986611 -0.0213487 -0.0688869 -0.0720809 0.35983 0.0596324 0.0193127 -0.488257 0.0336384 0.15978 -0.157045 0.000169959 0.125873 0.0681378 0.283529 0.0992574 0.02534 0.0594705 0.0542202 0.0373969 -0.0989402 -0.0195193 -0.078808 -0.0288396 -0.00337118 0.0454519 -0.0325757 -0.145061 0.0256579 -0.0541709 -0.259949 -0.0896786 -0.100097 -0.0989637 -0.02632 0.150358 0.129451 -0.0961767 -0.0756205 0.116359 0.0467315 -0.0849956 0.0606137 0.0830832 0.0476679 -0.25742 0.00934329 0.107216 -0.0717138
2153 -0.0566951 0.0326545 -0.00989373 -0.00449856 -0.0140809 0.114518 -0.0148181 0.00750463 -0.15447 -0.00680849 0.0641706 -0.0471854 0.00327315 0.0495537 0.0334918 0.0784157 -0.0104509 0.010838 0.0335663 -0.0127044 -0.0272585 -0.00790891 -0.0500153 0.00771511 0.00718929 -0.0270921 0.039341 -0.00646049 -0.0246651 0.0534388 -0.00728935 -0.0909493 -0.0617078 -0.0652633 -0.0442363 -0.0035765 0.0776779 0.0467082 -0.0563005 -0.0287284 0.031857 -0.025705 -0.0273118 0.00634868 0.0637783 0.0439544 -0.0943295 0.0153214 0.00702569 -0.00703111
3356 -0.115704 0.0728422 0.0297729 0.0360929 0.00993326 0.107296 -0.113097 0.0329227 -0.136978 -0.0282019 0.123263 -0.0238418 0.0160845 0.0384524 0.0673746 0.0733852 -0.131381 0.0261068 0.0855016 -0.0968175 -0.155946 0.0280683 -0.185509 0.129805 0.053818 -0.155049 0.0832252 -0.0359045 -0.00984133 0.19182 -0.0137102 -0.169776 -0.207947 -0.215246 -0.0766265 0.0111819 0.237241 0.153273 -0.175834 0.00199945 0.0336128 -0.214251 -0.0679792 0.0158345 0.216219 0.133842 -0.197165 0.0314002 -0.0564055 0.0862667
18544 -0.138082 0.0943148 -0.0123094 -0.0388948 -0.065653 0.329422 0.0234247 0.017229 -0.468847 0.0147568 0.178131 -0.156982 0.00111357 0.124562 0.0778687 0.26841 0.0561686 0.0345067 0.0633539 0.0393288 0.0223735 -0.0922402 -0.0281745 -0.0570327 -0.0162613 -0.00799471 0.0468304 -0.0266214 -0.127776 0.0448483 -0.055915 -0.221758 -0.0972855 -0.127626 -0.0867765 -0.0261534 0.162759 0.119109 -0.104884 -0.064638 0.0946478 0.0379669 -0.0811699 0.0543749 0.0588197 0.0450045 -0.219924 0.000135133 0.0947093 -0.0832301
3244 -0.0909532 0.0706953 -0.016681 -0.0466906 -0.0361556 0.223215 0.0302095 0.00822831 -0.308088 0.0300017 0.10188 -0.105202 -0.00957298 0.0783131 0.0388653 0.175385 0.0547636 0.0271096 0.0303221 0.0211728 0.0247921 -0.0689382 -0.00707523 -0.0552862 -0.0177262 -0.00730361 0.0438681 -0.0241198 -0.0796013 0.022154 -0.0392484 -0.153305 -0.0379798 -0.0552811 -0.0606321 -0.0138457 0.0774262 0.0579666 -0.0547174 -0.0617213 0.0675605 0.0551981 -0.0471387 0.0266965 0.0242094 0.0188802 -0.134984 -0.000270599 0.0728947 -0.0713766
3186 -0.0998521 0.0656849 0.00148073 -0.0299608 -0.0302122 0.215013 -0.0199642 0.0073352 -0.280753 0.0126638 0.129877 -0.0922439 0.0141169 0.0660404 0.0656923 0.156897 -0.00272888 0.028024 0.0517866 -0.0113402 -0.0300504 -0.0345014 -0.0588385 -0.00645235 -0.00277525 -0.0463232 0.0479299 -0.0275846 -0.0678658 0.0813789 -0.039021 -0.16844 -0.0916648 -0.113307 -0.0631054 0.000380242 0.138549 0.101279 -0.0962679 -0.0338437 0.0571347 -0.0295831 -0.0555714 0.0391496 0.0839051 0.061427 -0.151597 0.000783017 0.0460366 -0.0196728
10222 -0.10045 0.0824328 -0.0283536 -0.0431522 -0.0571477 0.255102 0.0483824 0.00102356 -0.363889 0.0215715 0.13544 -0.118996 0.0075386 0.0848185 0.0590581 0.209895 0.0719648 0.022174 0.0337793 0.0277704 0.0365466 -0.0644498 0.00981293 -0.0648698 -0.0362878 0.0148812 0.0271426 -0.0114528 -0.0987018 0.000509476 -0.0489466 -0.170893 -0.0471022 -0.0552224 -0.0660987 -0.007758 0.099912 0.0698196 -0.0645238 -0.0680355 0.0787642 0.0612334 -0.0595158 0.0450205 0.0301093 0.00953242 -0.165596 0.0110143 0.0982641 -0.0730191
2013 -0.140694 0.0899889 -0.0136596 -0.037604 -0.0509148 0.314025 0.0266433 0.0219193 -0.447844 0.0258504 0.159162 -0.143267 0.00738875 0.101649 0.0724938 0.254324 0.0593919 0.0314483 0.0578685 0.0150686 0.0250271 -0.0872699 -0.0456298 -0.0331866 -0.0159323 -0.0255818 0.0532277 -0.0250206 -0.114524 0.042258 -0.052365 -0.225416 -0.103909 -0.134297 -0.0995273 -0.0197546 0.163165 0.128492 -0.105181 -0.0660225 0.0964561 0.0201373 -0.0782232 0.0426737 0.0932713 0.0607074 -0.22768 0.0178947 0.095338 -0.0609628
4755 -0.157325 0.100764 -0.00772501 -0.0343528 -0.0527834 0.35199 0.0052005 0.0329333 -0.487704 0.022637 0.18898 -0.165258 -0.00267299 0.114263 0.0980872 0.284232 0.0335088 0.0300361 0.0807728 -0.00632626 -0.0159548 -0.0812949 -0.100789 -0.00874789 -0.000521322 -0.0778868 0.0820684 -0.0497089 -0.120062 0.0948313 -0.0563366 -0.283668 -0.179041 -0.200799 -0.11843 -0.0175059 0.224793 0.172995 -0.15758 -0.0794437 0.110949 -0.0470717 -0.0972206 0.0431501 0.137736 0.0773525 -0.271306 0.0197634 0.0702448 -0.0397343
10672 -0.0376469 0.00938857 0.0236467 0.0259966 0.00474831 0.0159666 -0.056168 0.00854717 -0.00260586 -0.0245377 0.0425389 0.0116738 0.00852017 0.00588179 0.0336829 0.00155096 -0.0631216 0.000696441 0.0272163 -0.0413093 -0.074629 0.0126462 -0.0724388 0.0581052 0.0232593 -0.0770934 0.0332457 -0.00214158 0.0171057 0.0696431 0.00244129 -0.0524856 -0.0788946 -0.0879608 -0.0158554 0.0133142 0.0896732 0.0538466 -0.077747 0.00756806 0.00668274 -0.101529 -0.0329896 -0.00948916 0.0806523 0.0505853 -0.0588234 0.0149896 -0.0384397 0.0543832
1437 -0.119716 0.0733747 0.0296066 0.0236044 -0.00940854 0.145892 -0.10064 0.0336324 -0.170907 -0.0320486 0.134513 -0.037267 0.0188527 0.043923 0.0685492 0.0976294 -0.134821 0.0159682 0.0836969 -0.0885229 -0.138306 0.0175066 -0.180897 0.106083 0.0477482 -0.147346 0.0802442 -0.0369638 -0.018849 0.176224 -0.0186816 -0.192722 -0.223137 -0.214474 -0.0721763 0.013891 0.242446 0.166258 -0.172411 -0.00797457 0.0521362 -0.199804 -0.0838543 0.00565405 0.206732 0.129537 -0.196859 0.0294909 -0.0413625 0.0703659
10921 -0.0468991 0.0324475 -0.0028609 -0.0182508 -0.0133722 0.0891683 0.000182061 0.00873638 -0.138746 -0.00164473 0.0513538 -0.0492602 0.00314812 0.0440811 0.0322283 0.072854 0.00255103 0.0153685 0.0175937 -0.00978342 -0.0129165 -0.0268803 -0.0281004 0.00612431 0.000343077 -0.0205846 0.0276582 -0.00938059 -0.0256364 0.0444002 -0.0169829 -0.0900904 -0.048006 -0.06393 -0.0369774 -0.00266071 0.0613159 0.048302 -0.0579803 -0.017654 0.0353145 -0.0248964 -0.0252266 0.00547556 0.0576332 0.0313753 -0.0896994 0.00626723 0.0197828 -0.00885469
12552 -0.0513618 0.0173896 0.0163479 0.0376043 0.00670977 -0.00107637 -0.0736532 0.0268922 0.0132397 -0.0214273 0.0440606 0.0110116 0.00291902 0.00591258 0.0327505 -0.0105578 -0.0896436 0.00291806 0.024359 -0.0550097 -0.0912143 0.0291814 -0.0835483 0.0684908 0.0353724 -0.0766072 0.038696 -0.0180831 0.022346 0.103629 0.011302 -0.0508497 -0.102766 -0.10771 -0.0301192 0.0104593 0.10506 0.077833 -0.0811441 0.00374738 0.0122068 -0.12679 -0.0250099 -0.00779414 0.117588 0.0718702 -0.0617383 0.0166946 -0.059215 0.0595268
3178 -0.0670756 0.0370835 0.0312006 0.0214364 0.00900775 0.0439797 -0.086833 0.0176336 -0.0604933 -0.0264653 0.0666151 -0.0105984 0.0101121 0.0305389 0.0466514 0.0356081 -0.100837 0.00144467 0.049417 -0.0697485 -0.0997025 0.0302435 -0.110829 0.0765169 0.0294329 -0.10723 0.051103 -0.0302555 0.00188188 0.111416 -0.00382018 -0.105068 -0.150075 -0.153673 -0.051465 0.000355373 0.161519 0.0992575 -0.123299 -0.00163206 0.0260103 -0.157929 -0.0474655 -0.00111659 0.155013 0.0865811 -0.128225 0.0172163 -0.0498401 0.0637632
2348 -0.0113835 -0.00911393 0.0168942 0.0263704 0.0277384 -0.0520668 -0.064546 0.00415822 0.0794607 -0.0190913 0.00120423 0.0384932 -0.00230386 -0.020846 0.0133663 -0.0523832 -0.0829809 0.00803328 0.0239084 -0.0697092 -0.0908996 0.0490116 -0.0802214 0.0889666 0.0409536 -0.0800381 0.0307325 -0.0134703 0.035121 0.0854318 0.0233644 -0.00956758 -0.0928474 -0.0901193 -0.00515517 0.00503013 0.0897828 0.0572002 -0.0676028 0.028467 -0.0130537 -0.136725 -0.0216467 -0.00739529 0.105342 0.0660858 -0.030837 0.013631 -0.0631068 0.0840898
10706 -0.107128 0.0863277 -0.0257434 -0.0533591 -0.0663297 0.300608 0.0646939 0.0131784 -0.466531 0.0387809 0.164626 -0.154479 0.00220616 0.106477 0.0554935 0.272496 0.104321 0.0238596 0.0526996 0.0446297 0.0433641 -0.0947257 -0.00291828 -0.0727674 -0.0228072 -0.000853737 0.0529821 -0.0188227 -0.123721 0.0101336 -0.0518927 -0.217422 -0.0601682 -0.0787704 -0.0888286 -0.00988357 0.0940729 0.0789294 -0.0761704 -0.0850775 0.084572 0.0835488 -0.0720504 0.0612812 0.0242444 0.0148072 -0.191009 0.0110632 0.110423 -0.0908581
123 -0.188569 0.14065 -0.026999 -0.0715238 -0.0891651 0.464791 0.0344108 0.029901 -0.633843 0.037979 0.222205 -0.20832 0.000383771 0.15751 0.100388 0.356912 0.0801989 0.0307825 0.0943461 0.0417603 0.0184036 -0.118125 -0.0762258 -0.0538618 -0.0159083 -0.0542698 0.0987263 -0.0453342 -0.18014 0.0721469 -0.0744996 -0.353201 -0.187846 -0.217198 -0.142146 -0.0238684 0.277754 0.201776 -0.158449 -0.111357 0.153851 -0.00296747 -0.130513 0.0794174 0.144489 0.0769735 -0.340881 0.0168604 0.137371 -0.101076
1051 -0.123101 0.0788941 -0.0294182 -0.0553774 -0.0726413 0.328384 0.0680306 0.00570955 -0.446624 0.0342055 0.132663 -0.154743 -0.00275066 0.118455 0.0481192 0.251193 0.108352 0.0283266 0.0463949 0.0454599 0.0612214 -0.0888508 -0.013065 -0.0698278 -0.0391938 0.00767578 0.047743 -0.0358172 -0.130527 0.00883362 -0.0648024 -0.218565 -0.0837779 -0.109792 -0.0880914 -0.0294608 0.137507 0.0934951 -0.0780468 -0.0844049 0.105857 0.045789 -0.0647466 0.0608954 0.0583486 0.0284743 -0.208244 0.0170783 0.113033 -0.0863332
16900 -0.0650553 0.0467638 0.00351997 -0.00647579 -0.0197888 0.119157 -0.0100402 0.00912555 -0.152643 0.000837308 0.0633639 -0.0460313 0.000435025 0.0479825 0.0331477 0.0890067 0.0114528 -0.000125613 0.0217085 -0.0123772 -0.00686739 -0.0131378 -0.0357201 -0.0106852 -0.0042865 -0.0232073 0.0372516 -0.0108887 -0.0394903 0.0457832 -0.018523 -0.0949806 -0.0623552 -0.066211 -0.0280923 -0.00658028 0.0760223 0.0487123 -0.0468086 -0.0197443 0.0280026 -0.0161242 -0.0393813 0.0123482 0.0492059 0.0380836 -0.0814256 0.0149812 0.0271005 -0.0208577
2606 -0.0540436 0.0411602 0.0141814 0.00426556 -0.0113955 0.070927 -0.0353445 0.0110015 -0.101879 -0.010898 0.0617527 -0.0169617 -0.00241226 0.0313109 0.0434722 0.0473024 -0.0449268 0.0131247 0.0337763 -0.0262996 -0.051672 0.00234161 -0.0723984 0.0349381 0.0195319 -0.0464517 0.0315271 -0.0136938 -0.00706926 0.0735272 0.00164045 -0.0840692 -0.0912998 -0.0931403 -0.0307407 -0.00164544 0.0920346 0.0599547 -0.0727833 -0.00898835 0.0202958 -0.0655763 -0.0295588 -2.09205e-05 0.0740268 0.041841 -0.0896526 0.00760792 -0.013522 0.0157801
1807 -0.128497 0.0922981 -0.0287503 -0.0440885 -0.057402 0.340049 0.0334907 0.00818774 -0.475324 0.0364454 0.163643 -0.14699 0.00664353 0.113381 0.0692082 0.257952 0.0671079 0.0341149 0.0588274 0.0250842 0.0222037 -0.0846839 -0.0461426 -0.0381083 -0.0177723 -0.04396 0.0624724 -0.0283229 -0.126768 0.058541 -0.0515614 -0.24536 -0.116798 -0.142146 -0.0890707 -0.0214335 0.174934 0.133243 -0.105271 -0.0732825 0.0956232 0.0182161 -0.0789825 0.0504725 0.0860055 0.049073 -0.22761 0.0196353 0.0811376 -0.0703077
4108 -0.138385 0.108774 -0.0301611 -0.0449788 -0.0607208 0.337075 0.0358663 0.0141929 -0.470348 0.0331502 0.170305 -0.147168 -0.00450581 0.108809 0.0760244 0.262278 0.0464703 0.0253748 0.0730737 0.00875694 0.00928596 -0.085308 -0.0441681 -0.0434318 -0.0149561 -0.0441916 0.0675421 -0.0341286 -0.121804 0.0611043 -0.0479365 -0.260168 -0.112012 -0.144801 -0.0984392 -0.00912852 0.168344 0.12569 -0.11742 -0.0835253 0.104994 0.0217605 -0.0764639 0.0585894 0.0899593 0.0625259 -0.233079 0.00874755 0.0833562 -0.0720252
3994 -0.0583037 0.0450699 0.000782313 -0.00286369 -0.0153578 0.110207 -0.0223186 0.0095367 -0.158669 -0.00719427 0.0757932 -0.0491421 0.00684651 0.0322971 0.048632 0.0821411 -0.00907349 0.0108742 0.0265362 -0.0268051 -0.0334526 -0.0136487 -0.0417094 0.0117191 0.00719872 -0.0294199 0.0345419 -0.0151368 -0.0376391 0.0455299 -0.00780756 -0.0996454 -0.0692313 -0.0842928 -0.0455025 -0.00752356 0.0973212 0.0695523 -0.0566733 -0.0167577 0.0406949 -0.0503161 -0.040483 0.00952872 0.0650182 0.0335496 -0.110442 0.00399071 0.0192355 -0.0062523
8961 -0.0665578 0.0368639 0.0198443 0.0224474 0.00789734 0.0645466 -0.0781784 0.0197102 -0.0630135 -0.0281874 0.06835 -0.0126301 0.00939057 0.0222394 0.0577405 0.0383193 -0.0894072 0.0159603 0.0543656 -0.0737953 -0.0931192 0.0290002 -0.111965 0.0710222 0.0305805 -0.0944147 0.0566795 -0.0155201 0.00289444 0.113024 -0.00940378 -0.0905167 -0.140338 -0.137283 -0.0348514 0.00457924 0.144262 0.0881529 -0.0987072 0.00738457 0.0207322 -0.148897 -0.048927 -0.00661203 0.127795 0.0744775 -0.115992 0.0104373 -0.040563 0.0622881
10709 -0.125086 0.0641472 0.0219756 0.00804032 -0.0185964 0.188206 -0.0612568 0.0340855 -0.237449 -0.0213228 0.117282 -0.0600166 0.00579455 0.0570121 0.0769446 0.138845 -0.0629458 0.0188698 0.0733332 -0.0441808 -0.0760922 -0.0167825 -0.138699 0.0686794 0.0312722 -0.109484 0.0733332 -0.0254223 -0.0545193 0.145951 -0.0185521 -0.208042 -0.186354 -0.195193 -0.0844578 0.00206909 0.227659 0.155888 -0.147345 -0.0293929 0.0640315 -0.142769 -0.087325 0.016225 0.170465 0.111958 -0.219007 0.0144054 0.00127982 0.0339482
19073 -0.0331534 0.0092557 0.0235697 0.0263237 0.00889654 0.00426387 -0.048901 0.0182511 -0.00496623 -0.020464 0.0313337 0.000314491 0.0122386 -0.00434037 0.0192113 -0.00721282 -0.0666592 0.000929301 0.034872 -0.0408151 -0.0717911 0.0240702 -0.0960235 0.0769475 0.0286909 -0.0713369 0.0442222 -0.00936232 0.00877503 0.0801935 0.0149721 -0.0578008 -0.101151 -0.111902 -0.0187398 -8.09596e-06 0.0990725 0.0647122 -0.0731859 0.00263246 0.0142239 -0.112859 -0.0277487 -0.00399429 0.107531 0.0609072 -0.0712494 0.00158785 -0.0521722 0.0608973
1305 -0.144287 0.104019 -0.0137127 -0.0565111 -0.066144 0.340316 0.0207192 0.0255238 -0.475211 0.031361 0.174695 -0.158193 0.00192577 0.128876 0.0780787 0.263518 0.0493228 0.032586 0.0697035 0.00686095 0.0141234 -0.0835673 -0.0605556 -0.0490572 -0.0169086 -0.0272281 0.0652714 -0.0381694 -0.11185 0.0480547 -0.0535938 -0.240529 -0.101589 -0.119762 -0.093663 -0.0152271 0.163359 0.129847 -0.124609 -0.070126 0.0996605 0.0101351 -0.0771737 0.0577318 0.080725 0.0644484 -0.239406 0.0213467 0.0850703 -0.0658622
112 -0.0538932 0.027042 0.0300959 0.0183889 0.0170956 0.0130689 -0.0644391 0.0120355 -0.024474 -0.0211094 0.0508486 -0.00580341 0.0180972 0.00983516 0.0390647 0.0152169 -0.0917639 0.0139412 0.0296827 -0.0659123 -0.0844866 0.0348883 -0.100544 0.0817098 0.0298574 -0.0756519 0.0452384 -0.0195689 0.0146653 0.0940341 0.0105436 -0.0579846 -0.107459 -0.110128 -0.02576 0.00647468 0.109842 0.0719899 -0.0863682 -0.00148535 0.00474427 -0.121077 -0.0227602 -0.00433795 0.0940107 0.0733063 -0.0690105 0.0166533 -0.0509279 0.0452015
11252 -0.0528149 0.0386591 0.00521275 -0.00975532 -0.0208037 0.0904642 -0.0242401 0.00205691 -0.139392 0.00357795 0.0618694 -0.0382154 -0.00292295 0.0284008 0.0247082 0.082888 -0.0027088 0.0111 0.0301167 -0.0083016 -0.0239899 -0.0218416 -0.0414031 0.00109743 0.0127244 -0.0205035 0.0190605 -0.013331 -0.0364586 0.048004 -0.0122218 -0.0847126 -0.0570873 -0.0712982 -0.0327132 -0.00963639 0.0725488 0.0617316 -0.0564813 -0.00734804 0.0382909 -0.0343051 -0.0316091 0.00359716 0.0466746 0.038501 -0.0916801 0.0105478 0.0147932 -0.0121146
16235 -0.052356 0.033803 0.00999161 0.0282924 0.0165584 0.0380459 -0.0700453 0.0120122 -0.0275565 -0.0230002 0.06336 0.00373941 0.0118211 0.0129879 0.0461876 0.0311443 -0.0732056 0.011799 0.0373483 -0.0564168 -0.0837287 0.0220816 -0.0847275 0.0608009 0.0182376 -0.082837 0.0369018 -0.017703 -0.00210057 0.0820352 0.00293534 -0.0684553 -0.0897709 -0.0939885 -0.035787 -6.28808e-05 0.113199 0.076365 -0.0855201 0.00258069 0.0192348 -0.102757 -0.029999 0.00487808 0.0945016 0.0572807 -0.0766882 0.0134933 -0.0465814 0.0508354
831 -0.176431 0.127579 -0.0253052 -0.051358 -0.0689324 0.388596 0.0230865 0.020453 -0.522356 0.0151965 0.208691 -0.178522 0.002408 0.1232 0.0958563 0.299487 0.0461675 0.0410142 0.0895006 0.0130455 -0.0126858 -0.0817894 -0.076371 -0.0199057 -0.0171275 -0.0450605 0.0774617 -0.0417818 -0.141384 0.0878246 -0.0552517 -0.286948 -0.158636 -0.168563 -0.107606 -0.00982625 0.214433 0.152063 -0.143214 -0.0839264 0.106724 -0.0100352 -0.0954621 0.0581029 0.116608 0.0795542 -0.276052 0.0209021 0.0837027 -0.0482404
2709 -0.139009 0.090101 0.0028747 -0.0233724 -0.04129 0.296829 -0.0115403 0.026732 -0.410537 -0.00382427 0.178428 -0.122205 0.0138425 0.0951601 0.083774 0.236708 -0.000991992 0.0301514 0.0844646 -0.0066667 -0.0461945 -0.0512608 -0.104241 0.00925435 0.00942564 -0.0712407 0.0823071 -0.0412001 -0.0988871 0.0906049 -0.0482757 -0.244881 -0.157776 -0.17565 -0.0878171 -0.0125834 0.213208 0.148917 -0.144448 -0.0552432 0.0814229 -0.0658161 -0.0931507 0.0441756 0.137386 0.0852579 -0.243798 0.0183867 0.0476388 -0.0103358
5657 -0.166926 0.0903858 0.0195227 0.00883053 -0.0112704 0.227468 -0.106311 0.0460799 -0.26267 -0.0222994 0.184038 -0.0776147 0.025909 0.075636 0.101356 0.148964 -0.120439 0.0356174 0.107527 -0.0918537 -0.149823 -0.005809 -0.20568 0.116813 0.0414384 -0.172751 0.110586 -0.0373656 -0.0517556 0.199552 -0.0292502 -0.252953 -0.249906 -0.266486 -0.0946349 0.00174379 0.287173 0.189233 -0.202285 -0.02409 0.0642809 -0.217922 -0.103586 0.0215045 0.238564 0.141006 -0.278215 0.0205095 -0.0333194 0.0644976
7313 -0.0175061 0.0017651 0.0204082 0.033241 0.00679471 -0.0235886 -0.0566781 0.0132969 0.0473889 -0.0296763 0.0167324 0.0175495 0.0121332 -0.0171461 0.0247893 -0.0326325 -0.0808168 -0.00205903 0.0284075 -0.0464696 -0.0776609 0.0299214 -0.071594 0.0631327 0.0344672 -0.0756211 0.0304766 -0.0156426 0.0322201 0.0752639 0.0122556 -0.0250471 -0.090949 -0.0774857 -0.0224603 0.0167496 0.0799325 0.0515866 -0.0546695 0.0255369 -0.00148754 -0.10884 -0.0218039 -0.0163499 0.0862555 0.0443948 -0.0492704 0.00486282 -0.0441634 0.0653928
20487 -0.0639999 0.0460091 0.00640924 -0.00963287 -0.0189028 0.102633 -0.0151739 0.0154356 -0.15238 -0.0051804 0.0687386 -0.0410275 0.00485566 0.0476105 0.0400647 0.0889596 -0.00755789 0.0111932 0.0309093 -0.020961 -0.0154741 -0.0151886 -0.0337128 0.00910591 -0.00491593 -0.0274391 0.0361872 -0.0225391 -0.0335659 0.0409552 -0.0177875 -0.0965035 -0.0541261 -0.0589964 -0.0314999 -0.00677138 0.0737068 0.0603302 -0.0608877 -0.0139527 0.0375062 -0.0212529 -0.0338493 0.017111 0.0479249 0.0327624 -0.0903713 -0.000861199 0.0151432 -0.00840305
8597 -0.0833638 0.0395842 0.0154345 0.0301435 0.00732578 0.0593012 -0.0811614 0.0334181 -0.0654045 -0.0205352 0.0717368 -0.0007224 0.00609036 0.0181676 0.0615024 0.0365412 -0.106189 0.00126605 0.0456187 -0.0789658 -0.100809 0.0191958 -0.126765 0.0940708 0.0371861 -0.096895 0.065647 -0.0165967 -0.00576658 0.112408 -0.00439985 -0.11363 -0.14987 -0.145835 -0.0419805 0.0142729 0.174177 0.108538 -0.117733 0.00174041 0.0315631 -0.170959 -0.0563461 -0.00699193 0.15535 0.100216 -0.140074 0.0168204 -0.0583793 0.0699016
9211 -0.048678 0.023943 -0.00122044 -0.0119068 -0.0122322 0.0946811 -0.0081808 0.0103393 -0.129915 0.00670031 0.061816 -0.040765 0.00837969 0.0392971 0.0265371 0.0690591 0.0139548 0.00256615 0.0300647 -0.000129123 0.00161444 -0.0218344 -0.0354138 0.00815542 7.14342e-05 -0.0213653 0.0128269 -0.017584 -0.0305064 0.0211935 -0.0192222 -0.0769901 -0.0467359 -0.0478104 -0.0243814 -0.00755389 0.0544148 0.0361424 -0.0337591 -0.0125345 0.0280575 -0.0197581 -0.0332049 0.00405096 0.0443701 0.0276154 -0.0786267 0.0143295 0.0158541 -0.0103562
7617 -0.164861 0.0843311 0.0472722 0.030127 -0.00879154 0.173685 -0.132986 0.0364561 -0.212648 -0.0394556 0.171258 -0.0413724 0.0105178 0.0633848 0.102855 0.117624 -0.156581 0.0172032 0.111233 -0.120972 -0.1871 0.022681 -0.21901 0.140692 0.0687884 -0.19258 0.113674 -0.0394029 -0.019584 0.237999 -0.0200027 -0.240715 -0.284634 -0.28306 -0.0968844 0.0201377 0.318897 0.210875 -0.222913 -0.0164819 0.0581195 -0.252046 -0.108857 0.00574036 0.263963 0.175554 -0.264553 0.0222741 -0.0576265 0.101617
7674 -0.108732 0.0704338 -0.0178121 -0.0398445 -0.0444037 0.246428 0.0181462 0.016977 -0.349819 0.0226434 0.124946 -0.120264 -0.00473325 0.0949513 0.049545 0.200771 0.0398543 0.0298589 0.0475254 0.0213988 0.019398 -0.0614756 -0.0372004 -0.0336305 -0.0105142 -0.0160117 0.0564687 -0.017762 -0.0873733 0.0353725 -0.0510446 -0.1942 -0.0819213 -0.0935176 -0.0790822 -0.0107909 0.129417 0.099578 -0.0789398 -0.05216 0.0828306 0.0120952 -0.0606085 0.0343915 0.0736541 0.0556944 -0.19464 0.0144786 0.0646413 -0.0514076
1793 -0.106246 0.0845998 -0.0167654 -0.0370433 -0.0336347 0.249137 0.00243645 0.0255424 -0.345483 0.0214922 0.119009 -0.112976 0.00252843 0.0849892 0.0539437 0.190409 0.0446302 0.0140194 0.0598774 0.0012494 0.00250405 -0.0486967 -0.0697065 -0.004493 -0.010638 -0.049595 0.0462791 -0.0318709 -0.0834644 0.0534324 -0.048948 -0.201291 -0.114159 -0.118392 -0.0857733 -0.00886537 0.153368 0.120607 -0.0968546 -0.0528831 0.0851911 -0.0343578 -0.0683471 0.0384595 0.0955096 0.0600342 -0.216795 0.00775743 0.0602307 -0.0450887
2388 -0.0735343 0.0581415 -0.019572 -0.0387657 -0.0501892 0.193421 0.0497696 -0.00613596 -0.282271 0.0222607 0.0931407 -0.0970321 -0.00747709 0.068823 0.0249147 0.161392 0.0802317 0.020026 0.0250642 0.0435984 0.0495784 -0.0531492 0.0155685 -0.0632446 -0.0347846 0.0311564 0.0118317 -0.0078112 -0.0780056 -0.019727 -0.0337829 -0.101098 0.00755969 -0.0164674 -0.0471481 -0.00874096 0.0342149 0.0251721 -0.0106787 -0.0532153 0.0620742 0.0815226 -0.026755 0.0242787 -0.0190302 -0.0123136 -0.0885492 -0.00582424 0.0864804 -0.0803081
9915 -0.0606112 0.0431818 -0.0127734 -0.0169099 -0.0189914 0.123317 0.0119318 0.00326169 -0.175079 0.00342631 0.0735443 -0.0670422 -0.00105251 0.0499015 0.0415794 0.102271 0.00524781 0.0100775 0.0253206 -0.00566588 -0.0120598 -0.0325437 -0.046377 -0.0106675 -0.00968354 -0.0188624 0.0246555 -0.00617543 -0.0458668 0.039489 -0.0171955 -0.0986624 -0.0478827 -0.0684069 -0.0426873 0.00405785 0.0716262 0.0626902 -0.0527464 -0.0279026 0.0308767 -0.00398138 -0.0316154 0.0229252 0.0388743 0.0233184 -0.116202 0.010975 0.0334847 -0.00490106
