5525 50
4884 0.122293 0.132481 -0.0266555 -0.16929 -0.0534447 0.179486 -0.173354 -0.0863983 0.011241 0.062546 0.177808 0.23656 0.0830843 -0.0835627 -0.126312 -0.0941594 -0.116571 0.0776833 -0.208945 -0.131732 0.0502364 0.0556158 0.188688 -0.184417 -0.0960441 0.00429234 -0.0958938 0.163138 0.250538 0.165598 -0.174725 0.276536 0.103825 0.182291 -0.126488 -0.0746857 0.133459 -0.0352748 0.0372004 -0.108704 -0.0870508 -0.166104 -0.271292 -0.086538 0.0632191 -0.181068 -0.242478 0.154572 -0.144616 0.17531
566 0.115997 0.111768 -0.0358962 -0.14228 -0.0367465 0.15864 -0.146793 -0.0716344 -0.00799387 0.0436394 0.167758 0.203743 0.0714415 -0.0739472 -0.118337 -0.0920584 -0.106043 0.07116 -0.176807 -0.126051 0.0361855 0.0570491 0.150296 -0.143943 -0.0765896 -0.00625574 -0.0779055 0.136194 0.207375 0.130146 -0.153931 0.231928 0.0824541 0.164623 -0.105818 -0.056202 0.113149 -0.0306754 0.0216185 -0.0986717 -0.0610781 -0.131804 -0.237005 -0.0930913 0.0523428 -0.149552 -0.195861 0.138295 -0.118624 0.138517
6068 0.150074 0.148823 -0.0279842 -0.183399 -0.0398574 0.205107 -0.192366 -0.0901766 -0.00420239 0.0604366 0.212579 0.260101 0.0952122 -0.0859066 -0.139413 -0.119586 -0.126877 0.0854109 -0.226081 -0.144587 0.0525528 0.0626266 0.203386 -0.211883 -0.102888 -0.00315322 -0.126081 0.17941 0.287528 0.161424 -0.201071 0.298082 0.119627 0.207858 -0.150217 -0.065551 0.155212 -0.0545719 0.0392386 -0.126214 -0.0886357 -0.171093 -0.295174 -0.105925 0.061246 -0.188607 -0.259358 0.187287 -0.157559 0.182979
1758 0.058835 0.0672108 -0.00337 -0.0840303 -0.0140091 0.0826287 -0.0966517 -0.0435068 0.00392635 0.0245215 0.10057 0.114869 0.0397704 -0.0222627 -0.0625219 -0.0389981 -0.0506794 0.0413095 -0.0945834 -0.0642932 0.0209747 0.0162893 0.0829969 -0.0907465 -0.0516867 -0.00102842 -0.0564876 0.0695242 0.134188 0.0850382 -0.0813849 0.128436 0.0551364 0.0887208 -0.0737098 -0.0338993 0.0760537 -0.0160935 0.0234415 -0.0541426 -0.0275083 -0.0723587 -0.125336 -0.0508087 0.0308846 -0.0925451 -0.117398 0.0854119 -0.0610775 0.0873347
2526 0.0372145 0.0528791 -0.00649487 -0.096978 -0.0264067 0.0752041 -0.107762 -0.0473832 0.0117491 0.0297058 0.108693 0.138333 0.037271 -0.0219184 -0.0398413 -0.0274324 -0.0703041 0.040476 -0.109359 -0.0525252 0.0409247 0.00214404 0.102431 -0.109349 -0.0530103 0.00892228 -0.0634102 0.0912465 0.142803 0.0887536 -0.0944776 0.140768 0.0559831 0.109973 -0.0712043 -0.0432151 0.0862444 -0.00682431 0.0246922 -0.0590197 -0.0358824 -0.0853991 -0.154 -0.0438368 0.0206161 -0.110149 -0.122484 0.120494 -0.0734704 0.0873083
2723 0.117617 0.125482 -0.0397688 -0.151881 -0.0320335 0.174017 -0.173023 -0.086606 0.00806365 0.06087 0.182432 0.215173 0.0800352 -0.0848718 -0.124354 -0.0922905 -0.10297 0.0846995 -0.193202 -0.129454 0.032501 0.0502629 0.164108 -0.175727 -0.0915506 0.011942 -0.0981731 0.14147 0.240118 0.14267 -0.166337 0.248101 0.101838 0.183269 -0.11747 -0.0590523 0.127557 -0.0429771 0.0273054 -0.107676 -0.0777283 -0.139532 -0.255804 -0.0832091 0.0601218 -0.162212 -0.210767 0.142292 -0.117095 0.15125
3232 0.0396215 0.04924 0.00467479 -0.0652504 -0.0239427 0.0695676 -0.0846507 -0.0323664 0.00136945 0.028303 0.0904168 0.114408 0.0249276 -0.0116532 -0.0461147 -0.0317234 -0.0468943 0.0281708 -0.0934757 -0.0457455 0.0329833 0.00963494 0.0896605 -0.0823373 -0.0415115 -0.00138254 -0.0570697 0.0724577 0.130013 0.0605538 -0.0861982 0.119163 0.0331639 0.0838952 -0.0595036 -0.0478081 0.0694025 -0.0140079 0.0222523 -0.0448379 -0.0378305 -0.0794834 -0.129344 -0.042422 0.0210202 -0.0980345 -0.106495 0.0890575 -0.0644855 0.075282
1926 0.218448 0.224506 -0.0648165 -0.259956 -0.0721055 0.27116 -0.253261 -0.131477 0.0074003 0.101283 0.269537 0.344388 0.145431 -0.148071 -0.220283 -0.174716 -0.172726 0.139515 -0.305958 -0.217249 0.0367637 0.100812 0.275503 -0.255371 -0.120435 0.0077912 -0.135404 0.219548 0.376728 0.232763 -0.265158 0.399622 0.149741 0.275057 -0.196041 -0.0929582 0.21885 -0.0768994 0.0460968 -0.172889 -0.132356 -0.218716 -0.396651 -0.144952 0.113569 -0.238068 -0.347999 0.207467 -0.207306 0.253477
84 0.085503 0.0933575 -0.0262653 -0.118363 -0.034011 0.127542 -0.119477 -0.0589862 -0.00632834 0.033097 0.126929 0.160321 0.0636631 -0.0518699 -0.0908437 -0.0772293 -0.0842622 0.0598847 -0.136302 -0.100834 0.0365788 0.0350878 0.126447 -0.131681 -0.0603977 0.00477149 -0.0809111 0.109525 0.177894 0.110259 -0.118145 0.179754 0.0707494 0.136785 -0.0891502 -0.04927 0.0927507 -0.0291856 0.0328693 -0.0787389 -0.0499586 -0.110744 -0.182125 -0.0642702 0.0367892 -0.118013 -0.165534 0.122806 -0.0891492 0.115457
1522 0.0867245 0.0882349 -0.0237733 -0.111912 -0.037152 0.107418 -0.129497 -0.0635209 0.0127254 0.0388629 0.131974 0.167245 0.0557152 -0.0463387 -0.0896271 -0.0569369 -0.0733231 0.0620094 -0.134488 -0.0761857 0.0414401 0.0342807 0.137226 -0.133406 -0.0671644 0.00754362 -0.0767037 0.10398 0.173258 0.108713 -0.129594 0.192753 0.07173 0.131987 -0.0895811 -0.0569853 0.0938683 -0.0167394 0.019443 -0.0703604 -0.054247 -0.115048 -0.200295 -0.0576393 0.034955 -0.129038 -0.165808 0.115483 -0.0954798 0.116131
1280 0.119214 0.121262 -0.0216911 -0.163546 -0.0376867 0.156413 -0.167376 -0.0713327 0.0107121 0.0529112 0.187911 0.229293 0.0743435 -0.0552941 -0.110788 -0.0806889 -0.0968084 0.0699074 -0.197392 -0.108044 0.0534124 0.0374539 0.172581 -0.17769 -0.0996069 0.0150942 -0.0991503 0.16368 0.241431 0.136368 -0.178882 0.250825 0.0909014 0.19168 -0.124315 -0.0667942 0.128404 -0.0253586 0.033348 -0.109053 -0.0692544 -0.154763 -0.24958 -0.0800446 0.0489778 -0.165792 -0.226776 0.16868 -0.134763 0.156342
3967 0.0902683 0.0855678 -0.0289452 -0.0954815 -0.0347267 0.112009 -0.102894 -0.0556294 0.00145021 0.0376098 0.118211 0.12921 0.0700251 -0.0547966 -0.0965165 -0.0670216 -0.0671292 0.0625192 -0.127989 -0.10217 0.00828364 0.0446448 0.110714 -0.10617 -0.0507685 0.00800276 -0.0532682 0.0800048 0.155842 0.104998 -0.102826 0.176528 0.0695159 0.102044 -0.0869066 -0.0396731 0.0934722 -0.0328913 0.0221978 -0.0633625 -0.0481124 -0.094165 -0.168322 -0.0622121 0.0514376 -0.0892388 -0.145774 0.0906252 -0.0926172 0.105198
5998 0.0393702 0.0416878 0.00720091 -0.0613419 -0.0187023 0.069683 -0.0726992 -0.0266326 -0.0027676 0.0262046 0.0842466 0.102653 0.0114359 -0.0205099 -0.0309015 -0.0307832 -0.0367523 0.0327657 -0.0702681 -0.0335154 0.0365991 0.0105306 0.0836055 -0.0833388 -0.0506345 0.00446366 -0.0454024 0.0759077 0.107494 0.0665306 -0.0764139 0.106486 0.0329914 0.0829879 -0.0468282 -0.0295957 0.0557675 -0.013124 0.0146223 -0.0470772 -0.0180379 -0.0780881 -0.11821 -0.0322578 0.0189543 -0.075842 -0.0986239 0.0873826 -0.0480469 0.0633703
3399 0.0438632 0.0602467 -0.0102253 -0.079876 -0.0338812 0.0825613 -0.103317 -0.0310164 0.0100256 0.0179935 0.103779 0.126404 0.0357089 -0.0230955 -0.0323409 -0.0333325 -0.0460643 0.0297488 -0.0978336 -0.0544688 0.0413704 0.000852941 0.0859667 -0.109102 -0.0571503 0.00220854 -0.0623759 0.0907791 0.131626 0.0811059 -0.0895255 0.124168 0.0480027 0.0990199 -0.0713852 -0.0512819 0.0642479 -0.0106594 0.028482 -0.066913 -0.0378194 -0.0866189 -0.156263 -0.0518221 0.0185595 -0.109744 -0.119133 0.110903 -0.0593922 0.0964718
1802 0.133744 0.154793 -0.0237793 -0.167221 -0.0482954 0.172736 -0.183644 -0.0808823 -0.00263326 0.0501339 0.189264 0.235569 0.101691 -0.085559 -0.144838 -0.114872 -0.116273 0.0909408 -0.208325 -0.140584 0.0353702 0.0661582 0.201289 -0.196259 -0.0935646 0.00512529 -0.113048 0.149159 0.264013 0.167256 -0.181606 0.286711 0.100231 0.192523 -0.139474 -0.0748653 0.141469 -0.044031 0.0494616 -0.114691 -0.0822327 -0.157388 -0.266055 -0.102872 0.066871 -0.173782 -0.248075 0.168924 -0.132784 0.167904
272 0.206621 0.213753 -0.062417 -0.252138 -0.0685756 0.254698 -0.236468 -0.127922 0.00732978 0.092867 0.273871 0.334813 0.140268 -0.123314 -0.212695 -0.166076 -0.170382 0.11641 -0.279609 -0.19686 0.0488931 0.0915341 0.266243 -0.247955 -0.12739 0.0036947 -0.14749 0.206298 0.355691 0.233755 -0.262865 0.398574 0.154362 0.27337 -0.183122 -0.0797405 0.209199 -0.0665911 0.0558772 -0.15904 -0.115719 -0.215087 -0.382349 -0.140589 0.104564 -0.233316 -0.34465 0.221547 -0.204237 0.244361
981 0.149053 0.159367 -0.0372364 -0.183019 -0.0417928 0.200897 -0.194259 -0.100823 0.0101382 0.0544979 0.19647 0.250728 0.0995408 -0.0897647 -0.145728 -0.123028 -0.134505 0.0905563 -0.213206 -0.141272 0.0495523 0.0725604 0.192895 -0.191175 -0.091918 -0.00220825 -0.112123 0.16161 0.273364 0.164001 -0.203441 0.281853 0.102515 0.213296 -0.135722 -0.0763709 0.164253 -0.047808 0.0464557 -0.116918 -0.0985952 -0.172172 -0.292913 -0.100794 0.0785286 -0.191287 -0.260492 0.180261 -0.150796 0.190259
130 0.0950715 0.0993149 -0.022069 -0.141289 -0.0440082 0.150424 -0.163335 -0.0758121 0.00983347 0.0404703 0.173955 0.211806 0.0704049 -0.0461712 -0.104646 -0.0725514 -0.0957437 0.0664534 -0.176405 -0.110175 0.0474354 0.0338325 0.16097 -0.173198 -0.0827729 0.000481251 -0.0926381 0.152797 0.230149 0.129961 -0.158736 0.234247 0.0907335 0.165198 -0.113236 -0.0604668 0.129701 -0.037145 0.034249 -0.102846 -0.0697031 -0.136864 -0.246105 -0.0911563 0.0348255 -0.169293 -0.196307 0.155655 -0.114794 0.142813
1191 0.0575634 0.0562597 -0.00554465 -0.0637629 -0.0221152 0.0709227 -0.0649191 -0.0255886 -0.00501348 0.0243009 0.0633137 0.0885399 0.041348 -0.0202294 -0.0528479 -0.0455485 -0.0306197 0.0387675 -0.0777648 -0.0544424 0.0091765 0.0245535 0.0634115 -0.0561231 -0.0241827 0.00598452 -0.0285634 0.0559771 0.0859738 0.0466807 -0.058993 0.0905244 0.029709 0.0722469 -0.0518827 -0.0211986 0.0435753 -0.0161546 0.0119938 -0.0471079 -0.0348488 -0.0586661 -0.0910736 -0.0309006 0.0171767 -0.0639551 -0.0897588 0.0556215 -0.0509539 0.0558752
1484 0.262035 0.25971 -0.086197 -0.287833 -0.0717323 0.311676 -0.26984 -0.147461 -2.36482e-05 0.108205 0.293191 0.365268 0.171254 -0.156417 -0.262008 -0.199177 -0.188491 0.151887 -0.329293 -0.251082 0.0426894 0.128806 0.30471 -0.287161 -0.132112 -0.00737751 -0.153459 0.226621 0.406558 0.265208 -0.303513 0.455185 0.182278 0.310268 -0.221073 -0.0860923 0.235914 -0.0830111 0.0552021 -0.174653 -0.152339 -0.235744 -0.422006 -0.173751 0.130495 -0.267837 -0.383325 0.231072 -0.21895 0.277483
909 0.101553 0.109281 -0.0200577 -0.124465 -0.0369583 0.128555 -0.148481 -0.0589383 -0.00129455 0.0421764 0.152628 0.183653 0.0620837 -0.0452403 -0.104777 -0.0683483 -0.0791732 0.0547319 -0.159999 -0.0931392 0.0452823 0.0300467 0.1405 -0.154334 -0.0737737 0.0021547 -0.0957375 0.132038 0.208625 0.117193 -0.141396 0.221035 0.0830689 0.163257 -0.0983612 -0.0590619 0.116898 -0.0328633 0.0380174 -0.0894724 -0.0541026 -0.125321 -0.216942 -0.0858101 0.0360198 -0.141306 -0.181965 0.132947 -0.111972 0.137179
5620 0.192125 0.19239 -0.0510394 -0.23327 -0.0605581 0.246432 -0.239249 -0.12734 -0.00228981 0.082386 0.257555 0.307085 0.129783 -0.122951 -0.18846 -0.150811 -0.14831 0.114978 -0.277613 -0.191493 0.0548647 0.0853024 0.247356 -0.250999 -0.111741 0.00146932 -0.139059 0.211104 0.345147 0.213031 -0.236084 0.368302 0.142047 0.245765 -0.188004 -0.0865778 0.197921 -0.0567512 0.055902 -0.143869 -0.111832 -0.209113 -0.353214 -0.131905 0.0902653 -0.234161 -0.315566 0.204069 -0.185382 0.225576
4602 0.0677576 0.0697042 -0.00844887 -0.104387 -0.0185526 0.10368 -0.103832 -0.0534666 0.00159557 0.0241266 0.104283 0.134856 0.0452248 -0.0378697 -0.0595785 -0.0432529 -0.0615914 0.0455891 -0.115608 -0.0591386 0.0376987 0.0161989 0.113575 -0.117121 -0.0524256 0.00837577 -0.0740193 0.0977927 0.146998 0.0979891 -0.105574 0.158981 0.0559675 0.106613 -0.0711199 -0.0551208 0.0855598 -0.0149244 0.0215303 -0.0742939 -0.0490442 -0.100319 -0.161791 -0.0529561 0.0347942 -0.117124 -0.129336 0.114517 -0.0742287 0.0969973
1590 0.0329183 0.0268196 0.0146735 -0.058598 -0.0173182 0.0532275 -0.0817369 -0.0274811 0.00222201 0.00587266 0.0642834 0.0980236 0.0182911 -0.0177641 -0.0317102 -0.0227401 -0.0427407 0.0180559 -0.0782097 -0.0284207 0.0339627 0.0136135 0.071206 -0.0898544 -0.0409341 0.00235944 -0.0494265 0.0605291 0.111717 0.0541501 -0.0734991 0.110609 0.0296398 0.086803 -0.0561321 -0.0471193 0.0544864 -0.00169775 0.0100768 -0.0377708 -0.0246284 -0.0670571 -0.0962464 -0.0382062 0.0183255 -0.0730114 -0.0845636 0.0857865 -0.046146 0.0716641
2198 0.172151 0.186564 -0.0534514 -0.210832 -0.058371 0.209733 -0.208627 -0.0972229 0.00425382 0.0776083 0.223884 0.272133 0.103314 -0.102539 -0.163167 -0.12781 -0.13489 0.0918657 -0.234703 -0.161246 0.0412261 0.0715914 0.221685 -0.211662 -0.104484 0.00429598 -0.115553 0.171468 0.295503 0.193604 -0.204217 0.314069 0.125911 0.215795 -0.165731 -0.0717489 0.161059 -0.0466379 0.0510608 -0.126673 -0.100226 -0.187486 -0.308345 -0.108455 0.078574 -0.189482 -0.27679 0.187393 -0.155468 0.195062
3220 0.127917 0.140846 -0.0336145 -0.173673 -0.0434103 0.181713 -0.189622 -0.0870478 0.0108522 0.0481045 0.191703 0.232499 0.0852795 -0.0689452 -0.130924 -0.101766 -0.124119 0.088164 -0.20608 -0.136264 0.0560421 0.0517864 0.203744 -0.190723 -0.0914442 0.00919075 -0.102213 0.168345 0.259917 0.168335 -0.189355 0.280115 0.0974772 0.20681 -0.143727 -0.0677692 0.151609 -0.0404918 0.0328632 -0.121308 -0.0888095 -0.170439 -0.289652 -0.101993 0.0662447 -0.173733 -0.244139 0.16506 -0.148352 0.183048
4 0.0483512 0.0566355 -0.00700387 -0.102329 -0.0349375 0.0944273 -0.108006 -0.0514546 0.0129433 0.0334193 0.113341 0.148107 0.0305381 -0.0173257 -0.0618212 -0.0362896 -0.0742457 0.0334358 -0.111721 -0.0539087 0.0437826 0.0202501 0.112771 -0.10853 -0.062075 -0.00239557 -0.0647568 0.0935295 0.147076 0.0815071 -0.114068 0.145491 0.0479098 0.11729 -0.0700118 -0.0413276 0.0922645 -0.0261029 0.021948 -0.074476 -0.0501587 -0.10704 -0.161198 -0.0553336 0.0236014 -0.107407 -0.13932 0.118652 -0.0837252 0.110406
108 0.159967 0.169993 -0.0509066 -0.213959 -0.0531258 0.210755 -0.218386 -0.0983775 0.0090463 0.0744623 0.236034 0.28367 0.119072 -0.0993956 -0.170313 -0.12802 -0.144512 0.102086 -0.24895 -0.176332 0.0401234 0.0809119 0.229767 -0.228181 -0.116779 0.00594642 -0.120789 0.185106 0.310415 0.190169 -0.228754 0.320682 0.128979 0.232762 -0.153609 -0.0858194 0.182138 -0.0573353 0.0534781 -0.132767 -0.104653 -0.196631 -0.322871 -0.127074 0.0890398 -0.202993 -0.298989 0.197045 -0.171851 0.216879
4604 0.0647208 0.0866944 -0.0202821 -0.0901072 -0.0303374 0.110636 -0.0967814 -0.0515528 -0.00541663 0.0228235 0.102413 0.142012 0.0504089 -0.0502816 -0.0740609 -0.0590386 -0.0605925 0.0554401 -0.115684 -0.0687699 0.0221256 0.0276143 0.102653 -0.115324 -0.0519546 0.0101335 -0.0636522 0.0876509 0.155442 0.094029 -0.101113 0.163484 0.0637164 0.113867 -0.0680845 -0.0425774 0.0845164 -0.0149016 0.0187724 -0.0637709 -0.0418573 -0.0876954 -0.156539 -0.065497 0.045681 -0.112784 -0.135057 0.0935786 -0.0822811 0.110071
3669 0.118991 0.134689 -0.0268306 -0.149379 -0.041139 0.1544 -0.156488 -0.0871851 -0.00114343 0.0506653 0.168897 0.213389 0.0826559 -0.0765979 -0.121962 -0.0938174 -0.105339 0.0783964 -0.178618 -0.131041 0.0312047 0.065898 0.16504 -0.175587 -0.0817673 0.00623279 -0.0966208 0.13996 0.248501 0.15113 -0.172505 0.259972 0.0986306 0.167002 -0.116917 -0.0617712 0.13953 -0.0468772 0.0270774 -0.113779 -0.0724739 -0.153872 -0.238673 -0.0879028 0.0640059 -0.148194 -0.217614 0.150134 -0.126721 0.161673
672 0.017809 0.0234917 0.0160749 -0.0510247 -0.0251902 0.0428627 -0.0692898 -0.032172 0.0125539 0.00434928 0.0649452 0.0903367 0.00136977 -0.00675924 -0.0104575 -0.0112985 -0.0311231 0.0258169 -0.0649091 -0.0315088 0.0496824 -0.00117537 0.0722961 -0.0762947 -0.0394753 0.00251095 -0.0542645 0.0683437 0.10085 0.0588587 -0.070335 0.0912161 0.0240215 0.0851054 -0.0554962 -0.0515502 0.0428944 -0.00214514 0.0136137 -0.0352347 -0.0225084 -0.0680241 -0.105237 -0.0230444 -0.00197584 -0.0750017 -0.079558 0.09248 -0.0426685 0.0564882
1203 0.0671736 0.0692633 -0.00485703 -0.108002 -0.0314649 0.0997109 -0.117258 -0.0506734 0.0125038 0.0357553 0.119474 0.152609 0.0395022 -0.0449306 -0.0680546 -0.0413883 -0.0740713 0.0515943 -0.113751 -0.0791673 0.0385401 0.0227874 0.115506 -0.122784 -0.0566034 0.00778175 -0.0724348 0.0981445 0.155648 0.090594 -0.105479 0.156217 0.0540351 0.128248 -0.0746405 -0.0447772 0.0811492 -0.0227322 0.0360347 -0.0771947 -0.0462642 -0.106136 -0.165647 -0.0516585 0.0328706 -0.114126 -0.152851 0.110193 -0.0879217 0.106289
1739 0.0892197 0.0868603 -0.00656769 -0.127335 -0.0394823 0.133897 -0.140374 -0.0729654 0.00305254 0.0503269 0.148376 0.1874 0.0478157 -0.0536253 -0.0880173 -0.0582385 -0.0867482 0.0519278 -0.152572 -0.0875372 0.0457781 0.0342212 0.140747 -0.147657 -0.0711741 0.00331016 -0.10134 0.129647 0.205785 0.12102 -0.141669 0.207135 0.081343 0.165258 -0.104682 -0.0713191 0.122637 -0.0202619 0.0268497 -0.0923777 -0.0610189 -0.137481 -0.216683 -0.081551 0.0290952 -0.140335 -0.179251 0.146703 -0.0999511 0.14222
1995 0.0513382 0.0608649 -0.00919995 -0.077844 -0.0169299 0.0704255 -0.0668477 -0.0384852 0.00538075 0.0236485 0.0740912 0.0873865 0.0384869 -0.0220843 -0.0433607 -0.0375018 -0.04425 0.0354238 -0.0764663 -0.0514473 0.0259304 0.0108223 0.0766992 -0.0733821 -0.0348601 0.0076228 -0.0465793 0.0612019 0.104981 0.0600445 -0.0823546 0.0995134 0.0329631 0.0814578 -0.0493483 -0.023289 0.0616694 -0.0120888 0.00893181 -0.0422984 -0.0235013 -0.0732417 -0.119142 -0.0431481 0.0127907 -0.0708882 -0.0946627 0.0710711 -0.0661932 0.0792866
1792 0.0431697 0.0495874 0.0044422 -0.087616 -0.032092 0.0791047 -0.0881837 -0.0335941 0.0084869 0.0138779 0.0940074 0.123789 0.0261175 -0.0205352 -0.0473998 -0.0285669 -0.0553345 0.0424495 -0.0877931 -0.0442318 0.0453497 0.00346583 0.0976903 -0.106816 -0.0440326 0.0153568 -0.064316 0.0899261 0.139898 0.0671573 -0.0843398 0.133793 0.0461621 0.103897 -0.0695551 -0.0384336 0.075179 -0.0199433 0.0251397 -0.0577384 -0.0218615 -0.0886117 -0.133321 -0.0355096 0.0220131 -0.0980003 -0.105462 0.0982842 -0.0618931 0.0867121
4959 0.0440462 0.0338051 0.00378663 -0.0724685 -0.0279078 0.071494 -0.0860802 -0.0241595 0.00269715 0.0161112 0.086181 0.111872 0.0115246 -0.0156576 -0.0243051 -0.0146642 -0.0398921 0.0197305 -0.0902457 -0.0469743 0.0422802 0.00259904 0.0713096 -0.0953739 -0.0469495 0.00405634 -0.0573309 0.0879198 0.123711 0.0662776 -0.0791803 0.107269 0.0478396 0.0957893 -0.0570584 -0.0397742 0.0637392 -0.00724839 0.0163047 -0.0460242 -0.0176485 -0.0742216 -0.133911 -0.0386005 0.00436409 -0.0867426 -0.0962885 0.098829 -0.063827 0.0738106
1451 0.169174 0.17309 -0.0489096 -0.18993 -0.0413127 0.203945 -0.201627 -0.105629 0.00214111 0.0718821 0.217475 0.257336 0.104491 -0.0991475 -0.176831 -0.131639 -0.141645 0.101285 -0.233971 -0.162403 0.0426731 0.0744619 0.205572 -0.19677 -0.0979904 -0.00925794 -0.111932 0.170599 0.293669 0.188601 -0.202261 0.316376 0.120311 0.211121 -0.144292 -0.0559973 0.153909 -0.0549019 0.0348258 -0.134605 -0.108948 -0.179769 -0.296687 -0.12198 0.0806308 -0.184781 -0.271628 0.17005 -0.149459 0.177721
3015 0.0957373 0.10153 -0.026494 -0.113636 -0.0402916 0.131255 -0.14037 -0.0533989 -0.0047898 0.0463062 0.145629 0.163051 0.0540827 -0.052509 -0.0974221 -0.0622408 -0.0845969 0.0579694 -0.153344 -0.100312 0.0418644 0.0422092 0.135115 -0.143523 -0.0588928 -0.000861592 -0.0854526 0.11942 0.185372 0.119122 -0.132491 0.210391 0.0688793 0.147916 -0.0911342 -0.051558 0.116525 -0.0388126 0.025187 -0.0801117 -0.053429 -0.12491 -0.208267 -0.0743242 0.0369652 -0.140184 -0.17918 0.123561 -0.0917038 0.116573
2728 0.0971894 0.110661 -0.0229701 -0.123442 -0.0394781 0.145437 -0.14751 -0.0752318 0.00276431 0.0422094 0.145059 0.174911 0.0718467 -0.0649604 -0.096687 -0.0681706 -0.0911768 0.0655784 -0.150291 -0.0947067 0.0428658 0.0396681 0.147926 -0.141893 -0.0679022 -0.00158019 -0.0894989 0.120437 0.207469 0.12549 -0.138009 0.216271 0.0747657 0.147036 -0.113759 -0.056408 0.121465 -0.0338952 0.0286746 -0.0852768 -0.0586433 -0.121287 -0.210292 -0.0866474 0.05293 -0.142572 -0.180665 0.127063 -0.115369 0.133466
805 0.241434 0.238743 -0.074854 -0.263251 -0.0662766 0.292573 -0.252848 -0.137144 -0.00660034 0.0940713 0.275047 0.339915 0.168116 -0.144511 -0.248948 -0.188704 -0.179017 0.138758 -0.304139 -0.24013 0.0247412 0.130311 0.28543 -0.269385 -0.134293 -0.0112806 -0.146396 0.215714 0.388332 0.25076 -0.277979 0.431846 0.166387 0.281818 -0.216095 -0.0758819 0.217275 -0.0711651 0.0577963 -0.176256 -0.146527 -0.235033 -0.411487 -0.156518 0.119871 -0.231598 -0.369317 0.207853 -0.206302 0.25346
2083 0.0554116 0.0604874 -0.00650412 -0.0643142 -0.0276027 0.0674821 -0.0737633 -0.0392077 -0.000305432 0.0150494 0.0883751 0.10919 0.044198 -0.0260707 -0.0555598 -0.0366352 -0.0532704 0.0270903 -0.0828921 -0.0623992 0.0258453 0.0311865 0.0894636 -0.0863364 -0.0408467 -0.00808784 -0.0530364 0.0731435 0.121383 0.0597697 -0.0879123 0.115492 0.0375178 0.0900723 -0.0643278 -0.0234533 0.0648659 -0.019744 0.0245061 -0.0491338 -0.0286416 -0.0637672 -0.121323 -0.041538 0.028019 -0.0831509 -0.0992915 0.0742042 -0.0570747 0.0710472
1057 0.085894 0.0763265 -0.0165013 -0.105353 -0.0176036 0.111013 -0.103848 -0.0438111 0.0067001 0.0326441 0.101148 0.127056 0.0478068 -0.0420099 -0.085612 -0.0488505 -0.0611755 0.0515936 -0.119233 -0.0809681 0.0232957 0.0237022 0.110117 -0.116402 -0.0617136 -0.00776954 -0.0713334 0.0895202 0.15188 0.0931996 -0.110165 0.148009 0.0554493 0.103739 -0.0872574 -0.038285 0.082611 -0.0229615 0.0209341 -0.0650802 -0.0565154 -0.0940608 -0.158404 -0.0504937 0.0406383 -0.109696 -0.134417 0.0991936 -0.0837385 0.109691
723 0.0859924 0.0945627 -0.0173128 -0.115703 -0.0345229 0.124022 -0.134902 -0.059365 0.00234181 0.0409874 0.139662 0.165285 0.0625601 -0.040536 -0.0723118 -0.0607405 -0.0754766 0.0551628 -0.151055 -0.0911177 0.0488625 0.0359752 0.128824 -0.138925 -0.0790634 0.0106863 -0.0743178 0.113075 0.183461 0.121888 -0.127365 0.19162 0.0798372 0.149521 -0.100017 -0.056481 0.0960533 -0.0299669 0.0264562 -0.0760539 -0.0467376 -0.122269 -0.193236 -0.070153 0.0257727 -0.131916 -0.16808 0.127772 -0.10072 0.121714
3924 0.0644309 0.06663 -0.0127904 -0.0859804 -0.0150911 0.0775308 -0.0726119 -0.0418377 -0.00348044 0.0301925 0.092108 0.100197 0.0425161 -0.0320665 -0.0554598 -0.0527921 -0.0614809 0.0435416 -0.0975088 -0.0696869 0.00996047 0.0205167 0.0929386 -0.0868961 -0.0459278 0.0021802 -0.0383412 0.0693083 0.117797 0.075484 -0.0814108 0.119708 0.0562897 0.0776754 -0.0691037 -0.0352255 0.0670768 -0.0146097 0.014382 -0.0492875 -0.041886 -0.0736918 -0.118821 -0.0550706 0.0242586 -0.0733511 -0.116451 0.0760038 -0.0540307 0.0849398
913 0.0760532 0.0844398 -0.0159622 -0.0987895 -0.0258951 0.109252 -0.11486 -0.0543885 0.0157053 0.0253646 0.120655 0.152517 0.0563703 -0.0353778 -0.0633519 -0.0635718 -0.0777425 0.0553647 -0.118401 -0.0787652 0.0495572 0.0340397 0.128574 -0.128224 -0.0530239 0.0142707 -0.0724292 0.105442 0.162731 0.108461 -0.123285 0.178615 0.0648105 0.135539 -0.0755723 -0.05723 0.089044 -0.031451 0.0296116 -0.0714016 -0.0489338 -0.110854 -0.185494 -0.0550632 0.0422672 -0.122703 -0.160839 0.115936 -0.080573 0.11222
3592 0.187595 0.184481 -0.0577455 -0.203285 -0.0502319 0.223462 -0.2123 -0.117978 -0.00445748 0.0868188 0.232134 0.290333 0.127601 -0.110274 -0.185656 -0.147181 -0.152051 0.118189 -0.243073 -0.178662 0.0187841 0.101968 0.231965 -0.224983 -0.110474 0.00135848 -0.120512 0.184563 0.319419 0.196209 -0.229592 0.345703 0.126882 0.224641 -0.175362 -0.0684407 0.174056 -0.0695148 0.0503031 -0.140089 -0.124568 -0.189543 -0.339756 -0.129225 0.103032 -0.206945 -0.299234 0.167679 -0.170979 0.198796
4886 0.139242 0.157476 -0.0359339 -0.180718 -0.0509954 0.179523 -0.181604 -0.0910062 0.00142654 0.0624153 0.185248 0.241236 0.102484 -0.0960756 -0.160081 -0.118597 -0.119672 0.08783 -0.214398 -0.142278 0.0245816 0.0740742 0.184802 -0.189159 -0.0984665 -0.000388884 -0.101566 0.14288 0.260532 0.155334 -0.183417 0.275738 0.0983245 0.196714 -0.126686 -0.0569999 0.158039 -0.0498993 0.0374562 -0.12382 -0.0984703 -0.164469 -0.270195 -0.107719 0.0712699 -0.1709 -0.246482 0.154679 -0.149684 0.172244
1381 0.178698 0.190801 -0.0506795 -0.19654 -0.0433497 0.226076 -0.203546 -0.102752 -0.00876694 0.0759071 0.226225 0.264789 0.126838 -0.106441 -0.179036 -0.148013 -0.13666 0.09681 -0.246898 -0.17496 0.029769 0.0906411 0.214881 -0.210989 -0.0944459 -0.00133739 -0.120579 0.181168 0.303859 0.196204 -0.221367 0.327657 0.13024 0.229131 -0.151046 -0.0674454 0.180422 -0.0641569 0.0371111 -0.129889 -0.109565 -0.183356 -0.3231 -0.112971 0.080074 -0.182606 -0.279337 0.16627 -0.162684 0.203071
3791 0.0460569 0.0584604 -0.0056749 -0.0821005 -0.0212104 0.0836153 -0.101821 -0.0382254 0.00114691 0.022739 0.100862 0.122464 0.0281477 -0.0194938 -0.0531771 -0.0386726 -0.055103 0.0434896 -0.107122 -0.0612368 0.0293394 0.0155203 0.0882379 -0.109817 -0.053879 -0.00474364 -0.0557212 0.0805586 0.131281 0.074408 -0.0960574 0.128621 0.0483079 0.093367 -0.0747903 -0.0528885 0.0754099 -0.00735899 0.0239276 -0.0667543 -0.0294375 -0.0944587 -0.138794 -0.0442498 0.0186714 -0.0935272 -0.108512 0.104989 -0.0682504 0.0834382
1473 0.124832 0.126064 -0.0205856 -0.146862 -0.0463764 0.156718 -0.156901 -0.0865026 -0.00244814 0.0490579 0.181373 0.20985 0.0745104 -0.0771357 -0.123432 -0.0996175 -0.098465 0.0804669 -0.178648 -0.122851 0.045649 0.0494533 0.181665 -0.173442 -0.091249 4.14245e-05 -0.107303 0.146459 0.239827 0.142788 -0.164844 0.250033 0.0944463 0.170981 -0.11269 -0.0561512 0.127244 -0.0363113 0.0456646 -0.109124 -0.0756305 -0.15009 -0.247006 -0.101141 0.0572279 -0.161571 -0.226006 0.156421 -0.130057 0.166641
2729 0.0383341 0.0371869 0.0108591 -0.0852971 -0.0259566 0.0787744 -0.09159 -0.0358802 0.0107949 0.0217722 0.096662 0.123767 0.0146259 -0.0188034 -0.0228884 -0.0285586 -0.0429536 0.0361129 -0.0847891 -0.040836 0.04474 0.00964679 0.091605 -0.106349 -0.0465536 0.00597124 -0.0588272 0.0840426 0.121065 0.0753246 -0.0950355 0.120355 0.045039 0.101756 -0.0580401 -0.048924 0.0582291 -0.0186996 0.0284339 -0.0540757 -0.0314021 -0.0788465 -0.132579 -0.0331739 0.00607669 -0.095296 -0.114043 0.104344 -0.0667386 0.0900879
2243 0.120527 0.128959 -0.0195875 -0.149152 -0.0348755 0.157926 -0.146036 -0.0796847 0.00813023 0.0402251 0.166517 0.198767 0.0812736 -0.0609736 -0.114667 -0.0889253 -0.100936 0.0709123 -0.174543 -0.106024 0.0289519 0.0555098 0.160042 -0.155722 -0.0693382 0.00546004 -0.0815631 0.125974 0.227806 0.130204 -0.146894 0.219613 0.0755348 0.154483 -0.108805 -0.0672512 0.120199 -0.0352741 0.0367156 -0.0943405 -0.0612728 -0.126783 -0.234301 -0.0864864 0.0532882 -0.138072 -0.197208 0.131519 -0.115092 0.139064
2948 0.0934502 0.0991316 -0.0165663 -0.120088 -0.0332087 0.129146 -0.137954 -0.0676171 -0.00121054 0.0365304 0.137959 0.184571 0.0536741 -0.0503184 -0.0789293 -0.0696743 -0.0802073 0.0660875 -0.159106 -0.086952 0.0372673 0.025126 0.141287 -0.150585 -0.0683422 -0.00403604 -0.0879567 0.120344 0.197334 0.125714 -0.133921 0.201823 0.0702797 0.151475 -0.103339 -0.0588467 0.116824 -0.0328936 0.0297133 -0.0853375 -0.0604463 -0.128835 -0.220334 -0.0690228 0.0502488 -0.130632 -0.18633 0.142015 -0.11328 0.121599
1538 0.154964 0.157344 -0.0440394 -0.188729 -0.0378706 0.198498 -0.190377 -0.0846569 0.0040454 0.0615533 0.207952 0.257869 0.0977423 -0.0889991 -0.146849 -0.101965 -0.115907 0.0844899 -0.220178 -0.153705 0.0404143 0.0664319 0.2129 -0.200685 -0.0971632 0.00071587 -0.109089 0.166826 0.274788 0.173277 -0.201058 0.291881 0.105107 0.208125 -0.146897 -0.0674365 0.158835 -0.0441884 0.0478576 -0.115109 -0.0841561 -0.165014 -0.304423 -0.10568 0.0756861 -0.193623 -0.264915 0.181384 -0.149335 0.178631
2344 0.154113 0.151305 -0.034847 -0.172089 -0.042369 0.195367 -0.193221 -0.0857445 0.00824125 0.0555975 0.190656 0.253381 0.107819 -0.0934098 -0.147859 -0.109183 -0.118207 0.0973172 -0.207448 -0.144299 0.0364192 0.0652085 0.190496 -0.185466 -0.102647 0.00887934 -0.102412 0.1608 0.276023 0.164086 -0.19963 0.287729 0.111788 0.205099 -0.141503 -0.0581639 0.144643 -0.0494536 0.0390132 -0.129265 -0.0940419 -0.157941 -0.293232 -0.113286 0.0694085 -0.170141 -0.249414 0.155789 -0.148934 0.170797
2795 0.0420993 0.0666095 0.00790865 -0.0878354 -0.0246734 0.0777809 -0.120836 -0.0500373 0.0135591 0.0205539 0.10001 0.133734 0.0364755 -0.0134292 -0.0513247 -0.0402795 -0.063185 0.0296464 -0.117742 -0.0485866 0.0555026 0.00090728 0.115035 -0.109533 -0.0524685 0.0145408 -0.0659368 0.0935342 0.140491 0.0901245 -0.0960993 0.134998 0.0555566 0.110633 -0.0635288 -0.0600769 0.0796405 -0.00642509 0.0310996 -0.0728662 -0.0283292 -0.0894448 -0.153429 -0.0480396 0.0164063 -0.109412 -0.135728 0.126559 -0.0751082 0.0986517
3562 0.0409382 0.0342682 -0.00484732 -0.076886 -0.0206698 0.0720907 -0.0739474 -0.0360082 0.00437329 0.0238519 0.0919054 0.110715 0.0131934 -0.0115068 -0.0353283 -0.0219671 -0.0420288 0.0315346 -0.0810154 -0.0351416 0.0366991 0.0147764 0.0827555 -0.0805905 -0.0372613 0.0122375 -0.0492313 0.0844161 0.113386 0.0668836 -0.0754427 0.114992 0.033076 0.0830649 -0.0619342 -0.0364569 0.0511268 -0.00161975 0.0171887 -0.0502524 -0.0327746 -0.0810115 -0.118657 -0.0418367 0.0195772 -0.0804728 -0.0961098 0.0804872 -0.0457188 0.0738035
2780 0.19155 0.195622 -0.058253 -0.222213 -0.0622797 0.23808 -0.228717 -0.108917 0.00991363 0.0854724 0.238499 0.310921 0.123719 -0.123469 -0.180403 -0.13393 -0.154867 0.110785 -0.272088 -0.191597 0.0509692 0.0818189 0.24537 -0.241547 -0.120042 0.00362425 -0.137328 0.191104 0.340327 0.21295 -0.23222 0.364577 0.141524 0.240516 -0.182497 -0.0897672 0.188213 -0.0570342 0.0556526 -0.13751 -0.11886 -0.200859 -0.359765 -0.124366 0.0865933 -0.225147 -0.315486 0.191037 -0.173448 0.214217
2320 0.12774 0.129071 -0.0218457 -0.162674 -0.0426379 0.161693 -0.168905 -0.0847739 0.00076145 0.0642036 0.172147 0.224347 0.0764197 -0.0852975 -0.118627 -0.105083 -0.104435 0.0869489 -0.190893 -0.126768 0.0393989 0.0469951 0.180346 -0.176077 -0.0926116 0.00765997 -0.0993559 0.150105 0.248388 0.145549 -0.163423 0.248585 0.0961575 0.187048 -0.116394 -0.0533625 0.131788 -0.0499762 0.0467503 -0.110403 -0.0800453 -0.159524 -0.262991 -0.102745 0.0707825 -0.1668 -0.233011 0.146052 -0.12754 0.170705
2218 0.106948 0.116669 -0.0150046 -0.131851 -0.0334633 0.135626 -0.139884 -0.0551793 0.00404021 0.0436301 0.151731 0.191952 0.060948 -0.0683198 -0.0924743 -0.071877 -0.0877028 0.0525059 -0.165831 -0.0998642 0.0512457 0.0465545 0.144321 -0.149266 -0.0617932 0.00722837 -0.0941583 0.121498 0.194548 0.125921 -0.154789 0.215632 0.083852 0.144047 -0.110718 -0.050981 0.108305 -0.0340433 0.0289158 -0.102626 -0.0641442 -0.13439 -0.228288 -0.0751806 0.0524664 -0.150889 -0.17801 0.122686 -0.105729 0.134224
443 0.0590455 0.0574456 0.0024518 -0.0936633 -0.0324555 0.0943999 -0.115761 -0.0513984 -0.000172027 0.0206999 0.119565 0.144502 0.0271173 -0.0235639 -0.0477417 -0.0393781 -0.0696419 0.0452053 -0.107648 -0.0598191 0.0501258 0.0153736 0.114369 -0.124799 -0.0640397 0.00147107 -0.082861 0.0950266 0.150934 0.0847121 -0.117107 0.160683 0.050989 0.110519 -0.0868348 -0.060268 0.0923321 -0.0202494 0.0204819 -0.0584147 -0.0327646 -0.100935 -0.166795 -0.0419002 0.0291701 -0.111699 -0.130853 0.118286 -0.0803038 0.093282
176 0.373375 0.362073 -0.11136 -0.372257 -0.086413 0.412491 -0.360534 -0.212539 -0.0167711 0.143908 0.413675 0.502939 0.251773 -0.229175 -0.371379 -0.279409 -0.276449 0.193253 -0.459567 -0.344893 0.0284329 0.182665 0.414707 -0.38362 -0.1975 -0.010065 -0.191901 0.308166 0.559283 0.356632 -0.394193 0.604193 0.243146 0.401461 -0.285252 -0.104557 0.332252 -0.123843 0.0853296 -0.251441 -0.212344 -0.317634 -0.584131 -0.244493 0.180389 -0.334251 -0.526274 0.277222 -0.30673 0.367672
1060 0.072379 0.0813088 -0.00622445 -0.113268 -0.0279055 0.10583 -0.117448 -0.0624779 -0.000302716 0.0260503 0.135805 0.155229 0.0531597 -0.0428422 -0.0616525 -0.0405903 -0.0720906 0.0425391 -0.138561 -0.0659693 0.0453744 0.0271 0.133587 -0.121012 -0.0655477 0.00307539 -0.087265 0.117956 0.180151 0.0952889 -0.116556 0.174869 0.0544607 0.13382 -0.0790302 -0.0628548 0.0957936 -0.0251874 0.0239599 -0.0835563 -0.0413725 -0.108108 -0.189231 -0.0526279 0.0235206 -0.127 -0.160973 0.119864 -0.0926882 0.112762
855 0.0831477 0.101517 -0.0142252 -0.121157 -0.0363762 0.129772 -0.137573 -0.0703197 0.000801803 0.0443452 0.151154 0.170229 0.0602332 -0.043329 -0.0793238 -0.0707426 -0.0915455 0.0516661 -0.150469 -0.095493 0.0499835 0.0412394 0.13957 -0.134725 -0.0797311 0.00723186 -0.0904616 0.13107 0.189393 0.11417 -0.133689 0.206849 0.0798984 0.145798 -0.0958608 -0.0654261 0.107353 -0.0270871 0.0389544 -0.0777653 -0.0555215 -0.13043 -0.220219 -0.0786739 0.0334193 -0.133131 -0.174036 0.127521 -0.112845 0.124305
1351 0.121427 0.116821 -0.0304199 -0.139924 -0.0409498 0.160549 -0.148922 -0.067063 -5.99776e-05 0.0407593 0.164093 0.206061 0.0691134 -0.0588597 -0.125539 -0.090575 -0.107795 0.0761917 -0.168698 -0.118768 0.0358516 0.055713 0.167029 -0.162292 -0.0883899 0.00543639 -0.0894978 0.144751 0.235414 0.139192 -0.158038 0.235624 0.0979644 0.159242 -0.112566 -0.053217 0.120559 -0.0346141 0.0265654 -0.105689 -0.0730966 -0.137658 -0.231247 -0.0792074 0.0592206 -0.160839 -0.205061 0.149656 -0.120842 0.14786
1519 0.183744 0.192694 -0.0531944 -0.213882 -0.0538552 0.221242 -0.204691 -0.11725 -0.00294692 0.0833762 0.225387 0.2853 0.132123 -0.122508 -0.199442 -0.149579 -0.148332 0.105159 -0.24676 -0.191412 0.0382615 0.0966252 0.227397 -0.219082 -0.100782 -0.00765137 -0.110657 0.169121 0.31371 0.202997 -0.224853 0.34315 0.141042 0.217911 -0.156306 -0.066946 0.177528 -0.0565825 0.0451666 -0.141466 -0.119896 -0.180614 -0.334992 -0.12224 0.0921799 -0.188331 -0.283407 0.175802 -0.172756 0.200306
1011 0.0392727 0.0556369 -0.00842743 -0.0721712 -0.0139432 0.0693689 -0.0839577 -0.0381388 0.0137583 0.025457 0.0704228 0.0975602 0.0161318 -0.0153557 -0.0449956 -0.0356959 -0.0438458 0.0373751 -0.0781742 -0.0512139 0.0238542 0.0220179 0.0712756 -0.0725549 -0.0319195 0.00804743 -0.0466675 0.0753178 0.112482 0.0627582 -0.0781262 0.111332 0.0459118 0.0873268 -0.0502835 -0.0389948 0.0674292 -0.0229532 0.0168009 -0.0411118 -0.0379963 -0.0692214 -0.123919 -0.0394047 0.0284902 -0.0824648 -0.0924361 0.082009 -0.058402 0.0778489
2860 0.103638 0.0930871 -0.0150047 -0.116772 -0.0402508 0.123 -0.128068 -0.0561146 0.00565577 0.0328937 0.133749 0.170344 0.0647858 -0.0663682 -0.101814 -0.0703058 -0.0857836 0.0603564 -0.149157 -0.103161 0.033142 0.0390798 0.127273 -0.131822 -0.0749987 -0.00391004 -0.0713381 0.109033 0.181911 0.107288 -0.132389 0.196792 0.0858364 0.136592 -0.0908983 -0.0555542 0.114634 -0.0328148 0.0326326 -0.0913654 -0.065462 -0.108088 -0.195719 -0.0819237 0.0480445 -0.131004 -0.16316 0.12201 -0.102572 0.128645
149 0.0883146 0.103771 -0.0109806 -0.12045 -0.0275202 0.114355 -0.135066 -0.0644176 -0.00207454 0.0374656 0.122362 0.169619 0.0477308 -0.0419787 -0.0864706 -0.0687807 -0.0734836 0.0462426 -0.145651 -0.079125 0.0310591 0.0264993 0.118647 -0.125177 -0.0721302 0.0099173 -0.0769393 0.109277 0.180984 0.113826 -0.137483 0.197473 0.0788714 0.127807 -0.103566 -0.0432451 0.105212 -0.027586 0.0184087 -0.0769003 -0.0536754 -0.102371 -0.196106 -0.0791432 0.0309377 -0.116721 -0.166022 0.122756 -0.090219 0.110259
3923 0.0501153 0.0474254 0.00930887 -0.0727843 -0.0199217 0.0849971 -0.0962114 -0.0357774 0.0162985 0.0130222 0.101151 0.128274 0.025984 -0.0141933 -0.0271113 -0.0223528 -0.0556215 0.0233577 -0.0891877 -0.0485439 0.0459542 0.00248803 0.0851376 -0.103075 -0.0423485 0.00447896 -0.074628 0.0869157 0.129314 0.0825052 -0.0869818 0.111101 0.0373398 0.104966 -0.0705843 -0.0445066 0.0677248 -0.01416 0.020974 -0.0640866 -0.0280487 -0.0782222 -0.13581 -0.0335973 0.015291 -0.0941091 -0.116045 0.101754 -0.0615071 0.0958868
3044 0.312811 0.303155 -0.10314 -0.324864 -0.0752814 0.352516 -0.314863 -0.182593 -0.0114612 0.13087 0.352269 0.43719 0.201169 -0.205241 -0.303187 -0.247694 -0.218317 0.163601 -0.386697 -0.29266 0.0371461 0.169555 0.345371 -0.330566 -0.169822 -0.00345141 -0.160487 0.271416 0.475723 0.30538 -0.344464 0.522677 0.203442 0.341691 -0.255218 -0.0857029 0.268667 -0.0910464 0.0631078 -0.207196 -0.171132 -0.284552 -0.497727 -0.191038 0.147349 -0.289466 -0.44744 0.254592 -0.271011 0.301555
5167 0.0793719 0.0881359 -0.0016831 -0.118527 -0.0373083 0.115712 -0.139948 -0.0575412 0.012168 0.0477621 0.146996 0.17166 0.0443283 -0.0519681 -0.0755156 -0.0711007 -0.0906442 0.0590564 -0.141812 -0.0907234 0.0443411 0.0185664 0.132093 -0.143445 -0.0645718 0.0104328 -0.0941433 0.128284 0.190643 0.122672 -0.133238 0.198173 0.0760019 0.147422 -0.104554 -0.0530608 0.109427 -0.0364359 0.0332336 -0.0930118 -0.0609267 -0.113571 -0.210603 -0.0665376 0.0299372 -0.146381 -0.180783 0.146197 -0.106364 0.124434
2664 0.122266 0.113257 -0.0209562 -0.141397 -0.0449773 0.162584 -0.165122 -0.0760861 0.00429746 0.0405734 0.168174 0.199748 0.0789934 -0.0677933 -0.111423 -0.0968514 -0.108939 0.0771566 -0.185306 -0.114136 0.0409867 0.0520575 0.16746 -0.158993 -0.0780321 -0.00758146 -0.0894974 0.139948 0.225432 0.141809 -0.163362 0.241216 0.0849254 0.176396 -0.123025 -0.0517653 0.130135 -0.0278116 0.0363711 -0.0912729 -0.0685599 -0.14257 -0.249767 -0.0790044 0.0607433 -0.15847 -0.197022 0.144853 -0.125034 0.145075
970 0.094733 0.10953 -0.0153395 -0.135839 -0.0347455 0.143317 -0.166239 -0.0628909 0.0153098 0.0518873 0.167833 0.202934 0.072816 -0.0618751 -0.103989 -0.06973 -0.100907 0.0763986 -0.177355 -0.11049 0.0426197 0.0396201 0.157242 -0.170176 -0.0872203 0.0106105 -0.104045 0.143478 0.21781 0.141456 -0.159744 0.229896 0.080612 0.159041 -0.119644 -0.0624765 0.12246 -0.0376158 0.0324808 -0.0928961 -0.0683779 -0.136118 -0.246282 -0.0869469 0.0522125 -0.157861 -0.211581 0.146679 -0.113855 0.146828
235 0.0748762 0.0690932 -0.0111459 -0.104079 -0.024478 0.102824 -0.103543 -0.0389981 -0.00530727 0.0317302 0.101111 0.128866 0.0571157 -0.038113 -0.0741398 -0.0575963 -0.0640765 0.0539484 -0.106599 -0.0750348 0.0258869 0.0290503 0.103511 -0.0996103 -0.0432555 0.00963162 -0.0638318 0.0876009 0.14489 0.088025 -0.10795 0.145215 0.0639635 0.116876 -0.069803 -0.037924 0.0901511 -0.0191239 0.0200357 -0.0602113 -0.0521841 -0.0915311 -0.158997 -0.0528071 0.0370655 -0.0994023 -0.13533 0.0959925 -0.085658 0.0905758
4487 0.0872274 0.079965 -0.0116695 -0.118254 -0.0218118 0.119935 -0.110352 -0.0529569 0.00863415 0.0384953 0.120864 0.154348 0.0476189 -0.040987 -0.0890798 -0.057639 -0.080705 0.0577017 -0.134568 -0.0923609 0.023052 0.0433082 0.108692 -0.112968 -0.0679354 -0.00752303 -0.0734134 0.0931159 0.175806 0.104877 -0.12111 0.172088 0.0683255 0.12394 -0.0917319 -0.0370618 0.0879037 -0.0188537 0.0292542 -0.0803736 -0.0503322 -0.106714 -0.184128 -0.0605334 0.0386023 -0.120922 -0.161897 0.113931 -0.0853598 0.105484
4055 0.0707757 0.070289 -0.0148678 -0.091889 -0.0273328 0.0927665 -0.118735 -0.0508217 0.0142952 0.0345607 0.103679 0.144559 0.0315075 -0.0264361 -0.0632017 -0.0384678 -0.0675547 0.0471542 -0.115384 -0.0569029 0.0344775 0.0125949 0.108557 -0.105242 -0.064627 0.00951735 -0.071697 0.0919883 0.16391 0.0829593 -0.118385 0.150263 0.0517873 0.11422 -0.0865484 -0.0532506 0.093907 -0.0221637 0.0309939 -0.072805 -0.0412245 -0.0993973 -0.1656 -0.057498 0.0262791 -0.110927 -0.146588 0.117201 -0.0737505 0.113262
4697 0.0879306 0.107656 -0.0197049 -0.156168 -0.0328894 0.142923 -0.17728 -0.0741537 0.00640796 0.0406079 0.165068 0.219064 0.0602747 -0.0560421 -0.0937109 -0.0612136 -0.101596 0.0605202 -0.174914 -0.0924106 0.0549513 0.02896 0.176769 -0.170753 -0.0901164 0.0145258 -0.117493 0.156111 0.231426 0.140565 -0.163267 0.238347 0.087345 0.177118 -0.121534 -0.074309 0.118406 -0.0187156 0.034155 -0.0946746 -0.0550977 -0.14253 -0.254172 -0.0800543 0.0416108 -0.171695 -0.199832 0.170654 -0.118524 0.143631
3285 0.171472 0.176621 -0.0481454 -0.209688 -0.0524485 0.231695 -0.225341 -0.117788 0.00109558 0.0783818 0.243261 0.283233 0.120825 -0.116213 -0.178371 -0.130252 -0.141411 0.116298 -0.246365 -0.173269 0.0405233 0.0770146 0.236914 -0.229528 -0.113655 -0.00795815 -0.124181 0.198558 0.319675 0.208589 -0.222286 0.333091 0.136463 0.238353 -0.17105 -0.0741516 0.183815 -0.0546405 0.0462521 -0.141336 -0.100637 -0.199866 -0.338621 -0.129676 0.0762334 -0.203647 -0.30656 0.202923 -0.165364 0.211537
5645 0.0186618 0.0368123 0.0169329 -0.0481118 -0.025185 0.0459848 -0.0711341 -0.0259344 0.00272366 0.00615256 0.0695562 0.0763536 0.00770463 -0.0039887 -0.0114286 -0.0207009 -0.0432032 0.0178905 -0.0591971 -0.021636 0.0323339 -0.00258559 0.0557968 -0.0746764 -0.0463411 0.00486034 -0.0485909 0.0681597 0.0820543 0.0533411 -0.0557789 0.0747603 0.0266713 0.0670546 -0.0463268 -0.0385708 0.0525272 -0.00356875 0.0115832 -0.0305311 -0.0152854 -0.0634027 -0.0955294 -0.0163963 0.010723 -0.070118 -0.0677622 0.0853829 -0.0392381 0.0567898
4174 0.0164857 0.028223 -0.00252545 -0.054097 -0.0235847 0.0588967 -0.0805412 -0.0213046 0.000763468 0.00992475 0.0752052 0.0947842 0.01512 -0.00619564 -0.0150924 -0.014547 -0.0444217 0.0277159 -0.0760018 -0.021316 0.0404055 0.00223081 0.0598995 -0.0794362 -0.0428445 0.0144702 -0.0531912 0.0606399 0.0963333 0.049327 -0.0710541 0.098526 0.0205254 0.071124 -0.0557308 -0.0341344 0.0496486 -0.0177323 0.0200993 -0.0391985 -0.0199214 -0.0563864 -0.10752 -0.0347977 0.0185442 -0.0866384 -0.0810896 0.0726499 -0.0526538 0.0661284
3466 0.370423 0.371144 -0.126208 -0.389515 -0.105768 0.433265 -0.372578 -0.20275 -0.00743574 0.145914 0.420282 0.508331 0.261807 -0.23364 -0.390213 -0.295859 -0.276574 0.216702 -0.467103 -0.353034 0.0321745 0.200565 0.415513 -0.398931 -0.20095 -0.00686198 -0.200645 0.31955 0.580391 0.360576 -0.418582 0.626494 0.245131 0.424664 -0.297946 -0.10727 0.330306 -0.119298 0.0845863 -0.247439 -0.212511 -0.34006 -0.614658 -0.254556 0.184787 -0.35133 -0.562716 0.294729 -0.331048 0.389531
2406 0.0657068 0.0850636 -0.0230043 -0.102803 -0.0350062 0.10684 -0.103029 -0.0517121 0.0111774 0.0242687 0.109212 0.147435 0.0375779 -0.0386051 -0.0620002 -0.0469807 -0.06557 0.052501 -0.119053 -0.0670037 0.0428311 0.0337268 0.114863 -0.109621 -0.0630585 0.00208489 -0.061041 0.0915325 0.150842 0.101995 -0.106866 0.171038 0.0502599 0.113875 -0.0725025 -0.044603 0.0909519 -0.0270081 0.0317989 -0.0734551 -0.0547807 -0.10754 -0.181938 -0.0510634 0.0392195 -0.111237 -0.145675 0.114438 -0.0798114 0.112536
1747 0.0226246 0.0302821 -0.00485173 -0.0691354 -0.0245216 0.0604472 -0.0707904 -0.0328692 0.0137074 0.00847947 0.0715087 0.0904034 0.0272044 -0.0251136 -0.0343441 -0.0162119 -0.04919 0.0315756 -0.0738814 -0.0313388 0.039709 0.00179727 0.0758662 -0.0829744 -0.0468803 -0.00381352 -0.0492636 0.0659043 0.109938 0.0493211 -0.0696217 0.103854 0.0272344 0.0830229 -0.0595044 -0.0320289 0.0476652 -0.0142444 0.0112058 -0.0349601 -0.0169956 -0.0645138 -0.108239 -0.0310573 0.0102898 -0.0773612 -0.0893761 0.0802733 -0.0481557 0.0636492
357 0.123565 0.121282 -0.0209494 -0.150565 -0.0300887 0.161907 -0.160142 -0.0699178 -0.00650895 0.0460782 0.169676 0.197041 0.0855748 -0.0814374 -0.128121 -0.0955367 -0.0930435 0.0722684 -0.169882 -0.113778 0.0416933 0.0578167 0.171269 -0.166397 -0.0717806 -0.00666204 -0.096717 0.127602 0.217577 0.138817 -0.160207 0.241326 0.0865963 0.165646 -0.127967 -0.0456716 0.137795 -0.0338945 0.0386804 -0.103072 -0.0666441 -0.136115 -0.23661 -0.0933331 0.0491843 -0.140552 -0.216387 0.133511 -0.119208 0.154872
2611 0.156451 0.139111 -0.0896207 -0.0889506 -0.0195823 0.140867 -0.054408 -0.0618358 -0.0198665 0.0562489 0.0830578 0.10906 0.119616 -0.124351 -0.176546 -0.142084 -0.0781257 0.0713802 -0.113918 -0.154953 -0.0793672 0.116487 0.0881066 -0.0641321 -0.0175242 -0.027139 -0.00246774 0.0418082 0.10602 0.0883743 -0.0850958 0.158318 0.0756259 0.0664718 -0.0816788 0.0229001 0.0714316 -0.0573104 0.00760503 -0.0445854 -0.0914648 -0.0454285 -0.130755 -0.088403 0.0988698 -0.0251809 -0.128352 -0.00494984 -0.0777767 0.0770719
4676 0.119839 0.117103 -0.0126948 -0.153249 -0.0442825 0.156531 -0.192628 -0.0831124 0.0171774 0.0603682 0.181063 0.227524 0.0711111 -0.0511933 -0.108967 -0.0794761 -0.113333 0.0732622 -0.189175 -0.119145 0.0606949 0.0392627 0.190878 -0.195322 -0.100235 0.00786803 -0.115663 0.154953 0.257248 0.146508 -0.178914 0.260312 0.0936562 0.199164 -0.130648 -0.0872685 0.132684 -0.0320192 0.0357803 -0.120481 -0.0661753 -0.154075 -0.270973 -0.099209 0.0473996 -0.181253 -0.239829 0.182608 -0.127648 0.175583
4360 0.166245 0.163636 -0.0603437 -0.172006 -0.0450033 0.191697 -0.174397 -0.0990076 -0.0129418 0.0623395 0.180634 0.226685 0.114357 -0.102531 -0.1666 -0.141048 -0.126197 0.0961909 -0.212231 -0.156404 0.0112585 0.0896697 0.185942 -0.176661 -0.0834133 -0.00559175 -0.0824572 0.148055 0.253916 0.166622 -0.182242 0.277461 0.1198 0.189238 -0.13837 -0.0562104 0.149444 -0.0625409 0.032921 -0.12065 -0.107098 -0.159023 -0.265132 -0.11383 0.0916521 -0.152354 -0.236778 0.13982 -0.133472 0.177693
2567 0.0425126 0.063495 -0.00938234 -0.0755669 -0.0190998 0.0798713 -0.0961216 -0.0436089 -0.00387018 0.0350094 0.102308 0.124877 0.0295133 -0.0206668 -0.0499815 -0.0352324 -0.0490803 0.0413079 -0.1061 -0.0514804 0.0373936 0.0171951 0.0987192 -0.0957569 -0.0573916 0.00843753 -0.0518782 0.0823318 0.120179 0.0775137 -0.0844162 0.125517 0.0494694 0.0890046 -0.0750416 -0.0434739 0.0801894 -0.00765351 0.011712 -0.059549 -0.0283996 -0.0790006 -0.140548 -0.0457113 0.0149907 -0.0936904 -0.116599 0.0973851 -0.0714582 0.0846624
2017 0.0391247 0.0351067 0.0181201 -0.0872108 -0.0226812 0.078666 -0.106271 -0.0415926 0.00672128 0.0281216 0.103101 0.121146 0.0150741 0.0016992 -0.036558 -0.0230041 -0.045102 0.0400039 -0.109122 -0.0340606 0.0653272 -0.00922383 0.0865052 -0.112584 -0.0597521 0.00182905 -0.0668652 0.0920757 0.139974 0.077498 -0.0844166 0.114731 0.0336772 0.106833 -0.0666599 -0.0505815 0.0768499 -0.0034775 0.0172433 -0.0528262 -0.0279084 -0.0869257 -0.153426 -0.0321886 0.0129338 -0.108492 -0.118737 0.111427 -0.0605326 0.0861214
3273 0.173266 0.173283 -0.0459029 -0.196292 -0.0594238 0.216044 -0.208957 -0.108775 -0.00174832 0.0817822 0.226731 0.270831 0.126862 -0.10907 -0.18764 -0.140511 -0.141019 0.103767 -0.246963 -0.184908 0.0346186 0.0972994 0.218785 -0.200853 -0.104044 0.00527275 -0.114603 0.173857 0.314234 0.184637 -0.223199 0.326022 0.129191 0.224233 -0.164089 -0.060681 0.170838 -0.0493373 0.0343959 -0.125616 -0.104094 -0.177053 -0.31448 -0.128273 0.095794 -0.199301 -0.285386 0.168394 -0.157544 0.195024
3787 0.0993624 0.102109 -0.0250534 -0.127904 -0.0378946 0.139462 -0.139512 -0.0630498 -0.0027259 0.0452005 0.13608 0.183051 0.0672379 -0.0645311 -0.0932799 -0.0817149 -0.0793587 0.0656326 -0.147711 -0.0950228 0.0239524 0.0396437 0.129624 -0.145522 -0.0657025 0.00740837 -0.0818603 0.108151 0.19775 0.127421 -0.131111 0.203294 0.0872721 0.146263 -0.0972183 -0.0504292 0.109822 -0.0259182 0.029245 -0.094626 -0.0739381 -0.112063 -0.203237 -0.0844077 0.0442556 -0.125657 -0.182468 0.130835 -0.108712 0.131895
1563 0.0716461 0.0767002 -0.00535331 -0.115089 -0.0239975 0.110443 -0.113553 -0.0583559 0.00879437 0.0296418 0.130686 0.14997 0.0481713 -0.0403524 -0.0708432 -0.048121 -0.0831425 0.0580726 -0.125406 -0.0845046 0.0491589 0.0221597 0.112248 -0.117977 -0.0612311 0.00628172 -0.0764668 0.101779 0.16703 0.107587 -0.111979 0.181729 0.0589508 0.127803 -0.0842693 -0.0476047 0.103823 -0.026024 0.0240538 -0.0721235 -0.0455016 -0.108369 -0.179684 -0.0585168 0.0364969 -0.116311 -0.152448 0.123245 -0.0819149 0.117894
2924 0.11527 0.137107 -0.0317998 -0.15649 -0.0320007 0.169485 -0.154785 -0.0782367 0.000961741 0.0638958 0.18479 0.219444 0.0940491 -0.0654045 -0.135376 -0.0920048 -0.114997 0.0745525 -0.180294 -0.128056 0.0466337 0.0508926 0.167302 -0.164258 -0.0847768 0.00386309 -0.104704 0.149633 0.24761 0.156296 -0.164256 0.263506 0.102677 0.179669 -0.121032 -0.0560315 0.144296 -0.050355 0.0295845 -0.0969193 -0.0698621 -0.139255 -0.250884 -0.0954684 0.0596969 -0.152942 -0.221557 0.151839 -0.122182 0.166006
5510 0.234307 0.243706 -0.0679297 -0.258949 -0.0611178 0.280844 -0.251047 -0.140736 -0.00315766 0.0966107 0.273214 0.334195 0.151407 -0.153285 -0.253756 -0.188007 -0.175682 0.134841 -0.311692 -0.239206 0.0339001 0.125683 0.266962 -0.267084 -0.126761 0.00121802 -0.134746 0.210183 0.372839 0.231188 -0.270154 0.408643 0.150882 0.275153 -0.203344 -0.0859253 0.220473 -0.0701937 0.0459853 -0.157921 -0.13979 -0.219387 -0.396245 -0.155206 0.110355 -0.242984 -0.365779 0.208626 -0.212761 0.240003
4015 0.0556955 0.0599553 -0.00123403 -0.103129 -0.0297448 0.0984068 -0.107825 -0.0461717 0.00853265 0.0318115 0.111945 0.143934 0.0304968 -0.0388095 -0.0635341 -0.0500294 -0.0574727 0.0476055 -0.122592 -0.0685908 0.0344793 0.0147859 0.111176 -0.112557 -0.0628225 0.0107222 -0.0774675 0.0888948 0.160445 0.0827995 -0.110612 0.147503 0.0558409 0.113669 -0.0760297 -0.0450445 0.0751657 -0.0165188 0.0267287 -0.0765639 -0.0319069 -0.0970597 -0.167068 -0.0633092 0.024369 -0.100229 -0.129243 0.108793 -0.0862142 0.101783
1981 0.346936 0.341698 -0.110312 -0.360458 -0.0767282 0.393004 -0.334691 -0.178804 0.00292638 0.130525 0.373478 0.455173 0.23181 -0.226032 -0.349383 -0.26889 -0.234892 0.177357 -0.413762 -0.325846 0.0255508 0.173928 0.36479 -0.352032 -0.161302 0.000469421 -0.177151 0.281409 0.503165 0.312241 -0.358469 0.573158 0.223467 0.358963 -0.262987 -0.097583 0.285907 -0.097211 0.061777 -0.228944 -0.1996 -0.294454 -0.512926 -0.205962 0.154932 -0.30195 -0.474603 0.267665 -0.285116 0.329701
974 0.0793243 0.101855 -0.0240389 -0.117395 -0.0284103 0.125148 -0.122778 -0.0647417 0.00155769 0.0333068 0.1193 0.161864 0.0602804 -0.0520291 -0.0831141 -0.0588704 -0.0732977 0.0580762 -0.122673 -0.0857625 0.0357346 0.0388564 0.123672 -0.128928 -0.0694538 0.0109751 -0.0675356 0.101757 0.175659 0.101085 -0.121311 0.174363 0.0657529 0.125792 -0.0802185 -0.0347098 0.0961647 -0.0316687 0.0261847 -0.0673924 -0.0550259 -0.101732 -0.17837 -0.0669404 0.0408341 -0.106518 -0.164315 0.115316 -0.0866581 0.118531
4059 0.0851223 0.0993467 -0.0143238 -0.125053 -0.0381174 0.139104 -0.144427 -0.0627195 -0.00322883 0.0307056 0.134385 0.184052 0.0599429 -0.0439411 -0.0849769 -0.0681812 -0.0840688 0.0611817 -0.150055 -0.0953619 0.0582843 0.0293163 0.149468 -0.153738 -0.0697824 0.0153769 -0.0988177 0.121155 0.192753 0.118424 -0.148589 0.199766 0.0756059 0.144306 -0.110027 -0.0613259 0.100608 -0.0328895 0.038853 -0.0906966 -0.0455547 -0.125586 -0.220584 -0.0691517 0.0396386 -0.141127 -0.175954 0.149039 -0.0948436 0.120317
738 0.0953375 0.105017 -0.0131172 -0.120784 -0.0438091 0.13695 -0.130467 -0.0540949 0.00177921 0.0337446 0.139163 0.172195 0.0530864 -0.0579704 -0.0965998 -0.0554546 -0.0790898 0.0492841 -0.153962 -0.0906986 0.04272 0.0426001 0.132839 -0.133449 -0.0714134 0.00596682 -0.0879403 0.130472 0.195623 0.111455 -0.14527 0.190327 0.0767031 0.15486 -0.106853 -0.0528609 0.0988986 -0.0391592 0.0422397 -0.0793603 -0.0495474 -0.114451 -0.208176 -0.0640362 0.0504605 -0.148532 -0.1831 0.138623 -0.10499 0.121284
2205 0.184901 0.203696 -0.0580915 -0.220819 -0.0523547 0.23969 -0.212901 -0.122465 -0.00474727 0.0711102 0.224889 0.28812 0.122868 -0.130886 -0.203402 -0.147946 -0.146369 0.10946 -0.261517 -0.188639 0.0177305 0.0920483 0.22857 -0.211722 -0.112618 -0.00295065 -0.105915 0.178712 0.312872 0.199251 -0.21718 0.345527 0.128916 0.218096 -0.168901 -0.0685106 0.170152 -0.0533133 0.0472482 -0.142704 -0.112532 -0.17673 -0.336005 -0.132935 0.0825415 -0.204425 -0.299538 0.174157 -0.179103 0.199006
1666 0.166082 0.188851 -0.046769 -0.203083 -0.0543835 0.225838 -0.222352 -0.107253 -0.00205766 0.0728559 0.225669 0.291265 0.111223 -0.0971149 -0.179323 -0.139638 -0.1469 0.110327 -0.238775 -0.179129 0.0399487 0.0842171 0.218007 -0.218798 -0.115846 0.00665356 -0.125161 0.187323 0.313254 0.190386 -0.229257 0.323973 0.135165 0.225774 -0.154147 -0.0669644 0.166961 -0.0643893 0.0432843 -0.128855 -0.102627 -0.197703 -0.332458 -0.133311 0.0820691 -0.204506 -0.289364 0.189426 -0.174377 0.199872
3422 0.072153 0.0860064 -0.0153622 -0.0915459 -0.0173055 0.102971 -0.102185 -0.0514585 -0.000162425 0.0281792 0.115486 0.140384 0.044588 -0.041773 -0.0862205 -0.0498114 -0.0689242 0.0464718 -0.118802 -0.0717288 0.0325967 0.0286309 0.103756 -0.104449 -0.0468701 -0.00505094 -0.0740754 0.101899 0.162783 0.0878935 -0.110174 0.158877 0.0682779 0.119077 -0.0874615 -0.0474985 0.0925264 -0.0336943 0.0232005 -0.0706717 -0.058659 -0.0911603 -0.160038 -0.0630009 0.0374104 -0.114879 -0.15151 0.0927579 -0.0904127 0.107618
4025 0.160781 0.159983 -0.0466443 -0.187251 -0.0437465 0.203327 -0.206346 -0.0978054 -0.00570031 0.0683778 0.209039 0.273218 0.109387 -0.0860357 -0.145993 -0.112618 -0.136012 0.101274 -0.228691 -0.16293 0.0556112 0.0656809 0.206268 -0.203167 -0.105582 -0.00140156 -0.122239 0.172101 0.300715 0.185992 -0.203026 0.308005 0.118015 0.217344 -0.160653 -0.0797985 0.175842 -0.047104 0.043881 -0.124727 -0.103847 -0.169862 -0.309735 -0.122762 0.0832525 -0.185602 -0.280209 0.178585 -0.152825 0.183923
1416 0.10692 0.1188 -0.0287501 -0.132415 -0.0414696 0.142641 -0.155044 -0.065624 -0.00201493 0.0465431 0.160023 0.190426 0.0657436 -0.0501497 -0.101775 -0.0705418 -0.0920004 0.0636029 -0.172548 -0.113097 0.0348635 0.040994 0.15962 -0.155438 -0.0788686 -0.000620486 -0.0899688 0.124829 0.209463 0.135282 -0.143409 0.217919 0.0908438 0.149711 -0.113669 -0.0527024 0.124406 -0.0224642 0.0342852 -0.0947764 -0.0594382 -0.130135 -0.229281 -0.0841577 0.0387407 -0.149297 -0.194969 0.135244 -0.118731 0.133847
5275 0.0803782 0.0704952 -0.00378987 -0.105558 -0.0198926 0.115768 -0.122302 -0.052969 0.00331652 0.0318054 0.131774 0.159442 0.0432108 -0.0402853 -0.0609296 -0.0597322 -0.0822862 0.048748 -0.118842 -0.0837965 0.0414529 0.0251122 0.125997 -0.119568 -0.0704706 0.00823416 -0.0748797 0.110469 0.160593 0.105861 -0.109884 0.166069 0.0624751 0.132152 -0.0867639 -0.0593684 0.0881065 -0.0264863 0.02826 -0.084825 -0.0531287 -0.106989 -0.176111 -0.0606409 0.0383931 -0.116551 -0.152561 0.113804 -0.0933402 0.106509
4745 0.0346028 0.031321 -0.00582131 -0.0686555 -0.0110638 0.0671548 -0.092468 -0.0398662 0.0152916 0.017444 0.0732623 0.0952105 0.00931461 -0.0170968 -0.0213876 -0.0163181 -0.0414111 0.0280269 -0.0775071 -0.0415192 0.0437403 0.0062221 0.0726765 -0.0878351 -0.0353492 0.0146768 -0.0525753 0.0777913 0.116218 0.0587675 -0.0849441 0.111538 0.0353427 0.0807775 -0.0559179 -0.0447118 0.0598421 -0.00754431 0.0216264 -0.0533641 -0.0287895 -0.0820978 -0.123293 -0.0416709 0.0206546 -0.083175 -0.0979452 0.100608 -0.0590027 0.0709949
2363 0.198545 0.208914 -0.0473785 -0.23267 -0.051147 0.244486 -0.22402 -0.112945 -0.00835248 0.0846916 0.257168 0.308196 0.125903 -0.118942 -0.193447 -0.156046 -0.147659 0.116252 -0.26309 -0.197577 0.0383216 0.086041 0.250592 -0.245506 -0.111445 -0.0064844 -0.133476 0.205462 0.340101 0.208579 -0.235436 0.357319 0.148143 0.250564 -0.175738 -0.0807705 0.185962 -0.0590786 0.0483153 -0.14167 -0.121412 -0.195795 -0.364562 -0.134027 0.0890654 -0.224015 -0.316812 0.195488 -0.192146 0.222408
4377 0.010974 0.024814 0.0138027 -0.0600999 -0.0104493 0.0430498 -0.0772227 -0.0196352 0.0161056 0.00721181 0.0657949 0.0821087 -0.00216247 -0.00753067 -0.0175568 -0.0143192 -0.0272372 0.0223733 -0.0770536 -0.0172363 0.0449547 0.00109411 0.0660071 -0.0712907 -0.04551 -0.0021515 -0.0474086 0.0656209 0.0926356 0.0546665 -0.0731029 0.0833005 0.0345374 0.0826537 -0.0441704 -0.045242 0.0467182 -0.000289361 0.0145179 -0.0348469 -0.0222639 -0.0647796 -0.112543 -0.0265745 -0.00421248 -0.0825398 -0.0839307 0.0803531 -0.0516244 0.0598738
1689 0.132461 0.13784 -0.0235221 -0.176612 -0.0535936 0.187493 -0.179532 -0.0931798 0.00198805 0.053701 0.18586 0.230253 0.078958 -0.0678861 -0.122528 -0.102166 -0.117513 0.0765061 -0.20584 -0.132468 0.0566737 0.0505863 0.202068 -0.192069 -0.101084 0.00780851 -0.11697 0.161563 0.262934 0.154925 -0.182492 0.276508 0.103975 0.198607 -0.130383 -0.0727688 0.139625 -0.0448802 0.0347743 -0.123283 -0.0815234 -0.164408 -0.283136 -0.0962682 0.054072 -0.190569 -0.238944 0.181652 -0.149772 0.178556
3513 0.23242 0.238515 -0.0602587 -0.25777 -0.0588428 0.285808 -0.256587 -0.128521 -0.00565044 0.0899508 0.291151 0.349086 0.147582 -0.14886 -0.238052 -0.17163 -0.18472 0.138135 -0.30392 -0.225301 0.0390427 0.102292 0.292175 -0.284252 -0.130568 0.00145767 -0.143914 0.241309 0.395288 0.243946 -0.273788 0.419632 0.168425 0.289095 -0.198972 -0.0863674 0.234959 -0.0758998 0.0669031 -0.176144 -0.138731 -0.23834 -0.42273 -0.165272 0.120088 -0.263746 -0.376055 0.233736 -0.219464 0.262865
5931 0.141766 0.111327 -0.071937 -0.0702934 -0.0190918 0.114582 -0.0231759 -0.047529 -0.0313062 0.0400984 0.0536288 0.0662578 0.0913851 -0.112347 -0.154228 -0.109519 -0.0573229 0.0474451 -0.0747318 -0.126285 -0.071533 0.0970971 0.0554423 -0.0403323 -0.00437225 -0.00904536 -0.00182857 0.00386455 0.0832359 0.0728345 -0.062643 0.122414 0.0688511 0.0472896 -0.0574289 0.0235069 0.0647225 -0.0353498 0.00309644 -0.0393449 -0.0660622 -0.0293346 -0.0863194 -0.0687961 0.0708756 -0.00312056 -0.102597 -0.0216623 -0.060661 0.0621693
0 2.22722 2.08811 -1.05233 -1.84522 -0.368764 2.32136 -1.38329 -1.11755 -0.245768 0.920801 1.81095 2.19922 1.58874 -1.62283 -2.50685 -1.93134 -1.25622 1.08745 -2.06787 -2.17812 -0.511221 1.39493 1.76197 -1.38049 -0.629949 -0.184174 -0.48765 1.03219 2.34244 1.67887 -1.77759 3.10071 1.33803 1.64326 -1.54831 -0.0236532 1.49916 -0.760148 0.231199 -1.06603 -1.33804 -1.25586 -2.66206 -1.42433 1.21171 -1.06008 -2.41795 0.523589 -1.4162 1.53555
769 0.12069 0.121099 -0.0246244 -0.139644 -0.0276282 0.153116 -0.148009 -0.0763448 -0.00875523 0.0553005 0.153912 0.189936 0.0744118 -0.0632995 -0.12212 -0.0863014 -0.0965195 0.0690816 -0.156288 -0.112671 0.01861 0.0648078 0.153518 -0.138159 -0.0817521 -0.00264105 -0.0880831 0.11814 0.217494 0.137554 -0.151343 0.226973 0.0855461 0.146227 -0.107782 -0.0473939 0.11183 -0.0313756 0.0284403 -0.0951644 -0.0799495 -0.13106 -0.229202 -0.0958683 0.0588839 -0.141945 -0.198544 0.116149 -0.104461 0.128547
2293 0.0751865 0.0831188 -0.0171911 -0.11609 -0.025119 0.116258 -0.117138 -0.0541512 -0.00574359 0.039824 0.120721 0.151402 0.047776 -0.0454205 -0.0730746 -0.0701385 -0.0690664 0.044675 -0.128816 -0.0884808 0.0386005 0.0406028 0.116161 -0.132224 -0.059763 0.00255757 -0.0753118 0.100045 0.173574 0.105406 -0.127233 0.171658 0.0554703 0.1304 -0.0934418 -0.0540708 0.0860615 -0.0292198 0.0286304 -0.0806155 -0.0574328 -0.112926 -0.192432 -0.0548206 0.0285926 -0.117759 -0.162201 0.109728 -0.0829758 0.111393
4737 0.136143 0.153469 -0.0260125 -0.168493 -0.0507127 0.185172 -0.172639 -0.0964517 0.00800346 0.0529445 0.198615 0.243639 0.0992284 -0.0868036 -0.145881 -0.106397 -0.112148 0.0796138 -0.208178 -0.134705 0.0493066 0.0553163 0.195041 -0.180492 -0.102762 -0.00311253 -0.0968735 0.146236 0.254647 0.16266 -0.184264 0.275307 0.110573 0.199317 -0.133919 -0.0585245 0.146101 -0.0407315 0.0481097 -0.116057 -0.078056 -0.162205 -0.286492 -0.0933074 0.0626552 -0.165967 -0.243007 0.162106 -0.147937 0.174359
250 0.19135 0.190435 -0.0594139 -0.206225 -0.0532781 0.227872 -0.218881 -0.121553 0.00708958 0.0786296 0.232122 0.281851 0.130629 -0.116515 -0.173397 -0.134 -0.150056 0.0981759 -0.250503 -0.174732 0.0471748 0.0846338 0.227406 -0.226394 -0.103702 0.00171859 -0.127059 0.194341 0.310767 0.205565 -0.21806 0.337959 0.13263 0.238848 -0.169145 -0.0731026 0.181226 -0.0648393 0.0496004 -0.149267 -0.104888 -0.192317 -0.338408 -0.125147 0.0753445 -0.212887 -0.286393 0.183907 -0.165243 0.205829
1395 0.188295 0.201312 -0.0490977 -0.228662 -0.0514809 0.237857 -0.213262 -0.12379 -0.0083808 0.0745483 0.242378 0.300854 0.123681 -0.123269 -0.194434 -0.151951 -0.157187 0.112106 -0.265398 -0.18923 0.0449581 0.102341 0.246423 -0.233756 -0.118753 -0.00993594 -0.119439 0.183065 0.332817 0.206546 -0.236517 0.368711 0.1487 0.233903 -0.171526 -0.0656065 0.191982 -0.0667952 0.0516244 -0.139615 -0.116612 -0.198012 -0.348003 -0.130326 0.0967042 -0.21912 -0.314097 0.179707 -0.173433 0.223046
930 0.0949509 0.11091 -0.0184997 -0.13401 -0.0454364 0.140616 -0.149186 -0.0650915 0.0115868 0.0432197 0.142407 0.194102 0.0689676 -0.0575064 -0.100365 -0.0603589 -0.0825334 0.0710993 -0.159468 -0.0948001 0.0479918 0.0321655 0.137947 -0.144902 -0.0725031 -0.00185304 -0.0849827 0.131674 0.21713 0.12696 -0.150763 0.206818 0.0809298 0.150341 -0.103687 -0.0584362 0.107584 -0.0354457 0.0301861 -0.0931979 -0.0596319 -0.136372 -0.225223 -0.0809056 0.0445392 -0.148802 -0.183121 0.143322 -0.113222 0.136284
2691 0.103296 0.0886286 -0.019796 -0.102976 -0.030414 0.120549 -0.0972908 -0.0525358 0.0030826 0.0410944 0.108549 0.153348 0.0620045 -0.0642657 -0.107314 -0.0836216 -0.0656505 0.0541363 -0.137286 -0.0979345 0.0131284 0.0424411 0.122083 -0.110854 -0.055216 -0.00874478 -0.0590621 0.0971958 0.154901 0.106827 -0.119994 0.17007 0.0729354 0.126742 -0.0948851 -0.0319988 0.100491 -0.0382153 0.0272314 -0.0705787 -0.0590097 -0.0856649 -0.160343 -0.061521 0.046229 -0.0994395 -0.149538 0.0874583 -0.0924916 0.109733
2292 0.114677 0.125114 -0.0266583 -0.154418 -0.0399623 0.1639 -0.156702 -0.0866011 -0.00607116 0.0510623 0.160604 0.209216 0.0908499 -0.0672337 -0.115327 -0.0997343 -0.105617 0.0762567 -0.18055 -0.127714 0.033644 0.0516348 0.172452 -0.160187 -0.0750522 -0.00519603 -0.0886781 0.130412 0.239897 0.134716 -0.16779 0.239412 0.0921195 0.171216 -0.114428 -0.0596068 0.138929 -0.0383328 0.0408327 -0.0969962 -0.0779905 -0.138331 -0.249406 -0.0889969 0.0690279 -0.165779 -0.208266 0.139554 -0.117268 0.145285
5426 0.122984 0.111393 -0.0300832 -0.149302 -0.0267138 0.157464 -0.13612 -0.0785318 0.00944797 0.056735 0.144517 0.188886 0.0664831 -0.0730269 -0.111041 -0.0973858 -0.0902447 0.0747106 -0.173181 -0.114475 0.0304009 0.0481601 0.146238 -0.159329 -0.0731812 -0.00870249 -0.0814287 0.131634 0.217265 0.125086 -0.147725 0.220151 0.0895377 0.163306 -0.120932 -0.0544301 0.119 -0.0333517 0.0330923 -0.0968772 -0.0672939 -0.138439 -0.232425 -0.0765991 0.0585135 -0.14937 -0.190581 0.125862 -0.110414 0.137409
4934 0.108168 0.103534 -0.0220689 -0.142465 -0.0476937 0.137511 -0.160322 -0.0662994 -0.00153926 0.042415 0.163681 0.198669 0.0713806 -0.0543526 -0.110225 -0.083674 -0.0975786 0.0746359 -0.16435 -0.112361 0.0449451 0.0323553 0.161623 -0.161841 -0.071626 0.0108775 -0.103595 0.14563 0.219989 0.135602 -0.158315 0.227857 0.0850398 0.155072 -0.109234 -0.0716389 0.115512 -0.0370666 0.0374421 -0.106972 -0.0697514 -0.143413 -0.235432 -0.0892922 0.0480848 -0.146046 -0.201536 0.144785 -0.117098 0.14777
2637 0.00762829 0.0291558 0.0143029 -0.054656 -0.0253097 0.034202 -0.0757365 -0.0235712 0.00908936 0.00161438 0.0547637 0.0715043 0.00691471 0.0101293 -0.0114252 -0.00986392 -0.041401 0.0246622 -0.0625175 -0.012624 0.0376732 -0.0103415 0.0555785 -0.0748731 -0.0273452 -0.0020784 -0.0527835 0.0651994 0.0854914 0.0398904 -0.0616888 0.0741167 0.0241252 0.0626797 -0.0339346 -0.0392025 0.0415219 0.00094886 0.0188489 -0.0338259 -0.0126401 -0.0551563 -0.0965456 -0.025845 0.00888475 -0.0673987 -0.0611722 0.0744837 -0.0486188 0.059178
5355 0.271412 0.276333 -0.0765962 -0.290372 -0.0673033 0.308397 -0.285835 -0.144102 -0.00079396 0.101691 0.315648 0.381847 0.182394 -0.179188 -0.266924 -0.199899 -0.208425 0.142598 -0.338762 -0.268996 0.0375598 0.144041 0.316128 -0.280022 -0.13197 -0.00764618 -0.148129 0.229227 0.422184 0.264416 -0.31005 0.460222 0.189242 0.313512 -0.22584 -0.0794568 0.232751 -0.0874234 0.0537615 -0.183361 -0.152599 -0.257347 -0.443978 -0.171681 0.125466 -0.255434 -0.401539 0.224526 -0.242947 0.26997
411 0.0635578 0.05444 -0.0161047 -0.0820657 -0.0172925 0.089193 -0.0833283 -0.0495923 0.0143386 0.0226252 0.0935145 0.124551 0.0293857 -0.0352267 -0.0557341 -0.03821 -0.0557997 0.0325068 -0.0939948 -0.0657441 0.0371917 0.0107862 0.0995136 -0.0865648 -0.0564715 0.0101904 -0.0640693 0.0925746 0.135985 0.0844984 -0.0878268 0.125922 0.057355 0.106032 -0.0727664 -0.0414665 0.073102 -0.0180783 0.0134145 -0.0646055 -0.0363915 -0.0811911 -0.13978 -0.0514075 0.0347178 -0.0947585 -0.12302 0.091869 -0.0628999 0.0849774
542 0.0547981 0.0605684 0.00195373 -0.088781 -0.0188077 0.0800332 -0.0992093 -0.0350318 0.00964541 0.0163639 0.0995865 0.11523 0.035522 -0.0342582 -0.0560164 -0.0340955 -0.060103 0.0366011 -0.110892 -0.0589281 0.0415193 0.0169134 0.0906784 -0.104781 -0.0542758 -0.00534871 -0.0640265 0.0776816 0.139925 0.088152 -0.0982239 0.130799 0.054167 0.110761 -0.0772732 -0.0350704 0.0677852 -0.0156417 0.0180354 -0.050514 -0.0364752 -0.093901 -0.149819 -0.0430231 0.0226416 -0.0974138 -0.120581 0.0924953 -0.0751733 0.093487
1560 0.395341 0.394846 -0.10518 -0.394502 -0.106961 0.437166 -0.380126 -0.212982 -0.00476621 0.146188 0.407037 0.520453 0.25796 -0.244275 -0.38013 -0.299885 -0.287555 0.204723 -0.479997 -0.364533 0.0490041 0.203702 0.41118 -0.406124 -0.20129 -0.0141918 -0.200421 0.325868 0.576303 0.359546 -0.39477 0.639574 0.256764 0.427581 -0.306272 -0.124861 0.341608 -0.116917 0.0887412 -0.256384 -0.20764 -0.343478 -0.599743 -0.241132 0.175841 -0.34509 -0.545245 0.287666 -0.312644 0.374991
3526 0.0898399 0.0972499 -0.00486536 -0.117595 -0.0342989 0.123645 -0.129464 -0.0703714 -1.66914e-05 0.0390928 0.138173 0.179551 0.0617976 -0.0528388 -0.0780919 -0.0679597 -0.0925008 0.0472607 -0.13865 -0.0791147 0.0385299 0.0218408 0.144654 -0.133241 -0.0802418 0.0108337 -0.0908747 0.113706 0.182961 0.107253 -0.124665 0.20241 0.064992 0.151965 -0.087557 -0.0580154 0.0979683 -0.0238286 0.0348793 -0.0930228 -0.0473027 -0.115345 -0.192264 -0.0743909 0.0434474 -0.141677 -0.179176 0.128626 -0.106843 0.115786
5070 0.0459207 0.0563242 0.00810396 -0.0934042 -0.0326293 0.0802519 -0.102694 -0.0406074 0.0179983 0.0257331 0.10815 0.127661 0.0330994 -0.029075 -0.0357909 -0.0280462 -0.0507033 0.0366794 -0.11392 -0.0529603 0.0474226 0.00914547 0.0895135 -0.105937 -0.0603384 0.00943455 -0.0619721 0.106521 0.144948 0.0757898 -0.0921645 0.149006 0.0565561 0.10483 -0.0702024 -0.0558797 0.0748043 -0.00833122 0.022147 -0.0565665 -0.0395773 -0.0944693 -0.148551 -0.0536948 0.0179626 -0.11348 -0.132901 0.106388 -0.0804649 0.0945216
2604 0.191121 0.192073 -0.0485289 -0.207632 -0.051811 0.222765 -0.212384 -0.116126 -0.00404895 0.0730195 0.233955 0.286623 0.131716 -0.120064 -0.199373 -0.152066 -0.13572 0.110717 -0.250511 -0.181996 0.0409192 0.0901066 0.228035 -0.226511 -0.105593 -0.0010456 -0.109445 0.173485 0.318155 0.199546 -0.22084 0.324821 0.135285 0.219935 -0.17138 -0.0625902 0.182524 -0.0638795 0.0369053 -0.133242 -0.116181 -0.181772 -0.329051 -0.128409 0.0821725 -0.207437 -0.297245 0.166793 -0.174682 0.207589
3013 0.0373838 0.0548059 0.00914956 -0.0834924 -0.0201544 0.0761763 -0.105253 -0.0347706 0.0190534 0.0211262 0.100972 0.132108 0.0313527 -0.0161222 -0.0292139 -0.0233882 -0.0653102 0.0346313 -0.0927494 -0.0531495 0.04224 0.00145314 0.0855302 -0.0992397 -0.0556784 0.00590622 -0.0687129 0.0845545 0.133034 0.0753306 -0.0868753 0.125372 0.041046 0.110488 -0.0691776 -0.0416607 0.0638234 -0.00683127 0.0322872 -0.0611698 -0.0309912 -0.0814308 -0.14508 -0.0370049 0.0151633 -0.109686 -0.118226 0.114062 -0.0678934 0.098728
5967 0.0284043 0.0455208 -0.0128526 -0.0333616 -0.0076277 0.0485637 -0.027618 -0.0220079 -0.0107361 0.0113934 0.0318672 0.0498209 0.0300899 -0.02077 -0.0338059 -0.0396834 -0.0208842 0.0155238 -0.0324443 -0.0394329 0.00182787 0.0147402 0.0366683 -0.0301502 -0.0163066 -0.00737809 -0.0114236 0.0285077 0.0412254 0.0392361 -0.0374653 0.0539449 0.0296427 0.0274293 -0.0229413 -0.0048613 0.0401717 -0.0174159 0.0128857 -0.0268728 -0.0228144 -0.0317438 -0.0539782 -0.0167042 0.0188642 -0.0230629 -0.0560198 0.0282964 -0.0329902 0.0331821
361 0.334544 0.336728 -0.104617 -0.345409 -0.0917095 0.383842 -0.339068 -0.193942 -0.00793663 0.13045 0.377518 0.472245 0.220569 -0.209713 -0.322817 -0.256813 -0.246621 0.189778 -0.410185 -0.307688 0.0534858 0.157172 0.389929 -0.370722 -0.185882 0.000464261 -0.185535 0.283227 0.528436 0.332052 -0.363418 0.564371 0.221419 0.384606 -0.274979 -0.104222 0.309864 -0.110851 0.0819891 -0.238098 -0.199727 -0.306344 -0.543776 -0.22066 0.158873 -0.326788 -0.481642 0.276238 -0.287614 0.340501
720 0.0610498 0.0702813 -0.0136897 -0.0781204 -0.0265754 0.0951228 -0.102643 -0.0473352 0.00647417 0.0352023 0.0979368 0.122297 0.0387927 -0.0205643 -0.0553094 -0.0402235 -0.0496762 0.0383174 -0.111335 -0.0525118 0.045607 0.0174678 0.102289 -0.111994 -0.056752 -0.00319461 -0.0611088 0.0982837 0.138213 0.0848041 -0.101349 0.139287 0.0579996 0.112819 -0.0777764 -0.045993 0.0766706 -0.0096649 0.0269266 -0.0594647 -0.0362027 -0.0888172 -0.145933 -0.055316 0.0283103 -0.100448 -0.132772 0.0931563 -0.0769272 0.0844127
4220 0.160872 0.173453 -0.032068 -0.184003 -0.0494425 0.213546 -0.198497 -0.0962231 0.00331935 0.063131 0.21279 0.255572 0.103704 -0.101888 -0.159055 -0.128548 -0.130333 0.0898943 -0.227172 -0.158886 0.0482147 0.0802965 0.207228 -0.215846 -0.111522 0.00548129 -0.124149 0.180892 0.289507 0.174968 -0.215786 0.316158 0.116991 0.217474 -0.151432 -0.0742187 0.169335 -0.0508111 0.0389531 -0.121674 -0.093209 -0.174285 -0.301189 -0.122865 0.0848152 -0.185525 -0.281776 0.184027 -0.155806 0.184627
3686 0.0936331 0.102585 -0.0106314 -0.133149 -0.0292143 0.131811 -0.150831 -0.063346 0.00808039 0.0479755 0.152492 0.195083 0.0652027 -0.0469373 -0.10045 -0.0801357 -0.0875819 0.0608543 -0.166216 -0.100798 0.041939 0.0325694 0.148852 -0.143272 -0.0691012 0.0101693 -0.0974062 0.132145 0.216469 0.129305 -0.137706 0.212596 0.0776596 0.152278 -0.110687 -0.0635231 0.122701 -0.0366509 0.0408283 -0.0906689 -0.0637656 -0.131626 -0.224799 -0.0675239 0.0364066 -0.145004 -0.195861 0.137497 -0.120216 0.13542
4236 0.122749 0.124871 -0.0336464 -0.154797 -0.0325138 0.151466 -0.16112 -0.0788267 0.00267322 0.045233 0.162315 0.202319 0.0734706 -0.0673158 -0.119251 -0.0834615 -0.108393 0.0695891 -0.174911 -0.112964 0.0425701 0.0482026 0.158169 -0.169521 -0.082258 0.00233618 -0.0998823 0.136399 0.231368 0.130022 -0.152766 0.245786 0.0810784 0.172551 -0.120199 -0.0542124 0.130319 -0.0450381 0.0409917 -0.093205 -0.0772282 -0.133953 -0.23697 -0.0811239 0.0480798 -0.148415 -0.203565 0.13729 -0.120531 0.142858
2452 0.205831 0.22146 -0.0522104 -0.230989 -0.0561194 0.25806 -0.230532 -0.125192 -0.00264835 0.0974913 0.256732 0.328975 0.145663 -0.125961 -0.22157 -0.157793 -0.164997 0.115175 -0.286447 -0.198548 0.0444415 0.10659 0.258501 -0.255817 -0.117715 -0.0030339 -0.124826 0.207901 0.343959 0.22413 -0.248736 0.390336 0.151751 0.265172 -0.179286 -0.0867322 0.203984 -0.0706765 0.0492748 -0.146987 -0.121146 -0.206529 -0.375985 -0.143619 0.105214 -0.224779 -0.340104 0.191756 -0.200626 0.231874
2321 0.104543 0.112688 -0.0184986 -0.122372 -0.0367647 0.147629 -0.124771 -0.072317 -0.00312015 0.0470675 0.144901 0.17414 0.0764196 -0.0709331 -0.098551 -0.0777247 -0.0974907 0.0655699 -0.148806 -0.104864 0.0206003 0.0502381 0.147073 -0.141691 -0.0612658 0.000883689 -0.0816832 0.106149 0.198376 0.115935 -0.132356 0.208308 0.0699418 0.137368 -0.10938 -0.0436895 0.100005 -0.0320141 0.025421 -0.0783698 -0.0585915 -0.122837 -0.203137 -0.0718032 0.0443374 -0.127552 -0.175066 0.121674 -0.104216 0.128938
360 0.202077 0.20372 -0.0612298 -0.217914 -0.0509972 0.245516 -0.201758 -0.11834 0.00016481 0.0813503 0.236894 0.289138 0.128622 -0.121084 -0.196601 -0.160076 -0.151583 0.107447 -0.249594 -0.190349 0.0170262 0.101928 0.228929 -0.207135 -0.11062 -0.00270718 -0.115624 0.173473 0.302666 0.188046 -0.210502 0.342679 0.125364 0.224897 -0.17173 -0.0712802 0.187722 -0.0573878 0.0396279 -0.141983 -0.111987 -0.193127 -0.3275 -0.126891 0.108032 -0.1839 -0.298167 0.174239 -0.170998 0.197173
2029 0.0406998 0.0347833 -0.0068727 -0.0735989 -0.0106867 0.0662854 -0.0821795 -0.0347537 0.00388428 0.0204481 0.072306 0.0987905 0.0225872 -0.0205482 -0.0228034 -0.0238614 -0.0407456 0.0197638 -0.0838376 -0.0388788 0.044542 0.002578 0.0666593 -0.0702356 -0.0372796 0.000675701 -0.0431598 0.0601692 0.102347 0.051802 -0.0810541 0.101006 0.0301936 0.0769324 -0.0608212 -0.0364924 0.0477942 -0.0162041 0.00844574 -0.038268 -0.0153191 -0.0715114 -0.108626 -0.0369164 0.00356994 -0.071494 -0.0839156 0.0889333 -0.0496325 0.0741267
3872 0.0112167 0.020458 0.016739 -0.0359122 -0.0207306 0.0323053 -0.0688607 -0.0184769 0.0066487 -0.00241503 0.0623236 0.0632808 -0.00795189 0.0064306 -0.0115354 0.00612741 -0.0359435 0.0186882 -0.0455766 -0.016389 0.0412469 -0.0150811 0.0570303 -0.0580624 -0.0233127 0.0168351 -0.0377256 0.0500882 0.0690424 0.039011 -0.0452821 0.0686125 0.0276677 0.0638749 -0.0279694 -0.0327967 0.0482743 -0.000338905 0.0183894 -0.0354795 -0.00222277 -0.049247 -0.0796464 -0.0165099 -0.00837255 -0.0673608 -0.0614271 0.0797413 -0.0456863 0.050683
4510 0.0774743 0.0896896 -0.0212622 -0.116556 -0.0253808 0.132172 -0.123283 -0.0559754 0.00127248 0.0473249 0.136893 0.164043 0.0676662 -0.0441661 -0.0831661 -0.0696571 -0.0877541 0.0608052 -0.141385 -0.0957719 0.044794 0.0324917 0.138369 -0.146258 -0.078957 -0.00112752 -0.0841253 0.115379 0.189777 0.109162 -0.134701 0.20029 0.0647318 0.146827 -0.090782 -0.0518372 0.0982495 -0.027568 0.0327165 -0.0909652 -0.0483107 -0.117446 -0.196518 -0.0700818 0.0462776 -0.127294 -0.164617 0.136899 -0.107289 0.125093
408 0.046844 0.0543624 -0.0160622 -0.0672443 -0.0197547 0.0636152 -0.0781224 -0.0373023 0.00814186 0.0242165 0.0772536 0.0975534 0.0413771 -0.0236407 -0.0469044 -0.0410456 -0.0387351 0.036936 -0.0856706 -0.0553868 0.0298041 0.0248181 0.0723158 -0.0702364 -0.0384833 0.00168878 -0.0548248 0.0651254 0.110027 0.0588041 -0.0770621 0.102648 0.0421302 0.0764675 -0.0508305 -0.0385424 0.0696639 -0.0184304 0.015846 -0.0415182 -0.024997 -0.068858 -0.124459 -0.0497577 0.0218327 -0.0763954 -0.100297 0.0815939 -0.0480615 0.0700973
4153 0.137458 0.150952 -0.0428095 -0.183014 -0.0529416 0.203922 -0.190997 -0.0852854 0.0116495 0.0637515 0.20138 0.244059 0.0931598 -0.0934411 -0.144114 -0.109317 -0.13147 0.0919267 -0.224993 -0.140088 0.042711 0.0718459 0.208522 -0.196775 -0.0970446 -0.000294174 -0.118721 0.177536 0.281901 0.175243 -0.197121 0.297755 0.117172 0.210575 -0.137456 -0.0758085 0.160721 -0.0441335 0.0511828 -0.119386 -0.0877547 -0.174109 -0.297477 -0.100697 0.0771203 -0.187523 -0.262568 0.168507 -0.157799 0.18183
875 0.0480787 0.0590135 -0.012359 -0.0921454 -0.032529 0.0828775 -0.105191 -0.0438215 0.0147428 0.0348393 0.100485 0.130765 0.0368018 -0.032542 -0.0525209 -0.0446398 -0.0613331 0.0352872 -0.116176 -0.0499261 0.0559376 0.0204623 0.111726 -0.112617 -0.0590566 0.00438258 -0.0730974 0.0928306 0.156041 0.0758012 -0.108481 0.140053 0.0531992 0.114899 -0.0763712 -0.0499417 0.0795895 -0.0221034 0.0272291 -0.0733844 -0.0377954 -0.0990534 -0.158946 -0.0516599 0.0260756 -0.104636 -0.137453 0.114748 -0.0722831 0.0861359
1155 0.287828 0.279077 -0.101786 -0.299527 -0.0731886 0.338122 -0.272309 -0.165872 -0.0036782 0.120733 0.315792 0.373642 0.192061 -0.179149 -0.292858 -0.224115 -0.211907 0.157716 -0.3425 -0.272769 0.0170927 0.157606 0.312006 -0.289323 -0.133586 -0.00617191 -0.15359 0.229016 0.426149 0.261638 -0.295104 0.470143 0.184392 0.303984 -0.21888 -0.0821326 0.252235 -0.0945214 0.0639153 -0.17676 -0.175106 -0.257463 -0.435565 -0.172111 0.147288 -0.259836 -0.41715 0.211287 -0.230818 0.272609
578 0.121514 0.133443 -0.0297169 -0.151711 -0.0342626 0.157276 -0.15186 -0.0764233 0.00529988 0.0554046 0.174702 0.219832 0.0829415 -0.0704573 -0.124204 -0.0867353 -0.107813 0.0761609 -0.189855 -0.114266 0.0329899 0.0403129 0.165428 -0.163265 -0.083701 0.0080576 -0.0851406 0.135464 0.231205 0.140401 -0.172638 0.246338 0.086381 0.168012 -0.121549 -0.0649558 0.122141 -0.0395614 0.0372011 -0.103384 -0.0641958 -0.136407 -0.247622 -0.0881648 0.0452957 -0.154249 -0.200052 0.140774 -0.116213 0.154334
40 0.0971842 0.0876301 -0.0248323 -0.111014 -0.0356001 0.106189 -0.114133 -0.0608599 -0.00496468 0.0318802 0.114297 0.142771 0.0543268 -0.060155 -0.0898572 -0.061953 -0.0658238 0.0481777 -0.133968 -0.0807591 0.034971 0.044942 0.11298 -0.123055 -0.0589338 -0.00150561 -0.0624263 0.0999068 0.157566 0.0973467 -0.109976 0.159971 0.0686694 0.123047 -0.087712 -0.0411745 0.0899172 -0.0250978 0.0255216 -0.0809512 -0.0451537 -0.105529 -0.178392 -0.0635997 0.0391325 -0.105267 -0.159414 0.0992967 -0.0948595 0.116448
2943 0.0418229 0.0566965 -0.00822452 -0.0689755 -0.0197781 0.0685519 -0.0714381 -0.0403685 0.0116879 0.0271952 0.0710142 0.0905117 0.0328941 -0.0215647 -0.0549809 -0.0370166 -0.0365479 0.0361262 -0.0829776 -0.0573013 0.0214232 0.0126652 0.0647135 -0.0674642 -0.0387842 -0.00119296 -0.0371988 0.0698093 0.107506 0.0581733 -0.069245 0.0965445 0.0462619 0.0699263 -0.0574866 -0.0226406 0.0648627 -0.0127229 0.0239548 -0.0519768 -0.031669 -0.0571193 -0.109961 -0.0335576 0.0305904 -0.0817796 -0.0946358 0.0653871 -0.0517727 0.0743806
3188 0.133008 0.131855 -0.0257643 -0.161118 -0.0487025 0.163196 -0.170836 -0.0743322 -0.00242742 0.0536646 0.182597 0.223935 0.0897019 -0.0751744 -0.121496 -0.0887418 -0.105199 0.0772988 -0.195904 -0.132393 0.0348133 0.0577609 0.175541 -0.175419 -0.0835485 0.00667295 -0.0964027 0.158786 0.244304 0.145646 -0.170065 0.258244 0.09657 0.184838 -0.123288 -0.0561482 0.147376 -0.0408929 0.047581 -0.119145 -0.0818714 -0.154266 -0.269966 -0.0902938 0.0692751 -0.17045 -0.232072 0.164748 -0.143627 0.164805
2982 0.183022 0.192305 -0.0611597 -0.198449 -0.044376 0.222034 -0.197218 -0.109682 0.00377745 0.0828083 0.223235 0.268163 0.115945 -0.107124 -0.186581 -0.142345 -0.13607 0.100609 -0.241951 -0.177542 0.0349154 0.0888394 0.22188 -0.200814 -0.10726 0.00346347 -0.114037 0.173478 0.298722 0.186843 -0.207705 0.319218 0.120518 0.208317 -0.1583 -0.0562743 0.176125 -0.0575548 0.0332069 -0.131687 -0.110339 -0.178918 -0.317583 -0.115453 0.0961693 -0.193287 -0.289311 0.167344 -0.159606 0.189345
2189 0.0712206 0.0841937 -0.0128691 -0.119953 -0.0331767 0.119427 -0.121161 -0.0558831 0.00494012 0.0353647 0.12786 0.158669 0.0576452 -0.0306769 -0.080687 -0.0462473 -0.0710987 0.0482908 -0.142684 -0.0829042 0.0372699 0.0335704 0.117146 -0.125801 -0.0605708 0.0048068 -0.0781996 0.108712 0.176735 0.114953 -0.130315 0.18033 0.0558633 0.124059 -0.0948835 -0.0539458 0.0897847 -0.0197545 0.0339363 -0.0856248 -0.0526115 -0.113454 -0.191806 -0.0651314 0.0331008 -0.125275 -0.160714 0.134035 -0.101868 0.12119
2638 0.0618286 0.0676978 -0.0218663 -0.0673625 -0.0227756 0.0856549 -0.0738828 -0.0430203 -0.00201666 0.0160259 0.083895 0.0970853 0.0393488 -0.0298946 -0.0629518 -0.0313903 -0.0409589 0.0380039 -0.0875452 -0.0627145 0.0120911 0.0335141 0.0760118 -0.088724 -0.0338582 0.00336267 -0.0541206 0.0705576 0.111719 0.0577244 -0.0859464 0.106423 0.0400357 0.0895734 -0.0543294 -0.0310899 0.0715889 -0.0127692 0.00713841 -0.0533941 -0.0397582 -0.0666486 -0.117677 -0.0368102 0.0237047 -0.083031 -0.0996463 0.0723121 -0.0683283 0.0712858
79 0.0605487 0.0608671 -0.0108239 -0.0957163 -0.0159896 0.0912629 -0.101257 -0.044237 0.00755654 0.0351695 0.0931734 0.119779 0.0244189 -0.0318221 -0.0480084 -0.0416654 -0.0605945 0.0342806 -0.0995903 -0.0541518 0.0442078 0.0152266 0.0925313 -0.112915 -0.0561002 0.00252697 -0.0755166 0.0952343 0.139364 0.0870624 -0.0948004 0.150255 0.0600811 0.115186 -0.0683436 -0.0417362 0.0725758 -0.013573 0.0318532 -0.0566079 -0.0296593 -0.0849236 -0.148031 -0.0448187 0.0148696 -0.114988 -0.135678 0.101999 -0.070226 0.0922727
2644 0.215981 0.215457 -0.073803 -0.249593 -0.0599454 0.257825 -0.241657 -0.125566 -0.000899572 0.0946376 0.269704 0.327991 0.154368 -0.130005 -0.228389 -0.171135 -0.166312 0.116957 -0.285308 -0.2105 0.0440354 0.113734 0.272339 -0.248278 -0.118177 -0.0115009 -0.137581 0.204618 0.373917 0.230657 -0.258759 0.396713 0.149526 0.26699 -0.195148 -0.0865252 0.213067 -0.0607329 0.060484 -0.159091 -0.136004 -0.222801 -0.377245 -0.146837 0.102844 -0.235108 -0.332263 0.198027 -0.203608 0.227887
1880 0.1051 0.10037 -0.0198399 -0.127588 -0.0262437 0.140603 -0.141436 -0.0640899 0.00532947 0.0430977 0.139599 0.172082 0.0644707 -0.0557432 -0.0906737 -0.0695894 -0.0842425 0.0687405 -0.156414 -0.10584 0.0347386 0.0280212 0.139784 -0.148025 -0.0729318 0.00347777 -0.0791652 0.123818 0.19334 0.117398 -0.13467 0.208085 0.0673651 0.151489 -0.0996207 -0.0564563 0.10873 -0.0391311 0.0249529 -0.098517 -0.0595117 -0.127984 -0.220565 -0.0728474 0.055513 -0.132291 -0.196131 0.133848 -0.103662 0.125873
5339 0.0576476 0.0787476 -0.00787681 -0.099685 -0.0286045 0.102707 -0.110974 -0.0395126 -0.001396 0.0311168 0.112814 0.133836 0.0370097 -0.0346578 -0.0505123 -0.0356042 -0.0712602 0.040253 -0.121928 -0.0686712 0.0487619 0.0172202 0.108309 -0.121763 -0.0682769 0.0108947 -0.0763481 0.0993111 0.155235 0.0975017 -0.104396 0.164035 0.0584401 0.109077 -0.0818002 -0.0469395 0.0940184 -0.0304561 0.0298716 -0.0711761 -0.0491342 -0.0923603 -0.167973 -0.0588014 0.0174047 -0.102548 -0.125091 0.105516 -0.0720972 0.0907235
3261 0.431672 0.427166 -0.135818 -0.41825 -0.0920719 0.491104 -0.399587 -0.235551 -0.0179435 0.168436 0.458171 0.548681 0.297944 -0.275806 -0.451852 -0.341154 -0.296678 0.22017 -0.493255 -0.407206 0.0105776 0.227027 0.448438 -0.410106 -0.200587 -0.0127825 -0.20613 0.319241 0.613852 0.395807 -0.437547 0.691349 0.276826 0.441099 -0.335694 -0.098074 0.350961 -0.134213 0.0817535 -0.258469 -0.254736 -0.347072 -0.62746 -0.269423 0.213144 -0.364369 -0.594611 0.296017 -0.349446 0.40203
5974 0.154203 0.156936 -0.0428937 -0.201455 -0.0532361 0.203409 -0.200921 -0.107443 0.0102413 0.0610864 0.21893 0.275215 0.0964461 -0.0940558 -0.143252 -0.105722 -0.13957 0.0924148 -0.230654 -0.158182 0.0487174 0.06587 0.208513 -0.202961 -0.113646 -0.00282895 -0.115998 0.187604 0.304042 0.184236 -0.207329 0.301719 0.123751 0.22051 -0.147958 -0.0853059 0.156515 -0.0444831 0.0371815 -0.129967 -0.0823239 -0.183826 -0.303897 -0.105262 0.0755346 -0.209101 -0.272591 0.196168 -0.150388 0.185908
6271 0.0455918 0.0460101 0.000225659 -0.076547 -0.0187399 0.0718009 -0.0850984 -0.0376952 0.00357165 0.0158789 0.100535 0.107945 0.0279308 -0.033039 -0.0472651 -0.0404947 -0.0482948 0.0389849 -0.0899003 -0.0569642 0.0420012 0.0118302 0.0902043 -0.101821 -0.0478888 0.00717899 -0.0569856 0.0867127 0.119594 0.0773457 -0.0807375 0.115721 0.0466476 0.0947823 -0.0656916 -0.0393609 0.0738793 -0.0113177 0.0129826 -0.0642856 -0.0421979 -0.0911512 -0.128427 -0.040863 0.0260381 -0.0878298 -0.114611 0.0944027 -0.0672352 0.0835321
4733 0.162065 0.186631 -0.0385661 -0.215423 -0.0564592 0.217256 -0.222308 -0.118024 0.003876 0.0682016 0.239461 0.294986 0.119627 -0.103122 -0.169878 -0.119893 -0.151814 0.111281 -0.24779 -0.157763 0.0605604 0.0789129 0.228723 -0.234414 -0.108641 0.000542621 -0.141979 0.199486 0.327484 0.197743 -0.231196 0.346653 0.128105 0.239188 -0.160879 -0.0864158 0.180281 -0.0606418 0.0575097 -0.137048 -0.106201 -0.200341 -0.335582 -0.116255 0.072576 -0.223618 -0.290014 0.215095 -0.175527 0.208517
3505 0.0250395 0.0431413 0.00830887 -0.060177 -0.0194995 0.0510435 -0.0800837 -0.0325547 0.017289 0.0121341 0.0819657 0.0924294 0.0244694 -0.0152083 -0.0251896 -0.0196863 -0.034536 0.0277078 -0.0836015 -0.0298874 0.0361176 0.00199664 0.0669134 -0.0749513 -0.0400478 0.00461988 -0.0570149 0.0781016 0.103123 0.0528574 -0.0783573 0.0906553 0.0403306 0.0857423 -0.0543335 -0.0374427 0.0605931 -0.00169695 0.0288817 -0.0528388 -0.0249287 -0.066337 -0.115066 -0.0249094 0.00852767 -0.0744008 -0.0912809 0.0816144 -0.0592983 0.0698369
201 0.555433 0.545492 -0.197586 -0.533478 -0.119901 0.595149 -0.467256 -0.283403 -0.0295923 0.216913 0.542397 0.674472 0.363598 -0.358164 -0.554858 -0.442392 -0.382558 0.290163 -0.640439 -0.519683 -0.00590714 0.292828 0.551104 -0.505415 -0.240446 -0.0168699 -0.23555 0.391487 0.756966 0.502235 -0.552466 0.87793 0.351222 0.538714 -0.421667 -0.127087 0.452064 -0.165918 0.105243 -0.339956 -0.310578 -0.433646 -0.773301 -0.328645 0.260164 -0.441806 -0.721395 0.354124 -0.428568 0.490424
1854 0.139981 0.117515 -0.0819595 -0.069892 -0.00580408 0.119653 -0.0233252 -0.0520698 -0.0261532 0.0426764 0.0510121 0.0638334 0.105414 -0.125618 -0.169458 -0.127833 -0.0490814 0.0536881 -0.0748126 -0.124688 -0.0946549 0.107888 0.0770724 -0.0197071 -0.00914958 -0.0236933 0.00757648 0.0092487 0.0766006 0.0615141 -0.0693233 0.129726 0.0593202 0.0451768 -0.0578685 0.0352188 0.0598265 -0.0500529 0.00743944 -0.0276605 -0.0729526 -0.0183551 -0.065073 -0.0609958 0.0728225 -0.00995268 -0.0932261 -0.0457746 -0.056321 0.0456513
1197 0.0948668 0.105493 -0.0160604 -0.119026 -0.0344476 0.139484 -0.14916 -0.0627404 0.0091303 0.0320028 0.150745 0.17928 0.0574765 -0.0525888 -0.0868201 -0.0698445 -0.0785575 0.0542496 -0.154669 -0.0985515 0.0398618 0.0272653 0.15251 -0.146399 -0.0798731 0.00148925 -0.0973483 0.125293 0.196823 0.121357 -0.134279 0.201848 0.0675186 0.161592 -0.102488 -0.0529114 0.106447 -0.0218653 0.0415017 -0.0817904 -0.0567912 -0.12712 -0.213566 -0.0713154 0.043163 -0.150507 -0.17312 0.138013 -0.112013 0.136784
6447 0.418917 0.416098 -0.140066 -0.398443 -0.0892698 0.470593 -0.38489 -0.228073 -0.00704009 0.160627 0.434613 0.530976 0.279325 -0.272548 -0.416218 -0.331508 -0.293314 0.22285 -0.485421 -0.402337 0.00261341 0.226432 0.426389 -0.395867 -0.197434 -0.00794585 -0.200805 0.320422 0.590198 0.380913 -0.41768 0.66339 0.258562 0.408363 -0.308416 -0.102848 0.347524 -0.130855 0.0712246 -0.25452 -0.229343 -0.345849 -0.608411 -0.266643 0.191913 -0.340915 -0.567233 0.279196 -0.330693 0.381483
1884 0.0709958 0.0781308 -0.00232873 -0.0998513 -0.037559 0.10799 -0.124282 -0.0576081 0.0125621 0.0213777 0.114416 0.149233 0.0459655 -0.0351999 -0.0649349 -0.0429103 -0.0666073 0.0556494 -0.123542 -0.0730716 0.0360918 0.016736 0.119436 -0.12062 -0.0636833 0.0117452 -0.0834424 0.11167 0.154335 0.1018 -0.110699 0.16036 0.0644279 0.117076 -0.0772152 -0.0416772 0.080264 -0.0258877 0.0234278 -0.0795639 -0.0447399 -0.0994593 -0.166272 -0.0555957 0.0181211 -0.113335 -0.132221 0.118538 -0.085132 0.114514
2192 0.119352 0.103648 -0.0772341 -0.0473231 0.00581042 0.0857949 0.00379959 -0.0413757 -0.0191171 0.0303573 0.030952 0.0230532 0.0945092 -0.0952859 -0.142331 -0.102807 -0.0416927 0.0381228 -0.0488876 -0.104367 -0.090419 0.0931486 0.0410051 0.00563375 0.0107215 -0.0294819 0.0237696 -0.00680528 0.0322354 0.0520161 -0.0270182 0.0915285 0.0403842 0.0279936 -0.0389049 0.0425021 0.0325767 -0.0398123 -0.00750265 -0.0116732 -0.0565502 -0.00669138 -0.0368694 -0.045791 0.071509 0.0111774 -0.0650808 -0.0529314 -0.0458788 0.0211972
175 0.0706154 0.0692454 -0.0162528 -0.0903876 -0.0238414 0.10856 -0.117474 -0.0527493 0.00192414 0.0353721 0.108338 0.151716 0.0487124 -0.0274443 -0.060279 -0.0413004 -0.0580478 0.0417438 -0.128454 -0.0705652 0.0345303 0.0306496 0.108597 -0.114416 -0.0663956 0.0113851 -0.0607063 0.101693 0.150234 0.0904902 -0.12128 0.155012 0.0540861 0.115185 -0.087949 -0.0431112 0.0782347 -0.0264233 0.0302107 -0.0773129 -0.040488 -0.107939 -0.169108 -0.0607127 0.0280221 -0.1174 -0.138972 0.121076 -0.0753845 0.100353
4855 0.159731 0.176609 -0.0374454 -0.205673 -0.0581051 0.213626 -0.215891 -0.100234 -0.000501362 0.0680173 0.221707 0.284854 0.104887 -0.0935552 -0.165972 -0.133389 -0.142262 0.0986844 -0.254534 -0.171261 0.0404804 0.0700688 0.229767 -0.223313 -0.10498 0.00648938 -0.117987 0.174322 0.308115 0.199112 -0.219383 0.332761 0.131379 0.221017 -0.160391 -0.0728088 0.168318 -0.0576433 0.0529286 -0.135409 -0.11066 -0.181001 -0.336988 -0.113583 0.0784617 -0.198007 -0.282944 0.18571 -0.177927 0.214711
3946 0.192159 0.198618 -0.0576273 -0.21544 -0.0439546 0.229412 -0.221856 -0.117542 0.00421566 0.0700039 0.239257 0.278588 0.132726 -0.11107 -0.193532 -0.149818 -0.148849 0.10289 -0.252608 -0.177855 0.0305599 0.103787 0.232401 -0.224185 -0.112306 0.0053026 -0.128628 0.180925 0.31826 0.192817 -0.222285 0.343181 0.12517 0.223344 -0.177978 -0.0604188 0.176961 -0.0671189 0.0394198 -0.142737 -0.112231 -0.200872 -0.340949 -0.141641 0.0946139 -0.207042 -0.309008 0.180516 -0.170852 0.218402
1015 0.0973044 0.0987423 -0.00298184 -0.142167 -0.0344856 0.127659 -0.145789 -0.0617079 -0.000314174 0.0435008 0.145374 0.183764 0.0474124 -0.0442108 -0.0869499 -0.0613778 -0.0913745 0.0619203 -0.156411 -0.091424 0.0573115 0.0362345 0.160498 -0.150591 -0.0857861 0.00188734 -0.092469 0.136318 0.211187 0.125418 -0.139627 0.200159 0.0685048 0.14995 -0.0942228 -0.0617296 0.121262 -0.0260597 0.0249305 -0.0971945 -0.0608451 -0.128665 -0.216485 -0.0708975 0.0441571 -0.150333 -0.192147 0.153724 -0.106357 0.133416
6083 0.149283 0.122459 -0.0748995 -0.0574804 -0.0132818 0.102601 -0.00867937 -0.0448545 -0.0197695 0.0471242 0.0495593 0.0524377 0.103759 -0.121145 -0.165524 -0.125027 -0.0472523 0.0589015 -0.0741678 -0.12251 -0.102537 0.115741 0.05416 -0.0163384 0.00134702 -0.0254962 0.0299143 -0.0161151 0.0523637 0.0640135 -0.0536708 0.121282 0.0571812 0.0372331 -0.043239 0.0500852 0.0580994 -0.0543715 -0.000110178 -0.0237576 -0.0777572 -0.0187014 -0.0465581 -0.0648048 0.0821628 0.0125402 -0.0790333 -0.0555673 -0.0492593 0.03929
1740 0.130091 0.137682 -0.0295943 -0.157366 -0.0356565 0.180881 -0.167084 -0.0922312 -0.00724962 0.0514634 0.17935 0.21363 0.0926946 -0.088554 -0.135005 -0.116108 -0.105877 0.0755475 -0.190622 -0.147021 0.0302163 0.0758407 0.169698 -0.156864 -0.0916679 -0.00305715 -0.0881626 0.128572 0.245564 0.142801 -0.16473 0.270443 0.108569 0.176375 -0.126883 -0.0625673 0.130189 -0.0450908 0.0351214 -0.104799 -0.0818802 -0.133155 -0.254031 -0.0984907 0.0589312 -0.144638 -0.215299 0.135548 -0.126135 0.145723
229 0.169307 0.181736 -0.0410577 -0.198269 -0.0575878 0.225744 -0.20284 -0.110624 -0.0047807 0.0652317 0.223823 0.27875 0.122462 -0.10073 -0.167026 -0.126395 -0.133329 0.0959732 -0.248067 -0.182349 0.0447106 0.0727597 0.216762 -0.223323 -0.100477 0.00726031 -0.123201 0.188941 0.298009 0.18108 -0.223121 0.332313 0.125147 0.223497 -0.16991 -0.0674665 0.169728 -0.0626128 0.0475002 -0.135171 -0.114393 -0.183822 -0.329342 -0.1165 0.0897146 -0.202612 -0.297396 0.181565 -0.164056 0.194748
2511 0.106441 0.113569 -0.023627 -0.151857 -0.0398713 0.146233 -0.156376 -0.0759303 0.010778 0.0568894 0.164071 0.194917 0.0706336 -0.0528849 -0.112306 -0.0834304 -0.101278 0.0762911 -0.185636 -0.102455 0.0481232 0.0416037 0.164946 -0.167425 -0.0767918 -0.0040735 -0.103875 0.146925 0.229211 0.135717 -0.166948 0.236557 0.0919419 0.169803 -0.110812 -0.0648236 0.127917 -0.0401935 0.0431925 -0.106849 -0.0743525 -0.131481 -0.233903 -0.0807462 0.0508509 -0.154284 -0.209053 0.144134 -0.128543 0.151362
3962 0.0271725 0.0347439 0.00123297 -0.0643162 -0.0257512 0.0664104 -0.075566 -0.0320343 -0.00273519 0.0174121 0.0848967 0.0930368 0.0136876 -0.0222494 -0.0229339 -0.0212751 -0.0482194 0.0275216 -0.0843644 -0.0430994 0.0330718 -0.00227282 0.0711335 -0.0753033 -0.0433944 0.00751624 -0.0457933 0.0763115 0.0981691 0.0504933 -0.0787216 0.0980179 0.0411595 0.0774289 -0.0545275 -0.0481452 0.0526388 -0.00732745 0.0259805 -0.0470099 -0.0271251 -0.0660587 -0.117567 -0.0395488 0.00755456 -0.0783786 -0.0946244 0.0840676 -0.0498643 0.0763555
2466 0.0553578 0.0589347 -0.00696843 -0.084019 -0.0167076 0.084543 -0.103005 -0.053917 0.00317365 0.024861 0.10129 0.130058 0.0374092 -0.0318774 -0.0532376 -0.0336349 -0.0579755 0.0498431 -0.107175 -0.0567772 0.0361982 0.0173768 0.0917688 -0.104644 -0.0446711 0.0108773 -0.0634264 0.0845832 0.131042 0.0801123 -0.104779 0.14614 0.0510408 0.111065 -0.0742935 -0.0435406 0.0745752 -0.0189426 0.0181736 -0.0593364 -0.0384724 -0.0882729 -0.157815 -0.0461127 0.0245994 -0.102404 -0.130388 0.110532 -0.0769113 0.0929851
4217 0.165795 0.167973 -0.0468324 -0.191582 -0.0550761 0.21813 -0.199835 -0.094616 -0.0070132 0.0692029 0.219166 0.254208 0.124553 -0.113197 -0.183287 -0.13386 -0.141828 0.0975054 -0.237797 -0.182962 0.0367775 0.0952554 0.211971 -0.19764 -0.0903251 -0.0110253 -0.112455 0.170363 0.298226 0.172422 -0.214052 0.313535 0.119538 0.206241 -0.152307 -0.0579436 0.161201 -0.0475254 0.0381406 -0.124714 -0.0991861 -0.173173 -0.303034 -0.11974 0.0906684 -0.175869 -0.268587 0.15808 -0.16558 0.199193
1172 0.0125553 0.0192184 0.0129504 -0.049136 -0.0178018 0.0364889 -0.054898 -0.0270082 0.00964124 0.00678817 0.0598588 0.0701248 0.00820138 -0.00256387 -0.0123652 -0.0126908 -0.0313365 0.0219793 -0.048973 -0.0077532 0.0414903 -0.0169899 0.0359667 -0.0479434 -0.0335854 -0.00194964 -0.0447254 0.043166 0.0754644 0.0288802 -0.0388173 0.0575234 0.0156664 0.0454119 -0.0334766 -0.0329428 0.0449832 -0.00531452 0.00612338 -0.0328424 -0.0165282 -0.052146 -0.0803495 -0.024389 0.0034056 -0.0566255 -0.0573243 0.0733016 -0.0281401 0.0539521
76 0.200739 0.187071 -0.0630762 -0.216325 -0.0526101 0.244023 -0.205161 -0.109308 -0.0136282 0.0735012 0.235484 0.283926 0.129911 -0.123016 -0.205592 -0.159915 -0.149323 0.106636 -0.257371 -0.185769 0.021485 0.104028 0.22253 -0.202681 -0.0972284 0.00529295 -0.109531 0.169038 0.319541 0.195822 -0.233048 0.340007 0.145362 0.238234 -0.179515 -0.0536415 0.177554 -0.0538721 0.0466198 -0.131769 -0.124388 -0.173379 -0.330329 -0.129735 0.0903951 -0.189342 -0.288824 0.160224 -0.164012 0.203331
3209 0.0541185 0.051896 -0.0064014 -0.104081 -0.0245121 0.0845542 -0.116205 -0.0538183 0.00849379 0.0272555 0.111345 0.138379 0.0217806 -0.0288782 -0.036653 -0.0344378 -0.0594778 0.0430417 -0.117322 -0.0543762 0.0486947 0.0130071 0.101206 -0.107262 -0.0521553 0.000945336 -0.0784679 0.112235 0.144218 0.0844707 -0.101453 0.145223 0.055467 0.105323 -0.0698276 -0.0574643 0.0894276 -0.0184453 0.0236111 -0.0607387 -0.0246957 -0.0926327 -0.159402 -0.0548569 0.0129694 -0.117585 -0.13483 0.12613 -0.0782925 0.108169
212 0.146016 0.161092 -0.0435211 -0.183699 -0.0573302 0.201615 -0.18525 -0.0957431 -0.00235784 0.0763122 0.214473 0.251735 0.109847 -0.0906273 -0.161659 -0.128136 -0.126306 0.0933706 -0.229517 -0.149151 0.0336254 0.0764633 0.206948 -0.197282 -0.101712 0.00190168 -0.109396 0.172024 0.292434 0.172179 -0.209353 0.308118 0.114658 0.216667 -0.156425 -0.0767863 0.167719 -0.0439136 0.0336197 -0.13045 -0.0921362 -0.172971 -0.294874 -0.103363 0.0815677 -0.179241 -0.254157 0.167943 -0.151754 0.179265
110 0.126936 0.111147 -0.0841493 -0.0541343 0.00512708 0.0930246 0.00116669 -0.0459492 -0.0170951 0.0339743 0.0442011 0.0399843 0.0951598 -0.105497 -0.154372 -0.115994 -0.0374838 0.0470914 -0.055525 -0.108451 -0.0891044 0.109926 0.0462163 -0.00311633 0.00194738 -0.027029 0.0356419 -0.0070597 0.037385 0.0497756 -0.0348937 0.0929594 0.0585672 0.0230213 -0.0490847 0.0456107 0.0482694 -0.0512042 -0.0141505 -0.0234678 -0.0623055 -0.0171577 -0.0459002 -0.0565659 0.0716947 0.0119937 -0.0847766 -0.054727 -0.0352105 0.0390677
2098 0.152453 0.174996 -0.0427705 -0.189985 -0.0421864 0.197359 -0.197114 -0.0969083 -0.00484727 0.0685208 0.207172 0.270795 0.105636 -0.0860398 -0.165539 -0.114403 -0.145027 0.0904619 -0.226276 -0.16402 0.0546898 0.0640948 0.210689 -0.214883 -0.110284 0.000853697 -0.109327 0.176448 0.298802 0.180612 -0.209404 0.30661 0.121689 0.224145 -0.157995 -0.0779089 0.17052 -0.0581525 0.0421512 -0.129446 -0.10429 -0.188484 -0.302968 -0.118978 0.0751305 -0.20303 -0.266108 0.181447 -0.159348 0.191991
4882 0.105867 0.110985 -0.0322273 -0.124362 -0.0431542 0.12846 -0.13939 -0.0651104 0.00563436 0.0401157 0.147125 0.167306 0.0653154 -0.0550911 -0.113293 -0.0861257 -0.07964 0.0709089 -0.154068 -0.11361 0.0325386 0.0402188 0.14657 -0.1411 -0.0721003 -0.00581882 -0.0708899 0.121473 0.198167 0.128624 -0.15119 0.2221 0.0848104 0.155903 -0.100273 -0.043036 0.107672 -0.0436025 0.0277113 -0.0915805 -0.0674366 -0.11537 -0.214861 -0.072834 0.0552574 -0.127316 -0.185497 0.113978 -0.0998731 0.128046
431 0.134138 0.146843 -0.0361926 -0.184995 -0.0481012 0.19138 -0.186397 -0.0938607 0.00909631 0.0576156 0.198438 0.25089 0.0923524 -0.0663581 -0.131985 -0.0912948 -0.118538 0.088013 -0.203939 -0.14131 0.0445755 0.0533838 0.193457 -0.196565 -0.0943674 0.00446495 -0.116774 0.161387 0.273315 0.153607 -0.185429 0.276553 0.0969117 0.206196 -0.131505 -0.0769914 0.14558 -0.0325533 0.0385415 -0.112552 -0.0865715 -0.161164 -0.278544 -0.100206 0.0590723 -0.192134 -0.244522 0.178238 -0.134629 0.177484
918 0.196249 0.202184 -0.0485655 -0.214478 -0.0480994 0.241204 -0.220867 -0.121208 0.00664442 0.0791469 0.236711 0.3047 0.126406 -0.106591 -0.193714 -0.14344 -0.157418 0.110623 -0.259388 -0.177828 0.0425536 0.0823759 0.241097 -0.233919 -0.110815 -0.0049706 -0.124731 0.204017 0.328134 0.203775 -0.237809 0.352374 0.140276 0.248533 -0.165256 -0.0818216 0.180844 -0.0526696 0.0527197 -0.15156 -0.120527 -0.206509 -0.353616 -0.137127 0.0815114 -0.214109 -0.318423 0.205976 -0.173128 0.227061
4856 0.0845032 0.0810324 -0.0121365 -0.123844 -0.0287635 0.123063 -0.123208 -0.0527784 0.0113645 0.0279301 0.128426 0.177328 0.0429533 -0.038954 -0.0691069 -0.0517563 -0.0790968 0.0447705 -0.136745 -0.0719033 0.0421998 0.031914 0.136178 -0.144569 -0.0778696 0.0119063 -0.0779391 0.10892 0.176572 0.10447 -0.13044 0.175568 0.0568238 0.139394 -0.0994738 -0.05857 0.0983868 -0.019188 0.0291939 -0.0823341 -0.0550882 -0.123186 -0.198156 -0.0743176 0.0274239 -0.126977 -0.172391 0.130376 -0.100842 0.115907
873 0.311753 0.305923 -0.100628 -0.309611 -0.0793392 0.35302 -0.292394 -0.169426 -0.013986 0.119845 0.328896 0.407236 0.208343 -0.201943 -0.316683 -0.231836 -0.210192 0.156663 -0.366791 -0.293987 0.0182356 0.171196 0.324442 -0.296949 -0.156655 -0.00970285 -0.154753 0.235839 0.455663 0.287052 -0.318393 0.510974 0.194052 0.328043 -0.239465 -0.0796266 0.256053 -0.0956714 0.068189 -0.18833 -0.172435 -0.251517 -0.476084 -0.195631 0.159648 -0.25768 -0.429928 0.220791 -0.249464 0.302175
5089 0.067105 0.0790887 -0.0182533 -0.0919788 -0.0235348 0.100875 -0.109174 -0.0398783 0.000455957 0.0262829 0.107967 0.119139 0.0371552 -0.0388812 -0.0764292 -0.0520313 -0.0556493 0.0478874 -0.115608 -0.0674203 0.0250399 0.0243737 0.102387 -0.0971148 -0.052378 -0.0016385 -0.0590806 0.0909564 0.137023 0.0926544 -0.0975266 0.15141 0.0634593 0.0985251 -0.0763487 -0.0360228 0.0788344 -0.020872 0.0140304 -0.0537591 -0.0483448 -0.0978084 -0.148163 -0.0516324 0.0344704 -0.106513 -0.131499 0.101523 -0.080014 0.0937265
5675 0.391854 0.387902 -0.134754 -0.373236 -0.0802751 0.427611 -0.342996 -0.197433 -0.00786601 0.149035 0.384729 0.486873 0.273469 -0.276024 -0.408866 -0.32459 -0.255278 0.208213 -0.435441 -0.377158 -0.00195366 0.229733 0.395915 -0.350466 -0.172055 -0.0234092 -0.160293 0.272946 0.535802 0.350538 -0.385654 0.625582 0.245637 0.396699 -0.291186 -0.0880686 0.310761 -0.129865 0.0643043 -0.237331 -0.232524 -0.30841 -0.565918 -0.239918 0.191008 -0.301368 -0.511755 0.249073 -0.3095 0.353962
3797 0.0863884 0.109381 -0.0277697 -0.133591 -0.0466192 0.143951 -0.156968 -0.0703677 0.0117228 0.0482 0.15065 0.192184 0.0716846 -0.0609069 -0.0969817 -0.0723102 -0.0926982 0.0563843 -0.157711 -0.107597 0.051092 0.0367551 0.153206 -0.16256 -0.0803077 -0.000793007 -0.0850449 0.124955 0.218791 0.125668 -0.149436 0.222141 0.0898399 0.155415 -0.120384 -0.0636914 0.125434 -0.0230293 0.0368456 -0.0930227 -0.060207 -0.141617 -0.232815 -0.0827147 0.0512517 -0.142152 -0.182908 0.147097 -0.109911 0.138621
483 0.0728451 0.0744574 -0.0176561 -0.0976983 -0.0201438 0.101286 -0.100629 -0.0537057 -0.00396678 0.0234595 0.101801 0.131283 0.0375961 -0.0388547 -0.0601657 -0.0431014 -0.0577779 0.0356024 -0.106774 -0.0756249 0.0228966 0.0199454 0.0999382 -0.09838 -0.0432656 -0.00334195 -0.061621 0.0902953 0.146139 0.0925403 -0.108946 0.135204 0.0463989 0.109126 -0.0710757 -0.0504669 0.0749479 -0.0224902 0.0150621 -0.0658855 -0.0462486 -0.0974838 -0.147253 -0.0575925 0.0401829 -0.105481 -0.141831 0.0880239 -0.0721886 0.0896036
4387 0.254198 0.253298 -0.0737447 -0.286569 -0.0595576 0.310024 -0.263621 -0.137773 -0.00782669 0.110671 0.301263 0.368815 0.174021 -0.155911 -0.261269 -0.20006 -0.195577 0.142926 -0.321676 -0.2562 0.0407725 0.13729 0.30238 -0.274069 -0.137249 -0.00128359 -0.15537 0.232528 0.409609 0.260204 -0.29751 0.44264 0.168138 0.297153 -0.210371 -0.083804 0.232962 -0.0772911 0.0507268 -0.179155 -0.147705 -0.241717 -0.429536 -0.166934 0.116257 -0.257382 -0.376012 0.21498 -0.220656 0.264599
3749 0.0606093 0.0632065 -0.0199099 -0.0534735 -0.0231401 0.064227 -0.066337 -0.0286478 -0.00490896 0.0203217 0.0624777 0.0808017 0.0347654 -0.0393941 -0.0497364 -0.0413666 -0.0380067 0.0404786 -0.0700114 -0.0574782 0.0110896 0.0285163 0.061221 -0.0727445 -0.035161 0.0100984 -0.0309261 0.0528698 0.0945304 0.0644499 -0.0680657 0.0983812 0.0479855 0.064863 -0.0510574 -0.0134135 0.04524 -0.0231103 0.0141917 -0.045075 -0.0404059 -0.061862 -0.0912008 -0.0427389 0.02749 -0.0619093 -0.0811827 0.0645801 -0.0418138 0.0675184
