3001 50
864 0.00919112 0.00719027 -0.0404798 0.0569786 0.0717038 -0.0444271 0.0216182 0.00354026 -0.0323306 0.0235094 0.0257574 -0.00885294 0.000329726 0.0127089 -0.102958 0.0703009 0.0237844 -0.0503678 -0.131751 0.0422736 -0.180172 -0.0818387 -0.0252628 0.0787277 -0.10578 0.0439646 -0.134756 -0.00512416 0.100546 0.0457552 0.118525 -0.0620594 -0.0384162 -0.0184225 -0.00556289 0.00251085 0.0981742 -0.0243265 0.0451243 0.0916242 0.0577578 -0.0211697 0.0353899 0.0485145 0.126156 0.0144546 -0.0659761 -0.0885274 0.0759115 0.143539
1574 -0.0169382 0.0191242 -0.144536 0.186513 0.18372 -0.107609 -0.0392955 0.0493919 0.0637404 -0.00675133 0.0545775 0.0827674 -0.0268346 0.0549634 -0.0479542 0.0384168 -0.00752834 -0.0347756 -0.0949034 0.021936 -0.158777 -0.061362 -0.0251692 0.023681 -0.0879016 0.0463134 -0.077311 0.00322878 0.0386164 -0.00843372 0.268561 -0.157313 -0.0959632 -0.0264833 -0.100956 -0.011027 0.280234 -0.0317317 0.18576 0.346783 0.203479 -0.107223 0.141117 0.194118 0.307284 0.0188616 -0.0430071 -0.0519026 0.0526261 0.0928414
1610 -0.00968179 -0.00318082 -0.0694663 0.0873534 0.0821718 -0.0501979 -0.0232849 0.0295344 0.0334519 0.00599382 0.0213967 0.0315915 -0.00992248 0.0233736 -0.0258453 0.0273713 -0.0151739 -0.00512767 -0.043119 0.00808329 -0.0622812 -0.0203807 -0.00352167 0.00971543 -0.0309543 0.0179687 -0.021508 0.00731126 0.0182358 -0.00752262 0.136012 -0.0844088 -0.0512308 -0.0197916 -0.0524475 0.00342837 0.137274 -0.00544025 0.069965 0.145437 0.0794483 -0.039432 0.0717033 0.0928356 0.147923 0.00483705 -0.0167366 -0.0252241 0.0265844 0.0664945
1951 -0.00514132 -0.0020489 -0.0241818 0.0540721 0.0446538 -0.0245545 -0.0422492 0.0227932 0.0644373 -0.00888459 0.0181896 0.0497811 -0.00654293 0.0372796 0.0538437 -0.0254089 -0.0248122 0.0253711 0.0559695 -0.0234148 0.0687095 0.0307235 0.0142346 -0.0428643 0.0313185 -0.0129422 0.0653598 -0.00278986 -0.0478794 -0.0473927 0.0569278 -0.0332934 -0.0206396 -0.00212164 -0.025643 -0.00218032 0.0658152 -0.0092446 0.0549332 0.10765 0.053304 -0.0222117 0.0411372 0.0580955 0.0575143 -0.00591903 0.0286421 0.0452258 -0.0357372 -0.0856224
0 -0.0321165 0.0386629 -0.599298 0.837177 0.813159 -0.459187 -0.455938 0.274125 0.72966 -0.165514 0.262144 0.771313 -0.222382 0.526625 0.31591 -0.154222 -0.165129 0.152337 0.288281 -0.113793 0.32718 0.181809 0.0877271 -0.392913 0.256248 -0.120149 0.503914 -0.0111333 -0.500191 -0.397105 0.303843 -0.207104 -0.173901 -0.030913 -0.214614 -0.0155829 1.08919 -0.0655899 0.371276 0.689114 0.44819 -0.195209 0.357188 0.501516 1.10938 0.0746543 -0.068491 -0.0936115 0.119204 0.259721
1461 -0.0225637 0.00759959 -0.131235 0.195456 0.163867 -0.0959799 -0.0680128 0.0440385 0.083341 -0.00288126 0.0546764 0.0956289 -0.0329383 0.0625563 -0.00466767 0.0236516 -0.0290765 -0.0126386 -0.0395359 0.00138064 -0.0770157 -0.0305779 -0.00987639 0.00499406 -0.047802 0.0328916 -0.0235047 0.00742603 -0.0028887 -0.0330059 0.260543 -0.164623 -0.1044 -0.020816 -0.101029 -0.0124626 0.259717 -0.0192086 0.209769 0.392572 0.217794 -0.110807 0.147673 0.203706 0.284234 0.0283126 0.00210515 -0.0168129 0.0160234 0.0259836
1543 -0.00617445 0.0186938 -0.159314 0.209464 0.17533 -0.109528 -0.0714888 0.0629154 0.0887203 -0.0206712 0.0508011 0.0903508 -0.0370338 0.076686 -0.0107321 0.0194136 -0.0197102 -0.00788099 -0.0421009 0.0159871 -0.100296 -0.0222055 0.000320245 -0.000992427 -0.0664446 0.0226607 -0.0447649 -0.00956859 0.0178983 -0.0180788 0.270057 -0.159462 -0.11626 -0.0258395 -0.10355 -0.0066305 0.292469 -0.0187615 0.196597 0.3774 0.208945 -0.103944 0.158826 0.201922 0.305204 0.0168486 -0.00164006 -0.00548884 0.0106575 0.0329929
2844 -0.0218185 0.00567387 -0.129063 0.17687 0.142982 -0.0703824 -0.0944964 0.0614076 0.123204 -0.0338859 0.0426364 0.110449 -0.0271709 0.0699159 0.0580693 -0.0313404 -0.0426817 0.0304617 0.0399472 -0.0157004 0.0281016 0.0119343 0.00448185 -0.0655243 0.00263612 0.00334466 0.0500625 0.00392598 -0.0790443 -0.0674837 0.248088 -0.155358 -0.112691 -0.0292318 -0.119367 -0.0197403 0.274841 -0.0128928 0.191902 0.355984 0.205937 -0.0889917 0.139713 0.199533 0.248416 0.0250019 0.0305446 0.0385402 -0.0489963 -0.0757435
939 -0.01028 0.017379 -0.0844771 0.120261 0.0915835 -0.0582455 -0.0678187 0.0346948 0.0867336 -0.0297957 0.0198504 0.076373 -0.0177116 0.0596566 0.0575854 -0.0390952 -0.0427338 0.0435358 0.0715926 -0.0252809 0.0692853 0.0353091 0.0122543 -0.065365 0.0283879 -0.00646314 0.0665677 -0.00913364 -0.0903789 -0.0706967 0.166109 -0.103011 -0.0803239 -0.0196754 -0.0922182 -0.0121049 0.192789 -0.00723253 0.142659 0.280629 0.14872 -0.0650747 0.105707 0.152887 0.174633 0.00694653 0.0476917 0.0544578 -0.049407 -0.0944843
2830 -0.00915074 0.0111332 -0.0830486 0.111362 0.0698181 -0.0451814 -0.0819948 0.0398162 0.0869245 -0.0279802 0.0253246 0.0847666 -0.0258511 0.0555129 0.0934436 -0.0475637 -0.0456579 0.0397106 0.0962092 -0.0357117 0.104782 0.0499121 0.0258629 -0.077756 0.0630575 -0.0244484 0.104834 -0.00714533 -0.112303 -0.0818842 0.143829 -0.0958817 -0.0640428 -0.00327084 -0.0996367 -0.0221888 0.170343 0.00267778 0.133729 0.261724 0.152448 -0.0699633 0.105059 0.148812 0.139409 0.015156 0.0457304 0.0582488 -0.0611788 -0.108922
782 -0.00661594 0.00625589 -0.107075 0.143338 0.137998 -0.0788467 -0.0589625 0.0423354 0.0630017 -0.0171186 0.0400259 0.0644277 -0.0183644 0.0554676 -0.00503162 0.017754 -0.0130675 0.00398681 -0.0411069 -0.00339463 -0.0625203 -0.0225192 0.00368308 -0.00810219 -0.0333578 0.0152928 -0.0265132 -0.00757516 0.00900396 -0.0164823 0.193189 -0.116552 -0.0707238 -0.0216743 -0.0664708 -0.0034936 0.198909 -0.0192671 0.162813 0.303321 0.159855 -0.072337 0.112126 0.149562 0.213013 0.0160514 -0.0186445 -0.0292834 0.0219099 0.0376277
2184 -0.00747325 0.00573504 -0.103745 0.154311 0.113607 -0.0690771 -0.0826067 0.0466008 0.118804 -0.0253983 0.0335541 0.104391 -0.0340576 0.0710475 0.0770885 -0.0307778 -0.0391679 0.0323554 0.0720692 -0.0288019 0.0623986 0.0430924 0.0146845 -0.0664282 0.0289318 -0.021506 0.0677479 0.00639893 -0.0735165 -0.0663579 0.191769 -0.130022 -0.0780321 -0.0265881 -0.0913193 -0.00971133 0.206942 -0.020575 0.180928 0.348986 0.193172 -0.0910297 0.141214 0.179172 0.194528 0.00942222 0.0249414 0.0309383 -0.0352733 -0.0673451
2148 -0.00407372 0.011293 -0.105609 0.129235 0.136736 -0.0722383 -0.025729 0.0372664 0.0405463 0.00523925 0.0326875 0.053503 -0.0202547 0.0406417 -0.0390571 0.0358718 -0.000524445 -0.017923 -0.0765533 0.00906386 -0.122399 -0.0498627 -0.013811 0.0267901 -0.0643784 0.0397048 -0.0574509 0.00818704 0.0348503 -0.00587959 0.191575 -0.123869 -0.0719984 -0.0217876 -0.0718386 0.00266839 0.193941 -0.0267926 0.134924 0.247316 0.148291 -0.068336 0.0965133 0.139954 0.229834 0.0196836 -0.0197742 -0.0443694 0.0425054 0.065344
2310 -0.0155562 0.00267842 -0.0776895 0.0963866 0.0801389 -0.0438784 -0.0609291 0.0446039 0.0791063 -0.0144902 0.0189895 0.0654628 -0.024842 0.0573055 0.0294931 -0.00811061 -0.0279501 0.022347 0.0208143 -0.00590239 0.0187924 0.0183676 0.0140146 -0.0441951 0.0212226 0.000418188 0.037336 -0.000261195 -0.0453412 -0.0575479 0.141597 -0.0877163 -0.0696288 -0.00520033 -0.0675893 -0.0143168 0.151323 -0.0151314 0.123184 0.219845 0.132846 -0.0639661 0.0894611 0.120449 0.152309 0.00547514 0.014573 0.0360456 -0.0253746 -0.0479619
1178 -0.0126131 0.0177948 -0.118914 0.154893 0.164451 -0.080705 -0.0251765 0.0307474 0.0504404 0.00924952 0.038672 0.0585951 -0.013756 0.0449612 -0.0769761 0.0498723 -0.00809829 -0.0292752 -0.102153 0.0331716 -0.171738 -0.0564387 -0.0210442 0.0419174 -0.0915483 0.0406222 -0.0970307 0.00600218 0.0669561 0.0198298 0.236436 -0.142852 -0.0907185 -0.0259666 -0.0797935 -0.0127916 0.232838 -0.0318685 0.161778 0.306746 0.177124 -0.0848658 0.10724 0.166671 0.271276 0.0166548 -0.0371658 -0.0657477 0.0530563 0.101926
2793 -0.00515399 0.0196512 -0.12078 0.141018 0.130522 -0.0863999 -0.0529851 0.0474269 0.062255 -0.00819817 0.04237 0.079327 -0.0221625 0.057068 -0.0102483 0.00763614 -0.0194447 0.00200344 -0.0432432 0.0139101 -0.0857198 -0.0203263 -0.0139122 -0.00399265 -0.046755 0.0195915 -0.028876 0.00167398 0.0129811 -0.018839 0.223209 -0.131718 -0.0843804 -0.0151333 -0.0849588 -0.00330949 0.239745 -0.0223861 0.164215 0.288609 0.172591 -0.0811591 0.122628 0.162831 0.246578 0.00933543 -0.0105444 -0.0196961 0.0129974 0.0340197
2981 -0.013823 0.0239771 -0.163419 0.219198 0.177903 -0.0915701 -0.107899 0.0822361 0.154153 -0.0236674 0.0436322 0.129701 -0.0316239 0.0981799 0.0763506 -0.034502 -0.0534426 0.032903 0.0641658 -0.0264314 0.0365911 0.0187841 0.0135092 -0.0794041 0.0123939 -0.00714605 0.0618332 -0.000215513 -0.100726 -0.09795 0.283663 -0.19169 -0.129174 -0.0362901 -0.137042 -0.00991043 0.324106 -0.0302783 0.237876 0.451867 0.250635 -0.110476 0.183608 0.251401 0.311777 0.0221609 0.0489986 0.0534993 -0.057415 -0.0904061
1867 -0.0115409 0.00470342 -0.0857705 0.123823 0.110446 -0.0595543 -0.0403263 0.0391332 0.0529831 -0.00906704 0.043319 0.0678353 -0.0209351 0.0419305 -0.0363631 0.0186908 -0.0023522 -0.0104865 -0.0593503 0.0191557 -0.0975326 -0.0383806 -0.0116829 0.0171096 -0.0480973 0.0191913 -0.0520921 0.00925908 0.0164937 -0.0212393 0.187733 -0.108526 -0.078984 -0.0319501 -0.0799443 -0.0051086 0.20675 -0.0297544 0.125245 0.247827 0.150894 -0.0634622 0.0994318 0.129381 0.205543 0.00852501 -0.016387 -0.0276084 0.0201369 0.0509524
2445 -0.0178232 0.00509381 -0.0990399 0.121141 0.115232 -0.0675993 -0.0728427 0.0381702 0.103029 -0.0196211 0.0262225 0.0964026 -0.0177154 0.0621995 0.0401908 -0.0273397 -0.0303643 0.0266516 0.0441739 -0.0238512 0.0341075 0.0206704 0.00791782 -0.0453653 0.0196765 -0.0086305 0.0493412 -0.00150429 -0.0553057 -0.0527829 0.152731 -0.0909153 -0.0681362 -0.0215879 -0.0670241 -0.0146794 0.182909 -0.00562119 0.140439 0.265021 0.167176 -0.078844 0.107186 0.152215 0.195657 0.0150492 0.0398302 0.0364683 -0.0485322 -0.0619085
2619 -0.00628918 0.00789062 -0.127527 0.182917 0.171074 -0.0869157 -0.0640886 0.0455507 0.0880399 -0.0186073 0.0553786 0.101904 -0.0323812 0.0719348 0.000391463 0.00408457 -0.035236 -0.00590825 -0.0238935 0.00573171 -0.0538943 -0.0227856 0.00295733 -0.0241986 -0.0318661 0.0129033 0.00527983 0.00835797 -0.0364958 -0.0488803 0.253015 -0.149582 -0.101071 -0.022962 -0.0992919 -0.00989891 0.261297 -0.0286642 0.172258 0.341275 0.201221 -0.0921316 0.138425 0.200181 0.250709 0.0208263 -0.0146328 -0.022253 0.0128582 0.0353243
2865 -0.0249572 0.0106733 -0.139041 0.187418 0.152344 -0.0845318 -0.100047 0.0653672 0.135938 -0.0284472 0.0539539 0.134523 -0.0426236 0.0849331 0.0670304 -0.0272035 -0.0428353 0.033362 0.0598353 -0.0312096 0.0308461 0.0254817 0.012386 -0.0669431 0.0212219 0.00100612 0.0659657 -0.00493101 -0.0912863 -0.0916695 0.242055 -0.162974 -0.112275 -0.0323533 -0.114262 -0.0115859 0.266637 -0.0205276 0.199955 0.368866 0.206987 -0.0875497 0.144808 0.214751 0.253558 0.0149182 0.030633 0.0401379 -0.0438767 -0.0898584
2297 -0.000187322 0.0181888 -0.106799 0.146514 0.151913 -0.0889216 -0.0651687 0.0512919 0.0891665 -0.0197174 0.0503843 0.0807748 -0.0302142 0.0676591 -0.00608779 0.0189929 -0.0156733 -0.0109241 -0.0307398 -0.00122477 -0.0754472 -0.017258 -0.0132241 -0.00947315 -0.0493551 0.0172256 -0.0330578 0.000943738 0.0106924 -0.0251481 0.205623 -0.10943 -0.0678397 -0.0123328 -0.0706809 -0.0142825 0.196933 -0.0155116 0.132821 0.265777 0.150109 -0.0650682 0.101852 0.145084 0.212748 0.0230867 -0.0247485 -0.0254602 0.0144954 0.0433721
2714 -0.00986772 0.016689 -0.156965 0.195297 0.159107 -0.105328 -0.101696 0.0731762 0.139694 -0.0220837 0.0599043 0.132314 -0.0322423 0.0924583 0.0566728 -0.0290062 -0.0550298 0.0208783 0.0465617 -0.028635 0.0197486 0.0123192 0.0125562 -0.063175 0.0192513 -0.0129344 0.0659282 -0.00384053 -0.0901818 -0.0961826 0.287339 -0.176135 -0.126719 -0.0248528 -0.138253 -0.0223827 0.295853 -0.0245148 0.208903 0.403782 0.223667 -0.0999701 0.167435 0.217264 0.273603 0.0310498 0.025659 0.0328315 -0.0285938 -0.0600619
2616 -0.00196633 0.00932846 -0.0646371 0.0853836 0.0792004 -0.0565562 -0.0111739 0.0225367 0.0322669 0.00474646 0.0334207 0.0489805 -0.0135918 0.0212901 -0.0368934 0.0245813 -0.00963728 -0.00799912 -0.0424583 0.0184243 -0.0767828 -0.0198089 -0.000506076 0.0096794 -0.0532018 0.0203028 -0.0384239 -0.00397952 0.0130935 0.00204407 0.125769 -0.0816451 -0.0441587 -0.00782658 -0.03551 -0.00735625 0.132879 -0.0245075 0.083491 0.179201 0.0935419 -0.0495243 0.0735264 0.0997729 0.159954 0.0179889 -0.0096241 -0.0227266 0.012183 0.0470645
2795 -0.0234385 0.0203488 -0.190566 0.255712 0.211699 -0.117817 -0.15688 0.0898162 0.209949 -0.0444097 0.067052 0.186711 -0.0407558 0.117294 0.095368 -0.0499442 -0.0714511 0.0426861 0.0939497 -0.0484573 0.078046 0.051369 0.0164023 -0.0970608 0.0256208 -0.0110595 0.101977 -0.00236725 -0.126684 -0.122854 0.333107 -0.203574 -0.150846 -0.0420594 -0.161121 -0.0149998 0.358335 -0.0348438 0.28351 0.535365 0.316963 -0.150034 0.219594 0.307417 0.372363 0.0173639 0.0650426 0.0756739 -0.0849397 -0.142926
2314 -0.0206662 0.00900007 -0.136234 0.171869 0.146041 -0.0766155 -0.0939118 0.0559176 0.119629 -0.0263663 0.0555745 0.11933 -0.0240433 0.0725281 0.050232 -0.00568668 -0.048733 0.0157132 0.0235006 -0.00707638 0.00712904 0.0155731 0.0124048 -0.0565665 -0.0106387 -0.00332304 0.0300113 -0.00771681 -0.046622 -0.0443117 0.251296 -0.160903 -0.115599 -0.0307703 -0.119259 -0.0225025 0.266627 -0.01978 0.21658 0.399242 0.219647 -0.0950063 0.15248 0.217567 0.268379 0.02026 0.0291588 0.0371421 -0.0439145 -0.060709
1782 -0.000364863 -0.000865122 -0.0617815 0.0915088 0.0719186 -0.0475963 -0.0552665 0.0380722 0.0866196 -0.0110264 0.0239461 0.0798606 -0.0150053 0.0522477 0.0715948 -0.0406 -0.036644 0.0345174 0.0736307 -0.0189038 0.0854009 0.043426 0.0085133 -0.0635894 0.0313909 -0.0100768 0.0837644 9.01931e-05 -0.0897668 -0.0748927 0.120175 -0.0833855 -0.0543638 -0.0102191 -0.0864922 -0.00438109 0.16094 -0.0174425 0.0938733 0.183034 0.111358 -0.0472946 0.0782557 0.113794 0.115096 0.015744 0.0340039 0.0385781 -0.0465655 -0.0939239
2750 -0.0104963 0.0143417 -0.095515 0.149217 0.0992268 -0.0663936 -0.0922985 0.0455428 0.115562 -0.0327652 0.0228394 0.105623 -0.028329 0.0559094 0.0890288 -0.0388711 -0.0470354 0.0477146 0.0826974 -0.0379799 0.0954292 0.041431 0.0160143 -0.0848413 0.063803 -0.0240976 0.110044 -0.0109064 -0.110273 -0.0914044 0.190159 -0.121826 -0.0986924 -0.01006 -0.106214 -0.00965893 0.221617 -0.0149732 0.181432 0.346893 0.208507 -0.0917073 0.152255 0.200269 0.203755 0.00403053 0.0647526 0.0784599 -0.0680329 -0.136426
119 -0.00706163 0.0155105 -0.0820087 0.115925 0.124305 -0.0668248 -0.022181 0.0315921 0.0329505 0.000313223 0.0350183 0.043753 -0.0134196 0.0312662 -0.0522683 0.0359835 -0.0149674 -0.0343082 -0.0718651 0.027851 -0.114185 -0.0498059 -0.00340963 0.0272009 -0.0665476 0.0438868 -0.0810646 -0.00188425 0.0445764 0.00170059 0.172622 -0.110211 -0.0539703 -0.020915 -0.0593348 0.00326613 0.184707 -0.0171251 0.12212 0.244583 0.136655 -0.0611868 0.0941323 0.126334 0.220288 0.0251133 -0.0281218 -0.0329858 0.0391331 0.0677996
726 -0.0145741 0.0231378 -0.136838 0.167463 0.17923 -0.107395 -0.0361746 0.0433011 0.0691815 0.00410908 0.054376 0.0732354 -0.0166098 0.0514126 -0.0620542 0.0382676 -0.0208159 -0.0244342 -0.0883813 0.014114 -0.15596 -0.051291 -0.0131876 0.0293189 -0.0956211 0.0497588 -0.0946878 -0.00520741 0.0429784 0.0019975 0.267917 -0.155935 -0.0946616 -0.0276805 -0.100864 0.000557387 0.274691 -0.0223853 0.189354 0.331726 0.202753 -0.0918055 0.12638 0.181147 0.30211 0.0166759 -0.0421189 -0.0547098 0.0406847 0.100174
731 -0.0125809 0.0152748 -0.162461 0.21134 0.203836 -0.10871 -0.0605924 0.0568562 0.09404 -0.00878077 0.053351 0.101452 -0.034138 0.068655 -0.0511353 0.0351586 -0.0264754 -0.00983226 -0.0668823 0.0247303 -0.129717 -0.0348995 -0.00473558 0.00951925 -0.0737855 0.0454121 -0.0706165 -0.000250014 0.0413006 -0.00960917 0.300944 -0.183787 -0.114326 -0.0395779 -0.115574 -0.0189301 0.304202 -0.0280473 0.213067 0.400503 0.236844 -0.124736 0.167065 0.220218 0.32093 0.0227261 -0.0216066 -0.0430486 0.0321836 0.0754009
2336 -0.00693594 0.00656751 -0.131742 0.174678 0.155559 -0.0862773 -0.063806 0.0503296 0.0922097 -0.0209753 0.0464998 0.0936437 -0.0315438 0.0592492 0.00365105 0.0126131 -0.0283299 0.0029515 -0.0106696 0.00553103 -0.0532053 -0.0202325 -0.0114215 -0.022154 -0.0376991 0.0237144 -0.0139881 0.00228826 -0.0238322 -0.0387475 0.242505 -0.15199 -0.0890629 -0.0220006 -0.0955957 -0.0145931 0.253777 -0.0304753 0.185481 0.330561 0.194274 -0.0887056 0.123651 0.184883 0.261487 0.0233797 -0.00758185 -0.022986 0.0100482 0.0373485
2762 -0.0210271 -0.000425915 -0.0909251 0.142226 0.0907035 -0.0591827 -0.0786632 0.0466412 0.0910454 -0.0269169 0.0382993 0.0911279 -0.0180631 0.0538784 0.0629798 -0.0325064 -0.0454389 0.0350363 0.0618409 -0.0317358 0.0615143 0.0423268 0.00253789 -0.0671416 0.0307207 -0.00743102 0.0718235 -0.00821559 -0.0765498 -0.0729776 0.15658 -0.0976543 -0.063181 -0.0113501 -0.0777163 -0.00648814 0.190453 -0.0110938 0.184011 0.330509 0.190488 -0.0952702 0.132809 0.185363 0.208261 0.0155497 0.0411139 0.059763 -0.0555101 -0.10265
552 -0.0196257 0.010077 -0.148797 0.205369 0.187784 -0.114794 -0.0641825 0.064054 0.0900026 -0.0150856 0.0639326 0.0885258 -0.0259167 0.0626894 -0.0357591 0.0398702 -0.0253653 -0.0158873 -0.0719497 0.0172194 -0.133446 -0.0479612 -0.0128761 0.00406559 -0.0704377 0.0480313 -0.0567147 -0.0028559 0.0338307 -0.021884 0.301634 -0.184307 -0.107368 -0.0263573 -0.103394 -0.000562727 0.293958 -0.0355291 0.214221 0.386094 0.217491 -0.110939 0.152108 0.208052 0.313072 0.0269743 -0.0240746 -0.0409318 0.0425254 0.0738346
2216 -0.00753279 0.0169037 -0.0737955 0.100045 0.08956 -0.0545282 -0.0638593 0.0374898 0.0743925 -0.0121428 0.0170677 0.0579636 -0.0114269 0.0498623 0.0437749 -0.0143679 -0.0217407 0.00980589 0.0266845 -0.0201852 0.023623 0.0213982 0.0120101 -0.0344431 0.00864588 -0.00294478 0.0243672 -0.00565079 -0.0359891 -0.0310288 0.142946 -0.0940169 -0.0539552 -0.0051176 -0.0688507 -0.0108375 0.149656 -0.0112301 0.112324 0.212397 0.118884 -0.0536966 0.0891844 0.114799 0.129487 0.00217862 0.0190812 0.0240672 -0.0263624 -0.045508
2603 -0.003555 0.00333531 -0.0478917 0.0721858 0.0272094 -0.0293897 -0.0597437 0.0198032 0.0723429 -0.0267516 0.0136931 0.0566487 -0.0234506 0.0495691 0.095665 -0.0367115 -0.0266204 0.0453858 0.103947 -0.0243751 0.120493 0.0465065 0.0250926 -0.0756207 0.0573063 -0.0309859 0.0962603 -0.00641191 -0.0903163 -0.06235 0.0482267 -0.0446307 -0.038631 -0.0041436 -0.0428173 -0.0160442 0.0666906 0.00680662 0.0812385 0.151103 0.0883786 -0.0364374 0.0587963 0.0758156 0.0531172 -0.000375785 0.0628971 0.0698526 -0.0818004 -0.127335
1391 -0.0164892 0.00541635 -0.0765865 0.111868 0.116526 -0.0711791 -0.0323814 0.0298603 0.0508817 -0.00710636 0.0309887 0.0583208 -0.023441 0.0258387 -0.0376295 0.0285224 -0.0126615 -0.0131301 -0.0686106 0.0227414 -0.103693 -0.0401183 -0.00627787 0.0170284 -0.0644949 0.0298881 -0.0635386 -0.00162124 0.0398884 1.38699e-05 0.155344 -0.0923232 -0.0502278 -0.0251391 -0.0541217 -0.000131482 0.157235 -0.0170494 0.113551 0.216117 0.127092 -0.0507559 0.082502 0.123519 0.200105 0.00827272 -0.0195541 -0.0449568 0.0254154 0.0618831
2346 -0.0212689 0.00302124 -0.114261 0.161746 0.120928 -0.059308 -0.0954226 0.0626354 0.118989 -0.021933 0.0452607 0.103232 -0.0348713 0.0734086 0.0819789 -0.037803 -0.0410696 0.0439188 0.0894257 -0.0415317 0.081857 0.0514876 0.00656691 -0.086876 0.0417071 -0.0266056 0.105435 0.00559497 -0.0999425 -0.0925581 0.187058 -0.113419 -0.0824287 -0.0275666 -0.102642 -0.0215413 0.212622 -0.0196134 0.168626 0.334674 0.185158 -0.0776055 0.137352 0.194724 0.207836 0.00783545 0.0499872 0.0678892 -0.0739773 -0.128623
2198 -0.0208581 0.0083103 -0.10165 0.142586 0.0959088 -0.0543553 -0.0778712 0.0481411 0.106727 -0.0171615 0.0350239 0.102737 -0.0239451 0.0666582 0.0696791 -0.0226932 -0.0279717 0.0371817 0.0597193 -0.0270754 0.0406027 0.0356801 0.00747074 -0.0645052 0.0296545 -0.0207225 0.0731307 0.000961026 -0.0891561 -0.0868071 0.191892 -0.126403 -0.0904573 -0.0108157 -0.0878151 -0.0133341 0.208069 -0.0221639 0.16626 0.296611 0.162153 -0.0743771 0.112964 0.17579 0.198006 0.00626277 0.0318399 0.0487708 -0.0480877 -0.0876022
1333 0.000543046 0.0135233 -0.0915739 0.127992 0.134667 -0.0788717 -0.0141251 0.0239277 0.0407113 -0.00495233 0.0278766 0.0511189 -0.0116697 0.0291121 -0.0549431 0.0396132 -0.0108356 -0.0309497 -0.0873694 0.017236 -0.136605 -0.057032 -0.0234762 0.0312713 -0.081537 0.0343851 -0.0669264 0.00464075 0.0560852 0.00965383 0.190266 -0.120979 -0.0691757 -0.0164311 -0.0623196 0.00154304 0.193454 -0.0300306 0.123011 0.244435 0.149342 -0.0655253 0.0806333 0.128419 0.20797 0.0109139 -0.0462375 -0.0482107 0.0396386 0.0926344
2547 -0.0038378 0.000933105 -0.0868197 0.128779 0.118099 -0.0604417 -0.0373785 0.0353171 0.0557624 -0.0185985 0.0344221 0.0726229 -0.00883079 0.0523298 -0.0160986 0.0209969 -0.0249657 -0.00595866 -0.0374963 0.0158114 -0.0585319 -0.0252517 -0.00906097 -0.00513668 -0.0359203 0.0277628 -0.0257793 0.00112542 0.0019606 -0.0201488 0.185559 -0.109254 -0.0718767 -0.0156657 -0.0717814 -0.00743808 0.204379 -0.0218594 0.122253 0.235002 0.12679 -0.0722569 0.10296 0.139309 0.204622 0.0176036 -0.0113103 -0.0138745 0.0174676 0.0301614
2874 -0.00793706 -0.000550325 -0.102981 0.140748 0.120926 -0.0770468 -0.0765246 0.0494239 0.10216 -0.0135776 0.032515 0.0900362 -0.0241317 0.0567224 0.04278 -0.0131982 -0.0400338 0.0235821 0.0370436 -0.0112235 0.0111916 0.0195578 0.00193335 -0.0392612 0.0169758 -0.0116013 0.0479211 -0.00684009 -0.0624344 -0.0568249 0.190838 -0.114589 -0.0824663 -0.0259278 -0.0924744 -0.00691215 0.201913 -0.0233373 0.157589 0.30462 0.167933 -0.0833566 0.136206 0.168252 0.206516 0.00958575 0.0232583 0.0259176 -0.0271335 -0.0531029
211 0.00164295 0.000357056 -0.107059 0.12023 0.133928 -0.0739802 -0.0223968 0.0279788 0.0455569 -0.00119453 0.0436511 0.0601257 -0.00579095 0.0363482 -0.0399532 0.0340002 -0.00299568 -0.0151255 -0.0831387 0.0107329 -0.12236 -0.0449086 -0.0111679 0.0276756 -0.0655412 0.0243987 -0.0682286 -0.00777026 0.0419871 -0.00168369 0.196172 -0.117543 -0.0637897 -0.0178029 -0.0598349 0.002175 0.186075 -0.0165088 0.146316 0.268234 0.145106 -0.0695808 0.110979 0.140489 0.212109 0.0210465 -0.0215067 -0.0467003 0.0345316 0.0709201
306 0.00172251 0.00309693 -0.102177 0.141728 0.141868 -0.0773763 -0.0146658 0.0305832 0.0321157 -0.0089296 0.036377 0.0638577 -0.016181 0.0495419 -0.0555504 0.0457029 -0.0123738 -0.0292336 -0.0776312 0.0235509 -0.134076 -0.0564836 -0.0161507 0.0317972 -0.0846645 0.0298972 -0.0707464 -0.0042818 0.0447288 -0.00455601 0.219953 -0.127963 -0.0799801 -0.0204644 -0.0778582 -0.000567808 0.217037 -0.0234533 0.162618 0.282199 0.161394 -0.0907697 0.103957 0.165381 0.249873 0.0182709 -0.0428114 -0.0471765 0.0379276 0.0870271
308 -0.00116054 0.00977733 -0.100919 0.1312 0.13208 -0.0842001 -0.0289195 0.0280646 0.0442749 -0.00383619 0.049749 0.0555383 -0.00618188 0.046608 -0.06204 0.0314446 -0.00506375 -0.02026 -0.0792826 0.0274463 -0.125812 -0.0548381 -0.0184272 0.0431066 -0.0884944 0.0443356 -0.078342 -0.00360007 0.0478641 0.00732208 0.199716 -0.114694 -0.080211 -0.0239977 -0.0553327 -0.00382638 0.205369 -0.0342793 0.145017 0.247287 0.146247 -0.0681544 0.0990427 0.146456 0.223788 0.0231876 -0.0340762 -0.0359881 0.0346979 0.0798177
2792 -0.0217114 0.0115252 -0.101517 0.149709 0.125013 -0.0689722 -0.0929267 0.0479641 0.105331 -0.0270127 0.0286404 0.111494 -0.0282867 0.0632407 0.0777694 -0.0393701 -0.0377238 0.0359905 0.0555838 -0.0175298 0.0529991 0.04005 0.0165316 -0.0734731 0.0314475 -0.0160822 0.0705963 0.00160798 -0.0896266 -0.0746052 0.195076 -0.121017 -0.0834515 -0.0244238 -0.0997242 -0.0197525 0.21707 -0.0172323 0.157855 0.309725 0.169692 -0.0854416 0.129317 0.179839 0.205704 0.00581322 0.0365248 0.0487409 -0.0545173 -0.0830806
2383 -0.0216071 0.0156271 -0.141556 0.183207 0.183094 -0.105339 -0.0635732 0.054747 0.0682783 -0.00337316 0.0533696 0.0918625 -0.0186866 0.0564966 -0.0617037 0.0457909 -0.0170833 -0.030176 -0.0954014 0.0162011 -0.155842 -0.0532205 -0.0180771 0.0339592 -0.0875683 0.0448957 -0.0903524 0.0112699 0.0525325 0.0030601 0.294489 -0.174307 -0.105684 -0.0222101 -0.100138 -0.0171976 0.26502 -0.0319326 0.207203 0.388982 0.23164 -0.114617 0.141553 0.197179 0.334882 0.0159653 -0.0506357 -0.0510092 0.0417548 0.0992662
2446 -0.0166736 0.0176965 -0.103066 0.140882 0.136444 -0.0849014 -0.0601401 0.043237 0.0693972 -0.00264885 0.0465963 0.0637923 -0.0215307 0.0435723 -0.0188573 0.00917236 -0.0104176 -0.00763272 -0.0426031 0.0137879 -0.0752506 -0.0157664 -0.00978334 0.00016505 -0.0544073 0.0253587 -0.0316942 -0.000431316 0.00964816 -0.0153165 0.210685 -0.124058 -0.0892046 -0.0243331 -0.0810525 0.000390935 0.205999 -0.022162 0.149102 0.303137 0.153421 -0.0769119 0.106145 0.154583 0.227442 0.0128262 -0.0298006 -0.031227 0.019368 0.0643911
2771 -0.0120493 0.0124273 -0.11411 0.165151 0.136308 -0.078831 -0.095424 0.0537948 0.132978 -0.0272677 0.0334892 0.10469 -0.0298838 0.067934 0.0467373 -0.0245386 -0.0360748 0.0239179 0.0286316 -0.0116491 0.0234251 0.0168124 0.00587271 -0.0451409 -0.00461083 0.00213789 0.0389824 -0.00666137 -0.068023 -0.0596039 0.236396 -0.149979 -0.1098 -0.0305595 -0.107174 -0.00628004 0.253522 -0.0261801 0.204848 0.380403 0.211388 -0.0915398 0.155993 0.205209 0.272277 0.027639 0.0312018 0.0352467 -0.034608 -0.0573817
2374 -0.00970733 0.00840783 -0.0516118 0.0817657 0.0523301 -0.0333436 -0.0506926 0.0365489 0.073132 -0.01279 0.0136586 0.0459126 -0.0243195 0.0283773 0.0466909 -0.0235358 -0.0269424 0.019303 0.0552062 -0.0247609 0.0481793 0.0219193 -0.000119878 -0.0468724 0.0480689 -0.0270911 0.0718206 -0.00207607 -0.081253 -0.0519953 0.0842033 -0.0524462 -0.0493825 0.00136326 -0.0537523 -0.00289542 0.107603 -0.0014058 0.0906604 0.16593 0.0924112 -0.04285 0.0711374 0.0950904 0.0948431 -0.00380873 0.0278075 0.0400482 -0.0375546 -0.0824252
1331 -0.0133495 0.0081213 -0.0670928 0.0959411 0.0849034 -0.0584314 -0.0110512 0.0215769 0.0193873 0.00067335 0.0251115 0.0418738 -0.00264213 0.0284507 -0.0302746 0.0200613 0.000183302 -0.0153284 -0.0573439 0.0223387 -0.0984766 -0.0316642 -0.00450115 0.0099891 -0.0383607 0.0154275 -0.0383893 -0.0017753 0.0312914 0.0064122 0.145599 -0.0955696 -0.0515949 -0.00959317 -0.043648 -0.0107902 0.136465 -0.0157359 0.111366 0.191476 0.110689 -0.0545326 0.0649088 0.107272 0.15752 0.0208329 -0.0247857 -0.0225547 0.0140588 0.0472501
1334 -0.0135775 0.0126981 -0.145813 0.187727 0.177843 -0.0944397 -0.0565997 0.0445472 0.0685013 -0.0103179 0.0541679 0.0792904 -0.0187711 0.0555483 -0.0271926 0.0166784 -0.0180296 -0.0213286 -0.0531257 0.0124755 -0.121932 -0.0413857 -0.00292153 0.00664773 -0.0579624 0.0303072 -0.0579426 0.00912716 0.0202538 -0.0194396 0.272004 -0.168604 -0.0929953 -0.032067 -0.103597 0.00080428 0.276095 -0.0278468 0.199186 0.370198 0.231231 -0.0955736 0.142525 0.199546 0.314544 0.0168949 -0.0156477 -0.011403 0.0235859 0.0409386
1350 -0.0140816 0.00949226 -0.0724407 0.0899834 0.101325 -0.0622259 -0.0211063 0.0300677 0.0323222 -0.00572649 0.0244677 0.0496256 -0.00225018 0.0316758 -0.0412859 0.0287281 0.00467636 -0.00947294 -0.0551356 0.00664622 -0.0977019 -0.0240014 -0.00167553 0.021687 -0.058608 0.0355766 -0.0502037 -0.00680025 0.0454814 0.00508631 0.13931 -0.0703237 -0.05284 -0.0137857 -0.0390697 0.00650882 0.133148 -0.0152777 0.100301 0.190765 0.11627 -0.0543733 0.0725375 0.110285 0.152409 0.0169503 -0.0236793 -0.0238589 0.017664 0.0649303
2139 -0.0161685 0.0135706 -0.134108 0.161381 0.170925 -0.0860188 -0.0343904 0.0421535 0.0573033 -0.00646479 0.0613468 0.0825401 -0.0221525 0.0595457 -0.0681504 0.0493482 -0.0168809 -0.0222866 -0.107115 0.0266129 -0.161409 -0.0579031 -0.0178542 0.0261607 -0.0950115 0.0368443 -0.0792378 0.00679846 0.0320884 -0.00170635 0.261175 -0.158008 -0.112278 -0.0411748 -0.0883572 -0.00976433 0.279293 -0.0295142 0.159918 0.306088 0.170852 -0.087327 0.112966 0.165241 0.291468 0.0177798 -0.0480809 -0.0598798 0.0453634 0.107229
2540 -0.00206823 0.020324 -0.120126 0.162367 0.152741 -0.0765482 -0.0477571 0.0441486 0.0810747 -0.0106627 0.0337417 0.0784949 -0.0257708 0.0608561 0.00191294 0.0121972 -0.0266145 -0.0086498 -0.039176 0.0104773 -0.0709126 -0.022303 -0.00646444 -0.00642458 -0.0310096 0.0110156 -0.0205122 0.00370042 0.00396353 -0.0204605 0.226752 -0.133692 -0.0923869 -0.0197801 -0.0945322 -0.00904397 0.24646 -0.0284529 0.173821 0.328918 0.175147 -0.0793275 0.130021 0.191948 0.246866 0.01645 -0.00468437 -0.020366 0.0192009 0.0419285
2924 -0.0105432 0.00826538 -0.14998 0.208321 0.159733 -0.0942745 -0.118635 0.0608009 0.14085 -0.0348794 0.0508648 0.136419 -0.0386543 0.0908651 0.0748608 -0.0451375 -0.0580486 0.0512505 0.0809472 -0.0336468 0.0708402 0.0262415 0.00411915 -0.0761178 0.0315245 -0.002108 0.0786208 0.00373872 -0.0902781 -0.0850173 0.248992 -0.170093 -0.102694 -0.0190781 -0.125797 -0.0162067 0.268219 -0.0186268 0.210792 0.419646 0.237708 -0.108182 0.168678 0.239598 0.254035 0.0192661 0.0499971 0.0643901 -0.0574342 -0.102358
2413 -0.0170576 0.00019095 -0.0932528 0.120041 0.108731 -0.0651693 -0.0449905 0.0351771 0.0427294 -0.0146603 0.0371792 0.0599175 -0.0188515 0.03021 0.00597727 -0.00271729 -0.0267472 0.00292365 -0.0224509 -0.00668854 -0.0448584 -0.00283843 0.00732663 -0.0205919 -0.0206658 0.00996628 0.00808543 0.00675672 -0.019046 -0.0358036 0.173207 -0.096845 -0.0756393 -0.0211429 -0.0683732 -0.0155789 0.18045 -0.00835551 0.125179 0.234875 0.138169 -0.0600139 0.101738 0.130303 0.172137 0.0119408 0.0024793 -0.00715646 0.00313095 0.018062
2732 -0.0122316 -0.00140373 -0.0768165 0.10983 0.0855514 -0.0573464 -0.0731924 0.0321847 0.0785 -0.0238998 0.0326228 0.0778602 -0.0221398 0.0623022 0.0557395 -0.0220486 -0.0246661 0.0178992 0.0554696 -0.0185335 0.0467521 0.0194603 0.00795075 -0.0393169 0.0267272 -0.00999584 0.0441247 -0.00738753 -0.0501723 -0.0490198 0.134371 -0.0944854 -0.0550512 -0.021684 -0.0673809 -0.0183316 0.145882 -0.0176871 0.116072 0.219989 0.134179 -0.0626383 0.0875431 0.124027 0.15362 0.0139336 0.0371582 0.0350432 -0.0384472 -0.0677686
1788 -0.0147617 0.0154473 -0.0908906 0.109254 0.107181 -0.0582503 -0.0267437 0.0353586 0.0475048 -0.0137703 0.0384011 0.0422658 -0.00871025 0.0410896 -0.011262 0.0208403 -0.0145967 -0.00400103 -0.0444185 0.00690967 -0.0624975 -0.0130068 -0.00655308 0.0140208 -0.0445929 0.0202729 -0.0216468 0.00856111 -0.00587992 -0.0263949 0.15752 -0.0928791 -0.0655718 -0.023953 -0.0631408 0.00200488 0.186345 -0.0143355 0.102266 0.196929 0.11903 -0.0516508 0.0743886 0.116402 0.176648 0.0201849 -0.0162109 -0.030007 0.0232524 0.0409736
1813 -0.016645 0.00777444 -0.121614 0.139878 0.151796 -0.0739263 -0.0194586 0.0360371 0.0489587 0.00601961 0.0510453 0.0534299 -0.0200672 0.0451534 -0.0569878 0.0446178 -0.00173564 -0.0254771 -0.0938953 0.0312649 -0.142164 -0.0584455 -0.0246772 0.0461795 -0.090266 0.0374767 -0.0903713 0.000214128 0.0617677 0.00350871 0.219329 -0.125605 -0.0888247 -0.0304418 -0.0748866 -0.00574601 0.230311 -0.0254988 0.150243 0.278692 0.167838 -0.0881656 0.111822 0.160765 0.252347 0.0171812 -0.0455253 -0.0412016 0.0356738 0.0860544
2197 -0.0128187 0.0126942 -0.0719023 0.089258 0.0648787 -0.0307936 -0.0548984 0.0254864 0.0945094 -0.0154905 0.0277573 0.0804493 -0.0295375 0.041597 0.0897909 -0.0336061 -0.0276153 0.040446 0.0781758 -0.0369817 0.101875 0.0446106 0.00953225 -0.0807086 0.0449198 -0.0246023 0.082337 -0.010638 -0.0968797 -0.0783103 0.107796 -0.0841207 -0.0488429 -0.0195338 -0.0757384 -0.0162377 0.138893 -0.00665302 0.121311 0.22358 0.126059 -0.0639173 0.0857537 0.134683 0.135181 0.00343752 0.0571592 0.0730817 -0.0600805 -0.117258
2694 -0.0180172 0.0098986 -0.12232 0.174723 0.156592 -0.0786334 -0.119468 0.0693849 0.161684 -0.0414421 0.0361312 0.151707 -0.0373295 0.0827302 0.11625 -0.0497771 -0.0535335 0.0596374 0.102774 -0.0409215 0.105287 0.0551044 0.0204137 -0.110998 0.0690686 -0.029209 0.125283 -0.0116373 -0.13281 -0.105329 0.23817 -0.160323 -0.110667 -0.0175846 -0.138064 -0.0243818 0.25358 -0.0057041 0.205523 0.40403 0.220222 -0.110644 0.161388 0.227825 0.231372 0.0061628 0.056235 0.0753001 -0.0844078 -0.12484
2722 -0.0208164 0.0159409 -0.16651 0.245038 0.204012 -0.112293 -0.124176 0.079076 0.168881 -0.0448143 0.0576139 0.166248 -0.0532686 0.100195 0.0941075 -0.0358106 -0.0676448 0.0429164 0.0894115 -0.0298509 0.0555993 0.0483538 0.00807393 -0.106103 0.0403972 -0.0178108 0.104252 -0.00332913 -0.130836 -0.11763 0.327053 -0.205245 -0.138384 -0.0289745 -0.169118 -0.0189986 0.355363 -0.0303952 0.274531 0.519905 0.292259 -0.135739 0.22084 0.288879 0.335701 0.0286804 0.0453582 0.0644605 -0.0529342 -0.112075
582 0.0001374 0.0193557 -0.121578 0.144625 0.14972 -0.0713286 -0.0277636 0.0428509 0.0341508 -0.00299018 0.0513787 0.0516092 -0.0160178 0.0374403 -0.0404773 0.0411794 -0.0200947 -0.029415 -0.0868533 0.0201228 -0.142178 -0.038577 -0.0230193 0.0313197 -0.0693997 0.0391995 -0.0707718 0.00202293 0.0470483 0.00701367 0.217545 -0.130994 -0.0818698 -0.0316379 -0.0668423 -0.0127023 0.219985 -0.0263144 0.156587 0.300364 0.175132 -0.0825377 0.110601 0.149448 0.257835 0.0234869 -0.0255088 -0.0419975 0.0352214 0.0932375
588 -0.0181811 0.0101013 -0.118224 0.163546 0.15099 -0.0739786 -0.072132 0.0447088 0.0976358 -0.0107799 0.0359785 0.0837919 -0.0332562 0.0556432 0.0216398 -0.00456886 -0.0212719 0.0034782 -0.00219933 -0.00145689 -0.0321436 -0.000528989 -0.00835996 -0.0322238 -0.0228831 0.00981485 -0.00620643 -0.00981048 -0.00405361 -0.028576 0.230174 -0.147099 -0.102486 -0.0192119 -0.101226 -0.000217169 0.243189 -0.0155117 0.194927 0.360722 0.201303 -0.0968774 0.146279 0.198556 0.277325 0.0249153 0.00317201 0.00758229 -0.00160257 -0.0123845
590 -0.0135892 0.00204638 -0.104629 0.134494 0.114398 -0.0687415 -0.0329806 0.0417741 0.0564675 -0.00102987 0.0397013 0.0531433 -0.0160078 0.0462321 -0.0169658 0.0177963 -0.025353 -0.00380772 -0.0358031 0.00542075 -0.0632654 -0.0185915 -0.00564085 0.00682779 -0.0350169 0.0157236 -0.0088657 -0.00357753 -0.00982522 -0.0368637 0.183768 -0.117962 -0.0811555 -0.0275329 -0.0748724 -0.00537229 0.212323 -0.0211525 0.150035 0.274555 0.161117 -0.0666091 0.116608 0.145337 0.210912 0.0135644 -0.00587251 -0.0150902 0.0157261 0.0282199
1423 -0.00516745 0.007004 -0.127145 0.170424 0.167743 -0.0981711 -0.044975 0.0373093 0.0559599 -0.00110455 0.0507175 0.0768861 -0.0113878 0.0454056 -0.0801245 0.0382844 -0.011148 -0.0322121 -0.115132 0.030471 -0.175808 -0.0616077 -0.0158321 0.0345265 -0.0954137 0.0463502 -0.0812542 -0.00713164 0.0565024 -0.00924044 0.262843 -0.15676 -0.0924239 -0.0282719 -0.0815478 -0.00385776 0.269768 -0.0245727 0.170638 0.306754 0.190858 -0.0901434 0.131494 0.180945 0.293919 0.0178464 -0.054493 -0.0621174 0.0582 0.122223
2745 -0.00465603 0.0131891 -0.128256 0.156727 0.140145 -0.0749041 -0.0565179 0.035637 0.0646053 -0.00914889 0.0372708 0.0877119 -0.0157007 0.0563663 -0.0120778 0.0109817 -0.0100003 -0.0154595 -0.0328789 0.00523148 -0.0851924 -0.0225535 0.00248422 0.00982131 -0.0512289 0.0178565 -0.0375333 0.00797499 0.0143559 -0.0130431 0.229376 -0.137265 -0.0996364 -0.0297674 -0.0910693 -0.0183059 0.231404 -0.028988 0.17668 0.318691 0.189765 -0.0955614 0.130503 0.18327 0.266716 0.0134972 -0.021897 -0.0201024 0.0169503 0.0371883
2928 -0.0193801 0.0208651 -0.119616 0.160558 0.145028 -0.0749522 -0.104021 0.0695546 0.137686 -0.0259107 0.0343202 0.127113 -0.0369662 0.080444 0.060832 -0.0232742 -0.0367342 0.0428484 0.0651999 -0.0322239 0.0393276 0.0283559 0.016849 -0.0716568 0.0165395 -0.00867716 0.0551027 0.00188788 -0.065989 -0.064586 0.216456 -0.13965 -0.100794 -0.029423 -0.12451 -0.0047642 0.251233 -0.0164252 0.185188 0.342158 0.194149 -0.0893551 0.134859 0.189286 0.251505 0.0260753 0.0258318 0.0431731 -0.052318 -0.0798462
285 0.0013669 0.0068099 -0.119146 0.153432 0.157678 -0.0832921 -0.0331473 0.0301062 0.0443692 -0.00655673 0.0450704 0.0631048 -0.0178345 0.0405609 -0.0751824 0.0479272 -0.00135466 -0.026256 -0.108769 0.0236202 -0.163837 -0.0552826 -0.0180254 0.0524497 -0.0898941 0.040991 -0.102456 -0.000878391 0.0615472 0.0132265 0.230017 -0.127033 -0.0855023 -0.0290095 -0.0657566 -0.000913195 0.224779 -0.0285079 0.157939 0.305076 0.166383 -0.0899518 0.11849 0.152066 0.264677 0.0213389 -0.0347337 -0.0580727 0.0351937 0.0940624
293 -0.0156609 0.0067049 -0.130928 0.18598 0.184622 -0.0893893 -0.0444972 0.0521315 0.058545 -0.0109161 0.0444882 0.078369 -0.0125644 0.0441275 -0.0702788 0.0348763 -0.0143197 -0.0356165 -0.0954861 0.031286 -0.173631 -0.053131 -0.0122323 0.0287135 -0.101203 0.0549402 -0.077996 0.0042903 0.0482073 0.00248676 0.26872 -0.15529 -0.102485 -0.0367978 -0.0979229 -0.00754582 0.256317 -0.0344811 0.190662 0.355701 0.218643 -0.0959816 0.149671 0.201615 0.31208 0.027476 -0.0361317 -0.0568512 0.0444941 0.107814
296 -0.0203982 0.0197656 -0.146433 0.185385 0.17618 -0.0971002 -0.0384092 0.0437186 0.0505967 -0.00819239 0.0492645 0.07486 -0.0202971 0.0500755 -0.0751215 0.04407 -0.0109693 -0.0426461 -0.109258 0.0307508 -0.180832 -0.058798 -0.0194959 0.0443915 -0.0893903 0.0371506 -0.0880611 -0.00741102 0.0420998 -0.0130611 0.286141 -0.17266 -0.120909 -0.0263356 -0.112589 -0.00308172 0.307086 -0.0413723 0.17638 0.335338 0.19042 -0.090428 0.135054 0.192919 0.305464 0.0328465 -0.0446708 -0.0747575 0.0550648 0.126149
2839 -0.00821485 0.012026 -0.0557834 0.0884902 0.0652979 -0.0325933 -0.0438837 0.0300235 0.0519485 -0.00323197 0.0211306 0.0523096 -0.0220237 0.0363169 0.0434368 -0.0325591 -0.0201585 0.0324167 0.0462596 -0.0266971 0.0402045 0.0182431 0.0067383 -0.0465276 0.00847565 -0.00748757 0.0463909 0.00494033 -0.0444555 -0.0355881 0.109482 -0.0710106 -0.0438775 -0.0192849 -0.0580067 -0.0165199 0.113168 -0.0164553 0.110194 0.198979 0.119655 -0.048622 0.085385 0.101989 0.109256 0.00537144 0.0309429 0.0471806 -0.0430382 -0.0721533
1404 -0.00636224 0.0173134 -0.146909 0.17954 0.192134 -0.0959316 -0.0509587 0.0447777 0.0703307 -0.00281565 0.055621 0.0837936 -0.0226421 0.0609537 -0.0714663 0.0342595 -0.00901731 -0.0232637 -0.093903 0.0202555 -0.159196 -0.0619644 -0.0123069 0.0343169 -0.0974344 0.048157 -0.0817709 -0.00622982 0.0601975 -0.00849335 0.283133 -0.174706 -0.115226 -0.0336782 -0.0995933 -0.0178569 0.293713 -0.0252767 0.199101 0.360821 0.208858 -0.0963904 0.134876 0.206799 0.313529 0.0273197 -0.0387853 -0.0668371 0.0598349 0.124227
1888 -0.0174962 0.0243408 -0.186741 0.228148 0.234071 -0.14064 -0.050817 0.0655854 0.0890574 0.00285916 0.0593939 0.108753 -0.0233234 0.0805632 -0.0725478 0.0525407 -0.0144927 -0.0373968 -0.104062 0.032725 -0.193297 -0.0747239 -0.0259813 0.0315098 -0.109802 0.0642069 -0.097064 0.00134343 0.0498091 -0.0217742 0.370043 -0.213943 -0.15076 -0.045293 -0.142723 -0.0181575 0.383937 -0.0460802 0.246921 0.464419 0.276185 -0.130449 0.192337 0.249057 0.391108 0.0236101 -0.0497366 -0.0697277 0.0523672 0.129071
1920 -0.0127482 0.0159037 -0.124921 0.156493 0.158624 -0.0768722 -0.0403061 0.0462372 0.066812 -0.00896342 0.0417676 0.068777 -0.0228364 0.0548983 -0.0311727 0.0240273 -0.0173024 -0.0220157 -0.0672217 0.00853373 -0.11948 -0.045597 -0.00632293 0.0237809 -0.0547217 0.0312063 -0.0573936 -0.00493735 0.0390196 -0.000951323 0.244609 -0.13666 -0.0873483 -0.0272986 -0.0895775 -0.00809885 0.224096 -0.0190552 0.158051 0.300262 0.180447 -0.0878751 0.108638 0.16296 0.246981 0.013289 -0.0181596 -0.0296308 0.0277789 0.0653323
377 -0.0157178 0.0166037 -0.105368 0.137858 0.135266 -0.0737089 -0.0226203 0.0404681 0.0462423 0.00477548 0.0417201 0.0580916 -0.0142889 0.0386883 -0.0558049 0.0398774 -0.00131869 -0.0219083 -0.0933914 0.0165526 -0.147735 -0.0530666 -0.0230561 0.0224066 -0.0844744 0.0320308 -0.0714815 0.00195682 0.034318 -0.00237301 0.221247 -0.120115 -0.0872584 -0.0314857 -0.0698192 -0.0137548 0.204976 -0.0265531 0.133204 0.26867 0.145932 -0.0757912 0.101636 0.146382 0.229435 0.0143682 -0.0400995 -0.0535453 0.0450504 0.0904446
391 -0.00111426 0.0156307 -0.109382 0.129297 0.131716 -0.0851206 -0.0395107 0.0253626 0.0531594 0.00313599 0.0480176 0.0726182 -0.0127034 0.0470054 -0.0520251 0.0427473 -0.0168226 -0.0174683 -0.0863482 0.0165778 -0.130282 -0.0412983 -0.0188777 0.0348722 -0.0733278 0.0255345 -0.0626111 -0.00797043 0.0314616 -0.00564471 0.221952 -0.132376 -0.0849149 -0.0323466 -0.0811048 0.000323065 0.220782 -0.021469 0.1367 0.270831 0.146684 -0.0742402 0.0949646 0.141258 0.238249 0.0138173 -0.0394649 -0.0526651 0.0393508 0.0858444
404 -0.0162482 0.0199564 -0.115036 0.150227 0.156605 -0.0930207 -0.0303992 0.0454609 0.0485292 0.00983605 0.0548613 0.0676989 -0.00826229 0.045493 -0.0767667 0.0505415 -0.00874127 -0.0434799 -0.101775 0.024312 -0.17692 -0.0703735 -0.0290687 0.0412361 -0.09078 0.0400655 -0.0926008 0.0111558 0.0603373 0.00920553 0.261578 -0.142759 -0.0860838 -0.0345525 -0.0805505 0.000524694 0.244686 -0.0318598 0.15655 0.310281 0.177527 -0.0883744 0.11107 0.166919 0.278403 0.0243042 -0.046267 -0.0645791 0.0694519 0.131367
365 -0.00729251 0.000357695 -0.0834839 0.110678 0.114021 -0.0526495 -0.0455465 0.0333796 0.0580705 -0.00532391 0.0380001 0.0605076 -0.0188698 0.0516766 -0.0163478 0.00572813 -0.0253951 0.0034045 -0.0238811 0.0106321 -0.0656809 -0.0151306 -0.0148799 0.0159681 -0.0510825 0.0135621 -0.0336701 -0.00900964 0.0116058 -0.00627128 0.149317 -0.098751 -0.0573763 -0.0173448 -0.0497007 0.00533673 0.164708 -0.019485 0.115914 0.220138 0.14253 -0.0587796 0.0991577 0.119657 0.191958 0.0167308 -0.000807211 -0.0168803 0.00467716 0.0247702
2130 -0.0212728 0.00572792 -0.113456 0.161053 0.112393 -0.0652974 -0.0907947 0.056709 0.129883 -0.0333805 0.0382263 0.109028 -0.0379571 0.0643718 0.0560245 -0.023963 -0.050222 0.0416247 0.0606443 -0.0263463 0.0467845 0.0280824 0.0117247 -0.0571705 0.0104336 0.00186291 0.0473167 0.00568402 -0.0520689 -0.0684701 0.179239 -0.101381 -0.0812765 -0.0237048 -0.0792193 -0.0142536 0.19462 -0.020759 0.160708 0.321443 0.192137 -0.0919783 0.12601 0.184913 0.226059 0.00590776 0.0390301 0.0675086 -0.0547035 -0.0907363
2520 -0.00399168 0.00627254 -0.0408534 0.0770977 0.0443528 -0.0192132 -0.0497219 0.0285652 0.0628945 -0.017972 0.0229563 0.0529081 -0.010181 0.0431506 0.071911 -0.0418881 -0.0225717 0.0355345 0.0875724 -0.019788 0.0963046 0.0368968 0.0113183 -0.0684045 0.052826 -0.0312968 0.0940853 -0.00568918 -0.0944302 -0.0563352 0.0848046 -0.0598895 -0.0393982 0.00221277 -0.0703694 -0.0105991 0.11003 -0.00298582 0.104425 0.187559 0.0998754 -0.046486 0.0854038 0.0994449 0.103318 0.0078461 0.0524762 0.0717844 -0.0546196 -0.110966
2582 -0.0176948 0.00855505 -0.0931548 0.122675 0.0873026 -0.0561453 -0.0663204 0.0431248 0.10959 -0.0163066 0.0361817 0.0933773 -0.0216475 0.0661717 0.0565896 -0.0303382 -0.0402293 0.0355275 0.0735629 -0.0171039 0.0611614 0.0331413 0.0158047 -0.0573197 0.0318514 -0.00319721 0.0765677 -0.00551203 -0.0643258 -0.0575735 0.144492 -0.0942588 -0.0724653 -0.00632531 -0.0891564 -0.000702151 0.181417 -0.019509 0.141809 0.278425 0.177342 -0.0852819 0.114749 0.170666 0.190734 0.0099045 0.0469669 0.0525707 -0.0584616 -0.107731
1521 -0.00975295 0.0100192 -0.0924971 0.105242 0.116489 -0.0550518 -0.0315055 0.0365928 0.0437728 -0.00111704 0.0362174 0.0497382 -0.0182949 0.0414342 -0.0206307 0.0130999 -0.0147834 -0.0191314 -0.052254 0.00724351 -0.0792885 -0.0385655 -0.00343619 0.00474587 -0.0567344 0.0292439 -0.0544389 0.00344148 0.0276907 0.00700153 0.161388 -0.090133 -0.0608184 -0.0232493 -0.064522 -0.00683582 0.161227 -0.0104603 0.108807 0.217227 0.125529 -0.0594264 0.0737973 0.117275 0.171317 0.00936161 -0.0273446 -0.0375445 0.0310693 0.0644104
2505 -0.0262718 0.0243857 -0.151517 0.211576 0.18352 -0.111232 -0.0993186 0.0719077 0.130931 -0.0239323 0.0560447 0.125863 -0.0325993 0.0916274 0.0429417 -0.00874737 -0.0491309 0.0193304 0.028917 -0.00869842 -0.003028 0.0152933 0.0108839 -0.0603385 -0.0168193 -2.11144e-05 0.0285237 0.00207424 -0.0460908 -0.0480139 0.258865 -0.172941 -0.107169 -0.0342028 -0.111339 -0.00614785 0.295738 -0.0138447 0.212719 0.407574 0.22097 -0.107248 0.152335 0.217649 0.278084 0.0127629 0.0298513 0.0173335 -0.0253751 -0.0499154
493 -0.0227071 0.0296739 -0.192158 0.245631 0.23515 -0.142352 -0.0896511 0.0689308 0.118693 -0.00361759 0.0636792 0.133048 -0.0305366 0.0790959 -0.0471595 0.0232703 -0.0213695 -0.0158165 -0.0944889 0.0155111 -0.160657 -0.0580235 -0.0145455 0.0181927 -0.0812075 0.0412751 -0.078291 -0.00808427 0.0350607 -0.0139156 0.365252 -0.217331 -0.140742 -0.0309542 -0.136613 -0.0200326 0.366569 -0.0331529 0.270777 0.515046 0.290663 -0.138589 0.199613 0.277376 0.418691 0.0376503 -0.0301254 -0.0408083 0.0402104 0.0713366
527 -0.00603851 0.0134736 -0.118914 0.149083 0.150475 -0.0810438 -0.0401772 0.0324307 0.0516381 -0.0130525 0.0402283 0.0653817 -0.0214034 0.0378207 -0.0489893 0.0262687 -0.0114141 -0.0181981 -0.0816257 0.00972918 -0.115462 -0.04723 -0.0144617 0.0181502 -0.0594373 0.0356779 -0.0473345 -0.00357521 0.0249528 -0.0214029 0.242704 -0.140096 -0.0840562 -0.0321188 -0.0974921 -0.0171856 0.233518 -0.0193637 0.166942 0.316488 0.174146 -0.0776797 0.127861 0.176298 0.248826 0.01565 -0.0309068 -0.0373908 0.0428133 0.0841336
1973 -0.0180633 0.00372934 -0.101783 0.139183 0.144242 -0.0816127 -0.027378 0.0298071 0.0411695 -0.00208064 0.0385494 0.0635883 -0.0250171 0.0434814 -0.0257271 0.0154819 -0.00635405 -0.0198013 -0.0753108 0.0210406 -0.118913 -0.0409834 -0.00365349 0.026333 -0.0622676 0.0388361 -0.0578946 0.00439978 0.0494957 0.00772324 0.221331 -0.138819 -0.0777139 -0.0197802 -0.0824559 -0.00437772 0.207007 -0.0288951 0.167874 0.311942 0.175804 -0.0831025 0.121579 0.154313 0.244867 0.0186966 -0.0223383 -0.0468698 0.0354 0.0715316
2544 -0.0210713 0.00871388 -0.119191 0.17908 0.136576 -0.0839725 -0.0818595 0.0453554 0.107073 -0.0295261 0.032475 0.115351 -0.0366766 0.0711846 0.0828842 -0.0417445 -0.0427034 0.0331545 0.0585287 -0.0240331 0.0601653 0.0296489 0.0183481 -0.0830856 0.0344698 -0.0109913 0.0813153 -0.00708272 -0.0863021 -0.0743526 0.235862 -0.143882 -0.105148 -0.0140488 -0.126959 -0.0138736 0.269436 -0.0134734 0.204376 0.401143 0.219537 -0.0969693 0.153326 0.22639 0.260733 0.0261137 0.0416113 0.0517474 -0.0565079 -0.106245
993 -0.00171866 0.00473223 -0.0925113 0.120118 0.125893 -0.0612901 -0.0140241 0.0265323 0.0392402 -0.00577143 0.0419466 0.0382597 -0.0180507 0.0349425 -0.0643728 0.0469369 0.0011256 -0.0230817 -0.0930439 0.0239626 -0.136075 -0.0464496 -0.0218634 0.0443104 -0.0639103 0.0325923 -0.0673761 0.00736627 0.0438731 0.00140924 0.193213 -0.113036 -0.0767503 -0.0221678 -0.0627795 0.00141414 0.208683 -0.0149076 0.122496 0.226374 0.136901 -0.0713442 0.0859254 0.124746 0.223982 0.0103474 -0.048052 -0.0566389 0.0470414 0.104439
1034 -0.00185683 0.00854193 -0.0875349 0.116603 0.130901 -0.0669726 -0.0186525 0.0199216 0.046889 0.00542625 0.0330404 0.049381 -0.00634261 0.0431823 -0.0486298 0.0375049 -0.00370605 -0.0187167 -0.0717111 0.012903 -0.119975 -0.0446235 -0.0108288 0.013948 -0.0615433 0.0245314 -0.0565534 -0.0075698 0.0307431 0.00594322 0.185054 -0.113121 -0.0677706 -0.0231448 -0.053786 -0.0114528 0.193045 -0.0296846 0.129902 0.245459 0.134004 -0.0581808 0.0909709 0.123784 0.211532 0.0180167 -0.0363791 -0.0420318 0.0308933 0.0645572
2484 -0.00144309 -0.00273638 -0.0531877 0.0764429 0.0585134 -0.0414582 -0.065934 0.0351047 0.0738919 -0.0272666 0.0296587 0.0770401 -0.0286552 0.0421918 0.0609518 -0.0200114 -0.0284517 0.0321675 0.0430769 -0.0286115 0.0494276 0.034801 0.00576286 -0.0572301 0.0386221 -0.00789571 0.0584748 0.00135136 -0.0603636 -0.0528798 0.107015 -0.0714159 -0.0511954 -0.0120438 -0.0612071 -0.0143931 0.133788 0.00184426 0.0870046 0.173583 0.10748 -0.0362794 0.0847128 0.112995 0.116628 0.00948319 0.032511 0.0336837 -0.0447944 -0.0713818
471 -0.000537792 0.0158618 -0.0998167 0.124381 0.12721 -0.0626196 -0.0205148 0.0344175 0.03239 -0.00208622 0.0413854 0.0492373 -0.0244385 0.0442331 -0.0357279 0.0360692 -0.0166225 -0.0231189 -0.065847 0.0116983 -0.120186 -0.0439715 -0.0123705 0.0252871 -0.0529324 0.0223653 -0.0566736 -0.00325047 0.0309098 -0.000996201 0.212429 -0.129741 -0.0800082 -0.0188392 -0.0669441 -0.000180134 0.208249 -0.0278753 0.1371 0.25834 0.141008 -0.0749197 0.100449 0.136233 0.22062 0.0244158 -0.0211406 -0.0443006 0.0298169 0.0739385
483 -0.0177887 0.00244759 -0.082242 0.113907 0.0796208 -0.0545783 -0.0554152 0.0402075 0.0814756 -0.0164841 0.0363736 0.061284 -0.0160164 0.039024 0.0304534 -0.00490541 -0.0344476 0.0231671 0.0147049 -0.0134526 0.0161766 0.0173087 0.0052736 -0.0388753 -0.000951046 0.000156566 0.0211558 -0.00574233 -0.0481635 -0.0503217 0.144428 -0.0918057 -0.0657861 -0.0240468 -0.0690438 -0.0110046 0.167216 -0.00650229 0.122148 0.217263 0.128526 -0.0541989 0.093809 0.13233 0.170996 0.0170625 0.0223817 0.0176371 -0.0276775 -0.0358295
514 0.000104785 0.0180637 -0.105614 0.13747 0.152493 -0.0777607 -0.0412718 0.0283915 0.0527148 0.00539907 0.0437227 0.0562048 -0.013315 0.0505836 -0.0635412 0.0440044 -0.000574884 -0.0305648 -0.107754 0.0187504 -0.161178 -0.0598551 -0.0166061 0.0334045 -0.0785191 0.0374242 -0.0836859 -0.00647526 0.0615338 -0.00292579 0.225492 -0.124165 -0.0903394 -0.0247788 -0.0714299 -0.00582527 0.237257 -0.0237378 0.140169 0.247624 0.145876 -0.0823749 0.106712 0.141672 0.256214 0.0263469 -0.0353334 -0.0574997 0.062425 0.103164
535 -0.00653447 0.00662597 -0.0724029 0.0871923 0.0984442 -0.0531722 -0.0398814 0.0262971 0.0450351 -0.0071054 0.0310291 0.0567506 -0.0228636 0.0460124 -0.004528 0.0171126 -0.0135519 -0.00595785 -0.0199844 0.00017775 -0.0509915 -0.0104501 0.00354276 0.000939854 -0.0264335 0.0178699 -0.0103508 0.00739424 -0.00364744 -0.0284 0.137887 -0.0782148 -0.0584442 -0.00896041 -0.0578363 -0.00876431 0.150915 -0.0127895 0.0868784 0.156554 0.101277 -0.0443662 0.0692208 0.0998459 0.161411 0.00500093 0.000202795 -0.0187077 0.00529233 0.0160538
2327 -0.0041674 0.0016338 -0.0453114 0.0633952 0.0358433 -0.0175523 -0.0715107 0.0290007 0.0795793 -0.030772 0.00555378 0.0755201 -0.018667 0.0428209 0.112082 -0.057831 -0.0312686 0.0586575 0.123969 -0.0373446 0.150524 0.0618282 0.0130725 -0.0888205 0.0809135 -0.0354302 0.115138 -0.00877975 -0.112904 -0.0833297 0.0510969 -0.0387355 -0.0384987 0.00527652 -0.058937 -0.0116439 0.0967377 -0.00499558 0.0831082 0.146718 0.095264 -0.0407136 0.0782851 0.0830639 0.0649555 -0.00811201 0.0555116 0.0778329 -0.0821611 -0.141516
659 -0.00252546 0.0216992 -0.12291 0.152663 0.156112 -0.0787461 -0.0275788 0.034118 0.0355004 -0.00229497 0.0336957 0.0541776 -0.0109083 0.0459683 -0.0723125 0.0372548 -0.00351238 -0.0456909 -0.112512 0.0294503 -0.163543 -0.0717137 -0.0198507 0.0451867 -0.0888242 0.0452569 -0.0985767 -0.00661855 0.0497663 0.00810552 0.238284 -0.141372 -0.0787501 -0.0370781 -0.080349 -0.000760204 0.225394 -0.0374785 0.148989 0.270464 0.15951 -0.0869189 0.10361 0.153241 0.249316 0.0299546 -0.0464308 -0.0734002 0.0645609 0.126673
1214 -0.0236337 0.0104624 -0.165125 0.231341 0.217715 -0.115553 -0.0733706 0.0589443 0.0950769 -0.00768659 0.0700038 0.105252 -0.0233069 0.0778931 -0.0342902 0.0343837 -0.0352134 -0.0263165 -0.0684601 0.00319582 -0.13515 -0.0441893 -0.0150758 -0.00733283 -0.0676733 0.0280996 -0.0442746 0.00196416 0.00140034 -0.0335755 0.356279 -0.219523 -0.131771 -0.0385236 -0.143687 -0.00979042 0.354248 -0.0323423 0.258927 0.491287 0.285202 -0.137989 0.196039 0.276161 0.377338 0.0204772 -0.020402 -0.0403396 0.0171524 0.0517003
1219 -0.0149276 0.00725515 -0.106543 0.145362 0.129699 -0.0866505 -0.0631731 0.0455826 0.08164 -0.0137858 0.0474426 0.0732927 -0.0246538 0.0509694 0.00061995 0.00515446 -0.0298732 -0.00566049 -0.0265543 -0.00325273 -0.068397 -0.0167755 -0.00505321 -0.0149346 -0.0372827 0.0128702 -0.0207567 -0.00314292 0.00350388 -0.0299051 0.223461 -0.127611 -0.0801594 -0.0149856 -0.0892349 -0.00618178 0.213419 -0.0121848 0.173506 0.299198 0.168385 -0.0727468 0.124611 0.176147 0.224135 0.0249599 -0.00763396 -0.0149313 0.0126617 0.037857
2496 -0.00229327 0.00680797 -0.0666626 0.0949278 0.073005 -0.0428875 -0.0548444 0.033269 0.069963 -0.0244973 0.0154046 0.0591875 -0.0222185 0.0497352 0.055701 -0.0199766 -0.0185291 0.0254449 0.0445646 -0.019087 0.0286609 0.0129896 0.00331281 -0.0555108 0.0152608 0.00138769 0.0380231 0.00317648 -0.0430459 -0.0389665 0.11178 -0.064318 -0.0436513 -0.00373331 -0.0492448 -0.0153061 0.129409 -0.0163725 0.113914 0.220271 0.123161 -0.0550097 0.0845685 0.121992 0.114539 0.0137772 0.0254505 0.0447262 -0.0419731 -0.0773737
195 -0.0158425 0.00925275 -0.131249 0.162336 0.155023 -0.0980261 -0.0250361 0.0423637 0.0492603 -4.68418e-05 0.0421281 0.0610693 -0.0185862 0.0482997 -0.064672 0.0502818 -0.00319581 -0.0434782 -0.0940971 0.0242601 -0.16159 -0.0659793 -0.021636 0.0433087 -0.0783677 0.0492564 -0.0914379 0.00666676 0.0466344 -0.00512637 0.256818 -0.143559 -0.0947652 -0.0346088 -0.0812682 -0.00711483 0.260889 -0.0219984 0.176334 0.317677 0.187072 -0.0931632 0.122761 0.173621 0.268508 0.0293116 -0.0580927 -0.0747575 0.0512111 0.124684
1415 -0.00684272 0.0020963 -0.0998186 0.146094 0.101986 -0.0519207 -0.0690009 0.0391967 0.0831555 -0.0219715 0.0418574 0.076813 -0.0214994 0.0614015 0.0463771 -0.0290071 -0.0336889 0.025973 0.0330576 -0.0273853 0.0198855 0.0135249 0.00176277 -0.0463881 0.0129391 -0.0098739 0.0400619 0.00573426 -0.0605448 -0.0631979 0.183389 -0.125978 -0.0797234 -0.0115144 -0.0886099 -0.0197716 0.201658 -0.0142133 0.165068 0.312708 0.172581 -0.0866014 0.129728 0.183552 0.215362 0.00511165 0.0420353 0.0493634 -0.0430352 -0.0826275
437 -0.00387408 0.0156069 -0.103717 0.133235 0.123063 -0.068349 -0.0359142 0.0355538 0.0290069 0.00822959 0.0281726 0.0470866 -0.0201335 0.040707 -0.0542432 0.0335562 -0.0135478 -0.0184559 -0.0806816 0.0175527 -0.131755 -0.050683 -0.00976225 0.0327192 -0.0766023 0.0368389 -0.0759546 0.00480378 0.0514548 0.0095134 0.208759 -0.117056 -0.0775153 -0.0325631 -0.0576036 0.00533252 0.198831 -0.0298789 0.138287 0.239741 0.13185 -0.0740216 0.0907624 0.134804 0.224497 0.0144339 -0.0355902 -0.050743 0.0459373 0.108525
2901 -0.0100416 0.0123445 -0.128341 0.19967 0.148521 -0.0914576 -0.108779 0.0610367 0.133348 -0.021419 0.0479374 0.132775 -0.0392073 0.0757207 0.0654095 -0.0330854 -0.0350344 0.0327276 0.0368336 -0.0120969 0.0373503 0.0225694 0.00407835 -0.0760901 0.0100004 -0.0104296 0.057569 -0.00137796 -0.0715055 -0.0701 0.224595 -0.144424 -0.0943174 -0.0141975 -0.112206 -0.0137996 0.247421 -0.0197647 0.185625 0.344197 0.181126 -0.0763517 0.132805 0.188733 0.239964 0.00807731 0.0237303 0.0304797 -0.0414013 -0.0612146
1824 -0.0100285 0.0101053 -0.0875455 0.116394 0.117241 -0.059047 -0.0270872 0.0342101 0.0304016 0.00630659 0.0425748 0.0421285 -0.0161799 0.034832 -0.0493688 0.0293145 -0.00437097 -0.0187639 -0.0728339 0.0130568 -0.120113 -0.0519572 -0.0184739 0.022945 -0.0735535 0.0350262 -0.0644328 -0.00337951 0.0481027 -0.00193132 0.19997 -0.124667 -0.0789086 -0.0134838 -0.0664826 -0.0148718 0.195904 -0.013461 0.142855 0.260116 0.136618 -0.0700357 0.0897402 0.140715 0.231132 0.0135663 -0.025552 -0.037433 0.0414397 0.0648538
1875 -0.0124247 0.00522664 -0.0993463 0.127495 0.117345 -0.0629072 -0.0725626 0.0426431 0.0882042 -0.0247728 0.0320787 0.078993 -0.0177577 0.0534239 0.044461 -0.00665691 -0.0267137 0.00960135 0.0239627 -0.0102856 0.00814368 0.0158065 0.00401022 -0.0459531 0.00656732 0.0053603 0.0388541 -0.00876306 -0.0483263 -0.0452203 0.184956 -0.113985 -0.084467 -0.0213483 -0.0922353 -0.0142083 0.210599 -0.00689738 0.164797 0.300506 0.170234 -0.0834663 0.113651 0.172637 0.212964 0.0123585 0.027113 0.0326368 -0.0411026 -0.0522166
1009 -0.00333421 0.00860991 -0.0935858 0.130503 0.130247 -0.0760873 -0.0319612 0.0363465 0.0503591 -0.00799886 0.0314462 0.0598678 -0.00997593 0.0295347 -0.0469226 0.032539 -0.00491925 -0.0173898 -0.0709687 0.0103827 -0.114764 -0.0488262 -0.00543234 0.0206929 -0.0741371 0.0378717 -0.0742582 -0.00803664 0.0284169 0.0089489 0.196996 -0.110459 -0.0681231 -0.0177697 -0.0666878 -0.0115532 0.196961 -0.0202806 0.126608 0.235066 0.126548 -0.0622059 0.0997777 0.121694 0.217869 0.0230607 -0.0396293 -0.0491313 0.039694 0.0857761
1048 0.000560444 0.0205781 -0.100078 0.136205 0.129491 -0.0828749 -0.0216711 0.030198 0.0303836 0.0110743 0.0308233 0.0519345 -0.022919 0.0348884 -0.0649761 0.0384441 -0.00336858 -0.018851 -0.0952969 0.0194583 -0.148982 -0.051127 -0.0231212 0.0343629 -0.0756066 0.036635 -0.088021 0.00814814 0.0476507 0.00891094 0.214882 -0.117273 -0.0833238 -0.0198388 -0.0691622 -0.0088246 0.2025 -0.017845 0.140276 0.285845 0.160262 -0.0817906 0.107241 0.157577 0.245171 0.0198247 -0.0269387 -0.0538102 0.0348654 0.0904023
1451 -0.0163493 0.0185683 -0.123904 0.159349 0.141144 -0.075093 -0.0518189 0.043631 0.0613362 -0.0121571 0.0528611 0.0759964 -0.0254527 0.0423489 -0.0352662 0.0152324 -0.0255027 -0.0114434 -0.0536388 0.00946306 -0.0887455 -0.0266341 -0.0145439 0.015805 -0.0575383 0.0279357 -0.0350675 -0.00231824 0.0118912 -0.0268414 0.236473 -0.137799 -0.100374 -0.0187886 -0.0892206 -0.0179526 0.237668 -0.0355902 0.178141 0.343254 0.198165 -0.08755 0.130049 0.184215 0.256371 0.0120413 -0.0189578 -0.0243684 0.0116484 0.0397783
367 -0.0155896 0.0061912 -0.101802 0.131134 0.132629 -0.0718104 -0.0462868 0.0328519 0.0718507 -0.0185214 0.0455962 0.0722074 -0.0233448 0.053801 -0.00951148 0.00884613 -0.00707497 0.00262212 -0.0336222 -0.00248512 -0.0662827 -0.0235668 -0.0136769 -0.00383519 -0.0449047 0.0196624 -0.0283344 -0.00582511 -0.00377629 -0.0148368 0.188508 -0.11301 -0.079655 -0.0239895 -0.0776785 -0.00928036 0.190163 -0.017755 0.129114 0.241799 0.145128 -0.0714487 0.103294 0.143964 0.202434 0.0190972 -0.00940895 -0.0226056 0.00993987 0.0356891
2296 -0.0131519 0.00218497 -0.0920072 0.116616 0.117126 -0.0656294 -0.0162515 0.0127552 0.011423 0.00851665 0.038173 0.0424869 -0.0123885 0.0279324 -0.075094 0.0442282 -0.00645659 -0.0474443 -0.0993978 0.0348279 -0.173768 -0.0589234 -0.020014 0.0627526 -0.0828763 0.0544369 -0.104973 -0.000724049 0.0719213 0.0250791 0.170711 -0.0998789 -0.054909 -0.0131597 -0.0478744 0.00399632 0.181042 -0.0153323 0.112253 0.207209 0.129005 -0.0607172 0.0810808 0.115215 0.194451 0.0156367 -0.0501746 -0.077176 0.0699224 0.119603
2404 -0.0116151 0.00623282 -0.120753 0.159957 0.133659 -0.0887715 -0.0559054 0.0455181 0.0823853 -0.0182662 0.0369205 0.0825526 -0.0311208 0.0438421 0.00163324 0.0186382 -0.0296887 0.00474485 -0.0290322 0.00670672 -0.0641784 -0.0137223 -0.00889935 -0.0160643 -0.0465211 0.0253804 -0.0184096 0.00812311 0.00865188 -0.0141876 0.194559 -0.130036 -0.0749146 -0.0117076 -0.0786646 -0.00509298 0.194743 -0.0225534 0.154438 0.280244 0.172263 -0.0872934 0.109051 0.160067 0.209929 0.0184938 -0.0137587 -0.00949211 0.0133061 0.0212043
1114 -0.0109625 0.0215885 -0.149429 0.187008 0.178558 -0.101144 -0.0416513 0.0391854 0.0488731 0.00767257 0.0567969 0.0630995 -0.0218809 0.0422077 -0.0775931 0.0517211 -0.00876996 -0.0396396 -0.116836 0.0303346 -0.191254 -0.06344 -0.0226616 0.0428259 -0.0997537 0.0610375 -0.100565 -0.0032697 0.0536993 0.00310216 0.288485 -0.167086 -0.0989304 -0.0246858 -0.0969432 -0.00361453 0.286958 -0.0364104 0.19893 0.357063 0.211872 -0.09272 0.14671 0.196492 0.31667 0.0177862 -0.0632671 -0.0862244 0.0613968 0.147368
1133 -0.0065591 0.00471034 -0.123578 0.175368 0.175638 -0.0969086 -0.0456521 0.0522371 0.069748 0.000412972 0.0483833 0.0758572 -0.013748 0.0559757 -0.055873 0.0346531 -0.0115353 -0.0227762 -0.0922616 0.0274338 -0.150196 -0.0533194 -0.0189654 0.0323382 -0.0954718 0.0442551 -0.0984714 0.00692257 0.059085 0.0141474 0.244811 -0.159229 -0.0861462 -0.0273316 -0.0707542 -0.00633517 0.251724 -0.0344775 0.167674 0.309435 0.180548 -0.0949502 0.118854 0.171491 0.295115 0.0328517 -0.0447346 -0.071314 0.0555641 0.124712
1462 -0.0118807 0.00554991 -0.131608 0.165609 0.152914 -0.0928864 -0.0238519 0.0318808 0.030469 0.0129165 0.0478921 0.0559187 -0.0161307 0.043379 -0.0722449 0.0389614 -0.0125466 -0.0453334 -0.108355 0.0294254 -0.187256 -0.0757506 -0.020051 0.0388908 -0.0910093 0.0466298 -0.0819363 0.0107581 0.0324053 -0.0119785 0.259658 -0.1431 -0.0925065 -0.0329409 -0.0870948 -0.000142479 0.263602 -0.0294037 0.164031 0.30086 0.167446 -0.0843344 0.1113 0.165021 0.266619 0.028249 -0.0468022 -0.0781049 0.0672038 0.137425
2217 -0.0106524 0.0143679 -0.153201 0.218505 0.17298 -0.103673 -0.0873094 0.0644445 0.134766 -0.0252922 0.0581195 0.116607 -0.0369788 0.0826627 0.0514933 -0.0125042 -0.0430134 0.0304765 0.025028 -0.00823231 -0.000507507 0.00169149 0.00721619 -0.057067 -0.00403652 -0.00482546 0.037977 0.00201163 -0.0474588 -0.0548775 0.259504 -0.157294 -0.107906 -0.0296114 -0.102913 -0.00752491 0.274752 -0.0322181 0.213573 0.393658 0.230628 -0.097071 0.167771 0.223112 0.270424 0.0184116 0.039912 0.0302932 -0.0447453 -0.0596197
1239 -0.00690403 0.0101854 -0.103292 0.1272 0.108266 -0.0737916 -0.0413983 0.0258984 0.063271 -0.00344511 0.0375133 0.0514075 -0.00652464 0.035403 -0.0178636 0.0207818 -0.0116014 -0.00368126 -0.0398211 0.00542553 -0.0645573 -0.0181959 -0.00879585 -0.00780891 -0.0305256 0.0238341 -0.0184348 0.00708815 0.00730419 -0.0173475 0.187818 -0.100657 -0.0748764 -0.0135386 -0.0756429 0.00219065 0.171971 -0.0181441 0.120658 0.242402 0.143928 -0.0612835 0.0867083 0.129307 0.195735 0.0176484 -0.00329325 -0.0143451 0.0129566 0.0266062
2810 -0.0109032 0.0135797 -0.123056 0.167618 0.139408 -0.0733159 -0.0873043 0.0438783 0.10598 -0.0233659 0.0374182 0.0966441 -0.0282793 0.0692775 0.0504033 -0.0176971 -0.0345361 0.0261134 0.0387604 -0.0137511 0.024854 0.0166958 0.00749878 -0.0742363 0.0131423 0.00158147 0.0663725 -0.00587561 -0.0903027 -0.0829142 0.237098 -0.154868 -0.105364 -0.0141632 -0.115514 -0.02323 0.263092 -0.0283492 0.199596 0.377093 0.215904 -0.106507 0.161915 0.210236 0.234299 0.0215986 0.0292202 0.0384901 -0.0478228 -0.0727796
2167 -0.00882127 0.020503 -0.117078 0.156492 0.151592 -0.0918337 -0.04001 0.0327378 0.0610788 -0.0080776 0.0451472 0.0722947 -0.025955 0.0443552 -0.0168978 0.0296985 -0.0267132 -0.0213628 -0.0470939 0.0202705 -0.101169 -0.0405645 -0.00268251 0.00364951 -0.0543989 0.0200498 -0.0468632 -0.00698532 0.0117684 -0.031635 0.246567 -0.154213 -0.0909183 -0.0319074 -0.0897248 -0.00470617 0.238287 -0.0266267 0.171954 0.308713 0.188738 -0.0788828 0.11663 0.164754 0.266086 0.0258582 -0.0297508 -0.0404641 0.0367585 0.062795
2399 -0.0188339 0.00842731 -0.119203 0.170178 0.147286 -0.0728915 -0.075346 0.0477032 0.115517 -0.0168249 0.0420622 0.112043 -0.0233582 0.066019 0.0557583 -0.0218024 -0.0387802 0.0346204 0.0358221 -0.0129298 0.0184373 0.0246556 0.00929872 -0.0490837 0.00743396 -0.00288234 0.0457429 0.00831486 -0.0579946 -0.0605364 0.211378 -0.12809 -0.0992022 -0.0161506 -0.116066 -0.0100638 0.232031 -0.0153013 0.214094 0.386792 0.235903 -0.095417 0.160498 0.207571 0.246337 0.0120026 0.0450114 0.0504918 -0.0489753 -0.0842279
259 -0.0173434 0.0174057 -0.11552 0.153491 0.163393 -0.0825722 -0.0292774 0.0372506 0.0504198 -0.00852473 0.0490056 0.0748476 -0.0108997 0.047856 -0.0580678 0.0353861 -0.00682016 -0.0283957 -0.0876187 0.0300887 -0.14417 -0.0507999 -0.0109342 0.0439154 -0.0826301 0.0433526 -0.0780995 -0.00826443 0.0429523 0.000779247 0.23095 -0.146966 -0.0805815 -0.0362607 -0.0901375 0.0029901 0.226476 -0.0316054 0.142488 0.27697 0.160779 -0.0808441 0.1165 0.147442 0.249715 0.0218751 -0.0522479 -0.0617778 0.0442828 0.117193
887 -0.00307166 0.0133863 -0.127675 0.169378 0.176763 -0.0991665 -0.0449474 0.0361838 0.0581567 -0.00315731 0.0541891 0.083042 -0.0210888 0.0413191 -0.0621204 0.0387775 -0.010907 -0.0221582 -0.0940952 0.0205477 -0.160222 -0.0451934 -0.0244151 0.0318559 -0.082703 0.0365729 -0.0721412 0.000687433 0.0457617 0.00431313 0.26144 -0.150421 -0.086262 -0.0327838 -0.0860997 -0.0120467 0.254297 -0.0384039 0.185145 0.322028 0.19495 -0.0841159 0.130261 0.182074 0.281117 0.0254964 -0.0356877 -0.0661815 0.0483012 0.102498
2624 -0.00749969 0.00643166 -0.0585873 0.0995464 0.0637474 -0.0433136 -0.0553596 0.0309515 0.0790435 -0.0195465 0.0304508 0.0632824 -0.020009 0.0548569 0.0527468 -0.0233107 -0.0308789 0.0304982 0.0567761 -0.0147923 0.059776 0.0321207 0.00730518 -0.065205 0.0246261 -0.0107885 0.0620317 -0.00729554 -0.0750913 -0.0545923 0.121245 -0.0675987 -0.0587356 -0.00536171 -0.0703742 -0.012885 0.141602 -0.0148567 0.12073 0.245708 0.146449 -0.0669508 0.0923749 0.127143 0.13905 0.00924999 0.057038 0.0565198 -0.0551818 -0.120364
710 -0.0074481 0.00944676 -0.0841296 0.101971 0.0984921 -0.0502253 -0.0297958 0.0301127 0.0459046 -0.0152242 0.0327082 0.0648555 -0.0169816 0.0323173 -0.00247777 0.0108081 -0.0210707 0.000643668 -0.0335059 0.000219932 -0.0589173 -0.0105484 -0.00824988 0.00925464 -0.0297641 0.0104793 -0.0183502 -0.00286956 -0.00349024 -0.0169025 0.165088 -0.0963125 -0.0737497 -0.0164468 -0.0673721 -0.00377222 0.167 -0.0205071 0.133266 0.241057 0.13431 -0.0702266 0.0966736 0.131042 0.179743 0.00613517 -0.00707089 -0.0094478 0.00944342 0.0355343
2258 -0.0200147 0.0031082 -0.0844751 0.115546 0.0817068 -0.0454831 -0.07251 0.0290699 0.0971024 -0.0244939 0.0303515 0.0816656 -0.0207376 0.0497781 0.0696147 -0.0241828 -0.030205 0.0402381 0.0596743 -0.0326546 0.0726557 0.0418148 0.0210322 -0.065789 0.0236467 -0.0203681 0.0552515 0.000350172 -0.061185 -0.0522502 0.124553 -0.0897119 -0.0632021 -0.0033801 -0.0644289 -0.006888 0.154263 -0.0142052 0.104049 0.208412 0.11364 -0.0480508 0.0906883 0.121266 0.137664 0.0101035 0.0377428 0.0573772 -0.0507819 -0.0955473
249 -0.00274316 0.0128762 -0.0908425 0.125633 0.121267 -0.0625839 -0.0211485 0.017778 0.018896 0.00162506 0.0385928 0.0525439 -0.00775571 0.0271752 -0.0728539 0.0441663 -0.00196003 -0.0395259 -0.111183 0.0366671 -0.16335 -0.0635658 -0.026732 0.0440132 -0.0829485 0.0515959 -0.094167 0.00132879 0.0626898 0.0093922 0.191209 -0.114373 -0.0687194 -0.0304051 -0.054902 -0.000815381 0.190633 -0.0316003 0.110805 0.191329 0.105112 -0.0647064 0.0763217 0.117808 0.228953 0.00927949 -0.0404446 -0.0698776 0.0584519 0.123155
2459 0.000407696 0.0103637 -0.0843734 0.107465 0.107134 -0.062309 -0.0301201 0.0343957 0.0555929 -0.000668086 0.031034 0.0598086 -0.0166287 0.0412313 -0.0192076 0.00998613 -0.0117056 -0.00565463 -0.0309787 0.000401006 -0.0686294 -0.0158785 0.00172924 -0.00768282 -0.039269 0.0110496 -0.0211695 0.00429497 -0.0152304 -0.0343053 0.175192 -0.102621 -0.0656682 -0.0100354 -0.0806742 -0.00123382 0.191642 -0.0266706 0.0982018 0.191208 0.108306 -0.0511713 0.0805476 0.122935 0.18033 0.0198334 -0.00726187 -0.023914 0.00839283 0.0280814
2653 -0.0178539 0.020034 -0.11229 0.154422 0.13041 -0.0844165 -0.0955246 0.0593864 0.109236 -0.0333128 0.0445192 0.111038 -0.0223141 0.0710693 0.0599018 -0.0228544 -0.0373106 0.03627 0.0468417 -0.0211831 0.0274033 0.0276083 0.00621031 -0.0518369 0.0216194 -0.00194792 0.0382037 -0.00363328 -0.0527058 -0.0677037 0.185402 -0.126645 -0.0900662 -0.025729 -0.0973768 -0.00292293 0.230165 -0.0220865 0.158287 0.317312 0.18658 -0.0878918 0.138075 0.181591 0.214115 0.0162692 0.0207938 0.0362008 -0.0399908 -0.0708895
2031 -0.0198019 0.0193221 -0.118435 0.153435 0.160424 -0.0922198 -0.0414474 0.0314418 0.0513881 0.00190706 0.0465337 0.0804354 -0.024508 0.0544435 -0.0356199 0.0196741 -0.0221616 -0.0207293 -0.0638749 0.00436693 -0.114782 -0.0391133 -0.0167389 0.0165875 -0.0666072 0.0206192 -0.053204 -0.00254538 0.013975 -0.00903916 0.236339 -0.146882 -0.0925911 -0.0355908 -0.0917853 -0.00535454 0.241762 -0.0330488 0.165275 0.311057 0.176828 -0.0741509 0.118647 0.169023 0.246746 0.0116447 -0.0231871 -0.0387418 0.0283994 0.0752075
2767 -0.020664 0.0214856 -0.126124 0.16113 0.134807 -0.0845591 -0.0772302 0.0614892 0.103774 -0.0248084 0.0485769 0.114892 -0.0187303 0.0706617 0.0435676 -0.0267631 -0.0357848 0.0304888 0.0231705 -0.0234891 0.0204432 0.0124036 0.00714013 -0.0439114 0.0160023 -0.000240564 0.0478297 3.58291e-05 -0.0550689 -0.0617767 0.222013 -0.131653 -0.0879792 -0.023196 -0.0987126 -0.00299777 0.245726 -0.0267246 0.190992 0.35829 0.209862 -0.104475 0.152791 0.207262 0.253395 0.0124869 0.0293659 0.0404895 -0.0417604 -0.0620574
1768 -0.00758286 0.0061634 -0.101726 0.135402 0.136691 -0.0770954 -0.0196495 0.0387404 0.0357564 0.00287243 0.0470186 0.0539422 -0.0196091 0.043362 -0.0683867 0.0364643 -0.0155193 -0.0349925 -0.0810175 0.0239434 -0.143124 -0.0454217 -0.016955 0.031771 -0.0778002 0.0438892 -0.0871388 0.00282283 0.0411009 0.0112716 0.214986 -0.131138 -0.0806997 -0.0327065 -0.0680826 0.00148839 0.22082 -0.0358133 0.14467 0.271977 0.15819 -0.0784814 0.106494 0.157803 0.246916 0.0195621 -0.0393576 -0.0471741 0.0437287 0.0887748
1781 -0.0146761 0.00293353 -0.108509 0.150329 0.159682 -0.0906401 -0.0306368 0.0296231 0.0472399 0.00874612 0.0483976 0.0490879 -0.00690639 0.0377383 -0.0644702 0.0463747 -0.00450863 -0.0397027 -0.0906574 0.0319928 -0.15655 -0.0496114 -0.00982271 0.0371877 -0.0810441 0.0337228 -0.079205 -0.00434086 0.0493941 0.00659122 0.243435 -0.149759 -0.0811689 -0.0359963 -0.0909083 -0.0033472 0.250427 -0.0365395 0.155836 0.309656 0.1691 -0.0834955 0.12532 0.158835 0.26759 0.0183518 -0.042868 -0.053695 0.0458026 0.0891894
1808 -0.00631229 0.00185814 -0.0967741 0.124603 0.13642 -0.0653203 -0.0147083 0.0182625 0.0198639 -0.0061433 0.0304385 0.0380993 -0.00943501 0.0388881 -0.075672 0.0346861 -0.0121743 -0.0351145 -0.0857999 0.0251357 -0.15371 -0.051539 -0.021069 0.0353778 -0.0771497 0.040172 -0.0886853 0.00252514 0.047037 0.001911 0.221976 -0.115037 -0.0652432 -0.030233 -0.0606722 -0.00173386 0.206565 -0.0173809 0.150148 0.261597 0.16358 -0.0848917 0.0999409 0.131559 0.235345 0.0147718 -0.0373206 -0.0587386 0.045547 0.0820318
2348 -0.022851 0.0178875 -0.102718 0.150689 0.136175 -0.0792174 -0.0783845 0.0473129 0.112909 -0.0161616 0.0313681 0.106976 -0.0221935 0.0725632 0.0727456 -0.0245438 -0.0497316 0.0402006 0.0698264 -0.026598 0.0680755 0.0398385 0.00390492 -0.0791821 0.0344509 -0.00552531 0.0856969 -0.0019827 -0.101792 -0.0751016 0.202254 -0.136183 -0.0871609 -0.0189037 -0.10665 -0.00517121 0.219679 -0.0044926 0.185652 0.347491 0.192043 -0.0925366 0.147879 0.203506 0.222774 0.012587 0.0446796 0.0455454 -0.0458911 -0.0925085
2278 -0.00299846 0.00958975 -0.0928799 0.105124 0.0990367 -0.0612701 -0.0442816 0.0355598 0.062004 -0.0137246 0.0368904 0.0511232 -0.019211 0.032272 0.00258796 0.0152062 -0.0241749 0.00817842 -0.0135354 0.000322296 -0.0341738 -0.0174475 -9.53371e-06 -0.00484819 -0.0313781 0.00759169 -0.0206088 0.00482357 -0.00053822 -0.0209814 0.145056 -0.0977356 -0.0525159 -0.0168325 -0.0594847 -0.0129546 0.159254 -0.0159207 0.136784 0.239024 0.152152 -0.0648078 0.0954357 0.123283 0.190381 0.0148929 -0.00326483 0.00916001 0.000563505 0.00480398
2773 -0.0141816 0.00635631 -0.134052 0.188529 0.140278 -0.0869638 -0.0920346 0.0543848 0.113818 -0.014554 0.0325695 0.10428 -0.0253587 0.0643697 0.0665489 -0.0202232 -0.0383634 0.0374303 0.0421104 -0.0271653 0.0310615 0.0228848 0.0039666 -0.0447199 0.00125905 -0.00141102 0.0416788 -0.00360626 -0.0482619 -0.0609061 0.201892 -0.142206 -0.0895384 -0.0204308 -0.108894 -0.00605333 0.228477 -0.0261645 0.210388 0.393051 0.229289 -0.116541 0.157554 0.221863 0.251183 0.0238514 0.0438891 0.0580649 -0.0611802 -0.100453
735 -0.0151436 0.00761728 -0.0932702 0.130813 0.127313 -0.065745 -0.0237457 0.0376698 0.0408686 -0.00113827 0.0468835 0.047123 -0.015322 0.0382151 -0.0477876 0.0446126 -0.00202161 -0.0299396 -0.082131 0.0212421 -0.131487 -0.0511479 -0.00723993 0.0395964 -0.0751433 0.0451296 -0.0769852 0.0098785 0.028078 -0.0116599 0.206805 -0.123955 -0.0710081 -0.0329988 -0.0719254 -0.0143807 0.198455 -0.0303328 0.13915 0.229699 0.149052 -0.0616784 0.0859306 0.127901 0.228397 0.00873733 -0.0341699 -0.0587729 0.0548007 0.110131
751 -0.0100716 0.0215794 -0.131056 0.166959 0.153187 -0.0968389 -0.0397204 0.0342957 0.0552901 -0.00298224 0.0413645 0.0662724 -0.0180738 0.0495339 -0.0424505 0.033971 -0.0209083 -0.00968961 -0.0632178 0.0225142 -0.128555 -0.0401698 -0.0114758 0.0129768 -0.0754584 0.0428952 -0.0804195 -0.00719925 0.048847 0.000255184 0.236452 -0.139687 -0.0815641 -0.0357484 -0.0700857 -0.00771578 0.228559 -0.0199609 0.169781 0.297155 0.180676 -0.0777346 0.12053 0.175136 0.26213 0.0271364 -0.020932 -0.0411796 0.0305196 0.0609919
2866 -0.0118069 0.00730124 -0.0961251 0.133504 0.0949659 -0.0635388 -0.0730237 0.0482047 0.0892538 -0.0214333 0.0230855 0.0854044 -0.0172775 0.0655925 0.0388999 -0.0271179 -0.0271913 0.0193394 0.0378923 -0.0256121 0.0301588 0.0154647 0.00114031 -0.0473336 0.0153581 -0.000550829 0.0638137 0.00205993 -0.0473313 -0.0460738 0.166038 -0.105422 -0.0660948 -0.0244632 -0.0712911 -0.000494601 0.189844 -0.0187769 0.143022 0.260758 0.139408 -0.0578299 0.0994512 0.150316 0.185878 0.0058404 0.0329139 0.0199009 -0.0319164 -0.0452421
543 -0.00559466 0.00365865 -0.120009 0.153489 0.156915 -0.0874866 -0.0419883 0.0457237 0.0662346 0.000241184 0.0400057 0.0804555 -0.0115678 0.0590785 -0.0186613 0.025128 -0.0242555 -0.0136608 -0.052482 0.00228151 -0.0866037 -0.0289525 -0.00953789 0.0100935 -0.0569716 0.0170787 -0.0447036 -0.00684106 0.00817034 -0.0205405 0.229971 -0.140368 -0.0927295 -0.0265253 -0.0830035 -0.0138698 0.226066 -0.0302246 0.169415 0.325031 0.19418 -0.0957349 0.132662 0.180632 0.240481 0.0283305 -0.015918 -0.0191615 0.0159268 0.0327492
575 -0.0208113 0.00748294 -0.137744 0.167019 0.170253 -0.0907848 -0.030913 0.0445814 0.0517517 -0.00293512 0.0432676 0.0828105 -0.0190351 0.0491063 -0.0413949 0.0313492 -0.0163172 -0.0220679 -0.0770019 0.0238544 -0.138662 -0.0505241 -0.00318379 0.0191329 -0.0682131 0.0470366 -0.0548829 -0.00172365 0.0426283 -0.00804497 0.255099 -0.144586 -0.100614 -0.0219007 -0.0872812 -0.0111579 0.256805 -0.0306063 0.183614 0.33664 0.191431 -0.098428 0.120638 0.185045 0.285529 0.0222543 -0.029773 -0.0435472 0.0347237 0.0824038
589 -0.00728208 0.00605476 -0.0958255 0.129198 0.131805 -0.0685579 -0.0389069 0.0300556 0.0567137 -0.0119135 0.0358263 0.0727946 -0.0140183 0.0396262 -0.0211828 0.0246233 -0.0171234 -0.0222177 -0.0535468 0.000222971 -0.094484 -0.0205391 -0.00304801 -0.00139286 -0.0358824 0.0278005 -0.0206772 0.00936123 0.00144618 -0.0141904 0.20349 -0.114782 -0.0885446 -0.0329475 -0.0786291 -0.00843748 0.218781 -0.0270443 0.149483 0.280818 0.154831 -0.0787096 0.12054 0.157493 0.228831 0.0107249 -0.0138846 -0.0374644 0.0265644 0.062167
586 0.00182034 0.01704 -0.0981254 0.132014 0.130305 -0.0703982 -0.0256836 0.0202633 0.0273628 -0.00382825 0.0291006 0.0514648 -0.0215763 0.0353902 -0.0496611 0.0286346 -0.0124333 -0.0238676 -0.0701816 0.0165304 -0.119075 -0.0394482 -0.00426127 0.031797 -0.0655447 0.0429762 -0.0546199 0.000313618 0.0234875 -0.00566016 0.198961 -0.129494 -0.0799199 -0.0149416 -0.0740292 -0.00356209 0.204894 -0.0202579 0.143589 0.263163 0.155622 -0.0678605 0.0975081 0.136793 0.219834 0.0155463 -0.0296659 -0.0478891 0.0360782 0.0825073
2040 -0.00720807 0.00220683 -0.0991699 0.128501 0.097324 -0.0654411 -0.0378961 0.0274871 0.060521 -0.00772176 0.0285169 0.0702703 -0.0196146 0.0346403 -0.00171007 0.00323111 -0.0219155 0.00711828 -0.0137478 0.00467852 -0.0505611 -0.0178698 0.000508568 -0.0161104 -0.0244443 0.0155987 -0.000140841 -0.00734801 -0.0114109 -0.0193504 0.176337 -0.10419 -0.0663008 -0.0226152 -0.0827309 -0.00245933 0.190247 -0.0141873 0.132949 0.247221 0.146643 -0.0677019 0.102599 0.137489 0.203974 0.0209349 0.00636737 0.0010991 -0.00212071 0.000898174
2763 -0.0168837 0.0180754 -0.120624 0.163855 0.134829 -0.0782808 -0.0876151 0.0614992 0.139758 -0.0220705 0.0358457 0.125137 -0.0395147 0.0735234 0.0673756 -0.0396486 -0.047855 0.02999 0.0662672 -0.0201426 0.0544723 0.0274283 0.0106404 -0.0791933 0.0253963 -0.0141111 0.0737731 -0.000113893 -0.0899298 -0.0833236 0.205302 -0.134661 -0.0935762 -0.0294233 -0.116382 -0.0161231 0.245914 -0.0137356 0.198261 0.361177 0.205185 -0.0882552 0.148458 0.199178 0.232446 0.0105755 0.0536374 0.060743 -0.0642184 -0.116774
1639 -0.00714196 0.00952896 -0.0934288 0.12093 0.093237 -0.056683 -0.0518639 0.0278706 0.0723703 -0.0019623 0.0353041 0.0743925 -0.0142162 0.0481088 -0.00241183 0.000642675 -0.0180975 -0.00134376 -0.0202582 -0.00551428 -0.0490933 -0.0148261 -0.0105029 -0.00307142 -0.0255161 0.00589206 -0.0110129 0.00205138 0.00152747 -0.0241897 0.145613 -0.0942844 -0.0620718 -0.0125059 -0.0644461 -0.000625193 0.154602 -0.0206883 0.122629 0.221158 0.12945 -0.0577885 0.0769796 0.119854 0.177152 0.0208746 0.0113397 0.00816903 0.0045865 0.00948915
2147 -0.0123743 0.00633472 -0.0752114 0.102599 0.0846903 -0.0349098 -0.0569258 0.0342552 0.0848322 -0.00976917 0.0323021 0.0790149 -0.016657 0.0391302 0.0506731 -0.0282404 -0.0312265 0.0217473 0.0446391 -0.0184055 0.0465563 0.024132 0.0129605 -0.0592332 0.0153111 -0.0033166 0.0438225 0.00241552 -0.0626155 -0.0452963 0.0965737 -0.0690839 -0.0402065 -0.00213004 -0.0497864 -0.016544 0.122368 -0.010259 0.109452 0.194396 0.10949 -0.0608866 0.0797504 0.103871 0.114354 0.0083595 0.035587 0.056809 -0.0430411 -0.0966686
954 -0.0131755 0.0178984 -0.0796722 0.128482 0.0942158 -0.0644975 -0.0587714 0.0261397 0.0815414 -0.0157279 0.0364567 0.0739063 -0.0135987 0.0499004 0.0314406 -0.0112411 -0.0320548 0.0114141 0.0373582 -0.0188352 0.0153083 0.00828764 0.00811124 -0.0492002 0.0175906 0.00670733 0.0510525 -0.00950841 -0.0509202 -0.0455877 0.156563 -0.108572 -0.078801 -0.0209801 -0.0841476 -0.00367671 0.191613 -0.0219267 0.150747 0.280707 0.156934 -0.0795783 0.11278 0.169547 0.183347 0.019786 0.0288198 0.0239406 -0.0351766 -0.0485001
224 -0.0179599 0.0069186 -0.130092 0.163853 0.167765 -0.088433 -0.032757 0.0283407 0.0539879 0.0013996 0.0521517 0.076243 -0.00978524 0.0464671 -0.057602 0.0411528 -0.0129114 -0.0330743 -0.100796 0.0268739 -0.159539 -0.0700253 -0.0118813 0.0327549 -0.0900274 0.0546134 -0.105297 0.00604167 0.0629396 0.00258527 0.253913 -0.159903 -0.103526 -0.0259758 -0.0920472 -0.0133362 0.269821 -0.0386883 0.175514 0.316596 0.197502 -0.0823616 0.136193 0.185671 0.295474 0.0163712 -0.0496796 -0.0673051 0.0482958 0.103134
371 0.00100773 0.0123561 -0.100692 0.143782 0.135462 -0.0834011 -0.025622 0.0280947 0.046883 0.000350148 0.0332104 0.0624373 -0.0204614 0.0365689 -0.0621998 0.0398922 -0.00643287 -0.0295235 -0.0829388 0.0284033 -0.136231 -0.0460022 -0.0232854 0.0384044 -0.0852415 0.0348085 -0.0748517 -0.00327351 0.0549182 0.0159734 0.197505 -0.112372 -0.075209 -0.0155539 -0.0605828 0.00134864 0.20562 -0.018024 0.144568 0.275148 0.15895 -0.0710384 0.109705 0.144115 0.245423 0.0249423 -0.0330265 -0.0409184 0.0314803 0.0707941
375 -0.0104571 0.00291107 -0.107869 0.131553 0.145871 -0.0752821 -0.0109988 0.0358015 0.0340092 -0.00140694 0.0447916 0.0405566 -0.0154527 0.0303755 -0.0759018 0.0467699 0.00137388 -0.034242 -0.0909367 0.0173772 -0.163575 -0.0545666 -0.020418 0.0489743 -0.0896546 0.0457012 -0.0863051 0.00671484 0.0607604 0.0179262 0.205975 -0.123599 -0.0737162 -0.031908 -0.0588861 -0.00337847 0.202261 -0.0177003 0.140953 0.265524 0.15469 -0.0775587 0.0910226 0.132993 0.22395 0.0131079 -0.039069 -0.0572416 0.0623838 0.11274
1064 -0.0149551 0.011627 -0.0931132 0.128478 0.125525 -0.0633994 -0.020918 0.0325356 0.0414612 0.00700382 0.0370637 0.0401034 -0.0171259 0.044122 -0.0365971 0.0199143 -0.0173442 -0.0237261 -0.0597367 0.0243479 -0.107006 -0.0437552 -0.0152672 0.0339804 -0.0513923 0.0361438 -0.0433773 0.00619988 0.0134816 -0.0194102 0.208634 -0.120317 -0.0847865 -0.0177102 -0.0774979 -0.0132889 0.221364 -0.017166 0.127441 0.243027 0.13552 -0.0630205 0.0965485 0.12957 0.224831 0.0240223 -0.030929 -0.0363545 0.0350857 0.0742685
1071 -0.0131402 0.00461093 -0.0865065 0.127774 0.118916 -0.0683695 -0.0211697 0.0283699 0.0265077 0.00280877 0.0356172 0.0546142 -0.00751919 0.038335 -0.0550385 0.0344362 -0.0147384 -0.0344738 -0.0855766 0.0125388 -0.132199 -0.0397759 -0.0149475 0.024 -0.0692099 0.0428172 -0.0706873 0.00187496 0.0529745 0.0114282 0.208026 -0.12373 -0.0777345 -0.0161442 -0.0612431 -0.00193669 0.203943 -0.0211313 0.125165 0.241846 0.150392 -0.0747767 0.0852821 0.122356 0.220545 0.011727 -0.0264227 -0.0555815 0.0367665 0.0894993
1073 -0.00230743 0.00910309 -0.0860342 0.118894 0.117166 -0.0617309 -0.0329914 0.0187849 0.0384449 -0.00684348 0.0361454 0.0536093 -0.0215276 0.0310745 -0.0304329 0.0134753 -0.0189409 -0.0167799 -0.0495723 0.0186475 -0.10012 -0.027596 0.000108275 0.0127544 -0.0646639 0.0218667 -0.0596071 0.00844325 0.0321366 0.00891627 0.172181 -0.104494 -0.0708175 -0.0175572 -0.0574821 0.00361995 0.176329 -0.0214233 0.133973 0.266355 0.146885 -0.0651218 0.107929 0.147106 0.227139 0.0122725 -0.00927795 -0.0234328 0.0156318 0.0471447
2756 -0.000852552 -0.00177614 -0.0742886 0.104021 0.0769822 -0.0535951 -0.0647984 0.0455407 0.0955159 -0.0174324 0.0209944 0.0713932 -0.0143982 0.0404732 0.0603706 -0.0329661 -0.0370132 0.0303837 0.0488418 -0.0172359 0.0593129 0.0209022 0.0119539 -0.0630639 0.0383212 -0.00874227 0.0705874 0.00217328 -0.0735658 -0.0537836 0.107864 -0.0671314 -0.0508397 -0.00332348 -0.0549721 -0.00848069 0.126745 -0.0153942 0.0933639 0.178495 0.0898288 -0.0372297 0.0799328 0.0975728 0.111568 0.014478 0.0309798 0.0303103 -0.0451561 -0.0627438
369 -0.000743024 0.0235106 -0.140032 0.170414 0.167911 -0.0967426 -0.0564066 0.0364862 0.0755981 -0.0120117 0.041035 0.0847339 -0.0210138 0.0557556 -0.0452767 0.0455791 -0.0143543 -0.0349471 -0.0960296 0.0279668 -0.142368 -0.0544568 -0.021474 0.0237202 -0.0742669 0.0437846 -0.0749434 0.00136114 0.0325226 -0.00788566 0.26211 -0.167436 -0.0952535 -0.0374611 -0.0912033 -0.0173055 0.26564 -0.0211362 0.179369 0.347133 0.205509 -0.0872228 0.123821 0.191562 0.30352 0.0148859 -0.0476732 -0.0496564 0.0482963 0.111402
384 -0.0015275 0.0153046 -0.0967052 0.133951 0.131411 -0.0648002 -0.0437999 0.0413915 0.0639516 -0.00809589 0.0372314 0.0632735 -0.0169349 0.0501952 -0.0217669 0.0153898 -0.0174473 -0.00526226 -0.0429179 0.0149011 -0.0847634 -0.0321224 -0.00419529 0.0104449 -0.0460076 0.0190481 -0.0292318 0.00555325 0.0209234 -0.0199641 0.204523 -0.126907 -0.0783049 -0.0232241 -0.073923 -0.00897019 0.202664 -0.0222867 0.153993 0.297398 0.173471 -0.0745137 0.108366 0.161508 0.227018 0.0256923 -0.0218877 -0.0202808 0.0065899 0.0270246
390 -0.00527909 0.00676258 -0.132855 0.174872 0.159142 -0.0973524 -0.0501855 0.0404714 0.0638427 0.0031438 0.0558479 0.069919 -0.0298625 0.0441336 -0.0184824 0.0127679 -0.024457 -0.00983405 -0.0448714 0.0140772 -0.0954545 -0.0360964 -0.0144326 0.0055346 -0.0563945 0.0295078 -0.0309662 -0.00300249 0.0111129 -0.0243996 0.249071 -0.146842 -0.10987 -0.0271353 -0.103493 -0.0192499 0.261166 -0.0243282 0.205632 0.367132 0.217106 -0.102502 0.144061 0.183629 0.272125 0.0123231 -0.0256742 -0.0245758 0.0261733 0.0510529
2640 -0.00941886 0.016349 -0.135615 0.197132 0.165712 -0.103454 -0.0992436 0.0619846 0.137844 -0.0263392 0.0448933 0.13415 -0.0396329 0.0858091 0.0596037 -0.0133721 -0.0413703 0.022006 0.043681 -0.0224948 0.0308915 0.021726 0.0134528 -0.0560612 0.000495804 0.00369405 0.0443199 -0.00914141 -0.060529 -0.0610558 0.251483 -0.15172 -0.110847 -0.0290813 -0.107562 -0.00988216 0.271543 -0.0154507 0.213363 0.405405 0.234568 -0.104223 0.150246 0.221657 0.265857 0.026481 0.0375983 0.0401322 -0.0493613 -0.0704577
1566 -0.0132795 0.0153055 -0.0776998 0.118777 0.111767 -0.0667102 -0.0363314 0.0370313 0.0403676 0.00247372 0.0244779 0.0600872 -0.017718 0.0461402 -0.0380854 0.0132629 -0.00150708 -0.014561 -0.0516762 0.0120662 -0.0830978 -0.0254001 -0.00909223 0.010021 -0.0503888 0.0363487 -0.0551534 -0.00710795 0.0245973 -0.000525516 0.160452 -0.106872 -0.0532102 -0.0151401 -0.0529502 0.0048746 0.15505 -0.0209999 0.117968 0.192093 0.124508 -0.0650077 0.0773876 0.102799 0.180782 0.0183567 -0.0168636 -0.0383777 0.0213074 0.0681428
2845 -0.0148948 0.0184348 -0.145333 0.197116 0.189064 -0.0958564 -0.0726469 0.0580765 0.102272 -0.010954 0.0623784 0.0955048 -0.0201974 0.0745712 -0.00310074 0.0213897 -0.0168201 -0.00670454 -0.0273239 0.00216608 -0.0884213 -0.0193961 -0.009278 -0.0173287 -0.0497016 0.0287977 -0.025496 0.0101474 0.00936004 -0.0163867 0.26831 -0.168393 -0.109089 -0.0397139 -0.103954 -0.00651672 0.266463 -0.019834 0.208748 0.409275 0.232283 -0.1001 0.168633 0.231506 0.314188 0.0281773 -0.00151628 -0.0192451 0.0111215 0.0409515
2907 -0.0118165 0.00351359 -0.12093 0.175998 0.149134 -0.0889335 -0.096036 0.0543359 0.110844 -0.0343156 0.0474098 0.103795 -0.0329393 0.0829924 0.059897 -0.0199413 -0.0397525 0.020495 0.0444314 -0.0233153 0.030321 0.0220035 0.000934188 -0.0624564 0.00741591 0.00131948 0.0497827 0.00371025 -0.0670518 -0.072092 0.247256 -0.158826 -0.0922939 -0.0325297 -0.103994 -0.0139094 0.251551 -0.0173611 0.214147 0.408501 0.237617 -0.112094 0.168843 0.234087 0.28215 0.0238937 0.0369651 0.0241753 -0.0420858 -0.0581889
1851 -0.00985977 -0.00103757 -0.0652723 0.0939033 0.0752124 -0.0362408 -0.0584433 0.0310682 0.0693125 -0.024617 0.0164449 0.0626528 -0.0235846 0.0374303 0.0573277 -0.0207324 -0.0189796 0.0332229 0.0588277 -0.0170103 0.0457753 0.0340391 0.0156217 -0.0525067 0.0221702 -0.0221454 0.0638612 -0.00665927 -0.0786895 -0.0660042 0.129559 -0.0878807 -0.051399 -0.00313868 -0.0557071 -0.00455653 0.137811 -0.011227 0.118355 0.232729 0.12292 -0.0508489 0.090805 0.138357 0.122501 -0.00174212 0.0236031 0.0385779 -0.0424929 -0.0691979
1437 -0.0169809 0.00672213 -0.137975 0.176358 0.155468 -0.0938691 -0.0421457 0.0369439 0.0666683 -0.00677026 0.0514835 0.0894527 -0.0286635 0.0539945 -0.0314017 0.0203238 -0.0316777 -0.0181465 -0.0528279 0.00551079 -0.102683 -0.0373417 -0.00650668 0.0202412 -0.0827372 0.0343528 -0.076001 0.0107689 0.0380742 -0.00466494 0.249307 -0.159833 -0.0935421 -0.0264927 -0.0840024 -0.0126702 0.246611 -0.0188175 0.218857 0.398763 0.239048 -0.108067 0.153141 0.217996 0.309159 0.0168947 -0.00281087 -0.0057539 0.0132791 0.0133646
1550 -0.0209225 0.0199927 -0.137965 0.169967 0.157415 -0.0958278 -0.0547619 0.0536893 0.0663878 -0.00744781 0.0390795 0.0932945 -0.0162969 0.0585857 -0.0238796 0.0279731 -0.0313034 -0.0108211 -0.0513004 0.0155133 -0.0863125 -0.0245032 0.00110937 -0.00498001 -0.0552993 0.0300773 -0.0334004 -0.000875275 0.0125438 -0.0383927 0.24626 -0.161303 -0.0986796 -0.034814 -0.115655 -0.0204367 0.267505 -0.0268898 0.199991 0.373745 0.226943 -0.10886 0.155794 0.217023 0.302446 0.0156875 -0.00338691 -0.00332989 0.0122742 0.0206309
2078 -0.0154545 0.0142064 -0.126777 0.17582 0.149053 -0.08884 -0.0809122 0.0421807 0.101746 -0.0152601 0.0501307 0.0939709 -0.0270516 0.0617717 0.0431774 -0.0251715 -0.0444571 0.0357996 0.0476564 -0.0228813 0.016193 0.0230749 -0.002902 -0.0588308 -0.00809255 0.0112051 0.0353223 -0.00138959 -0.0610488 -0.0562327 0.229141 -0.140287 -0.0925836 -0.0290629 -0.0982681 -0.013287 0.250238 -0.0180739 0.199372 0.380926 0.238064 -0.110798 0.147008 0.208697 0.261813 0.0195381 0.0382224 0.0423628 -0.036372 -0.0796671
2902 -0.00121279 0.00590194 -0.0787361 0.115878 0.106396 -0.0523438 -0.0671722 0.0484424 0.0985004 -0.0273954 0.0241509 0.0775643 -0.0194712 0.0456871 0.0473138 -0.00759045 -0.0193425 0.0152048 0.018077 -0.00722582 0.0100847 0.00982181 0.0114256 -0.0344773 0.0105278 -0.00852902 0.0399072 -0.00958939 -0.0633158 -0.062626 0.180896 -0.115594 -0.073539 -0.0131721 -0.0978402 -0.00284165 0.187394 -0.0132116 0.128754 0.265767 0.14711 -0.0593434 0.105621 0.137189 0.17015 0.00815744 0.0219554 0.0338471 -0.0330598 -0.0496855
959 -0.0166868 0.00298917 -0.124176 0.158167 0.165296 -0.0841013 -0.0431595 0.0507766 0.0551091 -0.00215023 0.0552848 0.0724291 -0.028942 0.0516966 -0.0471265 0.0291166 -0.0187665 -0.0264627 -0.0774789 0.0263783 -0.136338 -0.0491112 -0.0132751 0.0267881 -0.0629544 0.026116 -0.0568912 -0.00094259 0.0225067 -0.00612616 0.236215 -0.151542 -0.0877859 -0.0249144 -0.0811204 0.00128361 0.257284 -0.0290666 0.168674 0.317628 0.193657 -0.0957015 0.12627 0.173852 0.287017 0.0254467 -0.0322957 -0.0309326 0.0284912 0.0604345
2114 -0.0104641 -0.00103199 -0.0864009 0.109196 0.100182 -0.0584294 -0.0409749 0.0291539 0.0642643 -0.0111262 0.0268731 0.0544779 -0.00789021 0.0378872 -0.00727624 0.0111652 -0.00707995 -0.00340867 -0.0260842 0.00798584 -0.059396 -0.023834 -0.00746898 -0.000963383 -0.0339368 0.010045 -0.0221487 0.0100025 0.00337032 -0.0204557 0.161098 -0.112775 -0.0727703 -0.0162875 -0.059956 -0.0109051 0.173051 -0.0272601 0.127972 0.250867 0.145073 -0.0709366 0.0943339 0.137068 0.189942 0.0106809 -0.00987342 -0.00278209 0.0103222 0.0242898
1256 -0.00433353 0.0101522 -0.0967374 0.124401 0.126847 -0.07298 -0.0285392 0.0321121 0.0472635 0.00651642 0.0348613 0.0526754 -0.0171831 0.0382367 -0.0345517 0.0199286 -0.0101274 -0.0118617 -0.0637988 0.012335 -0.0902739 -0.0376946 -0.00906846 0.0162887 -0.0610721 0.0347097 -0.0508369 -0.00414328 0.0406352 -0.00302269 0.177636 -0.111982 -0.0691917 -0.0212209 -0.0631464 -0.0108861 0.17325 -0.0240917 0.137501 0.247623 0.151415 -0.0756513 0.0903428 0.133989 0.206572 0.0204378 -0.0101819 -0.027642 0.0138072 0.0544909
1283 -0.0158147 0.0178746 -0.115064 0.158193 0.141649 -0.0895491 -0.0403151 0.0306347 0.054448 -0.00858793 0.0513692 0.0696635 -0.0159996 0.0447804 -0.0314446 0.0222855 -0.017682 -0.0145942 -0.0697035 0.00215246 -0.103571 -0.03611 -0.00937609 0.0104302 -0.0541961 0.0331562 -0.039339 0.000885908 0.0225444 -0.0207447 0.226732 -0.141354 -0.0929983 -0.0167953 -0.0961011 0.00164734 0.241563 -0.0309928 0.155809 0.294785 0.1768 -0.0888414 0.117097 0.170111 0.25192 0.0134561 -0.0279055 -0.030692 0.0174875 0.0646237
2094 -0.0156679 0.00344419 -0.126989 0.186736 0.158853 -0.096385 -0.109093 0.0696786 0.141568 -0.040103 0.0505122 0.128363 -0.0332824 0.085101 0.0750693 -0.0330806 -0.054452 0.0363039 0.0736355 -0.03594 0.046992 0.0261239 0.00406173 -0.0635466 0.0177516 -0.0110927 0.081357 -0.0111851 -0.0911185 -0.0756514 0.222526 -0.152913 -0.111438 -0.0320846 -0.124152 -0.0218772 0.245318 -0.0115307 0.21372 0.409147 0.238645 -0.0996323 0.171978 0.210927 0.246088 0.0146729 0.0441848 0.0557123 -0.0529664 -0.0852653
1182 -0.0135338 0.0166076 -0.0784711 0.104924 0.111655 -0.0641834 -0.0166812 0.0257222 0.0412154 -0.00304853 0.0232955 0.0422 -0.0222755 0.0267174 -0.0497852 0.0349993 -0.00214594 -0.0214262 -0.0674969 0.0151776 -0.101333 -0.0300717 -0.011639 0.0304838 -0.0697422 0.0283423 -0.0599394 0.00525202 0.0295347 -0.00343273 0.176123 -0.0912606 -0.0636834 -0.0284383 -0.0673368 -0.00827721 0.18692 -0.0298427 0.103971 0.189948 0.103205 -0.0597609 0.084315 0.0978805 0.181911 0.0212765 -0.0261153 -0.0355014 0.0464828 0.0821475
1220 -0.0182679 0.0140969 -0.0694198 0.101164 0.0636691 -0.0332262 -0.0696526 0.0379733 0.0840566 -0.0144799 0.0324627 0.0752603 -0.0130741 0.0462555 0.0461636 -0.0300654 -0.0206453 0.0246868 0.0554509 -0.0232039 0.0483961 0.0359715 0.0134352 -0.0479156 0.0266645 -0.0162652 0.0577729 -0.00761882 -0.0615852 -0.0557926 0.10636 -0.0824569 -0.0572141 -0.00532656 -0.0664686 -1.60159e-05 0.122677 -0.00901646 0.100879 0.17811 0.108471 -0.0515358 0.0761042 0.110385 0.117787 -0.00286375 0.0427809 0.048885 -0.0432901 -0.0654666
1536 -0.00804906 -0.000169563 -0.0556407 0.0798537 0.0591721 -0.027821 -0.0586006 0.0448853 0.0845854 -0.0130171 0.0200387 0.0623153 -0.0214611 0.0390826 0.0717106 -0.0322066 -0.0282879 0.0368459 0.0774789 -0.021263 0.0884681 0.0416367 0.00417664 -0.0747804 0.0461705 -0.0251529 0.086606 -0.00146523 -0.0821207 -0.061859 0.093684 -0.0664659 -0.0435306 -0.0123918 -0.0639148 -0.0106053 0.111809 -0.0130038 0.0833665 0.1537 0.0844634 -0.0337864 0.0773211 0.0909442 0.101185 -0.00488012 0.0417056 0.0494546 -0.0610744 -0.0931447
1873 -0.010599 0.00324478 -0.108609 0.129098 0.146565 -0.0789547 -0.022868 0.0378274 0.040258 0.000493169 0.0495137 0.0564419 -0.0153594 0.0467695 -0.0806297 0.0522729 -0.0102969 -0.0350454 -0.105188 0.0334369 -0.184764 -0.0615681 -0.0274982 0.0550722 -0.0833724 0.0382153 -0.0897772 0.00561663 0.0607946 0.00313852 0.242494 -0.135494 -0.093201 -0.0306168 -0.0836033 -0.00715429 0.238572 -0.0177483 0.154101 0.281816 0.166948 -0.0800373 0.108767 0.146516 0.26121 0.0151288 -0.0504998 -0.0728958 0.0559562 0.125299
2518 -0.0131409 0.00822409 -0.132363 0.185247 0.159509 -0.0881387 -0.0706403 0.0426653 0.083465 -0.0205187 0.0369961 0.101631 -0.0179816 0.054069 0.0200158 -0.0121462 -0.0361748 0.0237298 -6.39798e-05 -0.00183854 -0.0290268 -0.00860418 -0.00494594 -0.0462582 -0.0243569 0.00379315 0.0271074 0.00144767 -0.0369752 -0.0554257 0.255198 -0.162641 -0.0993689 -0.02945 -0.124121 -0.00486744 0.289811 -0.0186837 0.216339 0.402678 0.233899 -0.116669 0.162785 0.223521 0.290966 0.0281915 0.0101758 0.0104003 -0.0157099 -0.0177315
2718 -0.0234345 0.00660653 -0.133839 0.176459 0.142087 -0.0804942 -0.0883174 0.0639925 0.122303 -0.0162444 0.047843 0.118816 -0.0275235 0.0649238 0.0400834 -0.0162095 -0.0403005 0.0200091 0.0348418 -0.0215138 0.0105075 0.0156842 0.0105224 -0.0454306 -0.00317892 0.00385728 0.0463626 0.00721371 -0.0524126 -0.0601014 0.220411 -0.138926 -0.0937906 -0.021577 -0.107364 -0.0191676 0.249537 -0.0265004 0.199803 0.374292 0.220859 -0.103635 0.141223 0.208693 0.249641 0.0197611 0.0333596 0.0399231 -0.0414126 -0.0570051
1235 -0.00464102 0.0167216 -0.0674138 0.10874 0.0846596 -0.0506083 -0.059474 0.0422008 0.0861373 -0.0176866 0.0284665 0.084337 -0.0148186 0.0482121 0.051385 -0.0245487 -0.0218488 0.0210185 0.0472692 -0.0289452 0.0445075 0.0200613 0.0120814 -0.0551033 0.0269008 -0.00701906 0.07013 -0.00651448 -0.0744813 -0.059454 0.129491 -0.0834136 -0.0562745 -0.0059411 -0.056957 0.00145057 0.158528 -0.0152619 0.116325 0.218412 0.118641 -0.0583809 0.0842713 0.11927 0.150771 0.00169191 0.0404093 0.0485984 -0.0440783 -0.084665
2019 -0.00436035 0.0150173 -0.107279 0.122192 0.130174 -0.0685755 -0.0178001 0.0306657 0.0426963 -0.00596476 0.0365313 0.0555059 -0.0240739 0.0395078 -0.0642052 0.0290828 -0.0124142 -0.0254419 -0.0807938 0.0282999 -0.143115 -0.0523045 -0.0194893 0.0413722 -0.069556 0.0391732 -0.0680883 -0.00644805 0.0269783 -0.0078045 0.210212 -0.128499 -0.0696034 -0.0144825 -0.075352 -0.0023128 0.201981 -0.0150556 0.125156 0.23634 0.139711 -0.0751307 0.0957452 0.128244 0.231808 0.0237971 -0.0492718 -0.0534605 0.0471085 0.102825
2095 -0.0125699 0.0227779 -0.143339 0.165279 0.169774 -0.090578 -0.0251765 0.037082 0.0457431 0.00770362 0.0485259 0.0599453 -0.0278627 0.0472321 -0.0615238 0.048934 -0.000714404 -0.0383704 -0.0972469 0.0255149 -0.153412 -0.061208 -0.016344 0.0374778 -0.0738083 0.0488526 -0.0702623 0.0103758 0.0288203 -0.0125833 0.27872 -0.167404 -0.0991391 -0.0262876 -0.0963254 -0.00258926 0.286163 -0.0298966 0.188191 0.322132 0.188113 -0.0911003 0.126679 0.176547 0.286821 0.0316507 -0.0571944 -0.0652783 0.0626408 0.117277
2375 -0.00930214 0.0207102 -0.121557 0.154509 0.145878 -0.0799163 -0.0363236 0.0419392 0.0505582 -0.00184987 0.0419881 0.0668076 -0.0255615 0.0492653 -0.0413495 0.0256788 -0.0100628 -0.0126738 -0.0736804 0.00983691 -0.131662 -0.0417027 -0.00461747 0.0286952 -0.0698909 0.043235 -0.0738326 -0.00207474 0.0308477 -0.0129783 0.215694 -0.141342 -0.0816277 -0.0333914 -0.0847024 0.0027595 0.226564 -0.0148969 0.137537 0.265404 0.147138 -0.0676442 0.108054 0.152962 0.240718 0.0166286 -0.0351206 -0.0453206 0.0356064 0.0662218
890 -0.0131151 0.0158615 -0.0548767 0.0757657 0.0717676 -0.0310133 -0.0335413 0.0194651 0.0370176 -0.00508879 0.0155466 0.0459203 -0.00346037 0.03191 -0.00318115 0.00135285 -0.00525325 0.00853518 -0.0112318 0.00644771 -0.0193312 0.000639988 -0.0100561 -0.00180893 -0.015324 0.0132084 0.00551275 0.00211414 -0.0224571 -0.0322412 0.115252 -0.0690165 -0.0476447 -0.00602322 -0.0549749 0.00455704 0.125594 -0.0128478 0.0596576 0.118783 0.0600201 -0.0341278 0.0522977 0.0590451 0.112179 0.0107136 -0.0122505 -0.0182032 0.00453859 0.0141172
2914 -0.0219786 0.0167903 -0.0927388 0.115769 0.0847807 -0.047134 -0.0800522 0.0431398 0.110213 -0.0247678 0.0237957 0.0834821 -0.0308506 0.0620065 0.0657051 -0.0299398 -0.030235 0.0297913 0.0709131 -0.0376937 0.0751301 0.0414568 0.0124949 -0.0664847 0.0476833 -0.0285537 0.0961158 0.00056792 -0.100864 -0.0793528 0.152976 -0.101913 -0.0829107 -0.0210636 -0.0979136 -0.0188713 0.189947 -0.0196345 0.115471 0.221772 0.126105 -0.0616656 0.0904637 0.124362 0.158189 0.013551 0.048091 0.0443727 -0.0566409 -0.0983485
1509 -0.0131647 0.0127375 -0.138894 0.175335 0.165072 -0.0879256 -0.0580789 0.0513107 0.0610886 -0.00338601 0.0475715 0.0814866 -0.0267298 0.0452549 -0.0445746 0.036971 -0.0139152 -0.015984 -0.0733746 0.00940165 -0.132788 -0.0357406 -0.0213916 0.0293163 -0.0638581 0.0360082 -0.0714171 -0.000380459 0.0372877 -0.00173977 0.249785 -0.161076 -0.103262 -0.0196961 -0.0892134 -0.00562666 0.241419 -0.0224696 0.183586 0.331969 0.202292 -0.103272 0.143526 0.188023 0.283547 0.0152392 -0.0287143 -0.0469321 0.038335 0.0677475
2174 -0.0182736 0.0198189 -0.107267 0.132196 0.144968 -0.0829739 -0.0376099 0.0349823 0.0525422 -0.00383071 0.0325727 0.0542963 -0.023125 0.0339994 -0.0719755 0.0427832 -0.00563968 -0.0437966 -0.103144 0.0313604 -0.169513 -0.0664915 -0.010953 0.0332922 -0.0965851 0.0421472 -0.0859009 0.00967956 0.061744 0.00647492 0.230435 -0.144971 -0.0874066 -0.019954 -0.0839395 -0.0105402 0.218082 -0.0224222 0.152656 0.294829 0.166103 -0.0785537 0.105622 0.155306 0.247044 0.0117552 -0.0443421 -0.0601368 0.0617786 0.111408
2627 -0.0182348 0.0124219 -0.116558 0.155483 0.138543 -0.0804924 -0.0555487 0.0447787 0.0928633 -0.00658827 0.0356823 0.0927998 -0.0273313 0.0561019 0.00155001 0.00153251 -0.0229853 -0.007895 -0.0126362 0.00813339 -0.0678108 -0.0206422 0.00799511 -0.0285412 -0.0311774 0.00990774 -0.0098411 0.00921329 -0.0120708 -0.0244371 0.220924 -0.145863 -0.101797 -0.0155616 -0.0932787 -0.0210138 0.235945 -0.0300947 0.1886 0.344037 0.207352 -0.0881408 0.150357 0.187874 0.243082 0.0132465 0.0108133 -0.00807629 -0.00494739 -0.000111538
2248 -0.0161313 0.0165864 -0.0986768 0.129115 0.116063 -0.0553014 -0.0540953 0.0366431 0.0594492 -0.00323641 0.0339051 0.061328 -0.0159058 0.0499874 0.0232209 -0.00314461 -0.0312238 0.0131644 0.000432205 -0.0103691 -0.0378195 0.000199497 -0.00910373 -0.0102662 -0.0165156 0.00164602 0.00637689 -0.00736049 -0.00331208 -0.00995573 0.17365 -0.10782 -0.0688454 -0.0206941 -0.0769077 0.0018071 0.159423 -0.0086646 0.153451 0.271212 0.149534 -0.0815337 0.104687 0.144153 0.186056 0.0144735 0.00792662 -0.0108229 0.00294849 0.0061907
167 -0.00554533 0.00794317 -0.0798092 0.104388 0.105932 -0.0640095 -0.0108277 0.0187482 0.0121872 -0.00299481 0.0352245 0.0372271 -0.00382274 0.0349301 -0.0695051 0.0380441 -0.00679916 -0.0368512 -0.088759 0.01639 -0.143109 -0.0507308 -0.0107657 0.0517523 -0.0885048 0.0464595 -0.0868937 -0.00626035 0.0552112 0.0190805 0.191217 -0.115647 -0.0687281 -0.0165809 -0.0584906 0.00143827 0.176816 -0.026354 0.121183 0.245837 0.135764 -0.0649395 0.0910528 0.126903 0.210296 0.0134761 -0.042011 -0.0439338 0.0481981 0.0926931
421 -0.00384239 0.0218124 -0.139826 0.175428 0.168214 -0.096934 -0.0484826 0.0457816 0.0693359 -0.00972399 0.049839 0.0709702 -0.0296691 0.0561408 -0.0603925 0.0383894 -0.0109868 -0.0221523 -0.0937708 0.0187287 -0.156272 -0.0598746 -0.0106856 0.0272657 -0.0912694 0.0458633 -0.0773349 -0.00695065 0.0461776 -0.00397566 0.281484 -0.171199 -0.114036 -0.0281468 -0.0908352 -0.0181042 0.274715 -0.0250895 0.174167 0.33689 0.190045 -0.0936457 0.133269 0.185737 0.278533 0.0158826 -0.0423847 -0.0667366 0.0548615 0.13758
441 -0.0181119 0.00621291 -0.0984167 0.115255 0.121702 -0.0626111 -0.038722 0.0344594 0.0456668 -4.86044e-05 0.0282807 0.0533804 -0.0183385 0.0406787 -0.0184399 0.0208592 -0.0232646 -0.0169714 -0.0336762 0.00284639 -0.0821833 -0.0347283 -0.0111549 0.00108223 -0.0395671 0.0267614 -0.0319911 0.00500339 0.0114067 -0.0195658 0.205266 -0.117387 -0.0795661 -0.0129934 -0.0712771 -0.0125184 0.195578 -0.0114555 0.165327 0.303166 0.178735 -0.0757449 0.108278 0.155294 0.217686 0.0216764 -0.016299 -0.00809723 0.0166874 0.0301236
2744 -0.00692219 0.0141122 -0.106785 0.142214 0.112225 -0.0618009 -0.0769073 0.055004 0.0956587 -0.0278475 0.0418795 0.0946906 -0.027561 0.0595051 0.0666358 -0.0306294 -0.035824 0.0238291 0.0595838 -0.0282288 0.0588929 0.0431344 0.0188995 -0.0789823 0.0442949 -0.023637 0.0918527 -0.00325965 -0.0871387 -0.0766804 0.198995 -0.125925 -0.0846144 -0.0222869 -0.113122 -0.021824 0.228088 -0.0197123 0.167902 0.324132 0.189154 -0.0929133 0.133027 0.189615 0.233501 0.0145277 0.0429998 0.0550503 -0.0583941 -0.0988612
