4001 50
1740 0.0220239 0.0414881 -0.0109015 -0.070581 -0.0202573 0.0322118 -0.0415669 0.0828669 -0.0093712 0.0190218 -0.00420305 0.00729828 0.000356127 0.0486623 -0.00472433 0.000110681 0.0109817 0.0037508 -0.0266194 -0.0725217 0.00492665 0.0130009 -0.0414464 0.0189025 0.0329241 -0.0288167 -0.0131781 -0.00111164 0.00831782 -0.0178241 -0.0725253 0.0772594 -0.0107073 0.0144999 0.0704 0.0274558 -0.0682523 -0.0587731 0.102482 -0.0100887 0.0678505 -0.00506096 0.0570931 0.0480497 0.203215 -0.0917932 0.135308 -0.0923989 0.139424 -0.177764
2431 0.00549987 0.0300004 -0.0107247 -0.115089 -0.0216369 0.0190555 -0.0172748 0.0646556 -0.00472771 0.0237187 0.0267137 0.00245367 -0.00815817 0.0306664 0.0221952 0.000853245 0.0290793 0.0109409 -0.0546498 -0.131745 0.0352162 -0.0228522 -0.0183691 0.00891545 -0.0154015 0.0100436 0.000373555 0.0108276 0.0405796 0.0308801 -0.129071 0.133852 0.00582898 0.0155623 0.0978137 0.0280253 -0.11862 -0.0944956 0.1808 -0.0246263 0.129275 -0.0143266 0.129933 0.112512 0.306348 -0.145056 0.210685 -0.137576 0.191698 -0.278465
2631 -0.0156369 -0.0123204 -0.0213938 -0.167517 0.0334179 -0.061951 0.037557 -0.027504 0.00661903 0.0235619 0.0941574 -0.0321288 -0.0417154 -0.0498593 0.0399625 -0.00804491 0.0303302 0.0169794 -0.0898316 -0.217875 0.0882539 -0.0552705 0.0365802 -0.0130292 -0.0879093 0.0955617 0.0439643 0.000948842 0.0941491 0.0649754 -0.175735 0.172375 -0.00433729 0.00846972 0.123905 0.0415407 -0.168364 -0.130072 0.251309 -0.0238873 0.177517 -0.031689 0.179439 0.161626 0.349208 -0.157527 0.232411 -0.162885 0.215385 -0.314001
1867 0.0238052 0.102974 -0.00531233 -0.156557 -0.0558292 0.0979931 -0.113138 0.197499 -0.0174965 0.0446729 -0.0105812 0.00706758 0.0192082 0.120631 -0.000563009 0.029314 0.0278409 0.0216306 -0.0652964 -0.153153 0.0296363 0.0134063 -0.0995309 0.0370903 0.053839 -0.0455199 -0.0399447 -0.00368929 -0.00219193 -0.0298155 -0.176401 0.192399 0.00267671 0.0408205 0.127679 0.040807 -0.150149 -0.13861 0.283228 -0.0472649 0.187232 -0.0373081 0.183382 0.172617 0.508224 -0.236764 0.361036 -0.23055 0.325979 -0.461249
2206 0.00631477 0.0390449 -0.00755328 -0.0953285 -0.0203368 0.030683 -0.0438207 0.0947167 0.00313889 0.0241489 0.00408524 0.00407198 0.00402474 0.0533201 0.0126785 0.0194518 0.0258433 0.0195166 -0.0480389 -0.0957183 0.0192482 -0.0013363 -0.0435782 0.020505 0.0173414 -0.0079515 -0.0124476 0.00714912 0.0192182 -0.00184676 -0.101034 0.117055 -0.00543627 0.0231828 0.0871356 0.0318508 -0.102799 -0.0847603 0.157551 -0.0170089 0.121261 -0.0213814 0.113265 0.100182 0.291536 -0.127862 0.207148 -0.138425 0.17937 -0.270542
2257 0.00599661 0.0338623 -0.00570953 -0.0815707 -0.0269369 0.035699 -0.0342727 0.0710981 -0.00441923 0.0260253 -0.00430244 -0.00372636 0.00396046 0.0300225 0.0140529 0.0121849 0.0225512 0.0169356 -0.0301978 -0.0806185 0.0260563 -0.00126519 -0.025817 0.00767381 0.0138499 -0.0124816 6.23729e-06 -0.00877764 0.0262126 0.00257697 -0.0821819 0.10552 -0.00534962 0.0157748 0.0687418 0.0182984 -0.0986111 -0.0784978 0.158002 -0.017903 0.11435 -0.0105305 0.112922 0.102917 0.277286 -0.124389 0.191651 -0.125608 0.164545 -0.234627
3823 -0.0269309 -0.0194357 -0.0248921 -0.162745 0.026818 -0.0677925 0.0497805 -0.0440841 0.0228238 0.00439301 0.0928546 -0.0189911 -0.0363587 -0.0708052 0.0464325 -0.00910568 0.0176993 0.0163651 -0.0640468 -0.187702 0.0937859 -0.0536539 0.0445327 -0.0294258 -0.118644 0.104412 0.0493409 0.0197054 0.0735631 0.052315 -0.127738 0.12963 -0.000306047 -0.00779765 0.0956442 0.0310769 -0.143301 -0.107533 0.208773 -0.0365298 0.16831 -0.0337843 0.158297 0.137933 0.280673 -0.138091 0.186278 -0.116764 0.161827 -0.234377
0 -0.0351036 -0.138609 -0.0309828 0.105826 0.252998 -0.501457 0.382317 -0.620704 0.0781064 -0.0981201 0.373747 -0.140091 -0.153824 -0.477953 0.128836 -0.0573186 -0.0301462 -0.0240013 0.0197175 0.013328 0.0637131 -0.0814733 0.166159 -0.0643657 -0.117389 0.111832 0.0762726 0.00607473 0.489776 0.448768 -0.0711724 0.0351493 -0.0137634 -0.0659714 0.104842 0.05812 -0.828301 -0.454593 0.602258 -0.0579368 0.588015 -0.144275 0.553249 0.524893 1.28734 -0.67533 0.610546 -0.451636 0.555569 -0.79935
3427 -0.0129501 -0.0225423 -0.0214642 -0.093618 0.0185602 -0.0562139 0.0273909 -0.0428922 0.0194917 -0.00103194 0.0780566 -0.02697 -0.0360661 -0.0677475 0.0273273 -0.000524761 0.0201567 0.016663 -0.0454265 -0.103348 0.0496904 -0.0411804 0.0354966 -0.00760203 -0.0679807 0.0616417 0.0319919 0.0127898 0.0770727 0.0657718 -0.0753031 0.0810836 -0.00847455 -0.00409648 0.0659616 0.0270959 -0.111838 -0.0687715 0.159695 -0.0304757 0.120986 -0.0351398 0.118853 0.117122 0.226562 -0.106449 0.124779 -0.0944757 0.119805 -0.178252
910 0.0201527 0.0345082 -0.00486772 -0.0968915 -0.0229227 0.0317319 -0.0426166 0.0685527 -0.00913349 0.0151884 0.0182825 0.00400906 0.0126036 0.0359064 0.000630996 0.017874 0.00939515 0.0174434 -0.0435541 -0.108026 0.0349647 -0.00254818 -0.04063 0.020428 0.0120596 0.00372717 -0.010859 0.00812645 0.0237445 6.88795e-05 -0.107874 0.113487 0.00567898 0.0120589 0.0917139 0.0264178 -0.0979704 -0.098755 0.156419 -0.028566 0.124253 -0.0258524 0.125775 0.107439 0.288235 -0.135168 0.197639 -0.130959 0.186636 -0.253663
3567 -0.022101 -0.0338375 -0.0146721 -0.102341 0.0257893 -0.0619059 0.0384449 -0.0432645 0.0156818 -0.00257095 0.06461 -0.0122221 -0.0272524 -0.0650557 0.0424205 0.00412874 0.00279265 0.00100622 -0.0361068 -0.117722 0.0697657 -0.0342009 0.0387857 -0.0143532 -0.0790262 0.0883327 0.0333946 0.00779497 0.0470327 0.0358601 -0.0856504 0.0786644 -0.0108268 -0.0025647 0.068336 0.0157413 -0.0897027 -0.0504917 0.122882 -0.0115472 0.0977117 -0.0117757 0.0942258 0.0747178 0.144052 -0.069062 0.101438 -0.0634752 0.0919875 -0.116398
1463 0.0212354 0.0631885 -0.0110311 -0.119341 -0.0325733 0.0397774 -0.0575869 0.0978003 -0.0109372 0.0353867 -0.003578 0.00299477 0.00463933 0.0571926 0.0114827 0.00778857 0.0143703 0.0127255 -0.0581301 -0.12228 0.023836 -0.00463633 -0.0481944 0.0261162 0.028991 -0.0162117 -0.0175325 0.00751943 0.0119013 -0.0121844 -0.124727 0.135541 0.00491132 0.0236692 0.0928138 0.0373709 -0.113535 -0.100801 0.178038 -0.0355735 0.126519 -0.0152221 0.133786 0.101177 0.336402 -0.162905 0.230063 -0.152967 0.209118 -0.286764
1524 0.0162506 0.0428569 -0.00389099 -0.12053 -0.0201228 0.0531923 -0.0627926 0.10692 0.004816 0.0383182 0.00645514 -0.000241147 0.0194192 0.0567487 -0.00122804 0.0126674 0.0212474 0.019527 -0.0422681 -0.117251 0.0315525 0.00135088 -0.0462886 0.0108724 0.0130093 -0.00364053 -0.0045484 -0.010472 0.0154689 0.0022602 -0.129297 0.132058 0.00482351 0.0093298 0.0903665 0.0350682 -0.125486 -0.107214 0.192161 -0.0363258 0.135582 -0.0293947 0.122709 0.119183 0.341686 -0.169515 0.245243 -0.165138 0.223706 -0.306423
2176 0.0195314 0.0416483 -0.0150764 -0.0713701 -0.0150833 0.0268808 -0.0316367 0.0642148 0.00190724 0.0266006 0.00379596 -0.00711588 0.00127665 0.0354626 0.0115646 0.0141337 0.0217827 0.00763134 -0.0302391 -0.0746922 0.010148 0.00587393 -0.0239077 0.00339691 0.00602269 -0.00423885 -0.0066746 -0.00366214 0.0141205 -1.04149e-05 -0.0785258 0.0903392 -0.00515818 0.00484996 0.0583973 0.0283094 -0.0777888 -0.0786932 0.133997 -0.0210943 0.0977156 -0.0173987 0.0944473 0.0735692 0.231486 -0.116101 0.163367 -0.113877 0.144214 -0.199892
3281 -0.0262209 -0.0491002 -0.0349915 -0.177965 0.0432056 -0.0700519 0.0523896 -0.0445403 0.0215045 0.00427883 0.110425 -0.019075 -0.0420145 -0.067374 0.0568387 0.00481434 0.0176709 0.0119614 -0.0740063 -0.196424 0.0997268 -0.0591254 0.0385372 -0.0208226 -0.104892 0.113206 0.0520584 0.0168802 0.0999026 0.0714491 -0.136011 0.139673 -0.00949169 0.00533175 0.111746 0.0391409 -0.17558 -0.121558 0.242541 -0.0295795 0.191386 -0.0440498 0.177896 0.1629 0.323648 -0.147293 0.201659 -0.139974 0.186156 -0.263531
355 0.0207019 0.0725577 0.00974984 -0.0540259 -0.031556 0.0830157 -0.0655425 0.117187 -0.0106588 0.0225917 -0.0309319 0.00484014 0.0204687 0.0880793 -0.00677954 0.0162013 0.0184166 0.0127726 -0.0317189 -0.0550179 0.00514319 0.0213707 -0.077265 0.0214633 0.0523021 -0.0488922 -0.0283677 -0.01589 0.00508068 -0.0191249 -0.0779801 0.0926143 7.57232e-05 0.00887532 0.0696443 0.0254771 -0.0759336 -0.0823533 0.14167 -0.0165377 0.0952841 -0.0126594 0.0872648 0.0823886 0.26989 -0.129866 0.199671 -0.133518 0.172121 -0.241786
406 0.0268639 0.0747719 0.00971322 -0.0817957 -0.0452455 0.0949891 -0.0875419 0.142551 -0.0153885 0.0371021 -0.0348368 0.0175565 0.0306478 0.111003 -0.00702987 0.00959553 0.0272982 0.0110887 -0.0333164 -0.0658 0.00940726 0.0272181 -0.0867218 0.0324563 0.0768567 -0.0501783 -0.0275429 -0.0084557 -0.00994097 -0.024906 -0.0902784 0.110069 0.000764377 0.0131593 0.0795853 0.034546 -0.0993607 -0.0842121 0.158259 -0.0256414 0.109247 -0.024458 0.101665 0.099147 0.316127 -0.142463 0.222577 -0.155201 0.194776 -0.282111
416 0.00833516 0.0617715 -0.0112825 -0.114606 -0.0369846 0.0631913 -0.0541047 0.123345 -0.00896365 0.0242053 -0.0120987 0.00790317 0.0184432 0.0759988 0.00241004 0.0209621 0.0117563 0.0179089 -0.0481587 -0.0991249 0.0109778 0.00790568 -0.063798 0.0143194 0.0382735 -0.0290797 -0.00780501 0.000904674 0.0180052 -0.0177429 -0.122616 0.131844 -0.00105835 0.0122125 0.10066 0.0268075 -0.116976 -0.102571 0.193626 -0.0308655 0.135524 -0.0253761 0.123354 0.117386 0.340121 -0.165351 0.237629 -0.145415 0.222086 -0.301444
157 0.0308444 0.0739553 -0.00819296 -0.121491 -0.0385673 0.0788388 -0.0778872 0.150523 -0.0170663 0.0390495 -0.0150046 0.00594512 0.0286382 0.1009 -0.00467653 0.0103555 0.0220542 0.0175475 -0.0460613 -0.112351 0.0220613 0.0101825 -0.0824991 0.0242213 0.0466625 -0.0381096 -0.0237011 -0.00468018 0.010378 -0.0206291 -0.138783 0.157379 -0.000814112 0.0165983 0.0998363 0.0453424 -0.124037 -0.120302 0.211477 -0.0352902 0.146995 -0.0170191 0.144523 0.111681 0.383005 -0.177633 0.265504 -0.175416 0.249802 -0.340736
305 0.0265896 0.0631869 -0.00654438 -0.0996381 -0.0336968 0.0527044 -0.0638832 0.131361 -0.00975032 0.0209941 -0.00593456 0.00201269 0.0132779 0.0795187 0.00827898 0.00786241 0.0278321 0.0193359 -0.058763 -0.117016 0.0286749 0.006097 -0.0477152 0.0172274 0.0195107 -0.0189706 -0.0150299 0.00239803 0.0199195 -0.0115857 -0.119263 0.142525 0.00105496 0.0228868 0.104784 0.0356905 -0.116413 -0.112981 0.187979 -0.030362 0.123868 -0.0235763 0.136146 0.11103 0.328455 -0.168147 0.244172 -0.156022 0.219608 -0.303758
308 0.01526 0.0738296 0.00732085 -0.0926918 -0.0347738 0.0551696 -0.0583886 0.117517 -0.0154431 0.0381941 -0.0040483 0.0100815 0.0185236 0.077632 -0.0120722 0.0104724 0.021993 0.017385 -0.0470423 -0.0966754 0.00634614 0.00853322 -0.0556555 0.0330346 0.0379553 -0.0197688 -0.0235055 -0.00613378 0.0179425 -0.0164065 -0.105134 0.109978 -0.00450978 0.0101012 0.081333 0.0205855 -0.102745 -0.0951304 0.153408 -0.0264795 0.114779 -0.0202584 0.123751 0.100752 0.308833 -0.13913 0.217673 -0.136205 0.200319 -0.276407
1506 0.0393974 0.099301 -0.00928496 -0.118904 -0.0658199 0.108104 -0.109997 0.189633 -0.0180348 0.0392938 -0.036548 0.0101302 0.02268 0.119415 -0.0128908 0.0153485 0.0274555 0.0227442 -0.0700114 -0.120565 0.0144033 0.00603187 -0.0893867 0.0431031 0.0761083 -0.0549057 -0.0420593 -0.00526336 -0.017463 -0.0273366 -0.157807 0.166927 0.000774273 0.0300962 0.119317 0.0304313 -0.135116 -0.130673 0.204751 -0.0388121 0.140574 -0.0227726 0.142217 0.110674 0.406997 -0.198642 0.298275 -0.192738 0.266911 -0.395095
2797 0.0283949 0.0733851 0.00293451 -0.124441 -0.0519998 0.0758996 -0.0688317 0.14688 -0.00710952 0.0417742 -0.0113378 0.0166823 0.0146811 0.079769 0.00590731 0.020588 0.0210626 0.0147996 -0.0495467 -0.11468 0.0128971 0.0156777 -0.0767753 0.0262305 0.0526954 -0.0232838 -0.0181879 -0.00566336 0.0100656 -0.0186965 -0.144537 0.152235 0.00763693 0.0159024 0.0982748 0.046567 -0.135893 -0.114222 0.231271 -0.042223 0.169017 -0.0281391 0.148001 0.125151 0.403139 -0.188198 0.277754 -0.177265 0.246671 -0.359118
2928 0.0267252 0.082837 -0.00717589 -0.132765 -0.0500409 0.0809177 -0.08614 0.160047 -0.0044964 0.044798 -0.00966632 0.0040675 0.0281131 0.101078 -0.0158984 0.0146102 0.0219398 0.0247436 -0.0551323 -0.132072 0.0128384 0.00955333 -0.0784056 0.0407839 0.0493326 -0.0333444 -0.0245487 -0.00252824 -0.00106087 -0.0259392 -0.144957 0.157477 -0.00210501 0.0254968 0.113514 0.0341641 -0.124756 -0.119917 0.1869 -0.0249412 0.131688 -0.00789953 0.120352 0.11009 0.390799 -0.169918 0.281409 -0.174018 0.246386 -0.350974
3465 -0.0241415 -0.047856 -0.0245202 -0.15548 0.0411358 -0.0834778 0.0601193 -0.0503477 0.0279636 0.0148339 0.108742 -0.0256876 -0.0452865 -0.0825803 0.0486184 -0.00282528 0.00709462 0.0109179 -0.0717855 -0.207687 0.104551 -0.063501 0.0536208 -0.0234824 -0.109292 0.107972 0.0488553 0.00905436 0.112664 0.0818084 -0.131077 0.135708 -0.0025098 -0.00137143 0.101663 0.0428841 -0.166446 -0.106461 0.226492 -0.0352765 0.177001 -0.0412149 0.178213 0.15728 0.299022 -0.150706 0.190763 -0.136921 0.16685 -0.251162
2103 0.0284873 0.0664513 -0.00748796 -0.0633518 -0.0325688 0.0495436 -0.0562463 0.10049 -0.0049815 0.0269743 -0.0272642 0.00448475 0.0169516 0.0714302 -0.00909677 0.0172689 0.00817636 0.0139229 -0.0235609 -0.0541636 0.00198432 0.0226245 -0.0627628 0.0220516 0.0472706 -0.0445172 -0.0327841 0.00522442 -0.00679726 -0.0083764 -0.0887854 0.0856684 0.00477412 0.0127459 0.0696252 0.0261739 -0.0816873 -0.0741916 0.11166 -0.0166943 0.0805548 -0.00197976 0.0841598 0.071335 0.239399 -0.121443 0.1742 -0.114572 0.149144 -0.212918
2586 -0.0209176 -0.0275141 -0.025229 -0.088358 0.0221889 -0.0480111 0.0447514 -0.0436057 0.0147206 -0.000752649 0.0694671 -0.0133714 -0.0344021 -0.0677854 0.0389586 -0.00285635 0.00277189 0.00417721 -0.0302515 -0.107031 0.05229 -0.0354329 0.0329674 -0.00666087 -0.0804718 0.0699144 0.0366348 0.007974 0.0600364 0.0519169 -0.0579727 0.0647663 2.669e-05 0.00125322 0.0625286 0.016065 -0.101283 -0.0569751 0.123875 -0.00700032 0.110085 -0.014161 0.0963421 0.0928794 0.166904 -0.0775611 0.0877336 -0.0618784 0.0761664 -0.114958
1799 0.0365532 0.0568235 0.00507268 -0.0476781 -0.037677 0.0662009 -0.0590746 0.125725 -0.0210804 0.0143093 -0.0292632 0.0180838 0.0145056 0.0858645 -0.00674769 0.0207825 0.0224934 0.0014185 -0.0245462 -0.0346073 0.000236701 0.0166158 -0.0612432 0.0217227 0.0587812 -0.0469916 -0.0363518 -0.0018689 -0.00373889 -0.0224168 -0.0782576 0.0873423 0.00838049 0.0106327 0.0569992 0.00907494 -0.0658201 -0.0527721 0.0932045 -0.021168 0.0580606 -0.00246238 0.0678568 0.0651508 0.22331 -0.104134 0.148842 -0.103764 0.149368 -0.205826
1802 0.0349674 0.0860361 0.0094555 -0.0652361 -0.0673117 0.113654 -0.0987782 0.164694 -0.0157513 0.027227 -0.0404564 0.0147626 0.0329014 0.136627 -0.0173252 0.0138316 0.0243138 0.0193138 -0.0244481 -0.0566781 -0.00582749 0.0239365 -0.093827 0.0426988 0.0876061 -0.0855113 -0.052355 -0.0165631 -0.0353197 -0.0424971 -0.0918838 0.102974 -0.00883345 0.0314805 0.069087 0.0296561 -0.0548945 -0.0731626 0.122256 -0.015927 0.0757182 -0.0123762 0.0668883 0.0605515 0.282067 -0.127066 0.216358 -0.130932 0.186478 -0.259013
2347 0.0186193 0.0501404 -0.00752525 -0.0742293 -0.0411853 0.063704 -0.0597352 0.114453 -0.0028195 0.0182942 -0.0200175 0.0189854 0.0171687 0.0634594 -0.00496461 0.00759273 0.0133874 0.00646333 -0.0302803 -0.057626 0.00888292 0.0147194 -0.0581983 0.0213592 0.0485884 -0.0258274 -0.0149632 0.00478461 0.000895086 0.00286575 -0.0974103 0.105415 0.00245594 0.0174744 0.0772719 0.0225369 -0.104066 -0.0791482 0.138416 -0.0204735 0.0988233 -0.012769 0.100236 0.0837032 0.276384 -0.121254 0.189507 -0.12141 0.181288 -0.243859
3526 -0.0332609 -0.0382346 -0.034515 -0.172519 0.0429651 -0.0768276 0.049769 -0.0587773 0.0254676 0.00581313 0.107704 -0.0234651 -0.0500011 -0.078062 0.0603667 -0.000507061 0.0124985 0.0240253 -0.0856997 -0.224081 0.10966 -0.0534409 0.0517091 -0.0279613 -0.1204 0.108965 0.0566757 0.00743638 0.119417 0.0973043 -0.149327 0.160094 -0.0112859 0.00128006 0.132349 0.048197 -0.195098 -0.136611 0.25105 -0.0426038 0.208383 -0.0313279 0.18603 0.172217 0.354091 -0.187035 0.230611 -0.166987 0.19947 -0.290273
2482 -0.0284382 -0.0293345 -0.00931849 -0.0642955 0.034551 -0.0677115 0.0361371 -0.0609007 0.00511634 0.00584652 0.0684373 -0.0100555 -0.0338585 -0.0762342 0.0201457 -0.0118707 0.00604964 0.014071 -0.0266962 -0.0793821 0.0406643 -0.0381317 0.0415856 -0.0198038 -0.0801762 0.0728944 0.0340734 0.0114239 0.0622621 0.040817 -0.0536123 0.0571399 0.000713363 -0.00328252 0.037846 0.0156627 -0.077346 -0.0472761 0.101862 -0.016848 0.0715039 -0.0164934 0.0820256 0.0701822 0.0988217 -0.0524888 0.0632979 -0.0385247 0.0621854 -0.0851342
759 0.0413141 0.0915654 0.00781763 -0.0367652 -0.0483558 0.0994161 -0.0885526 0.160325 -0.0139722 0.0224643 -0.045254 0.0259951 0.0353157 0.111135 -0.0211507 0.0132233 0.01437 0.0193017 -0.0224317 -0.0244297 -0.00723102 0.0333598 -0.0957885 0.0273354 0.0800129 -0.0739815 -0.038817 -0.00105484 -0.0321427 -0.0476356 -0.0663687 0.0901734 0.00382975 0.0210376 0.0527054 0.0125115 -0.0588447 -0.0692459 0.115962 -0.0219315 0.0789859 -0.0107677 0.0829815 0.0578027 0.237253 -0.107485 0.186357 -0.12094 0.167901 -0.235042
1337 0.0249925 0.0769714 0.000412517 -0.112798 -0.039547 0.0909393 -0.0937194 0.166975 -0.00334058 0.043288 -0.00720739 0.00896573 0.0244101 0.110602 -0.00739869 0.0170543 0.0172789 0.0306209 -0.0562663 -0.125572 0.0320676 0.0060184 -0.0826834 0.0283906 0.0472979 -0.0371174 -0.0189153 -0.011605 0.00517454 -0.00880735 -0.150919 0.145507 0.00699185 0.026762 0.113367 0.0462813 -0.119067 -0.128387 0.201664 -0.0351823 0.147344 -0.0301821 0.132334 0.122664 0.400948 -0.189707 0.271633 -0.179127 0.255015 -0.359871
2355 0.00498252 0.0375855 -0.00363782 -0.104066 -0.0122963 0.0228877 -0.0338159 0.0621061 -0.005825 0.023186 0.0237963 -0.00885766 -0.00630258 0.0234204 0.0113625 0.0116547 0.0225077 0.0249967 -0.0409408 -0.102075 0.0373448 -0.0152659 -0.0385223 0.0146968 -0.00369477 0.00968046 0.0083392 -0.00896061 0.0266516 0.0180206 -0.11353 0.121387 0.00432785 0.019384 0.0867052 0.0281645 -0.117426 -0.080713 0.175524 -0.0306461 0.119347 -0.0226356 0.121219 0.117626 0.303897 -0.137314 0.194227 -0.12994 0.171952 -0.25626
474 0.0335268 0.0923593 0.00145022 -0.0543642 -0.0656896 0.10298 -0.0953706 0.148802 -0.00539038 0.0226032 -0.0464244 0.0170564 0.0372222 0.125159 -0.0221946 0.0191778 0.0241124 0.017964 -0.0293336 -0.0491173 -0.0122018 0.0335934 -0.09715 0.0287576 0.0911624 -0.0815851 -0.0397073 -0.00145365 -0.0221802 -0.03402 -0.0838852 0.0932435 0.000813244 0.0224965 0.0660899 0.0164081 -0.062867 -0.061148 0.104523 -0.0278345 0.0764775 -0.0136915 0.0737586 0.0566815 0.267661 -0.115029 0.188354 -0.116808 0.182965 -0.239671
482 0.0159755 0.067519 0.00673202 -0.08303 -0.0305176 0.0691601 -0.063067 0.123262 -0.010797 0.0287274 -0.0128203 0.0041928 0.0248617 0.0857594 -0.0125388 0.0176491 0.0174987 0.0110233 -0.0334456 -0.0858557 0.00711153 0.0155595 -0.0579083 0.0322152 0.0469705 -0.0348471 -0.0196069 -0.00495786 0.00079108 -0.0188317 -0.0983316 0.0998413 0.00177902 0.0129169 0.0806554 0.034121 -0.082044 -0.0948589 0.162676 -0.0314947 0.116178 -0.0237006 0.110739 0.0921356 0.287727 -0.141032 0.209942 -0.139042 0.184677 -0.26627
488 0.0207605 0.0632981 0.000470151 -0.133227 -0.0416609 0.0619118 -0.0690359 0.121805 -0.00163007 0.0317723 0.0114483 -0.000211075 0.00681459 0.0757121 0.012296 0.0165812 0.0261994 0.0301259 -0.0545555 -0.136445 0.0365882 -0.00225348 -0.0597478 0.0220924 0.0304513 -0.0277602 -0.00737186 -0.00180465 0.0218607 0.00346042 -0.15244 0.149369 0.00591491 0.0153915 0.117958 0.0294796 -0.133515 -0.121331 0.200862 -0.0233601 0.148759 -0.0157132 0.132718 0.121315 0.389236 -0.182418 0.271382 -0.164907 0.249456 -0.350577
3225 0.0114857 0.0130377 -0.0117205 -0.0850012 -0.00196416 0.0145874 -0.0192419 0.0358969 -0.00621828 0.0257378 0.0231365 -0.00850102 0.00119005 0.00780999 0.00898445 0.00977508 0.0179577 0.0163381 -0.0485729 -0.0925569 0.0261109 -0.00849881 -0.0104007 0.0129042 -0.0139311 0.0136261 0.00905154 0.0100748 0.0451324 0.0158945 -0.100776 0.0957534 0.00224869 0.0087827 0.0812786 0.0347599 -0.097965 -0.0856636 0.137781 -0.0254915 0.105671 -0.00924646 0.108861 0.0817962 0.230753 -0.11722 0.150815 -0.103001 0.143938 -0.212842
3258 -0.0282075 -0.033996 -0.0303914 -0.127995 0.0436092 -0.0761804 0.0570082 -0.0561987 0.0224172 0.000989971 0.108357 -0.0180983 -0.0363371 -0.0918136 0.0429874 -0.00321049 0.0165517 0.00800732 -0.0484463 -0.15857 0.0767108 -0.0451644 0.0444237 -0.0189899 -0.0946668 0.0982497 0.0464916 0.016467 0.105538 0.0838717 -0.111006 0.107763 -0.0127534 -0.00282105 0.0785259 0.024611 -0.143474 -0.0897275 0.194212 -0.0281759 0.137802 -0.0368501 0.147241 0.121965 0.250879 -0.132506 0.141591 -0.100854 0.134675 -0.184617
2267 0.00893376 0.0497421 -0.00373659 -0.104914 -0.0175585 0.0400247 -0.057174 0.0857608 -0.00631383 0.0255598 -0.00428639 0.000396711 -0.00443135 0.043184 0.0147055 0.01397 0.0289812 0.0222288 -0.0506621 -0.096179 0.0194776 -0.0136499 -0.04825 0.00966587 0.0276278 -0.0170019 -0.00683702 0.0016218 0.0331917 -0.000125795 -0.108825 0.126996 0.00583184 0.00506313 0.0973577 0.0284686 -0.112436 -0.0957633 0.181647 -0.0316913 0.125377 -0.0265069 0.135196 0.11222 0.313195 -0.14627 0.208505 -0.134714 0.201173 -0.28107
3981 -0.0167008 -0.017084 -0.0263252 -0.157548 0.0176957 -0.0480292 0.0348319 -0.0238735 0.0123707 0.0177244 0.0874225 -0.0240878 -0.0283753 -0.0663081 0.0576333 -0.00793622 0.0152233 0.0278162 -0.0645441 -0.198717 0.0845707 -0.0489078 0.0360553 -0.0205605 -0.109695 0.0994006 0.0452803 0.0190062 0.092391 0.0686183 -0.138669 0.160384 0.00386059 -0.00216009 0.126238 0.0466193 -0.160864 -0.126811 0.251355 -0.0252226 0.178604 -0.0293405 0.16927 0.164831 0.347252 -0.157833 0.213468 -0.140915 0.205346 -0.283504
2682 0.0167468 0.0540253 0.00252381 -0.0514919 -0.0174431 0.0446722 -0.0559346 0.0794824 -0.0121106 0.0137056 -0.0145598 0.00493442 0.0142366 0.0551472 -0.00643104 0.0016491 0.0151878 0.00366031 -0.0254036 -0.0613971 0.0137471 -0.00302223 -0.0387256 0.0161071 0.0345478 -0.0264273 -0.0177298 -0.00710543 0.0120382 -0.00560328 -0.0890826 0.0947922 0.00409301 0.0202592 0.0533269 0.0254549 -0.0707369 -0.0751356 0.125772 -0.0271906 0.0908454 -0.0137942 0.0800315 0.0819767 0.221203 -0.0985776 0.152819 -0.10642 0.131392 -0.19914
2929 -0.0343294 -0.0396965 -0.0163897 -0.138806 0.0467395 -0.0837186 0.0508169 -0.0639846 0.0154918 0.00177892 0.107825 -0.037723 -0.0324316 -0.0927044 0.0412891 -0.0186557 0.0119826 0.00588855 -0.0620652 -0.157167 0.0744504 -0.0411497 0.043236 -0.0250138 -0.0944112 0.0946825 0.0520908 0.00555728 0.10991 0.0844884 -0.0997638 0.10529 -0.0119906 -0.0047246 0.0952295 0.0390789 -0.14171 -0.0810752 0.174167 -0.0184739 0.145558 -0.032414 0.130261 0.117167 0.229015 -0.10497 0.145455 -0.109666 0.13479 -0.200844
1899 0.0214824 0.055721 0.00509439 -0.049041 -0.0276167 0.0556675 -0.051775 0.100753 -0.00472067 0.0272194 -0.0175921 0.0207175 0.0263501 0.0750277 -0.0150511 0.0163194 0.0128388 0.0127904 -0.0264197 -0.0382738 -0.00440996 0.00691278 -0.0538402 0.0175213 0.0551213 -0.0425714 -0.032139 0.00150023 0.00271215 -0.0138494 -0.0766883 0.0861581 -0.00927781 0.00798452 0.056931 0.0168778 -0.0831183 -0.0811468 0.130847 -0.0172144 0.0851976 -0.0074154 0.0887983 0.0823594 0.246103 -0.114143 0.165002 -0.105399 0.154858 -0.214151
1917 0.0300018 0.0732057 0.0124208 -0.035715 -0.037904 0.0934438 -0.0735648 0.116144 -0.00380289 0.0169655 -0.0362181 0.0270937 0.034735 0.104222 -0.0271338 0.00941673 0.0117491 0.0128118 -0.0157462 -0.0224799 -0.0133564 0.0253046 -0.0696119 0.0280781 0.0687171 -0.0790933 -0.0350252 -0.0100554 -0.0127185 -0.0218576 -0.0651442 0.0591831 0.00415041 0.00965542 0.052754 0.0161451 -0.0540006 -0.0583678 0.0794888 -0.00715962 0.0673167 -0.01369 0.0592116 0.0389194 0.197708 -0.0852747 0.16002 -0.0982264 0.150694 -0.198844
3847 -0.026353 -0.034874 -0.0234296 -0.124196 0.0259655 -0.0521727 0.036868 -0.0421872 0.0114066 0.0142692 0.0966254 -0.0331779 -0.0296862 -0.0753866 0.0340598 -0.00925484 0.00505325 0.0211398 -0.0435293 -0.145094 0.0695809 -0.0523398 0.0333556 -0.0207503 -0.0729335 0.0792571 0.0285323 0.0100156 0.0732816 0.0432855 -0.10635 0.0937913 -0.0141009 -0.00420794 0.0805635 0.0379546 -0.109092 -0.0771409 0.180782 -0.0192375 0.137726 -0.0246313 0.138381 0.130959 0.236624 -0.111305 0.143566 -0.0991256 0.124403 -0.19443
1238 0.0149156 0.0571147 -0.00655784 -0.0774091 -0.0380133 0.04804 -0.0695323 0.11329 -0.00716972 0.0279752 -0.00843531 0.0156784 0.0152049 0.0776788 0.00348994 0.0175283 0.0220843 0.00848455 -0.0424991 -0.0835544 0.0215335 0.00470653 -0.056324 0.0240002 0.0351779 -0.0199795 -0.0180123 0.00183494 0.0175227 -0.00535043 -0.115499 0.110377 0.00102988 0.0127008 0.0850059 0.0199923 -0.118519 -0.0951968 0.16968 -0.0221517 0.131156 -0.0193874 0.129346 0.11582 0.310372 -0.152451 0.211067 -0.149422 0.199989 -0.284461
3473 -0.0137715 -0.0342144 -0.0129627 -0.110341 0.0367273 -0.0624273 0.0477796 -0.0677634 0.0162146 0.00259646 0.0799231 -0.0286241 -0.0366577 -0.0748924 0.0373578 -0.00864542 0.0195674 0.0179218 -0.0365849 -0.117953 0.0628714 -0.0464722 0.0385626 -0.0180611 -0.101707 0.09962 0.0378765 0.00522789 0.0727961 0.0504925 -0.0882397 0.0929303 -0.00181743 0.00231374 0.0668838 0.0315167 -0.109639 -0.0688322 0.14634 -0.0149087 0.11864 -0.0210966 0.117162 0.0925062 0.186417 -0.0804967 0.117572 -0.0801171 0.101687 -0.132211
2989 -0.000858557 0.0306897 -0.00144101 -0.0983559 -0.0276077 0.0219963 -0.0425442 0.0797009 -0.00525697 0.0308277 0.0191153 0.0103616 0.00957754 0.034862 0.0106633 0.0143969 0.0121817 0.0100994 -0.0463749 -0.112433 0.0159699 -0.0110754 -0.0283569 0.0177712 0.0193441 -0.011965 -0.00543248 -0.00357182 0.0378801 0.0180651 -0.107366 0.117937 0.00550276 0.00907512 0.0822872 0.0259803 -0.0970738 -0.0853205 0.159307 -0.0184275 0.119492 -0.0259841 0.116159 0.0963644 0.287477 -0.138687 0.183049 -0.120839 0.182945 -0.25617
3055 -0.0318198 -0.0620238 -0.0306917 -0.189404 0.0606519 -0.102495 0.0859249 -0.104818 0.0260428 0.00586251 0.131207 -0.0469577 -0.061491 -0.129325 0.0629167 -0.015585 0.0150359 0.0126968 -0.0789299 -0.227934 0.114211 -0.0784065 0.0759918 -0.0243294 -0.146191 0.135641 0.0630151 0.0207031 0.126719 0.0980961 -0.138888 0.151583 -0.0181015 -0.00429479 0.115713 0.0535972 -0.160864 -0.108752 0.229639 -0.0235516 0.181327 -0.0385367 0.171097 0.150502 0.286809 -0.151752 0.174077 -0.118356 0.172196 -0.230395
2678 -0.0184751 -0.0294667 -0.0251612 -0.139676 0.031597 -0.0703472 0.0556996 -0.0565781 0.0136633 0.0112632 0.0902796 -0.0235469 -0.0365681 -0.0898654 0.0495084 0.00152699 0.0219091 0.0166313 -0.0672837 -0.181272 0.0905818 -0.0630979 0.0458155 -0.0179769 -0.104627 0.100826 0.038836 0.00962087 0.0791533 0.0540387 -0.12243 0.109859 -0.0129222 0.00705235 0.0955547 0.03546 -0.129243 -0.0907345 0.158905 -0.0277133 0.130524 -0.0277862 0.121478 0.108839 0.229208 -0.1037 0.134138 -0.101306 0.129497 -0.180019
1696 0.014555 0.0506154 -0.000470842 -0.0939255 -0.0173462 0.0440857 -0.0353156 0.087041 -0.0136794 0.0264496 0.00911421 0.00838309 0.0028599 0.0386708 0.00146915 -0.000455212 0.0109987 0.00531388 -0.046851 -0.0698456 0.0198115 0.0105172 -0.0514886 0.0179373 0.0113737 -0.0128763 -0.00331417 -0.00189029 0.00517431 -0.0121411 -0.0977443 0.10189 0.00224715 0.0197023 0.0733909 0.0306138 -0.0952154 -0.0862607 0.17046 -0.0191401 0.115475 -0.0193373 0.120397 0.102919 0.279222 -0.132523 0.19538 -0.118021 0.17684 -0.253042
3268 -0.00956976 -0.0170395 -0.0270093 -0.144889 0.0111741 -0.0452844 0.024877 -0.0161499 0.0156753 0.0243441 0.0721783 -0.0203147 -0.0403309 -0.0612795 0.0384415 -0.00407055 0.0248945 0.00817795 -0.0512612 -0.160539 0.0743207 -0.0434177 0.0232341 -0.0122379 -0.08149 0.0754558 0.043206 0.000574676 0.0935247 0.0686121 -0.127546 0.135652 0.000438873 0.0032311 0.0972781 0.0304139 -0.163201 -0.114587 0.212062 -0.0377642 0.153103 -0.0323946 0.148008 0.137351 0.298039 -0.14603 0.188709 -0.138327 0.172502 -0.252112
3926 -0.0251178 -0.0293996 -0.0259978 -0.226926 0.0325621 -0.0488717 0.0455137 -0.0193913 0.0131819 0.0177672 0.121041 -0.0413437 -0.0455782 -0.0774191 0.0628544 -0.0111932 0.0356642 0.0196387 -0.0997491 -0.250565 0.106318 -0.0574564 0.0418075 -0.0127701 -0.112181 0.112198 0.0507669 0.00774099 0.108493 0.0709522 -0.201978 0.195841 -0.0141849 0.00878659 0.146316 0.0560036 -0.200846 -0.155188 0.278985 -0.0468878 0.219717 -0.0342811 0.2076 0.183032 0.425341 -0.211239 0.27175 -0.175802 0.247362 -0.357928
3915 -0.0273457 -0.0279662 -0.0142594 -0.092568 0.0178746 -0.0421019 0.0362912 -0.0295841 0.0122149 -0.000904219 0.0647933 -0.0223098 -0.0289182 -0.058919 0.0265094 0.00386377 0.00413913 0.0149726 -0.0490274 -0.125719 0.061956 -0.0313818 0.0423817 -0.0178014 -0.073766 0.0773734 0.0421415 -0.000987021 0.0507397 0.0497697 -0.0818764 0.0817906 -0.0133248 0.00272753 0.0564194 0.0161317 -0.0737793 -0.0465057 0.11859 -0.0193831 0.0941868 -0.0254702 0.072697 0.068487 0.151229 -0.0691435 0.094094 -0.0732191 0.094536 -0.122517
1419 0.0270551 0.0777835 0.000513717 -0.0723918 -0.0399854 0.0784732 -0.0787655 0.139752 -0.013398 0.0369924 -0.0304875 0.0145266 0.0188311 0.103766 -0.00506976 0.0135729 0.0235052 0.0151162 -0.0394159 -0.0615227 -0.00913301 0.0213625 -0.0619482 0.0344461 0.0631815 -0.0507031 -0.0308226 -0.00699651 -0.00980558 -0.028743 -0.0878163 0.094882 -3.15484e-05 0.0281911 0.0732313 0.0137362 -0.0838822 -0.0826701 0.132764 -0.0225543 0.101392 -0.0181162 0.0939897 0.0749407 0.275308 -0.131701 0.207506 -0.129636 0.172263 -0.246828
1831 0.0299743 0.0741835 -0.00304026 -0.0750368 -0.0490831 0.0872622 -0.0797593 0.14815 -0.0103789 0.0263631 -0.031648 0.0264841 0.031006 0.094724 -0.0046317 0.021384 0.01528 0.0179951 -0.0343414 -0.0538051 -0.00384683 0.0233878 -0.0630177 0.0239744 0.0527075 -0.0449971 -0.0327356 -0.00178139 -0.0116307 -0.0315498 -0.0913007 0.118711 0.00569573 0.0198326 0.0760332 0.0270538 -0.0864637 -0.0902724 0.150541 -0.0308792 0.109196 -0.0101189 0.109501 0.0878675 0.305209 -0.140785 0.218196 -0.133415 0.181045 -0.267448
2440 0.00799323 0.05639 0.00166107 -0.107131 -0.0197205 0.0418415 -0.061445 0.113256 -0.0112658 0.0330476 0.0150869 -0.00129073 0.0160421 0.0503314 -0.00385144 0.0059841 0.0208439 0.0245123 -0.0521198 -0.12673 0.0215448 0.0027014 -0.05576 0.0187922 0.0251494 -0.000121714 -0.0154593 0.00513107 0.00539783 -0.00613323 -0.134392 0.140659 0.00568989 0.013747 0.10836 0.0335508 -0.121219 -0.101499 0.190162 -0.0216383 0.125231 -0.0294472 0.136875 0.119925 0.322156 -0.161263 0.231237 -0.15874 0.202811 -0.287103
3361 -0.0292935 -0.0518683 -0.0323065 -0.15019 0.0493588 -0.0756044 0.060446 -0.0730311 0.0169707 -0.000100166 0.115374 -0.0350015 -0.0514365 -0.0878903 0.057606 -0.016249 0.00606655 0.0061516 -0.0674156 -0.17929 0.0824973 -0.063149 0.0532189 -0.02416 -0.116468 0.112862 0.0467127 0.000982693 0.0983279 0.0721528 -0.123303 0.113846 -0.0139755 -0.00931939 0.0965308 0.0335918 -0.151982 -0.0922275 0.200913 -0.0209129 0.149354 -0.035285 0.152081 0.126205 0.25173 -0.130325 0.15536 -0.099045 0.143516 -0.193484
327 0.0220854 0.0678509 0.00798062 -0.0738596 -0.0504642 0.0693656 -0.0800164 0.120571 -0.0158381 0.0242696 -0.0304321 0.0140141 0.0113991 0.0846617 -0.00528243 0.01553 0.0243883 0.0120105 -0.0429387 -0.0724454 -0.00199307 0.0196336 -0.0682817 0.0223652 0.0491423 -0.0388985 -0.0246799 -0.00194515 -0.00152033 -0.0201639 -0.0874432 0.0946656 0.00861955 0.0165102 0.0806236 0.0311128 -0.0674533 -0.0856059 0.119272 -0.0276479 0.098814 -0.00567003 0.0924364 0.0735958 0.262718 -0.11135 0.181733 -0.13042 0.172043 -0.24193
334 0.0202168 0.0619969 0.00437007 -0.0911728 -0.0457887 0.0742271 -0.0670894 0.118612 -0.00913656 0.0376486 -0.0103716 0.00391344 0.0150781 0.0731678 -0.00867408 0.0242572 0.0235716 0.0194505 -0.0511051 -0.0993916 0.0250909 -0.00230899 -0.0564467 0.0322552 0.0353802 -0.0406707 -0.0183753 0.000882769 0.00613118 -0.000232177 -0.119928 0.140689 0.00590095 0.0173913 0.0983815 0.0246327 -0.130958 -0.113162 0.221098 -0.0279322 0.153978 -0.0289163 0.14818 0.138331 0.384312 -0.170052 0.264857 -0.180249 0.23065 -0.333757
552 0.00408917 0.0350897 -0.017442 -0.128155 -0.0254529 0.0354989 -0.0474274 0.098124 0.00321724 0.0214502 0.00431739 -3.08846e-05 -0.00105732 0.0496781 0.000786536 0.0110009 0.0295982 0.0274057 -0.0396977 -0.107439 0.0227933 -0.00591229 -0.0449124 0.018535 0.0202874 -0.0043471 -0.0166756 -0.00336487 0.012476 -0.0164942 -0.1124 0.132973 -0.00401661 0.00842999 0.0868917 0.0275618 -0.103261 -0.0901169 0.178772 -0.0274562 0.136154 -0.0255611 0.120624 0.107628 0.322207 -0.154017 0.216323 -0.148917 0.197145 -0.29801
1126 0.00952568 0.043913 -0.0149236 -0.0851118 -0.0214135 0.0284892 -0.0500604 0.0742698 -0.00610908 0.0139391 0.0058694 0.00351695 0.00893281 0.0348874 0.0117463 0.00327329 0.0111966 0.00898864 -0.035599 -0.11132 0.0226837 0.000811668 -0.0283405 0.00704805 -0.00696438 -0.00441031 -0.00247844 0.00795073 0.03206 0.0118885 -0.10495 0.11849 0.000735309 0.00498521 0.0859412 0.0363456 -0.113266 -0.0951031 0.178857 -0.0198907 0.136196 -0.0238178 0.133044 0.104233 0.296689 -0.145957 0.204825 -0.136418 0.18284 -0.255479
1144 0.00724221 0.0497796 -0.0139658 -0.0794193 -0.0332388 0.0330507 -0.0594943 0.0883539 -0.0145012 0.0165061 -0.00393656 -3.23387e-05 -0.000706297 0.0610944 0.00195801 0.0125013 0.0238341 0.0210805 -0.0490969 -0.0807385 0.0207923 -0.00296126 -0.0516402 0.0107367 0.0205212 -0.0107151 -0.00591331 -0.000889595 0.0182925 -0.00277554 -0.104797 0.10214 0.00612304 0.0135636 0.0815598 0.0257529 -0.100089 -0.0821051 0.170288 -0.0273693 0.12343 -0.0230022 0.105544 0.0972491 0.283376 -0.135603 0.196639 -0.134504 0.18678 -0.24542
2213 0.011744 0.0513582 -0.00389091 -0.0626356 -0.0316968 0.0568487 -0.0552151 0.120963 -0.00248092 0.0185642 -0.0312296 0.0125403 0.0122079 0.0754412 -0.00797327 0.00512621 0.0137112 0.00994877 -0.021812 -0.0623887 0.00696724 0.00400639 -0.0600415 0.0313475 0.0396522 -0.041964 -0.0227651 -0.00281258 -0.00329441 -0.00260372 -0.0864827 0.0777218 -0.00176248 0.0188265 0.0721968 0.0206484 -0.0934943 -0.0872393 0.143277 -0.0125118 0.103429 -0.0234628 0.102024 0.0866731 0.261611 -0.121821 0.173773 -0.115543 0.172031 -0.237705
1399 -0.0268019 -0.0456409 -0.014927 -0.126367 0.0526614 -0.0967911 0.0588303 -0.0906996 0.029953 0.00700347 0.104604 -0.0251359 -0.0452963 -0.106366 0.0531668 -0.0146034 0.00582919 0.0192551 -0.0505147 -0.15737 0.0769644 -0.0495658 0.0626512 -0.0171908 -0.122755 0.103173 0.0424028 0.00358456 0.08236 0.0666485 -0.0976815 0.0902967 -0.00536234 0.00520355 0.0662 0.0260491 -0.102043 -0.0609963 0.161168 -0.0201265 0.128567 -0.0246253 0.114001 0.108304 0.183219 -0.0947481 0.110107 -0.0759731 0.0990899 -0.144519
2392 0.0266911 0.0452048 -0.0155055 -0.109304 -0.0298267 0.0365177 -0.0466178 0.0972913 -0.0106689 0.0356698 0.0131088 0.00466785 0.00156707 0.0623611 0.00894584 0.00332659 0.0117281 0.0279959 -0.0654607 -0.131838 0.0401775 -0.00423847 -0.0514715 0.0261716 0.0259333 -0.00830776 -0.0199218 0.00397297 0.027719 0.00589081 -0.116457 0.134467 0.00691373 0.0112052 0.0969844 0.0403212 -0.1105 -0.0961636 0.17883 -0.0224548 0.124726 -0.0148301 0.121195 0.101485 0.306153 -0.139439 0.2098 -0.140748 0.194695 -0.2841
3978 -0.018254 -0.0304822 -0.0252692 -0.104258 0.034978 -0.0481117 0.0440656 -0.0418861 0.0181021 -0.000615602 0.0736509 -0.0165399 -0.0318264 -0.0602058 0.0393713 -0.0150291 0.00686348 0.00938699 -0.0380079 -0.121265 0.0468287 -0.0426011 0.0305827 -0.00987525 -0.0740188 0.078409 0.030823 -0.00265228 0.0632128 0.0542272 -0.0749899 0.0826822 0.000353179 0.00821602 0.0693667 0.0229065 -0.100532 -0.0737611 0.154112 -0.0189303 0.109421 -0.0263301 0.111083 0.0857064 0.19976 -0.102667 0.105901 -0.0785461 0.111627 -0.148925
1005 0.0213987 0.0761296 -0.00604633 -0.0627907 -0.0365616 0.069885 -0.0787735 0.136903 -0.00421137 0.0282889 -0.034816 0.0078544 0.0169548 0.106461 -0.0117531 0.0226574 0.0150879 0.0120834 -0.0260726 -0.0544424 0.00188277 0.0103485 -0.072718 0.0390495 0.0683304 -0.0529475 -0.0336432 -0.00760483 -0.0114611 -0.0303497 -0.0842458 0.0898533 -0.00210974 0.0217336 0.0617397 0.0281256 -0.0750249 -0.0717406 0.139447 -0.0237947 0.0916961 -0.0133296 0.0872047 0.0873448 0.276933 -0.127798 0.184827 -0.126451 0.180663 -0.244998
2402 0.0236658 0.0691759 0.00690919 -0.077796 -0.0353531 0.0803882 -0.071926 0.12917 -0.0193656 0.0257825 -0.0171559 0.0172201 0.0257467 0.0796124 -0.0074021 0.0136107 0.0207319 0.0193486 -0.0532273 -0.11561 0.0129748 0.00120757 -0.0607824 0.0263734 0.0434612 -0.045166 -0.0321346 -0.00479974 -0.0155773 -0.022765 -0.10766 0.130627 0.00153673 0.0230604 0.0768906 0.0370377 -0.0865177 -0.0859934 0.135453 -0.0167642 0.0940814 -0.0104838 0.0939836 0.0752042 0.296499 -0.13182 0.209717 -0.143199 0.184961 -0.279936
2774 0.0263066 0.0965622 -0.00509085 -0.103071 -0.0530295 0.0889736 -0.0910522 0.161733 -0.0136421 0.0455334 -0.0297904 0.00832052 0.0156318 0.110381 -0.011834 0.0150678 0.0196189 0.0148075 -0.0488036 -0.112935 0.0155984 0.0221732 -0.0819232 0.029333 0.048387 -0.0477645 -0.0227497 -0.01258 -0.00173301 -0.0155909 -0.13521 0.15402 -0.00903299 0.0313361 0.11049 0.0314569 -0.129184 -0.119096 0.21034 -0.035497 0.138041 -0.0214741 0.149528 0.113314 0.381508 -0.171659 0.279559 -0.173591 0.25351 -0.358175
2943 -0.0250206 -0.0379108 -0.0163113 -0.103463 0.0372225 -0.0644987 0.0433177 -0.0669966 0.0179362 -0.00620568 0.0759751 -0.0129263 -0.0363444 -0.0650306 0.0401213 -0.0148503 0.00576184 0.00286215 -0.045769 -0.110309 0.0706875 -0.0461132 0.0427474 -0.0113052 -0.0777776 0.0793595 0.0426195 0.00139182 0.0702635 0.0595695 -0.0887475 0.0812535 -0.00844751 -0.00122792 0.0677637 0.0287802 -0.100355 -0.0755037 0.143794 -0.0229716 0.118104 -0.0319035 0.114859 0.102919 0.171837 -0.086561 0.113428 -0.078313 0.102125 -0.15526
1885 0.00914966 0.0455638 -0.00985 -0.127929 -0.0293632 0.0568888 -0.0502506 0.11976 -0.00509452 0.0314632 0.00813802 0.00311636 0.000209986 0.0572711 0.00432662 0.0161018 0.0268004 0.0190027 -0.0722542 -0.138222 0.0389675 0.00210315 -0.0379639 0.0161049 0.0139108 -0.00675236 -0.0131744 0.000601737 0.0270103 -0.00108255 -0.149023 0.153555 0.00308701 0.0249803 0.118474 0.0335701 -0.134763 -0.115285 0.212289 -0.0240276 0.149475 -0.0222084 0.146221 0.121523 0.401708 -0.183166 0.279221 -0.174938 0.239868 -0.339223
2284 0.0115968 0.0560473 -0.00566862 -0.0945107 -0.0204874 0.032591 -0.0438286 0.0875462 -0.0113471 0.0245181 0.0130243 -0.00564922 -0.000942068 0.0442998 0.00609351 0.0155161 0.00834956 0.0132661 -0.051715 -0.0967203 0.0119499 0.00168293 -0.0433953 0.0242595 0.018267 -0.0253877 -0.00378481 -0.0114605 0.0215137 0.00703739 -0.103738 0.1097 -0.0095169 0.0117949 0.0825011 0.0305513 -0.101501 -0.0991753 0.165558 -0.034734 0.113638 -0.0293281 0.118149 0.101974 0.308609 -0.146406 0.219346 -0.135796 0.198034 -0.268328
3587 0.0239714 0.0652935 -0.0108222 -0.0745008 -0.0278031 0.0600766 -0.0635007 0.110341 -0.0128358 0.0235004 -0.0161311 0.016799 0.00718548 0.0651611 -0.00488123 0.0091768 0.0105465 0.0211573 -0.0355646 -0.0910095 0.0181488 0.013426 -0.056965 0.0255397 0.0298942 -0.0240885 -0.030087 -0.00829827 -0.0109852 -0.0259272 -0.108936 0.116634 0.00334764 0.017059 0.0766981 0.0322649 -0.0867111 -0.0771603 0.140992 -0.029038 0.0909731 -0.0218539 0.0926358 0.0708038 0.284389 -0.127815 0.181111 -0.120643 0.165513 -0.24265
450 0.0290544 0.0754935 -0.0104724 -0.104029 -0.0418563 0.071501 -0.0834995 0.133068 -0.0109405 0.0336577 -0.0282698 0.0164701 0.0117522 0.0873204 0.000104945 0.025397 0.0267043 0.0164448 -0.0365194 -0.092795 0.0109163 0.0203494 -0.0694101 0.024261 0.0439128 -0.0350155 -0.0331202 0.00272245 -0.00428171 -0.00987359 -0.11512 0.127364 0.00253951 0.0225877 0.0973929 0.0239684 -0.0939113 -0.0959197 0.171703 -0.0314993 0.128677 -0.00867461 0.114761 0.112038 0.352249 -0.159205 0.238471 -0.154441 0.217179 -0.319569
457 0.0224208 0.0660338 -0.00212109 -0.103037 -0.0414945 0.0663106 -0.0695848 0.126725 -0.0113039 0.0264916 -0.00173719 0.0054845 0.0142119 0.0742716 -0.00335656 0.0238489 0.0175619 0.02249 -0.040395 -0.10913 0.015795 0.00803456 -0.0724587 0.0226713 0.0384317 -0.0276056 -0.0172382 -0.00645836 -0.0031533 -0.0117795 -0.1132 0.133491 -0.00725604 0.026997 0.0903905 0.0354795 -0.10747 -0.0880904 0.170412 -0.0225725 0.112058 -0.0210508 0.119858 0.0935017 0.31202 -0.155189 0.228987 -0.143938 0.203246 -0.289703
3389 -0.0442207 -0.0501637 -0.040585 -0.186571 0.0470374 -0.0842254 0.0541737 -0.0563781 0.0262527 0.0107477 0.136711 -0.0371987 -0.0448043 -0.103016 0.0502623 -0.00629804 0.0208587 0.0216772 -0.0781027 -0.222173 0.111937 -0.0665082 0.0690221 -0.0293937 -0.143343 0.13715 0.0615603 0.0162848 0.107141 0.0765557 -0.139605 0.141611 0.000890387 0.00416496 0.129018 0.0508704 -0.164459 -0.114654 0.233631 -0.026902 0.17562 -0.0342972 0.170736 0.141072 0.309331 -0.147044 0.20678 -0.141084 0.182804 -0.262351
1981 0.0194165 0.0320335 -0.0040708 -0.0977852 -0.0109279 0.0235412 -0.0348091 0.0674477 0.0074429 0.028602 0.0102447 0.000668811 -0.00905342 0.0258314 0.00377799 0.0150662 0.0183454 0.0177739 -0.0488574 -0.121769 0.0291315 -0.000748067 -0.0279641 0.00625289 -0.0057455 0.00111901 -0.00530629 0.00704932 0.0154123 0.0043646 -0.105051 0.108607 0.00594224 0.0136314 0.0859894 0.0365892 -0.0913669 -0.0889936 0.148918 -0.0214363 0.112777 -0.0266175 0.116851 0.0920568 0.257656 -0.127188 0.178329 -0.10805 0.163791 -0.234929
1997 0.0157254 0.048177 -0.0157017 -0.112125 -0.0375371 0.0453408 -0.0610854 0.10572 -0.0142019 0.0306543 0.0117682 0.0115839 0.0136821 0.0620931 0.0118962 0.00421282 0.0195238 0.0199447 -0.0600664 -0.118284 0.028409 0.00160699 -0.0534074 0.022185 0.0349856 -0.0157279 -0.0166669 0.000108371 0.0169187 0.00767971 -0.1166 0.132921 -0.0100867 0.0181953 0.101289 0.0337102 -0.112866 -0.107632 0.179012 -0.0182328 0.122295 -0.0269688 0.12591 0.0961856 0.323937 -0.148082 0.214603 -0.14859 0.211012 -0.284052
3985 -0.0217774 -0.0233863 -0.0318299 -0.177411 0.0276282 -0.054871 0.0228236 -0.0282325 0.0242002 0.0240935 0.104858 -0.0255074 -0.033536 -0.0588462 0.0475422 -0.00203785 0.0233132 0.0249402 -0.0769181 -0.22194 0.0993897 -0.0636746 0.0274083 -0.00458603 -0.100146 0.100938 0.0429298 0.0139054 0.107492 0.0735517 -0.144212 0.167692 -0.00998268 -0.00470723 0.11731 0.0497868 -0.17559 -0.117897 0.230013 -0.0377932 0.172453 -0.0389392 0.173479 0.15549 0.35678 -0.171386 0.219765 -0.139592 0.210579 -0.291428
3738 -0.0285954 -0.0166905 -0.0160738 -0.157632 0.0113035 -0.0346935 0.0261135 0.00190348 0.013083 0.0165688 0.0728849 -0.0188485 -0.0376854 -0.0334378 0.0343124 -0.0039778 0.0280024 0.0197218 -0.068884 -0.188825 0.0825401 -0.0354241 0.029665 -0.00117541 -0.0755633 0.0768907 0.0345725 0.00538784 0.0780878 0.0510675 -0.142045 0.150696 -0.00569703 0.00730976 0.112836 0.0401833 -0.137324 -0.103558 0.206825 -0.0345506 0.143186 -0.0177013 0.147166 0.12405 0.304114 -0.140079 0.204733 -0.135806 0.191163 -0.262721
2648 -0.0162108 -0.0138319 -0.0148795 -0.114141 0.027938 -0.0511625 0.0354313 -0.0382645 0.0197126 -0.00133892 0.0802093 -0.0246869 -0.0239072 -0.0610108 0.036487 -0.014738 0.0199985 0.0119873 -0.0485211 -0.13848 0.0703424 -0.0357568 0.0367905 -0.00900505 -0.0764872 0.0832638 0.0348254 0.00212726 0.057196 0.0391686 -0.101156 0.107729 0.00042816 0.00729956 0.0774134 0.0348272 -0.104935 -0.073989 0.133995 -0.0186991 0.10059 -0.0109308 0.110487 0.0849054 0.199328 -0.0965737 0.120421 -0.0881101 0.114931 -0.162194
3077 0.00963665 0.0522726 -0.0200742 -0.166689 -0.0269533 0.0457234 -0.056284 0.1099 0.00462061 0.0348971 0.0382729 -0.0102424 -0.00858192 0.0555124 0.0108493 0.0196346 0.0229756 0.0358749 -0.085331 -0.19231 0.0540408 -0.0246772 -0.0488616 0.0243143 -0.00273008 0.000423765 0.00596635 -0.000462839 0.0498298 0.0149288 -0.179337 0.194597 -0.0112113 0.0102543 0.139866 0.0483962 -0.157952 -0.132888 0.250716 -0.0392938 0.173639 -0.0294292 0.175927 0.142129 0.411813 -0.18866 0.283739 -0.185623 0.259163 -0.376524
3254 -0.0143326 -0.0195513 -0.0206228 -0.16446 0.0151127 -0.0447442 0.0319757 -0.012333 0.00768696 0.0148734 0.0997988 -0.0307056 -0.0415783 -0.0554034 0.0516546 0.00318434 0.0300806 0.0280567 -0.0751584 -0.216313 0.0967902 -0.0538661 0.0400661 -0.0116334 -0.0935652 0.0998421 0.0400321 0.0137339 0.0763716 0.0648766 -0.154346 0.155101 -0.0119489 -0.00495175 0.124846 0.0487596 -0.146506 -0.105985 0.216959 -0.0242912 0.167074 -0.0297634 0.157325 0.137832 0.317205 -0.154677 0.209574 -0.131627 0.180992 -0.261523
3670 -0.0218554 -0.0453252 -0.0255864 -0.117426 0.0334125 -0.0963891 0.0700835 -0.0778373 0.0239216 0.00347172 0.0982623 -0.0262794 -0.0450788 -0.0954317 0.044934 -0.00894805 0.00110778 0.00679979 -0.0447854 -0.143898 0.0799828 -0.0469222 0.060559 -0.0330628 -0.119211 0.105489 0.0425894 0.00257187 0.099182 0.0839248 -0.0973104 0.103853 -0.00771474 -0.00252296 0.0783641 0.0190845 -0.124408 -0.0742809 0.161201 -0.0163912 0.140998 -0.023339 0.135239 0.110334 0.20316 -0.111922 0.123039 -0.0926607 0.117089 -0.171391
3549 0.00766599 0.0278982 -0.01004 -0.10685 -0.0247072 0.0267705 -0.0387986 0.0664256 0.00216136 0.0221705 0.0365211 0.000244894 0.00369788 0.0238781 0.0144311 0.00833305 0.0219148 0.0130033 -0.0492772 -0.113147 0.0402184 -0.0153877 -0.029464 0.007749 0.00204014 0.0129474 -0.00345321 0.00875758 0.0335603 0.0166086 -0.114469 0.132679 -0.00938291 0.0197414 0.09415 0.0395111 -0.13111 -0.0959323 0.205055 -0.0266515 0.149545 -0.0173483 0.134736 0.127358 0.323504 -0.147784 0.221679 -0.144049 0.212446 -0.290092
3772 -0.0173671 -0.0308287 -0.039533 -0.178789 0.0379591 -0.0706496 0.0392342 -0.0290358 0.0147129 0.0174461 0.117517 -0.0259714 -0.0526587 -0.0704848 0.0518975 0.000416501 0.0302395 0.00999018 -0.0727292 -0.209623 0.10722 -0.0527918 0.0527946 -0.0156526 -0.111784 0.118718 0.0623203 0.00830254 0.112178 0.0653585 -0.168717 0.160912 -0.0112387 0.0115885 0.12921 0.039788 -0.181783 -0.12149 0.243764 -0.0234353 0.191855 -0.0396209 0.17383 0.158335 0.346019 -0.172677 0.215038 -0.16187 0.205656 -0.299916
3934 -0.0187146 -0.00513085 -0.0309087 -0.157999 0.0220795 -0.0480977 0.0319816 -0.0228954 0.0245438 0.0268827 0.096091 -0.028282 -0.0457743 -0.061465 0.0456136 -0.0113464 0.0150697 0.0259242 -0.0720066 -0.176367 0.0719911 -0.0542599 0.0319007 -0.00884354 -0.0844688 0.0780321 0.0279257 0.00435852 0.0708907 0.047109 -0.13945 0.139397 0.00311846 -0.00216898 0.10802 0.0342735 -0.146466 -0.113522 0.215131 -0.0307062 0.169179 -0.0292479 0.168722 0.14469 0.30793 -0.154452 0.206096 -0.137644 0.180783 -0.257776
1645 0.017491 0.0738039 0.0050991 -0.0620126 -0.047552 0.0793016 -0.0757785 0.113588 -0.00811627 0.0245558 -0.0266485 0.00967476 0.0176626 0.0867896 -0.00711774 0.00552631 0.00645041 0.0172091 -0.0335975 -0.0596348 -0.00904002 0.0251255 -0.0731575 0.0262252 0.0622284 -0.0589271 -0.0386978 -0.000610361 -0.0159633 -0.0232264 -0.0872269 0.0935048 -0.00102739 0.0238747 0.0584891 0.0130564 -0.072695 -0.0819175 0.13916 -0.0145947 0.0906223 -0.0103397 0.0982462 0.0781738 0.260945 -0.130987 0.185942 -0.135143 0.176966 -0.246083
1680 -0.000510653 0.0300491 -0.0186136 -0.105177 -0.0147703 0.0233368 -0.024934 0.0525182 0.00115493 0.0300439 0.0086768 -0.00795023 0.00863499 0.0215645 0.0124653 0.00307261 0.0147351 0.0176661 -0.0508651 -0.103158 0.0264793 -0.0181293 -0.0304941 0.00487647 0.00420616 -0.00724467 -0.00236298 0.00584208 0.0337283 0.0120782 -0.106171 0.110097 -0.00172379 0.0201949 0.0784797 0.0247133 -0.104867 -0.0844992 0.173829 -0.0218499 0.123941 -0.0143167 0.12894 0.119895 0.276102 -0.142233 0.203691 -0.134496 0.173106 -0.248649
3430 -0.0198559 -0.0322362 -0.0177424 -0.180097 0.0169537 -0.043416 0.0342599 -0.0338132 0.0106334 0.00804497 0.091371 -0.0301199 -0.0433136 -0.0609061 0.0454137 0.000549468 0.0295416 0.0142398 -0.0741706 -0.200191 0.0930172 -0.04355 0.029344 -0.019903 -0.110852 0.111737 0.0537432 0.015335 0.0873624 0.0546937 -0.155989 0.157872 0.00151614 0.0153342 0.112954 0.0490105 -0.155121 -0.118319 0.20877 -0.0266969 0.157477 -0.0361461 0.163201 0.138106 0.29298 -0.154931 0.193283 -0.13142 0.180878 -0.252083
3003 0.0178949 0.0551336 0.00466523 -0.100936 -0.0372963 0.0507786 -0.0615153 0.108176 -0.00805236 0.0199016 0.000720743 0.00727075 0.0162888 0.050415 -0.0110212 0.0219115 0.0136063 0.0244417 -0.0392667 -0.0887583 0.0254714 0.0122924 -0.0590637 0.0216538 0.0240423 -0.0277554 -0.0229774 -0.0107976 0.00717797 -0.0129317 -0.112911 0.121965 0.00452559 0.0243792 0.0744577 0.0335313 -0.0959292 -0.0786804 0.162964 -0.026284 0.119978 -0.0150249 0.108684 0.104065 0.29099 -0.138982 0.199774 -0.141013 0.193323 -0.263973
3393 -0.0155579 -0.0415748 -0.0207907 -0.092724 0.0206406 -0.0713101 0.0462499 -0.052305 0.0238167 -0.000767386 0.067956 -0.00969856 -0.0256498 -0.0754307 0.0330779 -0.00757697 0.013187 0.00356942 -0.0308501 -0.121177 0.0647724 -0.0425796 0.0385802 -0.0221848 -0.0804478 0.073116 0.030278 0.00045036 0.0558234 0.0427411 -0.0667581 0.0852333 -0.011188 -0.0119055 0.0513491 0.0245561 -0.08903 -0.0703812 0.130175 -0.025618 0.102711 -0.0126614 0.0947213 0.0958853 0.153652 -0.0836347 0.0882883 -0.0621768 0.0982322 -0.132072
3856 -0.0255952 -0.0269409 -0.0136986 -0.140775 0.0284479 -0.0505273 0.0192628 -0.0152436 0.0157893 0.0136425 0.0725657 -0.0103135 -0.0332723 -0.0465587 0.0477783 -0.00784379 0.028126 0.0187136 -0.0577584 -0.177574 0.0708885 -0.0470519 0.0290875 -0.00737552 -0.0815194 0.0872377 0.0424725 -0.0011099 0.0930686 0.0755784 -0.137599 0.143646 -0.00083889 0.00514657 0.116097 0.0377552 -0.163974 -0.106216 0.234291 -0.0295535 0.174034 -0.0372379 0.175514 0.145598 0.321368 -0.159061 0.212348 -0.146525 0.19254 -0.270738
1194 0.0146279 0.0406859 0.00632108 -0.0688631 -0.0292 0.0498591 -0.0487109 0.0886666 -0.00164451 0.0169826 -0.0158604 0.00155049 0.00671621 0.0509507 -0.00510992 0.0050422 0.0183891 0.0127392 -0.0350253 -0.0664096 0.0120605 -0.00398442 -0.0532475 0.0123007 0.032743 -0.0316767 -0.017635 -0.0075935 0.00546373 -0.0110994 -0.0841023 0.0919396 0.00117759 0.00742096 0.0631055 0.0212972 -0.0721397 -0.0739343 0.125155 -0.0178004 0.081055 -0.0162484 0.0772319 0.0727786 0.22318 -0.110881 0.155029 -0.101479 0.137301 -0.198481
2476 -0.00662898 -0.0170007 -0.019826 -0.0698567 0.0325991 -0.0453088 0.0388 -0.0509386 0.00930304 -0.00681746 0.0616361 -0.0155577 -0.0339075 -0.0563233 0.0307443 -0.0118059 0.00557841 0.00837554 -0.0307083 -0.0831265 0.0410688 -0.0344338 0.0252479 -0.0042612 -0.0661137 0.068293 0.0318083 0.00223206 0.0706216 0.0406028 -0.0679187 0.059524 -0.00448309 0.00315094 0.0504973 0.0150245 -0.0977932 -0.0514315 0.119094 -0.0201424 0.0906514 -0.0195479 0.0891984 0.0810889 0.158655 -0.0677904 0.0885191 -0.0565398 0.080221 -0.113358
1549 0.0182939 0.0537053 -0.0145891 -0.126869 -0.0290663 0.0489597 -0.0485575 0.111063 0.00230092 0.0261096 0.00593306 0.0110267 0.00920736 0.0581413 -0.00309876 0.0162579 0.0260002 0.0177511 -0.0657971 -0.146007 0.0369893 0.00428189 -0.044517 0.0195932 0.0195197 -0.000676576 -0.0105712 0.00491673 0.0118708 -0.00972214 -0.135305 0.148823 -0.0126916 0.0259803 0.105001 0.0432624 -0.0981053 -0.0946346 0.165598 -0.0210441 0.121056 -0.0186462 0.113005 0.0869058 0.315035 -0.144014 0.220242 -0.156472 0.219103 -0.298192
1753 0.0192063 0.0385874 -0.0133839 -0.0935802 -0.023064 0.0437742 -0.041062 0.0848386 0.00244285 0.0202377 -0.00639399 0.00436187 0.000285445 0.0630831 0.00924138 0.0137659 0.0132749 0.00665958 -0.0348044 -0.0992355 0.0189415 -0.00847584 -0.0336628 0.0276577 0.0238487 -0.0226339 -0.00306878 0.00094869 0.0259343 -0.00451813 -0.113687 0.117713 -0.0010347 0.00831517 0.0871725 0.0255516 -0.101458 -0.0919924 0.163743 -0.02917 0.128056 -0.0169634 0.125661 0.104673 0.293074 -0.13244 0.21265 -0.144598 0.196167 -0.274888
2699 -0.010297 -0.0259492 -0.0181695 -0.105936 0.0213895 -0.0530357 0.032777 -0.043534 0.00672548 0.0104561 0.0758875 -0.027914 -0.0296253 -0.0645537 0.026698 -0.00860365 0.0104731 0.0108555 -0.0351914 -0.112582 0.0532567 -0.0408877 0.0256016 -0.00708841 -0.0714523 0.0683721 0.0278269 0.00918056 0.0729389 0.0483644 -0.0787376 0.0886483 0.00437945 -0.00644999 0.0673303 0.0300912 -0.106722 -0.0639719 0.149348 -0.0135777 0.125694 -0.0313036 0.114122 0.0914732 0.201133 -0.106882 0.137956 -0.0824983 0.111122 -0.177952
2742 0.00318814 0.0333777 -0.00868795 -0.0449944 -0.0129639 0.0128473 -0.0250622 0.0420026 0.00182186 0.0205627 0.008232 -0.00617659 0.0113926 0.0265975 0.00582733 0.00137123 0.00774097 -0.000728987 -0.022847 -0.0425296 0.00472368 -0.00447086 -0.0222751 0.01607 0.0173639 -0.0145352 0.000496127 0.00815148 0.020383 0.00160633 -0.054775 0.0649379 -0.00350259 0.00336857 0.0419988 0.0108669 -0.0810006 -0.053882 0.104645 -0.00722735 0.0846031 -0.00853941 0.0790001 0.0697808 0.187886 -0.0844953 0.113598 -0.0913668 0.122118 -0.157304
1369 0.0304758 0.0573365 0.000670814 -0.0481568 -0.0301667 0.0707277 -0.0707255 0.105382 -0.00491277 0.018946 -0.0209764 0.00973732 0.0122823 0.0659827 -0.0132131 0.00946502 0.0137048 0.00524238 -0.0262064 -0.0364236 0.00376053 0.0207724 -0.0595922 0.0223881 0.0589378 -0.0440888 -0.0275781 -0.00817502 -0.00824308 -0.0213756 -0.0749587 0.085621 -0.00646812 0.0150905 0.0651965 0.0226414 -0.0843704 -0.084636 0.145859 -0.0145284 0.0970003 -0.00656642 0.0954323 0.0852284 0.24971 -0.111645 0.17591 -0.12184 0.159053 -0.231683
1372 -0.000391358 0.0436884 -0.00458852 -0.116298 -0.0191958 0.0286013 -0.0439501 0.0826548 0.000870118 0.0189593 0.017282 -0.00356877 -0.00241125 0.0346307 0.0143219 0.0124459 0.0242701 0.0158494 -0.0616267 -0.118399 0.0395421 -0.0025917 -0.0402427 0.00974709 0.00557055 0.0159549 -0.00438858 0.00574286 0.0449672 0.0115203 -0.131174 0.139348 -0.000850964 0.0228944 0.100928 0.0317209 -0.129342 -0.106731 0.190417 -0.0244235 0.14472 -0.0256835 0.146155 0.128219 0.3349 -0.157185 0.215333 -0.151444 0.195446 -0.296077
2298 0.014671 0.062453 -0.00297601 -0.0734396 -0.0348743 0.0615867 -0.0591625 0.120312 -0.00074601 0.0307025 -0.00510484 0.0118322 0.0148949 0.0662331 0.00340397 0.0226641 0.0226978 0.00875399 -0.0444117 -0.0811147 0.00726309 0.00497475 -0.0544086 0.0255763 0.0460963 -0.0267359 -0.0261839 -3.81826e-05 0.00585431 -0.00713094 -0.109379 0.110409 -0.000982615 0.0173604 0.085726 0.0351733 -0.102317 -0.0986069 0.162229 -0.0220463 0.118815 -0.0101533 0.109246 0.0961445 0.305737 -0.145393 0.220322 -0.1376 0.198457 -0.280849
1297 0.00943198 0.0478933 6.7815e-05 -0.0635089 -0.0371774 0.0611116 -0.0576518 0.093664 -0.00434602 0.01954 -0.023086 0.00228712 0.0100229 0.0688869 -0.0109854 0.0211713 0.0026832 0.00680992 -0.0178521 -0.0434981 -0.00919986 0.0159553 -0.0652094 0.0223431 0.0470361 -0.036636 -0.0157554 0.00526342 -0.00473913 -0.0139518 -0.0774305 0.0802557 0.00896952 0.00842701 0.0554402 0.0191347 -0.0653597 -0.0535335 0.106282 -0.00970362 0.083765 -0.0170588 0.0827528 0.0638418 0.208702 -0.0974626 0.158513 -0.104814 0.146949 -0.197918
2366 0.022234 0.0562474 -0.00956578 -0.0935071 -0.029403 0.0647116 -0.0604985 0.101863 0.00300088 0.030903 0.0057416 -0.000458213 0.0140397 0.061859 0.00276071 0.0144221 0.0252187 0.0182289 -0.050943 -0.108375 0.0227734 0.0126683 -0.0620238 0.0147994 0.0337346 -0.0344973 -0.0233312 -0.00376217 -0.00136586 -0.0115029 -0.112596 0.125097 -0.00795329 0.0153056 0.0950497 0.0202836 -0.0898809 -0.0883136 0.16537 -0.0240159 0.119343 -0.0145993 0.11471 0.104084 0.288444 -0.12917 0.208129 -0.139414 0.196435 -0.276455
2909 -0.00153705 0.0224872 -0.0177552 -0.118961 -0.0127057 0.0248964 -0.0182943 0.0580172 0.00423527 0.0289219 0.0336875 -0.00790976 -0.00111357 0.0146527 0.00691822 0.015474 0.0141607 0.022677 -0.0468612 -0.110152 0.0271446 -0.0169002 -0.0255918 0.0183287 -0.0184252 0.00775351 -0.00310745 0.000751954 0.0472253 0.0200855 -0.118298 0.117009 -0.00143207 0.0172031 0.0923385 0.0311307 -0.12205 -0.0937493 0.166438 -0.0223152 0.129298 -0.0272138 0.124282 0.113194 0.311836 -0.142043 0.203296 -0.142319 0.192426 -0.255931
3328 0.0452075 0.0928513 -4.73616e-05 -0.0334164 -0.0570363 0.10924 -0.0991482 0.161848 -0.0229975 0.0257992 -0.0559875 0.0206149 0.0306092 0.12163 -0.0297791 0.0228467 0.0154495 0.0086266 -0.0318607 -0.0313864 -0.0235813 0.0322548 -0.0929321 0.0338222 0.100136 -0.0881019 -0.0390191 -0.0149818 -0.0338023 -0.0328276 -0.0800401 0.0756473 -0.00126795 0.0261375 0.0535154 0.0236432 -0.064615 -0.0719675 0.0990991 -0.0115664 0.0675881 -0.00367117 0.067179 0.0533507 0.253056 -0.109877 0.173028 -0.114261 0.163235 -0.225848
3351 0.0190515 0.0486885 -0.0135508 -0.0756934 -0.0276423 0.0316069 -0.0445594 0.0834731 -0.0141181 0.0183718 -0.00690016 0.00690989 0.0104495 0.0509433 -0.00225195 0.0082836 0.00499936 0.0138558 -0.0445558 -0.0808664 0.0097431 -0.00015958 -0.0401498 0.0105636 0.0247893 -0.0350339 -0.014315 -0.00680168 0.0179636 0.00611152 -0.0911969 0.0949788 -0.00112392 0.0101094 0.0635857 0.0197543 -0.097981 -0.0751968 0.138221 -0.025286 0.0869422 -0.0133305 0.0872708 0.0762685 0.260641 -0.10985 0.18313 -0.121293 0.169065 -0.228402
3999 -0.0288994 -0.0271375 -0.0411764 -0.273957 0.0500068 -0.0968185 0.0676326 -0.0527069 0.018509 0.0228796 0.145298 -0.0447536 -0.0578222 -0.105325 0.069071 -0.0123843 0.0360395 0.0295713 -0.103575 -0.310488 0.133691 -0.0773135 0.0683883 -0.0247217 -0.164881 0.167841 0.0789551 0.00564524 0.1584 0.103642 -0.237602 0.239192 -0.0132447 -7.87579e-05 0.187571 0.069939 -0.258352 -0.173207 0.353086 -0.0499833 0.272882 -0.0444462 0.26177 0.231691 0.498768 -0.248308 0.3154 -0.222562 0.298401 -0.41447
219 0.0365287 0.0673858 0.00162524 -0.0804575 -0.0399398 0.0865064 -0.0664764 0.124338 -0.00714496 0.0294546 -0.0259512 0.014549 0.0151525 0.0887546 -0.0109948 0.0145814 0.0218663 0.0195707 -0.0315374 -0.0802588 0.00566901 0.0124019 -0.0861553 0.0292213 0.0581459 -0.0631173 -0.0362245 0.00236025 -0.00414387 -0.0295376 -0.0948975 0.107486 0.00653221 0.0226311 0.0694206 0.021669 -0.09339 -0.0874165 0.141584 -0.0198707 0.0975126 -0.0174779 0.100176 0.0824563 0.311544 -0.13815 0.205257 -0.141344 0.199885 -0.282004
3900 -0.0270548 -0.0273907 -0.0234475 -0.127513 0.0227938 -0.0498207 0.0249476 -0.0216999 0.0115101 0.0101287 0.0772282 -0.0114567 -0.0184477 -0.0615814 0.0391075 -0.0142058 0.0212988 0.01816 -0.0438572 -0.144456 0.0582723 -0.0338282 0.035846 -0.00834115 -0.0795824 0.0744988 0.0221184 0.00770003 0.0748573 0.0670046 -0.0958852 0.103393 -0.00133424 0.00489227 0.0891414 0.0299885 -0.118274 -0.0780506 0.189617 -0.031805 0.148286 -0.0270554 0.139352 0.115429 0.235833 -0.11411 0.149556 -0.107199 0.139718 -0.193024
2350 -0.0396898 -0.074532 -0.0223128 -0.077669 0.0577054 -0.0873208 0.0865937 -0.124493 0.0269731 -0.0149893 0.0919867 -0.0394855 -0.033081 -0.112875 0.048175 -0.0106466 -0.00206517 0.0124137 -0.0376968 -0.092161 0.0641754 -0.0442307 0.0814521 -0.0289089 -0.109514 0.0989017 0.0505959 0.0109032 0.0748441 0.0587307 -0.0351685 0.0408106 -0.012124 -0.0160337 0.0256973 0.0162954 -0.0559603 -0.0345227 0.0774009 5.33876e-05 0.073989 -0.02348 0.0647949 0.0672719 0.0574624 -0.0368516 0.0278081 -0.0169787 0.026658 -0.0248419
2972 -0.0245692 -0.0402807 -0.0129494 -0.0830595 0.0477146 -0.090081 0.0504475 -0.0755788 0.0194456 0.00741297 0.0891252 -0.0261405 -0.0457477 -0.102256 0.0337034 -0.00967474 0.00439678 0.000754178 -0.0323364 -0.100785 0.0577883 -0.0402564 0.0571099 -0.0246516 -0.0990478 0.0951033 0.0356257 0.0101798 0.0869496 0.0671849 -0.0736872 0.0743373 -0.00324828 0.000918395 0.0496891 0.0248208 -0.0957643 -0.0569637 0.138389 -0.0231043 0.116226 -0.0148441 0.110706 0.0887592 0.15662 -0.0881349 0.0866489 -0.0700009 0.0711513 -0.112409
1250 0.015184 0.0598339 -0.00127485 -0.0746955 -0.0441466 0.0654383 -0.0655047 0.102858 -0.0126234 0.0186531 -0.0237284 0.00128591 0.00865133 0.0757782 -0.0105044 0.0091129 0.0192422 0.0127193 -0.0279147 -0.0690356 0.00749704 0.0181249 -0.0704589 0.0341097 0.0497455 -0.042115 -0.0202729 -0.00411664 -0.00767432 -0.0222507 -0.0880084 0.086547 0.00077009 0.00872792 0.0719045 0.0180086 -0.0811433 -0.0686619 0.116577 -0.0156605 0.0712109 -0.0099807 0.0690772 0.0674634 0.251891 -0.12333 0.173063 -0.112775 0.160902 -0.23431
1272 0.0291311 0.0574557 -0.00499879 -0.0518115 -0.0325307 0.0441658 -0.0555307 0.0840486 -0.00528714 0.0142279 -0.0149326 0.0132171 0.0122339 0.0540045 -0.0147704 0.0148477 0.00184765 0.00795439 -0.0271759 -0.0425438 0.00337963 0.0157368 -0.0386237 0.0158449 0.0428079 -0.0357067 -0.01227 -0.00760703 0.0127756 -0.00549717 -0.0752886 0.0686618 -0.00990257 0.0187533 0.0538275 0.0246141 -0.07464 -0.0590426 0.0970658 -0.0253734 0.0702123 -0.0153386 0.0661956 0.0609265 0.204576 -0.0940135 0.140202 -0.102638 0.131779 -0.18611
3557 -0.020745 -0.0327981 -0.0256962 -0.105748 0.029275 -0.0580518 0.0265488 -0.0372403 0.0126424 0.00589073 0.0779665 -0.0202117 -0.0298666 -0.0576603 0.0432388 -0.00656334 0.0210239 0.00268194 -0.0463262 -0.142705 0.0685501 -0.0414687 0.0392532 -0.0163137 -0.0786105 0.0767839 0.0253366 0.0138691 0.0829148 0.0597367 -0.10502 0.0999176 -0.00534481 -0.0130279 0.0854515 0.0348765 -0.141041 -0.0894988 0.169857 -0.0174553 0.143532 -0.0328392 0.123068 0.116848 0.211206 -0.10432 0.141378 -0.0854273 0.128982 -0.175701
2914 0.0185253 0.0588185 0.000429599 -0.0874748 -0.016836 0.0471069 -0.060221 0.0995588 -0.0134827 0.0164905 0.00736942 0.00307371 0.0167805 0.0567477 -0.00578076 0.0101712 0.0174786 0.0261178 -0.0466312 -0.103674 0.0310659 -3.3484e-05 -0.0500427 0.0206366 0.0270034 -0.0185487 -0.0149642 0.00457117 0.0200053 -0.0148091 -0.113798 0.117538 -0.00901821 0.0263895 0.0956603 0.0255698 -0.0957163 -0.0797284 0.164635 -0.0358527 0.111974 -0.0207526 0.107677 0.0891184 0.281533 -0.131372 0.206646 -0.139656 0.193887 -0.262634
2978 -0.0148246 -0.023886 -0.0333205 -0.166768 0.0191396 -0.0642296 0.0428316 -0.0273787 0.0282267 0.0243411 0.108679 -0.0168463 -0.0335353 -0.0740724 0.0402952 -0.00424774 0.0114946 0.021939 -0.0749131 -0.194568 0.0814252 -0.050052 0.0356493 -0.00509409 -0.0897948 0.108375 0.0421749 0.00423221 0.0951962 0.067791 -0.153657 0.154901 -0.0119578 0.0124324 0.113793 0.0330223 -0.153002 -0.113175 0.214068 -0.0306541 0.158655 -0.0323229 0.164511 0.145849 0.315728 -0.155694 0.208291 -0.132328 0.18954 -0.254904
1377 0.0291683 0.0753379 0.00456228 -0.0500058 -0.0416498 0.0664132 -0.0774211 0.126259 -0.00475867 0.028254 -0.0244043 0.0202567 0.00936978 0.0864925 -0.0042528 0.0131435 0.0106422 0.013518 -0.0198987 -0.0384102 -0.010665 0.00896772 -0.0766019 0.0208286 0.0520604 -0.0487232 -0.0207419 -0.01471 -0.0110801 -0.0147517 -0.0756205 0.0830965 -0.0100049 0.0160826 0.0670233 0.0196542 -0.0728506 -0.0710086 0.120169 -0.0175451 0.089931 -0.0140147 0.0922467 0.0839974 0.272831 -0.126801 0.180915 -0.118296 0.169536 -0.22866
1391 0.0147711 0.0463306 -0.00211812 -0.108164 -0.0179071 0.0390395 -0.0327053 0.0805753 -0.00611821 0.0214168 0.0261054 -0.00810153 0.00975637 0.0434162 0.0117392 0.0175157 0.0293957 0.019723 -0.0531405 -0.114007 0.0378567 -0.0025017 -0.0251662 0.0232029 0.0017078 0.0100339 0.00204708 -0.00199187 0.0115436 -0.00688939 -0.121785 0.143042 -0.00984462 0.00675112 0.0921465 0.0366055 -0.107121 -0.0990344 0.16584 -0.0333142 0.117065 -0.0286207 0.116239 0.100318 0.300983 -0.133793 0.213689 -0.134882 0.197373 -0.27871
1397 0.0255883 0.0544235 -0.0013657 -0.100066 -0.0433336 0.0627615 -0.0667319 0.110462 -0.01388 0.0210928 -0.00934324 0.0102715 0.00927639 0.0817415 -0.00526409 0.0168256 0.017704 0.0217302 -0.0413938 -0.0982609 0.0277964 -0.000679035 -0.0523116 0.0235393 0.0484889 -0.0296462 -0.0112652 -0.0104792 0.00975553 -0.00808607 -0.121397 0.11775 0.00127284 0.0130478 0.0970824 0.0334266 -0.0995434 -0.0881602 0.170424 -0.016985 0.120165 -0.0139728 0.106723 0.09212 0.303531 -0.14972 0.206248 -0.135976 0.202393 -0.289812
2050 0.0125738 0.0391062 -0.00497019 -0.0898036 -0.0281789 0.046851 -0.0454672 0.0983553 -0.000786151 0.0314193 -0.0112579 0.00314056 0.0036564 0.052511 0.0073704 0.0133734 0.0149565 0.0204265 -0.0458945 -0.0822671 0.0182279 -0.00167316 -0.0476271 0.0122789 0.0339279 -0.022621 -0.00513771 -0.00914793 0.00268789 -0.00848363 -0.0905894 0.100081 0.00255691 0.0105341 0.0745527 0.0200154 -0.0826902 -0.0879466 0.140614 -0.029092 0.0950292 -0.0221148 0.0990077 0.0755339 0.273672 -0.1259 0.194764 -0.112908 0.179575 -0.234642
3671 -0.0266426 -0.0168491 -0.0258135 -0.139899 0.0196349 -0.0575488 0.0284296 -0.034436 0.0199378 0.0107837 0.0739975 -0.0280787 -0.0407124 -0.0603462 0.0357557 -0.0122503 0.0231778 0.0224755 -0.0561638 -0.155647 0.0721877 -0.0416425 0.0330926 -0.0105284 -0.0827209 0.0793799 0.0343262 0.0100067 0.0718778 0.0602123 -0.118043 0.119313 -0.00549529 0.000752546 0.0842736 0.0398977 -0.150829 -0.106101 0.216174 -0.031667 0.17517 -0.0245939 0.154211 0.136419 0.301829 -0.150279 0.192018 -0.128437 0.163714 -0.235647
1228 0.0308001 0.06694 0.00103453 -0.0995178 -0.0517993 0.0668741 -0.0875879 0.142028 -0.00542551 0.042052 -0.0207417 0.022779 0.0172887 0.0959297 -0.0172893 0.0129398 0.0214832 0.014244 -0.0461767 -0.0876782 0.0118715 0.0137171 -0.0688619 0.0192647 0.03856 -0.026396 -0.0214189 -0.00935418 0.00773676 -0.0117654 -0.128046 0.132194 -0.00551796 0.0256849 0.101517 0.0324792 -0.106118 -0.0972489 0.165618 -0.032987 0.111493 -0.0102834 0.112438 0.100286 0.319884 -0.142782 0.230203 -0.151804 0.214827 -0.294584
1256 0.0405185 0.0742263 0.00284718 -0.0757646 -0.0510166 0.0856009 -0.0753181 0.144179 -0.00457263 0.041546 -0.0193159 0.0205877 0.0274727 0.0929323 -0.0233023 0.0180372 0.0236815 0.00764229 -0.0340916 -0.0756267 0.00451683 0.0137929 -0.0772275 0.0339047 0.0634328 -0.0598306 -0.03791 0.00378113 -0.0145843 -0.0248733 -0.109931 0.12228 -0.00663208 0.0148714 0.0882459 0.0188133 -0.0880068 -0.0868632 0.159629 -0.0186079 0.106895 -0.0103174 0.117119 0.0846577 0.320576 -0.137777 0.215661 -0.141303 0.201791 -0.294012
2336 -0.0139282 0.0159411 -0.00867881 -0.154163 -0.0095775 -0.00520364 -0.0255127 0.0497898 0.00844652 0.0281301 0.058935 -0.0204268 -0.00759858 0.00677398 0.0248635 0.00137662 0.0293833 0.0252789 -0.0600346 -0.160651 0.0474018 -0.0246585 -0.00201795 0.00287219 -0.0319354 0.0268591 0.00652245 0.00678995 0.0429586 0.0207099 -0.14358 0.140731 -0.0087345 0.0163522 0.110868 0.0394093 -0.129265 -0.0913212 0.173144 -0.0269172 0.126242 -0.0126222 0.132295 0.101507 0.306356 -0.149419 0.21227 -0.139606 0.187763 -0.269733
2532 0.0161219 0.0397787 -0.0130883 -0.0822776 -0.0117084 0.0327083 -0.0428793 0.0586234 -0.00195659 0.0237156 0.0194328 -0.00461635 -0.00269923 0.040818 0.00464025 0.00717751 0.0183654 0.0163262 -0.0351956 -0.0979344 0.0289118 -0.0141643 -0.0273515 0.0140388 0.0162552 0.00150139 0.0041286 -0.00102519 0.0200513 0.00515767 -0.0976046 0.106464 -0.0123162 0.00845745 0.0688409 0.0358356 -0.0970942 -0.0857609 0.143015 -0.0270871 0.105059 -0.0138214 0.102899 0.0807595 0.259598 -0.116173 0.174285 -0.108774 0.149579 -0.218668
3666 -0.0216603 -0.0256907 -0.0218828 -0.170287 0.0288052 -0.0640983 0.037823 -0.0431002 0.0234347 0.0116418 0.115097 -0.0232486 -0.0417327 -0.0954523 0.0500083 -0.00560116 0.0296843 0.0138884 -0.0938569 -0.226106 0.109786 -0.0664379 0.0473586 -0.0269573 -0.14114 0.133931 0.0594267 0.0202674 0.110349 0.0896007 -0.176953 0.171683 -0.00565023 -0.00454102 0.128727 0.0494869 -0.200276 -0.132057 0.267711 -0.0277452 0.200205 -0.0387787 0.204826 0.17912 0.347771 -0.164465 0.210618 -0.150183 0.198967 -0.281411
2064 0.0327788 0.0843235 0.00749801 -0.0662283 -0.0401981 0.0826901 -0.0743912 0.131172 -0.00786904 0.0343863 -0.0259682 0.0165888 0.0208762 0.0825829 -0.0140357 0.0195457 0.0139465 0.0122303 -0.0295318 -0.0650983 -0.0104612 0.0262788 -0.07555 0.040501 0.0660028 -0.0511364 -0.0257829 -0.010625 -0.0163061 -0.0205212 -0.105071 0.113148 0.00255058 0.0221665 0.0861778 0.0184056 -0.0942094 -0.082756 0.137519 -0.0160003 0.0990522 -0.017784 0.105598 0.0951148 0.290469 -0.129606 0.22219 -0.144575 0.208645 -0.277738
2238 -0.0166336 -0.0140492 -0.0182194 -0.114719 0.0247444 -0.0523894 0.0401155 -0.0398233 0.0175524 0.0100585 0.0957957 -0.017599 -0.0442917 -0.0666017 0.0358594 -0.0111124 0.00799789 0.00722734 -0.0559296 -0.133605 0.0602137 -0.0328167 0.026806 -0.00558157 -0.0861055 0.0881186 0.0272107 0.00890063 0.0666226 0.0515187 -0.103343 0.120839 0.00394281 -0.00132106 0.0872415 0.0246233 -0.127908 -0.0851295 0.199767 -0.0184109 0.148902 -0.0359807 0.148766 0.11952 0.277486 -0.135711 0.162624 -0.110067 0.15467 -0.206072
1269 0.0149615 0.0475228 -0.00221922 -0.0759772 -0.0343839 0.0601565 -0.0547145 0.0910077 0.00185565 0.0202593 -0.0212425 0.0165327 0.0216717 0.0659172 -0.00213612 0.0169391 0.0201703 0.0167364 -0.0357615 -0.0573119 0.0063837 0.0153418 -0.0551188 0.0132724 0.0367122 -0.0296968 -0.0282623 0.00302027 0.0117236 -0.0145231 -0.0915105 0.0889098 0.00681697 0.0194867 0.0750883 0.0208264 -0.097252 -0.0769977 0.147682 -0.0205265 0.105097 -0.0196854 0.108411 0.0824817 0.258587 -0.122541 0.19287 -0.121091 0.167609 -0.228774
2813 0.00626457 0.0426051 -0.00608004 -0.0773961 -0.0182704 0.0181412 -0.0406864 0.0653369 -0.00136253 0.0203918 0.00606276 0.00339855 0.0105283 0.0285827 0.0115771 0.00168906 0.0230628 0.00798384 -0.0455834 -0.0799656 0.0292253 0.00283062 -0.0334187 0.00364367 0.0107645 0.00535538 -0.0106375 0.00766432 0.0153155 -0.00264467 -0.089905 0.0907499 0.00316511 0.00661942 0.066301 0.0279455 -0.082691 -0.0750346 0.145368 -0.0172947 0.0962959 -0.0218393 0.100349 0.0847858 0.238984 -0.106256 0.169351 -0.115173 0.164645 -0.22244
3807 -0.0129195 -0.0237298 -0.0250789 -0.189775 0.0380086 -0.0683506 0.0414363 -0.0235276 0.0129603 0.00875659 0.116495 -0.020677 -0.042372 -0.0765685 0.0559576 -0.0132593 0.0122617 0.0242441 -0.0822553 -0.21819 0.111397 -0.0563056 0.0421532 -0.021565 -0.105466 0.117748 0.0585797 0.0195244 0.105344 0.0838026 -0.17835 0.176366 -0.00651564 0.0137347 0.129693 0.0592627 -0.203872 -0.148589 0.273555 -0.0407442 0.205635 -0.0380699 0.202556 0.180101 0.406705 -0.199583 0.254036 -0.175478 0.242934 -0.337334
503 0.0244377 0.0824695 0.00980411 -0.0880893 -0.0483343 0.0830752 -0.0845788 0.148151 -0.0113408 0.033723 -0.030459 0.00912143 0.0302135 0.114143 -0.00636814 0.0263303 0.027752 0.0254585 -0.0392144 -0.0800804 -0.00140093 0.0201163 -0.077349 0.0320696 0.0612132 -0.0561703 -0.035526 -0.00226077 0.000638206 -0.0291037 -0.105755 0.127751 -0.00619138 0.0267348 0.0920256 0.0226846 -0.0968255 -0.102508 0.159977 -0.0258715 0.124884 -0.0100206 0.118067 0.0943153 0.356768 -0.153733 0.256719 -0.173165 0.23168 -0.324551
815 0.0252572 0.0872504 0.00976414 -0.101826 -0.06192 0.0888103 -0.0930759 0.147237 -0.0216505 0.0430992 -0.0314925 0.0180036 0.0329892 0.107583 -0.0128861 0.0167337 0.0168131 0.0134293 -0.0350166 -0.0875678 -0.0069783 0.0156189 -0.0906165 0.0383776 0.0625116 -0.0541575 -0.0434372 -0.0108289 -0.00973456 -0.0337303 -0.116032 0.12758 0.00750321 0.0284889 0.08306 0.0254113 -0.1066 -0.0987664 0.183998 -0.0219696 0.119695 -0.0246572 0.114834 0.098302 0.352803 -0.158242 0.240169 -0.155585 0.229934 -0.325613
823 0.0349171 0.0666908 -0.00829678 -0.0944982 -0.0489398 0.0677329 -0.0693133 0.130499 -0.0130577 0.0279427 -0.0284334 0.0190644 0.024745 0.0927223 -0.0109266 0.0210686 0.0292685 0.012266 -0.0516265 -0.0872168 0.00578856 0.020662 -0.080158 0.0323093 0.0620091 -0.0416158 -0.0274636 -0.0110762 0.0131505 -0.0213689 -0.11503 0.120021 -0.00319118 0.0199035 0.0956022 0.029718 -0.10716 -0.102124 0.181657 -0.0244966 0.122153 -0.011124 0.128506 0.101564 0.344882 -0.160171 0.236938 -0.145562 0.222519 -0.306461
2039 -0.00341663 -0.0186707 -0.0010645 -0.0427095 0.0224433 -0.0285827 0.0290764 -0.0418985 0.0116267 0.00236586 0.0395481 -0.0187445 -0.00962238 -0.0381926 0.0161547 -0.00083516 -0.00517469 -0.00504475 -0.0205894 -0.0537534 0.0312521 -0.0197627 0.0251387 -0.0113179 -0.0384368 0.0419626 0.0179578 0.00589063 0.0441667 0.0367934 -0.0441002 0.0320324 0.00169833 0.00752506 0.0264288 0.0114184 -0.0555624 -0.0343032 0.0930537 -0.0122928 0.0674727 -0.0222554 0.0688714 0.0600223 0.118075 -0.0634621 0.0557195 -0.0432164 0.0484023 -0.0810152
1406 -0.0309962 -0.0314766 -0.0256403 -0.0849528 0.040004 -0.0648196 0.0511483 -0.0640355 0.00987568 -0.00486249 0.0751065 -0.023865 -0.0395964 -0.0691369 0.0280728 -0.0163061 0.0173762 0.0167222 -0.0305949 -0.109727 0.0675341 -0.035541 0.0458228 -0.0247438 -0.0840804 0.0758448 0.0430208 0.0156454 0.0725875 0.0572912 -0.068339 0.0751575 -0.00439792 -0.0101935 0.0638676 0.0225994 -0.079339 -0.052059 0.117433 -0.00649805 0.0920903 -0.0267915 0.0927184 0.0785211 0.140266 -0.0569495 0.0741868 -0.0615809 0.0717987 -0.0988271
1596 -0.0204997 -0.011231 -0.0160779 -0.105254 0.0234793 -0.0443819 0.0193952 -0.0220903 0.0154884 0.00217936 0.0847414 -0.0234461 -0.0254748 -0.0503626 0.0297972 -0.0094909 0.0188859 0.0189181 -0.0523589 -0.14635 0.0718266 -0.0378957 0.0285046 -0.0213894 -0.0841241 0.086268 0.0260796 0.00881343 0.0691018 0.0451039 -0.122164 0.10976 -0.00830522 0.00802361 0.0999408 0.0363642 -0.129947 -0.0916606 0.187382 -0.0326919 0.14853 -0.0224952 0.129913 0.126437 0.237321 -0.117921 0.156835 -0.103821 0.138083 -0.192516
39 0.0210874 0.0746873 0.0052955 -0.0662846 -0.0427356 0.070066 -0.0667965 0.120165 -0.00432665 0.0276146 -0.0235705 0.00664989 0.0161634 0.0870734 -0.0183579 0.0178161 0.0227839 0.00610015 -0.03158 -0.0642196 -0.0106367 0.0232228 -0.0699012 0.0349939 0.0494053 -0.0410796 -0.0303978 -0.01138 0.00546951 -0.0255015 -0.0967415 0.0892869 -0.000477849 0.019394 0.0619117 0.026136 -0.0922227 -0.0888342 0.142679 -0.0236593 0.0956198 -0.0111385 0.0861742 0.0720111 0.264284 -0.12577 0.186233 -0.121493 0.185774 -0.256962
2980 -0.0323261 -0.0394966 -0.0275939 -0.104195 0.0293738 -0.0716932 0.0468069 -0.0682638 0.0280833 0.00102023 0.0881574 -0.0207621 -0.0352116 -0.0905751 0.0416351 -0.0106345 0.000768248 0.0121318 -0.0492505 -0.12905 0.074698 -0.0384786 0.0432615 -0.0273279 -0.109119 0.0923988 0.0358033 0.0141834 0.0751546 0.0696906 -0.0880553 0.0924177 -0.015003 0.00188167 0.0690272 0.0282158 -0.112006 -0.074345 0.162581 -0.0285936 0.131106 -0.0194142 0.136833 0.112763 0.207858 -0.09639 0.121591 -0.093291 0.111237 -0.162425
476 0.0263463 0.0789571 0.0065509 -0.0670124 -0.055187 0.0905607 -0.089336 0.151684 -0.0110439 0.0289385 -0.0352047 0.0287179 0.0361698 0.116822 -0.0177932 0.0235711 0.0165864 0.0248346 -0.0323695 -0.0628664 -0.0134523 0.029303 -0.0943043 0.0259788 0.0808983 -0.0598874 -0.0446924 -0.0129294 -0.016577 -0.0235418 -0.0903839 0.117935 0.00336619 0.0127117 0.0809806 0.0230303 -0.0843242 -0.0807839 0.13696 -0.0154544 0.0895505 -0.00596736 0.099049 0.0784229 0.305064 -0.140159 0.218319 -0.140487 0.203058 -0.283641
479 0.0216108 0.0908784 0.00281601 -0.123354 -0.0496772 0.0849692 -0.0916992 0.158346 -0.0120108 0.0296709 -0.0227655 0.0226385 0.0298392 0.110035 -0.00264377 0.0204397 0.0186038 0.0240256 -0.0519183 -0.113719 0.0108624 0.015654 -0.0778876 0.0402367 0.0622929 -0.0476637 -0.032913 -0.00792985 -0.0153246 -0.0283045 -0.130271 0.14928 -0.00541888 0.0352678 0.116553 0.0434028 -0.105727 -0.117366 0.182506 -0.0251968 0.121689 -0.0141198 0.132962 0.0989912 0.362287 -0.179089 0.272018 -0.180615 0.240281 -0.34237
3335 0.00244838 0.0065213 -0.00883088 -0.0928953 0.00528393 -0.0235491 0.00703477 -0.00862145 0.00711436 0.0080442 0.0564338 -0.00924794 -0.0289863 -0.0235486 0.0334634 -0.000725473 0.00765786 0.00715377 -0.0468356 -0.096186 0.0423917 -0.0155712 -0.00323371 -0.0102316 -0.0403697 0.0311982 0.00495866 0.0118896 0.0472886 0.0456359 -0.100015 0.0917159 0.00655184 0.00703365 0.0775199 0.0226083 -0.103702 -0.0849718 0.164417 -0.0303802 0.135517 -0.030415 0.134795 0.106287 0.251414 -0.118078 0.155442 -0.115991 0.15675 -0.21691
3622 -0.040943 -0.0516202 -0.0295345 -0.134038 0.0394337 -0.0951447 0.0744855 -0.0956442 0.0193734 -0.000408127 0.107261 -0.0256302 -0.0514082 -0.104858 0.0498919 -0.0170836 0.0151824 0.00626229 -0.0598899 -0.164054 0.0804777 -0.0497666 0.0523116 -0.0315982 -0.110314 0.107883 0.044139 0.0147348 0.0856512 0.0642178 -0.0928916 0.0901044 -0.00402096 0.00354894 0.0744317 0.0366902 -0.0976542 -0.0594836 0.164674 -0.0124448 0.114176 -0.0291013 0.127698 0.0988835 0.196424 -0.0908281 0.0919042 -0.0795735 0.0931095 -0.138783
2000 0.00196822 -0.00434268 -0.00830233 -0.0999289 0.0132191 -0.0230023 0.00347204 0.0111264 0.0138145 0.0146616 0.0350776 -0.00548799 -0.0114818 -0.0125181 0.0128123 -0.00599336 0.0222637 0.00875993 -0.0441013 -0.115837 0.0428119 -0.0251087 0.001553 -0.00377919 -0.0316934 0.0454722 0.0186533 0.0132219 0.0438308 0.0159112 -0.0923829 0.0907241 -0.00321053 0.00694112 0.0815122 0.0349269 -0.108874 -0.0798135 0.146907 -0.0191277 0.115693 -0.0281709 0.100822 0.0910534 0.217615 -0.0994764 0.146657 -0.0916978 0.13623 -0.185681
2291 -0.0261936 -0.0420074 -0.0161782 -0.138698 0.0407103 -0.0854754 0.0629074 -0.0759265 0.0225666 0.00855426 0.113458 -0.0374907 -0.0387952 -0.102343 0.0546101 -0.010513 0.0106591 0.0227581 -0.0507877 -0.172467 0.0808372 -0.0585341 0.0513551 -0.0123478 -0.105687 0.100009 0.0359267 0.0196568 0.0879393 0.0720109 -0.107259 0.11566 -0.00120071 0.00726162 0.0997053 0.0277307 -0.126631 -0.0844709 0.196711 -0.015991 0.1605 -0.033396 0.144449 0.138986 0.267844 -0.135039 0.162733 -0.108385 0.140716 -0.202769
1752 0.0185301 0.0636082 0.00117552 -0.0568094 -0.0342489 0.0743861 -0.0727693 0.121609 -0.00340127 0.0204659 -0.0329367 0.00924833 0.0245869 0.0869807 -0.02166 0.0135996 0.016163 0.00575138 -0.0379826 -0.0687916 -0.00111263 0.0141092 -0.0679834 0.0235433 0.0679753 -0.0461277 -0.0196628 0.00295939 0.000767419 -0.0274647 -0.0973151 0.112088 -0.00294463 0.019053 0.06769 0.0142159 -0.0774585 -0.0886641 0.132871 -0.0263422 0.093226 -0.00418446 0.0987209 0.0705111 0.278872 -0.130289 0.20388 -0.122517 0.184202 -0.249542
3924 -0.0231138 -0.0507539 -0.0243996 -0.0975067 0.0416453 -0.0935108 0.0647017 -0.0927075 0.0121694 -0.0103111 0.092495 -0.0239003 -0.037025 -0.0969219 0.0435391 -0.0103168 -0.00130113 -0.000880822 -0.0385457 -0.110294 0.0694177 -0.0378911 0.0559409 -0.0226723 -0.108245 0.101384 0.0502127 0.00232148 0.0699335 0.0516824 -0.0697948 0.0563834 0.002735 -0.00285053 0.0514081 0.0274917 -0.0894706 -0.0404208 0.110173 -0.0063896 0.0924267 -0.0163996 0.0919767 0.0762924 0.118008 -0.057535 0.0778142 -0.0590175 0.0708649 -0.0924074
2673 -0.0236256 -0.041172 -0.0316822 -0.0996077 0.0449935 -0.0686611 0.0501259 -0.0606173 0.0153264 -0.00491792 0.0757281 -0.0223889 -0.0312981 -0.0854465 0.0321002 -0.00940777 0.0149518 0.00930943 -0.0378821 -0.1137 0.0535808 -0.0422196 0.056068 -0.0267067 -0.0872212 0.0918941 0.0365728 0.0171093 0.0706231 0.0632763 -0.0683313 0.0825282 0.00483816 -0.00341136 0.0483967 0.0261619 -0.0931643 -0.0534158 0.118569 -0.0173416 0.101477 -0.0107663 0.0802611 0.0757372 0.132899 -0.0686941 0.0840702 -0.062971 0.0742774 -0.120521
1601 0.030627 0.0732162 0.00475305 -0.0999062 -0.0251951 0.0668852 -0.0738106 0.128688 -0.0130589 0.0202181 -0.0142235 0.0037856 0.00754126 0.0827966 -0.00161801 0.0214577 0.0109128 0.0127424 -0.0410191 -0.0909604 0.0255086 0.0082188 -0.0607671 0.0173571 0.0464852 -0.0285817 -0.0128961 -0.00756556 0.00591517 -0.00754999 -0.123862 0.133589 -0.00109048 0.0125575 0.0976273 0.0251053 -0.120406 -0.110457 0.1974 -0.0381078 0.144708 -0.0148616 0.140971 0.115332 0.349451 -0.166493 0.245507 -0.151324 0.22775 -0.307348
1624 0.0316897 0.081509 0.00653545 -0.0567578 -0.0390063 0.0784529 -0.0752258 0.135055 -0.00249001 0.0274376 -0.0273116 0.0204976 0.0135915 0.0881104 -0.0160826 0.0179549 0.0256073 0.0113047 -0.0299866 -0.0567046 0.00733434 0.023877 -0.0671447 0.0313404 0.0661938 -0.0597718 -0.034526 -0.00643486 -0.0110754 -0.0300391 -0.103095 0.0960231 -0.00591368 0.0098595 0.0641228 0.0261417 -0.100856 -0.0927814 0.164093 -0.0261464 0.11304 -0.0252607 0.117504 0.0867544 0.302129 -0.137725 0.211475 -0.138017 0.196793 -0.27386
1667 0.0205504 0.0726153 0.0102259 -0.060175 -0.0467243 0.0779736 -0.0739127 0.120061 -0.00141964 0.0272006 -0.0309629 0.0128945 0.0194504 0.0869014 -0.0128569 0.0136157 0.0219825 0.0216299 -0.0416001 -0.0545632 -0.00220669 0.00619078 -0.0621295 0.0286423 0.0488993 -0.043801 -0.0170731 -0.00928114 -0.00975454 -0.0100222 -0.0856481 0.0919324 0.00789035 0.0144057 0.0638317 0.0172481 -0.0736749 -0.0772582 0.120647 -0.0202739 0.0813785 -0.0186003 0.0857498 0.0675278 0.26559 -0.119295 0.191734 -0.126505 0.175369 -0.239465
3012 0.00237786 0.0271178 0.00282714 -0.0819281 -0.018135 0.0315362 -0.0359478 0.0568911 -0.00748363 0.0137919 0.0196054 0.000884684 0.0108242 0.0249151 0.00242418 0.0152005 0.0195473 0.0170817 -0.0268258 -0.0800235 0.0273969 -0.00826645 -0.0284288 0.00511115 0.000667742 0.00682283 -0.00496097 -0.00717766 0.0319373 -0.00158855 -0.101377 0.108532 -0.0107876 0.00545296 0.0755985 0.0324085 -0.100966 -0.0822756 0.146031 -0.0168466 0.117498 -0.0139257 0.105789 0.103477 0.257496 -0.133065 0.182468 -0.127814 0.165283 -0.232171
3558 -0.0167479 0.00137111 -0.0265377 -0.134395 0.0230709 -0.0446245 0.0250848 -0.013999 0.0165173 0.0144649 0.0746636 -0.0131186 -0.0238815 -0.0498052 0.0460123 0.00478288 0.0140262 0.00672065 -0.0613905 -0.179712 0.082608 -0.0488568 0.024945 -0.00726286 -0.0817929 0.0903468 0.0438508 0.0155548 0.0800632 0.0461867 -0.141585 0.131379 0.00140691 0.00108619 0.114107 0.0412154 -0.17145 -0.118167 0.232708 -0.0287227 0.192355 -0.0306552 0.162218 0.148711 0.345348 -0.167941 0.21359 -0.139578 0.186533 -0.270137
156 0.0210355 0.0635764 -0.00258709 -0.0656723 -0.0269491 0.0588346 -0.0632021 0.118413 -0.00191433 0.0303253 -0.0243463 0.0151119 0.00912974 0.0677396 -0.00775096 0.0191044 0.0219283 0.00691862 -0.0315787 -0.0568634 0.0155714 0.00136214 -0.0516794 0.0247657 0.0479439 -0.0373577 -0.0297308 -0.00291671 -0.00337753 -0.0182137 -0.0911338 0.0973355 0.00108638 0.0167773 0.056135 0.0226682 -0.0863194 -0.0776598 0.117126 -0.0145137 0.0975921 -0.0204824 0.0782675 0.0751382 0.240782 -0.123861 0.165267 -0.110788 0.161258 -0.215346
168 0.0180578 0.076207 -0.00784101 -0.083744 -0.0426365 0.065997 -0.0649205 0.12562 -0.0187903 0.0277497 -0.017806 0.0212012 0.0151702 0.0730299 -0.00151874 0.00802733 0.0272475 0.00674458 -0.0433496 -0.0654236 0.0116362 0.0142387 -0.0698717 0.0286957 0.0506754 -0.0348773 -0.0358324 -0.00584815 -0.00703595 -0.024896 -0.0993361 0.100287 0.000333598 0.0277289 0.0727866 0.0310318 -0.0857153 -0.0811819 0.137624 -0.0303262 0.0971889 -0.0230001 0.112063 0.0942667 0.294798 -0.139476 0.208151 -0.124214 0.181311 -0.269839
202 0.029543 0.0616628 0.00283303 -0.0725326 -0.0402969 0.0611204 -0.0676385 0.102108 -0.0167845 0.0193776 -0.00478509 0.0184946 0.0114609 0.0686761 0.00107525 0.00596595 0.0127751 0.018382 -0.0448081 -0.0942475 0.0176539 0.0124142 -0.0534224 0.018567 0.039372 -0.0265243 -0.016327 0.00311362 0.000460317 -0.0178874 -0.0957759 0.110766 -0.007356 0.0147732 0.0807872 0.0316945 -0.0922277 -0.0860617 0.139651 -0.0322919 0.106484 -0.00965453 0.110248 0.0848282 0.280992 -0.127377 0.191138 -0.131871 0.187965 -0.254798
217 0.0228776 0.0607643 0.00156838 -0.0499695 -0.0369281 0.0756885 -0.0649644 0.128357 -0.0170593 0.0196892 -0.0176427 0.0122993 0.0136051 0.0706265 -0.00232712 0.0152595 0.010463 0.0143404 -0.0254346 -0.0635664 -0.00527987 0.0168589 -0.067661 0.0205075 0.0536371 -0.0469813 -0.0302304 -0.00182195 -0.00156392 -0.0125573 -0.0843957 0.0996674 0.0022833 0.017457 0.0659125 0.023005 -0.103905 -0.0889411 0.157796 -0.0208666 0.123205 -0.0282182 0.120602 0.108819 0.30368 -0.135211 0.207081 -0.141111 0.195554 -0.261007
368 -0.0246371 -0.0390401 -0.0302247 -0.113518 0.037074 -0.0569256 0.0520325 -0.0605543 0.00892329 0.0041376 0.0905536 -0.0237823 -0.027421 -0.0845948 0.0377943 -0.0125098 0.00414952 0.00281141 -0.0526396 -0.139678 0.0634127 -0.0374113 0.0569582 -0.0212645 -0.0916703 0.07818 0.0307766 0.00409334 0.0938316 0.0643657 -0.0883853 0.0905015 -0.0148103 -0.0012729 0.0641059 0.0242503 -0.106628 -0.0693869 0.141661 -0.0137611 0.114303 -0.0186175 0.113954 0.099786 0.178834 -0.0839334 0.104217 -0.0689599 0.100721 -0.140489
2002 0.00636858 0.0325968 -0.00552892 -0.0802726 -0.00933969 0.00803484 -0.0271739 0.050615 -0.00322541 0.0145358 0.0106171 0.00625279 -0.00213729 0.0228925 0.00958004 0.000821636 0.00495673 0.02272 -0.0499504 -0.104549 0.033185 -0.0072471 -0.0304797 0.0102165 0.00503712 0.0106934 0.00293585 0.00658979 0.0265564 0.012505 -0.0936518 0.101002 -0.00783658 0.015535 0.0674291 0.0183165 -0.108483 -0.0783258 0.143851 -0.029144 0.114994 -0.0110497 0.0989688 0.0957249 0.24136 -0.118733 0.176267 -0.111235 0.154266 -0.235801
3122 -0.0250061 -0.0301669 -0.0341482 -0.143001 0.0345971 -0.0666438 0.0307743 -0.0285779 0.0128516 0.00658726 0.0848764 -0.0224266 -0.0414296 -0.0721088 0.0457554 -0.00562325 0.0238783 0.0241698 -0.055942 -0.169263 0.0837895 -0.0585115 0.0532648 -0.010734 -0.0965757 0.0949549 0.049714 0.00280487 0.0805886 0.0534178 -0.130499 0.132782 -0.00417605 0.00139079 0.0960468 0.042907 -0.135915 -0.093252 0.190872 -0.0336461 0.159036 -0.0321715 0.142818 0.132037 0.280854 -0.139734 0.173499 -0.121561 0.158034 -0.222017
1055 0.0278571 0.0772975 -0.00938558 -0.101135 -0.051734 0.0762446 -0.0756824 0.144539 -0.00491152 0.0428499 -0.0136743 0.00703481 0.0134662 0.0899717 -0.0155914 0.0187984 0.0292204 0.0116765 -0.0480363 -0.101025 0.0106846 0.00357322 -0.0748737 0.0240848 0.0488897 -0.04513 -0.0194795 -0.000784758 -0.0119742 -0.0371407 -0.118524 0.129894 -0.00997634 0.0237109 0.0907452 0.0294254 -0.102826 -0.0882765 0.150095 -0.0366387 0.109657 -0.0183491 0.112074 0.0945256 0.338212 -0.156403 0.227254 -0.145955 0.217608 -0.299296
2540 -0.0330205 -0.0385766 -0.0299889 -0.18514 0.0392792 -0.0876174 0.0490801 -0.0723862 0.0237343 0.019324 0.11403 -0.0207217 -0.0363437 -0.0949511 0.0540966 -0.000996937 0.0234292 0.0101921 -0.0696435 -0.220178 0.113296 -0.0602265 0.0553852 -0.0156558 -0.126565 0.129403 0.0633622 0.0046159 0.0979965 0.0796105 -0.143839 0.15134 -0.0148898 0.0061507 0.112699 0.0451068 -0.164942 -0.110505 0.242712 -0.0211828 0.185322 -0.0391607 0.167163 0.148588 0.307173 -0.146863 0.208138 -0.140667 0.182268 -0.27958
3799 -0.0241053 -0.0625733 -0.0291299 -0.104412 0.045255 -0.0824726 0.062739 -0.0965673 0.0133874 -0.0107282 0.0981376 -0.0249793 -0.0479176 -0.097136 0.0378034 -0.00154681 0.00692124 -0.00299758 -0.0283652 -0.124536 0.0624443 -0.0428565 0.0635319 -0.0184454 -0.107889 0.100354 0.0547297 0.00869182 0.0738917 0.0708143 -0.0576684 0.0726958 -0.00782387 -0.0108322 0.0550728 0.0266181 -0.0803684 -0.0565866 0.124575 -0.0054406 0.0927311 -0.0155917 0.0968147 0.0725842 0.115411 -0.0685817 0.063702 -0.0393354 0.0610248 -0.091444
3984 -0.0272919 -0.0648377 -0.0140777 -0.0951048 0.044879 -0.0768211 0.0650319 -0.0897894 0.0255979 -0.0131097 0.0778235 -0.0346705 -0.0320341 -0.0930777 0.03894 -0.0117457 0.00356104 -0.00479989 -0.0201758 -0.0940594 0.0625002 -0.0441115 0.0635209 -0.0248423 -0.103748 0.0921937 0.0406381 0.0116001 0.0619636 0.0527829 -0.047232 0.0539111 -0.0136678 -0.00900671 0.0499943 0.00935638 -0.0672497 -0.0361168 0.103158 -0.0193298 0.068277 -0.0239388 0.0667874 0.0765972 0.0963108 -0.0411234 0.0455203 -0.0290844 0.0410871 -0.0573856
249 0.0287451 0.0728284 0.00780309 -0.0580339 -0.0536001 0.0849882 -0.0816919 0.137251 -0.0122985 0.0240131 -0.027302 0.00962552 0.0327891 0.108651 -0.0240765 0.0125768 0.00880983 0.0171338 -0.0245632 -0.0605048 0.00437009 0.013074 -0.075049 0.0282214 0.0761812 -0.050294 -0.0275986 -0.00549363 -0.00645176 -0.0322445 -0.0792515 0.100659 -0.00687124 0.0155967 0.067636 0.0175634 -0.0720991 -0.0715372 0.132407 -0.0236792 0.10027 -0.00986516 0.102276 0.0694215 0.276637 -0.135653 0.208773 -0.13936 0.187644 -0.252778
2837 0.00751638 0.0404065 -0.0116939 -0.0839207 -0.0243236 0.0410559 -0.0337348 0.0804887 -0.00804571 0.0240832 0.0174566 -0.0060956 0.0052977 0.028264 0.00869918 0.00583726 0.0126637 0.0158494 -0.0514228 -0.0966474 0.0356115 0.000719426 -0.0253756 0.00531685 -3.96629e-05 0.000107455 -0.00217469 -0.00920185 0.0344009 0.00769178 -0.0960986 0.104221 -0.00603912 0.0112223 0.0746653 0.0235937 -0.105105 -0.0819117 0.149997 -0.022306 0.10841 -0.0151248 0.119136 0.0916838 0.282787 -0.140787 0.182484 -0.135353 0.179578 -0.244655
3144 -0.00331038 -0.00582189 -0.0144272 -0.151135 0.0124676 -0.031746 0.0049115 2.00476e-05 0.0197693 0.0130287 0.0847572 -0.0163553 -0.0251054 -0.0336288 0.0425359 0.0044997 0.0166092 0.0258492 -0.066897 -0.169342 0.0723074 -0.0389167 0.0254804 -0.00525944 -0.0775364 0.0696335 0.0245445 0.0118522 0.0916041 0.0631042 -0.137848 0.151668 -0.00350996 0.00573036 0.109708 0.0398534 -0.159574 -0.111978 0.217686 -0.0263538 0.17343 -0.0311758 0.164185 0.135985 0.346745 -0.167963 0.227267 -0.156967 0.20238 -0.280157
2720 0.0283254 0.0868249 0.00340202 -0.0588775 -0.0421425 0.0802637 -0.0862801 0.142784 -0.018593 0.0327664 -0.0365546 0.0221988 0.0351708 0.0909173 -0.0241766 0.0151033 0.00788338 0.0205005 -0.0220468 -0.0451198 -0.0116725 0.0241619 -0.0849877 0.0377906 0.079616 -0.0574818 -0.0366221 -0.00439167 -0.023225 -0.0214812 -0.0926902 0.0842559 0.00902475 0.0173215 0.0658055 0.0171326 -0.0583502 -0.062746 0.105649 -0.0281826 0.0834378 -0.0187755 0.0717135 0.0706058 0.26265 -0.114772 0.174857 -0.127061 0.169055 -0.24471
1027 0.0317834 0.0846319 0.00231574 -0.038638 -0.0579065 0.0927324 -0.0962396 0.160856 -0.0242093 0.0218224 -0.0557963 0.0221956 0.0308949 0.111475 -0.0351911 0.0118978 0.00968576 0.0171901 -0.0270583 -0.00705461 -0.0180851 0.0423631 -0.0922645 0.029845 0.0812321 -0.0699868 -0.0504331 -0.0164521 -0.0248874 -0.0462809 -0.0666093 0.0733548 0.00795538 0.017319 0.0488302 0.00932239 -0.0652123 -0.0691777 0.0984146 -0.0100547 0.0759335 -0.0109669 0.0676851 0.0493685 0.2346 -0.113167 0.166314 -0.102283 0.150808 -0.226772
1041 0.0449158 0.102273 0.00172062 -0.0952758 -0.0575978 0.0935637 -0.0861764 0.15801 -0.0164176 0.0389901 -0.0325691 0.0143861 0.0272971 0.102422 -0.00787238 0.0200299 0.0134377 0.0286572 -0.044125 -0.0888553 0.00108344 0.0096901 -0.0908229 0.0255425 0.0722596 -0.0586592 -0.0316822 -0.00870494 -0.00440731 -0.0260637 -0.126538 0.148127 -0.00167371 0.0243991 0.103878 0.0411685 -0.117305 -0.110336 0.184709 -0.0364891 0.138979 -0.0235653 0.132905 0.105373 0.366651 -0.176838 0.263199 -0.178957 0.240107 -0.339552
1060 0.0119957 0.0699271 0.0025715 -0.138133 -0.0339279 0.0710824 -0.0718862 0.157224 -0.00705377 0.0313903 -0.0155693 0.0206992 0.0155867 0.0840119 1.61004e-06 0.0135031 0.0332644 0.014092 -0.0562834 -0.134002 0.0370839 -0.000985032 -0.0503558 0.0157165 0.0142885 -0.0161899 -0.0162439 -0.00174034 0.0185931 0.00290206 -0.148425 0.159016 -0.0136696 0.0182688 0.111233 0.0354792 -0.146355 -0.117083 0.233777 -0.0387325 0.161737 -0.0300128 0.147733 0.124416 0.389893 -0.170818 0.2692 -0.18048 0.240922 -0.359741
3381 -0.0283972 -0.0332506 -0.0341848 -0.154114 0.0182859 -0.0497359 0.03876 -0.0265952 0.022999 0.00769542 0.0987105 -0.0204544 -0.0363036 -0.0586415 0.0386119 0.00296652 0.013679 0.0184672 -0.0608117 -0.19291 0.0815144 -0.050324 0.0345586 -0.00548843 -0.0897208 0.0898575 0.0366077 0.0120904 0.0781969 0.0627669 -0.133748 0.130875 0.00215436 0.0134211 0.103269 0.0382449 -0.14191 -0.0973068 0.211992 -0.0284165 0.165048 -0.0306104 0.147417 0.142022 0.277542 -0.137714 0.181008 -0.1221 0.15946 -0.244099
2756 0.0181185 0.0569316 -0.0188423 -0.142578 -0.0229347 0.0548583 -0.0623788 0.121855 0.00207107 0.0334105 0.000171657 0.000518488 0.0205895 0.0718378 0.011046 0.013772 0.0218319 0.019559 -0.0667856 -0.151681 0.0361378 -0.00244262 -0.057498 0.0333408 0.0181819 -0.0183864 -0.00730794 -0.00426649 0.00614149 -0.0180156 -0.14608 0.157439 -0.00180706 0.0227375 0.108337 0.0451478 -0.124692 -0.122139 0.200896 -0.0259358 0.136718 -0.0228075 0.133125 0.107775 0.377638 -0.166038 0.259882 -0.177491 0.236499 -0.346388
3347 -0.0283833 -0.0383876 -0.0377551 -0.192509 0.0399951 -0.0849284 0.0448069 -0.0530926 0.00933535 0.0113691 0.114435 -0.0304751 -0.0424223 -0.0836872 0.0568058 -0.00663406 0.0139853 0.0250549 -0.0768212 -0.189189 0.0832944 -0.0459997 0.0523805 -0.0097305 -0.0991797 0.110628 0.056499 0.0135806 0.101398 0.0704377 -0.135268 0.158791 -0.00403713 0.00392076 0.111888 0.0454904 -0.16055 -0.110069 0.223051 -0.0283391 0.175093 -0.0320954 0.164856 0.150177 0.326422 -0.16289 0.216047 -0.138734 0.188792 -0.281672
3593 -0.0170711 -0.0434756 -0.0147914 -0.100791 0.0428323 -0.0719736 0.0395412 -0.0632951 0.00886337 -0.00261671 0.0787614 -0.0152151 -0.0327877 -0.0765812 0.0437128 -0.00576999 0.0167345 0.00940984 -0.036008 -0.103426 0.0559932 -0.0293253 0.0462436 -0.0229962 -0.0784376 0.0883907 0.0312048 0.0122162 0.068772 0.0511116 -0.078142 0.0808948 -0.00347256 0.00146854 0.0696657 0.0248357 -0.115297 -0.0618046 0.155057 -0.0256811 0.121786 -0.0155501 0.102345 0.0992537 0.165264 -0.0975049 0.107656 -0.0723503 0.0852434 -0.138826
339 0.0154232 0.053879 0.000765593 -0.0713314 -0.0331117 0.054146 -0.0547163 0.108754 -0.00544009 0.0321833 -0.0123826 0.0193556 0.00487315 0.0737309 -0.0142821 0.0157674 0.0229206 0.0102015 -0.0303273 -0.061237 0.00475332 0.0179334 -0.04063 0.0183105 0.0365157 -0.0378148 -0.0187147 0.00368924 0.00437777 -0.0206997 -0.0696654 0.0945553 0.000287874 0.0181844 0.0612214 0.0226158 -0.0829937 -0.0737443 0.118387 -0.0240894 0.0762744 -0.00900619 0.0831784 0.0784174 0.236586 -0.106251 0.164267 -0.0966406 0.14017 -0.209906
3150 -0.03764 -0.0490944 -0.0176192 -0.114455 0.032966 -0.0840374 0.0447489 -0.0754559 0.0246767 -0.000371474 0.0809813 -0.0237779 -0.0370991 -0.0830093 0.0458514 -0.019069 0.00745097 0.0150652 -0.0431034 -0.132862 0.0629858 -0.0518341 0.0588352 -0.0203297 -0.102503 0.102667 0.0460212 0.0148598 0.0900329 0.062771 -0.0842617 0.0930002 -0.0149626 -0.0136622 0.0660871 0.0215002 -0.107646 -0.0619817 0.140428 -0.0122459 0.106387 -0.0179355 0.0966802 0.0928987 0.1721 -0.0820236 0.0999713 -0.0802656 0.0920718 -0.128704
466 0.0415628 0.0838352 -0.00539912 -0.0840062 -0.0466348 0.0857647 -0.0872486 0.166122 -0.0161995 0.0433177 -0.0352708 0.0100115 0.0168772 0.105958 -0.0118543 0.0190422 0.02626 0.00940771 -0.0350556 -0.0791268 -0.00619765 0.02286 -0.0771496 0.0446664 0.0745207 -0.0650846 -0.0283879 -0.00590615 -0.0249864 -0.0302503 -0.0996347 0.114276 0.00910853 0.0191886 0.0802492 0.0339603 -0.0818406 -0.0873326 0.141525 -0.031002 0.0962945 -0.00848347 0.11052 0.0752544 0.314627 -0.145529 0.228171 -0.139518 0.203298 -0.299445
2857 0.0100567 0.0534631 -0.000984069 -0.0911512 -0.026954 0.0363002 -0.0461256 0.0843846 -0.0104003 0.0299954 0.00581017 0.0119661 0.00778787 0.0508016 -0.00398877 0.0190139 0.0261973 0.00917082 -0.0501503 -0.0757115 0.017423 0.00923732 -0.0607771 0.0224355 0.0247255 -0.0272499 -0.0241059 -0.00656897 0.0225304 0.00256476 -0.0961891 0.114121 0.00199559 0.0132914 0.073574 0.0267969 -0.103148 -0.0805152 0.157853 -0.024724 0.116406 -0.0147421 0.118465 0.102894 0.303271 -0.131755 0.20584 -0.145086 0.178327 -0.271056
3711 -0.0344609 -0.0257967 -0.0268154 -0.205524 0.0339206 -0.0689116 0.0309641 -0.02327 0.0186643 0.0189414 0.123065 -0.0367005 -0.0483006 -0.0600794 0.0607214 0.00130947 0.0217014 0.0186521 -0.0785703 -0.234558 0.102384 -0.061278 0.0246413 -0.0210422 -0.105295 0.113132 0.0391307 0.00257301 0.110244 0.0712804 -0.178707 0.192008 -0.00513814 0.00888266 0.146832 0.0455949 -0.178372 -0.13945 0.265586 -0.0392388 0.210702 -0.0404487 0.202654 0.180066 0.402591 -0.189634 0.266149 -0.164939 0.230308 -0.337065
252 0.0359751 0.0705379 0.00693455 -0.0678169 -0.0367281 0.0756099 -0.0757114 0.13212 -0.0146225 0.0291227 -0.0267404 0.0137374 0.0232379 0.0841363 -0.0172208 0.022833 0.0260153 0.0213793 -0.0407357 -0.0669529 0.00310148 0.00752976 -0.0739227 0.0230004 0.0549332 -0.0406301 -0.033149 -0.00439218 0.0021461 -0.0266211 -0.105996 0.102965 -0.0102635 0.0207232 0.0760661 0.0292471 -0.0875638 -0.0777774 0.151864 -0.0261571 0.0961811 -0.022704 0.106527 0.0915995 0.288844 -0.128824 0.201708 -0.139942 0.192145 -0.258067
2651 -0.0296542 -0.0386634 -0.0209693 -0.0852327 0.0302927 -0.0609172 0.0525377 -0.0716935 0.0182204 -0.00300524 0.0836733 -0.0142396 -0.0334881 -0.0791095 0.0425024 -0.00654931 0.00882383 0.0137002 -0.0262489 -0.10176 0.0497457 -0.0419877 0.0513808 -0.0216222 -0.0746575 0.0749208 0.0424113 0.00853675 0.0754332 0.0523411 -0.0633868 0.0762953 -0.00201859 -0.00144707 0.0512984 0.0218964 -0.0918739 -0.0637715 0.102656 -0.00606881 0.091018 -0.0123769 0.0892335 0.079626 0.142922 -0.0778539 0.086097 -0.0509123 0.0824804 -0.104589
2669 0.0160444 0.0640701 0.00828088 -0.0383521 -0.0377402 0.0596575 -0.0571305 0.0877779 -0.010122 0.0221131 -0.0168206 -0.000902581 0.00380993 0.0475756 -0.00812336 0.0150393 0.0152396 0.00420526 -0.0117581 -0.0242992 -0.00225144 0.00581876 -0.044508 0.0300559 0.0529171 -0.0476282 -0.0219039 -0.00136409 0.011951 -0.000368993 -0.0572823 0.0700224 -0.000462531 0.0203089 0.0449936 0.00932952 -0.0818047 -0.0573809 0.113412 -0.0147613 0.0670639 -0.0198325 0.0782618 0.0693505 0.216588 -0.109873 0.146871 -0.109369 0.149118 -0.190507
2697 -0.0180947 -0.00453531 -0.00781267 -0.112417 0.0288197 -0.0405919 0.0195369 -0.0194992 0.0213353 0.0153963 0.0695109 -0.0257619 -0.0323157 -0.0519539 0.0395775 -0.0108327 0.00995832 0.017652 -0.0501959 -0.118236 0.0540217 -0.0308363 0.0243988 0.000709782 -0.0705873 0.0620526 0.0323359 -0.00177877 0.0743328 0.0471177 -0.0938452 0.104984 -0.012928 -0.00500891 0.0743969 0.0302373 -0.118145 -0.0908377 0.161135 -0.0208983 0.125565 -0.0331065 0.119936 0.120629 0.241991 -0.124131 0.157564 -0.102489 0.147036 -0.192516
3864 -0.0264464 -0.0304815 -0.0289274 -0.166069 0.0398207 -0.0583469 0.0410091 -0.027786 0.0215884 0.0150784 0.108959 -0.0250609 -0.0314835 -0.0754218 0.0620946 -0.00261525 0.0217007 0.0204265 -0.0851201 -0.207324 0.0943696 -0.0647103 0.0502502 -0.0140314 -0.108071 0.115311 0.0501515 0.00652267 0.0914511 0.0539945 -0.153855 0.149928 -0.000747794 -0.00355139 0.109957 0.0355502 -0.169877 -0.117159 0.228886 -0.0237969 0.174608 -0.034014 0.161454 0.143185 0.31391 -0.158068 0.194848 -0.139854 0.171099 -0.24666
1018 0.0251131 0.0912717 0.00148505 -0.0670295 -0.0427984 0.0796754 -0.0970876 0.156762 -0.0102979 0.0280618 -0.0366643 0.0134832 0.0309975 0.112223 -0.0134101 0.0100734 0.0256155 0.0237362 -0.0436274 -0.0750224 -0.00218557 0.0131172 -0.0838098 0.0321228 0.0788163 -0.064875 -0.0283529 -0.0142494 -0.0239341 -0.0416949 -0.101877 0.107399 -0.00906608 0.0183563 0.0863745 0.0333033 -0.0725869 -0.0854347 0.129859 -0.0280579 0.0932184 -0.00969155 0.077398 0.0735142 0.290515 -0.127148 0.198893 -0.125793 0.19593 -0.282141
2193 -0.00926447 0.017191 -0.00876317 -0.107972 -0.00424709 -0.0067392 -0.0151427 0.0391696 -0.00197015 0.00837246 0.0422511 -0.00166073 -0.0118397 -0.0066892 0.0116386 0.00768102 0.00639533 0.0170313 -0.0464867 -0.123629 0.0540551 -0.0103161 -0.000914057 -0.00463875 -0.0235742 0.0366092 0.0206001 -0.00773525 0.0468511 0.0278417 -0.112098 0.104466 -0.000799562 0.014982 0.0758101 0.0375628 -0.105279 -0.0785637 0.154224 -0.0192552 0.119841 -0.022575 0.124517 0.0980968 0.260136 -0.123556 0.164216 -0.121537 0.164416 -0.231175
3816 -0.0125508 -0.0254839 -0.0335351 -0.164682 0.0187995 -0.0553186 0.033032 -0.0314511 0.0164316 0.0185569 0.0993497 -0.0144658 -0.0424682 -0.0529389 0.0471055 -0.00166283 0.0292203 0.022668 -0.0729884 -0.183933 0.0943249 -0.0462408 0.0227511 -0.00666462 -0.084858 0.087746 0.0392161 0.00571581 0.0909159 0.0687868 -0.140468 0.15911 -0.0132103 0.00480563 0.119664 0.0443476 -0.158024 -0.112603 0.238438 -0.0298066 0.185377 -0.0282341 0.175772 0.15373 0.327322 -0.165968 0.208919 -0.138078 0.195055 -0.291182
2987 -0.00421567 -0.0144912 -0.0219103 -0.129562 0.0237703 -0.0401064 0.0177942 -0.00987495 0.00908224 0.00994045 0.0754155 -0.027931 -0.0384681 -0.0406109 0.0408263 -0.00782387 0.0260662 0.0104926 -0.0680272 -0.164967 0.0769111 -0.0391469 0.0270133 -0.0142989 -0.072303 0.0679341 0.0261625 0.00938871 0.0797284 0.0515871 -0.122598 0.129756 -0.0132609 0.00911562 0.0954692 0.0378643 -0.136661 -0.0973076 0.201943 -0.0347129 0.144779 -0.0353922 0.151991 0.118024 0.297822 -0.141933 0.184481 -0.131248 0.177243 -0.252037
