3001 50
798 0.016702 -0.0127454 -0.0352502 -0.082941 -0.0102248 -0.0400878 0.0168149 -0.00552739 0.0169204 0.00836692 -0.0078097 0.0735372 -0.025855 -0.0052256 -0.000866148 -0.0125174 -0.00563603 0.0115903 0.00173038 0.021517 0.0177172 0.0492876 0.00873267 -0.00657122 0.000446205 -0.0332161 -0.0293015 0.00409024 0.00446329 0.0661687 -0.0357718 0.104551 0.0674521 0.0777276 -0.0251209 -0.0613436 -0.00692019 -0.0989587 0.0677001 -0.00847222 -0.0682761 0.0293963 0.040767 0.144146 0.00823281 0.142485 -0.113978 0.0653476 0.0384165 -0.0114441
1908 -0.00259384 0.0650674 -0.0475333 -0.134074 -0.0378471 -0.0836198 0.00030957 -0.0199668 -0.00561243 0.0604604 -0.022332 0.102611 0.104832 0.0190088 0.0661548 -0.0252387 0.0492761 0.0930554 -0.015148 -0.0647682 -0.0528516 -0.145249 -0.101638 0.0354379 0.0144525 0.146522 -0.037001 0.0102993 0.00185094 0.0508828 -0.0317764 0.11272 0.0810678 0.122795 -0.0189394 -0.0228413 -0.000905789 -0.152559 0.105993 -0.0226445 -0.0479298 0.0443237 0.0307468 0.126248 0.0148763 0.0935473 -0.0991357 0.0615563 0.0506314 -0.0187224
0 0.0516487 -0.18186 -0.306924 -0.722005 -0.0937465 -0.211278 0.0472273 -0.0670371 0.0252397 0.175459 -0.102868 0.414256 0.272336 0.0441742 0.0696625 -0.0416511 0.143994 0.21057 -0.00276247 -0.196033 -0.0989871 -0.291451 -0.24969 0.127543 0.0432416 0.309752 -0.218628 0.0661894 0.0899589 0.504016 -0.296641 0.829181 0.468115 0.688868 -0.27705 -0.44452 -0.0598488 -1.11482 0.891417 -0.131203 -0.298949 0.295287 0.33505 1.37996 0.193851 0.618897 -0.670097 0.358021 0.464708 -0.301677
907 0.00738575 -0.00797924 -0.0444046 -0.0773183 -0.0247923 -0.0427667 0.0146156 -0.0229483 0.0117365 0.0362673 -0.0152159 0.0688874 0.0130313 -0.00276649 0.0170394 -0.0160815 0.00935062 0.0296402 -0.00833306 -0.0109101 -0.000737752 0.0124854 -0.0184332 -0.00148693 -0.00304068 -0.00541729 -0.0320103 0.0172787 0.00718743 0.0483323 -0.0378745 0.0993188 0.074696 0.0841254 -0.0168128 -0.0341174 -0.0129085 -0.0820833 0.0742971 -0.00226405 -0.0583537 0.0276598 0.044331 0.119432 0.00657211 0.114093 -0.080303 0.0496312 0.0342693 -0.0180396
2809 -0.00202671 0.06628 -0.115918 -0.282699 -0.0767939 -0.172515 0.0228597 -0.0494037 0.0332131 0.107288 -0.0463668 0.223566 0.118342 0.0236609 0.0838583 -0.0459735 0.0841454 0.151312 -0.00750343 -0.0728945 -0.0528113 -0.163416 -0.136982 0.0284612 0.0405163 0.16217 -0.0780821 0.0291296 0.0195316 0.155 -0.0970878 0.279586 0.192892 0.257489 -0.0483003 -0.0973157 -0.020682 -0.31258 0.24595 -0.0243953 -0.14798 0.0827207 0.098307 0.349915 0.0463274 0.291344 -0.245884 0.147248 0.101351 -0.0563411
2319 -0.0114678 0.0591564 -0.0428297 -0.0818994 -0.0267696 -0.0848193 -0.00298288 -0.0145121 -0.0076099 0.0566954 -0.0230659 0.0809904 0.1403 0.0265301 0.0612777 -0.0297475 0.059774 0.0924739 -0.00516892 -0.0918822 -0.0598238 -0.18403 -0.118728 0.0461369 0.0242908 0.16816 -0.0109277 0.00287579 0.0022322 0.0165406 -0.0195598 0.0317792 0.0451776 0.0739464 -0.000734771 0.0130344 -0.0107045 -0.0794407 0.0630637 -3.4585e-05 -0.0087882 0.0234019 0.00376614 0.0186399 0.0136306 -0.00383029 -0.0148082 0.00941433 0.0252514 -0.0134024
289 0.0179358 -0.0215018 -0.0824107 -0.177296 -0.0305612 -0.0792872 0.0197406 -0.0333484 0.0303076 0.0287989 -0.0365296 0.128566 -0.0623758 -0.00975763 0.0214612 -0.0130918 -0.00364812 0.00747305 -0.00464492 0.0512611 0.0343918 0.0918388 0.0168007 -0.0286296 0.00161358 -0.0934135 -0.0617545 0.03655 0.0179397 0.128253 -0.0839661 0.241286 0.136116 0.165899 -0.033075 -0.111649 0.000524743 -0.179668 0.151747 -0.0276714 -0.132978 0.0574444 0.104375 0.303193 0.0375244 0.305027 -0.220999 0.131616 0.0781178 -0.0207445
906 0.0139897 -0.0453624 -0.0329936 -0.087076 -0.00441336 -0.0225237 0.0130234 -0.0122819 0.0295484 -0.00681684 -0.0181117 0.0601583 -0.108942 -0.0200502 -0.00888383 0.0189928 -0.0295877 -0.0478921 0.00526708 0.0785666 0.044182 0.161032 0.0799852 -0.0576719 6.70312e-05 -0.146093 -0.0351446 0.0115003 0.015905 0.081556 -0.0525442 0.162909 0.0719907 0.0893935 -0.0268545 -0.0843989 0.0007559 -0.0886028 0.0709198 -0.00933938 -0.104721 0.0310808 0.0811781 0.233508 0.0289195 0.240826 -0.169363 0.0974813 0.0462962 -0.00234746
1267 0.0110941 -0.0177517 -0.114155 -0.255622 -0.0490273 -0.117178 0.0327671 -0.0346373 0.0428242 0.0552227 -0.0494285 0.192308 -0.0236129 -0.0211165 0.0379446 -0.0204134 0.0383835 0.0663515 -0.0159487 0.0245196 0.018689 0.0515534 -0.0201878 -0.0269481 0.000263849 -0.0534868 -0.0979191 0.0367064 0.0372637 0.15954 -0.110693 0.317399 0.166614 0.214295 -0.0428301 -0.137517 -0.00726397 -0.276182 0.232123 -0.0374163 -0.182351 0.0823582 0.128573 0.399778 0.0457862 0.403647 -0.302465 0.170381 0.108583 -0.0257887
216 0.0220742 -0.00855622 -0.139956 -0.311042 -0.0666412 -0.138631 0.0402031 -0.0448713 0.0520301 0.0805239 -0.0635325 0.24704 -0.0679948 -0.0333178 0.0423477 -0.0164533 0.0127979 0.0541005 -0.0124482 0.0572191 0.0310135 0.111091 0.00802443 -0.0341433 0.00546403 -0.100937 -0.110709 0.0545268 0.0329702 0.222359 -0.141953 0.441692 0.249675 0.306741 -0.0593361 -0.191712 -0.01599 -0.349654 0.280275 -0.0407358 -0.230704 0.104127 0.177142 0.541413 0.0617215 0.527251 -0.392013 0.227829 0.139548 -0.0390635
2202 -0.00710088 0.0791606 -0.0399473 -0.0830327 -0.0264296 -0.0703244 -0.00246539 -0.0205801 -0.00176173 0.0451744 -0.0129149 0.0684601 0.137377 0.0202006 0.0473475 -0.0359801 0.0608542 0.0907522 -0.000258215 -0.0915409 -0.054226 -0.205074 -0.117985 0.0620195 0.0122974 0.181726 -0.0202306 0.00943268 0.000782917 0.0174934 -0.0178587 0.013018 0.0458871 0.0690799 -0.0145029 0.00787599 -0.00840258 -0.0946336 0.0651783 -0.00493455 -0.00850186 0.0119765 0.00733877 0.021239 -0.000239313 -0.00278729 -0.0204933 0.0122103 0.020298 -0.0271912
1270 -0.00117895 0.0496883 -0.0278613 -0.0796785 -0.02651 -0.0535552 -0.00279024 -0.0244226 0.00206261 0.0294806 -0.0111159 0.0586285 0.0658805 0.00159031 0.0295051 -0.0107096 0.0425737 0.054229 0.000317618 -0.0358247 -0.0240184 -0.0926163 -0.0708178 0.0292379 0.0125095 0.0947551 -0.0334589 0.000508131 0.0106228 0.0307979 -0.0221149 0.0716468 0.0634979 0.0796001 -0.00588835 -0.0190788 -0.00119151 -0.096765 0.0881854 -0.0123025 -0.0461634 0.0275461 0.0334853 0.111331 0.0063361 0.0916013 -0.0704822 0.0509992 0.0305613 -0.0119852
2425 0.0201862 0.0143957 -0.10122 -0.219145 -0.0376831 -0.10254 0.0195082 -0.0312947 0.0429968 0.0416675 -0.0407337 0.150575 -0.0295602 -0.00545221 0.04447 -0.0247924 0.0142244 0.0406442 -0.0105828 0.0263413 0.0106361 0.0523482 -0.00895522 -0.0220043 0.0137262 -0.0418152 -0.0878258 0.0274471 0.0211925 0.138251 -0.0874943 0.273151 0.155429 0.199961 -0.0403777 -0.133037 -0.000861345 -0.247815 0.207062 -0.0349811 -0.173055 0.0812413 0.130949 0.381773 0.0506654 0.36819 -0.282664 0.15886 0.112275 -0.02956
547 0.0246885 -0.0499065 -0.042771 -0.115092 -0.0239398 -0.0105691 0.0246077 -0.0225305 0.0405932 -0.00204155 -0.0184598 0.0858043 -0.116766 -0.0169103 -0.0111888 0.0144341 -0.0234892 -0.02693 -0.0124395 0.0812733 0.0612386 0.187226 0.0806773 -0.0427592 -0.00456893 -0.165077 -0.0478828 0.0154879 0.0242108 0.0925925 -0.0476536 0.174475 0.074337 0.0772159 -0.0170333 -0.0977786 -0.00594475 -0.107834 0.0767285 -0.0106377 -0.109385 0.0333752 0.0704354 0.222341 0.0264301 0.251058 -0.179168 0.103647 0.0585735 -0.00998956
1487 0.0186681 -0.0329885 -0.0716281 -0.183424 -0.0253989 -0.0472042 0.0194875 -0.0224296 0.0389339 0.018635 -0.0349889 0.126733 -0.11751 -0.0312642 0.0100984 -0.00608024 -0.0109194 -0.00343439 -0.00100711 0.0754734 0.0500859 0.16973 0.0545761 -0.0528827 -0.0122086 -0.145685 -0.0728703 0.0383564 0.0289858 0.130191 -0.0902469 0.266276 0.124795 0.146406 -0.0394814 -0.129369 -0.0125189 -0.173586 0.146663 -0.0300531 -0.135749 0.0630534 0.117083 0.329267 0.0387964 0.340194 -0.242122 0.143722 0.0826266 -0.010331
2713 0.0223837 -0.0157224 -0.116265 -0.263427 -0.0489799 -0.11387 0.0265442 -0.0389418 0.0538428 0.0547699 -0.0393659 0.210902 -0.0422008 -0.0200086 0.0528305 -0.0325091 0.0407488 0.0713944 -0.0145506 0.0238174 0.0218492 0.0695955 -0.0259779 -0.0162102 0.0193156 -0.0542509 -0.0934664 0.0371435 0.034714 0.150226 -0.0946088 0.306878 0.170923 0.203484 -0.0398557 -0.141187 -0.00149701 -0.272998 0.203878 -0.0422969 -0.178198 0.0855679 0.12607 0.385891 0.0556448 0.396994 -0.296859 0.176572 0.0970599 -0.0211141
2606 -0.00578106 0.0418521 -0.0535621 -0.138672 -0.0326079 -0.0797229 0.0204089 -0.0263861 0.00461142 0.0529419 -0.030896 0.112791 0.0704168 0.0117277 0.0558554 -0.0165513 0.0474338 0.0717394 -0.00693564 -0.0450637 -0.0396603 -0.0989793 -0.0855966 0.026121 0.0249657 0.0776146 -0.0408125 0.00999035 0.0173508 0.0755537 -0.0418207 0.135283 0.0962736 0.111649 -0.0207341 -0.0520814 0.00251165 -0.145062 0.116056 -0.0193061 -0.062723 0.036061 0.0508561 0.147588 0.0252436 0.131867 -0.110708 0.0556633 0.0544541 -0.0300424
2458 0.0249963 -0.0210703 -0.0713621 -0.171152 -0.0446669 -0.0796122 0.0330848 -0.0263395 0.0271496 0.03746 -0.0324276 0.158061 -0.0536638 -0.0179953 0.0158506 -0.0141701 0.00702191 0.0199006 -0.00648027 0.0394108 0.0298005 0.0783057 0.0204107 -0.028948 0.00835167 -0.0777354 -0.058042 0.02932 0.0202959 0.126963 -0.0939486 0.261815 0.151621 0.175571 -0.0342744 -0.104758 -0.00131524 -0.189109 0.163984 -0.0326293 -0.129184 0.0675399 0.0923566 0.323096 0.0350877 0.296354 -0.230051 0.130245 0.0867782 -0.0190936
2983 0.0124794 0.0984362 -0.212474 -0.497236 -0.129564 -0.283348 0.0637425 -0.0821987 0.0751187 0.163143 -0.086724 0.416463 0.0960071 0.00162961 0.148406 -0.0773047 0.104537 0.205021 -0.0268889 -0.0552221 -0.022088 -0.0849111 -0.149229 0.0171298 0.0447286 0.117557 -0.171629 0.0713639 0.059474 0.310728 -0.196357 0.591586 0.374421 0.468291 -0.0844678 -0.240443 -0.0311622 -0.531007 0.425747 -0.063568 -0.325795 0.158482 0.226198 0.766739 0.0994092 0.696841 -0.562093 0.336636 0.223295 -0.0749391
1153 -0.0102359 0.0471189 -0.0522753 -0.118762 -0.0458065 -0.0851864 0.000508996 -0.0273813 0.00204009 0.0613083 -0.0208557 0.105455 0.0934091 0.00818847 0.0482599 -0.0168841 0.0530013 0.0898515 0.000110372 -0.0609792 -0.0382197 -0.121491 -0.0890774 0.0238004 0.0171182 0.111506 -0.0375535 0.0147478 0.00755087 0.0583062 -0.0375744 0.0972167 0.088052 0.117216 -0.023659 -0.0242179 -0.0125785 -0.115577 0.0912103 -0.0129384 -0.0534815 0.0278985 0.0273209 0.104751 0.0265961 0.0947531 -0.0895962 0.0548531 0.0524333 -0.0133847
2728 -0.00357883 0.0119902 -0.0368811 -0.0793449 -0.022012 -0.0623657 0.00326506 -0.0265334 0.00910111 0.0320795 -0.0142498 0.0860953 -0.00402991 -0.0134781 0.015585 -0.0143689 0.0168364 0.0252297 -0.013437 -0.0121067 0.000945549 0.0320086 -0.0115749 -0.0143843 0.0119982 0.00389414 -0.04246 0.0168059 0.0130304 0.0712096 -0.0458023 0.145373 0.102562 0.120733 -0.0193295 -0.0701133 0.00194371 -0.122938 0.0937526 -0.020013 -0.0819912 0.0474777 0.063817 0.183001 0.0306346 0.164262 -0.118585 0.0728267 0.0492236 -0.0250746
2510 -0.00897229 0.0639376 -0.0401946 -0.0924608 -0.0274008 -0.0739451 -0.00360352 -0.0219699 0.008509 0.045493 -0.0198818 0.0941935 0.103361 0.0107066 0.0424867 -0.0282133 0.0481369 0.0836529 -0.00222116 -0.0765201 -0.0520676 -0.147353 -0.105849 0.0318772 0.0162672 0.155575 -0.0190754 0.0112342 0.00991217 0.0317878 -0.0336328 0.0623243 0.0631803 0.0841272 -0.0119504 -0.0065572 -0.00824319 -0.107024 0.0930246 -0.0181795 -0.0435348 0.0355864 0.0234903 0.0836051 0.0200227 0.0515621 -0.0582118 0.0400543 0.0440891 -0.0180909
2333 0.000379648 0.0158785 -0.032427 -0.085027 -0.0325151 -0.0591689 0.00316044 -0.0114949 0.00821359 0.0357696 -0.0159049 0.0578453 0.0275794 -0.00670804 0.0234498 -0.0185714 0.0265934 0.0382445 0.00490884 -0.0192183 -0.00461274 -0.027639 -0.0315334 0.0147678 0.00076624 0.0413392 -0.0176474 0.0123922 0.00344474 0.0547244 -0.0345649 0.09514 0.0633844 0.0793572 -0.00523705 -0.0299649 -0.000289824 -0.0865658 0.0816397 -0.00189098 -0.0440374 0.0347346 0.0390304 0.112416 0.0122201 0.0950151 -0.0802564 0.0566561 0.0427679 -0.00564151
2594 0.0184001 0.0995753 -0.171613 -0.381296 -0.0941572 -0.234409 0.0318342 -0.0697819 0.0349199 0.134592 -0.0737647 0.308968 0.11102 0.000628142 0.111502 -0.045668 0.088373 0.155573 -0.0271795 -0.0643171 -0.0426931 -0.144758 -0.162986 0.0342123 0.035073 0.161721 -0.121397 0.0411071 0.0466399 0.239431 -0.16252 0.439452 0.287506 0.372929 -0.0692565 -0.176161 -0.00990666 -0.441282 0.342624 -0.0420897 -0.245306 0.129142 0.170038 0.56113 0.0640598 0.469015 -0.383092 0.233455 0.16465 -0.0609728
815 -0.00963836 0.0749666 -0.0442398 -0.102978 -0.0331259 -0.0973134 0.00462405 -0.0193453 0.0043682 0.0702979 -0.0169268 0.102868 0.150065 0.0316281 0.0584069 -0.0366802 0.0739238 0.111249 -0.0103433 -0.100221 -0.0727817 -0.191479 -0.129084 0.05778 0.0293601 0.187168 -0.0110674 0.0016001 0.00353549 0.0147586 -0.0115265 0.0495526 0.0556471 0.0977127 -0.00899407 -0.00194943 -0.00971239 -0.106501 0.0821306 -0.0120572 -0.0313918 0.0215906 0.00492853 0.0517338 0.0142821 0.0185709 -0.0392276 0.0101556 0.0398724 -0.0174244
413 0.0117626 -0.0344859 -0.0321514 -0.0831668 -0.00928261 -0.0277138 0.0239645 -0.0167009 0.0381961 0.0113102 -0.0219438 0.0645641 -0.110687 -0.0201285 -0.00431786 0.0105057 -0.0299738 -0.0314689 -0.0118211 0.0678072 0.0433457 0.143188 0.0727904 -0.0423452 -0.0073095 -0.131682 -0.051154 0.0273052 0.00983933 0.0957258 -0.0608789 0.176827 0.080729 0.0926562 -0.0301282 -0.0934519 0.00588615 -0.116167 0.0945395 -0.0107965 -0.0977878 0.0303578 0.0886886 0.241892 0.0331555 0.245478 -0.162581 0.106461 0.0458271 -0.00804386
1422 0.0179129 0.00179533 -0.0814719 -0.172671 -0.0378204 -0.084504 0.0321282 -0.0254209 0.0306914 0.053161 -0.0334305 0.152852 -0.0155756 -0.0149642 0.0363922 -0.0184124 0.0113931 0.0316068 0.000362447 0.0114057 0.00761733 0.0474746 -0.00480841 -0.0187944 0.0106044 -0.0350525 -0.0679525 0.0258813 0.0271922 0.119104 -0.0733532 0.223372 0.129058 0.169905 -0.0283521 -0.0958389 -0.0019281 -0.198956 0.146185 -0.0239302 -0.118869 0.0555347 0.0804869 0.27946 0.0304462 0.267224 -0.21347 0.119968 0.0767282 -0.0220317
1845 -0.00351263 0.0502903 -0.075427 -0.158893 -0.0487632 -0.0874531 0.0175004 -0.0264046 0.0141758 0.0655185 -0.0349068 0.133111 0.0724488 0.0155744 0.0576256 -0.0207228 0.0534494 0.0860306 -0.00448099 -0.0428091 -0.0362977 -0.0924376 -0.0935509 0.0231132 0.0225978 0.0863233 -0.0470546 0.0175956 0.0100083 0.0867016 -0.0593008 0.161057 0.116303 0.145984 -0.0230829 -0.0666887 -0.00709106 -0.19157 0.144723 -0.0208556 -0.0975426 0.0640844 0.0706581 0.228425 0.0241122 0.203015 -0.17002 0.0862985 0.0730325 -0.0234253
465 0.00981391 -0.0118678 -0.0451874 -0.0936831 -0.0209842 -0.0407374 0.0137593 -0.0112799 0.0288032 0.0185425 -0.0200842 0.0808594 -0.069076 -0.0183968 -0.00711085 0.00330998 -0.0104073 -0.0184498 -0.0102726 0.0470283 0.0343641 0.0926251 0.0401818 -0.035326 -0.00653015 -0.0891689 -0.0348765 0.0264237 0.00980985 0.0765083 -0.0507325 0.170161 0.0718263 0.087407 -0.0192423 -0.0721826 0.00109965 -0.108877 0.0845775 -0.00595044 -0.0860961 0.0408582 0.0735398 0.216747 0.0148507 0.217559 -0.158065 0.0982435 0.0537656 -0.0177348
846 -0.00615499 0.0650207 -0.0245699 -0.0888016 -0.030091 -0.0742361 -0.00129286 -0.0267255 0.00062112 0.0477723 -0.00889214 0.0772929 0.123883 0.0118328 0.0605973 -0.0185095 0.061293 0.0934132 -0.00340568 -0.0875843 -0.0643598 -0.169721 -0.11597 0.043922 0.0228836 0.164397 -0.0179085 0.0089641 0.00885721 0.012373 -0.00973546 0.0420623 0.0535897 0.0762242 -0.015633 0.00600554 -0.0090366 -0.0994506 0.0739744 -0.0154064 -0.0187072 0.0271938 0.0108801 0.0488874 0.0107842 0.0226836 -0.0393203 0.0115686 0.0257051 -0.017452
811 0.0165174 -0.027147 -0.0451218 -0.0828306 -0.00712219 -0.0251867 0.0104898 -0.00496105 0.0282372 0.00862765 -0.00469267 0.0476814 -0.0929905 -0.0252803 -0.0119134 -0.00392475 -0.0282882 -0.0243015 -0.0105837 0.0503713 0.0312505 0.127059 0.048027 -0.045396 -0.0123006 -0.125238 -0.0389026 0.0134346 0.0146543 0.0847226 -0.0560312 0.161879 0.0716019 0.094912 -0.0168736 -0.0925339 -0.00558636 -0.10471 0.0836591 -0.00702735 -0.0941756 0.0437451 0.0809842 0.233162 0.0176869 0.220659 -0.150214 0.0976116 0.0435893 -0.00221562
1803 0.0271424 0.00940359 -0.162614 -0.357388 -0.0827503 -0.182399 0.0468112 -0.0637091 0.0570713 0.10101 -0.0592453 0.289278 -0.0212229 -0.00822378 0.0760613 -0.0303663 0.048764 0.0880123 -0.0226539 0.018952 0.0158399 0.0635465 -0.0321708 -0.0242202 0.022121 -0.0486649 -0.132785 0.0600052 0.0336635 0.242785 -0.155767 0.472084 0.267744 0.334141 -0.0585112 -0.198278 -0.00979134 -0.373571 0.305475 -0.0383224 -0.241469 0.116694 0.183219 0.569258 0.0655035 0.526919 -0.404271 0.236878 0.149824 -0.0508648
2743 0.0320969 -0.0111519 -0.149051 -0.349852 -0.0816259 -0.160606 0.0477737 -0.0583214 0.0642962 0.0618849 -0.053981 0.25234 -0.0722636 -0.0136229 0.0331381 -0.0277795 0.0273037 0.0341643 -0.023178 0.0428069 0.0295439 0.101506 0.0107796 -0.0276089 0.00752078 -0.0945218 -0.115007 0.0456478 0.0487385 0.230652 -0.144158 0.42825 0.222636 0.277241 -0.0572405 -0.182598 -0.0222583 -0.347162 0.283519 -0.0387386 -0.223599 0.110066 0.165922 0.52281 0.0531158 0.50361 -0.361513 0.208474 0.125761 -0.0292531
2712 -0.00327036 0.0380429 -0.0483257 -0.116604 -0.0340627 -0.0919662 0.0184968 -0.0325758 0.0105747 0.0508575 -0.0327374 0.117152 0.110661 0.00866728 0.0417709 -0.0189345 0.0601251 0.0804144 -0.001615 -0.0668254 -0.0506844 -0.131035 -0.0999902 0.0304551 0.0133066 0.121366 -0.0248782 0.00529842 0.00895076 0.0609385 -0.0346131 0.110577 0.0980912 0.120544 -0.0179884 -0.0156991 -0.00548043 -0.11518 0.0895445 -0.015493 -0.0455594 0.0370652 0.0253579 0.0781432 0.00843383 0.0486124 -0.0564291 0.034542 0.0454981 -0.0255482
2193 -0.00703349 0.0568177 -0.0723535 -0.16071 -0.0452711 -0.109217 0.0167957 -0.0209766 0.0176737 0.0660065 -0.0380549 0.134111 0.109223 0.0170454 0.062292 -0.0283145 0.0721871 0.115474 -0.017628 -0.0778835 -0.0478835 -0.134765 -0.113649 0.0300477 0.0146091 0.145337 -0.0358357 0.0256914 0.0047743 0.0810736 -0.0610648 0.15832 0.124809 0.163976 -0.0318913 -0.0468609 -0.00936057 -0.17082 0.128799 -0.0251138 -0.0718531 0.0451465 0.0345333 0.161597 0.01776 0.12257 -0.124151 0.0559737 0.0580852 -0.0303489
162 0.019788 -0.0212275 -0.0365348 -0.0657958 -0.0171938 -0.00661007 0.0185483 -0.0103417 0.0297749 0.00819384 -0.0189195 0.0499573 -0.087741 -0.0291418 -0.0188583 -0.000920787 -0.0145921 -0.0262581 -0.000992397 0.0634934 0.0358634 0.128332 0.0560461 -0.0309728 0.00235517 -0.11465 -0.0416875 0.0151892 0.00776372 0.0679507 -0.0433777 0.141475 0.069549 0.0661246 -0.0183991 -0.0736026 -0.00514814 -0.0833902 0.0589543 -0.00853446 -0.0741501 0.038112 0.0711033 0.190177 0.0248109 0.189811 -0.143534 0.0734648 0.0428912 0.00213857
389 0.0149688 -0.053517 -0.0367722 -0.0909625 -0.00641929 -0.0247653 0.020533 -0.00278186 0.0384847 0.00431793 -0.0115273 0.0591063 -0.117801 -0.0265909 -0.0103656 0.0153955 -0.0313573 -0.0427451 -0.00077771 0.0818231 0.0558733 0.161363 0.0850768 -0.0473496 -0.00555118 -0.15202 -0.0536999 0.0229609 0.01123 0.0893309 -0.068659 0.180498 0.0756918 0.0778976 -0.0286787 -0.100894 0.00428861 -0.100454 0.0810953 -0.0115418 -0.0957466 0.0371928 0.0890767 0.234891 0.0266465 0.262671 -0.176619 0.106338 0.0536484 -0.00537613
1898 0.0336844 -0.0109732 -0.143779 -0.308758 -0.0777872 -0.133357 0.0317926 -0.0411022 0.0521952 0.0840774 -0.0538796 0.254451 -0.0644498 -0.0189138 0.0600975 -0.0219996 0.0322625 0.0609898 -0.0205826 0.031276 0.0202353 0.0920835 -0.0177496 -0.0427284 0.0167698 -0.0965116 -0.134881 0.0465821 0.030523 0.217462 -0.140518 0.430386 0.226907 0.288341 -0.0631983 -0.202055 -0.00665828 -0.343843 0.280286 -0.0487952 -0.243448 0.112047 0.160028 0.528312 0.0566648 0.532863 -0.392358 0.226873 0.139632 -0.0290181
2966 0.000253802 0.0702022 -0.0301509 -0.0701856 -0.0264905 -0.0766195 -0.00435763 -0.0261015 -0.00657318 0.0439623 -0.01098 0.0816825 0.124637 0.0155487 0.0566317 -0.0224795 0.0587191 0.0965583 0.00124258 -0.0915148 -0.0644542 -0.17463 -0.125596 0.0418775 0.0217882 0.172263 -0.0191707 -0.00209356 0.0109965 0.00508578 -0.00406133 0.0160439 0.0389255 0.0604589 -0.000479472 0.00951286 0.00420311 -0.0836238 0.0609987 -0.0091395 3.09103e-05 0.0120941 -0.00149343 0.00248439 -0.000578776 -0.0260085 -0.0172999 0.00593245 0.0196233 -0.023251
1583 0.00255969 0.0648776 -0.0320334 -0.0941505 -0.0234213 -0.0815708 0.0147161 -0.0290473 -0.00640764 0.0530808 -0.0141982 0.0853482 0.137626 0.0167751 0.0638753 -0.0220601 0.0560498 0.0940925 -0.0130198 -0.0898523 -0.0605701 -0.182278 -0.117628 0.0512893 0.0150489 0.17568 -0.0203599 -0.00325808 0.00259794 0.0271521 -0.0177435 0.0414726 0.0571234 0.0729384 -0.00674848 0.000107967 0.000780311 -0.0847676 0.0677639 -0.00487742 -0.0243943 0.0271582 -0.00400111 0.0283524 0.00676826 0.0107695 -0.030528 0.0155195 0.0307996 -0.0237428
486 0.0132355 0.00127233 -0.0516524 -0.110867 -0.0310951 -0.062429 0.0081852 -0.00898932 0.0249073 0.0373723 -0.0189434 0.0928366 -0.0278937 -0.00200122 0.00887578 -0.00600094 0.0152572 0.0249456 -0.00688566 0.00595926 0.0102733 0.0539019 -0.00212047 -0.0066058 0.000136291 -0.0339647 -0.0474689 0.0239357 0.0244666 0.0894286 -0.0576556 0.163091 0.0877283 0.115458 -0.0187132 -0.0814209 -0.0154882 -0.140895 0.118952 -0.00995113 -0.093932 0.0431093 0.0679152 0.221977 0.023513 0.181615 -0.141267 0.0938716 0.0606781 -0.0133043
2623 0.0374004 0.056194 -0.194368 -0.463661 -0.106973 -0.245297 0.0496925 -0.066073 0.0729248 0.138746 -0.0995324 0.363303 0.0457113 -0.00902057 0.126605 -0.0653866 0.0914219 0.149374 -0.0336928 -0.0354721 -0.025373 -0.0163484 -0.0850735 -0.00215432 0.0204845 0.0421027 -0.147839 0.0672538 0.0365969 0.249531 -0.164571 0.505803 0.323062 0.395728 -0.0605241 -0.204541 -0.0280738 -0.456927 0.351429 -0.0414408 -0.286467 0.130257 0.188249 0.621761 0.080798 0.571705 -0.471046 0.257021 0.181614 -0.0664852
2137 -0.0126177 0.06801 -0.0331999 -0.0717229 -0.0362956 -0.0688582 -0.00104507 -0.0251326 0.00255817 0.0536755 -0.0179096 0.0654022 0.127218 0.0182765 0.0553912 -0.027376 0.0551882 0.0866151 -0.00158397 -0.0881882 -0.0474616 -0.166501 -0.114783 0.0412712 0.0165095 0.168477 -0.0192446 0.00305932 0.00621591 0.0135581 -0.0154161 0.0253521 0.0499542 0.0620216 -0.0120086 0.00772304 -0.0114664 -0.0807894 0.0671642 -0.0117189 -0.0106157 0.0140605 -0.000846553 0.0171328 0.0123394 -0.00251905 -0.0223637 0.00213938 0.0207466 -0.0208224
287 0.0144287 -0.0308567 -0.0173062 -0.0495192 -0.00980879 0.00379631 0.0184978 -0.00432734 0.0219607 -0.00074267 -0.00612308 0.0324241 -0.0961048 -0.0120973 -0.00485112 0.000672115 -0.0220589 -0.0457182 -0.00854289 0.0667035 0.0527449 0.143201 0.0716278 -0.0301625 -0.00241967 -0.118251 -0.0408612 0.0138583 0.00434695 0.0582025 -0.0413755 0.134542 0.0600291 0.0509138 -0.0162251 -0.0646213 -0.00768393 -0.0594551 0.0569196 -0.0183218 -0.0776068 0.0291358 0.060338 0.186029 0.00874917 0.180832 -0.126725 0.0855767 0.042259 -0.0138642
2394 0.0478627 -0.0461786 -0.167248 -0.378857 -0.084602 -0.15817 0.0454357 -0.0591699 0.087443 0.0655034 -0.0708189 0.290671 -0.14015 -0.0387309 0.0388262 -0.0237864 0.0127819 0.0340306 -0.02856 0.0838983 0.0678804 0.191196 0.0322243 -0.0700227 0.000517417 -0.179234 -0.142215 0.0614662 0.0503933 0.258801 -0.176746 0.529376 0.269234 0.344562 -0.0557876 -0.243353 -0.0213269 -0.385189 0.316753 -0.0574246 -0.283009 0.135396 0.213263 0.656253 0.0755225 0.651853 -0.46457 0.289742 0.163851 -0.0525197
2846 0.0222323 -0.0338971 -0.160879 -0.410763 -0.0772144 -0.15278 0.0303034 -0.0471088 0.0911917 0.108266 -0.0839432 0.364934 -0.103819 -0.0260239 0.0560124 -0.0351774 0.0266001 0.0745675 0.00325007 0.0631523 0.0189337 0.143661 0.00265302 -0.0492645 0.00599949 -0.10825 -0.15252 0.0537895 0.0595391 0.271374 -0.18962 0.579278 0.306033 0.391329 -0.0830003 -0.262338 -0.0303626 -0.43224 0.363616 -0.0686711 -0.28218 0.116096 0.197749 0.636264 0.0996309 0.698199 -0.522134 0.304463 0.18507 -0.0315784
1715 0.0127497 -0.0495675 -0.0331125 -0.0547234 -0.00703881 0.000358062 0.0184041 -0.00992444 0.0202882 -0.0053551 -0.00852074 0.0125819 -0.111613 -0.0333753 -0.0127376 0.020404 -0.0337266 -0.0539291 -0.000970132 0.0814213 0.0466116 0.163518 0.0836535 -0.0460121 -0.0162211 -0.160296 -0.038145 0.0112758 0.0190987 0.0704677 -0.0370389 0.134703 0.0520223 0.0520592 -0.0150911 -0.0736008 -0.00155234 -0.0606319 0.0569186 -0.0151292 -0.075565 0.0225592 0.0770596 0.20086 0.0273127 0.19895 -0.125665 0.0719474 0.0291719 -0.0116479
2127 0.013896 -0.0231854 -0.0662427 -0.172283 -0.0307786 -0.063011 0.0145174 -0.0197496 0.0408365 0.0171936 -0.0286871 0.120373 -0.102971 -0.0229017 0.00906412 0.00133303 -0.0161374 -0.0179212 -0.00714919 0.0748259 0.0528016 0.148121 0.0552211 -0.0398472 0.00529984 -0.145532 -0.0720379 0.0239908 0.0319418 0.138525 -0.0856248 0.280308 0.135292 0.158331 -0.0299251 -0.143175 -0.00666019 -0.18447 0.149555 -0.0243601 -0.163265 0.0683222 0.131668 0.362302 0.0500885 0.36459 -0.277726 0.169192 0.0957104 -0.0226669
1473 -0.0056461 0.0652798 -0.0437414 -0.130055 -0.0484409 -0.102919 0.0112381 -0.0286409 -0.0079582 0.0598506 -0.0237394 0.106292 0.112535 0.0128552 0.0547878 -0.0254271 0.0584045 0.100334 -0.00461769 -0.07053 -0.0439758 -0.167229 -0.112656 0.0364104 0.0318649 0.151718 -0.0293173 0.00916277 0.000911913 0.0540703 -0.0279809 0.0920291 0.0742653 0.111249 -0.0250849 -0.020061 -0.0159627 -0.13454 0.103206 -0.00889268 -0.0568319 0.0327718 0.0192105 0.102154 0.0253327 0.0861105 -0.082471 0.0380897 0.0529218 -0.0183571
525 0.00366375 0.0461708 -0.0550832 -0.121922 -0.0353658 -0.0833495 0.00266145 -0.0272176 0.0167044 0.0405328 -0.0266587 0.105741 0.0596857 -0.00248665 0.0372225 -0.0144922 0.029696 0.0559555 -0.00619982 -0.0271089 -0.0392545 -0.0813373 -0.0682667 0.0207957 0.0216062 0.0767646 -0.0347162 0.00857224 0.0152348 0.0476003 -0.0369561 0.106783 0.0845403 0.110894 -0.00721656 -0.030444 -0.00111577 -0.139487 0.102617 -0.0165624 -0.0622531 0.0422311 0.0444385 0.145865 0.0237618 0.12631 -0.102709 0.0549832 0.0605683 -0.0320723
1548 0.0169902 -0.0373345 -0.0159755 -0.0367957 0.000260541 -0.0038321 0.0175897 0.00129836 0.024083 -0.0110353 -0.000182496 0.0197442 -0.101398 -0.0223098 -0.0114246 0.0080447 -0.023825 -0.0580993 0.00204358 0.060784 0.0365192 0.150005 0.0701832 -0.040965 -0.00355468 -0.135434 -0.0196789 0.0100081 0.0131308 0.0609404 -0.0418713 0.112265 0.0444916 0.0387317 -0.0240556 -0.0633216 -0.0113049 -0.0685616 0.0448924 -0.00243336 -0.0642952 0.0212447 0.0524049 0.169278 0.00887919 0.180113 -0.127252 0.0810367 0.0443155 0.00192078
1556 0.038983 0.0191063 -0.296199 -0.704618 -0.160983 -0.332337 0.0819651 -0.107545 0.104986 0.172106 -0.125383 0.543825 -0.0555517 -0.0272932 0.143073 -0.060429 0.0884515 0.187699 -0.0322862 0.0216736 0.0184552 0.11498 -0.0668297 -0.043287 0.0335716 -0.0859376 -0.229356 0.0917183 0.0689675 0.430558 -0.276471 0.855462 0.479806 0.599994 -0.11206 -0.373073 -0.0282186 -0.685831 0.554551 -0.0876927 -0.465712 0.223564 0.317726 1.0221 0.119649 0.996846 -0.772052 0.451415 0.277357 -0.0751394
2145 -0.00558924 0.0593345 -0.0663379 -0.138921 -0.0378998 -0.0775221 0.00458503 -0.0173623 0.00994521 0.0453676 -0.0168565 0.112743 0.0764188 0.0145153 0.0475101 -0.0283545 0.0422793 0.0683838 -0.00563231 -0.039367 -0.0232684 -0.0862533 -0.0851886 0.0255614 0.00767517 0.0866303 -0.0446313 0.0239585 0.00748369 0.07418 -0.0377654 0.144085 0.0914031 0.138257 -0.0234892 -0.0484584 -0.00783651 -0.161222 0.126344 -0.0118091 -0.0741476 0.0495664 0.0503096 0.185091 0.02846 0.143641 -0.128507 0.0788842 0.0536424 -0.0325189
221 0.0127945 -0.0208236 -0.037967 -0.0625726 -0.0100661 -0.0179742 0.0116454 -0.0152363 0.0273973 0.0125032 -0.0176232 0.0488948 -0.0532976 -0.0133908 -0.00562534 -0.0047878 -0.0107155 -0.0214587 0.00294351 0.0445067 0.0204115 0.080632 0.0230315 -0.0165909 -0.0104376 -0.0802379 -0.0392304 0.0158404 0.0172882 0.0611248 -0.0429627 0.12156 0.0628523 0.0612435 -0.0170401 -0.0528278 -0.00237885 -0.0716752 0.0749656 -0.0142917 -0.055555 0.0256862 0.0420451 0.154943 0.0187865 0.155227 -0.110133 0.0711838 0.0357621 -0.0038697
2130 -0.0117193 0.0764468 -0.0439403 -0.106112 -0.0273124 -0.0826244 -0.00388772 -0.0320779 -0.00707437 0.0523668 -0.0311219 0.0988186 0.151573 0.0263284 0.0603127 -0.0300052 0.0676218 0.1004 -0.00320027 -0.0881041 -0.0649846 -0.204799 -0.140887 0.0572778 0.016963 0.197287 -0.0188373 -0.00227133 -0.00429659 0.0311893 -0.0279952 0.050835 0.0563186 0.0951354 -0.00571586 -0.00422298 -0.0015049 -0.121739 0.0899447 -0.010149 -0.0210297 0.0337577 0.00159709 0.0569951 0.0140634 0.0160857 -0.0338836 0.0166213 0.0427594 -0.0226557
2323 -0.00216215 0.0468764 -0.0616801 -0.132084 -0.0523388 -0.099765 0.00717061 -0.0232446 0.00669437 0.0535119 -0.025524 0.132609 0.102337 0.00912173 0.0560628 -0.024524 0.0528349 0.0974145 -0.00873231 -0.054397 -0.0423165 -0.120851 -0.103638 0.0249266 0.029639 0.131048 -0.0340559 0.0120249 0.0189434 0.0632145 -0.0417696 0.133689 0.0989635 0.144081 -0.0125166 -0.0289351 -0.0104246 -0.151002 0.112294 -0.0114719 -0.0586694 0.0471386 0.039724 0.142242 0.0185099 0.102372 -0.111002 0.0532415 0.0526908 -0.0251958
2051 0.0203632 -0.00986616 -0.0460048 -0.121585 -0.0285035 -0.0539754 0.022904 -0.0132624 0.0329342 0.0267454 -0.0157919 0.0977255 -0.0392201 -0.0156025 0.00117701 -0.00067154 0.00460032 0.00151363 0.00269303 0.0247791 0.02586 0.0564628 -0.00300988 -0.0212444 0.00187332 -0.0643201 -0.0565484 0.0128411 0.0127378 0.0865103 -0.0617175 0.184605 0.105654 0.12259 -0.0207521 -0.0925628 -0.000549892 -0.136604 0.121111 -0.0254733 -0.0949913 0.0559367 0.0677026 0.245663 0.0268234 0.226058 -0.174764 0.0961378 0.0652459 -0.0204416
2469 0.00756961 0.0530633 -0.0577065 -0.155462 -0.0481043 -0.109068 0.00727636 -0.0323913 0.00291329 0.0592185 -0.0377656 0.133911 0.0830579 0.0164195 0.0525611 -0.0228168 0.0655684 0.0873728 -0.0108792 -0.0621028 -0.0424806 -0.113231 -0.0933924 0.0265655 0.0179731 0.100538 -0.0447201 0.0119436 0.00513834 0.0804614 -0.0575851 0.14831 0.11171 0.149214 -0.0250137 -0.0603039 -0.0136826 -0.178978 0.138009 -0.0242734 -0.0898894 0.0425693 0.0571246 0.204936 0.0177428 0.140866 -0.143124 0.085646 0.0634277 -0.0297058
1510 0.00755272 -0.0420804 -0.0129674 -0.0365469 -0.00218744 0.0170214 0.0144628 0.00402556 0.0202869 -0.0192384 -0.0126417 0.0035996 -0.122399 -0.0264351 -0.0296074 0.0174054 -0.0347835 -0.0528117 -0.0100886 0.0750563 0.04917 0.166135 0.0976052 -0.0382543 -0.009632 -0.151041 -0.0199429 0.0214497 0.0191396 0.0678417 -0.0422873 0.115258 0.0384437 0.0408996 -0.0191129 -0.0789149 0.000783239 -0.0439833 0.041406 -0.0105075 -0.0648973 0.0204889 0.0558601 0.156499 0.00970765 0.165249 -0.107058 0.0772674 0.0344747 0.00210022
1822 0.0545877 0.0616547 -0.33774 -0.789925 -0.186775 -0.323877 0.0951147 -0.147126 0.138967 0.181166 -0.120321 0.564198 -0.172281 -0.0666435 0.158358 -0.0623661 0.0646815 0.131261 -0.0578776 0.0695391 0.0554168 0.232296 -0.0078234 -0.117854 0.0406028 -0.188641 -0.24294 0.110304 0.0656977 0.388141 -0.25795 0.767757 0.387825 0.456188 -0.0788458 -0.360784 -0.0159685 -0.456117 0.387397 -0.0422933 -0.431283 0.172564 0.284117 0.874106 0.0749152 0.939955 -0.71454 0.431829 0.223796 -0.0488472
1910 0.00674403 0.000944377 -0.0627298 -0.151834 -0.0376916 -0.0774801 0.00899514 -0.0195049 0.0216668 0.055548 -0.0249507 0.120105 -0.00181695 0.0030237 0.0386133 -0.0217043 0.0326945 0.0388945 -0.0119688 -0.00437225 0.000847944 0.00720161 -0.0233712 -0.00801572 0.00791988 -0.0112989 -0.0416822 0.0159266 0.00961897 0.102925 -0.0698224 0.185401 0.103919 0.149589 -0.0235014 -0.0739997 -0.00618329 -0.155776 0.130028 -0.0271407 -0.0943427 0.0478709 0.0699232 0.220598 0.0255659 0.198974 -0.154657 0.0893867 0.0712998 -0.0228943
1772 -0.00188253 0.00298578 -0.0360797 -0.0970848 -0.0272347 -0.0573316 0.0196288 -0.0182452 0.0214851 0.0283479 -0.0255485 0.092 -0.0163852 -0.00972327 0.0181275 -0.0106211 0.0152955 0.0190128 -0.00522506 0.00848784 0.00514488 0.0483013 -0.00423432 -0.0168178 0.00280902 -0.0241772 -0.0330156 0.016571 0.0179489 0.0847519 -0.0531132 0.155622 0.0888308 0.107235 -0.0123679 -0.0591468 -0.00181304 -0.112853 0.102386 -0.0114341 -0.0752764 0.0408624 0.0598662 0.188176 0.0231242 0.185741 -0.13934 0.0823874 0.0473325 -0.0188509
2822 0.0165457 0.0719433 -0.114686 -0.261838 -0.0892232 -0.17222 0.0220594 -0.0581721 0.0183134 0.102246 -0.0453153 0.243073 0.124172 0.0194532 0.0913179 -0.0550838 0.09277 0.148152 -0.0214799 -0.0760922 -0.0386533 -0.137647 -0.139109 0.0338123 0.0258431 0.145511 -0.0858147 0.0298771 0.0196218 0.152594 -0.104236 0.280273 0.213532 0.270234 -0.0450896 -0.112804 -0.0133907 -0.316819 0.242624 -0.0255278 -0.155438 0.0803472 0.102763 0.353769 0.0515441 0.290345 -0.24302 0.135968 0.10631 -0.0571746
2686 2.82165e-05 0.0532843 -0.0243664 -0.092656 -0.0400995 -0.0770057 0.00940212 -0.0237565 -0.000392953 0.0528029 -0.0168135 0.0923795 0.107463 0.0120837 0.0542752 -0.0284308 0.0553927 0.10372 0.00196796 -0.0755952 -0.0582755 -0.153177 -0.110894 0.0439831 0.0139566 0.156124 -0.0145651 0.00319211 0.010974 0.0247539 -0.0204703 0.0445851 0.0599341 0.089187 -0.00278322 -0.00541022 -0.00794835 -0.089582 0.065299 -0.00119715 -0.0168496 0.0209488 0.00716792 0.0487192 0.0199506 0.0190776 -0.0451157 0.0309132 0.0304284 -0.012872
731 0.00547059 -0.0510226 -0.0469139 -0.0899502 -0.0172327 -0.0246817 0.024027 -0.0199237 0.0260876 -0.000589152 -0.00570086 0.0495954 -0.10093 -0.0256379 -0.0219871 0.0189086 -0.019429 -0.0456088 -0.00861109 0.0760056 0.0402476 0.155904 0.067967 -0.0524762 -0.00129993 -0.147947 -0.0394048 0.0122375 0.0229994 0.0935435 -0.0465551 0.165875 0.0819287 0.0794132 -0.0148513 -0.0810783 -0.00803661 -0.112273 0.0844165 -0.021492 -0.0989504 0.0316751 0.0765093 0.229692 0.0148182 0.228164 -0.153221 0.106748 0.0585211 -0.00140047
802 0.00972925 -0.0208129 -0.0809413 -0.195427 -0.0319595 -0.0806516 0.0360754 -0.0382457 0.0361751 0.0367687 -0.0373177 0.148382 -0.0887908 -0.0250311 0.0120436 -0.000426158 -0.000224073 -0.0158697 -0.0121358 0.0681039 0.0519805 0.160909 0.0442958 -0.0402592 0.00582478 -0.139785 -0.0829974 0.0412336 0.0313435 0.157204 -0.105042 0.300548 0.157095 0.182102 -0.0325976 -0.147975 -0.0163888 -0.206539 0.18673 -0.0309961 -0.156191 0.0684802 0.12898 0.381583 0.0431714 0.382606 -0.270351 0.167502 0.0903419 -0.0169639
2715 0.0333487 -0.002959 -0.165076 -0.378891 -0.0751855 -0.166809 0.0446328 -0.070546 0.0636432 0.0752658 -0.0654351 0.309511 -0.0651461 -0.0359325 0.0552893 -0.0268349 0.0296199 0.0606591 -0.0115213 0.0498327 0.0424393 0.135 -0.00630156 -0.0411085 0.0144317 -0.11582 -0.139666 0.0519037 0.0325695 0.251082 -0.15171 0.474176 0.249712 0.308951 -0.0577039 -0.215537 -0.0246103 -0.325056 0.280586 -0.0365857 -0.234084 0.111883 0.168962 0.555529 0.0649228 0.55312 -0.40962 0.238157 0.153832 -0.0365836
1062 0.00296978 -0.0330139 -0.0332445 -0.0500245 -0.00251015 -0.00539006 0.00989231 -0.00382584 0.0157764 -0.0121563 -0.0123648 0.0216515 -0.0987546 -0.030693 -0.0171439 0.0185921 -0.0349291 -0.0390242 -0.00890669 0.0657307 0.0345454 0.144153 0.0728448 -0.0380759 -0.000648026 -0.13091 -0.0252645 0.0203698 0.00687781 0.0732508 -0.0465698 0.12627 0.0616533 0.0469136 -0.0136257 -0.0686601 -0.000967149 -0.0659426 0.0707851 -0.0187473 -0.0773426 0.0232117 0.0686483 0.190279 0.0258031 0.19589 -0.138006 0.0842006 0.0463195 -0.00125925
2144 0.0454654 -0.0235163 -0.184048 -0.456143 -0.0884604 -0.202176 0.0564004 -0.0771424 0.0879385 0.101325 -0.0807367 0.348397 -0.140864 -0.0457802 0.0547138 -0.0299839 0.0274676 0.043202 -0.0270144 0.10057 0.0755433 0.228509 0.0413386 -0.0778789 0.000143703 -0.203004 -0.168688 0.0720706 0.0560835 0.308358 -0.208543 0.603807 0.329438 0.393906 -0.0685596 -0.258122 -0.0123078 -0.394325 0.32145 -0.0539088 -0.314835 0.126512 0.233565 0.732291 0.0855003 0.72831 -0.528231 0.323186 0.193423 -0.0394158
2705 0.0251436 0.00388539 -0.171089 -0.392285 -0.0842158 -0.179693 0.0446985 -0.0688049 0.0671031 0.102889 -0.0693665 0.306925 -0.0699168 -0.030576 0.055615 -0.0174908 0.0265156 0.0583841 -0.0259445 0.0541296 0.0287043 0.112576 -0.00679882 -0.0304138 0.00725843 -0.107606 -0.148851 0.0613534 0.0410521 0.26265 -0.169451 0.50447 0.280168 0.348654 -0.072893 -0.235286 -0.0166776 -0.409835 0.320274 -0.0601424 -0.267485 0.135497 0.203812 0.626762 0.0780803 0.610905 -0.462534 0.26425 0.167323 -0.0492453
2580 -0.00413849 0.0726894 -0.021997 -0.0888867 -0.0223317 -0.0801188 0.010818 -0.0280421 -0.00638404 0.0497006 -0.00799918 0.0806002 0.130349 0.0193448 0.0555885 -0.0244602 0.0594661 0.0984606 -0.011686 -0.0816345 -0.0585 -0.164387 -0.108303 0.0505642 0.0191672 0.164462 -0.0232013 0.00227384 -0.00542559 0.020602 -0.0202162 0.0437496 0.0582918 0.0667604 -0.000580591 -0.000828621 -0.0102829 -0.0821611 0.066903 -0.00480056 -0.0122964 0.0202842 -0.00460119 0.0476218 0.000464599 0.0117585 -0.0305676 0.0230752 0.0297651 -0.020763
1940 0.0108583 -0.0148013 -0.0724588 -0.15456 -0.034014 -0.0744679 0.015831 -0.0217294 0.0309289 0.0419746 -0.0230227 0.138143 -0.0368873 -0.0100655 0.02198 -0.0176406 0.0236545 0.0261875 -0.00879813 0.0197027 0.0200498 0.0469773 -0.00908962 -0.0121262 -0.00482597 -0.0429123 -0.0611275 0.0199916 0.0207923 0.11241 -0.0714033 0.203253 0.106159 0.140882 -0.0241046 -0.0941997 0.00134972 -0.169192 0.130801 -0.0158605 -0.124485 0.0491352 0.0830819 0.271963 0.0367854 0.271476 -0.205482 0.113277 0.0654093 -0.0218221
2837 0.00763178 0.0815878 -0.131961 -0.318644 -0.0822363 -0.189992 0.0289322 -0.0605317 0.0253333 0.105866 -0.0666558 0.27205 0.0902021 0.0149998 0.0897515 -0.0529784 0.0851185 0.136743 -0.0246213 -0.0474519 -0.0403802 -0.104727 -0.124943 0.0173542 0.0306946 0.114648 -0.0997254 0.0429405 0.0302277 0.186809 -0.113423 0.339853 0.235757 0.284609 -0.0419692 -0.142533 -0.0189577 -0.356259 0.285457 -0.0431177 -0.193186 0.105909 0.148461 0.464162 0.0511581 0.403665 -0.326853 0.180061 0.141783 -0.0477469
498 0.000208345 0.0698438 -0.0333901 -0.0961363 -0.0256744 -0.0947276 0.00932751 -0.0278917 -0.0130489 0.0546843 -0.0296491 0.0854502 0.140556 0.0270996 0.0595087 -0.0403068 0.0653784 0.110042 -0.00593026 -0.085313 -0.0489464 -0.176846 -0.132433 0.0387449 0.0152319 0.1834 -0.019924 -0.00121445 0.0020689 0.0315982 -0.0129826 0.0395938 0.0587893 0.0826319 -0.00488456 -0.00492748 -0.00538651 -0.0972379 0.0818249 -0.0102729 -0.0298059 0.025769 0.0146256 0.0515007 0.00922342 0.0272297 -0.0485154 0.0144796 0.0287179 -0.0295858
1798 -0.00386124 0.036697 -0.0452745 -0.133306 -0.0267967 -0.0799637 0.00844493 -0.0302786 0.0146748 0.038283 -0.0265169 0.110802 0.0451645 0.0111 0.0461821 -0.0144881 0.0321161 0.058384 -0.0116792 -0.0204759 -0.0164949 -0.0415027 -0.0661915 0.00263726 0.022835 0.0567272 -0.0410995 0.020405 0.0198269 0.0780943 -0.0465717 0.149101 0.0900343 0.124093 -0.0165109 -0.0684236 0.00330857 -0.164243 0.115044 -0.0139785 -0.0845042 0.0468991 0.0596543 0.188185 0.0153121 0.15883 -0.144091 0.0692197 0.0509153 -0.0320617
2314 0.00866884 0.0624773 -0.0420038 -0.123824 -0.0302526 -0.0953729 0.0175963 -0.0250586 0.0086561 0.047724 -0.0207034 0.097602 0.0692558 0.0198153 0.0580827 -0.0303446 0.0526219 0.0698671 -0.00824702 -0.0480375 -0.0276203 -0.104029 -0.0939524 0.0249528 0.00797973 0.104649 -0.0341069 0.0124715 0.00238995 0.0529476 -0.0454924 0.122374 0.0969648 0.120776 -0.00973478 -0.041763 -0.0083657 -0.130049 0.102715 -0.0102584 -0.0511479 0.0442044 0.0335384 0.132115 0.0174929 0.125331 -0.108815 0.0557092 0.0549027 -0.0318605
2624 -0.00223921 0.0290332 -0.0597618 -0.144785 -0.0452934 -0.0797546 0.0206487 -0.0304225 0.0159586 0.0443203 -0.0251675 0.1328 0.0278883 -0.00173033 0.0336834 -0.0261972 0.0384745 0.0450632 -0.00390862 -0.00689356 -0.0202817 -0.0293872 -0.0367796 0.00322795 0.00250477 0.0444105 -0.0504063 0.0178363 0.00896452 0.0843093 -0.0688749 0.17006 0.108142 0.151699 -0.0296372 -0.0840461 0.000689052 -0.170686 0.142382 -0.0292651 -0.103772 0.0536162 0.0847862 0.24443 0.0355538 0.202638 -0.183273 0.0971897 0.079503 -0.0206462
1961 0.0162109 -0.0491473 -0.0270392 -0.0723163 -0.0180489 -0.0119752 0.0122611 -0.00612083 0.0406221 0.00357139 -0.00924861 0.0610774 -0.12405 -0.0199278 -0.00916024 0.0175288 -0.0242962 -0.0381133 -0.000652908 0.0807712 0.0509681 0.164843 0.0838639 -0.0421984 -0.0050252 -0.163316 -0.0433528 0.0228354 0.0253598 0.0928421 -0.0534232 0.161294 0.0610299 0.0736876 -0.0141827 -0.0833197 -0.0025804 -0.099591 0.0688976 -0.0139331 -0.100861 0.0263527 0.0762571 0.21052 0.015753 0.240334 -0.151532 0.0929404 0.0525729 -0.0107154
2879 0.0308718 0.0124393 -0.16532 -0.393672 -0.104775 -0.216009 0.0307065 -0.0457657 0.0735032 0.126203 -0.0925616 0.33295 -0.0381903 -0.0334454 0.0889351 -0.0415266 0.0637124 0.0812749 -0.000190957 0.0260496 -0.00569166 0.0415811 -0.0589912 -0.0375196 0.028295 -0.0365166 -0.151506 0.0642874 0.0487932 0.233341 -0.183583 0.479056 0.295647 0.373051 -0.0781657 -0.203634 -0.00394019 -0.390407 0.307176 -0.0477296 -0.249943 0.131596 0.175325 0.58111 0.0506319 0.578347 -0.461025 0.271609 0.167417 -0.046999
211 0.00469309 -0.0364941 -0.0260848 -0.0558838 -0.00535004 -0.0222746 0.0107722 -0.010733 0.0215786 0.0111521 -0.00646671 0.0496441 -0.0811555 -0.0207405 -0.00227546 0.00790059 -0.010041 -0.0325689 -0.0111083 0.0536246 0.0383115 0.118422 0.0501803 -0.0340706 0.00133677 -0.103176 -0.0260558 0.0203811 0.00584726 0.0638103 -0.0360673 0.127299 0.0560167 0.0654085 -0.00920921 -0.0638806 -0.00393745 -0.0740587 0.0735737 -0.0208883 -0.0826051 0.0295365 0.0572913 0.201846 0.0242793 0.185002 -0.147957 0.0851275 0.048018 -0.010341
495 0.0197838 -0.0505642 -0.0257719 -0.0644585 -0.0171529 -0.000970058 0.0216463 -0.00659306 0.0223442 -0.0112046 -0.0149645 0.0486741 -0.116739 -0.031362 -0.0154618 0.0129605 -0.022101 -0.0497035 -0.00481448 0.0681082 0.0630636 0.182197 0.077145 -0.0459679 -0.0104641 -0.158087 -0.04339 0.0170141 0.00909716 0.0764083 -0.0523428 0.154927 0.0581166 0.0810537 -0.0246162 -0.075751 -0.00104877 -0.0895242 0.0795572 -0.0146392 -0.092436 0.0424299 0.0712522 0.216945 0.0305183 0.221893 -0.154221 0.095378 0.0511339 -0.000470332
1577 0.013446 -0.0571197 -0.0417727 -0.108685 -0.0109982 -0.0173334 0.0239834 -0.0111792 0.0357394 -0.00619228 -0.0283562 0.0675667 -0.11919 -0.0234264 -0.015436 0.0141902 -0.0322581 -0.0235301 -0.00609941 0.0704598 0.0641032 0.193472 0.092815 -0.0558097 -0.00536612 -0.169739 -0.0580646 0.0195306 0.0248594 0.110707 -0.0635617 0.205763 0.10375 0.104278 -0.034079 -0.118148 0.00615829 -0.118123 0.0942402 -0.0270018 -0.122702 0.0484483 0.0971343 0.276261 0.0213468 0.271429 -0.198968 0.125181 0.0698435 -0.0171722
1841 0.0390951 -0.0595105 -0.111811 -0.253789 -0.0572493 -0.102261 0.0282787 -0.0482989 0.0680182 0.0290122 -0.0498101 0.195411 -0.14425 -0.0343191 0.0189333 -0.0116637 -0.0111438 -0.00402018 -0.0163857 0.104318 0.0611286 0.194806 0.0553473 -0.0552079 -0.00400509 -0.195643 -0.100714 0.0458468 0.0450319 0.217519 -0.135403 0.418468 0.206502 0.256493 -0.0485863 -0.19558 -0.00106853 -0.252469 0.215843 -0.0408549 -0.22092 0.0972309 0.158214 0.480526 0.0587704 0.483823 -0.349211 0.215498 0.112213 -0.0171658
1911 0.030073 -0.0335607 -0.131121 -0.293963 -0.0714948 -0.114778 0.0308249 -0.0450529 0.0444996 0.0626486 -0.0462504 0.226609 -0.0670802 -0.0182621 0.0464899 -0.00891037 0.0221013 0.0474459 -0.00633188 0.0366333 0.0216036 0.0973701 0.00711847 -0.0339587 0.00771506 -0.101556 -0.0993713 0.0503042 0.037628 0.190786 -0.127914 0.37939 0.189755 0.24612 -0.0446012 -0.175133 -0.0048927 -0.302797 0.236018 -0.0411442 -0.198553 0.0943126 0.147973 0.448992 0.0510106 0.452348 -0.316044 0.201993 0.120452 -0.0246695
607 -0.0145079 0.0633832 -0.0249533 -0.0819581 -0.0367935 -0.081763 0.00477144 -0.0268392 -0.0092598 0.0468306 -0.0177905 0.0711535 0.135703 0.0210495 0.0553657 -0.0258556 0.0557107 0.103872 0.00524183 -0.0867007 -0.0550334 -0.179802 -0.113198 0.0451041 0.0219475 0.164133 -0.00558331 0.00107479 -0.00381086 0.027063 -0.0199459 0.0397572 0.0576302 0.0875848 -0.00769561 -0.00023566 -0.0034124 -0.0984783 0.0720513 -0.0125507 -0.0242315 0.0223712 0.00237562 0.0274578 0.00539299 0.00476029 -0.0345159 0.0123814 0.0284456 -0.0127654
710 0.00948018 -0.0288058 -0.0447558 -0.0841572 -0.00773005 -0.0124296 0.0191501 -0.00714206 0.0262326 0.00537095 -0.0134159 0.0528506 -0.0984994 -0.0292896 -0.0177549 0.0117466 -0.0306005 -0.0398665 -0.012313 0.0683331 0.037504 0.137798 0.0591922 -0.0460824 -0.0176762 -0.140901 -0.0404911 0.0175771 0.0184593 0.0893462 -0.0528153 0.147531 0.0747928 0.067266 -0.015048 -0.0861699 0.000701584 -0.0767998 0.0709634 -0.00965094 -0.0831779 0.0316545 0.0698791 0.193258 0.0187115 0.21395 -0.144359 0.0791194 0.0397308 -0.00346899
1522 0.0199435 -0.0134103 -0.154633 -0.353313 -0.0798319 -0.165091 0.0433174 -0.0648412 0.0716172 0.0753722 -0.0548169 0.286751 -0.0801564 -0.0264196 0.051666 -0.0166144 0.0266671 0.064459 -0.0228141 0.0541553 0.0319757 0.117249 0.00135463 -0.0386084 0.0107023 -0.125836 -0.138552 0.0657931 0.045807 0.252054 -0.157508 0.478903 0.276246 0.340089 -0.0696447 -0.203151 -0.00697377 -0.364036 0.302737 -0.0481001 -0.253299 0.120089 0.193826 0.579933 0.0616597 0.572826 -0.426954 0.258273 0.152504 -0.0457706
1671 0.0287975 -0.0486658 -0.0776669 -0.153903 -0.0321218 -0.0602539 0.0269228 -0.0273577 0.0496035 0.0179498 -0.0289853 0.127999 -0.113687 -0.0272914 0.00561497 0.00889092 -0.0194913 -0.0281164 -0.000994824 0.074108 0.0608804 0.182409 0.0673046 -0.0542629 -0.00162874 -0.155138 -0.0630613 0.0239615 0.0140143 0.135233 -0.0964885 0.255356 0.13279 0.1568 -0.0379552 -0.121875 -0.0090813 -0.172904 0.136949 -0.0226176 -0.155109 0.0537156 0.120861 0.34213 0.0407568 0.342305 -0.237621 0.147552 0.0884565 -0.00775913
1871 0.0179889 -0.00875796 -0.0851486 -0.185414 -0.0492513 -0.0970658 0.0207284 -0.0271719 0.0311319 0.0518408 -0.0299056 0.145141 -0.0358584 -0.02105 0.0240232 -0.0161971 0.00785902 0.0310615 -0.0132585 0.0274184 0.0185993 0.0731681 0.006263 -0.0214728 -0.00477833 -0.0740682 -0.0661056 0.0267512 0.0126578 0.121488 -0.0834104 0.249457 0.127557 0.173515 -0.0340178 -0.109724 -0.00304254 -0.191024 0.166103 -0.021337 -0.143454 0.0717095 0.110068 0.329193 0.0466991 0.309503 -0.22078 0.13937 0.0838839 -0.0298419
2086 -0.00245581 0.0287179 -0.0696848 -0.167614 -0.0427269 -0.101202 0.0267162 -0.0394359 0.0311393 0.0651762 -0.0356173 0.143789 0.0407476 -0.00246807 0.0505781 -0.0270679 0.0499865 0.0784475 -0.00283688 -0.012705 -0.00918511 -0.0248919 -0.047015 -0.00594392 0.00811986 0.0369592 -0.0570758 0.0295628 0.0176596 0.106712 -0.0745915 0.195643 0.13936 0.180678 -0.0306975 -0.0847712 0.000508215 -0.198294 0.151023 -0.0204339 -0.114243 0.0506801 0.0860165 0.280891 0.0335954 0.237919 -0.194355 0.103171 0.0845216 -0.0220012
1501 -0.00847674 0.077608 -0.0417875 -0.0996176 -0.035568 -0.0923824 0.0074181 -0.0297289 -0.002393 0.0634711 -0.0148299 0.0769391 0.133701 0.0290403 0.0548844 -0.0405721 0.059861 0.106493 -0.0039286 -0.0949203 -0.0708701 -0.187026 -0.129542 0.0512255 0.0174178 0.178807 -0.0112187 0.00540684 0.00023126 0.0191331 -0.0242741 0.0496731 0.0532945 0.0764643 -0.0139889 0.00929822 -0.013954 -0.111231 0.0689584 -0.0177703 -0.0159157 0.0262692 0.00854617 0.0377081 0.0190373 0.020687 -0.0401889 0.0252433 0.0256349 -0.0266401
2502 0.00701203 0.0305966 -0.0457122 -0.0899346 -0.0231753 -0.0585175 0.00768239 -0.019589 0.0151012 0.0463043 -0.017528 0.0797055 0.0557804 0.0107387 0.0268906 -0.00924604 0.0291914 0.0545317 -0.00524687 -0.0355355 -0.0266719 -0.0606417 -0.0405476 0.0208404 0.00330112 0.0500978 -0.017995 2.60132e-05 0.0182483 0.055659 -0.0304464 0.0882628 0.0671 0.0885054 -0.0073087 -0.0353991 0.00391807 -0.101552 0.0730714 -0.0184633 -0.0436256 0.0355842 0.0270203 0.120953 0.00501999 0.08656 -0.0833331 0.0377503 0.0255077 -0.0127367
2835 0.0160666 0.091542 -0.190329 -0.467229 -0.115857 -0.281539 0.0435879 -0.0826855 0.0508619 0.163155 -0.085359 0.382892 0.107078 0.000963866 0.131646 -0.0682387 0.119259 0.190073 -0.0227625 -0.0679287 -0.0304083 -0.107766 -0.152092 0.0264043 0.0402133 0.132525 -0.152942 0.0573529 0.0418688 0.277013 -0.185402 0.526479 0.34307 0.444096 -0.0728254 -0.215203 -0.0175135 -0.516021 0.430173 -0.0569336 -0.299206 0.14888 0.212798 0.715368 0.0896378 0.614024 -0.500709 0.301844 0.220254 -0.0871526
185 0.0120816 -0.0384316 -0.0679734 -0.153808 -0.0383821 -0.0715048 0.0153668 -0.0242342 0.0451637 0.0379855 -0.0302521 0.114704 -0.0755741 -0.0129146 0.00893057 -0.00874539 -0.00503603 0.00258399 -0.01598 0.0601178 0.0481354 0.139082 0.0445244 -0.0302242 -0.0039138 -0.120753 -0.0747441 0.0180274 0.0229902 0.127621 -0.0967727 0.270466 0.132279 0.168132 -0.0265642 -0.129666 -0.000697485 -0.179365 0.145892 -0.0289787 -0.148016 0.0618194 0.104319 0.330508 0.0307907 0.321952 -0.248629 0.152908 0.0850859 -0.0142696
645 0.000558515 -0.0118198 -0.0435835 -0.0750246 -0.0219916 -0.0361985 0.0124291 -0.00538574 0.0103318 0.0162201 -0.0139824 0.0564685 -0.0399941 -0.0179812 -0.00247535 -0.00393391 -2.41521e-05 0.00183687 -0.000854619 0.0349168 0.0162142 0.072364 0.0181748 -0.0279703 -0.000854979 -0.0608478 -0.0201527 0.00632428 0.00703737 0.0553475 -0.0454398 0.114363 0.0565126 0.0728378 -0.0138916 -0.0538377 0.000816122 -0.0824019 0.0756514 -0.00370219 -0.0747608 0.0361927 0.0516652 0.139159 0.0150872 0.137509 -0.112494 0.053263 0.0426338 -0.00574252
1670 0.0565738 0.0324936 -0.295697 -0.678414 -0.165031 -0.329797 0.0911983 -0.123656 0.0994355 0.180247 -0.123282 0.551011 -0.0336711 -0.030549 0.149146 -0.0654542 0.102 0.192088 -0.0406773 0.0198593 0.0314689 0.0813835 -0.0824611 -0.0419887 0.0368826 -0.0807945 -0.235674 0.0933629 0.0672184 0.412029 -0.265031 0.799172 0.452388 0.570842 -0.107434 -0.350336 -0.0211285 -0.66042 0.521683 -0.0699859 -0.433704 0.198593 0.321448 0.980735 0.114033 0.958585 -0.733674 0.431542 0.262707 -0.075759
2773 0.00684169 0.0647661 -0.0527009 -0.126508 -0.0445134 -0.103066 0.000158888 -0.0317195 0.00422797 0.0601097 -0.0236439 0.117262 0.124831 0.0173425 0.0695335 -0.038593 0.0680828 0.0992051 -0.000822164 -0.0851656 -0.0539129 -0.150153 -0.113241 0.0400897 0.0118142 0.143764 -0.0239751 0.00930896 0.015786 0.0519681 -0.0383578 0.0986578 0.0822679 0.110275 -0.011868 -0.0210816 -0.0146371 -0.151849 0.117353 -0.0218109 -0.0464492 0.0329681 0.0283984 0.102254 0.0173824 0.0788086 -0.0869151 0.0534646 0.0549421 -0.0163589
1297 -0.014361 0.073912 -0.0397788 -0.0908631 -0.0238526 -0.0802374 0.00211609 -0.0184549 -0.0117388 0.0643661 -0.0237211 0.0849393 0.138982 0.0172822 0.0626443 -0.0352562 0.0613948 0.0970144 -0.000654237 -0.086146 -0.0537654 -0.189782 -0.120915 0.0465514 0.01665 0.176142 -0.0240952 0.00619106 0.00548981 0.0221978 -0.0119718 0.0401539 0.0510903 0.0902943 -0.0056377 0.00666671 0.00447496 -0.111035 0.0753959 -0.00194531 -0.026931 0.0346221 0.00821613 0.0412375 0.0142171 0.0200407 -0.0282549 0.0115692 0.0346036 -0.0193989
2908 0.007545 0.0295002 -0.108479 -0.274295 -0.0648824 -0.140266 0.0295308 -0.0408091 0.0288016 0.0819832 -0.0551851 0.192999 0.0205248 -0.004777 0.0674318 -0.0333386 0.0404556 0.0855438 -0.0199029 -0.0104583 -0.00833372 -0.0210325 -0.0605884 -0.011441 0.0145811 0.0267433 -0.0752129 0.026577 0.0330925 0.148633 -0.101193 0.309256 0.17764 0.228441 -0.0508818 -0.118325 -0.00517564 -0.28268 0.2283 -0.0266891 -0.177238 0.0872668 0.134216 0.410817 0.0526446 0.361217 -0.291785 0.164783 0.12055 -0.032914
2676 -0.0128563 0.0625832 -0.0441486 -0.111706 -0.0464785 -0.101692 0.00600112 -0.0168508 0.00132824 0.0566054 -0.0171182 0.102819 0.154728 0.0207129 0.0699054 -0.0252915 0.0702504 0.118213 -0.00897903 -0.10385 -0.0659561 -0.189012 -0.134696 0.05358 0.0154049 0.195991 -0.0264107 -0.00285793 -0.00543334 0.0208744 -0.022414 0.0543179 0.0656639 0.10197 -0.00334575 -0.0111234 0.00257779 -0.124043 0.0801175 -0.00737607 -0.0350898 0.0263097 0.014121 0.0429422 0.00865906 0.00892014 -0.0481462 0.015125 0.0351173 -0.0238964
1726 0.0261184 -0.0665724 -0.0578047 -0.121724 -0.0135957 -0.0178792 0.0192005 -0.021541 0.0450366 -0.000573861 -0.0109171 0.082834 -0.132416 -0.0346157 -0.0143075 0.0203998 -0.0399523 -0.0461549 0.000463178 0.0892165 0.0719151 0.19204 0.0932884 -0.064085 -0.00441216 -0.18098 -0.0559559 0.029568 0.0157033 0.116323 -0.083513 0.222884 0.0891523 0.109874 -0.0327521 -0.118181 -0.0140958 -0.127766 0.111769 -0.0156455 -0.128958 0.0519356 0.103901 0.291475 0.0259161 0.314574 -0.21659 0.117803 0.069679 -0.0135582
2491 0.0219853 -0.046957 -0.0832821 -0.178828 -0.0230501 -0.0488276 0.0258673 -0.0296601 0.0497483 0.0140896 -0.0353142 0.136782 -0.140104 -0.0315656 -0.000712925 0.0112271 -0.0301691 -0.0377805 -0.018949 0.077798 0.0583758 0.18299 0.065476 -0.0499262 -0.00298585 -0.180436 -0.0664776 0.0256926 0.0236799 0.148089 -0.0993717 0.261986 0.121423 0.140411 -0.0318617 -0.125949 -0.0135006 -0.171981 0.145822 -0.0339174 -0.150921 0.0580055 0.115114 0.342386 0.0366833 0.363078 -0.242446 0.140732 0.085727 -0.00906967
2499 0.0328054 -0.0245886 -0.136725 -0.307588 -0.0706849 -0.125403 0.0258873 -0.0562107 0.0482393 0.056636 -0.0536145 0.227267 -0.0727632 -0.0250564 0.0252717 -0.00875649 0.0122346 0.037066 -0.0105594 0.063924 0.036059 0.1188 0.00470766 -0.0376851 0.0207021 -0.0815154 -0.112437 0.0584474 0.0463273 0.207297 -0.13496 0.425975 0.240474 0.275994 -0.0560318 -0.199558 -0.0243127 -0.335472 0.268082 -0.0531704 -0.219277 0.109583 0.159468 0.528766 0.0611519 0.521389 -0.390118 0.211077 0.147052 -0.0449389
2714 0.002262 0.0197216 -0.0379487 -0.0864866 -0.0120902 -0.0353671 0.011847 -0.020385 0.00241639 0.0238266 -0.019873 0.0672609 0.025719 -0.00449319 0.0295176 -0.00159459 0.0177338 0.0410709 -0.00944793 -0.0191391 -0.00126013 -0.0130123 -0.0262375 -0.0022364 -0.00194917 0.0352142 -0.0332078 0.00205818 0.000364084 0.0416134 -0.0309548 0.0995273 0.0691474 0.0843599 -0.0149933 -0.0366048 0.00468932 -0.0949941 0.0855343 -0.0201948 -0.0580052 0.0317057 0.0322141 0.132819 0.0156716 0.112715 -0.100204 0.0592164 0.045808 -0.00887466
2870 0.0200774 0.088497 -0.182532 -0.449531 -0.120852 -0.272791 0.052753 -0.0787164 0.0553493 0.149433 -0.0984827 0.379641 0.113649 -0.00368077 0.139504 -0.0561672 0.11388 0.197726 -0.0239027 -0.0807529 -0.0430893 -0.131666 -0.171814 0.0150336 0.0379998 0.122723 -0.151881 0.0680835 0.0393682 0.260886 -0.167271 0.503292 0.314578 0.404125 -0.0727042 -0.207691 -0.0298078 -0.503615 0.387733 -0.0554616 -0.27445 0.157548 0.183938 0.62802 0.077538 0.569758 -0.469789 0.275464 0.184616 -0.0618779
412 0.0192691 -0.0150804 -0.0452876 -0.0955883 -0.00812042 -0.0232738 0.00349353 -0.0186852 0.0140935 0.0186977 -0.00572477 0.0638369 -0.0490204 -0.0179464 -0.00578076 0.00468455 -0.0110409 -0.00580235 -0.0134972 0.0480456 0.025004 0.0686788 0.0199678 -0.0202941 0.00154283 -0.0663322 -0.0427249 0.0187377 0.01704 0.0699253 -0.0416131 0.122523 0.0685667 0.0701925 -0.0169531 -0.0760657 -0.0075945 -0.0846285 0.0867852 -0.00580193 -0.0736692 0.0393258 0.065256 0.179148 0.00938296 0.182935 -0.132308 0.080908 0.0482986 -0.00180822
2946 0.00533267 0.0459979 -0.107263 -0.232159 -0.0627072 -0.134603 0.0245105 -0.0510693 0.0234031 0.0700627 -0.0444767 0.198034 0.0420902 0.00687055 0.0682362 -0.0372126 0.0568395 0.0783724 -0.0187274 -0.0238031 -0.0250662 -0.0424159 -0.0768088 0.0115464 0.0114581 0.0611377 -0.0755406 0.0389138 0.027786 0.135219 -0.0902948 0.275273 0.179913 0.216204 -0.0355448 -0.113588 -0.0152602 -0.26809 0.200087 -0.0292596 -0.150147 0.0712439 0.101705 0.344781 0.0356303 0.316928 -0.246902 0.149779 0.108745 -0.0445888
420 0.021419 -0.0432909 -0.0251687 -0.0649189 -0.0084333 -0.0152982 0.0113041 -0.0152605 0.0192013 -0.00373043 -0.0148208 0.0468376 -0.0987885 -0.0307167 -0.0118326 0.00529285 -0.0332626 -0.0308413 -0.00277701 0.0669383 0.0406728 0.138415 0.0781493 -0.0358364 -0.00148081 -0.134046 -0.0373122 0.00562105 0.0190649 0.0682661 -0.0479554 0.140547 0.0592692 0.073194 -0.0199585 -0.0728102 7.73422e-05 -0.0839053 0.0659866 -0.0116815 -0.0744413 0.0375241 0.0741585 0.189138 0.0286439 0.197624 -0.122051 0.0858326 0.0393959 0.000948516
543 0.0412687 0.0284417 -0.214407 -0.502384 -0.125717 -0.244811 0.0676704 -0.0902111 0.0872293 0.14466 -0.0861178 0.395488 -0.00216714 -0.0098429 0.0933126 -0.0592107 0.0738614 0.13749 -0.0336067 0.0118216 0.00320504 0.0456114 -0.0749144 -0.0313598 0.0323212 -0.0274992 -0.177958 0.0744188 0.049083 0.310472 -0.20438 0.610996 0.357487 0.458928 -0.0774815 -0.271873 -0.0274424 -0.532596 0.439348 -0.0584031 -0.334661 0.155682 0.238905 0.779894 0.0828422 0.729827 -0.553628 0.33949 0.215863 -0.065779
2204 0.00376823 0.065066 -0.0415666 -0.115382 -0.0394496 -0.0930035 -0.002841 -0.0244827 -0.00325774 0.0602538 -0.0310039 0.0916316 0.142717 0.0284221 0.0658568 -0.0290241 0.0726652 0.106696 0.00112378 -0.0902705 -0.0594679 -0.18565 -0.12303 0.0394281 0.0270397 0.179526 -0.0268421 0.00369321 0.00406429 0.0384729 -0.0239418 0.0497115 0.0716834 0.102209 -0.00872266 -0.0069069 -0.0143147 -0.130442 0.0924087 -0.00808044 -0.0309554 0.0283759 0.0236681 0.082523 0.0211384 0.0438073 -0.0500638 0.020934 0.0362517 -0.0295765
1729 0.00202552 0.0123079 -0.0397256 -0.0751385 -0.0213784 -0.0430414 0.00401173 -0.0169457 0.0119673 0.0114444 -0.0116406 0.068189 -0.00740347 -0.00667692 0.01734 -0.0118138 0.0118056 0.010196 -0.0131851 -0.000688365 0.00998735 0.011185 -0.00559008 -0.00588509 -1.25519e-05 -0.012779 -0.0291664 0.0035564 0.00935254 0.0545224 -0.0345973 0.11077 0.060894 0.0720546 -0.016855 -0.0417523 -0.0129025 -0.0990748 0.0697119 -0.0162114 -0.062969 0.0285169 0.043074 0.139751 0.0198476 0.149187 -0.117101 0.0592083 0.0410808 -0.0126178
2914 0.00524822 0.0693595 -0.0633428 -0.159668 -0.0517685 -0.105347 0.0157055 -0.0341615 0.00562788 0.0587465 -0.0211594 0.126322 0.0831011 0.00414069 0.0561544 -0.0321358 0.0533564 0.0919198 -0.00138708 -0.0600523 -0.0429481 -0.117004 -0.0977338 0.0336993 0.0179631 0.12386 -0.054709 0.0192028 0.0205815 0.0883159 -0.0580385 0.149883 0.121183 0.146324 -0.0218013 -0.0531504 -0.0168269 -0.18767 0.148108 -0.0136957 -0.0859909 0.0496384 0.0606518 0.208355 0.0337711 0.182115 -0.147482 0.0899709 0.0716528 -0.0417565
2067 0.0138242 0.0354068 -0.0987412 -0.244377 -0.0523482 -0.128294 0.0284285 -0.0404449 0.0259061 0.075341 -0.0360182 0.171708 0.0363747 -0.00529996 0.0513036 -0.0346015 0.0508813 0.0863265 -0.0201028 -0.0187558 -0.0166822 -0.0517053 -0.0812143 0.000413975 0.0100656 0.0542758 -0.082905 0.0261883 0.0298329 0.144262 -0.0881597 0.256258 0.162918 0.198454 -0.0356917 -0.115266 -0.0208349 -0.259332 0.201178 -0.021315 -0.157428 0.0672939 0.103167 0.361709 0.0521149 0.315456 -0.247419 0.155985 0.113772 -0.0338624
403 0.00112153 -0.0318628 -0.0135819 -0.0321667 0.00344987 -0.00313929 0.010003 0.000884567 0.00864619 -0.00737261 0.00483077 0.0278887 -0.0828415 -0.0128725 -0.0215872 0.0135498 -0.0338243 -0.0357052 -0.00101121 0.0618819 0.043744 0.127716 0.0619546 -0.0311235 -0.00258921 -0.120651 -0.0232279 0.0172623 0.00769843 0.0516034 -0.032169 0.0962334 0.0386086 0.0432311 -0.0124567 -0.0615356 -0.0109385 -0.061377 0.0551796 -0.010571 -0.0570801 0.0216126 0.0511895 0.150969 0.00789615 0.154028 -0.108924 0.0562869 0.0348782 -0.00249988
1775 0.0474599 0.0200293 -0.258668 -0.625291 -0.130166 -0.286907 0.0740284 -0.0916963 0.0945398 0.147036 -0.115341 0.496144 -0.072676 -0.0330465 0.112437 -0.0453433 0.0665634 0.137278 -0.02781 0.0535023 0.0326942 0.125458 -0.0517341 -0.0478676 0.0250915 -0.0760153 -0.213415 0.0861642 0.0619904 0.369931 -0.250907 0.735973 0.40198 0.494489 -0.0923821 -0.309357 -0.0215983 -0.56729 0.462732 -0.0583968 -0.389929 0.198893 0.271421 0.886202 0.0993702 0.858487 -0.67091 0.385694 0.243519 -0.056401
2209 0.0178497 0.0201456 -0.0588353 -0.15775 -0.0330874 -0.096336 0.00735177 -0.0353441 0.0221624 0.0452379 -0.0293192 0.138985 0.0135661 -0.00306795 0.0245344 -0.0144879 0.0180879 0.0450643 -0.0136526 0.000313153 0.00442236 6.5623e-05 -0.0317143 0.00104548 0.0134409 0.00316209 -0.0431159 0.0140392 0.0139142 0.0888933 -0.0574758 0.191883 0.121659 0.161543 -0.033932 -0.0683337 -0.0131831 -0.152573 0.120757 -0.0160839 -0.0906884 0.0520221 0.056713 0.21788 0.0352576 0.207107 -0.165911 0.0925012 0.060702 -0.0112823
2549 0.0232111 -0.0463967 -0.0185415 -0.050252 -0.0028119 0.00896307 0.0108971 -0.00713916 0.0226281 -0.0209749 0.00181887 0.0250401 -0.12322 -0.025104 -0.0262805 0.0215605 -0.0395459 -0.0554474 -0.00516992 0.0810239 0.058104 0.18198 0.0905781 -0.0573803 -0.0209812 -0.169719 -0.0428587 0.0054009 0.0120009 0.0743708 -0.0471652 0.150056 0.0617781 0.0570571 -0.0278489 -0.0715427 -0.00741202 -0.0648063 0.0672947 -0.0205873 -0.068525 0.0311078 0.0609894 0.185073 0.0277181 0.199255 -0.139096 0.0785731 0.0357997 0.00176288
251 0.0171026 -0.0397828 -0.0731 -0.159721 -0.0422225 -0.0523706 0.0284308 -0.0315346 0.0472454 0.0242205 -0.020111 0.124682 -0.0938965 -0.0281561 0.0139984 -0.00670021 -0.0103248 -0.00144928 -0.0176179 0.0524196 0.0369731 0.122954 0.0270139 -0.0362129 0.00822917 -0.119979 -0.0727708 0.0366439 0.0304674 0.140864 -0.085089 0.273694 0.14525 0.158077 -0.0328629 -0.121685 -0.0108795 -0.185238 0.153053 -0.0201662 -0.147985 0.0671535 0.100226 0.33222 0.0321152 0.307854 -0.220464 0.132657 0.0709557 -0.0106126
1006 0.0203788 -0.032732 -0.0938036 -0.220318 -0.038197 -0.0895525 0.0329417 -0.0361433 0.0560886 0.0369226 -0.0456839 0.161588 -0.110529 -0.0242837 0.0105893 -0.0152333 -0.0135275 0.00174874 -0.00711868 0.0765826 0.0498626 0.177215 0.054674 -0.0428559 -0.00184862 -0.148732 -0.0805708 0.0352216 0.0360033 0.17948 -0.120713 0.334185 0.179824 0.217819 -0.0514652 -0.155645 -0.0168789 -0.222594 0.206348 -0.0250335 -0.190822 0.0823475 0.14669 0.446896 0.0381586 0.422582 -0.312265 0.171509 0.103159 -0.0302319
2359 -0.00936853 0.0496984 -0.0366996 -0.103559 -0.0299865 -0.0760404 0.000590513 -0.0270538 0.00541889 0.0494839 -0.0269979 0.0939288 0.0798966 0.00796007 0.0491785 -0.0147007 0.041298 0.0744519 0.000697923 -0.0529182 -0.0306655 -0.10355 -0.0932478 0.0334098 0.0115837 0.128689 -0.030056 0.00847196 0.00757665 0.0544448 -0.0373584 0.0947532 0.078066 0.104451 -0.0235262 -0.0278026 0.00250608 -0.125211 0.100287 -0.0165572 -0.0511637 0.0227223 0.0237809 0.102415 0.0172871 0.0742875 -0.0854502 0.0443438 0.0419285 -0.0283325
1678 0.0198882 -0.0455279 -0.0673435 -0.148671 -0.0177724 -0.0455273 0.0183402 -0.0225389 0.050426 0.015873 -0.0363785 0.109306 -0.123696 -0.0264895 -0.0100465 0.00482992 -0.0284791 -0.0346111 -0.00422325 0.091356 0.0465945 0.173654 0.0649362 -0.0488928 -0.0125088 -0.15921 -0.0811275 0.0241311 0.0159084 0.130306 -0.0982142 0.269528 0.138388 0.147554 -0.0393517 -0.139917 0.00273797 -0.168413 0.154071 -0.0147863 -0.150336 0.0683126 0.122921 0.360457 0.0387408 0.350947 -0.258515 0.15428 0.0817548 -0.0127656
2410 0.0244948 -0.0230291 -0.122101 -0.276109 -0.0540169 -0.110668 0.0250825 -0.041645 0.065485 0.0518662 -0.0563759 0.204525 -0.100899 -0.0381712 0.0358668 -0.0134112 0.0105483 0.025357 -0.0175599 0.0506235 0.03497 0.149506 0.0153271 -0.0370412 0.00801109 -0.124516 -0.108072 0.049734 0.0364664 0.193565 -0.115685 0.380004 0.19519 0.227785 -0.0465641 -0.175256 -0.0152874 -0.288107 0.245257 -0.0473267 -0.201471 0.0980033 0.16129 0.481599 0.0543958 0.470531 -0.345591 0.213905 0.12298 -0.0386285
2636 0.00124671 0.0600438 -0.0313954 -0.101952 -0.0340277 -0.065649 0.0106838 -0.011264 0.00896866 0.0523714 -0.0179493 0.0963284 0.0839619 0.0138305 0.050377 -0.0211659 0.0437905 0.0829846 -0.00600974 -0.0522967 -0.0333827 -0.123179 -0.0865367 0.027715 0.0115499 0.117079 -0.034592 0.0172139 0.0076318 0.0290666 -0.0225478 0.0689861 0.0600454 0.0772794 -0.0181879 -0.0279235 -0.00106667 -0.103713 0.092603 -0.0100782 -0.0360054 0.0276809 0.0312144 0.102837 0.0144942 0.0610995 -0.0758964 0.0376473 0.0296979 -0.0134147
1436 -0.00434181 0.0500465 -0.0561348 -0.13358 -0.0404993 -0.0845575 0.0112144 -0.0277009 -0.000458547 0.0512947 -0.0344591 0.119878 0.0856665 0.021977 0.0473859 -0.0251195 0.0453139 0.0921069 -0.00545352 -0.0490186 -0.0367587 -0.114789 -0.0928134 0.0242444 0.0209294 0.104072 -0.0368712 0.00681856 0.00616511 0.0580986 -0.0340577 0.11763 0.0872021 0.136319 -0.0228337 -0.0482942 -0.00885338 -0.136577 0.10621 -0.0136935 -0.0608635 0.0310678 0.040392 0.144106 0.0165985 0.0923853 -0.0837493 0.0561064 0.0403794 -0.0232891
1041 0.00140677 0.0619642 -0.0474713 -0.118685 -0.0482279 -0.0878894 0.000248346 -0.0200918 -0.00623722 0.0707659 -0.0268221 0.101009 0.146446 0.0260303 0.0567484 -0.0284287 0.0717691 0.120992 0.00226335 -0.0877385 -0.071308 -0.195678 -0.136856 0.0491889 0.0278332 0.177437 -0.0115807 0.0149178 0.0043514 0.0199536 -0.0203264 0.0633926 0.057437 0.0947613 -0.00809123 0.00300201 -0.0145096 -0.12212 0.0939133 -0.0187066 -0.0276172 0.0288643 0.0129183 0.0555189 0.00598329 0.0168653 -0.0417963 0.0210734 0.0417811 -0.0171773
2309 0.0181149 -0.0240183 -0.0844046 -0.180378 -0.042044 -0.0767898 0.0135307 -0.0367528 0.0424598 0.0421334 -0.0345789 0.140828 -0.0647824 -0.0126238 0.0240742 -0.00495323 0.00619764 0.0253864 -0.0192514 0.0469809 0.035434 0.100465 0.0251189 -0.0415181 0.000462301 -0.0901357 -0.0623136 0.0377685 0.0147898 0.124978 -0.0831397 0.250765 0.136419 0.170968 -0.0403913 -0.119673 -0.00518705 -0.189752 0.169631 -0.0313482 -0.138514 0.0685148 0.111194 0.32648 0.0392458 0.320858 -0.235912 0.142612 0.0792535 -0.0291527
2691 0.00861966 0.0746145 -0.144201 -0.337144 -0.0841968 -0.197326 0.0285711 -0.0633573 0.0380225 0.112117 -0.0530693 0.278124 0.0944746 0.00267466 0.0870068 -0.0418086 0.0728338 0.140737 -0.0170603 -0.0514783 -0.0396645 -0.115273 -0.143083 0.015078 0.0263124 0.12558 -0.106307 0.0436759 0.0234021 0.200098 -0.130279 0.354956 0.228128 0.295997 -0.0591527 -0.148322 -0.00697423 -0.378036 0.307732 -0.0402083 -0.20387 0.108272 0.148271 0.487087 0.0587325 0.423821 -0.352826 0.19363 0.141147 -0.0485935
2184 0.0160782 -0.0490825 -0.0853916 -0.184819 -0.027759 -0.0612317 0.0230573 -0.0317097 0.0451137 0.0261432 -0.0296573 0.145485 -0.126812 -0.0282366 0.0160856 -0.0068609 -0.0210637 -0.00692306 -0.0190305 0.0879801 0.0632946 0.177386 0.0545749 -0.0505187 0.00111874 -0.168256 -0.0937784 0.0439768 0.0197179 0.160198 -0.11536 0.317963 0.166842 0.184127 -0.0396352 -0.152285 -0.0165449 -0.204409 0.185491 -0.0204824 -0.17201 0.0636307 0.123945 0.393884 0.0452963 0.399562 -0.289174 0.172298 0.0935626 -0.0289972
2527 0.0152536 0.0257955 -0.117504 -0.286562 -0.0830549 -0.163694 0.0259019 -0.0558675 0.0543742 0.080068 -0.0636904 0.258011 0.0182122 -0.0152503 0.0813022 -0.0335112 0.059348 0.088801 -0.0094758 -0.0145028 0.00411863 -0.0149348 -0.0631132 -0.0044221 0.0334984 0.0281852 -0.0994939 0.0487555 0.0241005 0.20785 -0.138903 0.383861 0.240095 0.297292 -0.0450357 -0.170733 -0.0291007 -0.350878 0.290395 -0.0348129 -0.210723 0.0951471 0.145198 0.484261 0.0629929 0.46088 -0.358929 0.195282 0.142063 -0.0392699
1019 0.00812464 -0.0233985 -0.0285025 -0.0852206 -0.0172374 -0.0128382 0.0138873 -0.0106949 0.0148545 -0.00366939 -0.00477007 0.0634407 -0.0928938 -0.0143036 -0.00637954 0.016156 -0.016602 -0.018624 -0.00713077 0.0645574 0.0494694 0.13378 0.0483 -0.0337882 -0.0150432 -0.122183 -0.0377806 0.019399 0.0242799 0.0792232 -0.0504101 0.172104 0.0860293 0.0894664 -0.0138783 -0.0924903 -0.000461025 -0.0984905 0.0873892 -0.0104101 -0.0901473 0.0322667 0.071003 0.230945 0.0195289 0.229906 -0.161642 0.0873424 0.0453647 -0.00322708
1133 0.00824559 -0.00902078 -0.0784015 -0.163184 -0.0327542 -0.0808601 0.0262787 -0.0279435 0.0291013 0.0459967 -0.0417772 0.134163 -0.0742146 -0.0172281 0.0170035 -0.0118906 0.00854576 0.0136368 -0.00472776 0.0513546 0.0323268 0.0975369 0.0317838 -0.0238187 0.0077269 -0.0937994 -0.080706 0.0220992 0.0341596 0.132403 -0.08128 0.259818 0.142138 0.176049 -0.0285601 -0.133041 0.00012992 -0.211563 0.175296 -0.029941 -0.162636 0.0719436 0.117114 0.376463 0.0399702 0.350895 -0.261583 0.164637 0.0916733 -0.0340354
1604 0.0181037 -0.0193998 -0.0773882 -0.182801 -0.048202 -0.0876578 0.0190584 -0.0275846 0.0397458 0.0407448 -0.0340618 0.143661 -0.0596513 -0.0265007 0.0226177 -0.0194651 0.0140781 0.0256875 -0.00988116 0.0418348 0.0325146 0.0980345 0.0174351 -0.0263956 -0.00606276 -0.0714755 -0.0628398 0.0314393 0.0327782 0.137971 -0.0930877 0.258533 0.144998 0.179912 -0.0303709 -0.125048 -0.0187276 -0.206574 0.164523 -0.0309602 -0.150149 0.0769081 0.100493 0.336107 0.046984 0.33504 -0.262931 0.159373 0.0823434 -0.0274718
1484 -0.00175765 -3.13554e-05 -0.0455695 -0.0836169 -0.0146485 -0.0253767 0.0153287 -0.00354063 0.0060564 0.021762 -0.0148006 0.0651641 -0.0271286 -0.00313944 0.000530862 7.84287e-05 0.00841851 0.000462345 -0.0135948 0.0187492 0.0169405 0.0579981 0.00149549 -0.0206553 -0.00248941 -0.0391563 -0.0355245 0.0166845 0.00401255 0.0725719 -0.0399003 0.131912 0.0755127 0.0797436 -0.0183444 -0.0760075 -0.00792317 -0.113031 0.0876671 -0.0194483 -0.0875847 0.0262224 0.0542479 0.199439 0.0245323 0.196783 -0.13844 0.0934723 0.0445862 -0.0177284
2585 0.0193335 0.0469664 -0.111957 -0.254582 -0.0647452 -0.132275 0.0315419 -0.0380104 0.0370928 0.0702521 -0.0405785 0.212852 0.0355718 -0.00160392 0.069639 -0.0374499 0.0571618 0.0860376 -0.0167964 -0.0279136 -0.0235856 -0.0485238 -0.0838216 0.0165075 0.0189997 0.0664861 -0.0912454 0.0312906 0.0336962 0.1456 -0.0884233 0.287427 0.1764 0.219146 -0.0506451 -0.113743 -0.0223893 -0.287657 0.229802 -0.0366938 -0.159594 0.0821608 0.118434 0.378002 0.0526341 0.328562 -0.269906 0.161039 0.10368 -0.0351742
1463 0.0192673 -0.0115861 -0.0710694 -0.161267 -0.043737 -0.0759646 0.0289553 -0.0336572 0.0230252 0.0256439 -0.0308665 0.114367 -0.0566612 -0.0156785 0.0237957 -0.0121504 0.00979886 0.0134564 -0.00565812 0.0367353 0.0177017 0.0745259 0.00648207 -0.0147318 -0.00122561 -0.0717569 -0.0600282 0.0238257 0.0210753 0.122303 -0.0713295 0.219465 0.115814 0.140991 -0.0363118 -0.0894287 0.00231005 -0.166534 0.145912 -0.012235 -0.111571 0.0636482 0.0797599 0.28154 0.0294822 0.26131 -0.195241 0.106248 0.0806912 -0.0191045
2293 0.0208151 -0.031938 -0.0578535 -0.151186 -0.0227318 -0.0420537 0.0169361 -0.0268666 0.0367592 0.0221167 -0.0296626 0.12281 -0.116453 -0.0332809 -0.00935185 0.00888651 -0.0177599 -0.0159116 0.000827316 0.0772166 0.0573562 0.169337 0.0657502 -0.0538374 0.00122517 -0.146408 -0.0627434 0.0326104 0.0176312 0.133601 -0.0844475 0.272492 0.133861 0.163158 -0.0327858 -0.137423 -2.23153e-05 -0.180434 0.151396 -0.0290177 -0.138704 0.0701859 0.122334 0.352971 0.0434781 0.336483 -0.243019 0.14003 0.0812517 -0.011432
2304 0.00844964 -0.00455683 -0.0959702 -0.232268 -0.0639876 -0.101502 0.023926 -0.0306198 0.0456581 0.0618364 -0.0384211 0.191008 -0.0507775 -0.0232952 0.0260905 -0.0236978 0.0238791 0.0383905 -0.00652656 0.0375267 0.0274992 0.0710047 0.00186368 -0.026528 0.00403915 -0.0555797 -0.0930438 0.0309956 0.0264352 0.164743 -0.105194 0.34284 0.18392 0.242284 -0.0352107 -0.142639 -0.0187958 -0.265928 0.203766 -0.026168 -0.179092 0.0775575 0.135934 0.407868 0.0552659 0.388534 -0.282736 0.178284 0.114356 -0.0214095
408 0.0180985 -0.0360506 -0.0312859 -0.0720212 -0.000741171 -0.0133208 0.00885013 -0.0120164 0.0198678 -0.00811812 -0.00996843 0.0451484 -0.0956534 -0.0272039 -0.00670827 0.0110327 -0.0310004 -0.0489933 -0.00614475 0.0776782 0.0423002 0.140993 0.0717894 -0.0464208 -0.00963463 -0.14165 -0.029355 0.016677 0.0220437 0.0772321 -0.044991 0.158311 0.0599322 0.0853346 -0.0178998 -0.0887354 -0.00670945 -0.080384 0.0793022 -0.0179392 -0.0819204 0.0423608 0.0701723 0.204471 0.0260467 0.217255 -0.146951 0.0886067 0.0486203 -0.0159156
962 0.0372191 0.0269979 -0.205454 -0.486 -0.124662 -0.253519 0.0582759 -0.0914663 0.0647938 0.138267 -0.0847675 0.387837 0.0104492 -0.0216247 0.0985843 -0.0471331 0.086218 0.132494 -0.0163853 0.00826609 0.00616126 0.00748095 -0.0885999 -0.0104042 0.0263867 0.00506266 -0.160303 0.0604788 0.0460586 0.311324 -0.204142 0.585748 0.358894 0.455839 -0.0762009 -0.250076 -0.0319152 -0.517252 0.413286 -0.0568426 -0.321356 0.156369 0.238208 0.740595 0.0851477 0.691421 -0.532057 0.319518 0.217226 -0.070593
2660 0.0168507 0.0620403 -0.122761 -0.275164 -0.0699275 -0.153281 0.0189848 -0.0538224 0.0227656 0.0836947 -0.0416435 0.217289 0.0941833 0.0163605 0.0795815 -0.0533682 0.0744478 0.138495 -0.0166753 -0.0561954 -0.0412525 -0.125416 -0.122213 0.0297345 0.0367774 0.114831 -0.0839363 0.0247441 0.0282009 0.139464 -0.0994206 0.270347 0.181462 0.237634 -0.0505251 -0.118647 -0.00781364 -0.292211 0.236585 -0.0242413 -0.161244 0.0865473 0.109333 0.36457 0.0404045 0.328156 -0.260957 0.14942 0.120481 -0.0495093
531 0.0116134 -0.0492264 -0.0156879 -0.0460109 -0.00635278 0.00215128 0.0118954 -0.00684161 0.0275093 -0.0135224 -0.00827627 0.0312103 -0.103788 -0.0203962 -0.0164493 0.0145059 -0.036886 -0.0542257 0.0040837 0.068995 0.0518091 0.14956 0.067152 -0.0467493 -0.0124331 -0.132103 -0.0260545 0.00374583 0.0192317 0.0609663 -0.0454165 0.112931 0.0477844 0.0460605 -0.0237106 -0.0599886 0.00252913 -0.0578992 0.0572532 -0.0174474 -0.0796195 0.0228405 0.0513942 0.172458 0.0141013 0.172248 -0.118749 0.0751482 0.0347998 -0.00381553
2730 0.0169027 0.0138566 -0.128966 -0.298258 -0.056115 -0.145747 0.0274426 -0.0522624 0.0418351 0.0758153 -0.0502623 0.219724 -0.0394855 -0.0243937 0.0444268 -0.0221973 0.023436 0.0601303 -0.00712468 0.0075688 0.01575 0.0328468 -0.0407108 -0.0202415 0.0248194 -0.0147253 -0.0907518 0.0316765 0.021193 0.188989 -0.119865 0.349366 0.206171 0.243499 -0.0433855 -0.165978 -0.0174587 -0.295988 0.252045 -0.0474133 -0.198053 0.0880366 0.137643 0.469156 0.0586694 0.442108 -0.341303 0.209084 0.135103 -0.0537342
871 0.020256 -0.012804 -0.118493 -0.272688 -0.058101 -0.125447 0.0399807 -0.0356704 0.0492747 0.0683527 -0.0431614 0.223263 -0.0412744 -0.0114008 0.043866 -0.013697 0.0339749 0.054232 -0.0151754 0.0218031 0.0211408 0.100719 -0.00519602 -0.0409041 0.00294612 -0.0757223 -0.0991516 0.042481 0.0336707 0.177317 -0.110141 0.34743 0.204923 0.241641 -0.0379553 -0.163726 -0.0166711 -0.284791 0.236641 -0.0380628 -0.199218 0.0934231 0.139419 0.456285 0.0448557 0.455067 -0.330741 0.194644 0.121814 -0.028784
2545 -0.000670693 0.0214806 -0.0411418 -0.100783 -0.0343182 -0.0646816 0.00447429 -0.027704 0.0112882 0.0289891 -0.0139295 0.0850036 -0.00523427 -0.00266489 0.0261659 -0.0171357 0.0173142 0.0261599 -0.00813811 0.00801038 0.0142187 0.0227602 -0.0205157 -0.010273 -0.000471025 0.0059058 -0.0503076 0.0290014 0.0095067 0.0901474 -0.0566323 0.171982 0.0916909 0.118862 -0.0150678 -0.0825447 -0.00201101 -0.12886 0.10579 -0.0233104 -0.0896567 0.0519927 0.0587759 0.2162 0.0260101 0.196864 -0.151415 0.0847338 0.0619067 -0.0134938
2028 0.00356711 0.0509371 -0.0693624 -0.172372 -0.0433991 -0.10958 0.00611841 -0.0311563 0.0134158 0.0662672 -0.0357246 0.152 0.085005 0.0111105 0.0555409 -0.0288326 0.0682842 0.0928892 0.00155684 -0.0498726 -0.0436713 -0.113222 -0.0972156 0.026951 0.0159842 0.116475 -0.0573707 0.0234959 0.0139275 0.090221 -0.0662846 0.160499 0.124317 0.154804 -0.0231225 -0.0790626 -0.000652869 -0.196687 0.15239 -0.0222609 -0.109186 0.0610772 0.0624251 0.226946 0.035152 0.195645 -0.182525 0.104652 0.0752927 -0.0385527
596 0.00928868 -0.0430051 -0.0296853 -0.0910201 -0.0208731 -0.0265172 0.0182597 -0.00935693 0.0366421 0.00649614 -0.0151621 0.0615192 -0.0947164 -0.0187616 -0.0101293 0.0170217 -0.0359184 -0.0422957 0.000844489 0.0747302 0.0516105 0.144188 0.0704636 -0.0513658 -0.00741482 -0.130415 -0.0449267 0.0147613 0.0175107 0.0874587 -0.0506304 0.157644 0.0692939 0.0776075 -0.012004 -0.0942408 -0.00787239 -0.109481 0.0766284 -0.0079501 -0.0929282 0.039222 0.0740993 0.225474 0.0226197 0.231829 -0.164107 0.106963 0.051714 -0.0126042
1150 0.0131185 -0.00445271 -0.0752881 -0.172125 -0.0397791 -0.0875736 0.0214218 -0.0212229 0.0360315 0.0534262 -0.0260767 0.140503 -0.0177213 -0.00330474 0.0385495 -0.0051569 0.0288371 0.0330755 -0.0181696 0.0243172 0.0162363 0.0284885 -0.0170638 -0.0104507 0.00678684 -0.0289154 -0.0648626 0.0345675 0.0175959 0.123644 -0.0810867 0.240662 0.141731 0.180716 -0.0281834 -0.113191 -0.00611854 -0.192833 0.153086 -0.0183058 -0.127599 0.0532795 0.104229 0.310209 0.0416794 0.279205 -0.220842 0.121029 0.0771278 -0.0276154
1460 -0.000680825 0.0593291 -0.0726428 -0.153271 -0.0354205 -0.103733 0.014393 -0.0240985 0.0205151 0.0563825 -0.0333274 0.1335 0.0698232 0.00375003 0.040981 -0.017044 0.043742 0.0792046 -0.00280212 -0.0403754 -0.0299568 -0.0982622 -0.0974556 0.0258199 0.0160755 0.106208 -0.04069 0.0159447 0.0103869 0.0828007 -0.0476114 0.145642 0.100791 0.137013 -0.0327721 -0.0532487 -0.00259364 -0.173393 0.13218 -0.0130593 -0.0798239 0.0429374 0.057465 0.204343 0.0237436 0.174172 -0.148545 0.0923405 0.0674806 -0.0363533
2401 -0.00141755 0.0741185 -0.0479474 -0.104422 -0.0439542 -0.0973674 0.0155151 -0.0167841 -0.0121919 0.0661144 -0.0311075 0.104923 0.15202 0.0284935 0.0666439 -0.0253221 0.0657919 0.123485 0.00483042 -0.0898676 -0.061728 -0.206599 -0.130379 0.0515722 0.0275249 0.185729 -0.0301362 0.0154185 0.00147524 0.0329492 -0.0211551 0.0563374 0.0598896 0.097717 -0.0108642 -0.000888963 -0.0149026 -0.111182 0.0716815 -0.00521153 -0.0229545 0.0249943 0.00815498 0.0523505 0.0141693 0.0166187 -0.0368553 0.0107042 0.0278943 -0.0177582
2518 -0.0151489 0.0600394 -0.037798 -0.0890652 -0.0331394 -0.0908326 0.00736067 -0.0231997 0.00310896 0.0579887 -0.0156233 0.0831246 0.137989 0.0200677 0.0491197 -0.0330499 0.0689547 0.105733 0.00527032 -0.0846323 -0.0703528 -0.182284 -0.125509 0.042731 0.0163606 0.183327 -0.00836119 -0.00233279 0.00845122 0.0256433 -0.016307 0.0404981 0.0575373 0.0804165 -0.0158806 0.0112678 -0.000184325 -0.10576 0.0755687 -0.00492472 -0.0225543 0.0299532 0.0102609 0.0333044 0.00557071 -0.000120367 -0.0159172 0.0066196 0.016871 -0.0264914
1945 0.0235557 -0.0433048 -0.0579479 -0.140777 -0.0311767 -0.0581626 0.0307986 -0.0183692 0.0421102 0.0188573 -0.0212124 0.102338 -0.123221 -0.0251932 -0.0119108 0.00319938 -0.0241017 -0.0277695 -0.0162148 0.0820613 0.0641139 0.172616 0.070674 -0.0528486 -0.0134358 -0.172649 -0.07002 0.0397641 0.0324987 0.131288 -0.0855183 0.255121 0.123945 0.145714 -0.0389992 -0.122221 -0.014593 -0.18601 0.154659 -0.021173 -0.150675 0.0644408 0.121289 0.346863 0.0440388 0.354192 -0.239528 0.154106 0.079162 -0.0229636
2018 0.0181548 -0.0474335 -0.0698999 -0.168825 -0.0221631 -0.0417806 0.0329416 -0.0167743 0.0385119 0.00800136 -0.0236725 0.130846 -0.1273 -0.0268113 -0.00662165 -0.00127513 -0.0156222 -0.02336 -0.013243 0.0966732 0.0516558 0.186589 0.0674941 -0.0546774 -0.00858318 -0.183703 -0.0691706 0.0238992 0.0205205 0.151059 -0.10075 0.279339 0.133133 0.163032 -0.0372973 -0.131261 -0.00101697 -0.187081 0.146699 -0.0321311 -0.14935 0.0668958 0.127304 0.351974 0.0406763 0.366898 -0.245258 0.143491 0.086947 -0.00851141
2739 -0.0010875 0.060034 -0.0340225 -0.0849016 -0.0371302 -0.0750411 0.00193871 -0.0235374 0.00440196 0.0376634 -0.0213863 0.0713561 0.110528 0.0206777 0.0581739 -0.0204778 0.0416715 0.0755294 -0.000105201 -0.0631016 -0.0383586 -0.129414 -0.0912831 0.0288496 0.0222964 0.142948 -0.0120843 0.0151008 -0.00645904 0.0245809 -0.00820463 0.0503114 0.0606759 0.0809493 0.000589978 -0.014095 -0.0104788 -0.0868912 0.0669033 -0.0101888 -0.0341337 0.0125957 0.0211341 0.0582934 0.0131601 0.0321217 -0.0455347 0.0263051 0.039298 -0.0203207
1784 -0.0090865 0.0351453 -0.0334893 -0.0947447 -0.034339 -0.0493483 0.0143931 -0.0159318 0.0138999 0.0333246 -0.025348 0.0849124 0.0355236 -0.00350315 0.0408464 -0.0100214 0.0360986 0.0529579 -0.0097543 -0.022462 -0.0251362 -0.0587108 -0.0516177 0.0174821 0.00299009 0.0493686 -0.03971 0.0128442 0.00805358 0.035564 -0.0390417 0.0821999 0.0589262 0.0778313 -0.0142743 -0.0367573 -0.0102949 -0.099707 0.0856355 -0.0105532 -0.057787 0.0375587 0.0461886 0.133155 0.0138867 0.127177 -0.105681 0.0634953 0.0416146 -0.0246131
5 0.011384 -0.0220164 -0.04224 -0.0670366 -0.0101685 -0.0222284 0.0162139 -0.0139646 0.0265601 0.0152195 -0.00548822 0.0612924 -0.0555666 -0.0207441 -0.00618038 0.00852622 -0.0107808 -0.0181499 -0.00348518 0.0486149 0.0300284 0.0919036 0.0314913 -0.0212872 -0.00451293 -0.0945728 -0.0256536 0.0198419 0.0055881 0.078796 -0.0514499 0.140539 0.0689927 0.0717815 -0.0110988 -0.0660473 -0.00608497 -0.0874704 0.0702826 -0.0139024 -0.0829958 0.031895 0.0681049 0.182626 0.0269117 0.172677 -0.119454 0.0829232 0.0377052 -0.00645614
1716 0.0170018 -0.0122306 -0.131415 -0.300379 -0.0682188 -0.135755 0.0451853 -0.0456592 0.0527233 0.0729569 -0.0498466 0.228709 -0.0705986 -0.0229083 0.0317698 -0.0163522 0.0173427 0.044777 -0.0113524 0.0434163 0.0361013 0.11016 0.00713695 -0.026114 0.0187134 -0.0834015 -0.115965 0.0489122 0.0399471 0.205414 -0.14496 0.407812 0.223658 0.277839 -0.0623167 -0.188439 -0.0218331 -0.305509 0.252086 -0.0358063 -0.21693 0.104922 0.171531 0.512257 0.0564988 0.474878 -0.360268 0.204849 0.145649 -0.0500969
2798 0.00432865 0.0274407 -0.0521966 -0.107655 -0.0282825 -0.0627692 0.0153062 -0.0230787 0.0131139 0.0342489 -0.0159851 0.0917094 0.00811751 0.00532582 0.0125948 -0.00701316 0.00490427 0.0359515 -0.00939236 -0.00644629 0.00710573 0.00126465 -0.0236486 -0.00131433 0.00166674 0.00251569 -0.0406057 0.0150368 0.0130944 0.0700097 -0.0511269 0.151284 0.0932428 0.107118 -0.0177345 -0.077683 -0.00936861 -0.124249 0.115011 -0.0131952 -0.075862 0.0426908 0.0583155 0.226379 0.0170746 0.194711 -0.150607 0.0999381 0.066798 -0.0188139
2690 -0.0137359 0.0570186 -0.0361112 -0.0659558 -0.0189993 -0.0673741 0.000942095 -0.0224149 -0.00121088 0.0424439 -0.0230273 0.073491 0.135337 0.0216806 0.051823 -0.0341286 0.0535768 0.0985919 -8.11908e-05 -0.0850644 -0.0561932 -0.169838 -0.118396 0.0474276 0.0176911 0.169474 -0.0174342 0.000782852 0.00998989 0.00331439 -0.00976225 0.0177505 0.0467183 0.0694001 -0.00625085 0.0129053 -0.00611728 -0.087009 0.0614778 -0.0012922 0.00125967 0.018429 0.000599877 0.00661737 0.0106749 -0.0226429 -0.0177268 0.00988446 0.0166404 -0.017076
1531 0.0115362 -0.0322125 -0.0397874 -0.0616068 -0.0182529 -0.00912213 0.00755711 -0.00483099 0.0279004 0.00822642 -0.0200646 0.0479543 -0.0932643 -0.0224396 -0.00474801 0.00182166 -0.0277352 -0.0371548 0.00397314 0.0577024 0.0496155 0.137471 0.0693694 -0.0444506 -0.00927905 -0.136635 -0.0435589 0.0206664 0.011335 0.065074 -0.040142 0.137607 0.0515119 0.0633087 -0.0231762 -0.0775334 -0.0125607 -0.0750786 0.0628765 -0.00817956 -0.0875642 0.0408163 0.0757555 0.196415 0.026868 0.207365 -0.141059 0.0791316 0.0437918 0.00193203
2459 0.00412328 0.0672734 -0.0363953 -0.0980168 -0.0274861 -0.0911815 0.000520219 -0.0237327 0.00342057 0.0583196 -0.0223408 0.0863195 0.13614 0.0287492 0.0649264 -0.0337896 0.0707719 0.096717 -0.0121005 -0.0839824 -0.0601451 -0.190441 -0.124863 0.0530533 0.0188221 0.169522 -0.0165483 0.006371 0.00947258 0.0190566 -0.0149355 0.0428279 0.0512996 0.0873477 -0.017627 0.00443279 -0.00213292 -0.105044 0.0790989 -0.0143562 -0.0317925 0.0176263 0.00426664 0.0493939 0.0176058 0.0179216 -0.0343016 0.0168509 0.0234972 -0.0134256
786 0.0108322 -0.0447592 -0.0299095 -0.0740042 -0.0138611 -0.0150295 0.00468192 -0.0183047 0.0175878 0.00228292 -0.0119381 0.0620422 -0.100095 -0.0217698 -0.017328 0.00135155 -0.02197 -0.0302467 -0.0100149 0.0587518 0.0369378 0.142005 0.0549601 -0.0449323 -0.0117965 -0.120595 -0.0408076 0.0141093 0.00815987 0.0824888 -0.0589936 0.161257 0.0751685 0.0899126 -0.0165821 -0.0775786 0.00270291 -0.101786 0.092362 -0.0186086 -0.0901134 0.0287447 0.0837533 0.236174 0.0174666 0.22208 -0.166384 0.0889832 0.0562411 -0.00876993
1100 0.0320822 -0.0102487 -0.123803 -0.275327 -0.0594533 -0.124821 0.0419757 -0.0407226 0.0540045 0.0566438 -0.0509028 0.225302 -0.0746774 -0.018157 0.0376453 -0.00989397 0.0129055 0.0385081 -0.0159211 0.0516561 0.0472626 0.122413 0.0131381 -0.0368997 -0.000616977 -0.121769 -0.11022 0.0492549 0.0281779 0.210448 -0.136782 0.415071 0.227107 0.264585 -0.0588438 -0.19297 -0.0127908 -0.301039 0.252588 -0.0393473 -0.225207 0.103688 0.17177 0.510288 0.0555454 0.499932 -0.359074 0.215211 0.135854 -0.0439601
1964 -0.00956929 0.066749 -0.0496304 -0.12416 -0.0399242 -0.107403 0.00823118 -0.0230817 -0.00473396 0.0665634 -0.0164456 0.108677 0.155112 0.0168757 0.0619995 -0.0285496 0.0735247 0.128806 -0.00227466 -0.0999268 -0.0685674 -0.207927 -0.149577 0.0579759 0.0158802 0.214375 -0.0344344 0.0167093 0.00205852 0.0363299 -0.0270952 0.068242 0.0757051 0.108119 -0.0111481 -0.000574645 0.00270201 -0.131682 0.102412 -0.010908 -0.0332252 0.0350682 0.0141834 0.065664 0.0166282 0.0174061 -0.055701 0.0230161 0.0304877 -0.017555
1831 -0.0046808 0.0678451 -0.0420302 -0.115387 -0.0388752 -0.0917854 0.00187728 -0.0273286 -0.00882909 0.0545972 -0.0133934 0.0996257 0.118395 0.0120664 0.0592466 -0.0379628 0.0708396 0.0916106 0.00311157 -0.0909038 -0.0470616 -0.17679 -0.125336 0.0361282 0.0220331 0.1625 -0.0139813 -0.000274897 0.00498264 0.0223486 -0.021124 0.0577474 0.0658037 0.0875517 -0.0068163 -0.00122294 -0.00121863 -0.122476 0.0904593 -0.0116888 -0.0353325 0.0360515 0.0149059 0.0619441 0.00867128 0.0284498 -0.0502046 0.0226136 0.0390952 -0.0279302
2717 0.00276425 0.0623308 -0.04446 -0.128953 -0.0411597 -0.0889464 0.0165626 -0.02934 0.0135427 0.0510901 -0.0236196 0.10619 0.0710209 0.00992985 0.0567112 -0.0211589 0.0438741 0.0619599 -0.0101533 -0.044301 -0.0436226 -0.11315 -0.0954678 0.0240957 0.0204154 0.109562 -0.0384764 0.0146954 0.0100487 0.0673879 -0.0503327 0.121271 0.092326 0.120511 -0.0155737 -0.0432268 0.0019446 -0.140585 0.118875 -0.0201292 -0.073875 0.0510212 0.0375512 0.167378 0.0274535 0.134058 -0.110379 0.058731 0.0484981 -0.027428
189 0.0128097 -0.0340142 -0.0189504 -0.0611294 -0.00922749 -0.00883445 0.00106084 -0.0158068 0.0267813 -0.00568995 -0.00839303 0.0552373 -0.0961713 -0.0127789 -0.00979909 0.0119885 -0.0271831 -0.0290757 0.000335655 0.0508575 0.0323708 0.131272 0.0607961 -0.0275421 -0.0044881 -0.11073 -0.0426036 0.0219743 0.00553814 0.0595925 -0.0353891 0.126268 0.0575666 0.0597531 -0.0189431 -0.0793852 -0.0099082 -0.0803706 0.0609229 -0.00781204 -0.0748191 0.0227125 0.0693229 0.18374 0.011983 0.184002 -0.134176 0.0730914 0.0362408 -0.0128109
519 0.0208965 -0.0231011 -0.0854023 -0.206221 -0.0471397 -0.0957119 0.0298027 -0.043459 0.0392491 0.0370981 -0.0352961 0.162235 -0.112327 -0.0314679 0.0155766 0.00273938 -0.00690573 -0.010127 -0.020531 0.0785517 0.0522385 0.154714 0.0383445 -0.0474304 -0.00724794 -0.145946 -0.0838746 0.0387285 0.0373186 0.177138 -0.118239 0.356344 0.189544 0.215607 -0.049042 -0.170433 -0.0078543 -0.234487 0.190288 -0.040105 -0.177955 0.0756793 0.141639 0.435126 0.045448 0.431454 -0.313856 0.183187 0.103984 -0.0199953
1725 0.0191899 -0.0424183 -0.0589912 -0.140661 -0.029503 -0.0550834 0.0276698 -0.0293324 0.0508005 0.00522674 -0.0287798 0.124046 -0.128312 -0.0318715 0.00678778 -0.00394879 -0.0108368 -0.0222042 0.0010697 0.0784002 0.0681242 0.191265 0.0797 -0.0457862 -0.0131168 -0.186123 -0.0821548 0.0280081 0.0207711 0.136611 -0.0925989 0.267529 0.123475 0.138894 -0.0262899 -0.138716 -0.0133315 -0.166439 0.145623 -0.027669 -0.148385 0.058372 0.126719 0.359019 0.0286403 0.353042 -0.252859 0.153402 0.0881915 -0.0228741
2878 0.0394308 0.0281295 -0.133381 -0.333481 -0.0836448 -0.156775 0.0332096 -0.0412972 0.0637203 0.0977886 -0.0743352 0.272925 -0.0123603 -0.0214338 0.0815866 -0.0421456 0.0388622 0.107654 -0.0239783 0.00610262 0.01799 0.0682057 -0.0215721 -0.0152925 0.0025496 -0.0505518 -0.121357 0.0509141 0.0403061 0.207891 -0.132652 0.403114 0.242724 0.30837 -0.0554683 -0.166206 0.00195568 -0.359224 0.275834 -0.0409673 -0.22686 0.0993212 0.158995 0.513541 0.0527667 0.497201 -0.360522 0.212978 0.14626 -0.045091
2216 0.00456587 0.0491238 -0.0907383 -0.231309 -0.0569637 -0.136082 0.0302282 -0.0438673 0.0280765 0.0799137 -0.041461 0.167457 0.0497329 -0.00691485 0.0613477 -0.0354643 0.0561418 0.0894485 -0.00555081 -0.0371969 -0.02272 -0.0681563 -0.0805945 0.0146228 0.027623 0.0806499 -0.0862386 0.0242403 0.0285556 0.133286 -0.0941194 0.273186 0.176473 0.225715 -0.0379123 -0.114971 -0.0110275 -0.259197 0.21383 -0.0302654 -0.140193 0.0676338 0.0960284 0.342751 0.0402626 0.306737 -0.248535 0.137743 0.104193 -0.045618
2322 -0.00262827 0.0812213 -0.142323 -0.327026 -0.0966445 -0.199544 0.0361824 -0.0651476 0.0224198 0.119661 -0.0642741 0.272285 0.126596 0.00648875 0.0950088 -0.0579489 0.0811915 0.140044 -0.0117691 -0.0777562 -0.0439147 -0.12534 -0.139058 0.0287247 0.0284328 0.154622 -0.101996 0.0362483 0.0344883 0.188057 -0.130223 0.365687 0.249965 0.319353 -0.0535669 -0.13635 -0.016745 -0.38013 0.289456 -0.0363428 -0.200308 0.11942 0.148136 0.483555 0.057664 0.40321 -0.346593 0.202971 0.139932 -0.0629968
1952 0.00149506 0.0350739 -0.0654613 -0.144744 -0.0409202 -0.0872098 0.019255 -0.0285857 0.0141262 0.0383359 -0.0337036 0.111789 0.0350676 0.0091936 0.0349937 -0.0257318 0.0440147 0.0572784 -0.00508196 -0.0204387 -0.0280932 -0.0712277 -0.0664284 0.0244649 0.0258945 0.0862922 -0.0600931 0.025077 0.0169213 0.0831098 -0.0466824 0.164535 0.104352 0.140807 -0.030959 -0.0620787 -0.00680833 -0.170433 0.146627 -0.0169625 -0.0930588 0.0611429 0.0595792 0.209272 0.0368064 0.197149 -0.175756 0.101756 0.0763992 -0.0272984
2395 -0.00237816 0.059345 -0.0906313 -0.22554 -0.0542589 -0.142069 0.0183696 -0.032093 0.0250461 0.0831307 -0.0432831 0.187655 0.111984 0.0153889 0.0808132 -0.0313912 0.0680002 0.111595 -0.00998646 -0.0582874 -0.0407566 -0.104023 -0.105762 0.0295906 0.0136596 0.12249 -0.0704473 0.0179373 0.0281081 0.109785 -0.0881436 0.221058 0.156283 0.210317 -0.038309 -0.0847474 -0.0191748 -0.227533 0.177648 -0.0343572 -0.103924 0.0745384 0.0834899 0.254015 0.0390758 0.192509 -0.176592 0.109383 0.0714627 -0.0386224
101 0.02129 -0.0283858 -0.0495059 -0.0901608 -0.0096273 -0.0183206 0.0247016 -0.00406487 0.0363151 0.00988425 -0.0107723 0.0560734 -0.109266 -0.0333062 -0.000888295 0.00456418 -0.0264069 -0.0381164 -0.0010825 0.0757211 0.0458625 0.139914 0.0712507 -0.0455935 0.0024112 -0.126544 -0.0430224 0.0130211 0.0259883 0.106352 -0.0655685 0.191575 0.0848446 0.106645 -0.0251405 -0.0968783 -0.00558918 -0.119866 0.0977295 -0.0083889 -0.112447 0.0408727 0.092516 0.243055 0.0207643 0.254886 -0.173537 0.100647 0.0463407 -0.019486
688 0.0236075 -0.00832517 -0.0652932 -0.157069 -0.0376416 -0.0606484 0.0230106 -0.0270116 0.0409853 0.0332229 -0.0289664 0.111646 -0.0791397 -0.0279336 0.0066438 -0.000342838 0.00343607 0.00414084 -0.0140641 0.050166 0.0302393 0.0984151 0.0309237 -0.0308675 0.00855318 -0.0920615 -0.07216 0.0369057 0.0302974 0.119267 -0.0874658 0.234968 0.132675 0.160571 -0.0239729 -0.114893 -0.00312479 -0.171917 0.14033 -0.0295046 -0.135824 0.0542327 0.106074 0.306234 0.044947 0.31586 -0.21922 0.139232 0.0849411 -0.026974
2102 -0.0103675 0.0382164 -0.0385974 -0.107987 -0.027886 -0.066523 0.00304945 -0.0111327 0.0150852 0.0445224 -0.0177707 0.0873301 0.0739425 0.0116014 0.0478541 -0.0291807 0.0458924 0.0673456 -0.0126766 -0.0464706 -0.0286935 -0.0908994 -0.0688265 0.0289933 0.0105476 0.0849111 -0.027447 0.0198406 0.015363 0.0562552 -0.0456686 0.0987616 0.0715016 0.110724 -0.0231089 -0.0383809 0.00297632 -0.120618 0.0885274 -0.00974347 -0.0573764 0.0288925 0.0432836 0.132189 0.0177995 0.119944 -0.0990254 0.0589197 0.0554949 -0.0128292
1109 0.00334569 -0.00873574 -0.023737 -0.0631867 -0.00965906 -0.0322933 0.0161218 -0.00082214 0.0175055 0.0125189 -0.00379473 0.0432471 -0.0128487 -0.00376222 0.00518572 -0.0121867 0.00472258 0.0184848 -0.0106276 0.0126669 0.00173004 0.0210159 -0.00255153 -0.00280534 -0.00608147 -0.0136932 -0.0168006 0.00342663 0.0112708 0.0524528 -0.033025 0.0781609 0.0402052 0.0634816 -0.019491 -0.0477868 0.00374148 -0.0777196 0.0548898 -0.0157494 -0.0472211 0.015958 0.043277 0.121744 0.020697 0.111449 -0.0859859 0.0558399 0.0276726 -0.0177955
2480 -0.000659061 0.0675626 -0.0744827 -0.203275 -0.0578462 -0.139599 0.0197352 -0.0390166 0.0215698 0.0783566 -0.0407457 0.18167 0.0810303 0.00734856 0.0657208 -0.0337798 0.0581926 0.117356 -0.0168361 -0.0589952 -0.0294114 -0.108707 -0.100187 0.0238704 0.0260123 0.11674 -0.0768502 0.0351717 0.0250676 0.115137 -0.0741587 0.220981 0.153319 0.214657 -0.0248237 -0.0926045 -0.0113381 -0.22968 0.185038 -0.0226766 -0.126266 0.0761002 0.0966552 0.293541 0.0444193 0.247738 -0.220744 0.131112 0.0939789 -0.0347117
781 0.0106288 -0.0334784 -0.0243213 -0.0516856 0.00194706 0.0112916 0.005543 -0.0043962 0.0202869 -0.00917836 -0.00196722 0.0262804 -0.11216 -0.0203101 -0.0244271 0.0171079 -0.0347912 -0.041877 -0.00417589 0.0780321 0.0484673 0.150268 0.0860567 -0.0462242 -0.0182665 -0.147744 -0.0262416 0.0151345 0.00658727 0.0544657 -0.0367016 0.127227 0.0448402 0.0602114 -0.00714348 -0.0638647 -0.00915185 -0.0621398 0.0455866 -0.00785233 -0.0609466 0.0248684 0.0545382 0.173458 0.0181555 0.175098 -0.122873 0.0752145 0.0379175 0.00112342
1926 0.0144842 0.0247362 -0.0744142 -0.168581 -0.037155 -0.0924158 0.0238322 -0.0208125 0.0283427 0.0475677 -0.0239127 0.13265 -0.00541512 -0.0110999 0.0380952 -0.00706758 0.0157778 0.0451093 -0.00229152 0.00303323 0.0040606 0.0235275 -0.0273482 -0.0134571 0.00948901 -0.00531041 -0.0609296 0.0253506 0.0188102 0.0987374 -0.0819254 0.212859 0.129072 0.160109 -0.0204633 -0.0985398 -0.0143921 -0.18519 0.145345 -0.0131697 -0.122974 0.0654504 0.0772462 0.276052 0.0411055 0.258355 -0.187847 0.109376 0.0790416 -0.0180861
2336 0.0211118 0.004301 -0.122067 -0.284654 -0.0575435 -0.126671 0.0299896 -0.0350491 0.0613841 0.0679437 -0.0449565 0.221174 -0.0675145 -0.0310664 0.0538936 -0.0100235 0.0288505 0.0606722 -0.0211788 0.0342302 0.0228147 0.0978182 -9.17775e-05 -0.0346515 0.0084947 -0.0888274 -0.103939 0.0455948 0.0324539 0.18762 -0.129001 0.381574 0.204266 0.25492 -0.0462934 -0.165308 -0.0211815 -0.298259 0.257169 -0.0477974 -0.215938 0.0951414 0.16246 0.489897 0.0585533 0.477378 -0.36124 0.218842 0.146955 -0.043918
2596 0.0197369 0.018319 -0.155807 -0.352266 -0.0915041 -0.18291 0.0456976 -0.0477426 0.0591906 0.108916 -0.0609525 0.303558 0.00674074 -0.0218987 0.0685658 -0.0502462 0.0660065 0.123596 -0.0293899 -0.0043284 0.0143987 0.0374838 -0.0617782 -0.0248188 0.00783743 -0.032774 -0.119636 0.0474672 0.0506483 0.238739 -0.154306 0.453911 0.268003 0.349918 -0.0638575 -0.204843 -0.0284058 -0.381718 0.3049 -0.0455515 -0.239471 0.111905 0.176506 0.562103 0.0672099 0.523948 -0.403941 0.24093 0.155291 -0.0561578
1819 0.0159639 -0.0414121 -0.0350434 -0.0569893 -0.00925189 0.000663248 0.013673 -0.00709542 0.016042 0.00356915 0.000613544 0.0263851 -0.0976325 -0.0320043 -0.00940503 0.0129043 -0.0345411 -0.0444324 -0.00199402 0.074782 0.03814 0.156365 0.067624 -0.0461915 -0.0020976 -0.126713 -0.0421773 0.0138021 0.00889029 0.0661493 -0.0349806 0.140345 0.0635011 0.066732 -0.0210772 -0.0843228 0.00369086 -0.0660797 0.0641603 -0.0168949 -0.0755942 0.0316122 0.0686128 0.193438 0.0140857 0.197709 -0.130678 0.0897908 0.0422291 -0.0105012
2595 0.0313184 -0.0353537 -0.0908918 -0.220559 -0.0437504 -0.0917984 0.0273815 -0.0316127 0.0491067 0.0418389 -0.0411976 0.17096 -0.0852054 -0.030605 0.0223402 0.00284284 -0.00724899 0.0182932 -0.0143419 0.0663842 0.0396579 0.135974 0.0208893 -0.0444423 0.009869 -0.124839 -0.0853754 0.0400591 0.0272323 0.158566 -0.108011 0.310098 0.169705 0.197875 -0.0389307 -0.146321 -0.0168092 -0.238152 0.197229 -0.0394229 -0.171445 0.0739378 0.121331 0.396389 0.0533654 0.383909 -0.276392 0.17191 0.0959003 -0.0298925
2824 0.0195867 0.0524106 -0.109047 -0.252536 -0.0648496 -0.153112 0.0335437 -0.0467035 0.0439082 0.0924877 -0.0558806 0.241858 0.0410989 -0.00664676 0.0655717 -0.0228772 0.047723 0.098756 -0.00319284 -0.0358412 -0.0108036 -0.0518901 -0.0977961 0.00888329 0.0222676 0.0601569 -0.0877117 0.0359946 0.0329027 0.157271 -0.103177 0.30349 0.203227 0.244279 -0.0347004 -0.127772 -0.0202125 -0.267963 0.223243 -0.0297639 -0.16537 0.0901919 0.122147 0.387153 0.0434579 0.346021 -0.285474 0.153581 0.107024 -0.0509529
2182 0.0147905 0.0292336 -0.088282 -0.216933 -0.0557416 -0.125646 0.0245204 -0.0439439 0.0211151 0.0786634 -0.0438393 0.170459 0.0325648 -0.00140764 0.0520951 -0.030659 0.0468742 0.086741 -0.0176097 -0.0210872 -0.0168509 -0.0206788 -0.056216 0.00478479 0.0211007 0.0252345 -0.0702016 0.0328829 0.0286236 0.129881 -0.0756398 0.259593 0.159298 0.210015 -0.0414156 -0.108501 -0.00284066 -0.238555 0.193496 -0.0247575 -0.147162 0.0764632 0.0967378 0.331965 0.0407271 0.287871 -0.232462 0.144527 0.0876781 -0.0405558
2970 -0.00943187 0.048047 -0.0263647 -0.0827426 -0.0329791 -0.0489891 -0.00155792 -0.0108389 0.0118676 0.0453598 -0.022441 0.0874732 0.0439924 0.00703578 0.0405546 -0.00944084 0.043504 0.0563457 -0.00729641 -0.0298255 -0.0258059 -0.0672323 -0.0446121 0.0145095 0.0178792 0.0757251 -0.0340289 0.00978715 0.00463942 0.0443289 -0.0372652 0.0901306 0.0647127 0.074267 -0.018085 -0.0448449 -0.00306303 -0.114511 0.083739 -0.0118984 -0.0654097 0.0306389 0.0288903 0.119224 0.0126993 0.105786 -0.106828 0.0606988 0.0533491 -0.028135
491 -0.014311 0.0591622 -0.0368454 -0.100591 -0.0282709 -0.081921 0.00724532 -0.0124049 -0.0139913 0.0585148 -0.0203099 0.0875826 0.136449 0.0209996 0.0535799 -0.0231981 0.0610887 0.105439 -0.00222351 -0.093557 -0.0578156 -0.176253 -0.129915 0.0561669 0.0120961 0.180879 -0.0127229 0.000614587 0.00350987 0.0116542 -0.0241923 0.0305571 0.047636 0.0840837 -0.00954843 0.0141769 -0.0130425 -0.0973002 0.0790925 -0.00343441 -0.0113799 0.0217136 -0.0027901 0.0313696 0.013937 -0.00227845 -0.0345399 0.00924568 0.0189434 -0.0179447
40 0.00140168 0.0623666 -0.0302905 -0.0881209 -0.0443962 -0.0837251 0.0044081 -0.0152359 -0.00853232 0.0521624 -0.0260734 0.0976947 0.132421 0.0301749 0.0682126 -0.0260923 0.0587293 0.102117 -0.00755704 -0.0830515 -0.0658601 -0.183051 -0.118493 0.0536905 0.0298189 0.174881 -0.0253141 0.00521678 0.00879383 0.012531 -0.0130357 0.0379302 0.0539212 0.0818167 -0.00126751 -0.00482109 -6.97785e-05 -0.109457 0.0820142 -0.015046 -0.0159274 0.013467 0.00605146 0.0396162 0.0120534 -0.00795833 -0.0168907 0.0081894 0.0285893 -0.0218553
1732 0.0162681 -0.0137872 -0.0724801 -0.143237 -0.0327818 -0.0571572 0.0168565 -0.0224493 0.023978 0.0263938 -0.0207169 0.118163 -0.0709358 -0.0101736 0.00930586 0.00577011 -0.00758641 -0.0104907 0.0016303 0.0417933 0.0283963 0.1172 0.046702 -0.0262166 0.00223537 -0.0937924 -0.0642666 0.0188721 0.0292663 0.110739 -0.0756203 0.215038 0.117755 0.143168 -0.0214279 -0.0977503 -0.00896196 -0.160048 0.124322 -0.0206558 -0.118448 0.0494602 0.0969271 0.298148 0.0381785 0.270224 -0.198425 0.127834 0.0707283 -0.00880147
836 0.00811663 -0.0413638 -0.0367992 -0.0934143 -0.0150617 -0.0286329 0.00993105 -0.0225613 0.0288953 0.0167662 -0.0117288 0.0670416 -0.0741501 -0.0148234 0.00108326 0.0120853 -0.0155419 -0.0231756 -0.00176164 0.0595534 0.034843 0.128253 0.0527015 -0.0302231 -0.00350361 -0.116938 -0.0464069 0.0291007 0.0182601 0.09807 -0.0603054 0.174103 0.083801 0.111891 -0.0226952 -0.0832306 -0.0103036 -0.109486 0.0960157 -0.00899883 -0.0914135 0.0376563 0.0686389 0.23919 0.0292797 0.216817 -0.161208 0.0986064 0.0529468 -0.0103387
1778 0.0105684 0.0537151 -0.0837022 -0.212138 -0.0548402 -0.138196 0.0246119 -0.0303492 0.0335395 0.0751845 -0.0505683 0.187657 0.0731739 0.00200136 0.0735961 -0.0354771 0.0702649 0.102516 -0.00196092 -0.0468601 -0.0213824 -0.0777342 -0.0793614 0.00866313 0.0136204 0.0763053 -0.0824161 0.0385108 0.0278939 0.124164 -0.0840499 0.241391 0.171397 0.203233 -0.0306835 -0.0924664 -0.0138548 -0.255312 0.190043 -0.033687 -0.148029 0.0788566 0.104086 0.324045 0.033827 0.294691 -0.245622 0.130597 0.105427 -0.0323774
2632 0.0354968 -0.0277761 -0.112686 -0.253474 -0.0447803 -0.105191 0.0306906 -0.0475086 0.0561364 0.0399123 -0.0354084 0.190181 -0.0976653 -0.0343295 0.029955 0.00131766 -0.00737457 0.00978271 -0.0145294 0.0543949 0.0497286 0.126717 0.0302455 -0.0550678 0.00287222 -0.120463 -0.0908058 0.0476051 0.0385217 0.177716 -0.110788 0.3425 0.178481 0.20888 -0.0477829 -0.172722 -0.016203 -0.264523 0.220108 -0.0265486 -0.189984 0.0788748 0.146311 0.445304 0.0521015 0.436134 -0.325194 0.179582 0.104674 -0.0199266
