4001 50
3190 -0.0767956 0.0862056 0.11167 -0.0737586 0.0742663 -0.0776257 0.0241948 -0.00660262 -0.041295 0.099122 0.0514687 0.117713 -0.0781779 -0.045865 -0.0725943 -0.0583522 0.0232606 -0.0140731 0.0414025 0.0105752 0.0379864 -0.0781065 -0.00501027 0.0482096 -0.00846953 0.00627587 -0.111351 -0.0762154 -0.0358179 0.0198367 -0.0366593 -0.0157315 0.0117896 0.00328502 -0.10657 -0.0732618 0.00973808 0.0281052 -0.00652089 0.00708571 -0.012391 -0.023495 0.106515 0.0357037 0.023492 0.124113 0.0239836 -0.0784286 0.14577 -0.159607
3736 -0.31261 0.301733 0.353652 -0.244078 0.266576 -0.27021 0.113726 -0.0654827 -0.149819 0.357842 0.130746 0.357887 -0.248156 -0.122834 -0.239828 -0.198587 0.101048 -0.0370413 0.174304 0.0373431 0.0402037 -0.167109 0.00994121 0.0300103 -0.0181148 -0.0420981 -0.328428 -0.213512 0.0117739 -0.0452928 -0.0229462 0.0225848 0.0438296 -0.0361918 -0.319331 -0.252663 0.0601679 0.131871 0.0211607 0.046251 -0.0135969 -0.13382 0.338098 0.110388 0.0750708 0.396803 0.0974404 -0.216613 0.443823 -0.479698
3927 -0.208222 0.211673 0.259021 -0.198499 0.231089 -0.20951 0.111272 -0.0458925 -0.114772 0.286265 0.0924776 0.271058 -0.206493 -0.111986 -0.194387 -0.168625 0.0739088 -0.0514104 0.141931 0.0234607 0.0325808 -0.0639232 0.00244635 -0.0387363 -0.0160812 -0.0593038 -0.251974 -0.152333 0.0789746 -0.0698471 0.0221747 0.0791837 0.038485 -0.0830838 -0.29976 -0.250042 0.0821925 0.169545 0.0524746 0.0676107 0.0157211 -0.142195 0.273535 0.094918 0.0716671 0.298061 0.0779677 -0.15796 0.33338 -0.343233
3407 -0.152514 0.151858 0.104691 -0.088291 0.154338 -0.155408 0.0988615 -0.0520862 -0.0895791 0.181777 0.0625059 0.176253 -0.130375 -0.0725517 -0.141268 -0.117884 0.0512312 -0.0353699 0.120216 0.0353349 -0.0447027 0.0961414 0.0244498 -0.173105 0.0503967 -0.130733 -0.143638 -0.0550001 0.19938 -0.154982 0.124286 0.185038 0.0494083 -0.143481 -0.19015 -0.173391 0.07686 0.182611 0.074506 0.0617119 0.0301933 -0.142492 0.154942 0.038669 0.0237358 0.15755 0.026216 -0.06017 0.126281 -0.140323
0 -0.200189 0.212971 0.62565 -0.473594 0.403345 -0.355567 0.174584 -0.0921834 -0.240459 0.517288 0.171926 0.528684 -0.312773 -0.179409 -0.650713 -0.575191 0.180175 -0.150697 0.30874 0.0760775 0.00823904 -0.0408404 0.00146083 -0.211893 0.0272584 -0.130299 -0.802504 -0.292931 0.379911 -0.258204 0.182308 0.246267 0.0327168 -0.245748 -0.975046 -0.849959 0.0483232 0.208336 0.271767 0.254924 0.0620319 -0.281234 0.684259 0.159566 0.189831 0.472489 0.107816 -0.19438 0.540777 -0.567632
2649 -0.142506 0.133976 0.0873077 -0.0773144 0.175548 -0.176981 0.103197 -0.0582152 -0.102569 0.189623 0.0708185 0.167622 -0.143199 -0.0734204 -0.14079 -0.130195 0.0698221 -0.0385936 0.152148 0.051699 -0.0724313 0.158878 0.012776 -0.244269 0.0591714 -0.154631 -0.130217 -0.0353072 0.248231 -0.210641 0.142287 0.226021 0.0466221 -0.1716 -0.200564 -0.177588 0.0958551 0.244719 0.0952965 0.0959101 0.0361961 -0.172194 0.167884 0.0273751 0.0254586 0.167475 0.0202808 -0.0513991 0.110546 -0.124625
1097 -0.0842248 0.0765711 0.0709843 -0.0492621 0.0861089 -0.0910137 0.0617838 -0.0409605 -0.062382 0.112134 0.0511684 0.106805 -0.0844178 -0.0427756 -0.0852213 -0.0674287 0.0443283 -0.0147919 0.0878879 0.0143456 -0.0107094 0.0366844 0.0111136 -0.0853661 0.0136443 -0.0632516 -0.0875358 -0.0444356 0.0918571 -0.0728818 0.0465277 0.0794715 0.0181339 -0.0694405 -0.108492 -0.102852 0.045707 0.0987369 0.0373657 0.0272281 0.0155504 -0.073939 0.0966125 0.0265556 0.010277 0.106134 0.0290609 -0.042713 0.0891675 -0.102328
3556 -0.213512 0.213345 0.190979 -0.148771 0.223058 -0.228235 0.134311 -0.0648622 -0.124419 0.292422 0.0948642 0.276939 -0.204544 -0.104288 -0.200756 -0.181749 0.0804486 -0.0436217 0.174965 0.0569776 -0.0220221 0.0619731 0.0208353 -0.172722 0.0316693 -0.13935 -0.227381 -0.133013 0.162687 -0.164304 0.105416 0.178626 0.0591317 -0.134625 -0.268352 -0.222311 0.112189 0.222845 0.0661141 0.0637083 0.0255008 -0.177027 0.240054 0.0651523 0.0433322 0.244589 0.0468906 -0.110413 0.223073 -0.24579
2776 -0.0468942 0.0476622 0.00578247 -0.0071803 0.0778701 -0.0789916 0.062186 -0.0322866 -0.0456126 0.0804997 0.0142913 0.0653838 -0.0712395 -0.0285554 -0.0741376 -0.0644261 0.0343951 -0.0311852 0.101497 0.0188922 -0.0493052 0.151496 0.00974138 -0.17952 0.0555561 -0.111742 -0.040354 -0.000167553 0.201885 -0.144926 0.118469 0.176383 0.028022 -0.130441 -0.0988483 -0.0902755 0.0614538 0.164782 0.0740822 0.065991 0.0236499 -0.109214 0.0721553 0.0125585 0.0226826 0.0695036 0.00746425 -0.00662087 0.0193496 -0.0226595
891 -0.162248 0.174089 0.170736 -0.135624 0.16909 -0.174599 0.0732873 -0.0444905 -0.0973958 0.203018 0.0756061 0.211161 -0.141255 -0.0649525 -0.137104 -0.119894 0.0609062 -0.0397812 0.115335 0.028284 0.00439402 -0.0338668 0.0173868 -0.048964 0.00699989 -0.0620877 -0.173526 -0.107909 0.0293961 -0.041317 0.0244165 0.0406774 0.0266888 -0.0459464 -0.181102 -0.155388 0.0533255 0.0938193 0.0271011 0.0209125 0.00851251 -0.10044 0.187067 0.0556158 0.0295342 0.198958 0.0528579 -0.100413 0.207773 -0.22681
1554 -0.117878 0.1323 0.141043 -0.102302 0.103594 -0.119186 0.0488117 -0.0215076 -0.0715069 0.149322 0.0654844 0.15231 -0.0989887 -0.0539878 -0.0892577 -0.073394 0.0478464 -0.0186875 0.0699026 0.01747 0.0269115 -0.0583424 0.011028 0.0082648 -0.00180417 -0.0201196 -0.141278 -0.09579 -0.0128044 0.000707263 -0.00511208 -0.00125702 0.0165525 -0.0144201 -0.129141 -0.113937 0.0239744 0.0480237 0.012968 -0.00133855 -0.00614034 -0.0591294 0.137964 0.0480967 0.0199681 0.165849 0.0291479 -0.0909454 0.1743 -0.194602
1887 -0.173068 0.167719 0.192264 -0.137186 0.164569 -0.173835 0.0775488 -0.0357727 -0.0995829 0.208063 0.0842158 0.220514 -0.143237 -0.0775838 -0.143397 -0.12742 0.0679656 -0.0325354 0.102285 0.0190877 0.0261833 -0.0652928 0.00843171 -0.0263953 -0.0125056 -0.0507423 -0.200447 -0.132083 0.0281619 -0.0413261 -0.000171882 0.021939 0.0362066 -0.0345985 -0.203857 -0.164058 0.064626 0.107587 0.0180405 0.0315203 -0.000124639 -0.0921952 0.195119 0.0730763 0.0463444 0.235668 0.0490294 -0.12575 0.24994 -0.262062
2570 -0.113573 0.11169 0.134026 -0.0971095 0.0891501 -0.0708743 0.028968 -0.0216491 -0.0416379 0.114967 0.0409113 0.133101 -0.0689136 -0.0291525 -0.0620681 -0.0586208 0.0342532 -0.00803279 0.0356359 0.00667953 0.0354634 -0.0965753 0.0105466 0.0566927 -0.0256197 0.019156 -0.0970811 -0.0776241 -0.062004 0.0350015 -0.0495212 -0.0394517 0.00107589 0.0316592 -0.0832702 -0.0622073 0.00241666 -0.00603639 -0.0118274 -0.00276098 -0.017408 -0.0205065 0.102923 0.0368093 0.020483 0.125056 0.0413992 -0.0711926 0.150876 -0.164234
3802 -0.586462 0.644318 0.484932 -0.353671 0.316541 -0.317553 0.0661574 -0.0144359 -0.108001 0.397032 0.10911 0.40689 -0.228908 -0.0887152 -0.239316 -0.169163 0.0983172 -0.067901 0.105526 0.0622941 0.133698 -0.418847 -0.000637651 0.262791 -0.148359 0.110744 -0.299352 -0.252311 -0.0846806 0.0462309 -0.156308 -0.114138 0.025157 0.0331092 -0.243197 -0.257046 -0.014519 -0.114323 -0.0682121 -0.0468806 -0.0574795 -0.0263814 0.30716 0.130373 0.0892407 0.407511 0.177718 -0.279204 0.675473 -0.751579
3951 -0.557046 0.674964 0.518691 -0.347881 0.301551 -0.22129 0.139412 -0.0356883 -0.0511648 0.294436 0.0674232 0.290873 -0.197789 -0.0540474 -0.15645 -0.133594 0.0252986 0.0116226 0.142523 -0.0468634 0.0771315 -0.214691 0.0921776 0.0597731 -0.0155382 0.108918 0.0615312 -0.0912313 -0.069968 -0.0451009 0.00755926 -0.0199969 -0.0049844 -0.11635 -0.0797583 -0.0746681 -0.0482048 -0.0520717 -0.0109966 0.0425554 -0.0241553 0.05366 0.232716 0.0684251 0.0717127 0.386599 0.0554983 -0.247241 0.534191 -0.559951
3460 -0.132791 0.128886 0.118366 -0.105122 0.135292 -0.140459 0.0667574 -0.0395339 -0.0834121 0.176797 0.0522441 0.168057 -0.119924 -0.0520573 -0.105545 -0.10084 0.0369865 -0.0211359 0.0853837 0.0243962 -0.00287463 0.00910384 0.00778174 -0.0757499 0.00509598 -0.0725279 -0.13481 -0.0749514 0.0898549 -0.0817726 0.0439482 0.0837833 0.0279791 -0.0613872 -0.151349 -0.136804 0.0591536 0.106058 0.0317788 0.037644 0.0117555 -0.0876616 0.147267 0.0432068 0.0214768 0.145596 0.0418209 -0.0632311 0.139771 -0.157645
3758 -0.201309 0.200904 0.168105 -0.126927 0.227234 -0.227959 0.132252 -0.0770536 -0.119002 0.268689 0.0892866 0.249176 -0.184639 -0.0919813 -0.185495 -0.157569 0.0766475 -0.0484195 0.174963 0.040816 -0.0353714 0.0927385 0.027218 -0.211467 0.0397828 -0.148675 -0.189881 -0.0954853 0.21462 -0.174272 0.127598 0.200265 0.0547113 -0.15726 -0.268423 -0.232315 0.102209 0.239422 0.0840798 0.0789989 0.0363621 -0.189482 0.230402 0.0667937 0.0440543 0.221672 0.0492708 -0.0893987 0.204747 -0.214806
557 -0.108154 0.11374 0.119486 -0.0871048 0.0973264 -0.095069 0.0520373 -0.0134685 -0.0472608 0.123929 0.0601564 0.148366 -0.0882331 -0.0513609 -0.0696467 -0.0537069 0.0317993 -0.0108681 0.0522361 0.00878227 0.0217864 -0.0647437 0.0140159 0.0252294 -0.0200359 -0.000966783 -0.10481 -0.0907964 -0.0328375 0.0047244 -0.0344955 -0.0099103 0.0182989 0.014854 -0.102463 -0.0970696 0.0210652 0.0203642 -0.0114101 -0.00952691 -0.0152224 -0.034527 0.122751 0.0520498 0.0126414 0.138554 0.0261005 -0.0817906 0.161835 -0.175445
1847 -0.231024 0.245739 0.266394 -0.198757 0.245474 -0.246768 0.108455 -0.0551241 -0.129795 0.314571 0.126752 0.325898 -0.201287 -0.106809 -0.1941 -0.168804 0.0787147 -0.043556 0.143594 0.0336401 0.0162598 -0.0837229 0.0238493 -0.0468722 -0.00316749 -0.0701997 -0.272281 -0.163845 0.0506635 -0.0675978 0.00792861 0.0548469 0.0349907 -0.0606573 -0.28062 -0.251365 0.0759712 0.138807 0.0322258 0.0317351 -0.00733547 -0.138246 0.278952 0.103591 0.0451658 0.303024 0.0708527 -0.166938 0.316931 -0.33639
2014 -0.22202 0.22681 0.225478 -0.180269 0.18638 -0.180464 0.0928697 -0.0387209 -0.10864 0.255858 0.103404 0.261636 -0.184129 -0.0811113 -0.169845 -0.148384 0.0771565 -0.0399835 0.11603 0.0238275 0.014862 -0.07304 0.00983488 -0.0256511 -0.0163929 -0.0409061 -0.22546 -0.158652 0.0328008 -0.041953 0.0117674 0.044019 0.0251066 -0.0440394 -0.254288 -0.203414 0.0658949 0.124834 0.0270751 0.0376198 0.0047337 -0.112436 0.257389 0.0944335 0.0515441 0.301413 0.0669207 -0.151425 0.318313 -0.345677
1450 -0.111598 0.115873 0.127618 -0.0826433 0.0913773 -0.094741 0.0374847 -0.0139217 -0.0483133 0.114902 0.0488725 0.127115 -0.0889173 -0.0500738 -0.0690143 -0.0697909 0.0345123 -0.0128695 0.0397732 0.0173584 0.0351053 -0.0815654 0.0106889 0.0239106 -0.00746956 -0.00205145 -0.119957 -0.0825658 -0.0245202 0.00781833 -0.0162054 -0.0204275 0.00440137 0.00896041 -0.10966 -0.0860578 0.0228787 0.0390978 0.00266661 0.00116812 -0.0148393 -0.0366109 0.127616 0.0404561 0.0193885 0.138121 0.0407087 -0.0846436 0.163427 -0.178313
2265 -0.4113 0.415618 0.425158 -0.314627 0.343822 -0.350455 0.146985 -0.0918227 -0.177319 0.419347 0.164747 0.456445 -0.303254 -0.160194 -0.277638 -0.255513 0.122078 -0.0670461 0.198329 0.0477166 0.0620635 -0.179668 0.0131467 -0.00200186 -0.0246003 -0.0485606 -0.354547 -0.24986 0.0139787 -0.0384659 -0.0117645 0.03518 0.0446531 -0.0626423 -0.397338 -0.324887 0.0960699 0.163716 0.0309445 0.0476921 -0.00533684 -0.181433 0.383649 0.130414 0.0815693 0.468244 0.114019 -0.270259 0.546974 -0.561331
3283 -0.120464 0.115681 0.0933739 -0.0720766 0.140264 -0.139179 0.0774101 -0.0417645 -0.0733235 0.166195 0.0585015 0.152255 -0.111466 -0.0549769 -0.107587 -0.111064 0.0415128 -0.0309063 0.102947 0.0220006 -0.0230963 0.0210763 0.0137281 -0.0969587 0.02006 -0.0664284 -0.122553 -0.0606521 0.0910754 -0.0995068 0.0556048 0.0993157 0.0244276 -0.0867972 -0.17514 -0.149718 0.0662242 0.1431 0.0538975 0.0386557 0.0140868 -0.103213 0.135579 0.0522921 0.0364124 0.156724 0.0318138 -0.0740095 0.134835 -0.143433
2034 -0.0751763 0.0682053 0.0245399 -0.0120422 0.0984289 -0.111693 0.0705771 -0.0386516 -0.0656606 0.107176 0.036573 0.0922782 -0.0785454 -0.0491053 -0.0865649 -0.0706397 0.0369752 -0.0225903 0.105773 0.0222654 -0.0583511 0.145897 0.0199517 -0.208055 0.0493309 -0.126276 -0.0608358 -0.00810093 0.204892 -0.160583 0.126756 0.192328 0.0293541 -0.159092 -0.129219 -0.112077 0.0811174 0.171292 0.0744268 0.0586756 0.0398316 -0.115074 0.075518 0.0022053 0.0206435 0.0579817 0.0150087 0.00264366 0.0150097 -0.00656183
1670 -0.476371 0.486768 0.477672 -0.351067 0.400297 -0.40467 0.2007 -0.097745 -0.227374 0.525496 0.193782 0.532268 -0.345295 -0.187287 -0.330382 -0.293563 0.133778 -0.0768001 0.265786 0.0675824 0.0440821 -0.162686 0.0354307 -0.0653494 -0.0169108 -0.102175 -0.424518 -0.287858 0.0621093 -0.096574 0.00185884 0.0831018 0.0696472 -0.0805441 -0.452915 -0.378787 0.104541 0.195945 0.0536196 0.065966 0.00280102 -0.210615 0.441176 0.164787 0.0969813 0.549493 0.135903 -0.300085 0.613051 -0.643065
3324 -0.166517 0.173495 0.173986 -0.136726 0.119029 -0.123872 0.0531048 -0.0187633 -0.053477 0.151755 0.0677494 0.172512 -0.0898463 -0.0472813 -0.0717619 -0.0799277 0.0263768 -0.0166214 0.0435507 0.0176309 0.0369846 -0.109965 0.00060843 0.0577905 -0.023615 0.0241156 -0.10418 -0.0876784 -0.0602947 0.0254721 -0.0493534 -0.0587489 0.0059133 0.0198701 -0.097635 -0.0824382 -0.00237864 -0.0274245 -0.0157873 -0.0247758 -0.0173573 0.0039969 0.0930952 0.0472118 0.0247879 0.120983 0.0318627 -0.0811396 0.178328 -0.185363
3633 -0.774685 0.896155 0.870176 -0.586762 0.51444 -0.464882 0.207491 -0.0706932 -0.191797 0.601023 0.251074 0.71651 -0.356885 -0.171756 -0.316394 -0.282568 0.110404 -0.0461573 0.222284 -0.0188781 0.186799 -0.587969 0.0724013 0.381389 -0.127553 0.239968 -0.276671 -0.367544 -0.412953 0.25022 -0.254571 -0.342219 -0.0355377 0.103733 -0.236552 -0.210152 -0.0496666 -0.219329 -0.102683 -0.0797467 -0.102247 0.0830535 0.41953 0.188345 0.0711251 0.592551 0.129884 -0.414177 0.870601 -0.88879
64 -0.0915662 0.0971674 0.0815149 -0.064934 0.0847795 -0.0976371 0.0492879 -0.0191003 -0.0494175 0.0972285 0.0343234 0.0965717 -0.0784239 -0.0433873 -0.0687147 -0.0602606 0.0331254 -0.0231783 0.072369 0.0110551 -0.00602907 0.0123344 0.00752874 -0.0468477 0.0168629 -0.0467746 -0.0826169 -0.050135 0.0692668 -0.0571965 0.0322735 0.0704051 0.0266672 -0.046647 -0.103427 -0.0863826 0.0428955 0.0941185 0.0186315 0.0330208 0.00134068 -0.0678629 0.0883478 0.0237732 0.0281112 0.0951161 0.0240951 -0.0472233 0.108771 -0.0984383
1123 -0.182604 0.195842 0.210359 -0.153538 0.170014 -0.168322 0.075566 -0.0386817 -0.08656 0.209292 0.0793004 0.208126 -0.147699 -0.0703367 -0.136854 -0.109161 0.0540367 -0.0295756 0.0962779 0.0205992 0.0364893 -0.0839931 0.0155081 0.000338206 -0.0125909 -0.0317566 -0.17146 -0.122119 -0.00897753 -0.0157857 -0.00591899 0.0116078 0.0258765 -0.0153338 -0.187456 -0.1502 0.0305693 0.0537871 0.0126747 0.0182534 -0.0140437 -0.0649202 0.19337 0.0700565 0.0394354 0.210286 0.0449431 -0.127133 0.237214 -0.259731
2548 -0.0962119 0.108978 0.0882932 -0.0739417 0.117718 -0.124086 0.0785731 -0.0443609 -0.0717701 0.143858 0.0553829 0.150509 -0.109834 -0.0445713 -0.094749 -0.089372 0.0449518 -0.0203819 0.0894862 0.032599 -0.01682 0.0387931 0.0164595 -0.0833908 0.025017 -0.0666193 -0.102769 -0.0629828 0.0902913 -0.0792338 0.0511697 0.0911199 0.0265361 -0.0743009 -0.142912 -0.114084 0.0517327 0.111813 0.0265603 0.0382113 0.0176353 -0.0898359 0.109558 0.0386654 0.0248627 0.116893 0.0150578 -0.0556086 0.102373 -0.103921
1362 -0.0773855 0.0767858 0.0203174 -0.0325132 0.0979895 -0.109501 0.0654325 -0.0420248 -0.0453588 0.0983161 0.0295756 0.093047 -0.0824105 -0.0426922 -0.0836147 -0.0694259 0.0457538 -0.0375352 0.096937 0.0218147 -0.0567342 0.131862 0.00537014 -0.187185 0.0501827 -0.123229 -0.0474192 -0.00463232 0.208603 -0.152749 0.133142 0.189913 0.0366406 -0.135946 -0.117843 -0.114572 0.0825794 0.180492 0.0625188 0.0629777 0.0336045 -0.105959 0.0839418 0.0114864 0.0213913 0.072431 0.0131044 -0.000546348 0.0174599 -0.0206772
3036 -0.0677467 0.0764114 0.0535913 -0.0444494 0.0977725 -0.0894058 0.0463386 -0.0240728 -0.0482865 0.106952 0.0421618 0.0909365 -0.0659837 -0.0422887 -0.0703392 -0.0581347 0.0371865 -0.0288993 0.0714043 0.0221246 -0.0149386 0.0363367 0.0090257 -0.0980087 0.0197806 -0.0594522 -0.0676932 -0.0278218 0.0968154 -0.0899296 0.0532161 0.085245 0.01511 -0.0639287 -0.11247 -0.0993473 0.0559791 0.0984195 0.0384459 0.0459985 0.00860231 -0.0757522 0.091411 0.0256505 0.0156189 0.0865358 0.00659203 -0.0303731 0.0686408 -0.0683153
3585 -0.262079 0.275215 0.242834 -0.1891 0.29652 -0.302474 0.166806 -0.0964208 -0.158568 0.373515 0.137372 0.363462 -0.256009 -0.131831 -0.251216 -0.229263 0.0964233 -0.0707947 0.242825 0.0625928 -0.0358065 0.074811 0.029012 -0.215646 0.0449366 -0.168407 -0.303913 -0.149171 0.238264 -0.206398 0.143906 0.217908 0.0730445 -0.178807 -0.375836 -0.304628 0.138015 0.292508 0.0943033 0.0962197 0.0367781 -0.236823 0.329741 0.100012 0.0666727 0.340648 0.0676473 -0.154159 0.321241 -0.342672
1419 -0.0692442 0.0819744 0.0384108 -0.0329252 0.102533 -0.104282 0.0599946 -0.0458152 -0.0446435 0.0932274 0.0322067 0.0907317 -0.0760633 -0.0279689 -0.084056 -0.0645219 0.0391814 -0.0159262 0.0909559 0.032623 -0.0438269 0.0991633 0.00647112 -0.153339 0.0380345 -0.0949048 -0.0584319 -0.00096691 0.166093 -0.122645 0.0921773 0.149132 0.0358562 -0.105746 -0.116632 -0.105202 0.0617881 0.139672 0.0621316 0.0482162 0.0224041 -0.101853 0.0869047 0.0210736 0.0152835 0.0776134 0.012182 -0.015102 0.0353548 -0.0318435
1675 -0.0421593 0.0504334 0.00602126 -0.0143269 0.0709005 -0.0647121 0.0616071 -0.0413472 -0.0345572 0.0739236 0.0213198 0.0432857 -0.0469712 -0.0227922 -0.0549093 -0.059621 0.018896 -0.0269525 0.0805361 0.0272975 -0.0429629 0.131836 0.0181665 -0.170893 0.0366764 -0.104719 -0.0305483 0.000233823 0.180418 -0.149152 0.111684 0.1667 0.0331104 -0.12877 -0.0991464 -0.0892606 0.0603646 0.144772 0.0655395 0.0535624 0.0349813 -0.0901832 0.0578818 -0.00037906 0.0227167 0.0389796 -0.00191006 -0.00686008 0.0173356 -0.0159007
2401 -0.152582 0.156943 0.175369 -0.124429 0.154832 -0.157616 0.0761806 -0.0360899 -0.0930334 0.20966 0.0865897 0.198326 -0.144763 -0.0778328 -0.127233 -0.120431 0.0513107 -0.0238285 0.103281 0.0298955 0.0105564 -0.0253458 0.0229868 -0.0580492 0.00781996 -0.054688 -0.185076 -0.102285 0.0659683 -0.0669604 0.0358007 0.0752787 0.023568 -0.059784 -0.210936 -0.159887 0.0509719 0.11684 0.0459588 0.0336887 0.0119661 -0.10895 0.185213 0.0644003 0.0464667 0.210605 0.0401963 -0.103227 0.221535 -0.224989
2759 -0.175105 0.197973 0.166766 -0.130696 0.179304 -0.191485 0.105017 -0.0549515 -0.113262 0.247312 0.0989576 0.242111 -0.173547 -0.0781688 -0.144941 -0.131974 0.0663948 -0.033491 0.139402 0.0442829 -0.0227749 0.0195819 0.0188115 -0.123026 0.0179301 -0.105785 -0.186165 -0.114992 0.110274 -0.109629 0.0775832 0.125181 0.0532946 -0.102711 -0.22657 -0.199531 0.0900958 0.184785 0.0574203 0.0456792 0.0118938 -0.134649 0.206028 0.0611531 0.037208 0.210813 0.0500567 -0.0908006 0.193045 -0.204816
364 -0.0654096 0.0767811 0.0577036 -0.0438004 0.073787 -0.085815 0.0465973 -0.0318692 -0.0438729 0.0918819 0.0280343 0.0989024 -0.0765563 -0.0283452 -0.0643232 -0.0589627 0.0293638 -0.0165199 0.075186 0.0192911 -0.0179765 0.0272822 0.0117569 -0.0660595 0.0173616 -0.065027 -0.072594 -0.0325107 0.0647871 -0.066047 0.0474681 0.0819145 0.0259552 -0.0520479 -0.0965876 -0.0851716 0.0360315 0.0943095 0.0375908 0.0222213 0.00404599 -0.0647001 0.0877785 0.0295786 0.0251646 0.0923336 0.015929 -0.0424433 0.0738212 -0.0782202
3458 -0.178224 0.178268 0.14136 -0.11698 0.21181 -0.224171 0.126956 -0.0750448 -0.109228 0.256424 0.0870165 0.245828 -0.185829 -0.0845508 -0.168763 -0.154075 0.0664516 -0.0568273 0.179384 0.0518642 -0.0481668 0.0872713 0.0192746 -0.201497 0.0411899 -0.156425 -0.182597 -0.0858099 0.196858 -0.16454 0.113687 0.193959 0.0426 -0.161296 -0.246311 -0.207569 0.106775 0.235877 0.0811377 0.0729327 0.0276449 -0.17269 0.205358 0.0598515 0.0337512 0.213496 0.0465377 -0.0925583 0.184577 -0.189206
182 -0.11514 0.107311 0.146291 -0.112643 0.106668 -0.104985 0.0428382 -0.0302778 -0.0579228 0.14834 0.0538299 0.157374 -0.0968911 -0.0472138 -0.0772747 -0.080423 0.0316963 -0.026579 0.0521013 0.00913838 0.0347381 -0.0829255 0.00992624 0.0390031 -0.0168042 0.0115092 -0.132158 -0.0979587 -0.0392029 0.0229087 -0.0272339 -0.0267864 0.00361435 0.0109139 -0.133132 -0.0970198 0.0252399 0.0342604 -0.00265698 -0.00218557 -0.00683078 -0.0441811 0.12671 0.0446064 0.0207311 0.151758 0.0474759 -0.0872798 0.185424 -0.189916
251 -0.130055 0.144948 0.166034 -0.122387 0.109147 -0.121979 0.053118 -0.0279454 -0.0612795 0.164028 0.0586703 0.168874 -0.0989922 -0.0499913 -0.100157 -0.0824202 0.0484402 -0.0186244 0.0663479 0.0134091 0.0182316 -0.078822 0.0017838 0.0293171 -0.0155356 -0.00912361 -0.149348 -0.101069 -0.0305309 -0.00693656 -0.0197393 -0.0178426 0.0060631 0.00326507 -0.150715 -0.111159 0.0321758 0.0424722 0.00262264 0.00113453 -0.00220603 -0.0637525 0.13606 0.060498 0.024673 0.182323 0.0373449 -0.105852 0.210359 -0.221376
1873 -0.137522 0.151174 0.161 -0.12621 0.139823 -0.136912 0.0727434 -0.0332086 -0.0774868 0.166483 0.0655841 0.180914 -0.120446 -0.0608363 -0.0981838 -0.0895357 0.0370492 -0.0189077 0.0758536 0.0163053 0.0234344 -0.0509331 0.0125655 -0.015293 -0.00275446 -0.0273196 -0.161241 -0.108448 0.00995548 -0.0236945 0.00634175 0.022701 0.021236 -0.0175832 -0.158334 -0.1397 0.0416953 0.0765455 0.00844631 0.0236976 0.00791616 -0.0763235 0.165163 0.0616735 0.0352612 0.180306 0.0431399 -0.104767 0.207765 -0.212099
3187 -0.0464875 0.0473655 0.0160544 -0.016557 0.0865154 -0.101755 0.0751953 -0.0453768 -0.0411958 0.0900285 0.0276661 0.0642815 -0.071504 -0.0388626 -0.0886997 -0.0798395 0.0370918 -0.0255323 0.10212 0.0340487 -0.063191 0.144629 0.0195726 -0.192104 0.0399718 -0.116534 -0.0387053 0.00790128 0.184366 -0.158408 0.123382 0.174996 0.0283452 -0.142003 -0.117799 -0.0996698 0.0779077 0.177833 0.0647379 0.0662856 0.0304062 -0.117579 0.0722349 0.0061528 0.021243 0.0563471 -0.000997767 -0.0105103 0.00754541 -0.0167632
937 -0.134217 0.146552 0.169493 -0.11871 0.133105 -0.13971 0.0617378 -0.0357955 -0.0669301 0.174464 0.0815408 0.192577 -0.110097 -0.0582079 -0.113424 -0.105217 0.0372155 -0.0258121 0.0704282 0.0165423 0.0256646 -0.0840975 0.00372213 0.0249381 -0.0239431 -0.011452 -0.163344 -0.116024 -0.0190859 0.00207544 -0.0280318 -0.00171832 0.0159899 -0.00784997 -0.153366 -0.136912 0.0414104 0.0521154 0.00290902 0.013363 -0.00265961 -0.0704869 0.157372 0.0643498 0.0250475 0.194959 0.0399948 -0.115634 0.224044 -0.244112
2808 -0.284594 0.284856 0.289552 -0.221076 0.266128 -0.264465 0.119031 -0.0721165 -0.132435 0.326794 0.122697 0.337104 -0.222584 -0.102787 -0.215218 -0.19372 0.0767115 -0.0614251 0.150352 0.0340918 0.028061 -0.0912401 0.0172304 -0.0540468 0.00184064 -0.0558086 -0.272609 -0.181442 0.0569586 -0.0587509 0.0162915 0.0711845 0.034256 -0.0727077 -0.325087 -0.275859 0.0790649 0.160997 0.035047 0.0411859 -0.0045997 -0.160862 0.312062 0.114919 0.0594046 0.349552 0.0774848 -0.178374 0.375935 -0.406913
3809 -0.206385 0.202629 0.183014 -0.138495 0.207919 -0.216316 0.129439 -0.0780867 -0.125065 0.271379 0.0950041 0.268805 -0.176769 -0.0840274 -0.177834 -0.156706 0.0815657 -0.0501069 0.163603 0.0369748 -0.0257156 0.0151957 0.0101456 -0.136427 0.0133656 -0.101106 -0.196275 -0.111992 0.144671 -0.130055 0.0911967 0.153915 0.0460537 -0.123112 -0.27019 -0.212634 0.0997371 0.187927 0.0620574 0.0673113 0.0128606 -0.146449 0.234078 0.0829566 0.0361133 0.225317 0.0486967 -0.114964 0.219795 -0.238421
2478 -0.126747 0.125166 0.107466 -0.0827667 0.114292 -0.118578 0.0723475 -0.0376518 -0.0782778 0.151033 0.0656572 0.153778 -0.11502 -0.0659666 -0.101123 -0.0888131 0.0478052 -0.0181993 0.0901382 0.0302225 -0.0224239 0.0112911 0.0039228 -0.0882619 0.0113374 -0.0624616 -0.118134 -0.0755581 0.0718107 -0.0705051 0.0398486 0.0769591 0.0244809 -0.0617635 -0.134766 -0.106028 0.0461904 0.110699 0.0273754 0.0192415 0.0069079 -0.0784226 0.125784 0.0342088 0.0195624 0.147755 0.028668 -0.0715557 0.141805 -0.151752
3705 -0.100809 0.109334 0.0759688 -0.0698569 0.142594 -0.142641 0.0880986 -0.046644 -0.0683994 0.158902 0.0576263 0.140204 -0.117566 -0.0542403 -0.117457 -0.104552 0.0539466 -0.0412375 0.120042 0.0407624 -0.0345565 0.101564 0.00755418 -0.167476 0.0350276 -0.113764 -0.0956983 -0.0478294 0.168098 -0.143862 0.100599 0.163358 0.0270728 -0.119819 -0.171603 -0.151707 0.084351 0.185051 0.0776769 0.0580532 0.0214853 -0.127638 0.151834 0.0455951 0.0357424 0.125769 0.0291183 -0.0373323 0.105576 -0.104689
971 -0.0680881 0.0624275 0.0160978 -0.0127195 0.0784398 -0.0936306 0.0706141 -0.0352396 -0.0467334 0.0790681 0.0135065 0.0757699 -0.0743292 -0.0423172 -0.085538 -0.0784487 0.0369594 -0.0216709 0.0919781 0.0249517 -0.0583528 0.123297 0.00654988 -0.178656 0.0360609 -0.108866 -0.0333937 0.0103519 0.198479 -0.146082 0.129039 0.167156 0.0339801 -0.133661 -0.118992 -0.0909914 0.0683254 0.158058 0.071076 0.0704783 0.0285042 -0.113924 0.0684516 -0.000631327 0.0110817 0.0674842 0.0132487 0.00296918 0.0255189 -0.0313373
3234 -0.0921187 0.0923196 0.0417247 -0.0531433 0.114469 -0.112771 0.0820563 -0.0466317 -0.0548833 0.136721 0.0413407 0.115913 -0.0852844 -0.0519203 -0.0875153 -0.0939454 0.0444383 -0.0302703 0.114774 0.0294508 -0.0464275 0.11134 0.0183373 -0.172085 0.0447035 -0.116816 -0.0889274 -0.0336018 0.177057 -0.138949 0.105054 0.164051 0.0372899 -0.117147 -0.159864 -0.129764 0.0792197 0.173928 0.0592713 0.0658392 0.0245551 -0.124046 0.123132 0.0188506 0.0250763 0.118103 0.0266589 -0.0285964 0.0807998 -0.0739467
723 -0.199283 0.19788 0.217136 -0.158921 0.154401 -0.162499 0.0785809 -0.0346883 -0.0952216 0.220265 0.091288 0.225367 -0.141355 -0.0739798 -0.136907 -0.121908 0.0444554 -0.0366754 0.087324 0.0254598 0.0473034 -0.125443 0.0123581 0.0250087 -0.0249553 0.000186177 -0.193032 -0.131017 -0.0387591 0.00257846 -0.029989 -0.0273744 0.0116138 0.00878098 -0.196023 -0.1616 0.0359911 0.053113 -0.00923872 0.00931885 -0.0211533 -0.0604732 0.198573 0.0674245 0.0347568 0.25472 0.0553487 -0.138915 0.282139 -0.295894
3046 -0.217314 0.228799 0.256218 -0.181366 0.156214 -0.158068 0.0567355 -0.0379683 -0.0868237 0.218381 0.0821712 0.238725 -0.150396 -0.0615306 -0.122043 -0.104914 0.0542109 -0.023578 0.0809238 0.0180323 0.0639222 -0.156105 0.0210896 0.0530281 -0.028105 0.0154269 -0.194049 -0.154239 -0.0647655 0.0219408 -0.0586296 -0.0468623 0.0074011 -0.000381548 -0.197928 -0.150888 0.0333539 0.0410318 -0.00584307 -0.00171554 -0.00783829 -0.0731731 0.213101 0.0783989 0.0580289 0.292794 0.0630224 -0.165591 0.351063 -0.372679
2541 -0.0872015 0.102053 0.0685264 -0.0419527 0.101714 -0.12531 0.0648332 -0.0395177 -0.0752946 0.145548 0.0417333 0.131748 -0.0916214 -0.0481839 -0.087873 -0.08496 0.042674 -0.0340651 0.101875 0.0306396 -0.040619 0.0881051 0.0140622 -0.13681 0.0244168 -0.0967997 -0.0873229 -0.0351483 0.126303 -0.09807 0.0701333 0.116697 0.0356419 -0.0929541 -0.109673 -0.105573 0.0612207 0.128992 0.0477021 0.0351705 0.0236783 -0.0862783 0.0937984 0.0242971 0.0137922 0.089811 0.0267929 -0.0410442 0.0762117 -0.0663368
3222 -0.17203 0.1888 0.171234 -0.129692 0.184197 -0.178441 0.0894942 -0.0513605 -0.104204 0.227398 0.0923882 0.223442 -0.165903 -0.0836733 -0.151529 -0.137664 0.0586943 -0.0448617 0.136105 0.0433927 -0.00860428 0.0305332 0.0258402 -0.134071 0.0156397 -0.0972514 -0.177415 -0.107682 0.127045 -0.11777 0.0752986 0.11867 0.0400129 -0.114073 -0.234389 -0.209968 0.0828183 0.17908 0.0504489 0.0673205 0.00739076 -0.137732 0.223237 0.0615314 0.0342714 0.231219 0.0372149 -0.108527 0.215903 -0.223333
2320 -0.146516 0.1486 0.161461 -0.114747 0.128844 -0.130671 0.0652844 -0.0234309 -0.0748345 0.170223 0.0730468 0.181934 -0.0982065 -0.0487495 -0.091162 -0.0717582 0.0307018 -0.0164849 0.0588455 0.0244623 0.025352 -0.0760898 0.0158366 0.0211862 -0.0139386 -0.0152198 -0.149839 -0.109746 -0.025089 9.16913e-05 -0.025257 -0.00387996 0.0179296 0.00304687 -0.147082 -0.121775 0.0180986 0.0342052 -0.00330043 0.0110941 -0.00700146 -0.0553024 0.142903 0.0635353 0.0315852 0.171953 0.0367758 -0.10389 0.186152 -0.19016
2811 -0.194978 0.197306 0.221284 -0.168019 0.172598 -0.171249 0.0885786 -0.0528382 -0.104268 0.235378 0.0991387 0.249017 -0.152426 -0.0775571 -0.133274 -0.123678 0.0572372 -0.0261458 0.0903505 0.0245719 0.0325225 -0.10479 0.0111298 0.00154442 -0.023753 -0.0172481 -0.20379 -0.148094 -0.0169417 -0.0044637 -0.0178632 -0.00402602 0.0329544 -0.0136449 -0.21069 -0.158254 0.0392967 0.0761831 -0.000625055 0.00377587 -0.0050759 -0.0960721 0.207707 0.0692108 0.0455148 0.250543 0.0567784 -0.143793 0.271302 -0.296307
3149 -0.231729 0.23875 0.274637 -0.20851 0.203805 -0.202663 0.0823774 -0.0449641 -0.117804 0.271367 0.116966 0.287488 -0.19231 -0.102138 -0.158948 -0.137607 0.0708553 -0.0286971 0.104958 0.0343314 0.0540297 -0.145398 0.00917123 0.0186576 -0.0153914 -0.0200959 -0.256519 -0.174031 -0.0326676 -0.00198675 -0.0371081 -0.00871779 0.0166709 -0.000982784 -0.250736 -0.202553 0.0505863 0.0754394 0.0117878 0.0184145 -0.0136641 -0.096036 0.246911 0.0910817 0.0599308 0.298343 0.0636906 -0.165832 0.338537 -0.354792
190 -0.0722043 0.0658995 0.0611285 -0.0499452 0.0832844 -0.0933268 0.0436749 -0.0282504 -0.0388979 0.0942623 0.0290911 0.0913095 -0.0659519 -0.0348575 -0.0716394 -0.0679725 0.0377073 -0.0117856 0.0732117 0.0251914 -0.0195 0.0439311 0.00541075 -0.0912753 0.026127 -0.0587485 -0.0649252 -0.0424102 0.0963588 -0.0747595 0.0460773 0.0765894 0.0127109 -0.0718638 -0.101901 -0.0900418 0.0366495 0.0981878 0.0392214 0.0325816 0.00512272 -0.0818235 0.0802187 0.0147523 0.0104486 0.081089 0.0233651 -0.0368877 0.0697174 -0.0767322
2699 -0.188492 0.192738 0.167016 -0.124908 0.215975 -0.236831 0.138939 -0.0848575 -0.131348 0.275599 0.112542 0.271987 -0.191151 -0.0980704 -0.178811 -0.169337 0.0816136 -0.0477605 0.18684 0.0459399 -0.033062 0.0790611 0.0272402 -0.175737 0.0362288 -0.146798 -0.216007 -0.123489 0.164444 -0.165343 0.114168 0.184431 0.0592767 -0.158591 -0.270366 -0.231174 0.117293 0.240576 0.0625706 0.0724276 0.0330822 -0.17445 0.226066 0.0641275 0.0355455 0.23453 0.0398035 -0.100293 0.217515 -0.208966
2429 -0.087756 0.0870359 0.0897387 -0.0757066 0.0739562 -0.0894972 0.0532094 -0.0245798 -0.0574925 0.115898 0.0490608 0.117486 -0.0720165 -0.0270025 -0.0724861 -0.0662096 0.0384465 -0.0262097 0.0607841 0.0054203 0.00317232 -0.0149615 0.0164325 -0.0202105 0.00828942 -0.023546 -0.0847298 -0.0620683 0.0124603 -0.0273337 0.00929725 0.0368262 0.0139089 -0.0298412 -0.103724 -0.0863932 0.0299024 0.0603253 0.00938451 0.0231653 0.00254138 -0.0395028 0.0942116 0.0247193 0.0160512 0.101175 0.0253654 -0.0608907 0.105899 -0.104097
3019 -0.31654 0.316543 0.345294 -0.26219 0.286937 -0.294613 0.145226 -0.0617813 -0.166046 0.361293 0.13746 0.384584 -0.253511 -0.128548 -0.263762 -0.220115 0.106048 -0.0509846 0.206771 0.0514843 0.0399272 -0.101958 0.0330068 -0.055496 0.000442802 -0.0833617 -0.347262 -0.22882 0.0327871 -0.0739089 0.00105222 0.0614942 0.0446974 -0.0564742 -0.365575 -0.291246 0.103127 0.167394 0.0372406 0.0583421 -0.00934188 -0.165116 0.35009 0.134283 0.0733868 0.416262 0.0920569 -0.220075 0.475947 -0.476082
3913 -0.194767 0.201499 0.2079 -0.14673 0.190107 -0.201518 0.107777 -0.0542036 -0.110926 0.25437 0.0978298 0.263375 -0.174552 -0.087416 -0.137291 -0.141025 0.0715158 -0.0472417 0.144689 0.0314591 0.0118487 -0.0459375 0.027383 -0.0588438 0.00211047 -0.0722801 -0.219507 -0.143117 0.0227604 -0.0603952 0.019508 0.060154 0.0327652 -0.0507685 -0.209924 -0.182917 0.0724693 0.115306 0.0102531 0.0221253 0.00548485 -0.103373 0.203949 0.074132 0.0361345 0.212431 0.055399 -0.119948 0.244117 -0.235109
1505 -0.0953922 0.10255 0.118731 -0.089223 0.0815835 -0.0865998 0.0307435 -0.0193401 -0.052015 0.113974 0.0385672 0.123776 -0.0629013 -0.0282371 -0.0687042 -0.0648686 0.0197385 -0.00711105 0.0454507 0.00872952 0.0367231 -0.0823763 0.000771557 0.0421031 -0.0163169 0.0154596 -0.104567 -0.0679761 -0.0373926 0.0212098 -0.0205792 -0.0182339 0.0147661 0.0153008 -0.0972418 -0.0778707 0.0127117 0.0102005 -0.0107957 0.00142726 -0.0143529 -0.0162923 0.104114 0.0362186 0.0134549 0.127766 0.0352806 -0.0803621 0.142582 -0.149734
1822 -0.643877 0.668521 0.652692 -0.462512 0.524894 -0.539783 0.237358 -0.123448 -0.28876 0.691591 0.259084 0.720337 -0.4606 -0.244216 -0.426781 -0.387831 0.175873 -0.110669 0.328733 0.0690506 0.0720504 -0.207194 0.0379715 -0.0971158 -0.0254514 -0.13677 -0.538472 -0.365782 0.106189 -0.141581 0.0194624 0.111211 0.0865622 -0.128943 -0.590992 -0.481408 0.143168 0.243756 0.0647323 0.0616536 -0.00584456 -0.265436 0.595123 0.210565 0.128794 0.70551 0.163662 -0.39029 0.821738 -0.864306
3863 -0.153599 0.173387 0.161214 -0.118443 0.152238 -0.156812 0.0889134 -0.0403829 -0.085127 0.209606 0.0815045 0.203251 -0.150666 -0.0650055 -0.12891 -0.123265 0.058393 -0.0359139 0.129492 0.0363357 -0.0103063 0.0205804 0.0212995 -0.111395 0.022503 -0.0955216 -0.175139 -0.098451 0.114091 -0.100685 0.0582126 0.108146 0.0270912 -0.0844456 -0.199297 -0.164016 0.0746333 0.136542 0.0414988 0.0487094 0.0145268 -0.132163 0.174381 0.0602772 0.0453039 0.210402 0.0521981 -0.100605 0.197104 -0.208329
355 -0.0946219 0.109337 0.11409 -0.0817938 0.0824789 -0.0788209 0.0474442 -0.0250957 -0.0538402 0.116117 0.0602498 0.122212 -0.0714364 -0.0358636 -0.0600158 -0.0712628 0.0271974 -0.0210774 0.0418322 0.0154784 0.0108384 -0.0672385 0.00447309 0.0169314 -0.00779572 -0.00569363 -0.11427 -0.0784532 -0.00602135 0.00615202 -0.0238623 -0.0035022 0.00881393 0.000623926 -0.122055 -0.0917664 0.0244089 0.0389233 -0.00171091 0.00678513 0.00423465 -0.037809 0.122019 0.0403083 0.0203139 0.148702 0.0256469 -0.0754876 0.160846 -0.173506
1610 -0.142871 0.148902 0.15935 -0.110285 0.150149 -0.155172 0.0728754 -0.0350137 -0.0849648 0.196794 0.0771776 0.201246 -0.124786 -0.0726428 -0.124358 -0.123096 0.0496586 -0.0215143 0.0942373 0.0251084 0.0109254 -0.026862 0.022979 -0.0670154 0.00021308 -0.0650021 -0.174889 -0.106505 0.0627329 -0.0679401 0.024077 0.0748272 0.0257034 -0.0693809 -0.190899 -0.150123 0.0667919 0.114165 0.0293141 0.0265411 0.0136916 -0.0929999 0.171975 0.0600167 0.0408053 0.212587 0.0473606 -0.0948346 0.210555 -0.210969
3632 -0.257595 0.269675 0.253725 -0.194529 0.296727 -0.308271 0.169308 -0.0960308 -0.15731 0.367337 0.133478 0.357924 -0.24499 -0.123642 -0.240527 -0.206876 0.0901556 -0.063217 0.209918 0.0464426 -0.0206281 0.0337066 0.0332456 -0.190353 0.0327645 -0.151905 -0.280084 -0.163804 0.204164 -0.184132 0.119963 0.191966 0.054151 -0.169982 -0.367595 -0.317352 0.131923 0.266589 0.0766516 0.0812004 0.0321796 -0.215724 0.32659 0.0926132 0.0679156 0.34409 0.0677072 -0.155838 0.320308 -0.330098
3102 -0.108509 0.0933208 0.085123 -0.0804152 0.11268 -0.112155 0.0554589 -0.0314889 -0.0645914 0.140349 0.0444274 0.134725 -0.0922299 -0.0590958 -0.0900586 -0.0871817 0.0476239 -0.0248969 0.0837806 0.0163023 -0.0151471 0.0319018 0.010423 -0.0838595 0.0156345 -0.0596133 -0.0963988 -0.0587921 0.0791343 -0.0733701 0.0480195 0.0717385 0.0229079 -0.0617083 -0.132309 -0.111762 0.0465504 0.105556 0.0257221 0.0240337 0.00986289 -0.0772597 0.12065 0.0398593 0.0255142 0.123405 0.0148683 -0.0439036 0.104343 -0.122934
3375 -0.331711 0.328581 0.312493 -0.230428 0.295557 -0.291229 0.149485 -0.0847737 -0.15017 0.346256 0.123017 0.354124 -0.241215 -0.140615 -0.239874 -0.212216 0.111235 -0.0631028 0.207549 0.0587003 0.000897033 -0.0484507 0.0137213 -0.110566 0.0106397 -0.114227 -0.291602 -0.165353 0.160512 -0.159814 0.0725934 0.160856 0.0524606 -0.145737 -0.374831 -0.306682 0.140441 0.254817 0.0802213 0.0678734 0.00416224 -0.223834 0.36265 0.118843 0.0903456 0.381816 0.0722226 -0.186807 0.411367 -0.411078
2810 -0.0725202 0.0769265 0.0336771 -0.0229815 0.106373 -0.107303 0.0695841 -0.051084 -0.061692 0.114665 0.0397579 0.104308 -0.0820583 -0.0545626 -0.101886 -0.091717 0.0297144 -0.0205135 0.105598 0.0271559 -0.0598969 0.138085 0.0224683 -0.183521 0.0503229 -0.123612 -0.0603992 -0.00263789 0.20581 -0.16783 0.135928 0.177672 0.0422546 -0.150469 -0.133412 -0.124336 0.0707693 0.18666 0.0685814 0.0660718 0.0209763 -0.11861 0.0989039 0.0167973 0.028809 0.0853203 0.0174228 -0.0124968 0.0283752 -0.0315492
326 -0.0782353 0.0940077 0.113356 -0.087631 0.0725416 -0.0859171 0.0376611 -0.0171777 -0.0470228 0.115919 0.0534603 0.110867 -0.0717737 -0.0323086 -0.0589692 -0.0561936 0.0236961 -0.0198622 0.0447678 0.0119243 0.0230822 -0.0600555 0.00378577 0.0147509 -0.0100191 0.00325857 -0.104788 -0.0706591 -0.0417103 0.00654335 -0.0350482 -0.0186019 0.0091539 0.00649158 -0.0867233 -0.0667984 0.0165049 0.0129762 -0.00833937 -0.00895052 -0.00241804 -0.0256098 0.0964529 0.0313698 0.00900552 0.121188 0.0356818 -0.0611235 0.130656 -0.141346
1556 -0.5507 0.584776 0.576021 -0.421561 0.506629 -0.504776 0.249818 -0.126177 -0.286633 0.653061 0.255432 0.673479 -0.451409 -0.230022 -0.439522 -0.404463 0.189902 -0.113768 0.354627 0.0787662 0.0433753 -0.146963 0.0466408 -0.163831 -0.0079705 -0.167532 -0.574305 -0.360734 0.146973 -0.165237 0.0568611 0.164508 0.0940933 -0.154869 -0.6173 -0.521013 0.163263 0.333441 0.0961218 0.097383 0.0173695 -0.32257 0.604338 0.196341 0.135053 0.696218 0.166889 -0.366149 0.762375 -0.790728
3129 -0.0780823 0.0911271 0.0720696 -0.0625776 0.111765 -0.106116 0.07042 -0.04656 -0.0626224 0.133092 0.0436728 0.125108 -0.103529 -0.056256 -0.080612 -0.0725222 0.0287621 -0.0184708 0.0866543 0.0289353 -0.0296223 0.0672961 0.0144684 -0.109725 0.0340549 -0.084943 -0.0890892 -0.0460554 0.111795 -0.0807832 0.0650708 0.0961797 0.0303602 -0.0764621 -0.123128 -0.117114 0.0555907 0.127633 0.0314221 0.0483748 0.0224465 -0.0956726 0.106227 0.0164708 0.0186414 0.0996443 0.0261535 -0.0468804 0.0907498 -0.0952846
1988 -0.0856077 0.0913423 0.133956 -0.0879256 0.085595 -0.0858475 0.0409295 -0.0180037 -0.0558189 0.120266 0.0510338 0.138841 -0.0771472 -0.0448845 -0.0598103 -0.0603948 0.01844 -0.018063 0.0407551 0.00556887 0.0363795 -0.107976 0.000629939 0.0620243 -0.0331883 0.0245158 -0.105929 -0.0856076 -0.0693162 0.0390238 -0.0406897 -0.0453264 0.00336046 0.0349935 -0.1051 -0.0730967 0.0103349 0.00186539 -0.010711 -0.0130671 -0.00979239 -0.0249063 0.105902 0.036754 0.00897909 0.121387 0.0340781 -0.0829588 0.151559 -0.162481
2369 -0.335392 0.336976 0.334498 -0.261108 0.321389 -0.31248 0.148266 -0.0943799 -0.165137 0.405488 0.160232 0.401167 -0.276489 -0.146949 -0.258679 -0.23153 0.103807 -0.0623785 0.193129 0.0539587 0.0166476 -0.0866889 0.0254417 -0.0746375 0.00820584 -0.0995418 -0.324472 -0.201616 0.0892591 -0.0890329 0.0363834 0.0844151 0.0509 -0.0956589 -0.354136 -0.299051 0.0863138 0.182934 0.0468539 0.0482369 0.00560461 -0.171797 0.32173 0.121097 0.0702402 0.377509 0.0796898 -0.197396 0.405591 -0.433949
3072 -0.0587593 0.0652314 0.0158137 -0.0262729 0.0793256 -0.0897116 0.0520996 -0.0416522 -0.0552421 0.0816525 0.017101 0.0642888 -0.0660352 -0.0338332 -0.067653 -0.0718357 0.0371903 -0.0266885 0.09696 0.0361392 -0.0513276 0.125964 0.00413904 -0.184901 0.0509915 -0.116332 -0.0476493 -0.00393615 0.192233 -0.155438 0.124939 0.162499 0.0270971 -0.132947 -0.100173 -0.0983044 0.0722901 0.157298 0.0609614 0.0703452 0.0279097 -0.100962 0.0839186 0.0202306 0.0272476 0.0631204 0.00250155 0.000739931 0.031547 -0.0225459
1273 -0.135059 0.136346 0.144199 -0.102963 0.120759 -0.12771 0.0581913 -0.0439209 -0.0728694 0.156949 0.0693423 0.181106 -0.127878 -0.0682496 -0.110673 -0.0964936 0.0505429 -0.0176013 0.0800334 0.0307528 0.00111397 -0.0496824 0.0183744 -0.0184591 0.00598341 -0.0445261 -0.139942 -0.0841452 0.0315186 -0.0416774 0.0133063 0.0386259 0.0206275 -0.0318859 -0.157699 -0.13356 0.0504457 0.0836199 0.0183122 0.0205266 0.000759353 -0.068436 0.137971 0.0430454 0.0233607 0.165048 0.0422588 -0.0963684 0.187408 -0.193569
2874 -0.147516 0.154903 0.101388 -0.0891665 0.196771 -0.185235 0.122554 -0.0630204 -0.103995 0.216357 0.0828458 0.200621 -0.149667 -0.0706951 -0.163377 -0.147764 0.0571615 -0.03942 0.159482 0.0428215 -0.0671527 0.126139 0.0296433 -0.219552 0.0610695 -0.165241 -0.152713 -0.0533871 0.225589 -0.197875 0.135317 0.218358 0.0583614 -0.175606 -0.218737 -0.190185 0.102363 0.238603 0.0945295 0.0821956 0.0249036 -0.172022 0.185584 0.0427557 0.0279571 0.177207 0.0315414 -0.0615841 0.131478 -0.133969
1801 -0.127418 0.127865 0.144907 -0.111783 0.108401 -0.115776 0.0468141 -0.025613 -0.0601551 0.148523 0.0676818 0.166292 -0.112025 -0.0489821 -0.0825613 -0.0745986 0.0413391 -0.0179925 0.0709812 0.0159153 0.0156399 -0.0683578 0.0145766 0.0172019 -0.00519282 -0.0114439 -0.1378 -0.0997708 -0.0159998 -0.00578103 -0.0133886 -0.00604299 0.0123497 0.000915977 -0.131155 -0.10678 0.0195686 0.028082 -0.00356932 0.00526734 -0.0156133 -0.0573761 0.147708 0.0418029 0.0158217 0.158159 0.0454489 -0.0983632 0.179236 -0.183765
2106 -0.137211 0.136719 0.184526 -0.124115 0.111712 -0.115425 0.0560933 -0.0354596 -0.0738489 0.169551 0.0743989 0.182221 -0.114564 -0.0577554 -0.0988157 -0.0844154 0.0510682 -0.0141239 0.05928 0.0137731 0.0448104 -0.100089 -0.00022774 0.0424716 -0.0126901 -0.00647952 -0.16657 -0.112742 -0.0366839 0.0262256 -0.0332707 -0.032342 0.0186848 0.00589154 -0.134879 -0.118679 0.0275175 0.0322781 -0.0109806 0.00437249 -0.000736016 -0.0432103 0.153306 0.0525764 0.0233421 0.203799 0.0469954 -0.109557 0.222702 -0.239904
2704 -0.138527 0.125657 0.163574 -0.130097 0.120811 -0.133606 0.0637697 -0.0343686 -0.0693088 0.165367 0.0660925 0.183071 -0.110337 -0.0570642 -0.0885756 -0.0970148 0.0413644 -0.0315865 0.062256 0.0169008 0.0381058 -0.0950672 0.0108991 0.0294495 -0.0151467 -0.00863496 -0.17613 -0.130941 -0.0434076 0.00843394 -0.0395248 -0.0206715 0.0119395 0.00715447 -0.173304 -0.127345 0.0353186 0.0640327 0.00420599 -0.00227546 -0.00219258 -0.0590155 0.176661 0.0745927 0.0244731 0.219687 0.049224 -0.128965 0.246942 -0.241418
1259 -0.0971007 0.111387 0.124361 -0.0866011 0.0720474 -0.0819753 0.0252512 -0.016135 -0.0428479 0.113601 0.0405975 0.130858 -0.0759992 -0.0458344 -0.0730036 -0.066621 0.0359835 -0.0216011 0.0426942 0.0168325 0.0225795 -0.0899521 0.0123113 0.0513026 -0.0210756 0.0196703 -0.115351 -0.0784213 -0.0591542 0.0221292 -0.0433753 -0.0342295 -0.00228563 0.0283088 -0.0941861 -0.0720659 0.005891 0.0014554 -0.0105205 -0.0117983 -0.0144833 -0.0206672 0.108242 0.0365519 0.0211741 0.1305 0.0302643 -0.083968 0.161534 -0.173563
2108 -0.294938 0.31074 0.342382 -0.239864 0.250687 -0.241563 0.114024 -0.0580609 -0.125893 0.332134 0.138191 0.361987 -0.229734 -0.117298 -0.215086 -0.184388 0.0793131 -0.0406873 0.141811 0.0261816 0.0533696 -0.178287 0.0105859 0.0417488 -0.0331925 -0.0216343 -0.289187 -0.201034 -0.0617992 0.00528507 -0.0627756 -0.032456 0.0182579 -5.33191e-05 -0.283346 -0.230662 0.0479207 0.075961 0.0154403 0.0180399 -0.0176137 -0.106617 0.312517 0.109557 0.0624344 0.392856 0.092248 -0.219239 0.468075 -0.484054
3603 -0.194641 0.197798 0.223262 -0.166681 0.156562 -0.140227 0.0654655 -0.0207248 -0.0725675 0.195793 0.0820801 0.218099 -0.126021 -0.0666013 -0.0984002 -0.0879911 0.0398618 -0.0190344 0.0666401 0.0199229 0.065871 -0.151987 0.011816 0.076488 -0.0453384 0.0277637 -0.173937 -0.14495 -0.100985 0.0434911 -0.0636668 -0.0649996 -0.000820236 0.0417474 -0.143219 -0.108608 0.0129033 -0.0169387 -0.0196248 -0.0204544 -0.0298788 -0.0190728 0.182216 0.0728116 0.038709 0.216582 0.0622456 -0.132899 0.269465 -0.291264
606 -0.0556811 0.0643657 0.0119915 -0.0148889 0.0933388 -0.101731 0.0608242 -0.0339707 -0.049205 0.0980341 0.0136608 0.0621081 -0.0770115 -0.0418462 -0.0758846 -0.0747956 0.02871 -0.0293532 0.0932963 0.0205125 -0.0498625 0.145821 0.0148662 -0.187356 0.0408373 -0.110293 -0.0382848 -0.000381661 0.190464 -0.148095 0.118386 0.187457 0.036062 -0.149001 -0.125022 -0.108946 0.0645209 0.182556 0.0604881 0.0621058 0.0378675 -0.111588 0.0616939 0.0101322 0.0264778 0.0628507 0.0127916 -0.00666207 0.0175639 -0.0181033
412 -0.0863255 0.0998437 0.108148 -0.0664644 0.0832354 -0.0934015 0.0416276 -0.0279132 -0.0531765 0.105857 0.0444255 0.123191 -0.0902814 -0.0356845 -0.0738396 -0.0565643 0.0232086 -0.0274343 0.0544205 0.00602914 0.00503001 -0.0298271 0.0145464 -0.0260194 -0.00261952 -0.0263851 -0.0965074 -0.0755886 0.0263134 -0.0337618 0.0138965 0.0265296 0.0112008 -0.0257861 -0.103427 -0.0930813 0.024468 0.0632928 0.012775 0.0140246 -0.00661431 -0.0573964 0.0950708 0.0391434 0.0186905 0.120563 0.020992 -0.0511612 0.124273 -0.130094
3599 -0.231446 0.244077 0.219144 -0.168241 0.252403 -0.27117 0.147635 -0.0884627 -0.14162 0.317961 0.115252 0.318095 -0.232656 -0.109274 -0.216545 -0.193946 0.0953631 -0.0506941 0.201342 0.052012 -0.023926 0.0314357 0.0296473 -0.172196 0.0237704 -0.144217 -0.267245 -0.15028 0.168189 -0.164574 0.0924981 0.177661 0.0604801 -0.144461 -0.319382 -0.269376 0.119772 0.254367 0.0700495 0.0853115 0.0234015 -0.185331 0.289092 0.0935086 0.0556741 0.309926 0.067397 -0.147412 0.290116 -0.303316
3506 -0.251646 0.271624 0.288438 -0.215326 0.246737 -0.250961 0.116002 -0.0631741 -0.125953 0.320231 0.110611 0.306996 -0.216514 -0.108851 -0.212644 -0.199462 0.0754466 -0.0608974 0.165273 0.032055 0.0167017 -0.095223 0.00864279 -0.0424697 -0.00626303 -0.0553595 -0.27504 -0.184756 0.0480492 -0.0593493 0.0192259 0.0570929 0.031274 -0.0571881 -0.301996 -0.265881 0.0865911 0.15954 0.0494327 0.0537719 0.00858998 -0.149761 0.285828 0.109578 0.0623477 0.332245 0.073134 -0.174421 0.382379 -0.378718
3774 -0.227551 0.235141 0.247826 -0.183421 0.235151 -0.251036 0.118711 -0.0626746 -0.12767 0.30982 0.109433 0.315883 -0.218158 -0.114881 -0.197703 -0.191286 0.0951379 -0.0608126 0.171418 0.0323078 -0.00132559 -0.0395211 0.0100616 -0.100219 0.014518 -0.0873377 -0.276573 -0.176685 0.0994432 -0.10064 0.0535378 0.122931 0.0396364 -0.113154 -0.314547 -0.265999 0.113721 0.216328 0.055615 0.0661873 0.0119966 -0.166726 0.296476 0.0947404 0.0531325 0.32585 0.0669306 -0.155957 0.319622 -0.351324
3937 -0.0793888 0.0724977 0.0426067 -0.027746 0.107038 -0.100988 0.0653025 -0.047623 -0.0551875 0.105701 0.0269987 0.0962614 -0.092536 -0.0499775 -0.0765515 -0.0723595 0.0290525 -0.0238366 0.0846311 0.0303841 -0.0490136 0.105153 0.0100891 -0.136032 0.0431485 -0.0959004 -0.0616192 -0.0293887 0.134199 -0.111609 0.095041 0.142756 0.0312619 -0.10668 -0.106699 -0.0991281 0.0583699 0.130207 0.0346331 0.0330096 0.0251881 -0.0835476 0.0738709 0.0100653 0.00653505 0.0773237 0.0178021 -0.010413 0.0496763 -0.0524926
3548 -0.136287 0.145053 0.0833329 -0.0803886 0.154544 -0.159316 0.0910579 -0.0515754 -0.0854789 0.188086 0.0519278 0.163283 -0.144768 -0.0790187 -0.142365 -0.124402 0.0680634 -0.0466067 0.159664 0.0455074 -0.0457147 0.12815 0.0248738 -0.207404 0.0549836 -0.135677 -0.126556 -0.048124 0.217385 -0.189537 0.127991 0.212254 0.0424918 -0.151969 -0.205333 -0.17737 0.105162 0.225114 0.0825556 0.0715803 0.0332164 -0.143478 0.151425 0.0409965 0.0306321 0.150986 0.0183963 -0.0472021 0.12527 -0.122063
3194 -0.0619235 0.054718 0.0122198 -0.0137128 0.0976707 -0.0921629 0.0634869 -0.0335314 -0.0489631 0.0844293 0.0148864 0.0810565 -0.0678834 -0.029354 -0.084246 -0.066815 0.0415824 -0.0310195 0.102425 0.027408 -0.0542622 0.133071 0.00934557 -0.178661 0.0415828 -0.110624 -0.055061 -0.00428267 0.187868 -0.14937 0.124977 0.175765 0.0391285 -0.128417 -0.126693 -0.109333 0.0791441 0.176103 0.0706097 0.0769271 0.0243707 -0.10551 0.0843899 0.00300231 0.0267904 0.0759197 0.00872576 -0.000266574 0.0217925 -0.0289103
3943 -0.104188 0.100769 0.0815232 -0.0632428 0.12609 -0.142392 0.0819071 -0.0489719 -0.0665634 0.157121 0.0622101 0.147062 -0.111824 -0.0564494 -0.0962132 -0.0821293 0.0388747 -0.0397648 0.115513 0.0341634 -0.029453 0.0668395 0.0169184 -0.127136 0.0194374 -0.0875499 -0.110494 -0.059098 0.116681 -0.104407 0.0754383 0.114103 0.0271151 -0.0970871 -0.154468 -0.126849 0.0689398 0.144837 0.0419838 0.0353319 0.0187156 -0.100656 0.133834 0.0297444 0.0202874 0.119376 0.0208152 -0.043412 0.108617 -0.111463
312 -0.0898723 0.0958819 0.120483 -0.0950288 0.0876663 -0.109007 0.0397387 -0.0215816 -0.0607331 0.134528 0.0524392 0.142542 -0.0769943 -0.0342717 -0.0637924 -0.0732547 0.0233279 -0.0252897 0.0463047 0.0188596 0.02066 -0.0729054 0.00328222 0.0183174 -0.00880533 -0.00511834 -0.106702 -0.0913748 -0.0339668 0.0173955 -0.0113584 -0.00424443 0.0145708 0.00712645 -0.108208 -0.0939511 0.0263837 0.0326463 0.00944308 -0.000193185 -0.0152469 -0.0435698 0.125167 0.0526808 0.0217748 0.128831 0.0361179 -0.0697403 0.166409 -0.165589
1285 -0.373715 0.38948 0.397853 -0.305653 0.368763 -0.388818 0.186161 -0.113688 -0.209897 0.472449 0.179514 0.473835 -0.325232 -0.169922 -0.308953 -0.272062 0.124631 -0.0668628 0.256496 0.0648401 0.0172707 -0.0732225 0.0375298 -0.125098 -0.000371952 -0.131705 -0.392784 -0.243654 0.121522 -0.143121 0.0546338 0.146571 0.0661478 -0.125634 -0.456141 -0.375713 0.125927 0.267843 0.0810379 0.0723388 0.00466741 -0.234172 0.415209 0.139835 0.0876177 0.469181 0.102184 -0.246303 0.512606 -0.537298
3217 -0.107111 0.113897 0.112428 -0.0861795 0.118772 -0.124862 0.0821845 -0.0324549 -0.0765815 0.151708 0.0598735 0.15205 -0.118977 -0.0621781 -0.10854 -0.0983885 0.0486009 -0.038586 0.0876277 0.0153171 -0.0181776 0.0429764 0.0163146 -0.0983147 0.0137893 -0.0693062 -0.111075 -0.0603482 0.0986088 -0.0852595 0.0505787 0.102185 0.0323066 -0.0743107 -0.144061 -0.131542 0.0607713 0.116716 0.0274543 0.0437957 0.0116538 -0.0961702 0.129834 0.0423055 0.0284029 0.132847 0.0193687 -0.0516496 0.123143 -0.121321
3626 -0.0482414 0.0485979 0.00277225 -0.0200176 0.0861802 -0.0855296 0.0663846 -0.0369751 -0.0475978 0.0879746 0.022714 0.0766876 -0.0829399 -0.0320989 -0.0763145 -0.0766754 0.0410352 -0.0244673 0.105364 0.0314358 -0.0474063 0.145674 0.017504 -0.185572 0.0481818 -0.110205 -0.0388628 0.0125296 0.186052 -0.147936 0.118372 0.171293 0.0251726 -0.141197 -0.107985 -0.0990282 0.0608182 0.176302 0.068924 0.0566792 0.0224554 -0.113355 0.0771652 0.00168111 0.0208987 0.0521422 0.0140659 -0.00311282 0.0192495 -0.020201
268 -0.0676782 0.0594183 0.00645102 -0.0226179 0.0954883 -0.0943346 0.0670617 -0.0447078 -0.0453888 0.0944945 0.0148072 0.0651811 -0.0656703 -0.0326325 -0.0786442 -0.0634138 0.0358462 -0.0311404 0.0866642 0.0311771 -0.0595461 0.131311 0.00788002 -0.174731 0.0433204 -0.120319 -0.0458854 0.00855211 0.189183 -0.149114 0.120747 0.185031 0.0326415 -0.132352 -0.10928 -0.0944055 0.071772 0.167017 0.0664498 0.0537343 0.0300796 -0.0983175 0.0706921 0.0111525 0.0218308 0.0626384 0.0134493 0.00664312 0.0161258 -0.014063
1792 -0.0404412 0.0413077 -0.00508056 -0.00423803 0.0742242 -0.0805004 0.0474935 -0.0340387 -0.0409376 0.0691165 0.013298 0.0659709 -0.0612278 -0.0379215 -0.0704988 -0.0579012 0.0231616 -0.0293204 0.0949913 0.0183132 -0.0453162 0.138032 0.00900318 -0.169377 0.0369336 -0.112057 -0.0429259 0.0118841 0.185138 -0.155469 0.118564 0.171323 0.0241831 -0.135768 -0.107497 -0.0822123 0.0557989 0.163596 0.0640593 0.0623742 0.0329907 -0.106525 0.0697078 -0.00104059 0.0234652 0.0511842 -0.000553325 0.00541225 0.00467333 -0.00385286
3795 -0.193577 0.201486 0.150976 -0.123999 0.223484 -0.221382 0.138132 -0.0820189 -0.129451 0.267018 0.099027 0.24695 -0.1944 -0.0920209 -0.182381 -0.16314 0.0687004 -0.0619878 0.1783 0.0505349 -0.0433001 0.0969222 0.0253883 -0.20384 0.0479089 -0.153372 -0.188141 -0.0962144 0.208347 -0.17976 0.133224 0.203928 0.0622297 -0.156814 -0.268285 -0.221764 0.119339 0.245964 0.0711979 0.0747595 0.0193153 -0.171684 0.221391 0.0517052 0.0418459 0.232162 0.0344939 -0.0867485 0.190427 -0.204431
1696 -0.131141 0.12547 0.0862121 -0.0819174 0.134585 -0.140557 0.0734347 -0.0523295 -0.0786479 0.166432 0.0542101 0.142895 -0.118543 -0.0585733 -0.126036 -0.102728 0.0439004 -0.0251303 0.111569 0.0321696 -0.0407723 0.0831004 0.0200005 -0.151355 0.0399157 -0.113231 -0.123814 -0.0514908 0.18423 -0.151112 0.10165 0.160262 0.0334802 -0.120407 -0.181143 -0.165158 0.0737698 0.167279 0.0601835 0.068577 0.0245604 -0.131465 0.154183 0.0384258 0.0333681 0.158882 0.0244681 -0.0611724 0.125162 -0.135228
3446 -0.0572632 0.0560407 0.0296899 -0.028827 0.096051 -0.0889532 0.0550364 -0.0404423 -0.0598157 0.106346 0.0249797 0.0899752 -0.0831003 -0.0453401 -0.0706691 -0.0741721 0.0364487 -0.0280146 0.0849699 0.0207367 -0.0461089 0.11497 0.00457908 -0.142901 0.0361891 -0.0886875 -0.0588256 -0.0164697 0.145878 -0.127934 0.103565 0.138266 0.0337594 -0.113428 -0.103335 -0.0998332 0.0607543 0.144928 0.0447027 0.0498635 0.032874 -0.0910026 0.0707233 0.010542 0.0114157 0.0623995 0.0139945 -0.0167938 0.0307711 -0.0268236
26 -0.0470832 0.0583164 -0.0019288 -0.00496976 0.0885012 -0.0909514 0.0645821 -0.0308594 -0.0418606 0.0879992 0.0122285 0.0602957 -0.056669 -0.0361169 -0.0819322 -0.0596281 0.0324914 -0.0311223 0.085618 0.0238722 -0.0633969 0.140457 0.00769765 -0.173534 0.0531606 -0.111574 -0.0427627 0.01226 0.178978 -0.151938 0.1124 0.163916 0.0275798 -0.117326 -0.103354 -0.0985583 0.0664136 0.15755 0.06732 0.0691561 0.0282168 -0.110622 0.0582889 0.0053336 0.00704013 0.0658333 0.00174744 -0.010756 0.0070259 -0.00712132
3342 -0.0887034 0.087645 0.102975 -0.0779183 0.102434 -0.105446 0.0593085 -0.0279307 -0.0604699 0.120328 0.0536794 0.127783 -0.0732492 -0.0357735 -0.0775614 -0.0606746 0.0254221 -0.0112929 0.0728704 0.0186691 -0.00185969 -0.0116861 0.0013421 -0.0275337 -0.00588333 -0.0264663 -0.0890787 -0.0696275 0.0347679 -0.0403539 0.0201912 0.0355232 0.0113955 -0.0444033 -0.129198 -0.0974275 0.0414445 0.0690317 0.0226161 0.0218284 0.00445062 -0.0697423 0.102857 0.0418895 0.0140732 0.120662 0.0220756 -0.0602706 0.124206 -0.131722
1388 -0.0846153 0.0908687 0.115607 -0.0858509 0.0769537 -0.0800386 0.0330017 -0.0186544 -0.0554589 0.11142 0.0520253 0.119445 -0.0813959 -0.0397464 -0.0626235 -0.0615639 0.0347038 -0.0101792 0.0547961 0.0135178 0.00447896 -0.0374699 0.00111304 -0.0141156 -0.0116667 -0.0112176 -0.104753 -0.0589618 0.0141714 -0.00765734 0.00616823 0.00683781 0.0200995 -0.0199428 -0.0997042 -0.084315 0.0246396 0.0541856 0.0101445 0.0210718 0.00609069 -0.0516684 0.10479 0.0345379 0.0230001 0.122368 0.0326014 -0.075453 0.137204 -0.145658
1752 -0.421942 0.438142 0.446921 -0.330229 0.388881 -0.394201 0.190597 -0.105772 -0.21317 0.492017 0.187199 0.526783 -0.351498 -0.179817 -0.331104 -0.308733 0.132694 -0.077569 0.258437 0.0660793 0.0393095 -0.123017 0.0249518 -0.0951716 -0.00647589 -0.128528 -0.433305 -0.276625 0.0941116 -0.132076 0.0335819 0.124532 0.0729733 -0.120835 -0.492051 -0.39624 0.14179 0.267191 0.0644204 0.0841268 0.00493032 -0.253642 0.471904 0.163382 0.104459 0.557276 0.127011 -0.300358 0.595352 -0.618972
1799 -0.0990584 0.107705 0.137696 -0.100045 0.0848299 -0.0840481 0.0430451 -0.0265788 -0.0454258 0.118197 0.0582696 0.149882 -0.0712863 -0.0359192 -0.0616461 -0.0653647 0.0238102 -0.0195013 0.037235 0.00197417 0.0435364 -0.106087 0.00886133 0.0652116 -0.0317402 0.0263375 -0.118795 -0.102366 -0.0541239 0.0224941 -0.0479828 -0.0473402 0.0154873 0.0196808 -0.110128 -0.0836213 0.00602686 0.0147922 -0.00689565 -0.0102304 -0.0118088 -0.0239393 0.118937 0.050522 0.0294652 0.150243 0.030604 -0.089033 0.172286 -0.186457
3387 -0.0795912 0.072593 0.0387446 -0.0363777 0.102981 -0.106588 0.0731713 -0.041199 -0.0583107 0.115429 0.0236581 0.0853545 -0.0871366 -0.040233 -0.0986747 -0.0903605 0.0426086 -0.0247327 0.100483 0.024098 -0.0500422 0.135666 0.00645855 -0.182649 0.0549664 -0.131955 -0.0654306 -0.002537 0.198512 -0.160108 0.129012 0.184386 0.0373557 -0.152528 -0.139268 -0.12897 0.0763155 0.178582 0.0816458 0.0624812 0.0260493 -0.121418 0.0941976 0.0209846 0.0247286 0.0772785 0.00645905 -0.0192909 0.0358974 -0.0279213
3486 -0.0645961 0.0700323 0.0288687 -0.0206415 0.0767414 -0.0870042 0.0559842 -0.0287103 -0.0420061 0.0832903 0.0233729 0.0808832 -0.0607515 -0.0371341 -0.0677424 -0.0726858 0.0288953 -0.0162383 0.0757575 0.026978 -0.0336897 0.1034 0.00606287 -0.153347 0.0465727 -0.0876185 -0.0574821 -0.0126224 0.153752 -0.122694 0.0947183 0.13864 0.0205219 -0.116628 -0.101293 -0.0994595 0.0542483 0.136696 0.0667892 0.0494989 0.0164739 -0.0838858 0.0701104 0.0128694 0.00811552 0.0634152 0.00844344 -0.00581557 0.0192535 -0.0273998
3616 -0.24889 0.266088 0.254983 -0.185685 0.236178 -0.234556 0.117242 -0.0761305 -0.143653 0.310079 0.134141 0.308145 -0.216903 -0.114904 -0.225175 -0.203855 0.0949331 -0.062112 0.177486 0.0290713 0.00189216 -0.0755179 0.0127619 -0.074984 0.012102 -0.0865546 -0.267954 -0.158514 0.0577724 -0.0772515 0.0307485 0.0527375 0.0501209 -0.0657625 -0.299712 -0.254887 0.0834317 0.160614 0.0689115 0.0426336 0.0130232 -0.153948 0.288459 0.110402 0.069601 0.36399 0.0646856 -0.194276 0.362676 -0.394657
3954 -0.142433 0.141582 0.130438 -0.10699 0.172355 -0.169071 0.0897555 -0.0524073 -0.08996 0.193812 0.0745214 0.185071 -0.139243 -0.0725815 -0.138904 -0.122201 0.0637688 -0.0479619 0.137004 0.031657 -0.0352637 0.0734623 0.0172933 -0.148157 0.0325669 -0.121881 -0.153611 -0.0680133 0.155342 -0.134519 0.0893052 0.14924 0.0413358 -0.113555 -0.20732 -0.174767 0.0787105 0.179537 0.0688157 0.0631879 0.0121866 -0.13985 0.170129 0.0412955 0.0292774 0.176819 0.0361527 -0.0747481 0.146821 -0.164029
381 -0.118293 0.126775 0.117152 -0.0904049 0.0855958 -0.0787407 0.0366604 -0.0131248 -0.0527396 0.111879 0.0565969 0.123784 -0.0743488 -0.0335825 -0.0715066 -0.0629802 0.0355072 -0.00571783 0.0370596 0.00959527 0.017355 -0.0791051 0.00356412 0.0263669 -0.0225472 0.00459921 -0.0930288 -0.0833622 -0.0228128 -0.00358176 -0.0161591 -0.0108709 0.0168079 0.00129137 -0.105299 -0.0835894 0.0173691 0.0353686 -0.000506995 0.0121552 -0.013091 -0.0447719 0.117053 0.0429005 0.0285303 0.125474 0.0253755 -0.0699673 0.164365 -0.174315
3830 -1.12677 1.14344 0.778776 -0.557654 0.680283 -0.689197 0.139954 -0.0743634 -0.270803 0.77285 0.199182 0.747563 -0.356635 -0.15553 -0.233249 -0.197469 0.077688 -0.0736897 0.154136 0.103787 0.255316 -0.619838 -0.0103811 0.446096 -0.22544 0.191283 -0.266149 -0.265508 -0.209315 0.157159 -0.288575 -0.217851 0.00876196 0.0680645 -0.140739 -0.15907 -0.160489 -0.444281 -0.238977 -0.163633 -0.06279 0.197557 0.202708 0.158103 0.0762967 0.284327 0.237714 -0.33828 0.764314 -0.879502
51 -0.176359 0.176504 0.196138 -0.145373 0.167172 -0.162776 0.0854168 -0.0384956 -0.0967458 0.217658 0.0936809 0.220625 -0.157779 -0.0792928 -0.142163 -0.117544 0.0525709 -0.0432445 0.101637 0.0266293 0.00301206 -0.0548517 0.0212506 -0.0444243 0.00725957 -0.0434115 -0.194404 -0.124559 0.0386463 -0.0453856 0.016841 0.0535216 0.0265468 -0.0366707 -0.210204 -0.166156 0.0579499 0.102365 0.0223334 0.020889 -0.00626454 -0.0964368 0.186433 0.0642141 0.0404896 0.226042 0.056208 -0.113494 0.242269 -0.238807
3059 -0.0576444 0.0549609 0.0122185 -0.0239039 0.0905495 -0.0935193 0.0644381 -0.0314381 -0.0494668 0.103572 0.0239677 0.065344 -0.0673858 -0.0352843 -0.0791961 -0.0802895 0.0398064 -0.0237822 0.101877 0.0333606 -0.0500892 0.144413 0.010189 -0.195819 0.0527066 -0.111987 -0.0504831 -0.00976724 0.206249 -0.148821 0.115959 0.186688 0.0408845 -0.13289 -0.119903 -0.101611 0.0710739 0.182146 0.0715884 0.0641524 0.0342298 -0.119037 0.084017 0.0146932 0.0289274 0.0803874 0.00306637 -0.00133845 0.0209585 -0.0203764
2001 -0.123899 0.137172 0.132633 -0.0833909 0.12238 -0.10617 0.0517746 -0.0239176 -0.0680736 0.146368 0.0587232 0.141201 -0.105752 -0.0441886 -0.109636 -0.0910698 0.0484142 -0.0333079 0.0880807 0.0217927 0.00297823 -0.00594531 0.00340933 -0.0528851 0.0179756 -0.0527948 -0.11741 -0.0709733 0.0613769 -0.0737137 0.037573 0.0683146 0.0183996 -0.0595718 -0.161773 -0.141266 0.053635 0.103891 0.0293349 0.0259769 0.0174558 -0.0950645 0.144615 0.0538131 0.0384354 0.165718 0.0316191 -0.0839006 0.171418 -0.179455
3921 -0.180085 0.188863 0.149223 -0.119709 0.188564 -0.197626 0.108218 -0.0668561 -0.114993 0.233431 0.0904281 0.232755 -0.177021 -0.0938857 -0.159925 -0.155799 0.0642412 -0.0396322 0.15747 0.0391394 -0.0326499 0.0677261 0.028818 -0.182465 0.0458371 -0.129346 -0.161669 -0.078732 0.176092 -0.158932 0.116063 0.17959 0.0504395 -0.132269 -0.210936 -0.183159 0.0950212 0.214177 0.0592457 0.0656235 0.0210711 -0.147325 0.189543 0.0506867 0.0386748 0.209166 0.0387556 -0.0831454 0.173985 -0.180649
1889 -0.0818415 0.0811359 0.105139 -0.0784942 0.0672817 -0.0621821 0.0309217 -0.0100781 -0.0331369 0.105468 0.0385797 0.119273 -0.064 -0.0341243 -0.0465175 -0.0529974 0.0276053 -0.00649955 0.0378412 -0.00103724 0.023076 -0.0681707 0.00348462 0.0434498 -0.0106269 0.00673297 -0.0864471 -0.0793975 -0.048022 0.0290088 -0.0294113 -0.035824 0.00225493 0.0223162 -0.0711319 -0.0672751 0.0119748 0.00525184 -0.0163664 -0.0161006 -0.0157837 -0.0136488 0.0907043 0.0336904 0.00569009 0.0955003 0.021195 -0.0576531 0.128647 -0.121525
2431 -0.488277 0.517681 0.503519 -0.350835 0.379401 -0.367659 0.155594 -0.0849738 -0.209807 0.502906 0.204451 0.533611 -0.350741 -0.196519 -0.319749 -0.300189 0.141703 -0.0682787 0.252928 0.0547351 0.0550574 -0.196602 0.0384204 -0.021356 -0.0284216 -0.0827409 -0.420508 -0.285308 -0.00318789 -0.0484928 -0.0366464 0.00698662 0.0412925 -0.0324393 -0.387804 -0.329185 0.0865258 0.127035 0.0254329 0.0285088 -0.0243351 -0.175931 0.418191 0.169696 0.0941574 0.547675 0.130198 -0.322101 0.636419 -0.658741
2682 -0.404014 0.426849 0.448813 -0.332662 0.333925 -0.338352 0.158268 -0.0923004 -0.182709 0.45151 0.176806 0.488117 -0.313424 -0.17661 -0.314601 -0.279753 0.13922 -0.0647486 0.22461 0.0460207 0.0548737 -0.164033 0.0352081 -0.0391797 -0.0113078 -0.0978815 -0.403697 -0.255407 0.0391216 -0.0516146 -0.021689 0.0426375 0.0402497 -0.0674654 -0.423798 -0.361869 0.101947 0.180917 0.055994 0.0461732 -0.0152977 -0.207436 0.438162 0.153379 0.097974 0.537616 0.13238 -0.305847 0.605881 -0.630834
3255 -0.189313 0.203119 0.220642 -0.162952 0.170438 -0.172448 0.0693624 -0.0339019 -0.0862269 0.227514 0.0834113 0.239109 -0.151245 -0.0727718 -0.135837 -0.106261 0.0578911 -0.0344002 0.101223 0.0300438 0.0223754 -0.0988978 0.0043062 -0.00592124 -0.0213393 -0.0242656 -0.197229 -0.124194 -0.0104502 -0.00251525 -0.0244705 0.00787617 0.0114019 -0.0140811 -0.179551 -0.148525 0.0272448 0.0617148 0.011037 0.00392655 -0.00697032 -0.0754944 0.20137 0.0739307 0.0432468 0.228614 0.044793 -0.127983 0.264839 -0.260748
3611 -0.244742 0.234766 0.278327 -0.196914 0.209123 -0.213946 0.0925752 -0.0514829 -0.124999 0.292614 0.116874 0.297716 -0.207433 -0.0953633 -0.178964 -0.169148 0.0816982 -0.03599 0.138672 0.0365886 0.0238047 -0.107685 0.0172672 -0.0319603 -0.00670757 -0.0499876 -0.242284 -0.160473 0.0131075 -0.0352504 -0.00170124 0.0113109 0.0359007 -0.0325454 -0.261094 -0.217715 0.0649294 0.10696 0.0374992 0.041933 -0.011785 -0.114908 0.260395 0.0986679 0.0603043 0.319336 0.0749646 -0.178884 0.352765 -0.365438
3784 -0.176021 0.183513 0.185357 -0.131606 0.228546 -0.21821 0.123037 -0.0761391 -0.119842 0.262689 0.10423 0.259854 -0.178542 -0.0827821 -0.179604 -0.153112 0.0846055 -0.038847 0.173209 0.0407541 -0.0261497 0.0484177 0.0193908 -0.14279 0.0255813 -0.117565 -0.210219 -0.11213 0.144556 -0.136193 0.0898895 0.148101 0.0400007 -0.137492 -0.270944 -0.22272 0.0904026 0.218282 0.0615808 0.0743317 0.0252853 -0.162698 0.254569 0.0809548 0.0453753 0.244508 0.0466147 -0.103165 0.236719 -0.241404
3038 -0.0981127 0.0952277 0.0577996 -0.0606617 0.111744 -0.12509 0.0647541 -0.0355233 -0.0710591 0.138338 0.047804 0.12315 -0.109623 -0.0610908 -0.104315 -0.0882788 0.0509744 -0.0262203 0.0959557 0.0363299 -0.0463487 0.0835512 0.0200178 -0.14194 0.0293966 -0.102329 -0.100616 -0.0424265 0.159159 -0.134296 0.0866595 0.143555 0.0321858 -0.106108 -0.15772 -0.125127 0.0732354 0.163404 0.0509683 0.0672608 0.0227296 -0.108217 0.116068 0.0299402 0.0286274 0.123069 0.0280744 -0.0429963 0.0885173 -0.0823944
2787 -0.0585309 0.0734518 0.0159046 -0.0303448 0.0968559 -0.087652 0.0673336 -0.0483634 -0.0583252 0.0866141 0.0164839 0.0665381 -0.0824162 -0.0406348 -0.0826169 -0.0694532 0.0273257 -0.0279322 0.108366 0.022691 -0.062581 0.12988 0.00372301 -0.184985 0.0358307 -0.109395 -0.0518929 -0.00669911 0.19819 -0.145403 0.112845 0.179215 0.0264528 -0.127901 -0.125093 -0.098746 0.0694381 0.164073 0.0595902 0.0741884 0.021406 -0.106467 0.0788025 0.00280746 0.0248029 0.0688206 0.0112232 -0.00391696 0.0255172 -0.0207516
1309 -0.0827194 0.0779754 0.0447203 -0.0311116 0.110374 -0.116548 0.0730884 -0.0511855 -0.060655 0.12138 0.0368544 0.0945466 -0.0964655 -0.0394759 -0.0971199 -0.0777843 0.0434162 -0.0268699 0.106486 0.0331412 -0.0503671 0.122244 0.0181312 -0.176959 0.0477956 -0.11077 -0.0688263 -0.0139654 0.190883 -0.156536 0.115163 0.165162 0.0440526 -0.127829 -0.138133 -0.112801 0.0765628 0.176742 0.0719853 0.0664992 0.0313799 -0.115826 0.0824721 0.0121955 0.0161436 0.0806936 0.00960021 -0.0188986 0.0496807 -0.0447314
2868 -0.134982 0.149503 0.106439 -0.100638 0.144111 -0.142503 0.0775297 -0.0523641 -0.0745596 0.171997 0.0684864 0.178094 -0.130829 -0.0720675 -0.129404 -0.11175 0.0433458 -0.0262912 0.112844 0.0351727 -0.0297258 0.0326874 0.00755207 -0.114022 0.0158402 -0.0891338 -0.135143 -0.0615712 0.124618 -0.116309 0.0783964 0.115453 0.0392172 -0.107675 -0.178665 -0.153986 0.065615 0.154398 0.0499649 0.0546142 0.0266899 -0.116807 0.166872 0.0420659 0.0316124 0.181128 0.0391213 -0.0778417 0.160003 -0.170972
1424 -0.0563213 0.0578973 0.0344982 -0.0375125 0.0826379 -0.09118 0.0601011 -0.0275537 -0.0520072 0.0955874 0.0167566 0.0667476 -0.0711861 -0.0342968 -0.0864102 -0.0616696 0.0401065 -0.0313602 0.0779328 0.0297045 -0.0470748 0.0921915 0.0181733 -0.136911 0.045058 -0.10375 -0.0478049 -0.0125936 0.154235 -0.118841 0.0988943 0.121807 0.0343661 -0.0971844 -0.0944126 -0.0825728 0.0654537 0.134097 0.0502146 0.0559595 0.0273455 -0.0962242 0.0622212 0.00595065 0.0121197 0.0592724 0.0166313 -0.0135935 0.0375909 -0.0373826
3105 -0.0932325 0.0964298 0.0740683 -0.0742018 0.109784 -0.114193 0.0712348 -0.0447462 -0.0633636 0.13614 0.042645 0.115015 -0.0889456 -0.0356065 -0.089328 -0.0713077 0.0330773 -0.0176561 0.0728636 0.0312037 -0.0198993 0.0429229 0.0178594 -0.0963511 0.0192448 -0.0604613 -0.08391 -0.0472704 0.0838488 -0.0734553 0.0469072 0.0863029 0.0159914 -0.0731354 -0.117797 -0.0974636 0.0541544 0.109673 0.0444249 0.0289778 0.0141632 -0.0819748 0.102559 0.0380442 0.0236515 0.105404 0.0218079 -0.0515865 0.0875074 -0.0968023
3331 -0.138038 0.125943 0.0961099 -0.0929539 0.160608 -0.17033 0.101352 -0.0617721 -0.0973293 0.187955 0.0575236 0.177324 -0.140084 -0.0607605 -0.130408 -0.128149 0.0486589 -0.0454581 0.132652 0.034181 -0.0433904 0.0920459 0.0264794 -0.172614 0.0460603 -0.132135 -0.14122 -0.0647174 0.202976 -0.161185 0.12747 0.184213 0.049964 -0.153938 -0.206201 -0.187448 0.084598 0.198879 0.0822665 0.0770954 0.0192223 -0.151862 0.167359 0.0442385 0.0395975 0.150471 0.0235399 -0.0614153 0.129745 -0.136603
2924 -0.142892 0.148604 0.118702 -0.100835 0.152412 -0.15589 0.0927654 -0.0522777 -0.0840271 0.171373 0.0720585 0.169164 -0.13294 -0.0568784 -0.128408 -0.111213 0.0500739 -0.0424441 0.117127 0.0334667 -0.0154667 0.0529351 0.0197794 -0.125577 0.0279725 -0.09284 -0.127293 -0.0577779 0.138082 -0.118612 0.0829729 0.134943 0.0329675 -0.112374 -0.190473 -0.158228 0.0777152 0.154635 0.0623936 0.0485121 0.00927489 -0.128218 0.148399 0.0427935 0.0245976 0.161183 0.0371608 -0.0753495 0.152148 -0.172226
1478 -0.0690706 0.0694262 0.0793142 -0.0542963 0.0590413 -0.0650974 0.0343557 -0.0120469 -0.03391 0.0869276 0.0297584 0.0948711 -0.0618032 -0.0347769 -0.0682799 -0.0579315 0.0344885 -0.00771745 0.0443981 0.0144337 -0.0081985 -0.00521737 -0.00102104 -0.0336727 0.00801351 -0.032672 -0.0783738 -0.0444431 0.0293817 -0.0173543 0.013813 0.0339911 0.00549898 -0.0298025 -0.0831961 -0.0838538 0.0188752 0.050838 0.0164157 0.00877751 0.00978469 -0.0549691 0.0830273 0.0307911 0.0127513 0.0898617 0.0217623 -0.0486723 0.0972134 -0.103023
3699 -0.322969 0.345875 0.377956 -0.281079 0.290247 -0.272599 0.136557 -0.080705 -0.162778 0.359565 0.154845 0.39837 -0.255887 -0.151303 -0.256212 -0.247717 0.119656 -0.0525245 0.187929 0.0444052 0.041126 -0.159961 0.0174055 -0.030576 -0.00264084 -0.0628386 -0.368701 -0.239182 0.0365415 -0.050148 -0.00489838 0.0372071 0.0600047 -0.0603171 -0.38509 -0.310697 0.0961994 0.204761 0.0429748 0.0646066 -0.00640642 -0.194527 0.386226 0.139824 0.0914527 0.46444 0.105581 -0.259749 0.530473 -0.547651
3987 -0.198467 0.209314 0.208599 -0.161541 0.177879 -0.197021 0.102319 -0.052345 -0.110361 0.22666 0.103421 0.241559 -0.166926 -0.0956021 -0.166454 -0.151963 0.0605163 -0.0349927 0.145341 0.0354248 -0.00424051 -0.0273037 0.0234209 -0.0777523 0.0138192 -0.0727444 -0.204919 -0.115394 0.0920169 -0.0901881 0.047326 0.096895 0.0278773 -0.0748901 -0.251168 -0.198039 0.0779026 0.173405 0.050899 0.0537294 0.0179424 -0.136111 0.227356 0.0680852 0.0609358 0.275697 0.0696184 -0.132172 0.27219 -0.293451
933 -0.0807593 0.080405 0.0876313 -0.0753154 0.0714379 -0.0697594 0.0332827 -0.0202545 -0.0471709 0.0955609 0.0425215 0.114828 -0.0638544 -0.0234866 -0.0488793 -0.053071 0.0222022 -0.013627 0.0274866 0.00125648 0.0133603 -0.0588163 0.00744931 0.0140423 -0.00145036 -0.00727056 -0.0862293 -0.0636249 -0.029706 0.0185822 -0.0304159 -0.0175971 0.00120239 0.00510728 -0.083805 -0.072938 0.0106739 0.0162721 -0.0125169 -0.00871186 -0.00876354 -0.0355103 0.0929166 0.0390399 0.015548 0.0956117 0.0201998 -0.0712574 0.11557 -0.121557
2255 -0.505631 0.518587 0.522534 -0.378406 0.42307 -0.432111 0.195473 -0.111037 -0.241654 0.550491 0.211406 0.583781 -0.376753 -0.195303 -0.354503 -0.313511 0.154408 -0.0940808 0.281639 0.0654906 0.0529234 -0.161593 0.0412876 -0.0621587 -0.012109 -0.111559 -0.449705 -0.297621 0.0458817 -0.0880941 0.00746974 0.0786322 0.07102 -0.0904568 -0.462542 -0.385166 0.108449 0.204083 0.054862 0.0518598 0.00647747 -0.231718 0.474402 0.170147 0.0975879 0.57457 0.136112 -0.318041 0.642281 -0.671086
2280 -0.11432 0.132322 0.149477 -0.11304 0.0975228 -0.0883776 0.0376199 -0.0243001 -0.0585243 0.124981 0.0631247 0.163734 -0.102753 -0.0543501 -0.075672 -0.0815951 0.0279911 -0.0215529 0.0447701 0.00160109 0.0498832 -0.110377 0.00507617 0.0530762 -0.0207959 0.00886894 -0.131716 -0.1119 -0.0675352 0.0274089 -0.0449289 -0.058211 0.00784416 0.0337739 -0.119872 -0.0896413 0.00682552 0.00239305 -0.00948015 -0.0126869 -0.0177709 -0.0391533 0.141193 0.0598019 0.0342679 0.191089 0.0365675 -0.108194 0.227839 -0.237371
21 -0.101051 0.11013 0.127491 -0.0840379 0.0969309 -0.0924293 0.0354593 -0.0109083 -0.0564525 0.132658 0.0581313 0.133631 -0.0777577 -0.045652 -0.0741056 -0.0684936 0.038498 -0.0149955 0.0447424 0.00820377 0.0238227 -0.0687472 0.0112411 0.022512 -0.00639692 -0.00473651 -0.120818 -0.0872744 -0.037381 0.00702365 -0.0369882 -0.0232559 0.00695373 0.0121065 -0.115559 -0.0888392 0.0215508 0.0184048 -0.0127573 -0.00637366 -0.0115113 -0.0422678 0.122133 0.0383545 0.0288551 0.138399 0.0282832 -0.071238 0.147384 -0.159093
3275 -0.298384 0.29334 0.321087 -0.235607 0.219158 -0.206299 0.0910633 -0.0532604 -0.143867 0.315611 0.130261 0.343598 -0.21782 -0.0962444 -0.219529 -0.198849 0.0914808 -0.0563944 0.128752 0.0259131 0.0358225 -0.141573 0.0268899 -0.0219781 -0.0220036 -0.0597078 -0.303478 -0.19943 -0.00284103 -0.0317085 -0.015694 -0.00686797 0.0286096 -0.0400877 -0.298035 -0.241468 0.0851858 0.141634 0.0379404 0.0287986 0.00491814 -0.143076 0.33637 0.101057 0.0650499 0.404058 0.100449 -0.237346 0.492898 -0.506988
3561 -0.262391 0.26618 0.264511 -0.193996 0.21344 -0.217462 0.10644 -0.0491476 -0.115622 0.277593 0.119863 0.287637 -0.200777 -0.0942097 -0.186073 -0.159751 0.0713045 -0.0367423 0.151609 0.0354135 0.0303344 -0.0838918 0.0181581 -0.0423619 -0.00575086 -0.0438979 -0.244974 -0.159791 0.0305424 -0.03445 0.0132904 0.0221535 0.0392868 -0.0430301 -0.265021 -0.222607 0.0726676 0.124584 0.0261 0.0376118 -0.00929049 -0.138853 0.276481 0.0890866 0.0498781 0.315088 0.0732225 -0.177254 0.374923 -0.385668
1320 -0.121634 0.11677 0.107232 -0.0823702 0.121487 -0.119521 0.0689748 -0.0271534 -0.0567052 0.144563 0.0575857 0.149264 -0.102908 -0.0511669 -0.0973889 -0.0849365 0.0356112 -0.0300187 0.0783114 0.0263638 -0.00793238 0.00591155 0.0138715 -0.0653635 0.0123211 -0.0472694 -0.100305 -0.0560076 0.0611929 -0.0632656 0.0383231 0.0570011 0.0237842 -0.055204 -0.123545 -0.103319 0.0564211 0.100761 0.0237293 0.0270797 6.79985e-05 -0.0674718 0.116962 0.0439852 0.0307276 0.144427 0.0199391 -0.0631375 0.138938 -0.152748
1683 -0.151454 0.150115 0.170849 -0.135947 0.143484 -0.14891 0.0701843 -0.0357948 -0.0796185 0.176379 0.0725666 0.201948 -0.130032 -0.067287 -0.110376 -0.0964395 0.0453656 -0.0186626 0.0807032 0.0117311 0.0341433 -0.0799257 0.00830142 0.0236952 -0.0097073 -0.0209133 -0.153691 -0.106463 -0.0149037 -0.00744214 -0.00903965 0.00337899 0.0131166 -0.0177231 -0.148979 -0.132498 0.0310411 0.0604017 0.00735811 0.0148061 -0.00403678 -0.0637025 0.153943 0.0548351 0.0339866 0.192292 0.0425514 -0.11138 0.203817 -0.228662
3001 -0.178857 0.195541 0.194177 -0.130569 0.186275 -0.182363 0.0871769 -0.0509314 -0.104456 0.233661 0.0972613 0.228405 -0.16177 -0.0863349 -0.145463 -0.144446 0.0668739 -0.0384919 0.122569 0.020851 0.0136414 -0.0354288 0.0237477 -0.059481 0.00124141 -0.0743402 -0.196908 -0.112669 0.0627916 -0.0718418 0.032914 0.0748552 0.0312031 -0.0749104 -0.217822 -0.176209 0.0742236 0.136673 0.0253051 0.0399179 0.0152425 -0.105346 0.200043 0.0630211 0.0469864 0.240304 0.0587412 -0.10979 0.235232 -0.242482
1592 -0.0951612 0.093912 0.0980603 -0.0879031 0.0897223 -0.09358 0.0412715 -0.0186253 -0.0442421 0.122219 0.041503 0.122415 -0.0701679 -0.0490618 -0.0599268 -0.0537807 0.0309454 -0.0191607 0.0491663 0.008843 0.0231442 -0.0580228 0.0149742 0.014174 -0.0137951 -0.0186291 -0.106999 -0.0763528 -0.0255776 -0.00447114 -0.0106949 0.00414213 0.0113608 -0.00171625 -0.099759 -0.0767408 0.0272058 0.0251799 0.00466364 0.00295279 -0.00850297 -0.0281137 0.0927057 0.0268744 0.0136659 0.118505 0.026498 -0.0742699 0.128446 -0.141561
1678 -0.139564 0.145277 0.160333 -0.107499 0.113555 -0.129024 0.0436688 -0.0209098 -0.0688804 0.152606 0.0644105 0.174268 -0.100914 -0.0562236 -0.104987 -0.0935341 0.0345444 -0.0206626 0.0771652 0.00555143 0.029676 -0.0800068 -0.000731745 0.0135933 -0.0112171 -0.0130554 -0.144374 -0.10165 -0.0249094 0.00760653 -0.0118028 -0.018077 0.0119404 -0.0106425 -0.15681 -0.1274 0.0401387 0.0530409 0.0199804 0.0113106 0.00454981 -0.0642616 0.162815 0.0509984 0.0205711 0.178628 0.0341092 -0.107206 0.200676 -0.224759
2631 -0.218816 0.21946 0.202453 -0.155642 0.242991 -0.251945 0.132304 -0.086763 -0.143385 0.309148 0.113112 0.307071 -0.216175 -0.118583 -0.194025 -0.18371 0.0946584 -0.0577111 0.190883 0.0474932 -0.0376012 0.0457712 0.0317128 -0.16647 0.0346332 -0.144826 -0.228897 -0.133257 0.146387 -0.130614 0.0897577 0.159228 0.0555883 -0.124057 -0.274313 -0.24209 0.104165 0.22629 0.0577788 0.0500441 0.0193743 -0.160691 0.248124 0.0826437 0.0474747 0.277273 0.0494034 -0.125564 0.258856 -0.266672
2079 -0.0553666 0.0575931 0.000168939 -0.020514 0.0937647 -0.0929574 0.0670084 -0.0333261 -0.0559333 0.101462 0.0218428 0.0644207 -0.0669137 -0.0272602 -0.0776065 -0.0577034 0.032705 -0.0222585 0.0870179 0.0261696 -0.0636405 0.129241 0.018321 -0.165569 0.0453577 -0.105598 -0.045208 0.000867246 0.181509 -0.142806 0.118101 0.162585 0.0231427 -0.135892 -0.106759 -0.100176 0.0572589 0.157362 0.0538497 0.054882 0.0278415 -0.106504 0.0582695 0.00243312 0.00608292 0.0495332 0.00816999 -0.00608051 0.00918261 -0.0188159
2996 -0.11552 0.11052 0.0685121 -0.0730478 0.130499 -0.127147 0.0816255 -0.0515248 -0.0607472 0.147827 0.05304 0.138229 -0.0983573 -0.0592229 -0.100629 -0.0941357 0.0448403 -0.0383419 0.110384 0.0330616 -0.0362199 0.0866129 0.0191618 -0.161205 0.0430294 -0.120584 -0.102577 -0.0454208 0.17382 -0.135686 0.0963656 0.163911 0.0401211 -0.132854 -0.146973 -0.135523 0.0668014 0.159675 0.0733917 0.0706447 0.0210451 -0.112146 0.122128 0.0348965 0.0361089 0.131041 0.0142936 -0.0528655 0.104686 -0.109945
3103 -0.0803775 0.0785714 0.0469008 -0.0575235 0.0994848 -0.117467 0.0702362 -0.0410119 -0.0634204 0.112233 0.0355167 0.114804 -0.0909938 -0.034379 -0.0762314 -0.0781041 0.027182 -0.0265316 0.101219 0.0256168 -0.03366 0.0819176 0.00539569 -0.132497 0.0325995 -0.0954717 -0.0886153 -0.028719 0.136186 -0.106676 0.0890254 0.126974 0.0241499 -0.101428 -0.142794 -0.11384 0.0559038 0.143935 0.0585189 0.0525349 0.0125495 -0.0898549 0.101824 0.0288759 0.020021 0.0852084 0.015514 -0.0254612 0.0556431 -0.0758257
1664 -0.144031 0.133236 0.156742 -0.127256 0.132702 -0.137252 0.0539999 -0.0259602 -0.0801415 0.166112 0.0693262 0.172524 -0.10272 -0.0485157 -0.109897 -0.0821134 0.0446369 -0.0145376 0.0666143 0.0164948 0.0268953 -0.0601454 0.018425 0.00749478 -0.0173941 -0.012625 -0.144543 -0.0916507 -0.00326681 -0.0247659 -0.00914658 0.0139925 0.026738 -0.0268288 -0.1451 -0.136082 0.0336564 0.0530597 0.0137045 0.0122549 0.00599614 -0.063276 0.146903 0.0598041 0.0364303 0.166646 0.0354355 -0.0964595 0.19007 -0.193062
2733 -0.197972 0.208284 0.231895 -0.171615 0.198185 -0.205664 0.105505 -0.0593508 -0.101843 0.256806 0.0899329 0.26373 -0.189912 -0.0944246 -0.171307 -0.164381 0.0595681 -0.039912 0.118068 0.0359729 0.0231921 -0.0612143 0.0250219 -0.0493544 -0.00574734 -0.0474411 -0.234042 -0.145132 0.0510035 -0.056654 0.031854 0.0570142 0.0268235 -0.0538645 -0.248907 -0.201698 0.0595575 0.124292 0.0258194 0.0388269 0.00592927 -0.12225 0.239339 0.0792926 0.050303 0.264928 0.0641162 -0.137926 0.288552 -0.302092
3138 -0.136987 0.137122 0.135092 -0.104939 0.13791 -0.144274 0.0663003 -0.0430736 -0.0713812 0.177034 0.0608338 0.184299 -0.120078 -0.0559441 -0.118341 -0.108148 0.0399697 -0.0375266 0.0974075 0.0323942 -0.00970522 -0.00665314 0.0165001 -0.0563315 -0.00084588 -0.0618334 -0.151633 -0.0902776 0.0623207 -0.0724031 0.0320499 0.0708314 0.0254034 -0.0548146 -0.152257 -0.12713 0.0525498 0.107144 0.0203362 0.0271637 0.00887249 -0.0791158 0.146823 0.0380572 0.0250304 0.178191 0.0389235 -0.0882773 0.171127 -0.176438
690 -0.0794719 0.0992003 0.0922284 -0.0686839 0.0727688 -0.0841304 0.0319398 -0.0217483 -0.0392351 0.103015 0.03186 0.113484 -0.0767775 -0.0407179 -0.0864647 -0.0667936 0.0251845 -0.0240839 0.0509818 0.00862638 0.00830832 -0.024663 0.0131685 -0.0328313 0.00783043 -0.0211486 -0.0869507 -0.0651265 0.0271247 -0.0347004 0.000414569 0.0313854 0.00634887 -0.019522 -0.106412 -0.0862106 0.0291061 0.0596138 0.00948058 0.0180951 -0.00447751 -0.0614458 0.106758 0.0397098 0.0278291 0.13262 0.0373875 -0.0694769 0.124906 -0.147442
2052 -0.262794 0.260592 0.29833 -0.228675 0.238115 -0.243496 0.117351 -0.0690901 -0.140836 0.314355 0.127662 0.32844 -0.216578 -0.111436 -0.212682 -0.19454 0.0823564 -0.0565917 0.156722 0.0416947 0.0271943 -0.100509 0.0217916 -0.0296079 -0.00982155 -0.0533568 -0.28572 -0.194825 0.0325407 -0.0618324 0.00879928 0.0475638 0.0395935 -0.0600431 -0.313239 -0.263799 0.0664417 0.136773 0.0318189 0.0490353 0.00732964 -0.133976 0.296259 0.0997407 0.0524966 0.335264 0.0857632 -0.188013 0.371572 -0.393619
2288 -0.114958 0.117052 0.115007 -0.0788084 0.129069 -0.117241 0.072021 -0.0468881 -0.058956 0.137934 0.0517205 0.142117 -0.117483 -0.0571007 -0.118786 -0.10503 0.0367647 -0.0251913 0.100842 0.014028 -0.0112997 0.00993779 0.00373525 -0.0894613 0.0216969 -0.0603712 -0.117714 -0.0752344 0.0865763 -0.083567 0.0558523 0.088335 0.0340601 -0.0707102 -0.158684 -0.132797 0.0473004 0.106995 0.0491865 0.0432219 0.017709 -0.0839827 0.128117 0.0449505 0.0265304 0.147509 0.0262749 -0.078987 0.143592 -0.157716
395 -0.0978347 0.100219 0.12177 -0.0831574 0.0858156 -0.0735581 0.0422763 -0.0086271 -0.0376971 0.106173 0.0572246 0.129701 -0.0789429 -0.0464947 -0.0753363 -0.0576193 0.0399362 -0.0249936 0.0453351 0.0206144 0.0276443 -0.083411 0.00363302 0.0249443 -0.0161397 -0.00360129 -0.114535 -0.0854385 -0.0365165 0.0106648 -0.0395134 -0.0277157 -0.000978971 0.0230894 -0.09588 -0.0753873 0.0221215 0.0166793 -0.0036011 -0.00837142 -0.00417206 -0.034234 0.126483 0.0420173 0.0263237 0.132463 0.0290553 -0.0861053 0.175352 -0.181482
1001 -0.306631 0.324135 0.351449 -0.250619 0.28913 -0.296188 0.145566 -0.0813276 -0.157803 0.375202 0.158605 0.396178 -0.264002 -0.140044 -0.249138 -0.219831 0.10568 -0.0529806 0.196255 0.0509289 0.0186654 -0.108775 0.0190946 -0.0599605 -0.0118628 -0.081146 -0.329873 -0.21018 0.0667203 -0.0776672 0.0117753 0.0656947 0.0480772 -0.0785396 -0.373095 -0.309483 0.0986506 0.192764 0.0496523 0.0650177 -0.00419457 -0.180273 0.361837 0.132432 0.0836907 0.422041 0.0927872 -0.216905 0.463622 -0.493158
1091 -0.0738843 0.0809481 0.0402101 -0.0391547 0.102012 -0.107377 0.065818 -0.0421835 -0.0583968 0.104416 0.0252486 0.103777 -0.0789671 -0.0512979 -0.091108 -0.0789015 0.0330812 -0.0218925 0.0979428 0.0222299 -0.0552328 0.105497 0.0128528 -0.162802 0.0390821 -0.103643 -0.0683693 -0.0197426 0.173046 -0.134054 0.0993751 0.151129 0.0250495 -0.112712 -0.123389 -0.117944 0.0626816 0.156257 0.0642833 0.0572462 0.0277972 -0.101935 0.0905189 0.0145314 0.0179386 0.0973014 0.00506767 -0.0338955 0.0610991 -0.0496182
512 -0.10746 0.100484 0.10627 -0.0847503 0.102427 -0.108095 0.0472687 -0.0218808 -0.0475229 0.129379 0.0504264 0.120714 -0.0901423 -0.0377269 -0.0848783 -0.0759853 0.0399291 -0.0188638 0.0570915 0.0247761 0.000166807 -0.0286196 0.0171042 -0.0235917 -0.00210772 -0.026782 -0.114678 -0.0654415 0.0199319 -0.0214962 0.00872915 0.0306956 0.0254075 -0.0374437 -0.119417 -0.109541 0.0403223 0.0640615 0.0146972 0.0141626 -0.00597768 -0.0605318 0.11619 0.0501694 0.0235074 0.128592 0.0325435 -0.0739602 0.141952 -0.162094
1028 -0.286648 0.296714 0.309465 -0.22292 0.251863 -0.243848 0.119003 -0.0623694 -0.138819 0.335413 0.141868 0.337131 -0.23274 -0.115873 -0.208481 -0.201512 0.0831733 -0.0555276 0.17175 0.0335743 0.0175017 -0.101904 0.0237064 -0.0565298 -0.00402955 -0.0667222 -0.308264 -0.199683 0.0568901 -0.0590013 0.0163426 0.0591712 0.0434087 -0.0703987 -0.336188 -0.278491 0.0869692 0.167702 0.0535628 0.053029 0.00356342 -0.162747 0.327445 0.110331 0.0659946 0.386453 0.0771332 -0.19851 0.422847 -0.443585
3394 -0.0583837 0.0565001 0.00456868 -0.0162471 0.0843285 -0.08621 0.0554677 -0.0365401 -0.0384431 0.098299 0.0276979 0.0587224 -0.070164 -0.0275033 -0.0861026 -0.0692848 0.0377397 -0.0191704 0.0906553 0.0285103 -0.0541431 0.142105 0.00493676 -0.187889 0.0474982 -0.127956 -0.0433249 0.0042854 0.203301 -0.164887 0.133208 0.173797 0.035735 -0.142456 -0.106218 -0.105134 0.0791524 0.17638 0.0637629 0.0591164 0.0234566 -0.109125 0.0680147 0.0147802 0.00980074 0.0640646 0.0133172 0.00351188 0.0209295 -0.0172695
1937 -0.0932784 0.105869 0.108468 -0.0789428 0.0897577 -0.0967376 0.0414328 -0.0312884 -0.0502596 0.125512 0.0582733 0.138321 -0.0805495 -0.0530978 -0.0779565 -0.0779045 0.0411799 -0.0171875 0.0741873 0.0166275 0.00230405 -0.0392305 0.00800659 -0.0215194 0.00287978 -0.0351833 -0.113277 -0.0726125 0.0154058 -0.0171994 0.0145438 0.0261549 0.0210958 -0.0316881 -0.124567 -0.0942041 0.0341984 0.0670794 0.0131238 0.0121087 -0.00673107 -0.0642188 0.114267 0.0362563 0.0145985 0.131615 0.0273944 -0.0679523 0.146259 -0.164731
3260 -0.11839 0.121597 0.0921601 -0.0676539 0.14943 -0.157947 0.100494 -0.0669835 -0.0922204 0.189739 0.0518528 0.165983 -0.136803 -0.0573278 -0.109268 -0.112365 0.048187 -0.0431377 0.131163 0.0308946 -0.0427443 0.109513 0.0192774 -0.185386 0.0487042 -0.130775 -0.119777 -0.0598397 0.178054 -0.145335 0.110571 0.172165 0.0450247 -0.13819 -0.180641 -0.154113 0.0839511 0.18658 0.0694411 0.0617008 0.0349874 -0.139883 0.141053 0.0361602 0.0167754 0.133752 0.0328435 -0.0366427 0.0986751 -0.10082
1407 -0.0754712 0.0726634 0.0296302 -0.0455346 0.116593 -0.109312 0.0777591 -0.0424857 -0.0582385 0.122208 0.0346813 0.102543 -0.0917431 -0.0546225 -0.106943 -0.09173 0.0462458 -0.0267726 0.106808 0.0287566 -0.0579865 0.122169 0.0206154 -0.17888 0.0434537 -0.131029 -0.0676747 -0.0240575 0.192336 -0.145379 0.108995 0.179835 0.0322902 -0.139077 -0.130689 -0.123011 0.0830032 0.184816 0.066961 0.0648902 0.0193496 -0.120926 0.102504 0.0282547 0.0144145 0.0929318 0.00686728 -0.0238044 0.0544012 -0.0705742
570 -0.0431172 0.05432 0.00882269 -0.0182285 0.0835814 -0.0850898 0.0661738 -0.0365654 -0.0440569 0.0892593 0.0299271 0.0574743 -0.0617723 -0.0347719 -0.0714498 -0.0766639 0.0223948 -0.0169583 0.0820845 0.027877 -0.0505683 0.126158 0.0208435 -0.171214 0.034018 -0.110756 -0.0396902 -0.0008602 0.180997 -0.143007 0.107794 0.172981 0.0403393 -0.13482 -0.11642 -0.0947054 0.0700232 0.15233 0.0701088 0.0552281 0.0267606 -0.104361 0.0630466 0.00584898 0.0173196 0.0439776 -0.000997533 -0.00784458 0.00680941 -0.0105241
3252 -0.189932 0.17951 0.151392 -0.116316 0.194212 -0.20194 0.120467 -0.0742272 -0.107231 0.252263 0.0823463 0.246493 -0.158865 -0.0828841 -0.144897 -0.126741 0.059649 -0.04554 0.149206 0.0433502 -0.0184589 0.0545878 0.0144238 -0.137538 0.0357112 -0.120737 -0.174206 -0.105952 0.117724 -0.121913 0.0819155 0.144461 0.034314 -0.121265 -0.212755 -0.189881 0.0917487 0.178601 0.0521052 0.0440717 0.00900885 -0.130523 0.195316 0.0577534 0.0370665 0.201879 0.0313607 -0.0863464 0.190765 -0.183926
1403 -0.125959 0.127213 0.156308 -0.111091 0.117099 -0.123664 0.0587524 -0.0237889 -0.0763231 0.163102 0.0722033 0.175843 -0.111349 -0.0578909 -0.0936457 -0.0897275 0.0322621 -0.0305289 0.0794425 0.0140952 0.0200032 -0.0676431 0.0188238 0.000892366 -0.00330173 -0.00936829 -0.132336 -0.0909426 -0.0137535 0.00516607 -0.0224096 0.00176207 0.011213 -0.0139303 -0.141736 -0.106418 0.035506 0.0545188 0.00554226 0.00597448 -0.000536164 -0.0560079 0.145383 0.0550107 0.0351176 0.167869 0.0383698 -0.0961118 0.187408 -0.207765
1608 -0.1363 0.124323 0.140105 -0.0959373 0.119697 -0.113808 0.0558058 -0.0339595 -0.0681354 0.148819 0.0504922 0.15869 -0.11463 -0.0504484 -0.100702 -0.0896715 0.0431172 -0.0247647 0.0735471 0.0184643 0.00773086 -0.0432234 0.00905522 -0.0239065 -0.00547472 -0.0370786 -0.145236 -0.0774055 0.0381188 -0.0426479 0.0223507 0.0335873 0.0220077 -0.0394943 -0.164713 -0.141797 0.0372052 0.08763 0.0227398 0.0321954 0.000990325 -0.0754546 0.139225 0.0418344 0.0360497 0.174255 0.0354744 -0.089413 0.1785 -0.191434
3700 -0.136283 0.147385 0.09102 -0.0746189 0.152233 -0.164443 0.0976202 -0.0494252 -0.0835835 0.193417 0.0681621 0.172842 -0.139427 -0.0654447 -0.130986 -0.121076 0.0544082 -0.029212 0.139754 0.0284277 -0.0367234 0.10331 0.0169172 -0.177041 0.0446078 -0.121821 -0.120789 -0.0562964 0.162704 -0.150011 0.108342 0.170877 0.0347034 -0.130963 -0.162843 -0.150382 0.082611 0.183532 0.0464736 0.0628853 0.0138942 -0.123713 0.145165 0.0378433 0.0258858 0.138814 0.0308776 -0.0490164 0.110108 -0.100868
3972 -0.0961161 0.0845637 0.0655027 -0.0423366 0.100497 -0.112032 0.0770295 -0.0429521 -0.0588569 0.117315 0.0427112 0.109863 -0.0932446 -0.0495649 -0.0891171 -0.0745055 0.0361166 -0.0298558 0.0989214 0.0261054 -0.027061 0.0912671 0.0213126 -0.125336 0.0233438 -0.0888508 -0.0803748 -0.0428655 0.149545 -0.122949 0.0937021 0.143975 0.0287951 -0.102583 -0.133227 -0.112903 0.0563267 0.130784 0.0557872 0.0403301 0.0215779 -0.0954676 0.10412 0.013438 0.0242147 0.0979058 0.00884151 -0.0285629 0.0706962 -0.0669343
680 -0.10227 0.120694 0.11892 -0.0932668 0.108264 -0.119033 0.058649 -0.0233675 -0.060599 0.144887 0.048951 0.153871 -0.0882695 -0.0505555 -0.0786619 -0.0648432 0.0421524 -0.0204584 0.0741826 0.0122462 0.0198536 -0.0451017 0.00105294 -0.0054458 0.00192868 -0.0294621 -0.113739 -0.0832161 0.0120801 -0.024582 0.009545 0.0153521 0.0235159 -0.0245082 -0.112219 -0.106108 0.0330117 0.0644608 0.00605202 0.0146657 -0.0108498 -0.051587 0.122994 0.0512272 0.01583 0.134378 0.0378002 -0.0645518 0.1476 -0.161452
3586 -0.32562 0.327725 0.346923 -0.256158 0.306537 -0.300941 0.137287 -0.0744856 -0.177684 0.372405 0.160878 0.391765 -0.27539 -0.127098 -0.271169 -0.241265 0.10196 -0.0658473 0.194911 0.0520346 0.0144061 -0.104496 0.0299148 -0.0686667 0.000117884 -0.101158 -0.334421 -0.221297 0.0607126 -0.0831944 0.0163391 0.0690668 0.0461393 -0.08356 -0.365385 -0.322636 0.104736 0.21337 0.0496164 0.0533554 -0.00552697 -0.195171 0.367689 0.132681 0.0725158 0.431645 0.0918752 -0.222365 0.470081 -0.479296
3773 -0.22142 0.23175 0.219673 -0.154512 0.223256 -0.244918 0.111018 -0.0647973 -0.126729 0.29204 0.119589 0.28795 -0.193683 -0.104622 -0.187244 -0.154892 0.0716702 -0.037696 0.1698 0.0409408 -0.00942166 -0.0116388 0.0200374 -0.100819 0.0213207 -0.0997716 -0.227924 -0.131628 0.102311 -0.110718 0.0709648 0.111366 0.0500556 -0.098945 -0.279798 -0.227027 0.0861883 0.195173 0.05845 0.0513699 0.0189942 -0.147732 0.26376 0.0778272 0.0521481 0.271967 0.0524969 -0.149934 0.296085 -0.302066
1284 -0.100149 0.106523 0.12581 -0.100887 0.0852718 -0.089942 0.0323876 -0.0283078 -0.0522272 0.11366 0.0523719 0.125841 -0.0917272 -0.0392783 -0.0716772 -0.0747416 0.0321311 -0.0230572 0.0378991 0.013768 0.021628 -0.0840585 0.00837705 0.0314849 -0.00972703 -0.0080302 -0.114209 -0.0806827 -0.0341878 0.00733499 -0.0206742 -0.0143848 0.00687247 0.0169589 -0.102446 -0.0746279 0.0198105 0.0192844 0.00570867 -0.00868691 -0.00422281 -0.0341225 0.112443 0.0466571 0.0253609 0.133741 0.031138 -0.0764591 0.148255 -0.155911
2067 -0.277396 0.292789 0.328457 -0.239152 0.243893 -0.22991 0.0989247 -0.0547871 -0.127346 0.324481 0.129814 0.332709 -0.215854 -0.103502 -0.188728 -0.179389 0.0833603 -0.040485 0.130007 0.0281269 0.0578879 -0.151799 0.0240673 0.0141164 -0.0308689 -0.023485 -0.291812 -0.207272 -0.0368082 -0.00580178 -0.0354298 -0.00557425 0.0361942 -0.00970011 -0.283236 -0.220806 0.0442933 0.0873322 0.00496185 0.0108302 -0.00929479 -0.106302 0.302322 0.115491 0.0710168 0.373038 0.0888811 -0.206561 0.405613 -0.43295
2409 -0.301451 0.310231 0.347446 -0.242932 0.257748 -0.254824 0.120084 -0.0649655 -0.151035 0.339407 0.131737 0.364376 -0.242211 -0.123821 -0.208004 -0.192156 0.0969188 -0.0461192 0.16139 0.0314615 0.0601695 -0.17289 0.0232211 0.0164368 -0.027305 -0.0229971 -0.294194 -0.206664 -0.0311086 -0.0138215 -0.03891 -0.00519696 0.0384875 -0.0140755 -0.298345 -0.245395 0.0579379 0.073764 0.00379069 0.00693893 -0.0105177 -0.109273 0.311421 0.117444 0.0524496 0.381031 0.098148 -0.218239 0.451125 -0.465522
3919 -0.0550542 0.057681 0.00944155 -0.0232043 0.102421 -0.102221 0.0726167 -0.0461353 -0.0468477 0.100222 0.0224005 0.0750596 -0.0726112 -0.042072 -0.0772142 -0.0760025 0.0400793 -0.0274238 0.105656 0.0247931 -0.0471303 0.127344 0.0100153 -0.183376 0.0487129 -0.107024 -0.0565002 0.00816984 0.189835 -0.147618 0.128358 0.175929 0.0396231 -0.133416 -0.112135 -0.116095 0.0657223 0.175608 0.077274 0.06015 0.0336965 -0.112922 0.085999 0.00682389 0.0131689 0.0695922 0.0126585 -0.0144145 0.0217607 -0.0287649
704 -0.057941 0.0542899 0.0132545 -0.0195374 0.0968484 -0.100203 0.0582486 -0.0468314 -0.0507271 0.0925332 0.0271194 0.0754581 -0.0624599 -0.0410634 -0.0855853 -0.0723236 0.030794 -0.0235697 0.105874 0.0354946 -0.0563486 0.143741 0.0211182 -0.182576 0.0533742 -0.116441 -0.0551235 0.000895678 0.191066 -0.160484 0.120711 0.174707 0.0305732 -0.145464 -0.119616 -0.0929751 0.0778028 0.184059 0.0770723 0.0676411 0.0284881 -0.108922 0.0772449 0.0128693 0.0191071 0.0731074 -0.00214454 -0.00025735 0.0113503 -0.0194257
2972 -0.130573 0.136527 0.0955558 -0.0662424 0.154937 -0.155058 0.0871898 -0.0653733 -0.0818337 0.1782 0.0669605 0.156723 -0.124732 -0.0668799 -0.132364 -0.109938 0.0570828 -0.0403647 0.143308 0.0300615 -0.0568206 0.115901 0.0258572 -0.178205 0.041862 -0.130376 -0.12505 -0.0376843 0.180726 -0.164102 0.120589 0.180503 0.0468775 -0.153194 -0.182736 -0.15763 0.0948455 0.189997 0.0735376 0.0680552 0.025946 -0.125163 0.143377 0.0367907 0.0201493 0.127171 0.0242207 -0.0408875 0.107413 -0.111822
1797 -0.0904795 0.0783469 0.101563 -0.0634854 0.0751519 -0.0879628 0.0476488 -0.0272273 -0.0448485 0.10356 0.0384212 0.114377 -0.0735091 -0.030855 -0.0691694 -0.0635758 0.0232339 -0.0150759 0.0504604 0.0067561 -0.00512153 -0.0184265 0.0107588 -0.0203206 0.00984156 -0.037188 -0.0972702 -0.0504052 0.0122224 -0.0340893 0.0163306 0.0185178 0.0214888 -0.0302951 -0.0948169 -0.0832569 0.0196452 0.0639793 0.0217886 0.0221037 -0.00453323 -0.0444773 0.106215 0.0285857 0.0245059 0.107753 0.0232089 -0.0676929 0.111067 -0.112528
3764 -0.0734246 0.0720099 0.0482431 -0.039566 0.0947134 -0.0968347 0.0555104 -0.0332125 -0.052162 0.115389 0.0342924 0.0960291 -0.0774641 -0.0385044 -0.0882122 -0.0761548 0.0330441 -0.0219944 0.0900143 0.0303166 -0.0338258 0.0840403 0.00267012 -0.133449 0.0331093 -0.0783555 -0.0705206 -0.0231576 0.134183 -0.118463 0.0781114 0.126235 0.0224745 -0.097601 -0.105175 -0.0853419 0.0593125 0.137215 0.0515651 0.0514954 0.0170648 -0.0867807 0.071751 0.0183478 0.011749 0.0831784 0.0188189 -0.0125987 0.0549834 -0.0428216
3841 -0.170401 0.163533 0.119195 -0.0905002 0.168908 -0.188348 0.10503 -0.0651863 -0.0949677 0.210054 0.0614925 0.187933 -0.144849 -0.0661933 -0.144723 -0.127482 0.0521622 -0.0452301 0.142683 0.0430871 -0.0343668 0.099641 0.0160602 -0.191618 0.0407455 -0.134864 -0.1541 -0.0621397 0.183511 -0.158927 0.12176 0.173622 0.0493173 -0.148553 -0.213809 -0.174906 0.0915189 0.200988 0.0733067 0.0617424 0.0349889 -0.142812 0.164528 0.0428957 0.026422 0.174281 0.0325967 -0.0688269 0.136316 -0.146971
3257 -0.136743 0.146219 0.135988 -0.110857 0.159806 -0.16601 0.0892132 -0.0498665 -0.097827 0.199169 0.0824728 0.194682 -0.143157 -0.0644864 -0.128916 -0.119315 0.0440893 -0.0302496 0.105471 0.0296261 -0.00172934 0.00369859 0.0102036 -0.076445 0.0125031 -0.0666987 -0.16556 -0.106009 0.0642435 -0.0823922 0.0344174 0.0920488 0.0225119 -0.0735872 -0.188491 -0.161585 0.0640074 0.132945 0.03482 0.0376796 0.00757972 -0.109103 0.16383 0.0491141 0.0258957 0.188888 0.043349 -0.095751 0.200672 -0.208726
3814 -0.124131 0.113797 0.077789 -0.0677761 0.139803 -0.149737 0.0970085 -0.044764 -0.0837592 0.159978 0.0595653 0.15508 -0.119345 -0.0711579 -0.133854 -0.121189 0.0580353 -0.0339166 0.13255 0.028896 -0.0459208 0.0864714 0.0178186 -0.180427 0.0401542 -0.117002 -0.120762 -0.0344627 0.187506 -0.160537 0.12094 0.192415 0.0459773 -0.14671 -0.200822 -0.174075 0.0882457 0.2067 0.0740065 0.0780953 0.0199026 -0.141481 0.137329 0.0405859 0.0226071 0.148529 0.0220937 -0.0533073 0.103844 -0.112466
313 -0.093349 0.102143 0.115583 -0.081563 0.0944493 -0.0871544 0.0324843 -0.0144205 -0.0499441 0.122621 0.0466993 0.127807 -0.0928715 -0.039 -0.0793915 -0.0599054 0.0384811 -0.0171113 0.0516623 0.020684 0.0196265 -0.0381936 0.000241867 -0.0104511 -0.00181465 -0.0154627 -0.115622 -0.0697119 -0.00881146 -0.0112764 -0.00643183 0.0128373 0.0149628 -0.00302831 -0.0980213 -0.0932003 0.0249783 0.0361789 -0.00301505 0.0121125 -0.00843645 -0.0419757 0.100031 0.0379704 0.0284277 0.126096 0.0192331 -0.0682789 0.136263 -0.145881
618 -0.291794 0.308769 0.315499 -0.238785 0.300123 -0.295384 0.147514 -0.0883467 -0.154748 0.371046 0.14826 0.379025 -0.25991 -0.121159 -0.239555 -0.223128 0.0932839 -0.0597654 0.191321 0.0390152 0.00849359 -0.0729843 0.0238279 -0.0881293 0.00386653 -0.0838646 -0.305184 -0.188383 0.0796698 -0.0899151 0.0296568 0.0893463 0.0404857 -0.0969358 -0.341753 -0.280605 0.101234 0.185436 0.0472817 0.0564978 -0.00254538 -0.174026 0.335274 0.107969 0.0680144 0.38369 0.0776527 -0.205958 0.416871 -0.423142
2241 -0.138475 0.129852 0.159553 -0.107862 0.123079 -0.14278 0.0572629 -0.0440224 -0.0698847 0.165518 0.0732829 0.183885 -0.116071 -0.0614682 -0.110516 -0.106925 0.0547963 -0.0304421 0.0901037 0.0209065 0.0236596 -0.0601364 0.0192554 -0.0154642 -0.00367915 -0.0192081 -0.149505 -0.108109 0.000995504 -0.0153845 -0.00859918 0.00815408 0.0216765 -0.0276477 -0.155447 -0.138586 0.0486212 0.0724969 0.0218312 0.0174573 -0.00866108 -0.0687076 0.161759 0.0583109 0.0357818 0.193599 0.0456461 -0.109382 0.210071 -0.219248
1689 -0.196876 0.202538 0.218932 -0.162975 0.175219 -0.17404 0.0738235 -0.0410999 -0.10909 0.223142 0.0914349 0.235328 -0.160658 -0.0873774 -0.152538 -0.131502 0.0541872 -0.0271488 0.100866 0.0344423 0.0205078 -0.0820497 0.0142563 -0.023199 -0.00973363 -0.0412355 -0.209443 -0.147341 0.0276212 -0.0425738 0.0063048 0.0198003 0.0194221 -0.0268902 -0.227875 -0.173468 0.0504472 0.0946192 0.0181522 0.0187466 0.000125599 -0.108454 0.21926 0.077761 0.0506792 0.255881 0.0577977 -0.141121 0.271254 -0.288982
3089 -0.270348 0.287065 0.305676 -0.221803 0.193737 -0.201765 0.0957494 -0.031956 -0.116017 0.289248 0.120875 0.326382 -0.208269 -0.106417 -0.17077 -0.173125 0.0789835 -0.0469567 0.106309 0.0349547 0.0701565 -0.162004 0.0109317 0.0460411 -0.0181859 -0.0112146 -0.292695 -0.203155 -0.0581599 0.00682694 -0.055881 -0.0450057 0.0306788 0.0139138 -0.283177 -0.238732 0.0651453 0.0939836 0.0211111 0.0277786 -0.0119179 -0.126202 0.3079 0.10822 0.0596692 0.373014 0.0822082 -0.211662 0.440903 -0.448033
3409 -0.21007 0.203117 0.254163 -0.193674 0.170088 -0.184293 0.0727962 -0.0435285 -0.105158 0.243853 0.102126 0.264239 -0.177866 -0.0773957 -0.137586 -0.138865 0.0615821 -0.0291341 0.102722 0.0212794 0.0539099 -0.142567 0.0195568 0.0400634 -0.0200697 -0.00798392 -0.23693 -0.172647 -0.0554931 0.0121068 -0.0544257 -0.0506774 0.02291 0.00856481 -0.214909 -0.169511 0.0297215 0.049781 -0.0128653 -0.00341675 -0.00959723 -0.066915 0.214249 0.0787656 0.0447246 0.257236 0.0643493 -0.162958 0.308422 -0.331256
541 -0.0991236 0.103467 0.131065 -0.0851136 0.0928643 -0.0797121 0.044245 -0.0264172 -0.0470269 0.124433 0.0491532 0.136006 -0.0775691 -0.0389812 -0.0728956 -0.061021 0.0229079 -0.0127189 0.037543 -0.0004729 0.0206134 -0.0949096 0.00875346 0.0333564 -0.0142156 0.00307324 -0.118033 -0.0970226 -0.0415802 0.0163746 -0.0430593 -0.0275997 0.00233344 0.0284568 -0.108734 -0.0888065 0.0134536 0.00392499 -0.000616912 -0.0117194 -0.013148 -0.0325657 0.118245 0.049411 0.0291659 0.134863 0.0282576 -0.0803016 0.158047 -0.177781
3211 -0.500802 0.534213 0.460829 -0.322409 0.326122 -0.316232 0.1265 -0.0744354 -0.177359 0.430574 0.195284 0.459934 -0.296928 -0.158862 -0.246883 -0.243405 0.11044 -0.0543873 0.193362 0.0299426 0.106256 -0.266726 -0.00631448 0.0542761 -0.0637351 -0.0404411 -0.339957 -0.25102 -0.023964 -0.00972824 -0.0552498 -0.0113124 0.0476444 0.00485057 -0.374751 -0.308069 0.0533955 0.046279 0.00834102 0.00644212 -0.0222003 -0.134292 0.36384 0.141782 0.0995969 0.511298 0.125055 -0.319881 0.614992 -0.651441
1222 -0.171347 0.18749 0.212137 -0.157681 0.142739 -0.13887 0.0681338 -0.0373393 -0.0781479 0.206565 0.0908189 0.230253 -0.132175 -0.0747093 -0.122422 -0.107934 0.049783 -0.0338293 0.0814132 0.016619 0.0282372 -0.117921 0.0203155 0.0195858 -0.0196007 -0.0025421 -0.1948 -0.130969 -0.039968 0.0133042 -0.04618 -0.025816 0.0104915 0.00513407 -0.171403 -0.142735 0.0238422 0.0451083 -0.0128659 -0.00318214 -0.00200801 -0.0693826 0.186092 0.0675896 0.0262995 0.2302 0.0443032 -0.139141 0.253863 -0.268881
2103 -0.362724 0.363744 0.390297 -0.277081 0.301808 -0.30078 0.146155 -0.0643713 -0.1716 0.383728 0.167983 0.429482 -0.288246 -0.140602 -0.274725 -0.234733 0.103717 -0.0713213 0.202176 0.0519878 0.0412152 -0.149827 0.0268529 -0.0374108 -0.0244144 -0.077328 -0.350273 -0.23531 0.0245077 -0.0518155 0.00464571 0.0449434 0.0513276 -0.0460343 -0.39387 -0.32941 0.0861369 0.175178 0.0558553 0.0520417 -0.0073633 -0.178683 0.383979 0.12839 0.0858181 0.473301 0.10975 -0.272439 0.530863 -0.556466
3008 -0.247463 0.242174 0.255648 -0.176711 0.209962 -0.223078 0.108428 -0.056552 -0.129876 0.275041 0.116589 0.294321 -0.202774 -0.0923922 -0.187534 -0.15437 0.0641063 -0.0395639 0.13141 0.0360995 0.0195126 -0.0565804 0.021137 -0.0634347 0.00763498 -0.0822356 -0.239929 -0.151487 0.0473576 -0.0570701 0.00783283 0.065166 0.0361012 -0.0705534 -0.26417 -0.227217 0.0853726 0.138952 0.027775 0.0473312 0.00188415 -0.147353 0.266925 0.0879703 0.0546896 0.32713 0.0623705 -0.171554 0.338018 -0.366495
22 -0.104117 0.0913868 0.109167 -0.0832034 0.0804121 -0.0662835 0.0295056 -0.00778471 -0.0339399 0.10742 0.0517703 0.123924 -0.081451 -0.0456519 -0.0573273 -0.0645617 0.0350007 -0.00421472 0.0378483 0.0155867 0.0184991 -0.0799655 -0.00411536 0.027287 -0.0151108 0.0133285 -0.102163 -0.0710611 -0.047151 0.0263426 -0.0425824 -0.0408049 0.00499951 0.0164262 -0.0960089 -0.0753379 0.0188688 0.00949316 -0.0172847 -0.0119913 -0.00884028 -0.0240434 0.0906171 0.0460131 0.0154316 0.114546 0.0336867 -0.0777362 0.134645 -0.157251
